name,vector_0,vector_1,vector_2,vector_3,vector_4,vector_5,vector_6,vector_7,vector_8,vector_9,vector_10,vector_11,vector_12,vector_13,vector_14,vector_15,vector_16,vector_17,vector_18,vector_19,vector_20,vector_21,vector_22,vector_23,vector_24,vector_25,vector_26,vector_27,vector_28,vector_29,vector_30,vector_31,bug
org.gjt.sp.jedit.gui.MacrosMenu,0.008524032822725432,0.12277572220876413,0.059232728908075044,0.2994162098251585,-0.23621149976488134,-0.122061331153172,0.04184931047825363,0.07990413760053194,-0.11116185795817346,-0.023270032133043905,-0.14138111325910127,0.01715631564386835,-0.04798893287779919,0.433672991738107,-0.02395578909107814,-0.4456734245968253,0.021707819725032263,0.11684821841548274,-0.16096220958412458,-0.32259565075861274,-0.06479410268018933,-0.07130789074749312,-0.06134263797262132,0.0027774767457443253,-0.10264973885161116,-0.08475841011873532,-0.20320442738653455,-0.16934777345850918,0.2753268317036445,-0.1531926213016452,-0.20781575344889877,-0.05292982361294034,0
org.gjt.sp.jedit.options.ModeOptionPane,0.0005133387794049658,0.05079205878706536,0.03227597866767504,0.07799702530967627,0.036092852196066866,0.06011884951463314,0.005882768624926332,-0.12068082718018124,-0.14673786584142057,0.0001448955188621164,0.013322535639066529,-0.010678899237226711,-0.09643706675335198,0.14922112701093737,0.39477957872697195,0.4255633713869544,-0.0034314650320892088,0.18721515111145845,0.28776339639611803,0.06364726144195591,-0.14124358606308715,0.05589494959228983,-0.36223510410115506,-0.4131701333118572,0.2064358281553342,-0.061376496729201716,-0.2515250417628217,-0.023218455271526637,-0.06433972836316153,0.04683876525356073,0.11450799491769403,0.062316185367435016,1
org.gjt.sp.jedit.gui.OptionsDialog,0.0006868057788318118,0.030754875629520947,0.017948310106887053,0.07477458162456317,-0.05965809007629015,0.037888270170967894,0.0047775066828803165,-0.009710129470093662,-0.092165244450742,-0.08375890639220518,-0.04207627301027382,-0.020165761651519322,-0.147702622884764,0.031095105400852415,0.476286844939228,0.310873028939775,-0.05439503307244991,0.17895293686190494,-0.01595595973028499,0.09486462593392794,-0.024511342382044665,-0.11970216747924549,0.3088579727993518,0.5163008915556324,-0.29197275915087495,0.1315756636554342,0.0750327863345749,-0.2709235451181958,0.07866067454294752,-0.031159790836241534,-0.049552781667460584,-0.10834000881069636,1
org.gjt.sp.jedit.buffer.ExplicitFoldHandler,0.001959196500210576,0.10076789572729115,0.061286432919617176,0.19041115387974972,0.2331863593755984,0.034909507872443214,-0.018292691041234897,-0.1450116980466357,-0.07316216703148666,0.17782797385792382,0.10099660177874638,-0.0008568699860080214,-0.0697283704597064,-0.07905438349576914,0.33446123487580004,-0.021617195834019186,0.2746234545205923,0.006278860763786572,0.08810403573964469,0.06856403558932535,0.48413808406668124,-0.3173311351442813,0.05195696607602116,-0.42850846331725306,0.10150838660900208,0.041928799943592006,-0.1713619753751487,0.16606837992414464,0.08497087939436623,-0.05877270589101559,0.09860609081194711,-0.05933431282833835,0
bsh.reflect.ReflectManagerImpl,0.11590725803322521,0.05313546859766651,-0.06416207923171866,0.007146340163207555,-0.07451612113811092,-0.061206713758617436,-0.0033723416490096542,0.17188832553047906,-0.05818345553216687,-0.03517433999437644,0.8404446998148704,-0.006902238793879751,0.04644499815192301,0.04845133738967436,0.016295006193141615,0.02778774008741528,0.1002685284840769,0.11956807208545456,-0.03088298754951515,-0.1260695968703514,-0.1157975644378648,-0.014716807398485358,-0.009116758240116643,0.1067916149514991,0.024100851815178816,0.013709444943636483,0.0772722456429304,0.0574891502950166,0.09863991538179424,0.15129302525078367,0.22569070335043245,0.25347036945410156,0
org.gjt.sp.jedit.gui.CurrentDirectoryMenu,0.0014406450295833021,0.08084840923952798,0.05094959836155711,0.14480267165835636,-0.12663273538898046,0.12464080776813952,-0.015526265055185996,-0.2531145218053206,0.1437261395386874,-0.3469554821082754,0.0587508972570495,-0.052061440975194696,0.02712403210938953,0.05646852436731388,-0.09257160578172106,-0.045919828857771135,-0.06335504735013481,0.11052050831652038,-0.2616199323008619,-0.10291093482479598,0.2904732730854577,0.14940461373104616,0.16730091237505187,0.011792141769312774,0.05589309648348266,-0.1607576079071387,-0.3310963310860683,-0.2796739638955041,0.05309841574809344,0.46510839358212364,0.21237128831621618,-0.03275795595537647,0
org.gjt.sp.jedit.gui.JCheckBoxList,8.972678974412594e-05,0.015473298859748656,0.00915162649659319,0.0419588074635255,-0.1320960737973093,0.6760551375657419,0.00858833924108405,0.2974580378189967,0.17857489610340171,0.21626010745067173,-0.012893438905986172,-0.0671390071396682,-0.09060846001432493,0.04241826883317972,-0.029806462436744265,0.062207544014363424,0.1994249382378524,-0.1997549487261129,0.2242471004394547,-0.1052960831743487,-0.036274851700991005,-0.16424078333821937,-0.006766799791636988,0.04490271329054423,0.062326080960494794,-0.012010398170776647,-0.1246536937617399,-0.04170640159590049,0.11061621179980272,0.14110560522991986,-0.08110385566751378,-0.3245488284632703,1
bsh.Node,0.32098345106093684,0.2631813517642428,-0.4021784889888729,-0.036358053732492956,0.08675513868802263,0.05643395600691379,0.001021238830274105,-0.13889993281255375,0.036735092465016946,0.02011337139356247,-0.5004527158740806,0.0068805161859609885,-0.01574092842030847,-0.040938169887550994,-0.023754257434724917,-0.0033215420145548094,-0.1151315088347638,-0.14271908876449677,-0.033745066745621034,-0.01020006052314237,-0.04339480382972012,0.056458324900001966,0.04234621572844938,0.02472170854355146,0.12587983946905057,0.2850616544662211,0.12328254942980107,-0.05737610745885848,0.3059501375862091,-0.008768748852223786,0.3409813711655525,0.10948991745819762,0
org.gjt.sp.jedit.options.ColorOptionPane,0.00019950135748893913,0.02012733209612643,0.012127096094246824,0.04448653059563756,-0.04478585540983863,0.04735658806606838,0.003930069163926968,-0.037708468513033326,-0.03936866808871781,-0.1359297019487759,-0.03544974156378717,-0.025706662897928827,-0.08160512955246223,0.21198756026365773,0.32423422026885196,0.5051383063608113,-0.08995722587247752,0.1796557191957689,0.0014152721135778008,-0.03291430248962521,-0.10780267731622038,-0.10191676460947263,-0.42523739548620726,-0.3022222075191988,0.3782734359889424,-0.1409739297401436,-0.1529197851935178,0.05693396727113024,0.09223549461735064,0.07955266194409544,-0.09986915164595175,0.08899642563657474,0
org.gjt.sp.jedit.search.BoyerMooreSearchMatcher,0.10805643069919839,0.26104573492808364,0.09868880862052286,0.07884075119240916,-0.1578172105676293,-0.15014175171947675,-0.3406441688166047,0.2055738013498903,-0.0550425117035371,0.13653154107086068,0.24247424842900459,0.015720527150070017,-0.14796038809319811,-0.37557828301859436,-0.2725811912276246,0.26949042438439985,0.08110558348334856,0.19452278332174308,-0.12320430681971024,-0.02205839910487286,0.02337420617033253,-0.21327312636869772,0.06110008425189566,-0.1522970119387676,-0.1174829846994475,-0.22549523386629136,-0.03225188475835229,-0.08049597524725446,0.21976389697563312,0.17058249428096509,-0.09644086706658402,0.12640948611631647,1
org.gjt.sp.jedit.options.StyleEditor,0.0007912600609344084,0.037715783652312485,0.02257147594742038,0.0983796482269785,0.060170780560940225,0.03706520916172939,0.013338687200743842,0.07927053990994799,0.05753493764079095,-0.17606123762092263,-0.03822942436728344,-0.032994153893989964,-0.15551918658811287,-0.10483976745733375,0.28042540496922647,0.1519562670159839,-0.12480837313628157,0.05038226583807798,-0.05810941144222979,-0.3279365919225476,-0.1480964203320566,0.23285367963512948,0.10380726909106287,0.25482286430173384,0.14163057905768492,-0.24742572682840572,-0.09110773736050086,0.024212664115680294,0.11922262924478363,0.0931123298413722,-0.06572229275845828,0.63631796106919,0
org.gjt.sp.jedit.proto.jeditresource.PluginResURLConnection,0.0033173824963349694,0.061718481696142774,0.029587840283354504,0.13648520251803098,-0.15901870046770472,0.24555534937501125,0.01130465398250657,-0.012626263083438994,-0.07553582097193164,-0.15188643710534985,-0.009708240010418008,-0.008308878083949773,0.08267371977245554,0.10941864981843209,-0.07087800542740193,-0.005928408659167438,-0.32319867305195443,0.282081176781257,-0.2878540697063615,0.3111022126179314,0.17892597283511696,-0.002065382361552661,0.10242616216577705,-0.17989743624364748,-0.024501766244573536,-0.05516853311300871,0.2995895091711038,0.2382381119529409,-0.18253854048091278,-0.46114134494262043,-0.02670233463923528,-0.05114068094663586,1
org.gjt.sp.jedit.Buffer,0.006396782075468192,0.18339968049274952,0.11268568200593113,0.3405700526453892,0.3200427778517002,0.02284345750813202,-0.027492577106589016,-0.16082611627859894,-0.0294780146623057,0.28288183550822693,0.07370287476124543,0.0058557727917425955,0.11020201578863821,0.2413419304746846,0.06364025169067379,0.0918220993702805,0.246139595889229,-0.05419661247799415,-0.03940578961085406,-0.1339956155487548,0.1504508739218267,0.4816012838991776,0.10299131753500487,-0.2768799315978599,-0.16660279050181015,0.14350966299375967,0.1465572803269472,-0.18632966083436048,0.018998230069752695,-0.0416088004217233,-0.06891977822402948,0.05071696889520899,1
org.gjt.sp.jedit.JARClassLoader,0.022477738273516255,0.12872640960121978,0.09344038972040188,0.29191978297531623,-0.2807209245279559,0.24885323574063625,0.002222342819520552,-0.06502228030203568,-0.13287388558688557,-0.3103976072785631,0.038522550173777315,-0.01380216765842188,0.054368799982557066,-0.05779824212440395,-0.06910451483835782,0.011477015357467452,-0.30000111222488357,0.28300608558563156,-0.34879375978883376,0.192334473235665,0.04577155172785169,0.2930089548958526,0.05729159556621518,-0.1060744525609522,-0.12993896108225056,0.15470891842537204,0.10705273357099004,0.29970918002516655,0.04550747043873443,-0.13321746812020013,-0.0016446035779844811,0.15485174057399637,1
org.gjt.sp.jedit.gui.DefaultInputHandler,0.007244399842782626,0.17300460818870816,0.09628628989925082,0.41643230564218137,-0.23422007783798723,-0.06047282268495386,0.04255637353750436,0.037859018631489716,-0.17961418580406466,-0.31114831408539345,-0.06008636994533068,0.07455992065905956,-0.2937696703061259,-0.1404256313047448,-0.0736268648620934,-0.251560100119316,-0.09390023828403611,-0.06404265966692982,0.29988395038559595,0.1304996433020218,-0.17878743459188828,0.2835382870849043,-0.06463598451521371,-0.11957401902588491,0.11243908661671843,-0.00023533903350336088,0.07629700696517963,-0.08354686111296383,-0.04330165591874861,-0.24542900907383797,0.17028223078191285,-0.21292695222913388,1
org.gjt.sp.jedit.options.EditingOptionPane,0.0007195115115850396,0.06630484028961627,0.042193393456429286,0.09700571708920731,0.04903011613255477,0.06997950991567431,0.014348088692485519,-0.13959823664606208,-0.16156753481960853,0.018709336140991604,0.0198429844164269,-0.008013312098420131,-0.0917162384719212,0.15765196844451565,0.37542896865218484,0.3975619539103227,0.014293624409625188,0.16880947293311085,0.27977620601744635,0.08722996624300067,-0.12570596419926214,0.0791037929514179,-0.37401263817339786,-0.4655711295419371,0.19735116286156887,-0.08150791681676048,-0.2100754774831536,-0.017958073151952855,-0.06926997486295994,0.011411661883688954,0.07832335667594087,0.061993976861364555,1
bsh.ConsoleInterface,0.4193657444634078,0.39043657275044874,-0.5769330102501591,-0.041936101656376415,0.014435018921213164,0.014317901663638935,0.00477799965645218,-0.0393840426149628,0.020595138091422042,0.00039683804944263846,-0.20298557889257804,-0.006761596315554339,-0.025994434065751734,-0.015756757395043928,-0.019902637796986984,-0.029628426028052726,0.006349499501230286,-0.010542499958299024,0.005952229402411932,0.07726403905151229,0.036157386494609034,-0.04771096439958395,-0.05226027660650123,-0.07569547441665628,-0.14979475844845877,-0.11607976460314795,-0.11429868556983483,-0.11379901408714613,-0.21058910764599217,-0.07330876422495358,-0.3579524971135393,-0.18232473907962055,0
org.gjt.sp.jedit.textarea.JEditTextArea,0.003491495465999633,0.11225094963376742,0.06242056979314667,0.27826384861600495,0.28397637937915937,-0.08385251347910816,0.03544606366331962,0.30003218063406734,0.15595001149900484,-0.1001646964389246,-0.028361316304751805,-0.00530729686232177,0.010866387600449787,0.12914639670356778,-0.1701599841115797,0.11015929900349519,0.0048969876181469705,-0.019759355734602413,0.28868701359137666,0.29551390081021917,0.34855559655230656,0.1807774666461251,-0.04819498130890328,0.23588986529309705,0.34093747136210023,-0.01609550788628209,0.27908937946586326,-0.20408341889057824,-0.11250311050131814,-0.019500311360110364,0.007736962895636389,0.041010219756129555,1
bsh.BSHFormalParameters,0.5021678495354494,0.24483942408499296,-0.35852590531907713,-0.027319592173481348,0.007060305420545257,0.0049216073983221215,-0.005662483678023587,-0.01903301182483587,-0.007306191799477774,0.009936035480138116,-0.22801928621539327,0.0030394659659628643,-0.00897876938678269,-0.11778809153788959,-0.13855881024748543,0.0785594374675134,0.3818684592716147,0.4595283890651878,-0.03494113757905019,-0.07983017548418371,-0.027585985648464324,-0.04745891261221625,0.013888419729959528,0.031239136390074244,-0.0002762962631452958,-0.15524317624257208,0.15528812575523132,0.054500188901486224,0.09709646829280734,0.03221175108883489,0.1672825693148204,0.09081262831340196,0
bsh.ReflectManager,0.23891062138006766,0.04197488082307866,-0.045601185435865346,0.007004809776996781,-0.08046253626939433,-0.061024836639621716,0.008028597642194966,0.16941996706348142,-0.054887154873484105,-0.024032470102529416,0.8002940332340617,0.01173983530891345,0.01034930415056248,0.11193817231464288,0.010791870037135429,-0.01236759297850164,0.04275949070509213,0.1068194745560096,-0.017629565094358993,-0.10913443903940284,-0.02549469606798056,-0.029611911391245763,-0.048775605270829116,0.0618081317102149,-0.11969515609909817,-0.36303346689588434,0.23680184044600258,-0.04235168875864963,0.04093190467123639,-0.0502539109268901,0.03769060062335171,0.012795826161176842,0
org.gjt.sp.jedit.pluginmgr.PluginManager,0.0007980822395318534,0.04446799856392794,0.02715271901646936,0.10296107594116634,-0.16238389285664243,0.4156705821764758,-0.0028073884266962357,0.030658753397529572,0.08235228167269835,-0.07867814309703075,-0.011296431923331563,-0.05677567760760424,0.042603554948603205,0.06598265989899073,0.048737765974504486,0.01771512920717407,-0.2605612890717009,0.2741639706724432,-0.2944621041165738,0.1349571090888769,0.1217886381899984,0.1288248222487168,0.30359226152465596,-0.05718501545502753,0.07770523618125565,-0.04267728531339083,0.21611482267871404,0.22397365065184646,-0.10039290165387997,-0.5081977110589107,-0.014203512008979804,0.1152533274332875,0
bsh.BSHPrimaryExpression,0.5494545600764276,0.34956507326673464,-0.5346860505456756,-0.0534070385080318,0.03933022207823855,0.028555433492876953,0.00510545491959137,-0.062390091186662104,0.04160209491037851,0.009832674449001629,-0.13749141483838842,-0.0040794646266721,0.008580948609893604,0.04094143945279366,0.07243971457473987,-0.03596437029740583,-0.2202599508595195,-0.29337938143621706,-0.019813727624802765,0.051848516760275944,-0.0039957920788781884,-0.013235864515563694,0.02487774235672004,-0.039130372214022796,0.03053654446537767,0.13901372662223985,0.09883865830269253,-0.08659264947302084,0.17522978260200556,-0.012757115954630117,0.20479226753642576,0.038756985007441666,0
org.gjt.sp.jedit.Java14,0.00013738549086262134,0.01096650442069919,0.006275491894729629,0.03077266806078189,0.03673120559837525,-0.014476954533812406,0.007114109273385546,0.06368884973625692,0.03621429780421128,-0.04426274189471749,-0.010171087715045293,0.0033211271139806666,-0.03209864339173466,-0.02278699118527579,-1.0089267674412422e-05,0.009647491415722834,-0.01863792402081012,0.01046335273688994,0.20697481258014663,0.12035053602751265,0.08672416877236562,0.277543935109807,0.031373381558490114,0.2936535683286957,0.27652430979346354,-0.2145054088336282,0.17533155866701083,0.4141415378650473,0.44924372946488744,0.09344173398203781,-0.1521442746537623,-0.44745954094444446,1
org.gjt.sp.jedit.EBMessage,0.005448257466013391,0.15803112548289475,0.08898602201277463,0.3590206725040043,-0.1618350862327686,-0.12078622088074671,0.03377982044225176,0.02550750619194477,0.06855435932813309,0.1782315030307657,-0.07919306546992841,-0.002538993432975548,0.0646480858961803,0.027588612222398903,0.2235804601036884,-0.3258937979770133,-0.04914409632420881,0.09040838239757044,-0.038788492952255955,0.024636484609353474,0.30887498030503246,-0.3620083879577334,-0.3696819153931775,0.19778102689752017,0.16402544201525845,0.12693562692839305,0.16126854406098198,0.03065721133329971,-0.18374403778445442,0.14937755972995628,0.14912366885257924,0.16886933583537425,1
org.gjt.sp.jedit.options.AbbrevsOptionPane,0.0006391022472898581,0.05362063453725016,0.03361439603107711,0.08714237600850983,0.03603085913991224,0.059448108174133096,0.010348861442887174,-0.10434557009423563,-0.1376366127789628,-0.01260187773078747,0.018560358966825924,-0.00383469701155589,-0.09554496967030988,0.1642591666003006,0.24690604592574167,0.36876329559197685,-0.08870955826199782,0.17839294679476805,0.3103309529331384,0.21237216982530696,-0.13015185700284915,0.1748293486155778,-0.3972090069802108,-0.18868977310187646,0.1960734409390127,-0.20201606308271844,-0.3102268708341711,-0.07158909746921414,-0.21971763511273462,0.18437587082778173,0.12922780975155687,0.1359307274195013,0
org.gjt.sp.jedit.gui.AboutDialog,0.0030177987726358138,0.08738665211224053,0.04967173422128171,0.2115077021681835,-0.15345737151374433,-0.08413626787388451,0.024584182885852877,0.08339870206853316,0.007130604148766023,0.061620115427943836,-0.06865560413048581,-0.01044859659659322,-0.29661950086287914,-0.406395398563744,0.4958602769929541,-0.16276533559147366,-0.1045162698853407,0.048776657213451625,0.13720455015482128,-0.0275680320315901,-0.1892449105877494,0.2974985724763452,0.23080173741151155,0.18104982281724524,0.03098931002735926,-0.06095957061989693,0.1974189674237897,-0.06805934692383007,-0.11202705904747957,0.11737504527431707,-0.03050351209743437,0.23235175018679688,0
org.gjt.sp.jedit.search.SearchDialog,0.0034156953479731033,0.16135281465155646,0.09907134954009753,0.3047112982084856,-0.2636361379572207,-0.18567412632583755,0.009162903487391886,-0.0973313602196212,0.37568852467892055,0.3274379229300908,-0.03547033654305193,0.0012952466647399587,-0.12903770090564848,-0.049761944348953535,-0.17385819387521084,0.33806836081272473,-0.20113462649674457,-0.12489445373471213,-0.3084581642955078,-0.2111606032980356,-0.31399959524860493,0.07600044287297773,0.06293361925132758,0.04895420710311892,-0.031207100833686583,0.00864060710331031,-0.016399688786025733,0.1289294330044752,-0.03882562151922585,-0.06218099966557857,0.047733039501841455,-0.11127212795607219,1
gnu.regexp.RETokenLookAhead,0.0018560176985852523,0.333410412569026,0.24178272657993452,-0.18056411202542896,0.009292832617316709,-0.0009241324866356167,-0.8798900938850245,0.06979225116668306,-0.04956930731118261,-0.016515513602890237,-0.03660272447323814,-0.0012904129467969732,0.01955551554091967,0.04567709598365876,0.03886286762522695,-0.031115720732664564,0.009343514542145253,-0.00855224861993389,0.0337903119928597,0.003927948573087373,0.006989196691495299,0.05647459499252692,0.0015478747627174193,0.028494310800638772,-0.021190896764625818,0.041165785927820164,-0.00459855683174215,0.017363882769412694,-0.02225010016815977,-0.008122168755741862,0.027634446259901163,0.02066780863473385,0
gnu.regexp.RESyntax,0.022981990207805194,0.4803011331645696,0.3472241258407949,-0.17343365969440264,-0.006246517953803486,-0.039904726475283946,-0.5629330116330431,0.03781743223424986,-0.013225354542625429,0.09485234896254813,0.11631432245615729,0.006979718564916081,-0.032972941387986836,-0.00866349865028759,-0.11987283579102631,0.16587725332914913,0.1351667260668581,0.08545858185387502,-0.04536074651270637,-0.0391591857248791,0.04466056298713171,0.19768114604938172,0.02528046049150636,-0.11457038710795167,0.016349383401144835,0.13688158098498918,0.10266568231612741,-0.20601132360266317,-0.07815537319012152,-0.20334340856758115,-0.0022259874965943104,-0.1701128131486699,0
org.gjt.sp.jedit.search.AllBufferSet,0.0019832984895173963,0.22624623635354463,0.15211457018333766,0.1617306022378223,-0.2162202566799319,-0.0025727345638578295,-0.36131139623020325,-0.1924972833250674,0.3268405201366476,-0.03647454400062969,0.007596988907397745,-0.04464341341119673,-0.10691844099230671,-0.10964645059169283,-0.06470759114575039,0.22951552275265052,-0.1987240236774477,-0.065458748230889,-0.28713628592125845,-0.18534659265258843,0.16682342405496559,0.03916786200905223,-0.03122116619825252,0.17957891700267292,-0.09522361665704633,-0.07558398209134258,-0.1895646922477992,0.35434770342783756,-0.1954836133691596,0.14701867753970402,0.18699819789800542,0.019786313938043875,0
org.gjt.sp.jedit.textarea.FoldVisibilityManager,0.0028221426398936473,0.13254428518227102,0.07747952056555721,0.3335407745376911,0.6437480247434869,-0.03818888269435612,0.029711673355145584,0.4004500906897411,0.2804608039987992,-0.2215440706562782,-0.0010615628148724003,-0.02478538309112262,0.1101353168101551,-0.037957995687407015,0.12707088245925377,-0.08377489377873489,0.05559238775625367,0.03052214296797036,-0.041013411373564145,0.03392372984253191,0.061389034798189544,-0.23151816627691982,-0.01929795549986344,-0.1298620508963703,-0.07920288403261547,0.11698628334335695,-0.023529692246686756,0.11058300990474751,-0.023406080495871385,0.05545687939094024,0.05240761276623655,-0.048942407186590195,1
bsh.ReturnControl,0.3646857011093987,-0.15483230450687924,0.20025106954526442,-0.0021452202727415253,0.03029758755695945,0.026599854974516432,-0.001072332687857537,-0.08187077849303694,0.026966420248946143,0.0098562826349691,-0.5237617115961342,-0.0014068691974666646,-0.029261338299486288,-0.11041724623356143,-0.09040053911125291,0.041914237828233634,0.23464101131597706,0.2706250750122718,0.031794590941930136,0.04259411954966173,0.06115270129787748,-0.005960995307848935,-0.016707372235988276,-0.037610346912448425,-0.05459528319535509,-0.07625639522955478,-0.209823664873536,0.05911358852100722,-0.3223304632037669,-0.002258925578702116,-0.4096130293643636,-0.17854285189925473,0
org.gjt.sp.jedit.gui.BufferSwitcher,0.0013539339267074587,0.09215376221969565,0.05396284524640631,0.23455577383495121,0.1555820570553374,-0.12098085211295774,0.029335464909757688,0.18767348660721747,0.14857293314736958,0.1495223337026434,-0.0777148966994719,-0.005128723364731453,0.09179802751551569,0.14132122343053521,0.23804104256091624,-0.2718021885364561,0.06859137169161098,0.009175886024636452,0.08085974020090438,0.035275640565596185,0.47290219427289837,-0.2878602301028459,-0.250070901428883,0.17585886515228338,0.1835920546805093,0.2554982507136693,0.1330427389706809,-0.01485381092921102,-0.12938719438894802,0.23265223124080106,0.18498804755431789,0.12120061591879779,0
org.gjt.sp.jedit.buffer.OffsetManager,0.0033157755964237923,0.1458124860904389,0.08681692657584078,0.3221915670539093,0.5957321466530371,0.1484156412866798,-0.031044419895304584,-0.26596923527594196,-0.20784185181024756,0.24230648193273543,0.18884320784587688,0.01619550361536224,0.030853450733231248,0.02774109835340463,0.08387981298124536,-0.06867463574251449,0.2797455758802288,-0.07198797127007803,-0.02679794038799252,-0.1410930883693183,0.1456067910724138,-0.09795529113899397,0.1789392952907695,-0.1577630846525234,-0.05730486289431064,0.11906320858417525,0.1583072978821295,0.05815952106478828,-0.059412184512012856,-0.061970515581719565,-0.06865158674168137,-0.1330052797117573,1
org.gjt.sp.jedit.View,0.012998643728236675,0.1880512405266441,0.10631457409206695,0.4323433267059119,-0.2176400362192972,-0.23179437687104665,0.0394417247570204,0.1729265252041557,0.024520098104310863,0.20878241277753384,-0.12595617726646585,0.007111105551010516,0.1001668499020053,0.43629176296713984,-0.31432134031994835,0.26253445816896065,0.08038909098314494,-0.20537707995778756,0.1910017698420448,-0.0048690306673151535,0.00605297710123531,0.0023318905751779765,-0.0781986036719956,0.15257049231226028,-0.19468362401543757,-0.017046112068136967,-0.14701783460297738,0.12525882204098926,0.08725447808563597,-0.06784900092048053,0.00441610287271703,0.056224103004955304,1
org.gjt.sp.jedit.io.VFS,0.0024212518285818612,0.2275529180976679,0.15095484780210772,0.20372570337237533,-0.11877820918727486,0.037621128556084606,-0.18496914226674607,-0.4634274130859528,0.40810028413998917,-0.2008112400851794,0.12479749175772503,-0.06669219924143414,0.19087495118784464,-0.1426289342746596,0.16445332138456634,-0.12542993428784066,0.28219644800713,-0.05908807291893639,0.2915337052687381,0.046378135788672906,-0.044487167850324034,-0.0019930947469941674,0.15412161618090375,-0.0031242673527782845,-0.06820839777386697,0.01456762787417547,-0.023671631980248336,0.24956117306043005,0.057687672089130095,-0.056543016274839104,0.1378322477322154,0.06106729993116621,0
org.gjt.sp.jedit.gui.JEditMetalTheme,0.002497593798070926,0.08174886088289159,0.04883717569896212,0.1941731317863464,-0.07120779104673373,0.09346945564279131,0.011770629381562741,-0.11435826854599247,-0.20192157707583716,-0.07547723760495799,0.0390128521667317,-0.004427395578003881,-0.08590785445155438,-0.1311494177206396,-0.07659986218308555,-0.14330980975699278,-0.18103787606708793,0.13219626061548792,0.0011014321223169097,0.17290987202079486,-0.15339592074455558,0.3189818064378146,-0.5830393452826477,-0.020913318858823936,-0.3992061177582245,0.25067804569059643,0.1866179808689013,0.019135918943626547,0.07015086155435435,0.10679777354385132,-0.0008346811105372964,-0.08761413781427475,0
org.gjt.sp.jedit.buffer.BufferChangeAdapter,0.002172762989859792,0.10793188287526104,0.06564774262981207,0.20549207870724348,0.2871939506961304,0.03280129306786229,-0.022017678195660677,-0.11960292961895541,-0.03233142929272077,0.18083371071228982,0.11106736262904279,0.0003615771100135155,-0.032678829323471346,-0.09618155332235802,0.22531227097245302,-0.10579148191988806,0.2855219932419183,-0.04630686961078317,-0.0532850844034719,0.035680402574421816,0.5527048285492502,-0.3499939945115251,0.13878011787269798,-0.31960391884262823,0.05578618928640025,0.09469906774447498,-0.02700792373999661,0.16921228311828407,0.18190685100622683,-0.02579256725166245,-0.006756717280359701,-0.11268166137144921,0
gnu.regexp.RETokenEndSub,0.0017682959271796235,0.30825480035697966,0.22428032021748343,-0.19045714377737652,-0.0068544167227023054,-0.012481375575380605,-0.8889531384166292,0.1160924511967405,-0.05395023330607728,-0.025410460281920365,-0.05324758398609783,0.004394196744679433,0.004098025636717838,0.03682427611123896,0.011580836774886156,-0.038493910516602704,-0.025582676076774377,-0.012463769986208673,-0.0017954947320369073,-0.004311435509461088,-0.021198385669493117,0.008411201042079073,-0.033600528569741765,0.025947663532381846,0.02629487973176486,0.017000528746452477,0.021712489305873457,-0.014279545133582074,-0.01427314025618606,-0.0006185901772745079,-0.007970724034126263,0.0022945973086067563,0
gnu.regexp.RETokenRange,0.0017682959271796235,0.30825480035697966,0.22428032021748343,-0.19045714377737652,-0.0068544167227023054,-0.012481375575380605,-0.8889531384166292,0.1160924511967405,-0.05395023330607728,-0.025410460281920365,-0.05324758398609783,0.004394196744679433,0.004098025636717838,0.03682427611123896,0.011580836774886156,-0.038493910516602704,-0.025582676076774377,-0.012463769986208673,-0.0017954947320369073,-0.004311435509461088,-0.021198385669493117,0.008411201042079073,-0.033600528569741765,0.025947663532381846,0.02629487973176486,0.017000528746452477,0.021712489305873457,-0.014279545133582074,-0.01427314025618606,-0.0006185901772745079,-0.007970724034126263,0.0022945973086067563,0
org.gjt.sp.jedit.options.ContextAddDialog,0.0027732292025455414,0.08242168447976758,0.04809328162717964,0.17626215314704957,-0.21396909797579813,0.09323155576358073,0.022980429575682637,-0.034991443262616176,-0.18873454591527955,-0.4617992335462924,-0.06702321453233262,-0.041134574681423806,-0.17814053581086434,0.025198635728635222,0.1271133023199593,0.1572272237716696,-0.04097847694420216,-0.13162505752744932,-0.04687794359764106,-0.37305246256839625,0.14857480417791022,0.19807391353273238,0.29801654670002964,-0.06286634287585288,-0.12844996474528744,0.07949433559249136,0.21522895078910412,0.06368328380095852,-0.1576646222735676,0.37865793102540124,0.13133507187556254,-0.04635838272183205,0
com.microstar.xml.XmlParser,0.003689205926724981,0.08648960746420253,0.04728690081366,0.20820112370893776,-0.032993237504890416,0.3700471423390342,0.008280958524231686,-0.04465278373560123,-0.2945579404327483,0.06999927410382917,0.04561566684110399,-0.024100041011818923,0.18197820766582956,-0.2149327401033929,-0.12035566902307539,-0.0494088110939577,-0.19407467445549023,0.08737220681916164,0.012291652011224275,0.20351972173383273,-0.10467271631942282,-0.010123483308045604,-0.4304815430321121,-0.021208264537629272,-0.18366884817838994,0.08580899245375315,0.019980588816570034,-0.011123622578802323,0.06920815436823466,0.22347279608319773,0.3505592286025047,-0.33665452393528145,0
org.gjt.sp.jedit.io.VFSManager,0.0008759680425875767,0.0973525161631728,0.06146197023034398,0.16103974387245648,-0.1451129683227934,0.00777387792541946,-0.050423338443730335,-0.3790499138458034,0.3591281406523458,-0.17579851311387804,0.07682608530056304,-0.0040654214056199825,0.2366268019737479,0.02240608193092784,-0.0035948603233246423,-0.0880087828746545,0.2014688009272817,-0.07813685183737246,0.3848875184295757,0.15250287428352063,-0.34506258928712735,-0.043086215940488476,0.22269879271827273,-0.11557397718714396,0.08533602801784763,-0.08837068388389202,0.0239644864081783,0.2131997833262629,0.06176591508081794,-0.2645193608163313,0.16240045848432524,-0.013204542816760236,1
org.gjt.sp.jedit.gui.BufferOptions,0.0024272303745520086,0.11320057248642151,0.06836333526593262,0.23406486788967248,-0.03168854698761297,-0.018720333566934748,0.011930490650978462,-0.07237486391132623,-0.09997546274158073,0.1684394192816943,-0.025266642526853025,-0.01671969425721849,-0.04752043631842904,0.024961197755867838,0.5009752103037504,0.150657089285156,0.058338599057546174,0.11004005032427776,0.29666837152780856,-0.022863127484043417,-0.10402503608081033,0.4120620580521677,-0.025234346000019465,-0.324352166861408,0.05750903215504768,-0.06222709721730653,-0.15158777672228968,-0.044165841567402775,-0.21081332079985177,0.19913426856224895,0.1976408265293498,0.24366538349290015,1
gnu.regexp.CharIndexed,0.006878361997836628,0.6437731639862645,0.4755738088378814,-0.43084531237655294,0.01136703709893331,-0.013253236017284533,0.39730329847433854,0.03427790496518864,-0.014220288013889948,0.029857363761646664,0.00315876030349835,0.006110028190604168,-0.025812658167036727,-0.024366858901181558,-0.04562827118723707,0.028306094302819492,-0.011775625573431484,0.00978151143337348,-0.03802253846767108,-0.0003481426944186263,-0.01274028848775323,-0.019990729475125806,0.016609160974619036,-0.010556518820752077,0.021545698765861845,0.0052991268921938,0.021608708991328343,-0.06353884312310619,0.020064155844681672,-0.006149143893488064,-0.015092074384003116,-0.02833246489523649,0
bsh.InterpreterError,0.562747230006284,-0.02966041880498604,0.020469556955032678,-0.017661534179079348,-0.0364308850064745,-0.025680683871433477,-0.002477145824134091,0.07976762491166109,0.011304369922594867,-0.01668227510271061,0.4915588828026053,-0.007147566544968104,0.018782897773471422,0.13563335803740642,0.15072827434397715,-0.04602097049170126,-0.2355561366514871,-0.2806929504146519,0.041355247372365275,0.044624317583451444,0.07267543244613331,-0.0969174901487162,-0.053955466315625374,-0.04932954554482668,-0.14849955433402992,-0.30958025893846913,-0.03463979528032517,-0.04344148163180161,-0.22588133728355034,0.06434457319746793,-0.22488004474396622,-0.0544684429523044,0
org.gjt.sp.jedit.Registers,0.0006152758450024233,0.02818383976255696,0.01669561943004531,0.07534196132173895,0.08050857533576784,-0.022483306114659422,0.01078745670840423,0.10557279041332768,0.06420003680805643,-0.08616018015396225,-0.013715949267172466,0.006971307863287456,-0.04475770587414421,-0.05264875578928306,0.019615188295182155,-0.0068579577358826,-0.03696468157275483,0.023039856885543837,0.16776165287925518,0.07981595319493831,0.08271200411390135,0.2365787782892735,-0.015125571958070724,0.2564331646343142,0.1239056661763446,-0.20472418851387614,0.06515183152706107,0.5140652265575014,0.5182464210814556,0.17024198207168773,-0.15176102327659727,-0.38267126959768116,1
bsh.BSHTernaryExpression,0.4743651315798104,0.37512111290489875,-0.5687701102570262,-0.05088867734113572,0.056443567072129185,0.04280040619630795,0.0038256071170167227,-0.1107160270583392,0.04324243628064444,0.014636224789349618,-0.4832565447775088,-0.002178332073327178,-0.009327171244835017,-0.04990159986623237,-0.018439389426011567,-0.0006522900551637179,-0.03214659194944411,-0.05876909187738669,-0.0025417058103589883,0.05506721590278579,0.010915320391973342,0.03849985299101542,0.018380916571218788,-0.03373754149850539,0.03296403122346926,0.18497096567243596,-0.024481619452256888,-0.021743678933407957,0.048096919699868,-0.019069883878407197,0.051131142573244186,-0.008430153149577312,0
org.gjt.sp.jedit.search.DirectoryListSet,0.001516009217100306,0.1539421839319338,0.09984523566538245,0.18993914466997555,-0.22830793135803049,-0.10764422737042025,0.011751638257508301,-0.22642200249471836,0.4399785394496128,0.09749848553552197,0.02209332222257576,-0.02546249563732731,-0.09080212136981686,-0.25501282286693394,-0.062215383637714755,0.2146944703719294,-0.14633122986414893,-0.14582123625425042,-0.0632201060524975,-0.11149889077959999,0.0982625757831364,-0.32683617748662364,-0.2475419701174118,0.25445855619977426,0.0032343965684207593,0.0634058484991521,0.014079109700451812,0.20993099129561177,-0.34540539420597355,-0.09408390355464025,-0.0032079580156735466,0.09796003317034115,0
org.gjt.sp.jedit.gui.StatusBar,0.0035165377356304057,0.10446087182241785,0.05933699810790672,0.20936120804774397,-0.011793448700414504,-0.026771571711086267,0.02057283966733822,-0.05620044247352662,-0.1168326041546057,0.03672162731612712,0.015208240386809091,0.015004481003346467,-0.15998812534532653,-0.06409601889149101,0.24817253566644892,0.010379732264138733,0.08945882383718996,0.0462749469136815,0.4290728311420942,0.11960623486418595,-0.005475074660975054,0.41243542415271855,0.0772017358505575,-0.34838612069421376,0.0132023595122722,-0.13310143054204518,-0.20721515887292524,-0.1502990827872084,-0.25196614734058925,-0.26828130786892596,0.14093671555055098,0.2926873550254457,1
bsh.XThis,0.3324530529559822,0.1431478889871465,-0.17677472171727518,0.014989418847315016,-0.08823541281296052,-0.059009878599301846,-0.008637560492769765,0.13299672308830807,-0.07603966468304171,-0.03805532015917825,0.4152836022447079,-0.0037458618958950535,-0.0361109069582317,0.004041460817716003,-0.09566184319387662,-0.03831535395659749,0.342042439265227,0.38701243762029985,-0.0007467248930236552,-0.06569980176991015,-0.0012315589301416662,-0.13534089087259843,-0.0764840013035133,0.027503256831307946,-0.17831259149421458,-0.41662024798251457,-0.030863731974567352,-0.05274803327948267,-0.22696340219004152,0.03374949075956308,-0.23848293891774677,-0.04683058053168555,0
org.gjt.sp.jedit.Mode,0.0030375277202849328,0.16460477335030543,0.10426357748537861,0.232751269756526,0.18216766152174538,0.196596665909916,-0.14032654531832095,-0.35883170590477104,-0.2989561666580758,0.07454328135174389,0.12601736691619125,-0.016368674981609793,-0.07803268393050422,0.031066573179315077,0.14125290180138886,0.15995319349828319,-0.04491764293063939,0.148707499951954,0.17417576268263016,0.21613460021971878,0.11790293448896677,-0.036101809768052266,0.1663804716361069,0.3105023978979434,-0.26627240285729514,0.09616236531306338,-0.3089643675732455,0.1454384372015563,-0.12074152120286454,0.06262471619275309,0.25195303059603563,-0.06835046122449927,1
bsh.BSHLiteral,0.49155061381815235,0.44004749259605197,-0.6585114154881352,-0.05572512836871909,0.029547538674039895,0.022473908989697474,0.0065132774658863855,-0.05284238161160054,0.03518295561900746,0.005992626879478049,-0.17866755890830185,0.0009031673476218884,-0.005074680055113561,0.008276671481348771,0.034605708025342685,-0.016864728988487385,-0.09018409997854089,-0.09257520974461073,0.008992101472300541,0.03196809150501086,0.0006466555936626247,0.07719970156196544,0.02425255005934324,0.005060613615776477,0.07842998007274773,0.22221387577239077,-0.08436777163901661,0.02688468429775882,0.007941964641992783,-0.028225980911442978,0.012820733205496322,-0.015250003832371226,0
org.gjt.sp.jedit.browser.FileCellRenderer,0.0002677488920090459,0.03576304926250713,0.022273285041809286,0.06902599674802076,-0.0871602202344829,0.0538618071139339,-0.022594973552173565,-0.24093225851156347,0.20002222851897797,-0.23134852216308205,0.06340119591585232,-0.056558699594225756,0.15466922333843533,-0.03322591429478446,-0.04299856042148703,-0.07879662445002601,0.03643442580945112,0.06206916697581449,-0.011013163805447755,0.05250802160285215,0.042027617965904415,-0.0672113042947101,-0.24915808334169043,-0.06589334520180544,0.002956714498196359,0.22345163973012272,0.08445759344501177,-0.5197290300226789,0.36433560983208474,0.0173359831021882,-0.49398149461862984,-0.07453996405349204,0
org.gjt.sp.jedit.options.AbbrevsModel,0.0001418725552443953,0.020211943579571685,0.012598517364079416,0.04038252604903717,0.0013900020487206128,0.048208918359399965,-0.005979069775175232,-0.09115946383253148,-0.06256372746876833,-0.066191961851719,0.029402861089190612,-0.01860225322524171,-0.10620448786148773,0.07544572776911264,0.23332506951437954,0.239495615083524,-0.10170074497005846,0.14384619978408777,0.08389073699354561,0.204588735819913,0.03464415323179786,0.2985899403145319,-0.15307168977020016,0.09193555360825373,0.015736457244566696,-0.21342316375366296,-0.41147156597178924,-0.1753325577284167,-0.38266311850557927,0.48307776158529997,0.14123503866919254,0.033099919322139605,0
org.gjt.sp.jedit.TextUtilities,0.013150578224560356,0.19814102537815742,0.11579520263553814,0.41045856194591945,0.4362550344701669,0.13578265269848505,-0.03608286551154208,-0.20082301720770662,-0.0332885488573948,-0.04107358936781655,0.09611779171857752,0.0165432956778274,-0.12995140257988896,-0.14822388316985807,-0.1213926657178716,0.0635307299446992,-0.09023992250650203,-0.03964596552737721,-0.172665311539441,-0.19275311832420802,0.19224541956639257,0.08078204347422195,-0.09723286640441671,0.1538619028131002,-0.10868932454496016,-0.2246489678775649,-0.16089928647150273,0.2782753090579047,0.28145960516737484,0.23075342355970682,-0.08254253357505911,0.013328318409881107,1
org.gjt.sp.jedit.options.TextAreaOptionPane,0.00017355434056651718,0.014809823229121085,0.008636529105043133,0.03710422513184941,-0.039510140158654936,0.023429638914719154,0.007924488388885546,-0.007987958938085326,-0.06801132876398049,-0.07255853971382914,-0.046403995457197506,-0.013407440572131044,-0.07033720553299551,0.2070135325347565,0.3378476178141873,0.469382342319462,-0.055991900314696405,0.1563164667804951,0.11372930427761237,0.0413195875398096,-0.212743353942734,-0.17105895683876987,-0.4470151099362329,-0.35402724324869617,0.3423146716176859,-0.05285735791816203,-0.08774738061654903,0.036645994454462386,0.15086708982082267,0.044450242248765655,-0.06973440555912755,-0.03318099752439159,0
gnu.regexp.CharIndexedReader,0.002439940576549224,0.424993659085458,0.30981082790223563,-0.25750060795169094,-0.006957428570202414,-0.00948666678306911,-0.8009570650431317,0.09377766537612449,-0.04006558950016704,-0.023614131187454233,-0.04126746244342442,0.002453176789265376,0.005951356750746575,0.02745418709578696,0.009515605502683008,-0.017741489308625947,-0.017123316618816477,-0.006387711423138776,0.0014973761426231573,-0.00049621482427773,-0.014925013910779335,0.015379151366287674,-0.006351481594500356,0.009395201757298969,0.010532410837600646,0.004377616360984615,0.0018401909246920656,-0.0068405777822156365,-0.010243224254550964,-0.014315329040522734,-0.0026400255160180883,-0.011506993906825344,0
bsh.EvalError,0.787803944434241,-0.3469365062681829,0.4862620148415873,0.027815959910145138,-0.02023382923658442,-0.00950522224068059,0.0004215179468329822,0.01979564052774216,-0.018373293374627557,-0.003720746057293283,-0.00398971911148794,-0.0005247597539398812,0.015079038003859988,-0.026969825945719582,-0.030755208261522636,0.015270150909554301,0.08335833119036519,0.08862756439468315,-0.00630474220538347,-0.011026098264289077,-0.009625667826064737,-0.004781121763404343,0.0019361055802408472,0.004271208521034542,0.01393207590187647,-0.007005819929675686,0.02732460428314368,0.007132909849478791,0.004777210671711216,-0.011017664492026518,0.045401544085904584,-0.005814767860336014,1
org.gjt.sp.jedit.syntax.KeywordMap,0.010130186799976116,0.13527362733857387,0.07846039619568304,0.3039659819434674,0.4901752929914861,0.2234331080592053,-0.03393348131413359,-0.40656426116234917,-0.3519735395133008,0.17317701398356386,0.14488008496928578,0.03335996190980263,-0.07804326134874949,-0.07765899824095263,-0.17880329567619024,-0.03537095820252691,-0.03282561195895477,-0.10433791137789859,-0.06918577003662837,-0.09464445763298059,-0.09177813602698262,-0.18781604612918118,0.09982830396208826,0.19073610337810787,0.15648711820876357,-0.13056035755318599,-0.009208020344723166,0.045223599621003335,-0.0872077745687319,0.0013948026631421264,-0.10515918793257079,-0.16432516159949437,0
org.gjt.sp.jedit.options.WindowTableModel,0.005040713545601213,0.04817544355198554,0.01712460240786551,0.11032859978080853,-0.13717869772857033,-0.003774101263891193,0.020593531160445835,0.06386307605910833,-0.190925953350864,-0.07021455598576892,-0.046692615569954236,-0.03326123489888922,0.43696274512954186,-0.1720132707506483,0.28756628991242333,0.1947245874611554,0.0496622008854847,-0.06907673029707537,-0.2701035544678988,-0.0561081831025522,0.08833164654893373,-0.023709871397230905,0.38641407806924244,0.13926889661723318,-0.06248843515362753,-0.17669453924193243,0.09782855217614946,-0.11484676929629639,0.04222980955001006,0.2352185116522528,-0.4078328498500375,-0.18521308216325333,0
org.gjt.sp.jedit.options.ContextOptionPane,0.0012726856676845266,0.04146344610461423,0.024122623228728424,0.10598779323878171,-0.1333430915854526,0.02769187458985116,0.026029039735191686,0.01846757404351309,-0.2212347530379287,-0.3395416466881156,-0.09327354650863254,-0.019450407185180322,-0.21313383839002767,0.20929136310659108,0.24598153298465844,0.37538452978655124,-0.020585940169855273,-0.05827765658210432,0.19020893662729152,-0.2983523708096216,-0.059203203819584806,-0.136882958196854,-0.1298569349036177,-0.44850527009667956,0.22844094132344217,0.01815414015340899,0.1137008388557638,-0.004432722614753885,-0.017353910630288745,0.09662907672683035,0.07132575170086214,-0.2312436121626565,0
bsh.BSHSwitchLabel,0.4959445028526336,0.36495235492783623,-0.555349488587553,-0.05062869048423818,0.058662019197822955,0.04429866600897513,0.00392445375889106,-0.11370731623961,0.04443962820058655,0.014560073408971422,-0.4931527316734312,-0.001537962787361756,-0.01013540514274974,-0.049002804966589514,-0.0115890639049443,-0.0022236614998747046,-0.045899218235533175,-0.07602840703250914,0.0005400514502425434,0.05745290167729959,0.017894259968650825,0.028642417275871006,0.016118964009010372,-0.035604548284325944,0.019630427058085775,0.1570915633458331,-0.025471200700875413,-0.03698518570962786,0.03407234351510316,-0.020089245549721985,0.027504908369428913,-0.015327637750868909,0
org.gjt.sp.jedit.io.UrlVFS,0.000682302530209213,0.11022847299438604,0.07374874030244169,0.10444264289929905,-0.09225862578648192,0.014444933062507746,-0.029232840911319103,-0.343089931498514,0.3190538108994614,-0.15253211283079865,0.0937034984016735,-0.031105420522382833,0.20985570215382568,-0.046673800986798006,0.06805081764888768,-0.07510846791245958,0.24639929528391744,-0.07558328659378545,0.40078928184176354,0.08458150796309798,-0.0922396774768018,-0.013887798308334746,-0.17271864992210553,0.048433185803873575,-0.22173054186786212,0.14004618285123785,0.2540891027882481,0.2333024342973587,-0.07064618192268483,-0.38083164268332126,-0.1566716417078636,0.12445411458715538,0
com.microstar.xml.XmlException,0.002832774709264749,0.06626553027049864,0.03579045459990343,0.15992362838789007,-0.09254575187770182,0.17473692415219455,0.018814362322589557,0.005987960274986016,-0.22548334370983522,-0.017592679589663915,0.010907805096790379,-0.0181178214902684,0.2079429995549541,-0.2154568834976739,-0.039461546973074614,-0.04453922155664398,-0.17668166242449992,0.11455578461741113,-0.027773124573582008,0.14556253177622397,-0.02656547337021834,0.15284771888001017,-0.5715603967208448,-0.09406082888631996,-0.24036695695624785,0.10497278611055147,0.12922817380252152,-0.06337955763800117,0.0550088194396822,0.17314706901386293,0.3753643279272191,-0.3084502848551993,0
bsh.BSHPrimarySuffix,0.5581276190311225,0.22241221195320815,-0.3443558207509641,-0.03913082872964104,-0.004680071354172108,-0.0035468009165396308,-0.00363979493919746,0.022015590012884875,0.025002831450101282,-0.00432532249532082,0.2643952319800186,-0.007170140851043819,0.021229975665126608,0.10371569225481114,0.13534800542837216,-0.04865522798465993,-0.29990838125396285,-0.3553958604478582,0.0355133714182687,0.07747838087718185,0.050764689307621944,-0.07551220006391327,-0.021421652128028382,-0.0833810413825395,-0.19476936891476834,-0.3016212199181212,0.1313403427557936,-0.1169652314117164,0.0965722121950735,0.007688934239026433,0.07070102177337556,0.04956085878885654,0
org.gjt.sp.jedit.Abbrevs,0.004592746895704784,0.16437905514012568,0.09840885037717917,0.3431582781799019,0.11379686365226085,0.03113765271852542,0.018486222787516104,-0.08647781457170554,-0.15770146342250543,0.024987877725271997,0.05874574608761073,0.0032901165315836825,-0.25972336223677717,-0.26690080864959453,0.1889834488613847,-0.01640125414511158,-0.15913395014298418,0.13055998581195524,0.23184733024368684,0.2358941814817858,-0.12301813935157228,0.5329525928720711,-0.24772230759535116,-0.023837524049157933,-0.051207072109272826,-0.13808166175651393,-0.1868499768405774,-0.07553610324757035,-0.15009954224572566,0.14152912553634042,0.01407363991055814,-0.04694697982062973,1
bsh.BSHPrimitiveType,0.35946384119835045,0.2014240185853696,-0.3108171750873977,-0.032739778177181544,0.044523831993118594,0.02726557561774933,0.0018081588938207965,-0.05803207710603184,0.022859096861731612,0.011384082999411203,-0.13716609474746858,0.006980575444320082,0.0041023944879416,-0.007571807134407211,0.008656993071777763,0.0004983457945626958,-0.06901280206609625,-0.060001223712872066,-0.058700347994609325,-0.047392437626855737,-0.10217735711194618,0.10471407545119052,0.06617594679694196,0.059830022640064914,0.2287811610628685,0.42577556776257586,0.1628190113040689,0.008418249798215203,0.3957000898059507,-0.056342875479228303,0.46347939576147995,0.1690614234059995,0
org.gjt.sp.jedit.syntax.XModeHandler,0.0094008742154355,0.12348133095038079,0.07247115122198601,0.26585018369476426,0.34587469688398315,0.28762133085615205,-0.0145152633956514,-0.41398626318178433,-0.45245807301338153,0.14089151488348983,0.12189276681748176,0.02354117287210922,-0.0031336686686294544,-0.07698899768629057,-0.14645691392359605,-0.019737358332295406,-0.1333947354370007,0.012079871250885924,0.03899800928757808,-0.049829385554806135,-0.38008383848868904,0.06816444441911157,-0.2463180727616675,0.12998461587878943,-0.040993767491333925,-0.017682246609434165,0.05797137667501989,-0.03491179309686973,-0.06892153770903518,0.06021215405894308,-0.05378567962633565,0.023749079967188187,1
gnu.regexp.UncheckedRE,0.0030082756061465986,0.39355343486828676,0.28130493838802534,-0.13537248874556865,0.03856389884735032,0.03428632844174675,-0.7223004662228842,-0.09931060559976673,-0.0008663884892815461,-0.00437587875447299,0.0394450266540174,-0.025554035335295253,0.06601700835158159,0.025584394985990473,0.11616839025473008,0.012686019199544585,0.12734249443649925,0.01998422782622262,0.1400137129956674,0.03173566985274744,0.1238792479729383,0.15049641102486616,0.12608163994722876,0.006698080687548561,-0.15541644857054912,0.06395594644319315,-0.1307442010385171,0.1640775623203501,-0.05220477816997542,-0.03901845594143403,0.14543044329879362,0.060716131243415385,0
org.gjt.sp.jedit.gui.FloatingWindowContainer,0.0033656156901730057,0.031323613898746036,0.012191156980157604,0.07581931447870599,-0.1076488586647999,-0.009857310314460013,0.024877661482753288,0.12308051620927929,-0.2436855867441536,0.001992435499878355,-0.05947438444218959,-0.01511366861749727,0.6212926432269706,-0.310994949776505,0.11674576062057986,0.1338585259051001,0.006774233542259234,-0.11319808751192945,-0.03803816296464308,-0.15537639001767722,0.09888175664860147,0.09231150111679924,-0.15909700087914266,0.06522287623449978,0.052262594218447984,-0.12386396606723074,0.002983824986319645,-0.04979811857162846,-0.1243699525518352,-0.17152346693616466,0.26466531159162465,-0.4079499556971761,1
org.gjt.sp.jedit.search.BufferListSet,0.004170604444392946,0.18200030061955877,0.11278117187060231,0.28453414163053087,-0.24610639219013666,-0.19750788743233072,0.03643814615309674,-0.01960694443147111,0.2616265279144068,0.23641845943811965,-0.032195935321946034,-0.01434034159808761,-0.3049048319743061,-0.45026424290981676,0.07094331001140652,0.14418626531074316,-0.1873390271178315,-0.13873308097040243,-0.15487131306010693,-0.11929215796569236,-0.24852550161347609,0.14747162747466575,0.16333937049657915,0.004094344753260777,0.1258137768952834,-0.11911459349993322,-0.13802037756644234,0.036845810462063616,-0.2011837875292254,-0.12427464386089145,0.07848440969176977,-0.09749936576230858,0
org.gjt.sp.jedit.syntax.TokenMarker,0.008479182426040737,0.13545871934924322,0.07975676333425255,0.28871128893849857,0.47233874210295873,0.24939313834521043,-0.02598079633955828,-0.46222564578072234,-0.42101285210534967,0.19968842048815397,0.15878622749696286,0.03385065839237639,-0.05538572799524109,-0.051714356974538966,-0.08472573120191647,-0.03135228364227854,-0.00023521301035255853,-0.051050264079724725,0.0024462499753980884,-0.17356330484708712,-0.22442362936010637,0.016091829780723602,-0.1764229439330853,0.09890205669047099,-0.05003079774080388,-0.02179994694593325,0.04517519767873249,0.024505519412805574,-0.03156212187967211,-0.0019582191981711355,-0.05368486569102983,-0.03280316701102833,1
org.gjt.sp.jedit.options.ColorTableModel,0.0007954967895607896,0.0695302743067893,0.04489988144771722,0.10599433075619318,-0.09893958795433412,0.1446843216809839,-0.015205399865730876,-0.19970498617478316,0.1293174485246786,-0.31039671361443627,0.038999551791283574,-0.060492907538283666,-0.0357118545374542,0.05168960643359075,0.08934598532830822,0.20104198562268463,-0.13569139204398356,0.13711370295649758,-0.41336497425921825,-0.19731875942779978,0.36454803797196644,0.2838198825502961,0.11087856914327054,0.22352441201089876,-0.06813783679009383,-0.12112298992040421,-0.2739640472911416,0.09169486918460067,-0.04726031545962679,0.30884216349976695,0.08277078058400276,0.10252495644265705,0
org.gjt.sp.jedit.textarea.Selection,0.0201804798670666,0.1148427863945434,0.08656493301341017,0.25564001990917323,0.13081504574978664,-0.07540432169476145,-0.016242416745249833,0.12762267391629037,0.0463409779058083,0.13474265321623322,0.11163226548478603,0.011913126843223302,-0.07900639434532054,-0.2688195706791661,-0.1329930606050343,0.19663693968803284,0.02464553833113858,0.04079471664037037,-0.0863346365964714,0.128025299384167,0.26978588888525945,-0.00952578154919435,0.07003588227790734,-0.4191870826568861,-0.22116196745768857,0.2976617267788112,-0.1829660435774268,-0.03655785747990427,0.44858893727037946,0.22986907635837864,0.008569406074266738,0.01885914329283032,1
org.gjt.sp.jedit.syntax.Token,0.06505270524094486,0.14381887606119187,0.05512839318024841,0.3079265535622984,0.5840419949520873,0.21952533892504414,-0.01919585308031272,-0.30367884901119213,-0.2534004868703821,0.04072482031978195,-0.040188127339278894,0.018596943909488517,-0.04916239704407937,-0.03716637198720621,-0.18791935845704755,0.013110152055485587,-0.06671296198434368,-0.13916320641873436,-0.09572080875513245,-0.22908765990720517,-0.18908498575346896,-0.14264093600844208,-0.049405575290590344,0.20514267545757628,0.20486737657873347,-0.120862253286145,0.12725862726711026,-0.06415849636498829,-0.04397585272299161,-0.12785889244401483,-0.08285384938527744,-0.010244990033362952,1
org.gjt.sp.jedit.textarea.TextAreaPainter,0.004691626234512694,0.09607345342429416,0.05624514673501969,0.25257082955477095,0.5374309257517587,-0.016712455343673684,0.028243462144879345,0.3676643585996367,0.25451405414847694,-0.30398472654059955,-0.027097819774459353,-0.02133250299635416,0.10587191745581034,-0.0805037082579746,0.06298397744719919,-0.05085643455998656,-0.07503839495946865,0.055970364357487645,-0.11763095024766601,-0.06718311915055439,-0.1859549130833859,-0.23777446514438577,-0.041808192662588645,-0.011104828197770835,-0.2783274379622506,0.10547143454410562,-0.23177439553506166,0.15347149675457367,0.015289549550126996,0.10418875796359098,0.1268704123136196,-0.05422229885064415,1
bsh.BSHIfStatement,0.5172568807896074,0.21869030582346874,-0.34671977870596477,-0.04022622478255269,0.0544821811956493,0.04391855746616725,0.002795898764329356,-0.12252526790998239,0.048478215415467374,0.0162292988577806,-0.6316802874066728,-0.0009088295881475917,-0.024523267561868536,-0.09147573809142721,-0.05435031528751581,0.023056497637062523,0.08772317659414573,0.09682367776859864,0.028426862643030883,0.06975987724452003,0.05870150245999848,0.03943387455997958,0.006688348831601544,-0.04419928677612944,-0.005720675997355964,0.0909871199213732,-0.14805247011530392,0.019033302268706774,-0.14924337577287147,-0.016892945722297617,-0.18819564461839122,-0.10230813688063867,0
org.gjt.sp.jedit.options.BrowserColorsOptionPane,0.00010400106770702564,0.010647901626099117,0.00643840439833072,0.026305151735825278,-0.021178321360657903,0.01879828854331717,0.004465973409182693,-0.009803771792950522,-0.05987550275510392,-0.07331466867576858,-0.03681743191449454,-0.011716961591922934,-0.07197539116761073,0.15937898433521036,0.3659976323347616,0.4578124601125698,-0.06251010107990984,0.1718432048259346,0.16084211192737274,-0.043562652012774705,-0.25135103788543,-0.09533833304547913,-0.4446428527643137,-0.3408502455986412,0.3531438866472926,-0.02215915919755294,-0.1317466076469752,-0.0034332611231682486,0.10237802897844428,0.10067776747104759,0.0032631994828243712,0.055648742624387466,0
org.gjt.sp.jedit.EditBus,0.004641750237103675,0.13377172267531598,0.07370037374720974,0.3043468942679217,-0.0976162986602203,0.018704405638089765,0.016441874923031896,0.025666725358690495,-0.11125658517303143,0.24521231136808216,-0.07473153882180464,-0.015031872634370528,0.3658577523905681,0.09372578244569743,0.33833385505208635,-0.14435842015897019,-0.040154039046003946,0.15014200048946774,-0.22873685605108351,-0.02630187749106195,0.19249733397712174,-0.15385970101791477,0.1009574073108163,-0.13245031831341159,-0.03720002888816069,-0.06218385651707088,0.10612717455863459,0.18725059771640856,0.12772932475846288,-0.39394261090611105,-0.04604501445216881,-0.3551344723576578,0
org.gjt.sp.jedit.gui.VariableGridLayout,0.004716002131746159,0.14581442865373254,0.083673940443668,0.32727207406365405,-0.23240679021583177,-0.20701053210018108,0.004362463610321668,0.045672849715379014,0.16430188708287338,0.19362714586333576,-0.047817831830282286,0.01004922766680667,-0.33904468110045727,-0.5587219407637917,0.2756526136715197,-0.13479880492155177,-0.16575828775974702,-0.07091533764095365,0.052751954209577935,0.005451480608726672,-0.06517301032593964,-0.09534458858716473,6.936478554273661e-05,0.08752495481071229,0.1813328806791595,-0.1321192146501011,-0.022437420943514454,0.05982281600274845,-0.24639084057470304,0.02179958864712785,0.059177430020603314,0.04543783935285768,1
org.gjt.sp.jedit.options.GutterOptionPane,0.0001532153958590721,0.014725442746730884,0.008733155194298322,0.035994445318987704,-0.031615469587131864,0.02076672494035802,0.007359705506018054,-0.013112051281778872,-0.07096692234380272,-0.07048814820608827,-0.041983150890325414,-0.01347803341621992,-0.07922398213289544,0.18573796090713543,0.3601012693528961,0.46311681310471886,-0.05150105984861147,0.15936911805661255,0.15208682025384862,0.0016245875802075329,-0.21696737752987494,-0.12059432316377343,-0.43156798915460426,-0.3782856076185591,0.34984746136917894,-0.05720281990531656,-0.11667986776016198,0.008705279170800311,0.10818936045708517,0.07544796698185248,-0.02769207310938823,0.014417923470680893,1
org.gjt.sp.jedit.options.StyleOptionPane,0.00016272859482452035,0.016660489404039594,0.009984792679662756,0.04029566212599866,0.007215169696092072,0.032277757812656044,0.004737702127730472,0.0003159839138257535,-0.01691373411888962,-0.13752904157218404,-0.03203575017232789,-0.025863623347849772,-0.07319627166914876,0.1569580560863946,0.29480538190461436,0.43694313861775436,-0.08234177611427577,0.14662556212197875,0.029350445337466814,-0.13546716599946695,-0.14308217017342684,-0.08567602725454568,-0.3926353565647583,-0.21567196729303267,0.44277228747302194,-0.18910071811689266,-0.20773366636790064,0.010034488258315051,0.07949407429431393,-0.0011932418935949245,-0.06898701693410017,0.32564061720129067,0
bsh.BSHArrayInitializer,0.6458837644128236,0.3533678160636187,-0.5441704474869716,-0.053727060343322294,0.03656156497503001,0.028778240959510697,0.0035643291037123436,-0.07016982681906118,0.03942344730595711,0.005737157543562801,-0.2561062738905113,-0.003489769213863755,-0.003623677040624035,0.006753523062693321,0.0167760159657824,-0.01965749152554002,-0.08217606514194402,-0.0973495019433207,0.008956675971494793,0.05738455290542285,0.024508894693876182,0.02496265910155049,-0.008205158219050306,-0.044135261080322646,-0.08565050468151869,0.00623398321623056,0.08090398630384457,-0.05406297088658637,0.11455645728325756,-0.0012019899607917982,0.16044289614830928,0.07340113788218758,0
org.gjt.sp.jedit.buffer.DummyFoldHandler,0.001959196500210576,0.10076789572729115,0.061286432919617176,0.19041115387974972,0.2331863593755984,0.034909507872443214,-0.018292691041234897,-0.1450116980466357,-0.07316216703148666,0.17782797385792382,0.10099660177874638,-0.0008568699860080214,-0.0697283704597064,-0.07905438349576914,0.33446123487580004,-0.021617195834019186,0.2746234545205923,0.006278860763786572,0.08810403573964469,0.06856403558932535,0.48413808406668124,-0.3173311351442813,0.05195696607602116,-0.42850846331725306,0.10150838660900208,0.041928799943592006,-0.1713619753751487,0.16606837992414464,0.08497087939436623,-0.05877270589101559,0.09860609081194711,-0.05933431282833835,0
org.gjt.sp.jedit.gui.RecentDirectoriesMenu,0.00045292847822412275,0.03728054652513275,0.022656044945708123,0.08024597719502576,-0.0861425168676954,0.06273826527427959,-0.011973662893858754,-0.19441300271435494,0.13084657907154465,-0.2823280821316862,0.0325295528367474,-0.03317794797950972,0.04460175914192473,0.03142825871542435,-0.05351270112726262,-0.09688993864127685,-0.03417877178136966,0.08594587542923175,-0.15767316900725858,-0.14211326992676981,0.2061727502972545,0.03726592132761567,0.17560072914710384,-0.05611800299109404,0.17342639872815774,-0.17205803858147722,-0.33663945338106765,-0.5384530839463674,0.2431320857976715,0.3314582669951596,0.23761707655298658,-0.0909544043557596,0
org.gjt.sp.jedit.buffer.RootElement,0.0022563937966156534,0.11013118704399157,0.06703413532162915,0.20661291825271502,0.27551897761202687,0.035951273007069656,-0.024623642533053144,-0.14568345034386182,-0.04796098331379587,0.19950231208169222,0.11345802105427853,0.0025191911820426614,-0.03282868100128512,-0.08770963603034912,0.23044743606757118,-0.11005514821806196,0.2927568963697123,-0.05160966584481197,-0.049570607777295564,0.027390821494866394,0.5489298630712323,-0.3523841925045696,0.13904540868130796,-0.30919523060680426,0.04707568213952769,0.09935061046431941,-0.040651103880849485,0.16266152248098262,0.1575604040926641,-0.04115761455953361,0.01326080744257471,-0.11737287585950346,0
org.gjt.sp.jedit.buffer.IndentFoldHandler,0.001959196500210576,0.10076789572729115,0.061286432919617176,0.19041115387974972,0.2331863593755984,0.034909507872443214,-0.018292691041234897,-0.1450116980466357,-0.07316216703148666,0.17782797385792382,0.10099660177874638,-0.0008568699860080214,-0.0697283704597064,-0.07905438349576914,0.33446123487580004,-0.021617195834019186,0.2746234545205923,0.006278860763786572,0.08810403573964469,0.06856403558932535,0.48413808406668124,-0.3173311351442813,0.05195696607602116,-0.42850846331725306,0.10150838660900208,0.041928799943592006,-0.1713619753751487,0.16606837992414464,0.08497087939436623,-0.05877270589101559,0.09860609081194711,-0.05933431282833835,0
org.gjt.sp.jedit.BeanShellAction,0.04471523210657048,0.14980865455513728,0.11524530827415333,0.38158588946118555,-0.3293749807380419,-0.13965346884416877,0.032732173882674916,0.2298920852335568,-0.34419923449244966,-0.18004616181691102,-0.002418035485751224,0.007022947911197021,-0.2680841036316073,-0.34370488844621083,-0.052227923808098146,-0.10910147853550456,8.137798702220984e-05,-0.028626541383403127,0.2481851263106481,0.008439426344532005,-0.1716060120858896,-0.08199597934635758,0.28742597678167503,-0.2006080812012705,0.16016000141601136,0.07938974493473416,-0.0837488592486856,-0.04683604844805211,0.0451127256130775,-0.019610678057114694,0.11866320842082691,-0.00012994884727255272,0
org.gjt.sp.jedit.textarea.ChunkCache,0.007573538835299069,0.11563095642802147,0.06644545670815616,0.305028514137145,0.6836811037397456,0.030852591597235385,0.027199925816781052,0.3151124383922762,0.20198806986746765,-0.29513040453478206,-0.02249309058963624,-0.02109891134432891,0.08375662325960471,-0.008863231717554411,-0.017541961127527712,0.042345842108901265,-0.057339615260717625,-0.01162899104898597,-0.08965366473140167,-0.17755609475577483,-0.189623550275761,0.08294234868503393,-0.040453227016524554,0.10806450245844852,0.049642220271858835,-0.12947804168938784,0.0402179976756509,-0.04150192210962528,0.05131862074277497,-0.04692222095068471,-0.10598909110076694,0.21186015151646037,1
bsh.BshMethod,0.5182712126024986,0.19413907711613823,-0.28574016632680593,-0.0204531883917653,-0.022250423285676484,-0.011759124685049416,0.0016950249864515655,0.012529224552593584,-0.01263499223286715,-0.00925373361740292,-0.12150887110028696,-0.0018153723699098183,-0.029197729527452,-0.07478437832514877,-0.13404100772316857,0.037210812453691434,0.4119488848510779,0.4716867086395331,-0.014999900259422749,-0.05863191534046456,-0.02314687312569735,-0.005438222564670591,0.002421711197083265,0.05974632256789691,0.12109379748025442,0.08557355440720417,-0.15396889027963448,0.14966917615986117,-0.2570251724044449,0.07459340661094885,-0.14799660161874414,-0.09175757358250472,0
org.gjt.sp.util.ReadWriteLock,0.0022705841168830098,0.10566074862733259,0.06419449789480278,0.19541923464216354,0.25697706509113066,0.03515206768635417,-0.02256277127713555,-0.13058957947920624,-0.04589864935297139,0.16449123658033443,0.10643876920657694,0.0014260215097233763,-0.053843964501676264,-0.13524685946500356,0.2258783138759867,-0.1313223633526176,0.24639785702339814,-0.03939341347902253,-0.04252192549074518,0.05879101740169161,0.5133179520313984,-0.47638794923888444,0.11366476102133596,-0.2366554352579095,0.09203751011204843,0.060224525583844245,-0.08115435564390967,0.21070133821079287,0.15039707665802385,-0.032259296305494525,0.032032678623956895,-0.13066428121027512,0
gnu.regexp.REException,0.003001619444416123,0.465205009457624,0.328336598085392,0.0020451511874001885,0.17559672009245564,0.09366272393731723,-0.1778810428679057,-0.328288332722624,-0.018474924177960386,0.04705977804505849,0.1181323952638313,-0.01444509884557002,0.05761388897009065,-0.012785672161483658,0.2635926159184286,-0.011217240656074627,0.23898065954137596,-0.006386447472794963,0.324334528979756,0.12555525960740185,0.1849088459886129,-0.05120942823958537,-0.08270382006351742,-0.3036366721261285,0.01888748805679397,0.013637494938712287,-0.13394356120185819,0.13078551811189384,-0.12330620168077859,-0.18784396511773227,0.06106822333820288,-0.05629245027497254,0
bsh.BSHLHSPrimaryExpression,0.5966732522787678,0.16960708212574224,-0.28341112015810543,-0.04325040293789268,0.03475196674791293,0.02618700021431942,0.003235939829163557,-0.05420390535005989,0.05260292217350879,0.0004345298448552803,-0.0748283957458978,-0.003477777644749699,0.009717125705997452,0.08621631627333075,0.1604102018737944,-0.05713728655189257,-0.38840444710331246,-0.4910437169039533,0.052212780554706975,0.09559116539389834,0.08163935423035097,-0.04642285590897346,-0.007006009643631788,-0.06360082964636708,-0.043162208450494344,-0.025952307273841898,-0.09071217371842773,-0.07704875958110129,-0.13134067857239742,0.055265539088310715,-0.16351223071277796,-0.052678056507950356,0
bsh.StringUtil,0.28747260372130434,0.07166274092182817,-0.10956917006774007,-0.011658895682470501,-0.0647080510108349,-0.04774610736240527,0.003065667475332648,0.14185994056844822,-0.02397370570420361,-0.032571641888515176,0.7996367811214307,-0.0027781084469359987,0.02066749172580519,0.18072095620393178,0.13095468785209463,-0.06522595126811008,-0.1622970632033153,-0.1652007140872511,0.002913218899734471,-0.03540381275095219,-0.02836580326287132,-0.006648939386163663,-0.0716211465895941,0.01420278946726021,-0.12435109795172744,-0.19518695594451244,-0.01110705296992242,-0.0008613469949546217,-0.0878852211452713,-0.007371078210488503,-0.23208189756982464,-0.0391148871627512,0
bsh.Name,0.6319439170856728,0.15653928134907938,-0.2401430026550083,-0.03069945003103424,-0.0549961345617559,-0.03884008398952923,0.004038679635452314,0.1144606786702115,-0.002286606850576962,-0.012063039724671733,0.626068590012168,-0.00027455860637278076,0.014766451802402951,0.13019627887625398,0.11457798765953164,-0.045252993732147875,-0.11623105457895563,-0.10871957602332619,-0.007421485056367755,-0.008655064584301214,-0.010366722552080642,-0.010161233256546873,-0.00026824310281772253,0.008563054845742211,0.002843815506958307,-0.057126563834788355,-0.0250929713975559,0.0006986039659364681,-0.05811120094078462,-0.08186800617241048,-0.14706614395526263,-0.11861554787138842,0
org.gjt.sp.jedit.gui.OpenWithEncodingMenu,0.0020506328476178996,0.06491272712914659,0.03592534949105886,0.1595988803420654,-0.09931197556375314,0.057985644716271156,0.011215786948119082,-0.08544994782114694,-0.03639177582099775,-0.3724146119429437,-0.0662561038577866,-0.006780837733363598,-0.11189380291306916,0.2240306111045253,-0.14822955137729063,-0.12768825528576788,-0.07568530807760358,0.020821599985354478,-0.1904797329509959,-0.4311926251392425,0.29796854568697334,-0.1323263719461357,-0.17608069725640196,0.002051632536410978,0.10407322447163161,-0.07179278056574408,-0.3374311319982174,-0.19654040881273918,0.3125427846102652,-0.2288792241143663,0.13678348156434375,-0.000783708191889427,0
gnu.regexp.REMatch,0.004390905737867896,0.6508768540842363,0.48216879515986727,-0.45763535761695223,0.023715797909164348,0.003179496778736847,0.3527917664499224,0.03326711625963274,-0.030557455272975247,-0.0043206689264424555,-0.025756544801267996,0.007102870496646767,0.0100705426401523,0.0390784416945564,0.0005470512474692543,-0.03656127964798488,-0.012263605741655916,-0.0052012569010443785,-0.0047908361036437365,0.0033232897797742284,-0.03501535778683141,0.0021730775439084363,0.009325847210630352,0.011291670576557259,0.007021746860159043,-0.011100614217496835,0.024376030128979993,-0.011892382346330544,0.020719754622528896,0.015354034755618928,-0.014430504029011523,-0.01455649152077176,0
org.gjt.sp.util.WorkRequest,0.0014806521053077827,0.06494435110591487,0.04086807993463975,0.11891474776520208,-0.003079629455126211,-0.07425743308053376,-0.04163677122205834,-0.01885555294984196,0.10633381012729938,0.19073700301139032,0.044423482804248036,0.024386222762608697,-0.023836942506945787,0.036139162250931244,-0.09932070980748983,0.2697261646390469,0.1517990097774845,-0.09023644551300729,0.06307690972953933,-0.05737000179382179,0.14149036488741987,0.12088628344258885,0.09279621880447922,-0.3298335600969738,-0.34429876514228663,0.03676568900057471,-0.24719415380988335,0.029213738188434445,0.3188548267146141,-0.3721293813124219,-0.06263362372173784,0.47031516901676323,0
org.gjt.sp.jedit.pluginmgr.InstallPluginsDialog,0.00023662588203001225,0.023931286969937786,0.01443964952444453,0.06228399578279005,-0.16663061891880204,0.7819589147419115,0.01273041529559862,0.3232067446176645,0.18704368629983226,0.2201307536763163,-0.009004363185304329,-0.05368711190335451,-0.13424376424071524,-0.05644142835697213,0.06217856154577639,-0.03013361135190251,0.16837466325777745,-0.1401296323833023,0.15645054358387797,-0.14070725431939823,-0.10237863963788636,0.07116343730287059,0.023367181931664063,0.059133501500664515,-0.012515426015017097,-0.024303917712513258,0.006947145995862032,-0.0838245302331823,0.013050312879780136,0.135862923914649,-0.028145702523194115,-0.002888580153753158,0
com.microstar.xml.XmlHandler,0.0015827817668979376,0.05586272120085991,0.032206030091822366,0.14270997267756055,-0.05049860078729538,0.32023844138308216,0.01545231348888713,-0.021210395446172186,-0.3105392285513338,0.05192224337626671,0.03517403139080122,-0.029927147391052566,0.3145013216999167,-0.16568859130773325,-0.16847947443752007,-0.02224564518155706,-0.2526714740101106,0.14285785572550574,0.05305416957363514,0.3672937868157617,-0.3694371672230619,-0.03726713974486141,-0.2291383882654039,-0.09094267974922593,-0.029620692430086602,0.14847532476010605,0.12537237925740474,-0.12242272323015416,0.12190112611859971,0.27299813673946444,-0.08612640314156039,0.20523854450790052,0
org.gjt.sp.jedit.syntax.ParserRule,0.004069362762884027,0.11877052285450411,0.0694106667787872,0.25659312874002105,0.46511839930673915,0.21858577401828527,-0.04187266040505171,-0.4621720886880063,-0.3971534970142957,0.27007964752246316,0.1946455221577293,0.034216200644643605,-0.051565233368015786,-0.04634795927276116,-0.04965575339100906,-0.06327715429648502,0.10596617381313538,-0.07824196748435382,-0.01002729098302747,-0.13957174495085173,-0.06601121065410706,-0.2426938984010549,0.05347607428988932,0.10832708636758565,0.05801929667238076,-0.00920389921265512,0.045068138753602285,0.10062812524542933,-0.08393447763347929,-0.0503474283330177,-0.05535878463452889,-0.10818173673134594,1
org.gjt.sp.jedit.gui.SplashScreen,0.0025104390877748847,0.06551631470434355,0.03553663561427184,0.1614150074647896,-0.0800852467799286,0.05983636518406892,0.014763610933362932,-0.040565887136270865,-0.08271588434433223,-0.36003016956809414,-0.08921900234401901,-0.014345977495753656,-0.13304336346175588,0.25004481950244184,-0.1666295873641333,-0.03599467263006395,-0.04878890308884105,-0.07003014069723723,-0.1437946399847508,-0.4509181163063827,0.25290185340119714,-0.20354701424873428,-0.31571943427860855,-0.011331377770530622,0.10696017250651016,0.007512559632161896,-0.18220628944144968,-0.005558641728951293,0.18297722695202806,-0.43325916415468085,-0.0012253895430345688,0.014263965583091582,0
org.gjt.sp.jedit.options.ShortcutsOptionPane,0.004047926617526227,0.05381781950928702,0.025398397530694918,0.13295484901205418,-0.14303791865492527,-0.009227676728056732,0.02896087891190306,0.05827135234008177,-0.24781438151000051,-0.25040711881568933,-0.07361762416423993,0.006116663528724126,-0.17811845596756629,0.13777149194992824,0.14994412015306716,0.08699223610853812,0.4726875929823254,-0.37194505650188475,-0.3786307661881438,0.35114421672958857,-0.2439900971254292,-0.019864379189041534,-0.1732970695526149,-0.07843451504827857,0.09344281054161054,-0.023697576156828448,0.04525524593859166,0.05454476217084356,0.03794284465482684,-0.011569341160374877,0.00637277427599114,0.05634672470154897,0
org.gjt.sp.jedit.gui.ViewRegisters,0.001557496861977944,0.04694745648560778,0.02668907576341402,0.11614424054733315,-0.046813371176604834,-0.052160910925838876,0.015783382099817684,0.08688675609486585,0.023984306354681746,-0.0026029885374924447,-0.035543708785738135,-0.0016538603091157532,-0.1786814328661181,-0.23852711559015813,0.22161151270247378,-0.07516272179885193,-0.04667238479471758,0.0072337024097258095,0.24737969669468485,0.054388553453664085,-0.05730540262433256,0.4226479698724554,0.14727947868926983,0.27463561078084364,0.2308061119609767,-0.22909294407653072,0.2022187036453371,0.33637300437779927,0.33772193840908626,0.16391405198352005,-0.13536575517755767,-0.24696334775724518,0
org.gjt.sp.jedit.browser.BrowserCommandsMenu,0.0004593799648683496,0.06991415863646253,0.045310382659601606,0.1068559543724709,-0.14718275026132008,-0.0014717403045917817,-0.03225409008054502,-0.39749318825695157,0.46308696810418293,-0.19060825920047986,0.10541444347263779,-0.07512959009644508,0.24082670158561928,-0.13976374208812817,0.04710694810335011,-0.02213683575884336,0.2210623058097133,-0.06752894939564162,0.23788592761097127,-0.04646910679639707,-0.09920082574993745,-0.2246057741776175,-0.25632487568402396,0.15506817614632723,-0.04182127732949478,0.2047298163987307,0.19275756764756125,-0.20309717625851365,0.0292123570309241,0.0018487598207804776,-0.2511320198465416,0.070356263483491,1
org.gjt.sp.jedit.gui.EnhancedMenu,0.0019681064951893386,0.07103930251311594,0.041855880020001464,0.17167859584211725,-0.12943518865782383,0.04162579108149261,0.0028454283439527275,-0.13775366828582483,0.027812123723461958,-0.32221699802637166,-0.024114550411181525,0.016552461430577245,-0.06319875754471047,0.10213890560491252,-0.10174455196686358,-0.25410316015973794,-0.081656269280118,0.07422690523723828,-0.17105680677451635,-0.13642664771921864,0.15371097483887292,-0.11208649407621897,-0.23866207457864216,-0.11488905024381775,0.22674930617410657,0.1653437131624699,-0.21942079348331262,-0.3733108479497311,0.41178205119211775,-0.2536619855664556,-0.1652239849743304,-0.19387231573794694,0
bsh.Capabilities,0.31424894339111203,0.046426749757954903,-0.05938420773147557,-0.0024625582159363375,-0.0658136336524743,-0.048999449248228875,-0.010488318022489297,0.13343052196747635,-0.034524799392247334,-0.018444501034438596,0.6269796139208613,-0.0066791761508237756,0.0169412661996829,0.07701823701469496,0.03298850224826172,-0.005068013481239364,0.053053548237868106,0.08396046128702984,0.00803812942379885,-0.027788083778028806,0.03494074784429683,-0.12530453290870433,-0.07996275850805447,-0.03011229083868165,-0.26881021023715773,-0.5663295107303873,0.13538143088084675,-0.051382484939036584,-0.09375785856069839,0.03270686816664395,-0.09857816929804536,0.021038116729781207,0
org.gjt.sp.jedit.Autosave,0.002497593798070926,0.08174886088289159,0.04883717569896212,0.1941731317863464,-0.07120779104673373,0.09346945564279131,0.011770629381562741,-0.11435826854599247,-0.20192157707583716,-0.07547723760495799,0.0390128521667317,-0.004427395578003881,-0.08590785445155438,-0.1311494177206396,-0.07659986218308555,-0.14330980975699278,-0.18103787606708793,0.13219626061548792,0.0011014321223169097,0.17290987202079486,-0.15339592074455558,0.3189818064378146,-0.5830393452826477,-0.020913318858823936,-0.3992061177582245,0.25067804569059643,0.1866179808689013,0.019135918943626547,0.07015086155435435,0.10679777354385132,-0.0008346811105372964,-0.08761413781427475,1
org.gjt.sp.jedit.gui.CompleteWord,0.005560698500503538,0.16953754151379435,0.0986983342425927,0.38635411419876803,0.33317066175161014,0.04161717883407387,0.0008785024080360148,-0.07620820747000079,-0.029835680805638348,-0.03171524427507505,0.10226076404637335,-0.00637084008891181,-0.15873912533049916,-0.24129072340187738,0.012495904365435353,-0.15764531235814772,0.023012599172136775,-0.06308389070564793,-0.12848458870592178,0.08798962507812115,0.08281680024505535,0.02071642924548676,0.23927242067057566,-0.14717361850123212,0.3096891394171992,-0.2157749176632182,-0.005032071655593881,-0.22741465605106656,-0.3687732744224018,0.09804984740465003,-0.11867672066955384,-0.3224768760026021,1
bsh.ClassPathException,0.29933691542204016,0.22632938037418984,-0.29766966219933444,-0.0020461694363740203,-0.06449625031618779,-0.046434435018820844,-0.01381072759908389,0.11395065846269538,-0.057285551397435394,-0.0049235862298338375,0.3349866640204558,0.0015348646446955232,0.025717518615073116,-0.07123054903747436,-0.09584801916833341,0.07287386771436324,0.2975047262214023,0.36151566225853826,-0.007497009595276054,-0.08556439300816193,0.009018303958218388,-0.11947650127649012,-0.01897738270445784,0.006001688606307897,-0.16261976851652601,-0.4878498617649151,0.24824277082230653,-0.014702556504388405,0.09519100772298618,0.034133712939993704,0.1386332531735599,0.13509814746920595,0
org.gjt.sp.jedit.search.SearchMatcher,0.026550208280185134,0.29523023606665205,0.20092146285859785,0.03474305555744709,-0.08309418144681635,-0.15095647987996794,-0.2874692209676939,0.1346932444527667,0.044949163198130686,0.2783138630721096,0.1552760202693167,0.041442637054337865,-0.22588710454191135,-0.2461449467929,-0.35001488331551966,0.3953184894391281,0.006108303465148509,0.07184213568921619,-0.20503413172594187,-0.03923480272428076,0.06552597155066145,-0.057100858860984226,0.04743633139811593,-0.22499403220773614,-0.05653239270788607,0.05203632265183603,0.047168582827379436,-0.2683170507170329,0.17931257136955178,-0.09979416335452834,-0.07986918269999685,-0.08099707802104841,0
bsh.ParseException,0.34581794480888006,0.3479444844194003,-0.43210155837533337,0.07013224392654721,0.28295790834775214,0.12727687865617315,-0.003299821491100175,-0.22493573144903628,-0.10535637100592604,0.021538037310423166,-0.38359732112618816,0.017931540034300412,-0.0235984238288598,-0.08607361661986104,-0.12457680386962215,-0.012235647587054106,-0.08957116657446211,-0.12642260347390805,-0.0897199583154855,-0.2236487849073358,-0.17641513281200297,-0.032107384192848226,-0.04956819353231737,0.15281785402443604,0.022523733758026153,-0.10656405882950204,0.10676527522732265,-0.11529055958682381,0.21718570397496045,-0.03120952389630857,0.0539006907115798,0.10264158181378129,0
bsh.Token,0.24731879684076957,0.15944682647995284,-0.17041077184554104,0.07569897914182695,0.3018663111478138,0.14007324573691293,-0.0061894746404345365,-0.2601002529638517,-0.09326332882169792,0.02918700552066801,-0.4759543171946469,0.023826533821772276,-0.036361462443697756,-0.07537990154549544,-0.12380942266012272,-0.012184421754782062,-0.16121011909005434,-0.20936923218377368,-0.1079494702066828,-0.2438694643807015,-0.1999872490128641,-0.016356109355038714,-0.02343018679062853,0.19282473839805161,0.14846679980457547,0.057112370101681756,0.15677195029917157,-0.1216552182877515,0.31819697544147474,-0.04722418786279764,0.19783229352371534,0.12179077776948519,0
bsh.JThis,0.41251232057349213,0.23830104054084578,-0.3392299968142341,-0.01945960781402426,-0.04320578834125873,-0.027268371099173027,-0.007561378808470562,0.06423086497479226,-0.024748320790112313,-0.007728838908577304,0.1318859106896466,-0.0036229360525213776,-0.003832523370143081,-0.050164778045603,-0.07271813598177894,0.03457366259006525,0.31438975953343357,0.38693072042422383,0.01230189811834457,-0.029835740402908897,0.03518301292282602,-0.09237090327303167,-0.05256735525979388,-0.02491352541177316,-0.21195078894486416,-0.4531877363818797,-0.0010606671331582856,0.010081038914594017,-0.17389056057032723,-0.00960416141325506,-0.2783492833036553,-0.05232784414638703,0
org.gjt.sp.jedit.msg.EditorExitRequested,0.004375396293947572,0.13391423211505385,0.0769476887772946,0.32186868717082195,-0.1583318820333785,-0.08741466241098232,0.03002670865320204,0.015694921041576337,-0.08606548964047166,0.10873442954765163,-0.04426074792013429,0.004142218300422268,-0.23441384781402924,-0.37351594698132684,0.32884141289830704,-0.46358077520462165,-0.15043574185248243,0.10731896647099987,0.04253453438691155,0.07728065804645098,-0.07472850086745672,0.1388251753869053,-0.4182569464598117,0.06262835911254888,-0.05157639783966259,0.1112783576031086,0.15137568603316556,-0.027726332103920094,-0.030513391001085938,0.11960971393380818,0.008441595747099117,0.01648858803964727,0
org.gjt.sp.jedit.browser.BrowserIORequest,0.0009536584141130142,0.09670182043008278,0.06193932908384716,0.14152532912310048,-0.11483007867992022,-0.057006264092689496,0.010356371871878545,-0.24570044016872997,0.35574647867772385,0.017821070623880175,0.08183119315476907,-0.04135150176231516,-0.024496474922908632,-0.3609692215798589,0.10057872550586586,0.05728138559836034,0.10144215902704225,-0.0750729557131554,0.08849279031926893,-0.0687001735045193,0.2847847229271845,-0.3133346424678134,-0.16190672924756674,0.00475481044782062,0.09830996894366806,0.2253341185159363,0.08506116957719578,-0.1034980687390696,-0.226941280187393,-0.36231486310692995,-0.12269257229475304,0.31636193487283903,0
org.gjt.sp.jedit.gui.PanelWindowContainer,0.0023472563121663334,0.02245675442433117,0.009730027294886675,0.0585186837862224,-0.0981645874329946,-0.012017938485718674,0.02006865297132085,0.12642499294820622,-0.25659225882081677,0.002168745107750825,-0.05426195219107972,-0.03553766608163312,0.7591730835918609,-0.3756696187902698,0.0645690750345457,0.196687166076067,0.03998566686014362,-0.2186626315232459,-0.04248042103848559,-0.100960376277794,0.0759566943846159,0.027912504404276516,0.06165869504053026,0.08922379153888034,0.08287967391295663,-0.006807474623357236,-0.1751622340507799,0.003842061031127264,0.008802279406663088,0.09185706534166185,-0.10159393847126731,0.057068736684806526,1
gnu.regexp.RETokenBackRef,0.0017682959271796235,0.30825480035697966,0.22428032021748343,-0.19045714377737652,-0.0068544167227023054,-0.012481375575380605,-0.8889531384166292,0.1160924511967405,-0.05395023330607728,-0.025410460281920365,-0.05324758398609783,0.004394196744679433,0.004098025636717838,0.03682427611123896,0.011580836774886156,-0.038493910516602704,-0.025582676076774377,-0.012463769986208673,-0.0017954947320369073,-0.004311435509461088,-0.021198385669493117,0.008411201042079073,-0.033600528569741765,0.025947663532381846,0.02629487973176486,0.017000528746452477,0.021712489305873457,-0.014279545133582074,-0.01427314025618606,-0.0006185901772745079,-0.007970724034126263,0.0022945973086067563,0
org.gjt.sp.jedit.textarea.ScrollListener,0.002097446691591408,0.09276892717546482,0.05453821705786276,0.2452532878675096,0.24156975023607463,-0.10370632012620672,0.032175829828044296,0.322558731618557,0.1659453933471291,-0.10405297651826059,-0.04336441096350131,0.016183998842592296,-0.06347431133864256,-0.04823696839531732,0.012037730330104643,-0.03959465835817308,-0.03659913064278817,0.014178855571181022,0.15890975614881103,0.1481229814747512,0.1804158595339201,0.3239461501311533,-0.014547414897990815,-0.037447024109139464,-0.05874231381165054,-0.16417654207227356,-0.15776284482446537,0.31682199793160204,0.4961762913570786,0.2650058253329819,-0.21333869378808795,0.007706724370051492,0
gnu.regexp.CharIndexedCharArray,0.0020432044619560987,0.2922905984862261,0.21122387541433948,-0.16116717370683808,-0.012214129933325364,-0.01162349401700021,-0.9108667717759119,0.09242363679985864,-0.03705467889242089,-0.02130312932592955,-0.03633965451987122,0.0018589228920493982,0.0034768174770347503,0.023364738222088365,0.007461220263468174,-0.01152308757726785,-0.013390906813719787,-0.006297047417497814,0.0014359456248955148,-0.0015412831701586724,-0.011423591830434638,0.01631059963600944,-0.010466387001508344,0.0059628526204777614,0.01190073106529815,0.008809771882413681,0.004668538405239098,-0.006381787451160067,-0.0134209971682396,-0.01434600861180612,-0.002088336035864691,-0.011511197045938145,0
bsh.TargetError,0.5383297333879783,-0.013012711105780582,0.023428481028433305,0.008681715716307908,-0.05650363767514135,-0.037537483976992206,0.002121647531858554,0.10026159417397194,-0.018546218622826665,-0.013947016326359836,0.47829667461885933,0.003502679382177193,0.0205168048372725,0.07244732570836605,0.09288511527008528,-0.027378901128513978,-0.1689417982513767,-0.1694577317544031,-0.012423396444065343,-0.033103325115837225,-0.06542617674336693,0.14766328202972842,0.05055867513802805,0.07036105648842458,0.23690950540361758,0.505074533883491,-0.17364847714079606,0.10900457256059826,0.061509566505581904,-0.007584274403771686,-0.005812419710721252,0.03387319425209665,0
gnu.regexp.CharIndexedInputStream,0.002439941597841676,0.424993811894001,0.3098109308145955,-0.25750069479341325,-0.006957552702396168,-0.009486628077395481,-0.8009570361850485,0.09377780811065604,-0.04006582973435666,-0.023614980644981715,-0.04126791540608581,0.002454461480342579,0.005950535657373063,0.027456745479154485,0.00951484134878373,-0.01774326023334256,-0.017122646612356122,-0.006389225783828785,0.001497247010529926,-0.0004998298806648109,-0.014924213229176421,0.015376767740088624,-0.0063542347136101695,0.009396513668943847,0.010531423396844968,0.004377530469453285,0.001848735967346028,-0.00682846138205403,-0.010245142843053077,-0.014292924552157756,-0.002646681588805479,-0.011518202436407998,0
bsh.BSHAllocationExpression,0.5470111587277046,0.1722848702412673,-0.26984894015407523,-0.032677212525707336,-0.009136103172113575,-0.006309030778436986,-0.004872781345001578,0.024718802204112877,0.015549716913451458,-0.003678490075090924,0.22536305278639848,-0.013000639610695211,0.012293670033974564,0.07714322282842574,0.06771830583990632,-0.03213901474339637,-0.12222389168740268,-0.16988000160574762,0.017193140102588718,0.06988088567044191,0.06624838577521716,-0.15868687119288755,-0.05614455854594902,-0.10787546925220788,-0.31259163284635505,-0.5334761195131401,0.18974444787004624,-0.14202624168718087,0.01151477093186056,0.03636409353769345,0.014675123283056394,0.005210063783291098,0
bsh.BSHMethodInvocation,0.4966546763163092,0.27399439934201203,-0.4124435647212804,-0.03912177410907329,-0.0008108880165190702,-0.0013482382260567311,-0.005609387616149625,0.013182274391411413,0.019920256464736823,-0.0006345324007801476,0.19765727302799027,-0.011563806122439175,0.018984687027278204,0.0765549354942891,0.09444146040739333,-0.03372527656299055,-0.21890072493193444,-0.2944693008972888,0.020124773041242317,0.07818228673309582,0.06283871768503198,-0.14581220037254067,-0.033225187294403005,-0.10408337834766387,-0.2361669792300066,-0.40659622721643085,0.15994062348858884,-0.14353066876995005,0.042014743645667436,0.04050800528166367,0.0381197803913819,0.010261581507104238,0
org.gjt.sp.jedit.msg.VFSUpdate,0.0023234469577643638,0.13457973577366125,0.0831318533959289,0.27694474660977464,-0.23468430703920604,-0.07873417710130036,0.0062425675772461555,-0.2667347397560156,0.32890538809695435,0.033757256557542456,-0.011311287980647957,-0.013489061072545123,0.24579626081531442,0.1569801563004814,0.12060294838031183,-0.2896368263651318,0.03121972270089215,0.1248508376851013,0.09481438800539188,0.0503237051745066,-0.15018696581689744,-0.27886593525845443,-0.17587242034140796,0.1999386451056526,-0.0758755332488945,0.13945221706977218,0.2791688302073611,0.22923847232279979,-0.14966930242246104,-0.18594389708266262,-0.13416300646626006,0.20666699342025543,0
bsh.BSHReturnType,0.4572900465021257,0.32516212802284045,-0.4730655631633707,-0.033407736639415105,0.011422907549082432,0.006409359255942556,-0.007539709069676768,-0.018517596610922494,-0.0035596678390914854,0.009110353078355515,-0.16134221336951815,0.002940721287410767,0.005169761543675514,-0.09649179266463251,-0.09375486309739521,0.06818520206236307,0.23861804365999056,0.3009420592188971,-0.028677706382840347,-0.06720344987256978,-0.04099044947058621,-0.017405662553981408,0.023549741724820564,0.026633531353343506,0.01299075785728852,-0.09383019523601434,0.21435948737172206,0.02837838677838307,0.23688035617161965,0.02930344345853078,0.3269434521747929,0.18730470124178294,0
org.gjt.sp.jedit.print.BufferPrintable,0.009997167775509153,0.11403053488274062,0.06576364619459185,0.2730228782034285,0.5453838981770935,0.09031514997244883,0.004290410292551826,0.004038912164384445,-0.010780573187060265,-0.09424749570683343,0.009471044698341705,-0.004034777656334372,0.0013244892365817556,-0.007243768424109149,-0.036352040271309706,0.05925307920064482,0.0006919170029362914,-0.11643548575900452,-0.12823777090639488,-0.3270227741862613,0.024301331544388533,-0.16165930263737874,-0.0942636767757083,0.27192317904377233,0.22979218996460926,-0.2494153938162219,-0.05354852724144138,0.04016841088294093,0.2201052929634624,-0.12943120816754408,-0.1419236986386672,0.3702309732972767,1
org.gjt.sp.jedit.search.HyperSearchResult,0.0030761804353241673,0.12783261289955603,0.07900685022424898,0.2278932724181857,0.18126836582279418,-0.03619234677902332,-0.04669130610864474,-0.07467615835315794,0.0072013649954655885,0.2797948598202687,0.1050274172498687,0.016722497967921517,-0.10054425866804716,-0.13263886014783766,0.06647499467226035,0.07558798354780655,0.22059233146544535,-0.08689709904905192,-0.07132382162102469,0.030353200264294816,0.5429733366048793,-0.39773988367741137,0.06764919568017783,-0.33098848317165735,-0.04726791826202201,0.1303854699876632,-0.11198250435886692,0.10366935128797371,0.2730612736035909,-0.0953229168590503,-0.014124985319290797,0.018091516837520256,0
bsh.BSHImportDeclaration,0.588199792539488,0.42337754547419165,-0.6273391123844942,-0.05261269501904807,0.007722297300649034,0.005543812320932121,-0.00561094412859414,-0.009392856289570489,0.019721822619670405,0.004209489637665094,0.004509977139072945,-0.0071274245396030144,0.010531965696034701,0.002753035502500275,0.024256835453392533,0.005267333996498897,-0.02690143316129795,-0.054156799544247916,-0.001089925891287972,0.024571561636087366,0.023751120349809217,-0.08415086064209501,-0.005755235157292842,-0.05012156924271967,-0.08754009527339265,-0.18019577636439923,0.09958772971221025,-0.04541677877400255,0.04907496131222484,0.04188429818552611,0.06542851686265454,0.04491522809543274,0
bsh.BSHAssignment,0.5057962439912025,0.33437159425797447,-0.5107320114342573,-0.05030799447712746,0.03142546717649217,0.0234766664285382,0.006879101986641883,-0.053398735067950044,0.04245031979241264,0.0025581893900439388,-0.14724058371603022,0.004166208211383332,-0.004942650048068258,0.03686292184615475,0.08760503451162673,-0.034876270038880136,-0.21138142701273863,-0.2278477860935824,0.04224314939627967,0.041155623546863675,0.01615772733913052,0.1058413350149248,0.03187366612360845,0.02106364128768745,0.13465825535659656,0.2987022805861245,-0.23565893636437363,0.07461739503053601,-0.12357037326437019,-0.007846591477205445,-0.1663858711402005,-0.07935944454313808,0
org.gjt.sp.jedit.gui.BeanShellErrorDialog,0.03940911269973237,0.11968697665402135,0.09246117903011795,0.29619339740234135,-0.2506335479717274,-0.14816492442774765,0.019206883735544692,0.21195734510267536,-0.14127939286447644,0.008244872130190267,0.019255769669703115,-0.0025699627118567544,-0.2622858454249146,-0.45216702760331007,0.153253514164358,-0.037456733944065644,0.020276323832609144,0.0026077222089567224,0.20480902557897182,-0.0692951051684476,-0.21160660235985287,0.36220158987614387,0.16894278226733336,0.05378592679987493,-0.0966980976969828,0.034934996814528295,0.0008090927464014502,-0.041427778277362486,0.07200873548272987,0.2137107662287082,-0.10684639879591497,0.331818830979375,0
org.gjt.sp.jedit.ActionSet,0.015047015533071905,0.11695145712529328,0.0655388175181101,0.2902252404319913,-0.304168633647692,0.11536070967870954,0.05174290876108233,0.09852610584955791,-0.45465417865111546,-0.33854553178833696,-0.07168381960817706,-0.0043903544501256485,0.11142928659696442,-0.01780646771946642,-0.07111312871564451,-0.014544854970503864,-0.05497284579126551,-0.017949721943019588,-0.123598119704311,0.17233106298087023,-0.021091909930037418,-0.09561209514045131,-0.003151829507961582,-0.20298688741686485,-0.09954187919053148,0.03902914684951715,0.32667194343724437,0.10086487546217664,-0.10721672379160925,-0.28007705794585597,-0.012584521975650393,-0.34254790709048316,1
org.gjt.sp.jedit.SettingsReloader,0.006638012334224443,0.1482211820150147,0.07934541261103809,0.35144129069432467,-0.23692705251214102,-0.07543402313698835,0.021548305892010924,-0.06656953408532529,-0.01407135796012654,0.04970872901684242,-0.07285575504909328,0.05725913482283744,0.0410370612881957,0.21212246015569156,0.06833995677746672,-0.43742589915799945,-0.0835738007283998,0.16968933535139832,-0.12972577778599673,0.021708608556373767,-0.3472881750015693,0.14609017189239715,-0.20809792288270249,-0.12099200786945843,-0.1754639526323989,-0.01912046483342515,0.0899286357963562,0.07839458056098186,0.26774936158120505,-0.2235196140270112,-0.21403240186554798,-0.24837658529920842,1
org.gjt.sp.jedit.gui.EnhancedCheckBoxMenuItem,0.0024631765549599375,0.05890602028953735,0.03267689065910304,0.15584734209950266,-0.16028033102357742,-0.003815725767046696,0.034571226364262894,0.06855414705566103,-0.2658898148567272,-0.4345883258512758,-0.11935135593534923,-0.006615335005053948,-0.24579273365368454,0.14834756452750644,-0.13067690168062407,-0.07721969890329844,0.06943357755461187,-0.22643544421451955,0.13067305098581078,-0.4963013469933222,0.10710290147840217,-0.23479010719543875,-0.042001321856160276,-0.1502293313331694,0.033826209689293285,0.10937516031466564,-0.05857466476746282,0.010332855151320541,0.0973701237640714,-0.31455470416685505,0.14662568534558074,-0.057191356157409064,0
org.gjt.sp.jedit.jEdit,0.00639717614210965,0.15282938119302258,0.08357392169121884,0.3463642041174937,-0.10482062962996475,0.12577491774484464,0.007560480314361703,-0.1457359353346166,-0.2784698939722608,-0.08385238101913382,0.019084687427833286,0.02688922900893278,0.04437949673958769,0.14012654822118928,-0.2781610246622128,-0.08913732695198713,-0.23955936869039202,0.16760241809839574,0.14874698473728876,0.4684561155266765,-0.12568213919740884,-0.2571682430866145,0.32570918766674867,-0.03334336559838069,0.13239104759911022,-0.07088671596734612,-0.084983906816618,0.05720194414411395,-0.12832166338906445,0.1325634744899742,0.14520345863112577,0.06784303653811385,1
bsh.BSHForStatement,0.4728539325593262,0.3395269054494953,-0.5061621075516993,-0.04295764189068704,0.0309865700942577,0.024329156089680958,-0.002357007580330191,-0.07220367321447031,0.025714021815005973,0.011014705713550734,-0.4209483377122867,0.0003235097667930955,-0.01798845832306313,-0.09271346534836598,-0.07989781133869032,0.04222061237342396,0.18557607295798106,0.21931274434562878,0.013015264551612827,0.004085434533553211,0.024240200293450552,0.03754495791377242,0.008405701156251246,0.0032586218799073186,0.062072002262043076,0.10494042345680511,-0.15628234692261378,0.09848711662478245,-0.16910517993172705,0.027567823550807287,-0.17820933601947814,-0.07964225708852994,0
bsh.BSHAmbiguousName,0.6069796407866144,0.09875967274952321,-0.16922429224176744,-0.03265877668228268,-0.0033814375678782723,-0.0032978344394118068,-0.000647106748245751,0.025513301418395255,0.02305281982638637,-0.0013451552723370815,0.2817095148042601,0.002474651543441788,0.026065558181974847,0.08736199810728472,0.13844693187130153,-0.04566074003057448,-0.2706881618344336,-0.29810432985716634,-0.010497101627196031,0.0011764336240361049,-0.06229597209267977,0.10161781491582528,0.06553749462146748,0.034672436122109115,0.21852271509709195,0.4202851700452921,-0.04116047261915307,0.04800094614014285,0.20387797727349072,-0.06836533844718178,0.1516162185622307,0.049089363960068064,0
org.gjt.sp.jedit.io.FileRootsVFS,0.0008029004070907089,0.10640542084644282,0.06929202203835823,0.14494006231867929,-0.14659122948887376,-0.005295471988804247,-0.03681628165030385,-0.41802810220080966,0.4571606188718523,-0.1690077493895805,0.10556181769548915,-0.052833927330840476,0.24414437893922325,-0.08232546610017043,0.03243662011459901,-0.020777203064821653,0.24466132522956316,-0.09835001067549362,0.31513654220722975,0.003495010994789457,-0.11785577917150072,-0.09075197756459948,-0.21298781537717035,0.1083482738473105,-0.1510750107626764,0.18903175192417715,0.22388966917988348,0.044555181482510454,0.003350216170717636,-0.2077785990715316,-0.19158857879983895,0.08511369847623015,1
org.gjt.sp.jedit.search.RESearchMatcher,0.08319972481126235,0.3336259197107163,0.1703975837602437,0.058996624464597566,-0.041374358283072205,-0.1085134813650003,-0.4701426570736779,0.14689850611778846,-0.07281325205094673,0.1524803987955748,0.21124190659699071,0.012622082562728476,-0.13108116122752542,-0.3381621577580874,-0.1340416627247881,0.15988525444185023,0.14060448780118007,0.13973053247748835,-0.10387736293433737,0.0016159181865322359,0.19196405803748395,-0.32632302303944416,0.07908383810085241,-0.18994138046555822,-0.06297239704297704,-0.1527618422045938,-0.06329633162476497,0.01574811772574329,0.22453551008907058,0.13212623381763342,-0.06066045939046657,0.07673860417147209,0
org.gjt.sp.jedit.search.HyperSearchRequest,0.006460252181985515,0.19049430672040243,0.11525616129384618,0.23004401788653148,-0.013547375187434896,-0.15153196356915202,0.020599631753438295,0.031121393460304615,0.10708127515505268,0.328957507814704,0.08629701462750301,0.007431402434085905,-0.2955749746178114,-0.4878994395150448,-0.028194366717225312,0.21213261716299997,-0.001755262882721975,-0.052782656236447144,-0.13231989842993955,0.04312461052283882,0.2570571237819891,-0.16084055938966157,0.19238130708289491,-0.3526258083445599,0.11869700953453294,0.02750290640673604,0.00574774968036392,-0.22983016883921845,0.0629900628388376,-0.1430471874649577,-0.05936904345976923,-0.05851444141555269,0
org.gjt.sp.jedit.textarea.ExtensionManager,0.0010851777331316271,0.052873200809537106,0.030158102420449508,0.14958115147940765,0.3878779443302194,-0.03379831772545858,0.026742793721769628,0.3789772484596132,0.2615997878285059,-0.28354213170599085,-0.029028874993409146,-0.04122251739400936,0.14432444222422267,0.016843747092202235,-0.020800875007697183,0.03601409496734367,-0.030857402491163796,0.06558566067173706,-0.04461945671049525,0.09375123663592952,-0.37127991139775407,-0.10658696606882716,0.043489556098255375,-0.1450374907597389,-0.2631907543193413,0.19075381448093634,0.051430346491630155,-0.11770159207732482,-0.35555709630715815,-0.12116848364921781,0.15988633321749018,-0.16364933475342525,0
bsh.BlockNameSpace,0.43758738578969353,0.11431699552144042,-0.16404123353989966,-0.012358640744741205,-0.03151979310227937,-0.019513285535484138,-0.010449019496782433,0.04299090992532707,-0.0202484545811049,-0.0011520828379731304,0.03437094144798816,-0.009552092336975486,0.0004116061564925025,-0.07733470738012187,-0.097114846572773,0.049876727620210046,0.3508719556958345,0.40152629901215176,-0.0046315394634544645,-0.012501649990376257,0.03899853338215936,-0.1393863786099021,-0.058348506909315326,-0.05442267647395365,-0.24288233430284586,-0.507149678862902,0.03352992102882901,-0.016563794131440643,-0.1962485112056494,0.0036488243028786243,-0.266939420674758,-0.07917377081941862,0
