name,vector_0,vector_1,vector_2,vector_3,vector_4,vector_5,vector_6,vector_7,vector_8,vector_9,vector_10,vector_11,vector_12,vector_13,vector_14,vector_15,vector_16,vector_17,vector_18,vector_19,vector_20,vector_21,vector_22,vector_23,vector_24,vector_25,vector_26,vector_27,vector_28,vector_29,vector_30,vector_31,bug
org.apache.log4j.helpers.ISO8601DateFormat,0.05758325417970535,-0.12206469699083586,0.15928347169666307,-0.1561826859015046,-0.013240212911793022,-0.0811779625555672,0.11489613743330102,-0.13117208051568624,-0.20904279107846083,0.04230746932176795,-0.005379068148699963,-0.2951041807187757,-0.3052412150958002,0.04133224412299958,0.35823828072490466,-0.11974829647922704,0.25637184640540867,-0.008084259503561377,0.12308373121451799,0.2291893967895598,-0.2907278735046781,-0.1664229305379643,-0.12967478747481556,0.2162553005613243,-0.19398664212556355,-0.07144282491543764,-0.0760791738987154,-0.03748514313193093,0.3329661098365799,-0.1879200443027216,0.13718910537107962,0.02211045399463837,0
org.apache.log4j.xml.Transform,0.1347895746976726,-0.13548833052906126,-0.3791725446134433,-0.19092215990805028,0.1656540028026708,-0.1494063813661697,0.13430856668222632,-0.1395916090881664,0.098392498364872,0.014515113170238765,-0.09929833595331941,-0.0721830503818677,0.018383098993878518,0.01660800825403832,-0.015410335769616788,-0.3158296941309579,-0.1318800769056106,0.32898343261190466,0.01739714254298883,0.15975297959535975,-0.007450777391646527,0.42461540975959433,0.30907953634648033,-0.16551659313533273,-0.21864058297431613,0.14449487139564535,-0.02798816269349095,-0.014937462376682026,0.15783967839609392,0.0909836957222724,0.07952201297653498,-0.08044644203925312,0
org.apache.log4j.helpers.AppenderAttachableImpl,0.16371764878661663,-0.17405172851979095,-0.07614668494349243,0.018955044928917864,-0.02193433999035943,0.10825886819646706,-0.5222790188705658,-0.12666075201611685,0.21859840260870012,0.12867340949234896,0.010596452316348436,-0.31972705516952865,-0.27108220865389043,-0.2465471467708933,-0.2624225711204893,0.009863488436313754,-0.1922960177008534,0.20059405056130095,0.2428548669983534,0.01896686100591701,-0.108578879860679,-0.06325465728533813,-0.1545164114577233,0.04153087235400351,0.1295757060670258,0.0911101104860639,0.06266017547230956,0.09061235047662825,-0.16530239283259832,-0.13277050727566372,0.0576499972244331,-0.04860988093717017,0
org.apache.log4j.helpers.DateLayout,0.08924824610401028,-0.15192774257435285,0.10754732830570297,-0.0716077221909394,-0.0935274501979333,0.03140876574904533,0.07728900132775332,0.09507211882585676,-0.07225288726335637,0.10653582440189144,0.33007256229621185,-0.16278933145466276,-0.3992559778465008,0.234903787734328,0.25524968308059853,-0.26525065533122527,0.2250088828781344,-0.03560130184482332,0.016338630375688244,0.4262126674933342,-0.09992662776854802,-0.024438439584363834,0.09871885947111815,-0.011779999690113296,0.1769423570121224,-0.053922743736435755,0.1584001329691906,0.0828511320141239,-0.2821292688659892,0.02278554345691359,-0.14858168307639044,0.05241357142252243,0
org.apache.log4j.Layout,0.31257049923851044,-0.21847348737446404,0.10235138861770542,0.2661675365160916,0.2330683570928227,0.17189915110327011,0.2867806035104348,-0.44795028133098447,-0.027721678105334564,0.05755447180985044,-0.24855160441267812,-0.1283328299733021,0.02544631074344351,0.13067540797287056,-0.09752477610355141,-0.030378073060030507,0.22722284472699397,-0.2922148745687502,0.17190135175300775,-0.20696828617775334,0.04901716088888168,0.057178365870743236,-0.13852087305479746,0.025776357852504848,-0.05621226860384103,0.11842759347611484,-0.07295128124548882,0.06695929756715881,-0.026780448279798315,0.1665787007987276,-0.0512773754091209,0.054534581141450905,0
org.apache.log4j.net.SyslogAppender,0.18525077056080147,-0.2960322873062712,-0.04062951157262667,0.30095639082630216,-0.4089138701594309,-0.1067574461682628,-0.0442387975600307,0.21200215178776252,-0.10559488668106327,0.07857636660558702,0.07642935123400167,0.22849511181638615,0.08021885551346745,-0.16037777428846484,0.08774031146311091,-0.20358046311375988,-0.11824302741118448,-0.08624307906581839,-0.08502155815652977,0.1352435172989798,0.18785903681242802,-0.0914359949323611,-0.17270411044582742,0.08450658736194286,-0.35545883984814364,0.015516906839118572,0.18368412192435088,0.2582096860159547,-0.10388855818202185,-0.06803569948239721,-0.15949029000781845,0.09063830165212018,1
org.apache.log4j.net.DefaultEvaluator,0.1485756617759649,-0.32247151685273023,-0.018433509572815098,0.03696001611520845,-0.12092487634445905,0.2896489534200826,-0.25281346823091017,0.020623236289275947,-0.17848734029000443,-0.2915341783015128,0.0356983610389941,0.19873675295104548,0.15260584738328986,-0.03568224119458346,0.14428464050437873,0.11974188234110072,-0.07546339253402826,-0.21943981016369063,0.08730126102368904,0.13031019029051766,-0.2415072432410887,0.09514882000799636,0.45321763749639227,0.13992096200945264,0.21892099443572569,-0.01649933838147327,0.051103305594808524,-0.17635111040585771,0.0837838337302901,0.14865065445748962,0.02488666743749925,0.09784570266835675,0
org.apache.log4j.test.DefaultInit,0.06161561283331587,-0.2722720555482676,-0.6056768088242649,-0.3978070276086113,0.09036449505761722,0.027468967994926964,0.08274537093262424,0.052992441106560234,0.013369076870831423,0.17243516619493965,-0.24112608057635973,0.00965301599107432,0.007607412864768932,-0.07404888726744964,-0.14393120177791113,0.04870155852493631,0.052789731496246134,0.02198555398266639,0.030433154448395134,0.012523234585588487,-0.1593475212059076,-0.339319806675394,0.06160761926394844,0.047140659059697575,0.05812598382957845,-0.02413996389942963,0.14602226889556832,0.07041001132042075,-0.16476668236956804,0.1435612830047225,0.023724248155196134,-0.17933764365008525,0
org.apache.log4j.Dispatcher,0.1228785604327657,-0.1698053299787,0.04164648532349391,0.029248674676467537,-0.08826045822938733,0.15815067745426195,-0.49115986480007384,-0.1374502368037956,0.23927365053829966,-0.04681300874435962,-0.009925430519673241,-0.14589985270404437,-0.3366921247928909,-0.23793935683375875,-0.2669032520075987,0.017815806508347624,-0.2205122286579057,0.21035023367483893,0.21662274532712153,0.05376504956137714,-0.1859165572632393,-0.12126402203098487,-0.12986377756778775,-0.047450671642723055,0.13952461326658816,0.057838306365165466,0.011004865370109584,0.2534948836278288,-0.0910320608243711,0.08468013158600618,0.06964744839333252,0.1400297970187104,0
org.apache.log4j.helpers.OnlyOnceErrorHandler,0.15819767090065132,-0.19007772833895664,-0.005399572546432013,0.2984323778165652,-0.28600093866962384,-0.21508742496145808,-0.018416518985114,0.22474925604015888,0.3558678882863081,0.04906053118993398,-0.1368396051932585,0.13381773981116482,0.1235286017568164,-0.044697654479635675,0.06814564903585991,-0.28806620761973806,0.09666711585506786,0.052958676343594684,9.145474086980628e-05,-0.04313520776534345,-0.10835505032739395,0.030070117220641828,-0.23292846354225502,0.1585965805646929,-0.10057880660591006,-0.3908129551149838,0.012504489314049452,-0.2833469412035987,0.0705364778219456,0.04478025947707117,-0.16707336116140245,0.1266009188343637,1
org.apache.log4j.TTCCLayout,0.19627992683058898,-0.2223496503329463,0.0052426204147130945,0.014811368570679167,-0.2497488255975081,0.21771234240804185,0.084444975844889,-0.17006513572242307,0.01611187179635262,-0.0993325369820579,0.026208713471577553,-0.13804009971458012,-0.15846233474337523,0.10682530819139255,0.41993664359279553,0.045150272009053936,-0.15521355757612312,-0.3991806306183053,0.22988733500437122,-0.03881111567128432,-0.13294701249938973,-0.057282561377121316,-0.005276810235376632,0.07253075263195183,-0.09280577316269932,0.23050239302945172,-0.2698390873216323,0.05004425958515475,0.2674746764690105,0.057616263769406734,0.13571163106127926,-0.16373282831556332,0
org.apache.log4j.test.Hello,0.10721338473071026,-0.20795923477567127,-0.4392166045460494,-0.22137236723304105,0.15145389819548968,-0.05529302359300927,0.15056427832897215,-0.15943348616836917,-0.03223506669932244,0.008166888687555772,-0.049568097687915924,-0.0999314378179987,0.013349406369977156,0.01034923765252834,-0.0949649550321404,-0.4176522985589401,-0.2620563510569065,0.27271045903615787,-0.10913402053786507,-0.18140148176914736,-0.11130046152876324,-0.05196413087398861,0.3181635634033838,0.10321748909754035,0.016698736746593768,-0.058737001111347414,0.16455464205377582,0.0861166641089432,0.09873839542571244,0.22125742550428648,0.07253626280588982,-0.12227356704805097,0
org.apache.log4j.spi.OptionHandler,0.17581335250869815,-0.22314251668857893,-0.1846684199014078,0.023605364949607546,-0.13099545920537592,0.04835545864800554,-0.0987777685851392,0.09200351428407032,0.22917331232406807,0.13415261478116774,0.01806197381921272,0.12432026294176847,-0.15149277103383316,-0.025190669819920408,0.07745752228156597,-0.03232587926771119,0.242791563086935,-0.10134902209095467,-0.4915719871971458,0.11333243465836357,0.44025406711471526,-0.13766085952623766,0.013005942314743408,0.05267520308489325,-0.10569390952713101,0.12874729951802005,-0.30548407227466917,-0.028605636331015444,0.1372731825316896,0.17147792418211008,-0.05500357899859775,0.13192744910375834,0
org.apache.log4j.BasicConfigurator,0.33769196802519,0.09602359305930235,-0.060425038265050364,0.020588435522151213,-0.12509320648151837,-0.02004142984093881,0.28184349821954907,0.12530683626337194,0.2001163583304509,-0.12532825509998713,0.22743525799501044,-0.4189863900976093,-0.04737076922387353,-0.17431419981938992,0.02749311519019806,0.5173158237843252,-0.16543422352138137,-0.1226055357917288,0.008106835287376529,-0.1722331127842686,0.024878454148858357,0.04281448717250942,0.18310535546841167,-0.07084366595405982,-0.050908835859271424,-0.07562461535446552,0.059178241913107624,-0.09972411409861072,0.017396130675904065,-0.144980891757114,-0.14290771480934555,-0.028609233637703565,1
org.apache.log4j.net.SocketNode,0.2467862848620137,-0.018035172114349633,-0.20319950034675305,-0.21057546429306168,-0.09402185614225385,-0.10186507170723155,-0.19288096420735656,-0.09066261598455212,-0.2263123771036956,-0.2807192933332662,0.0977699644207351,0.39644059770229684,-0.0503259132609658,0.07290593312439833,0.09130161948264515,-0.03482731677341522,-0.10181922079813871,-0.16306828952210783,0.3754953253327071,-0.11489321763195598,0.09875530475465505,-0.1623434134526783,-0.04505703242833915,0.14713223545535634,0.2407566759920937,-0.058436301780903296,0.0826037557692818,-0.1892986062570597,-0.13301348376362138,-0.17562613452173156,0.031982382548293414,0.26423594851718757,0
org.apache.log4j.test.L7D,0.10847889659799945,-0.34914717354178326,-0.6271475601953802,-0.39700815743547363,-0.0068753993254141105,0.12143904410191844,0.06441571607924565,0.08606035327412526,0.04017887751456741,0.035995313927702985,-0.1953002383276283,0.1134457824437507,0.08768106975107173,0.008227713663111159,0.171393854758348,0.09915827634526306,-0.014994866891032308,-0.10410456367108273,0.163010459607599,0.11898640299768752,-0.07849103981314491,0.08528545728556004,-0.1025592111733953,-0.03707568114695653,0.07207997640457771,0.24083183361122687,-0.07548508605781389,-0.06996575337706372,-0.0947614466006985,-0.16055937597029069,-0.0383460322283448,0.03200233822714203,0
org.apache.log4j.gui.AddAction,0.109793534182498,-0.01595601840473334,0.06829752347630183,-0.04956876332443111,0.011726414657671226,0.33854679277247995,0.05067591312724745,-0.06990908302336246,-0.010361131090206506,-0.03711358676291617,0.05710144524016856,0.1896170036075684,0.12402277792199645,0.13744512005842974,-0.25191766283909584,0.09498725609003503,0.024860349893228773,0.17253749045654482,-0.03748845032122979,0.23916199023672444,-0.09682349290043005,-0.1706201380606459,0.033090821058123214,0.11785525671577023,-0.027530091399271636,-0.12947969398446832,0.10510346473790926,-0.15167646821194694,-0.18012819985929013,-0.47773837102962197,0.4086886734339333,-0.29859783132388223,0
org.apache.log4j.test.Finalize,0.12789391448309367,-0.23457175842436553,-0.4409291152153848,-0.1825557622507058,0.1746458527021925,-0.0324945484563945,-0.1265625109493418,0.04353470309986856,0.15754180099053097,0.20184605777527928,-0.14132829885660214,-0.1908417761351684,-0.12435425985354867,-0.15355435169819942,-0.0964121199398937,0.10273722936508656,0.15251368356219694,0.023316010274417757,0.2410845171438243,0.12480046853141075,0.09775950751976488,0.16143866313015753,-0.08951548181469622,-0.12828577739932004,-0.06667799945837977,0.1628557063139396,0.09209578287491324,-0.20679398155993772,-0.03260731299094299,-0.300889968266895,-0.11452053746502887,-0.35501857433231515,0
org.apache.log4j.test.MultipleAppenders,0.12789391448309367,-0.23457175842436553,-0.4409291152153848,-0.1825557622507058,0.1746458527021925,-0.0324945484563945,-0.1265625109493418,0.04353470309986856,0.15754180099053097,0.20184605777527928,-0.14132829885660214,-0.1908417761351684,-0.12435425985354867,-0.15355435169819942,-0.0964121199398937,0.10273722936508656,0.15251368356219694,0.023316010274417757,0.2410845171438243,0.12480046853141075,0.09775950751976488,0.16143866313015753,-0.08951548181469622,-0.12828577739932004,-0.06667799945837977,0.1628557063139396,0.09209578287491324,-0.20679398155993772,-0.03260731299094299,-0.300889968266895,-0.11452053746502887,-0.35501857433231515,0
org.apache.log4j.helpers.NullEnumeration,0.06161561283331587,-0.2722720555482676,-0.6056768088242649,-0.3978070276086113,0.09036449505761722,0.027468967994926964,0.08274537093262424,0.052992441106560234,0.013369076870831423,0.17243516619493965,-0.24112608057635973,0.00965301599107432,0.007607412864768932,-0.07404888726744964,-0.14393120177791113,0.04870155852493631,0.052789731496246134,0.02198555398266639,0.030433154448395134,0.012523234585588487,-0.1593475212059076,-0.339319806675394,0.06160761926394844,0.047140659059697575,0.05812598382957845,-0.02413996389942963,0.14602226889556832,0.07041001132042075,-0.16476668236956804,0.1435612830047225,0.023724248155196134,-0.17933764365008525,0
org.apache.log4j.RollingFileAppender,0.15765727287356698,-0.2733241710383696,-0.02190310808088928,0.2333323211509045,-0.14289403213549198,-0.2254621837289819,-0.03163252682215311,0.2151649215047793,-0.2347024053063634,-0.09012485416696774,0.1982137741951516,-0.03812753563421635,-0.029308807430351934,0.34106291327271815,-0.12307001060195552,0.17902747703674765,-0.10839935166584684,0.24512258582767588,-0.033199868756292585,0.072248800367661,0.06472253048080516,-0.15559190924466734,0.14004505936609418,-0.11231814489652726,-0.005666608069000205,0.3341980842798558,0.02312742584243322,0.2162580938342546,0.23881167174023188,0.11612108108840351,0.20267800531608454,-0.22189173868692674,1
org.apache.log4j.AppenderSkeleton,0.27596700235629756,-0.275539099773886,0.0014427817325671048,0.3917360396669288,0.3480682096968535,0.08578921415047175,-0.20945570598553098,0.08151976925739322,-0.11047872156215464,-0.058916687565244645,-0.06037755414084782,-0.1833897412960962,0.051062062242008564,-0.14659006421085571,0.08179162517019181,0.05996142579763012,-0.05215247651318421,-0.366244605020155,0.08476140466838127,-0.008043842374558952,0.0037817127332236216,0.21986092421272435,-0.225835434181932,0.07098855192319743,0.17981714827659542,-0.05570993039011286,-0.22610136683850873,-0.06699296428985456,0.03205859651351959,0.08970575355078303,-0.0030102069791068517,-0.2819000228602056,0
org.apache.log4j.nt.test.NTMin,0.14795798241625013,-0.24206225384792898,-0.35025236835397566,-0.15919221871701672,0.12500522033333347,0.19667654415647218,0.14416967493361924,-0.09583199469073674,-0.08055690236836298,-0.09450345798464048,-0.11112024933259347,-0.045317863093081646,0.05058438384247574,0.08028951119714116,0.17585519299138605,-0.36747644967394866,-0.49348812705306566,-0.15301076860551524,-0.1474615885294995,-0.18579233821064683,-0.29551583962187866,0.14504795383144897,0.020996024068243593,0.000943113984478057,-0.003122865935754048,0.05627596873120325,-0.11654779310223225,0.07340115798274513,0.13252197462399248,0.054641932312609914,-0.03131281587627636,-0.08206659090136757,0
org.apache.log4j.NDC,0.3236654961528678,0.23142229301778725,0.0015147556780234746,-0.05720053616828972,-0.08601275068304275,0.1265841818244355,0.162154229348082,0.4990374414918071,0.001368214157775347,-0.3195689878946201,-0.26335591149335613,-0.3439263539843024,0.021443545548557052,-0.12806175234685283,-0.17630533654646494,-0.13197357511583288,0.23213601071117695,-0.05030166375782199,0.05656626997391938,-0.048873124640143,0.048210844238554165,0.03807708287051122,0.06320347011975447,0.19667707755161284,0.10150931279289976,0.046536097202448376,0.09485272428876522,0.20020479561245708,-0.0022618999431479278,0.05209516859032916,0.09645834130885787,0.04999551100691957,1
org.apache.log4j.helpers.QuietWriter,0.13129946036267814,-0.19043110989114811,-0.02935716617340337,0.39685011095945,-0.03324505735926876,-0.15967924436839384,0.19436377604326277,0.21334021284546764,-0.2516970820420001,0.27113308151650634,0.03779518220549024,0.21780785604259734,0.13705066823353684,-0.3834848796848531,0.02323632216383058,-0.036235805828825775,-0.012663874936715213,0.11653064773194166,0.16168447294400592,-0.029090741547430417,-0.12070476453697303,-0.21664900395869385,-0.050215141860777336,0.060148115845255756,-0.3029184627654927,0.10600302652909491,0.1219367425181986,0.2442385132535773,-0.1561608475480441,0.07528780900570518,-0.05363262584152275,-0.07745251680124862,0
org.apache.log4j.CategoryKey,0.059945444095542914,-0.04814815797472791,-0.1710560087350138,-0.10076685351356529,0.05273577983989711,-0.14555885468498495,0.00715875557207376,-0.11530366513391803,0.021811759934805802,-0.1327582219094066,0.19699343374742612,-0.01305978800230265,0.2236858238845641,-0.04732675572428498,0.06500498721371005,-0.055754393011540566,0.05887859062743754,0.03885699849698766,0.5848157833707552,0.04997798160220551,0.41996876726604454,-0.10853822875054184,0.1573278428988653,-0.019478999803460767,0.06553830447318447,-0.14074996121823347,0.08930795170210352,-0.16566371171826158,-0.012198246543237114,-0.12868619824321062,-0.036015066672315924,0.40046329663155017,0
org.apache.log4j.test.ConfigurationFileParsing,0.06648889812531478,-0.21415624641149286,-0.4897305672435661,-0.302557766500968,0.11429220371342018,-0.04073362918412636,0.09748643929548242,0.09091446320619283,0.08211898607037382,0.07583970722013544,-0.3156593548168245,0.019143904017029763,-0.008570975449344846,-0.01008847350949423,-0.01195206349382636,-0.07312951207712033,-0.0993993328276662,-0.06744690285891984,-0.0903884683570354,0.260149619098038,-0.25173353821105193,0.33257207815748857,0.004152610057706518,-0.3379938082441083,-0.24687375042116733,0.05678157656532547,-0.0779809502901654,0.014944392650638016,-0.10591646078943066,-0.07670885599150523,0.0048712410888539885,-0.039622317426978845,0
org.apache.log4j.Priority,0.4761163889543356,0.21711632366024194,0.12594054733660612,-0.002478119990000797,0.15896324586866117,0.4138543805262301,0.17739459176070102,0.13747860040439505,0.10774643109167659,-0.15456241441724614,0.06801076373654284,0.09734128975746457,0.05504390971532558,-0.003567190403445389,0.317602276965355,-0.059205685602042125,-0.09187542545096336,0.30418445946237305,-0.05822822665579041,0.06277667007505355,0.15244889550431862,-0.14990813494591107,-0.19819648501451725,-0.10137962314975617,-0.1488741410433563,0.042037514174253075,-0.1523383549681555,-0.1116712219316791,-0.12727531562237074,0.08280088009584557,0.11493296460619257,-0.08323264205107252,1
org.apache.log4j.helpers.TracerPrintWriter,0.16159071175624246,-0.24378870875498457,-0.04651557744636667,0.33105276225164276,0.031776441655603505,-0.07766231512562849,0.22933555598472866,0.2698693009153459,-0.39744275526704337,0.302173129919517,0.2972357296391155,0.13788181328013813,-0.00900054104950924,-0.18739490400240444,-0.14441959964381365,0.04140643112323449,0.05758990681914169,0.14705216880823754,0.049345479841233435,-0.08267991782337844,-0.006294257367748142,-0.07103009914686574,-0.13844618441732345,-0.1064210837091861,-0.13858528087294675,0.20595320811133197,-0.14042159795302148,0.22924856924992545,-0.20738218008749637,-0.0443577270542351,0.009432151162468686,0.0841547727894454,0
org.apache.log4j.spi.LocationInfo,0.16789757059434451,-0.2874972402119802,0.2730491308251075,-0.0849133625505064,0.07914216171955923,-0.08613512113235373,0.010144278632029359,0.19192806739931312,0.2765751977847742,0.05693428492577452,0.1329359521297582,0.12004482437717648,0.03332430519473335,0.2758960667040714,-0.14747561757701874,-0.10918271417319811,0.1646435543445613,-0.11327498865754934,-0.000825347010386314,-0.2132396751433627,0.03209352171734641,0.2327065418857374,0.0914012400950402,-0.19534354125097753,0.29365945862582254,0.18059599332755238,-0.2204633355440705,0.04041018680061809,-0.25054739679958793,0.16743596028697824,0.13130586705756575,0.2642089894957614,1
org.apache.log4j.helpers.LogLog,0.21108958386201288,-0.1548337825885173,0.024161338964980964,0.21467577539785312,0.13357370986518655,-0.3339179613109756,-0.14923035624257783,-0.1655358203889524,-0.20753572031626238,-0.35859461489431577,-0.2289930509745033,-0.057232816709176584,-0.028576463137383996,0.22196054830574172,0.014303528267809805,0.08392843739489361,-0.279789841853627,-0.09899289091388862,-0.16606627458828677,0.2927088203955598,0.27793554181013247,-0.04293765609470472,-0.1704460324005195,0.04593243059725515,-0.08163487606173592,-0.12162967142398576,0.16157267573119227,0.041801684941301966,-0.23357260832086496,0.0007857506594959873,0.06940430357003943,0.02828937256602183,1
org.apache.log4j.helpers.BoundedFIFO,0.15214763120162447,-0.14555133592805145,0.08679453615937548,0.024330555781093742,-0.024919677948593257,0.23526580677018366,-0.46476426524146963,-0.1063727518634206,0.2171184947122322,-0.09960050016654899,0.01683653544590604,-0.12140281106965965,-0.2547014485551793,-0.2113378094444278,-0.19529305203736017,0.04812492560425665,-0.21360876124543335,0.3022644222341146,0.223196483834162,0.1466044193654274,-0.14695560905360114,-0.1136277445147974,-0.1320117989353524,-0.07603649892965801,0.0571557205245463,0.11237578332783232,-0.02011528565155411,0.2312702646718122,-0.2653195546219063,-0.007426686107681928,0.18645909270883584,0.03396782235809652,0
org.apache.log4j.spi.LoggingEvent,0.30594890783132755,-0.251827523578774,0.4384129970876894,0.037770820800570454,0.5263204738258779,0.286607489957041,-0.13900248763237213,-0.0463868919461413,0.3155506709426337,-0.03978254414121929,0.03924498075160699,0.1841467265794053,0.0452321722470384,0.028018431089075223,-0.08160901718631129,-0.0036090810083605446,-0.009054575818855303,-0.06306688624544668,0.05889343431491616,0.09269775889479343,-0.029411419805107607,0.057912118957563256,0.1503547380315182,0.04960013867193053,-0.17932926517104025,0.07101925680830914,0.04524801525142103,0.03267057321605644,0.07689122063269717,-0.07449165527884574,-0.15142418899268076,-0.049916195418375685,1
org.apache.log4j.gui.JTableAppender,0.18747459365537802,-0.22663466922236195,0.004888420086626505,-0.14475888820100816,0.04477727191728159,0.451305485117671,0.05078654377424668,-0.08724168774750529,-0.06297193480175259,-0.012370863362396997,0.06012835667367143,0.18363889611447073,0.15257712372037546,0.15165388411634179,-0.3081379695854917,0.21385175736954418,-0.007855226726732325,-0.15241655923498362,0.0605754814102409,0.10516799025826583,-0.20316860950406193,-0.13088632459026392,-0.004103315035516027,0.17783415781245085,-0.21908246537378298,-0.15049094589188497,-0.043507604302812516,0.006095721436056081,0.08792394142315026,0.17949224345195833,-0.3764148964282977,0.256783541124535,0
org.apache.log4j.test.UTObjectRenderer,0.025024591052341297,-0.007266901167580042,-0.041987829627690466,-0.017019967153829068,0.012726763406263079,-0.14675392639106732,0.09658923627626179,-0.14908219355438151,0.12209280055176538,-0.2656291605699875,0.361234471861274,-0.08232958982386346,0.1617302202435178,-0.19302185656067422,-0.1517868123618971,-0.15873727999897796,0.09067215506882546,-0.10161278170304774,-0.11910406330315003,0.0586619587595313,-0.1009812488147039,-0.13101405137416383,0.004127524112922751,-0.09792801497688407,0.013228866247871753,-0.2528189531766597,-0.4668323055788317,0.22543048729530857,-0.0003049796738531173,-0.1354578862193336,-0.09469645480971318,-0.4199133945730666,0
org.apache.log4j.xml.XMLLayout,0.18009754159201527,-0.3160557674466676,0.09236459053954191,0.042730832284815924,-0.47483726286544814,-0.0036291295126581182,-0.15026209353876896,0.005671325783843809,-0.12697307651725886,-0.12384707994279508,0.17070661394202874,-0.000862489889219699,-0.04321166557677088,0.2367690460347474,-0.10133570496781713,0.0441548694774054,0.0786608935427871,-0.10690523538669522,-0.07070582589588553,0.05480056076735091,0.2974617955054206,0.1498949158064893,0.07969852405793496,-0.1801556972803881,-0.2664797475797199,0.3718676616785084,-0.19148783436647643,0.20194186819005278,0.09143702255639465,-0.07858473721545146,-0.0356679789388994,0.023294517795373736,1
org.apache.log4j.spi.RootCategory,0.2181137709426678,-0.10908560219603208,-0.2351177892390152,-0.12196710863666244,-0.11692021040353288,-0.05894875546702155,0.06950865137554742,0.045353760402023165,0.21067388582926816,-0.1842389851663825,0.06993805834148432,0.2891293641931822,-0.051197885223462,0.07427097145248528,0.21102500599670806,0.11772095387641429,-0.11064273106837913,0.09617808094017596,0.04718076345506528,-0.29528844296297757,-0.2058869321805021,0.0575790329119297,-0.3045248744095736,0.3915678856596318,0.32782769014276014,-0.17879942279096528,-0.14167055852804758,-0.10861084594522474,-0.04630594527875199,0.05550914534546776,0.0415993327336915,0.1790331224174905,0
org.apache.log4j.test.ShortSocketServer,0.12167513930954868,-0.18694271701428578,-0.3258446131848695,-0.18919578567657294,0.08944708737072057,-0.18464291367255764,0.06791581897502717,0.16227874128358105,0.37316770317147585,-0.029750622057573013,-0.16332421453784973,0.1226058135823792,0.08313777718678111,0.11707151267188656,0.038618282645873636,0.15460298640974218,0.25383819920192163,0.2304188973425893,0.2151322845673931,0.26452787354950535,-0.10177413178046953,0.267697736606391,-0.2404806493389791,0.022424136992839287,-0.06422753516722902,0.03653615183984174,-0.2649735987908985,-0.1830572295648966,-0.09330204113828537,-0.03472589436292679,0.00912765656640646,-0.11860377973660118,1
org.apache.log4j.FileAppender,0.35581557894003996,-0.09351885832770486,0.030721138133991393,0.29729334149746167,-0.2842543543432299,-0.12136026379477205,0.5083934336597381,-0.35378871744206003,0.20020116139063615,0.140813004853475,-0.22095169422340138,0.06126097497546697,-0.10418929268484123,-0.04798341886600032,0.06308200984292808,0.08936189839142389,-0.11200418621090395,-0.04262520453484471,0.0507462750043487,-0.15964123985523013,0.047136655970410994,0.06871624769923834,0.13638931877498653,-0.0712915282964157,0.08469052788490827,-0.08724335776805366,0.18262383558208176,-0.037292786273509224,-0.1530730197054991,0.031949106673476155,0.10002001290431456,-0.0390671154510063,1
org.apache.log4j.net.SyslogTracerPrintWriter,0.09653923553102703,-0.11038105623250354,0.019175168382197818,0.3132113056064425,0.04879289847055181,-0.05806593794106786,0.21834783084332324,0.002793472942587944,-0.12523260974483746,0.18279156161888213,-0.13715077815463347,0.1844749077471002,0.10788609899170579,-0.3475565850359025,0.09905515526512254,-0.005391122456241737,0.10701136551414146,0.04997904977299994,0.09435516975196476,0.025678085413377943,-0.18352345217786564,-0.09372564318307271,0.026009763236119355,-0.18618097456003882,0.454576151073531,0.23458563580407418,-0.26445012015121133,0.04957864613542473,-0.015213173886305767,-0.3004378266841618,0.07189859442284681,0.2265735743608927,0
org.apache.log4j.gui.TextPaneAppender,0.219708097922084,-0.19132246317238377,0.0049185937163072875,0.18169667696153838,-0.34363428507235333,0.10066457833323919,0.1632251132024749,-0.048253911838757185,-0.09048807760228061,0.1423150112619781,-0.01699379907519572,0.21070259288967128,0.0768855768689956,-0.05712412757752111,-0.0756813866064435,-0.14772586805947208,0.015741003337003855,0.1489824711432019,-0.14676648598329653,0.1946900243070738,0.13881681230705234,-0.020448777602473628,-0.04326245141459668,-0.18847355936798363,0.32752083084712363,0.28001563128313095,-0.10192015034955176,0.07487766067719095,0.27342210309106446,-0.3885226555637478,-0.1529710716931055,0.15903843124157493,0
org.apache.log4j.test.StressAsyncAppender,0.07215677536956772,-0.2003776722356448,-0.39390274849952983,-0.19090293908358938,0.11304329950626664,-0.03390288556094595,-0.027232858785117213,0.00789903042102101,0.15301676149994836,0.14069229807683623,-0.186087987968168,0.008821626128617631,-0.1648276967907654,-0.12675708745271794,-0.02446210289337891,0.15824114092257496,0.25839534993739366,-0.03765042493193842,-0.40244221813330144,-0.059198782353035,0.14737263941122386,-0.4999322373041224,0.17687393736714105,0.05163008493094134,0.024162057934400297,-0.09749776101877898,0.02025096607566329,-0.022768520704820782,0.06674592075308775,0.1948985839963369,0.09310279875969074,-0.011823659578227223,0
org.apache.log4j.HTMLLayout,0.16917340356961227,-0.32235598692335043,0.0018471378515466624,-0.011544763530004486,-0.4517162424712304,0.0810168053050691,-0.12524923239720495,0.013695452530525495,-0.1666511222099319,-0.1485641437911993,0.17055739984576404,0.036797803066580904,0.004254152798952295,0.25042437172031695,0.006704543308652376,0.04083162413873288,-0.03624588479741728,-0.1803986299155342,-0.06940689357368464,-0.023111546277130385,0.2590127477706679,0.10753785964102959,0.016512512979920596,-0.10488167825577432,-0.15543753346151357,0.4325062539803512,-0.20617554119970652,0.19967593154824878,0.113764092410759,-0.18350552689749822,-0.11635746329770037,0.1149912179804844,1
org.apache.log4j.or.MessageRenderer,0.14027515576181737,-0.03426689437501181,-0.015062602818048885,0.031360601802208954,0.02630408032901229,-0.37666218095265436,0.008201126321472841,0.008854081762409637,0.29664711609427513,-0.3422135595123493,0.2392265600719469,0.11967328469135026,0.0652890468961416,0.11031923949939848,-0.1393426725827974,0.03814506731792018,0.164294050649788,-0.03030995841201191,-0.14572876654484382,0.003257904182972937,-0.2987560522287201,0.15907119695047472,-0.34607168481258643,0.24594489791416319,0.10683058423176955,-0.15807334498944595,-0.24010153335309983,-0.047771842744302365,0.0622857269930412,-0.03782815294946581,-0.10881131547243603,-0.25260237749537334,0
org.apache.log4j.helpers.SyslogWriter,0.10718088368684338,-0.13596339097437685,0.023528284664225678,0.19876903882322072,0.08149643227650401,-0.18690394747786696,0.034306818529508815,0.21358370136864321,0.22351269932087062,-0.058564551372298164,-0.11474009257496917,0.032270316067422936,0.12831514405615138,0.08929398878955229,0.05072645351617347,0.010912515728039817,0.20262884197093173,0.07011264962175302,0.11387507224485956,-0.08178182268303888,-0.28987036273867767,0.012911787567196966,-0.23207965755045126,0.01706391025911904,0.43534069007572757,-0.10986616128315865,-0.4559409762979435,-0.290881965607857,0.05964497031494742,-0.09392597472929173,0.04591141969944588,0.18525977118714923,0
org.apache.log4j.Category,0.6836445125043206,0.5815631425140935,0.017048764304170832,-0.1127779337574513,-0.0168798663063472,-0.037058921623158665,-0.029869779617683598,-0.036837016534116605,-0.07347885368879283,0.16906039205429635,0.007921483686773069,-0.001541229542166101,0.051177606560514226,-0.021318784558904433,-0.08080374629408568,0.13390851587433258,-0.10540731236969336,0.08203569022100166,-0.07040311250487472,0.19361370538788078,-0.1072042993693979,-0.03460920210504873,0.03679999741776874,-0.08352489907099285,0.010868189763521092,-0.0370184334849204,0.0035465458298425557,0.0336827685105002,0.09958133439499502,-0.009274518296101118,-0.128743552875109,0.07348380839391737,1
org.apache.log4j.test.X,0.006227650441510434,-0.007360318117142349,-0.026426964145513612,-0.012645642100501639,0.02155319574455987,-0.07188800045730623,0.05092719908097788,-0.11431211453204936,0.04500529852614641,-0.15750150499847726,0.17829394413011226,-0.07962232801575791,0.14342999639080847,-0.12115135469870766,-0.10106382290596275,-0.2262037362987931,0.022313238568630264,-0.05822887789261893,0.03851978430749257,0.05377836053956978,0.04139651748011915,-0.24687037146415816,0.16320831043017014,-0.1743840980526716,0.015048621716005923,-0.3922409918777149,-0.5458316576326231,0.28997726163722815,-0.02638594037254873,-0.1597855048298819,-0.07868887016942162,-0.34594100004970185,0
org.apache.log4j.test.Y,0.003941579330132201,-0.004777934680585811,-0.01772932633622441,-0.008707327588364405,0.015234121430116942,-0.05286417976467159,0.03749253797056507,-0.08586478238483451,0.03424520422099265,-0.12049541473131153,0.13721379421929183,-0.06342841725359326,0.11504547552576443,-0.09754900506876106,-0.0832559245784002,-0.18968684376778114,0.020668561956112802,-0.051043788929208696,0.03105742640157888,0.05316585073260995,0.035807243480549394,-0.22960301974450248,0.1541474175182192,-0.16436250399296762,0.020135449924326573,-0.40340703945216805,-0.5664451760385022,0.2984412668328955,-0.027807080292189004,-0.1717900652832327,-0.08431319764474668,-0.40186562349179683,0
org.apache.log4j.xml.test.TCategory,0.17340172765997378,-0.05349938215465684,-0.10105516980982782,-0.09544946369724834,-0.056022527937489394,0.21704080852631216,-0.19265636721680146,-0.038823733000193976,-0.08053711026507686,0.08970185263573198,0.056885667381524195,-0.020036856623871998,0.36178534538974405,0.08711580585246818,0.33938885972805866,0.0014610627848834492,0.07854207356703319,-0.075767229963833,0.051483062321416015,-0.14203664602596264,-0.005156941846972974,-0.05128613393225029,-0.30262073121211835,-0.3274716668520037,0.1704691085088597,-0.0970282395296281,0.2012738130875217,0.3094549475113138,0.07620041253327504,0.3239417090068648,0.16923012316012437,-0.19158156582594557,0
org.apache.log4j.Appender,0.33069541742197905,-0.048559571217535194,-0.05908400736674772,0.12470653852284933,-0.1841421463465947,-0.018223170929284226,-0.16015670582484995,-0.2681669225908716,0.27530627715920764,0.207692805324633,-0.03945064380527143,-0.021487082829750318,-0.4132063963981209,-0.2006780867361979,-0.10432896321154411,-0.15582203653109297,-0.20377222685455218,0.06577278920265658,-0.00501784532251777,-0.06041970662571976,-0.01826848625482578,0.0193076138359641,-0.05708947105030717,-0.0368811769093231,-0.07343421160482147,-0.05426991435289616,-0.22850462202155347,-0.03406409871049194,0.026259053374650596,0.4260288967275693,0.17761935198121964,0.20002363399468712,1
org.apache.log4j.xml.examples.XPriority,0.10312753996273372,-0.18304860462176425,-0.2312577387173093,-0.15925207860623064,-0.0909432533977367,0.29559365426626355,-0.00036252737936599236,0.052000470487302844,-0.048936137156670716,-0.0651229575207511,0.03703904754531507,0.19315700475765357,0.06648377018292959,0.04133480810048048,0.3119365188777738,0.028375044022279926,-0.17448576829245474,-0.18040648521944838,-0.2334029459909554,-0.14970670947134698,0.09125754070902545,-0.3695863702091835,-0.12044186288716979,0.31435006020483747,0.27223618084108736,0.20953225989616656,-0.15078203898722736,-0.005157044868395682,0.022971305882198326,-0.09067795553548193,-0.22911413770470848,0.17018813690889797,0
org.apache.log4j.test.CategoryWrapper,0.21418861064293604,-0.3600904913429827,-0.24080438416184713,-0.013750090163026443,0.03529663741109647,0.10383466132835768,0.05111040136947857,0.21625429487507483,-0.29071224195712686,0.2540035053953446,0.3960685240794783,-0.140895801187543,-0.14555790864204576,0.10060202266435014,-0.3379310236083071,0.17454726383061323,-0.060652476414607144,-0.060364580673029376,0.042822756035397654,-0.2243616926500874,0.09611563622072922,0.011030361866715703,-0.2476063745450659,0.05208626578465427,-0.006815762349645895,-0.05978138931278241,0.02440872852789376,-0.13772988211998943,0.034857328828322084,-0.1670019762204257,-0.09997163472742183,-0.08938876489905893,0
org.apache.log4j.nt.NTEventLogAppender,0.26178915007528486,-0.24290618113311743,-0.022582379730446394,0.04711873749742033,-0.32307422551639575,0.2969457283939623,0.010254217461729935,0.2861793912858021,0.002885144321296556,-0.15048925123503676,0.2852397776615389,-0.0628862974272173,-0.17505399262310792,0.090802754438885,0.13872848103127267,-0.21759211527161226,0.11254421461475445,0.10280913984744353,-0.2261205682339219,0.024811726058214658,0.17318008349611375,0.1338048512245962,0.004889504519671345,-0.08544954510031551,0.09111470162268821,-0.0783477671071871,0.13404935610194887,-0.008108026508622732,-0.13551608954238994,-0.17211305999580884,-0.1578390315117558,0.38228796347538996,1
org.apache.log4j.gui.JTableAddAction,0.17964067926973457,-0.3710812063491141,-0.2335043739084108,-0.2918210076234014,-0.3225759851551818,0.4277217939147227,-0.10838995810155641,-0.03992416730833637,-0.16895210949777204,-0.1438695647566615,0.016972462076245767,0.1751305578681894,0.1456235599804516,0.07486770924419077,-0.06581229115444086,0.034856341967009825,-0.03926830031737245,0.02795797528295792,0.009734518894194471,-0.024763286314913698,-0.1649856549064746,-0.11540905609164018,0.030308808149897715,0.05355902868445473,0.3028417578955342,-0.04811064147775406,0.0796765014679746,-0.052300947917195764,-0.06989822369634201,-0.025459594651875354,0.31878284239202465,-0.14076469269633518,0
org.apache.log4j.PropertyWatchdog,0.10855564786980676,-0.1737289134040015,-0.47219211148376444,-0.2778093236425838,0.11455921032735655,-0.1888099994032698,-0.06761780883463606,0.015631071425267946,0.0806462614822887,0.1485024326680331,-0.29383814601306846,0.00910425039533291,0.03595051064842729,0.04596002205730136,-0.015448619563924338,0.0800401024172301,0.2131214957942538,-0.08658940856588211,0.04540832976010763,0.30083162661835305,0.09565212967406152,0.0718347056582093,0.045154618379517446,-0.0959274411575059,-0.24986098916612595,0.15517291136611133,-0.05064714194574165,-0.14364446533490616,-0.35924214833874896,-0.011751293614227396,0.21377073942323632,-0.15375635781065117,0
org.apache.log4j.test.A,0.0029762042855085674,0.0008684764127926484,-0.006786773799192248,-0.0038046781985499986,0.004089425679957918,-0.054338348829877384,0.03949184502884311,-0.0733211347313523,0.06020416298933823,-0.13789823703956544,0.18761923659892535,-0.05542108763367412,0.10284564152787437,-0.1664610610974382,-0.09876069340967236,-0.049139246545874184,0.09402841328649246,-0.16745166401755174,-0.2166539982012205,0.1110921260611325,-0.2743511006489913,-0.11375218127242002,-0.28683417692334257,-0.12061777011160617,-0.02260622414116495,0.49228763061800346,0.35473471829324354,-0.4379636860963776,-0.0017730623530354426,0.1652515782384924,0.0981215810366911,0.004307759023539029,0
org.apache.log4j.net.SMTPAppender,0.19794716366688203,-0.27181560878083894,0.05559730474869086,0.2666890187738611,-0.4153904556101677,-0.026292906448127276,-0.06283059383529785,0.1992731255648305,0.2445229040799138,-0.0007770489495658798,0.03434869520338823,0.28892766917270724,0.1520653280603783,-0.00303918599717769,0.03497428311762717,-0.2210938434457889,0.08851803740121016,0.03353477672326533,0.09471409688205404,0.09953142939230278,-0.13013436510902351,0.020608066309058398,0.2082202443240074,0.059570487203596235,-0.3092263434654174,-0.18761572181094072,0.12413306511464652,-0.27478093452838354,0.019521710767188966,0.08984815158196682,0.04476609079544275,-0.23203019080521903,1
org.apache.log4j.net.test.SMTPMin,0.09580132222935886,-0.2886538510224235,-0.5463591244081051,-0.3404299201394158,0.028509744377946976,0.09473099516164493,0.08923351895250081,0.09857042060768949,-0.0015086504321692737,0.011415324869976397,-0.25002140143607005,0.07393008251380864,0.052269589392325205,0.03204655330941774,0.12856561563594437,-0.07262485019632615,-0.2393760138237784,-0.16234711186124043,-0.08030322804024348,0.1290748474459255,-0.28054732663034915,0.25879972448288774,-0.07105008233325612,-0.21257782810281672,-0.06276640381571857,0.10914666820025602,-0.08230015152266405,0.0033721706399782374,-0.07021156353214338,-0.18015763548099134,-0.06660731027524021,0.06939015336797173,0
org.apache.log4j.varia.StringMatchFilter,0.1454278421548071,-0.24124354990612215,0.04344616175384697,0.04327118828600911,-0.442383989220421,0.04981702596794913,-0.31227543886457787,-0.007110505651199655,0.06910690079754303,-0.08676550474122312,0.07083036152248354,-0.014878489913740196,0.07630667772102538,0.08848861112825221,0.05049851404154959,0.007370964710108894,-0.024096028659065776,-0.19679949544892963,0.041272714395032356,0.04136105203642803,0.15219926987263172,0.06012192632355171,0.26217438306431623,0.03932609109182194,-0.13676502641442803,0.40429156515403286,-0.2766656326291951,0.21596746468299305,0.2807938958249505,0.18532614087482685,0.09213362378305734,-0.14329335971074536,0
org.apache.log4j.helpers.PatternConverter,0.13387076916824722,-0.27190941967791055,0.4602293406404637,-0.424829187090507,0.17297285093539883,-0.17239563067650834,0.057669693144757526,0.16472088588118836,0.09386063004533791,0.14281108252774685,0.014529208133165075,0.0915950552052357,0.10385905793034617,-0.12263529939975279,-0.06353048137060306,0.0378416736129019,-0.22875552316188094,-0.14769741920349116,0.0015741103887809858,-0.08849534115602928,0.08120730559785706,-0.07740056870526732,-0.053546170811180044,0.04849996828626524,-0.17462482759765227,-0.06431307868290004,0.08345316777313237,0.09615047119738808,0.17885640176668485,-0.1557862335721053,0.3580579274296609,0.14686164455151465,0
org.apache.log4j.PropertyConfigurator,0.485990106422707,0.38871322847562767,-0.04202385446756029,-0.0972877824830128,0.019031126175572777,-0.23996922180984706,-0.2171647460969572,0.026726692572504797,-0.23561929835002762,-0.08668923018507832,-0.027284141625068082,0.33590615879132185,-0.281980512377384,0.0701999499686597,-0.09895071650513786,-0.20672895678479028,0.09627157767625773,-0.2367076900572436,0.15206505551497196,-0.2126024780165858,-0.026673964308701857,-0.054998732253924515,0.031256950891466316,-0.07443289454107728,-0.027287803063969624,0.07162467926137468,-0.025513029829075617,-0.13511656674444741,0.012612552204152487,-0.04829028339336371,0.0017816953332084058,-0.10455714502131051,1
org.apache.log4j.xml.examples.ReportParserError,0.08226805475968217,-0.12251439945240582,0.002648369877985251,0.07757701455358339,-0.06699356215495308,-0.2841230003965523,0.011221713642694468,0.2714794824750606,0.36359749310335143,-0.10987696047194535,-0.06454059530691794,-0.009185116200314284,0.11365884500695438,0.3249991445758103,-0.06803745203541915,0.01401313113009313,0.15525618293895208,0.12171017417874681,0.11713882137239409,-0.11674480738630073,-0.24772926665484274,0.01618731908563223,-0.27309537313442517,0.12165729787896216,0.24071451324690984,-0.22058073380937257,-0.2891789254341447,-0.3333381539013244,0.10434455210745754,0.061419412693950674,-0.03797839623216739,0.08086437862969965,0
org.apache.log4j.varia.DenyAllFilter,0.13730878173856623,-0.25687221813246286,0.059650510252425425,-0.03263809584024714,-0.3878336016023365,0.17880024168282527,-0.4134684428062023,-0.06037080045862254,-0.009758768394746594,-0.10023055723883759,0.07804517358615985,-0.022078388952524418,0.06892471669018865,-0.029777059585454096,0.009499227487432992,0.013196628398420555,0.07731006094416527,-0.1507879074002953,-0.008589992094955255,-0.013279004880942401,0.047999541196502446,0.1418686602731672,0.26296886025258664,0.04573784835283104,-0.0036942360430801467,0.2173437598391878,-0.33172318220921576,0.1333082302496937,0.10063259668332777,0.3709540310191857,0.28932925442458357,-0.04224919153164349,0
org.apache.log4j.xml.examples.XCategory,0.17504826626622985,-0.06830034325529967,-0.12061461158105599,-0.10521826000436647,-0.08022766109502912,0.18271750243630305,-0.2405937477448827,-0.06940111717921436,-0.11010118874655742,0.13506034077325035,0.049368624868882195,-0.046416106561787296,0.38513157420593896,0.0829680596493642,0.3082379651849371,0.024849198481171966,0.14313699957661388,-0.14587919025808108,0.04588978886136991,-0.14826086269583044,-0.0680422409619618,-0.0648526124467342,-0.2785124384434303,-0.31220548092459216,0.2744606488909827,-0.17075248653451192,0.2816137233707585,0.1634421400073841,0.16902656962401863,0.18919598193009818,0.08008566117464697,-0.1405001568624725,1
org.apache.log4j.test.TP,0.11136011228712195,-0.21300325587853333,-0.13809409034949743,-0.0719091142771886,0.15330334967436812,0.12999433656918244,0.1718752493121251,0.1390790438919618,-0.16577466326452003,0.2138512592979473,0.1126695455113129,0.05089838322046471,0.031039967988792803,0.0026975566555102427,-0.3215561513842178,0.2387465803068165,0.0564774736394977,-0.1594587605202388,0.08876092261592307,-0.19554872310336788,-0.1962590363680004,-0.2429837028593363,-0.2769670744778715,0.04123058156391079,-0.32306593272747036,-0.1756002257724667,-0.06299871856092916,0.23222254918177526,-0.352834348540683,0.04304503734921859,-0.03674748389326384,0.08563213995245747,0
org.apache.log4j.xml.DC,0.13500709350027115,-0.13676296902012253,-0.49458205063790595,-0.33540229804665117,0.04608265677924552,-0.06724905879907546,0.08025554265848944,0.09923302416548538,-0.011738651120666414,0.059013184942539834,-0.1255499933062452,-0.010195852081142527,-0.15098909987951367,-0.10862263668745337,-0.16795009118558382,0.1862411353534298,0.009933599377435863,-0.20769381797471156,0.145038498871593,-0.24924157420392684,-0.1463851761086856,-0.3175217114703255,0.22505353048052545,-0.07160875438963463,-0.017475577064582873,0.004665778709776871,0.15369377651603977,-0.09981256865412795,-0.13611562513986708,-0.029619334311322708,-0.12236140753378053,-0.30552401918837063,0
org.apache.log4j.net.test.SocketMin,0.22566903524943036,-0.16770696004910293,-0.2705451370420864,-0.022545137154131093,0.028267144727611247,0.06434842298120895,0.038534827207667245,0.16174940049565298,-0.06725729339795386,-0.19346818590917775,-0.16322096172435213,0.009577144941839854,-0.04611792128469627,-0.004100372292043545,0.05273550817658497,-0.49052838548343275,-0.3300695420942538,-0.03439220969431277,-0.3695794594050649,-0.10556169147797126,-0.14461864484811293,0.18239764486262636,-0.039125496341048296,-0.04948357472368099,0.02349339056502273,-0.30752952939284034,0.10583881373383,-0.024722321816587744,0.14521337019721103,-0.050618364865248504,-0.11990511437557139,0.19859161437424666,0
org.apache.log4j.StressCategory,0.11693031266325578,-0.18448830492202292,-0.36956729936943067,-0.2469816502507857,0.0033100630677414923,0.13726739864121087,0.06359844760000354,-0.011277733254023158,-0.04211133877587823,-0.13297488132572538,0.11152893683501351,0.08371522310590054,0.23520863676198275,-0.008176887278274501,0.24973147995759434,-0.04600304750661484,-0.14649932668994442,0.019152607208479954,0.4015111961345959,-0.06192792055583839,0.2382908127633012,-0.3014145542062043,-0.04413713828108635,0.07794038930938928,0.20319558218361058,-0.021125257847484976,0.02604158964761594,-0.18094251161666697,-0.10180478243708715,-0.15029965256947198,-0.04794784691774902,0.34637266397679584,0
org.apache.log4j.xml.DOMConfigurator,0.3283650629607276,0.14269667273846318,-0.05738591251470405,0.029953890394595686,-0.06793849043191966,-0.13257611003403832,-0.3255479584077471,-0.10525399033120736,-0.009606130158063697,0.4364077689314943,0.10306717018926635,-0.34017160037467675,0.4716204363911045,0.1492828171488005,0.1219913004577645,-0.06265283473608552,0.0259665794671479,-0.03869246822673933,-0.12223365747106657,-0.015579484349258493,-0.033741674179515964,0.08620036463639136,0.11094554590613545,0.22799038668093075,-0.038995296016288296,0.03557311942869486,-0.05798856460631038,-0.03571357477961685,-0.18374455049360724,-0.06756027105987449,0.09227790591726424,0.059085804502101005,1
org.apache.log4j.SimpleLayout,0.25160837356330684,-0.07124483635973389,-0.038097499690869646,0.014102432339316549,-0.3215598074532298,0.06955179621794923,0.2799128407305239,-0.16049332990623721,0.07693523642787127,0.005786938193815017,0.19719394572376542,-0.0017723743169264854,-0.27503621291139946,-0.019993972588445146,0.21289253757238757,0.3973184420268973,-0.19892760155105754,-0.19413142348134865,0.01643792674318306,-0.22285076522802463,0.06793293647175125,0.15643018703002456,0.2584663817975944,-0.24427747438770195,0.11784314819196522,-0.0759929121222914,0.023420739183212545,-0.11985333409795239,-0.17007039701802837,-0.08563381647217617,0.19739873760157528,-0.031567680051854584,0
org.apache.log4j.spi.Filter,0.15948026519790562,-0.15548668957135708,0.002989955869939806,0.10599730961002496,0.14037440895989642,0.1584899592867915,-0.2945914822067008,-0.02892819826714799,0.186058114023832,0.021186783731924147,0.0031118480353669385,-0.03164236731270367,-0.043829589829306306,-0.036665269651611564,0.1544294441524024,-0.08702019459437106,0.35329897200580035,-0.05896530437719786,-0.21297443030841182,-0.2995708751592877,0.13940393815879032,-0.031074157443368198,0.04542867286397323,-0.256235855130361,-0.11088159618606559,-0.1611432272112943,0.3849423149577817,-0.004202492867760251,0.14093886903085737,-0.343185502775916,-0.16253079643037616,-0.18412717948656884,1
org.apache.log4j.helpers.FormattingInfo,0.1342720794470964,-0.26447546680846307,0.5122439410480324,-0.43982167456971694,0.21267242227979427,-0.2871682366811458,0.07515642654747066,0.21115896659708375,0.24067398198175569,0.14754602168080863,-0.055538877484718155,0.11488347448462506,0.14959048952820558,-0.10205758917654946,0.00021261305806289028,-0.07499924006228527,-0.20770490801877378,-0.06417587629739108,-0.0054044188503254344,-0.11526110293067474,0.09793650108897511,0.0066940275353905305,0.00027795668572573774,0.021415785960699037,0.1344949859173654,0.06740489336120509,-7.568629460862113e-05,-0.025668972557963368,0.11927498055497296,-0.04073961928369868,0.18347065393140047,0.018767724528311474,0
org.apache.log4j.net.SocketAppender,0.272075024708503,-0.18812424620055246,0.026771595161713495,0.2702661069730187,-0.4075029625113546,-0.09342254385025361,0.06821253221257495,0.2005359495525212,0.2627787502122237,-0.193062769365374,-0.3275404094486114,-0.10937101841970322,0.1614369584816996,-0.006525018976997558,-0.03730665696503749,-0.19646249431095988,0.05056714075984195,-0.14287462842179155,0.03749614490966813,0.10116694164521454,0.1381349662113271,0.15271610389948692,-0.19467116145213023,0.2782569916769702,-0.0850969795955455,-0.21770440712317268,0.12438435141181466,-0.036531478691278596,0.14354611132596806,0.04149812700714275,-0.1203320615433794,-0.07012271611015883,1
org.apache.log4j.helpers.AbsoluteTimeDateFormat,0.10268595761753699,-0.10933083152449233,0.1700232712893918,-0.12988015318980836,-0.07075823632722485,-0.05160554402271902,0.22955250917946166,-0.14395111096197055,-0.06679696458187671,0.11226526080983472,0.07854575729354596,-0.3058488259339265,-0.4421341040953971,0.07762068742234857,0.4513837185711298,-0.05727132231150045,0.13032432430192162,-0.2213390715364642,0.16618457147686075,0.32390753304196324,-0.25899719383004843,-0.16125119498894627,0.0018778577474860998,0.07480718474238568,-0.0020899545233536935,-0.11918016888068977,-0.010787409327039768,0.029865950693676552,-0.023636906672887464,0.07917043819060353,0.07128455253110369,-0.03180674039649101,0
org.apache.log4j.test.DelayedLoop,0.0849280586394676,-0.2433232623616701,-0.5020397443507288,-0.26252975152015623,0.14344850045116825,-0.09186774325606918,-0.0004935411022499151,0.039041315059096734,0.2424634692429421,0.1509319441123594,-0.26983753608214683,0.03018608002635887,-0.13828503213220375,-0.11975189835144844,0.008335755371964682,0.20033870312063481,0.35423194569872696,-0.007152924008875776,-0.21721551776984346,0.16651288708736933,0.17393554579992238,-0.17457911339632498,0.128667557078154,-0.1141727410900648,-0.12961198183874884,0.055082152997488025,-0.08299076131784051,-0.08826007630644768,0.007493817442709534,0.10833875064763009,0.11967150854959786,-0.04152956294014965,0
org.apache.log4j.or.ObjectRenderer,0.06887010990170381,-0.050295039686969516,-0.11947119922053805,-0.029264638227905884,0.09618939970971067,-0.20172759576904467,0.14155435434622698,-0.336250076741177,0.07983720882479567,-0.3709816048079752,0.3308921170274029,-0.1828242707139767,0.28068583596190794,-0.1887788827216094,-0.1463955262262174,-0.35195825495561606,0.0033675882759335654,-0.10421166268793224,0.13520923772292093,0.058251882203997137,0.1277438539047069,-0.24235885578130908,0.12665704401886135,-0.16695012942823256,-0.028221945903068132,-0.07282067867011012,-0.040566823981549274,0.04136548347123944,-0.05273087852128618,0.014026025500838025,0.042568050903150155,0.2866062570199427,0
org.apache.log4j.net.SimpleSocketServer,0.09713425345002681,-0.15952097101827697,-0.40684238585245786,-0.2809304704400362,0.1465809532522387,-0.05446088543463377,0.07591963612276184,0.037061963632435795,0.23083916128785203,0.035502014093795636,-0.1659048692115672,0.1479909710362871,0.03178269212790102,-0.05205245886855482,0.07940755129975899,0.17541432504333504,0.2136360294964569,0.19876604100770537,0.18867894729228704,0.38211774204326315,0.019758724453372015,0.2996774431194498,-0.1216017385139417,-0.04913707984464024,-0.2155612204320201,0.1727630491408745,-0.1418868340783602,-0.02360620452870808,-0.17464348485491524,-0.07244170818917339,0.03492661985848533,-0.19022753835822262,0
org.apache.log4j.helpers.CountingQuietWriter,0.1258932988821682,-0.14669186459137595,0.02307412214683867,0.3963778931600971,-0.15959613477921472,-0.22146682777741952,0.20979459920706464,0.06179242436740902,0.11673354075642989,0.20030856861541985,-0.20377949264126893,0.24759341477506003,0.20364846643020634,-0.20201990382717067,0.14357206239925627,-0.09969364671693239,0.0453494481553827,0.1308978935825333,0.2161007364293609,-0.07354216941262895,-0.4131387713463806,-0.2624491413414534,0.17598701136146228,-0.04786021163273919,-0.1086165104835212,-0.0030204949869887063,0.13475707086186844,-0.031215298901088092,-0.15653257519549799,-0.05686172271698365,-0.08663740195960441,-0.05396604219538378,0
org.apache.log4j.performance.ListVsVector,-2.5752814667971456e-07,-0.00010446468889489409,0.00046283066440553077,0.0023816389332325964,0.0028661357129097175,-0.00043601542026480423,0.0035992187329112373,0.0006971959277934292,-0.0010376223623271518,-0.02310770181374501,0.01299690471532053,-0.021670858769484318,0.02202191138811524,-0.0008368699844189417,-0.020497416705403584,-0.005275462825450616,0.009327291878187021,0.10234139404339003,0.006049551041340251,-0.04573386507885184,0.1539451281986631,0.04797642133340267,0.228901526206417,0.15038182095667457,0.08441955664291403,0.050048607104027705,-0.005784395284390444,0.33356425908366133,0.021438319601184374,0.5459490099319367,0.1772467018783098,0.6582539262880669,0
org.apache.log4j.net.JMSAppender,0.19391247477493018,-0.2769792749347355,0.025284836350951953,0.3100400923273577,-0.4969130113521158,-0.1930846935404861,-0.05121868355376794,0.18992191242665002,0.30073876863805676,0.027829973452854897,-0.10831147819821561,0.20135441614003394,0.1659430236910307,-0.06571076345242906,0.09718306189545953,-0.2404385142667647,0.05969746466450515,0.022916161310096998,0.13143609553961136,-0.0273165646378477,-0.12309651725824504,-0.052319720773803396,0.008555609309244832,0.10577372742675037,-0.27545393597359896,-0.1653257334083409,0.10346046183902377,-0.12958377725494924,0.09012920485377687,0.05540581351998136,-0.15740808787948693,-0.07402009928697892,0
org.apache.log4j.spi.TriggeringEventEvaluator,0.14519313222702643,-0.23770897210482608,0.11101590125966776,0.11404779942800923,-0.05057318559527778,0.22878952912691924,-0.26129614235664034,0.020087543079300538,-0.10970369704491839,-0.2912727547671906,0.01606629110968638,0.16029859376584693,0.10428323792446366,-0.08794537354160104,0.06284442215037708,0.12968278980985248,0.07145340332979379,-0.04194753568992581,0.07400538837349185,0.27964811607276496,-0.1566247765579848,0.12123257820012451,0.5245708152125087,-0.004524430948183532,0.010153575689595802,-0.07524456117271375,0.00660673833820432,-0.2135725029218036,0.01248789771643204,0.3433371783794446,0.18596318896262296,-0.04781714976758256,0
org.apache.log4j.spi.CategoryFactory,0.11851395159479572,0.015735648022499247,-0.19133902508080722,-0.1560222367569407,0.04166096953969481,-0.11404739773300195,-0.04622675226866292,-0.05223236683593133,-0.00011474177301324545,0.067195561751224,0.06827885712863274,0.12953326741382742,0.14364181730138503,-0.009282609486840183,0.06043497324851186,0.15886723428961627,0.21428730435563068,0.04151939122620764,0.3131443180522396,0.18556222639325656,0.0764713562355615,0.12552641470568307,-0.1742152647475185,-0.36920845346587056,0.11770678247416488,-0.22886414870889638,0.24828160277391692,0.3112339470417288,0.372037657480516,0.25751802412172725,-0.049635276096628156,0.17099070528286994,0
org.apache.log4j.net.SocketServer,0.16077774028414546,-0.1560049697616896,-0.3813722897713256,-0.24287002491252022,0.11838835156714653,-0.004839674035570761,0.04720382046439445,-0.02919327813717814,0.0752689482951795,-0.14727492999918748,0.009838145924196717,0.1224562769000453,0.18113498769099648,0.007150389737216305,0.24281138746522202,0.10452583647690611,-0.07748451491154877,0.17454931971577875,0.3975086508036598,0.3235102613297002,0.31657454244505545,0.11089634740343349,-0.18059557933461015,0.03714443236009893,-0.04894839647222554,0.06390648433875327,-0.041657674333278015,-0.193820710188199,-0.16715566735140736,-0.22963557668875934,-0.08369942197025947,0.0628870043184798,1
org.apache.log4j.helpers.PatternParser,0.16258148048303295,-0.2862724374001838,0.4525444903598431,-0.38821245262006965,0.0851035229084363,-0.24422874597960206,0.17277334474705694,0.21521734916754962,0.1413533428842011,0.26333614811771244,0.14921583009856965,0.016076333426733234,-0.08268538485608913,0.07518762504311582,0.019718267357035812,-0.13353513650321616,-0.1269815377397443,-0.1765660401251551,0.010408305484819979,0.1757806733329311,0.07159739903984584,-0.04606550611312223,0.03476521668225126,0.01327885587833752,0.2353673330745024,0.006369374369276291,0.12609641758074303,0.05991500066794247,-0.13632272798564313,0.1289404685074835,-0.17163848310868343,-0.1547627744936232,1
org.apache.log4j.spi.Configurator,0.17174330655348097,-0.17887099010876648,-0.308250655682828,-0.08273939687185809,-0.11396472647526523,-0.24564484678683635,0.05146483140228178,-0.1260391686682444,0.3104603962939241,-0.012447504194436155,0.022460009748648296,0.08997980819470816,-0.04883494218845389,-0.04436532255656562,0.18827171667038312,0.27409468284921573,0.18367941424920106,-0.07209287304420237,0.12487841646540941,0.12576963660180795,0.48643079703534786,0.006509097954699681,0.34435967713533683,-0.07504679688759357,-0.12682740597743267,0.14436920632276543,-0.016630816636261293,0.020090493107509055,0.17459605802754416,-0.12477982042701465,0.06970967712044977,0.07050157664646595,0
org.apache.log4j.or.DefaultRenderer,0.0619676611230571,0.01794299966203196,-0.05650269932603061,-0.026111640100868548,0.008641944721057362,-0.21208810441206855,0.1514492940695669,-0.20379485087545107,0.19978281081438445,-0.3654012030074095,0.521017316637322,-0.09685640984468238,0.16343079273055505,-0.31035192408833323,-0.14983177454940344,0.028812904669613067,0.13145448541403093,-0.14879084995177183,-0.28103351657369025,0.05752274313072107,-0.2655220412469459,0.039489030369759884,-0.17969849256878948,0.025627092733716186,-0.020168851108141296,0.15005834121654404,0.0017460855535360322,0.03771675052967092,0.03336661380098281,-0.0346661869741469,-0.058992744810597776,-0.15810394636095948,0
org.apache.log4j.test.StressNDC,0.11150590551981442,-0.24223640990064355,-0.43725801575142476,-0.23959032780892023,0.051020807776470764,0.09211490688533332,0.12735950988049574,-0.0464642183380992,-0.11205896116469166,-0.060169760495779365,-0.09425113715088845,-0.013541944322119158,0.05302339953195935,0.06660796997705921,0.07718154557252513,-0.3768956100534908,-0.488046004384932,-0.007855738608053501,-0.23357758699834885,-0.16054500549098683,-0.30807616477008687,0.11185881748393484,0.12094075964931325,-0.021271866581541753,0.051766825565055595,-0.03476541866333621,0.058501629218936695,0.08653399549156918,0.07952341836076317,-0.029336050596463787,-0.05530743795525302,0.06475925002375679,0
org.apache.log4j.varia.ResilientFileAppender,0.1768150684641157,-0.2744404855780991,-0.06141529724324484,0.18741157243722667,-0.05628708392500259,-0.21785911198455055,0.12629957273927908,0.35068917843203584,-0.09860526405956342,0.1058180831290592,0.35787839010792744,-0.06578272554977116,-0.08602412783222213,0.31771420085630087,-0.26504133301785926,0.03798734623549346,0.1225509209949651,0.21255203076558177,-0.007116206568588805,-0.12262137082233081,0.06525837282380234,0.17626455996937745,-0.19854130657681554,-0.006621114430370712,0.08542106951796193,-0.05775124124816332,-0.2512382250767745,-0.2650597899065124,0.13291807578069567,0.13306376687422042,0.04529184018609026,0.00967009042953383,0
org.apache.log4j.spi.AppenderAttachable,0.1561612636089845,-0.18301096491883062,-0.1971538642945965,0.015722236530171303,0.15691682817694586,0.051008488615498164,-0.4167900718172148,-0.10993424755544914,0.29240919838613194,0.15563272101899153,-0.0779319987006419,-0.26515797783477785,-0.4403137270300028,-0.3040516664064958,-0.23408709502140795,0.09087831011103265,-0.06893734070871842,0.12534910401461133,-0.01297257092943304,-0.032478933343858984,0.047730950996618546,-0.30762981034531156,-0.11881153632512956,-0.000939036746425421,0.11497825537823478,0.006450255626627831,0.05982176592755988,0.04839505592649239,-0.004270272942321974,-0.012844098724297918,-0.006134497870930173,-0.04869282389630336,0
org.apache.log4j.spi.ErrorHandler,0.1897900139912331,-0.27255678534749617,-0.05783557801267115,0.4630499515551618,0.29341129309303704,-0.1519119285795509,-0.12144205428829521,0.1930279952674962,-0.30372959580122116,0.0001812037453310844,-0.052456362697620974,0.01630713920494147,-0.042143989647747966,-0.36582002719972945,0.07224562470159167,0.1391278754174006,-0.0383480078116354,-0.05668303553885321,-0.19419440601789478,0.24269343015886863,0.0783913439741116,-0.006887185473244803,0.07059243589360212,0.001749713326467682,0.2907968950111648,-0.10661195531449642,0.006546909049962299,-0.09996331129972441,0.16662808956073377,-0.054062739258613664,0.07134506679913681,-0.03308864515252965,0
org.apache.log4j.net.JMSSink,0.13041858045336482,-0.2639037076440012,-0.27069812932684,-0.16352454285205648,-0.058906783341079294,-0.24178186230983117,-0.061600325219986034,-0.01129266517270135,0.18710074008534908,-0.2688581116685346,-0.008664694440714696,-0.029086418595948172,0.22390669895358764,0.07818908076457032,-0.05932983848678066,-0.01718111823167233,0.1819992159621659,0.04995863166682325,0.4571352614258333,0.21336381272551777,0.18901972625529037,-0.011881201116403547,0.020212744390173284,-0.1410439563637993,0.03983290100249524,-0.1492776544636791,-0.07358441936180882,-0.21488167613070863,-0.16042368962442186,-0.009909825319941787,0.13261598867047572,0.3376890283913085,0
org.apache.log4j.varia.ExternallyRolledFileAppender,0.11724788460623375,-0.09351048656876768,0.019257521236624452,0.16505427558499866,-0.10800012723379979,-0.2981013403171563,0.04369962400696164,0.08709948192333757,0.23459607932449242,-0.1949041554272206,-0.10877556876163451,-0.09243363822423811,0.09124793645684294,0.5214292150999366,0.004396020546004501,0.2680188613169126,-0.13734518478778482,0.12388984110225025,0.0877382599539031,-0.045043853240213975,-0.20392601185682235,-0.3268176459279019,0.039002097179117165,-0.13135364328392296,-0.030923832920885033,0.21594508624119718,0.019363675969555377,0.11885341694123558,0.17545513200544707,-0.07070509671376309,-0.21458764509451136,-0.1391845648145062,0
org.apache.log4j.gui.examples.TextPaneAppenderExample,0.13082101191810885,-0.2712760815013439,-0.20802890116162157,-0.11754529254986425,0.07772419024447448,0.22694756764721,0.1567618078460278,0.1398724246350421,-0.21305008668117353,0.14663502818489088,0.13343885283733867,0.09383332022661874,0.07837435305668232,0.03595221275564613,-0.1750824817190814,0.21314201155292692,-0.06941829781697409,-0.2281367683297896,0.08507717247631971,-0.2656078228374094,-0.21952735592524172,-0.25404803305068907,-0.3153714329142695,0.1146805150825856,-0.16222747985868138,-0.10883027182828252,-0.06925975367078117,0.20285172950832703,-0.3009013757906789,-0.053484638137267664,-0.09221982423084885,0.1657936301374493,0
org.apache.log4j.performance.Logging,0.08498849931456819,-0.22194763119244007,-0.4593489765040813,-0.23375698497348013,0.13560932514874516,-0.017465584654123206,0.02757328176315179,0.05130803478431072,0.09604036869492635,0.10307304421844231,-0.29113926953832436,0.000906689114250995,-0.15318961667137562,-0.07748973801052599,-0.009523313624495223,-0.032248523903492435,-0.04910487419597569,-0.13880914182929413,-0.578757090024526,0.0010091855333283892,-0.13806205508766864,-0.19489234584544757,0.153102624827369,-0.175145224410276,-0.11223409448062649,-0.15526202561548189,-0.01811948379803057,0.04198477034695892,0.05527626153933759,0.0870633680668646,0.032777333584921436,0.047617523132882915,1
org.apache.log4j.test.Min,0.20661967193953515,-0.28122555209592115,-0.1656036879870551,0.010571452499421886,0.15438229595151967,0.08480240286196276,0.10477713820461285,0.07836194626958862,-0.22155585915773984,0.1251175755090992,0.41374783331850495,-0.2599683965662472,-0.29516789292242723,0.18542455324687634,0.08550456130321984,-0.34210175837707985,-0.0017787318065702912,0.3002227562254292,0.05676338936025467,-0.09056175269530886,0.08374289671170694,0.10665406595062883,0.06125450707569797,0.13854727012689122,0.014616520159889682,0.11752118698514047,0.15867810188426193,-0.16487671560271697,0.12449459173394255,-0.04412988650561208,-0.1434725854342851,-0.07656541113407732,0
org.apache.log4j.varia.HUPNode,0.08673715470900244,-0.11517803984658341,0.017696271075493538,0.1762353788992559,0.027734454962322044,-0.31332389901312147,0.047616829127680886,0.07002480093320637,0.22878101470811213,-0.21719756990628963,-0.17756844494366786,-0.04386800667124552,0.08291500399029672,0.5775305850113541,-0.006226520104552423,0.15220505341966165,-0.02749845747355796,0.258085396509325,0.05906146816471372,-0.1282839672059181,-0.3391936493892752,-0.33197800743811434,-0.026277344703937545,-0.11049450029566846,0.08712621503451479,0.06306785277495412,0.04559619049130049,0.06219907945204333,-0.02048040541154964,0.008192099389333641,-0.034098651873771875,-0.022327683217999387,0
org.apache.log4j.helpers.OptionConverter,0.21286381932661183,-0.23011783558595597,0.0644390205564727,0.2701038425170324,0.46390220470657073,-0.01592657601254917,-0.12461516658030937,-0.00015887577898885348,0.019714300138713753,-0.1365491232582513,0.01937379030072544,-0.04367462216582824,-0.10817121551000461,0.16446060340831753,0.1613212048544737,-0.004346128955159263,0.2832533233763285,0.21319932349651358,-0.13120335595346536,-0.22682892531052165,-0.22378163646364815,0.048782585485038915,0.2250237101138223,-0.17465303764715734,0.005302008574452029,0.024750120221007473,0.017333174234482836,0.13810745040105668,-0.18304500895536865,-0.1833988906342047,0.05272220035341206,0.29940797009741044,1
org.apache.log4j.gui.JListView,0.14638694931674406,-0.229492465451073,-0.007124746526409955,-0.13419261140326166,0.0027266891857111735,0.4332945618805765,0.04691062450704513,-0.10659261490662064,-0.0970026605137752,-0.026012244594013745,0.05523392437235828,0.1901496008317538,0.16248451894053112,0.18182520742780778,-0.3860880825622926,0.23432266441555874,0.011342119980605674,-0.2056305753809896,0.1020998245547727,0.07345237361322451,-0.26141560922739626,-0.17121137145535315,0.083714851071067,0.3297231758123301,-0.06185386854517961,-0.18214851327989998,0.1207119816959303,-0.022027427285424596,-0.025649273667768712,-0.19010396966946297,-0.14336272647111806,0.11307005996317482,0
org.apache.log4j.or.RendererMap,0.07638539324718627,-0.09065104248722519,-0.235197613056484,-0.11496466323566437,0.09444076186062882,-0.19608475028530598,0.14044026564602013,-0.25755953678874244,0.08328717446395154,-0.28625184746179877,0.35068416145754244,-0.13386218899659796,0.24522091884986166,-0.17219457244449637,-0.13550210697752774,-0.38442705518374043,-0.03456319838309727,0.04173362619002746,0.12994675581415407,-0.010203807230955325,0.09090273553935216,-0.20315064434129101,0.24521310583315806,-0.08340519620897753,0.03098969964699567,-0.2740442541440634,-0.23442920108323048,0.14459365649940548,0.03353230537309856,-0.05637713268097754,-0.03376332821783448,-0.06607484329886695,0
org.apache.log4j.test.SysoutConfigurator,0.16761691201663542,-0.14811639387814043,-0.24949390300912636,-0.015033763831989958,0.2655785136346762,-0.14889159634312232,0.05218211202520084,-0.023967113821025034,-0.21744360361070586,0.05076383698650425,0.3180491938155448,-0.06255258750296647,0.060779801033211234,0.0736603408682177,0.009833874361548308,-0.08793382397058898,0.11308936265236616,0.3380985959156091,0.35661411405787813,-0.29844023209533443,0.20365700864212782,0.13164567994773116,0.19075260987964968,0.29392718562882586,-0.12708133946154657,0.09133771059237841,0.10176327920675089,-0.1424513928645731,0.08464971777809913,0.15132777232473557,0.058260219564991486,0.07805147020405293,0
org.apache.log4j.helpers.CyclicBuffer,0.11517015107160819,-0.11875369919826301,0.10030451770935842,0.03630174822750805,0.095067014234871,0.27786750269161475,-0.15604434095715522,-0.032140041687874925,-0.04320436944357712,-0.18012801078079646,0.029608677253075026,0.17304722764202737,0.11851857239378694,-0.0030493251406720806,-0.08006156461840226,0.21303121870689976,0.004614028736126808,-0.09762755129048008,0.06414975121788856,0.3480120774924483,-0.22919741281726325,0.023252466036384603,0.4849542472615776,0.1273508007659855,-0.1254881595346574,-0.1068194314394026,0.005890445980713771,-0.11584634991157629,0.14890380248194776,0.32143148545791667,-0.26160985761213096,0.21177070271745588,1
org.apache.log4j.DefaultCategoryFactory,0.1096620476519906,-0.15600983693196005,-0.4760602832162586,-0.3098578818212482,0.12186702850329025,-0.19521094307485062,0.043073928196453344,-0.07970753762685598,0.12623795382180125,-0.005014514562952678,-0.05728049977547692,0.15424149229579526,0.08967107958230715,-0.07959715140334173,0.02423918347525669,0.07163142697533725,0.2763793833731698,0.035559662771912616,0.44496326739959935,0.21826006978451332,0.2937791589121837,-0.0022405036282081383,0.10633379524960888,0.10418060024366257,-0.026232131323054075,0.12645479850878927,0.03780047686720014,0.034878689757070105,-0.22223467082692444,-0.10273614994674625,-0.06933562627640902,0.029465494625016943,0
org.apache.log4j.helpers.SyslogQuietWriter,0.12870158798130626,-0.1446016551856839,0.014410835438670494,0.4074565609095118,-0.03427265201040542,-0.1433444631815405,0.1296689456892442,0.12101214977244477,-0.024161745164444432,0.2194266397643172,-0.1644260284557424,0.21425942985104016,0.19974478143640395,-0.425127613187124,0.1814071284710266,-0.12104092991692339,0.09205580455684897,0.04088617779045449,0.1254267267689952,0.058088667230975395,-0.30104086429441496,-0.09204089840100986,0.017693705785147992,-0.030096069518252958,0.27919106670774657,0.00969976216896429,-0.24466781069277668,-0.11840418293076371,-0.06705307840505255,-0.19728241708910524,0.07506677452033649,0.15069354539530003,0
org.apache.log4j.gui.JListViewModel,0.09208242333623774,-0.164285165247435,0.06856325597240777,-0.062046284928635884,-0.2527977927447756,0.2558562474859463,-0.1488359371141872,-0.04530009154110752,-0.04565842442423297,-0.14111883749751714,0.05809261360611565,0.16074021439719016,0.10030197278702759,0.05160834396464603,-0.18337980126590675,0.0199715187690309,0.12320651289372843,0.12201802897313016,0.04258930018766247,0.11720680321354293,-0.14191836103238462,-0.004090650059175877,0.21394975941546074,-0.001395981678581692,0.04293134890076016,-0.15757043308147048,0.16948640565731968,-0.14878328513053277,-0.14525434376598814,-0.15196524376878415,0.5717431706270297,-0.3798357186340895,0
org.apache.log4j.AsyncAppender,0.2005944877902291,-0.195500715750647,-0.005822901746359524,0.12515753355142048,-0.20603795006306092,0.02820336487284586,-0.49034879193902886,-0.026441857374799888,0.40303220197704853,0.0939316104926606,0.017400782042172557,-0.22147457120692254,-0.2352451289485686,-0.14987326764782397,-0.23548033742767072,-0.09161018539241061,-0.1974798363335135,0.18578496350245202,0.22011401665902755,0.023125952616208582,-0.06575919276415322,-0.04687424510063624,-0.20707954652499352,0.06710362643277491,0.06958888052526785,0.07440767054501381,0.03234575194435868,0.05105500946582978,0.13886471870591777,-0.1505098097577957,-0.15844097054137715,0.041467009833269126,1
org.apache.log4j.helpers.DateTimeDateFormat,0.05758325417970535,-0.12206469699083586,0.15928347169666307,-0.1561826859015046,-0.013240212911793022,-0.0811779625555672,0.11489613743330102,-0.13117208051568624,-0.20904279107846083,0.04230746932176795,-0.005379068148699963,-0.2951041807187757,-0.3052412150958002,0.04133224412299958,0.35823828072490466,-0.11974829647922704,0.25637184640540867,-0.008084259503561377,0.12308373121451799,0.2291893967895598,-0.2907278735046781,-0.1664229305379643,-0.12967478747481556,0.2162553005613243,-0.19398664212556355,-0.07144282491543764,-0.0760791738987154,-0.03748514313193093,0.3329661098365799,-0.1879200443027216,0.13718910537107962,0.02211045399463837,0
org.apache.log4j.net.test.Loop,0.17337373665057626,-0.3130829339229434,-0.1938716802979129,0.024635547315419403,0.13020834307184986,-0.016379088901671165,0.14819619500882258,0.27066587610304604,-0.316000451634839,0.14172649557766465,0.22523250423275928,-0.05805591810982643,-0.11960956655818401,0.17564149148103142,-0.3533995934488188,0.05527131364773368,-0.16458058697144812,-0.09003256170072889,-0.2696624024407831,-0.04204598908117824,-0.11959137282521455,0.2173775124126962,-0.18627397783334618,-0.159741115160643,-0.15846043742454677,-0.3085189173118311,-0.09723318802555825,-0.03624153876320108,-0.01911430690230074,0.016844114377134393,-0.0012574592745695089,0.10477021614479312,0
org.apache.log4j.or.ThreadGroupRenderer,0.12425784035275884,-0.1450109262141343,-0.03213664896014579,0.04982485567696901,-0.19463597806324534,-0.12208862415218551,0.145629774655049,0.029369334263817357,0.026388022638197048,-0.07295151628797816,0.6155624006616609,-0.011587921269659969,-0.0614693364654209,0.0456855684947715,-0.2916194359875825,-0.06009586987471839,0.20272865337483195,-0.09289379477233883,-0.3680545484402029,0.08084146643040979,0.021155133451346946,0.20110509329801798,-0.19359991630147563,-0.14417138673596938,0.022522136335783854,0.05607181518675615,-0.2687078417917831,0.03520567341242357,-0.057172179764974365,-0.07197621711865738,0.015449405440446113,-0.1700034293930222,0
org.apache.log4j.net.test.SyslogMin,0.17285783083288744,-0.21517613035712851,-0.4693334118207935,-0.2585879640744117,0.008592764796764454,0.15101532549507865,0.14926586691622246,0.26365376025298126,0.052686957135481,-0.12329778829647481,-0.30047925358630284,-0.1150200735814823,0.09323379923139645,-0.06302396231296283,0.1320921857453362,-0.02800031345252742,-0.23031776582665792,-0.23490052929778596,-0.05433750089823549,0.135165008109426,-0.2070095253196811,0.33804667302852104,-0.1387871096600278,-0.10536202077381848,-0.05037112440971113,0.04816145276930494,-0.1033472671794319,0.008670418088781842,-0.0318455250095969,-0.16492753536828658,-0.08723619408358495,-0.03515654982776956,0
org.apache.log4j.varia.test.Loop,0.06509347033702809,-0.24118808698096572,-0.5418617565749314,-0.34084630343924655,0.11334366806605994,-0.07471962398214692,0.07163563233436451,0.07124835379746106,0.16647401294774417,0.13246529749094849,-0.2790068120552505,0.036464458526904685,0.0019598580824047515,-0.05661300639862763,-0.03146662229306239,0.11952829737514753,0.21951948716584874,0.044344628929958815,0.1776179577849839,0.3052846734396694,-0.007491767786942372,0.16613152962845135,0.00506954078663244,-0.19447291387327031,-0.17879316090911498,0.17677583886221923,-0.06615709653758838,-0.06130195665580897,-0.14804179181040913,-0.003338860264563634,0.07038258852081543,-0.13268712901433297,0
org.apache.log4j.varia.Roller,0.10163145640250651,-0.1874490372714134,-0.3080930110765454,-0.08316518766686133,0.15095344411800493,-0.17442160621693667,0.08900133054084615,-0.08930051651367017,-0.02082597762198629,-0.13071459344785247,-0.06978870581896542,-0.11417737655270191,0.012325682167133638,0.30555654682670363,-0.07541264163223657,-0.2455556252747348,-0.2527301571333246,0.39804019357017,-0.13311251667721338,-0.1600347060971897,-0.1844951699093733,-0.2029721340536466,0.2774424840852836,0.008380003568861516,0.061520440406757596,0.04356076848657291,0.19053814884851475,0.2000297040776145,0.06558303613164004,0.18626206451034394,0.19610172161617614,-0.10627010906495853,0
org.apache.log4j.xml.test.TPriority,0.09794658845393157,-0.17008522583337424,-0.2145236844560167,-0.1496999417274612,-0.08921699478361561,0.2888426210666229,-0.0001242360254879052,0.0496388034841288,-0.054514247594860794,-0.0715453087015421,0.043973842462368296,0.18675230734954493,0.07781319232072138,0.04886168914429108,0.3139947431531945,0.018396623289354697,-0.1986934336827567,-0.17505393701643257,-0.19363588708330048,-0.15256957865051643,0.06004183605941253,-0.33313318085913074,-0.14248563512521167,0.301331291657254,0.29304825502220083,0.21997175259256072,-0.14825584782359447,0.03046540282414868,0.07872199381881424,-0.11489865807217574,-0.2593166377041075,0.2156886472017008,0
org.apache.log4j.spi.ErrorCode,0.12920753976398144,-0.2093602855756788,-0.012240850104273636,0.3864373819187361,0.28395409754662576,-0.12869262468922085,-0.00037878188892130654,0.17031324724027147,-0.41903889050037196,-0.002205105189846049,0.04648182306341721,0.06170971136176081,0.030528796931160826,-0.2618757851233868,0.02388631332892116,0.2283846612427234,-0.052954674474876624,0.07177293642742537,-0.013837873377396491,0.24521813914454305,-0.06812437382729504,0.021163817967501743,0.32051940514667177,-0.014024303670146763,0.29046987405191665,0.10865905448245446,-0.03216596111110474,-0.04202655794545465,0.18867881340481343,0.10287259478541672,0.19316304907457524,-0.034804471961898543,0
org.apache.log4j.helpers.RelativeTimeDateFormat,0.03328962479066724,-0.05284264409201507,0.06376211634324254,-0.033002758003440186,-0.007598944647507779,0.01737490351084103,0.11515860920586098,-0.15267013162202986,-0.08319884541157928,0.031622455466784494,-0.010747730992132547,-0.2376480456680037,-0.27953551343004446,0.07925871793218828,0.3691900338839681,-0.07676710243703488,0.19785269139628575,-0.22615690200103444,0.21067798613070288,0.217929522772655,-0.31124335310071943,-0.17767972476574065,-0.11919200924134517,0.23112383617051838,-0.20598283029099365,-0.004551777512559249,-0.17886886189040957,0.005410265992632912,0.38318752079179236,-0.08321585586206519,0.22859433658576245,-0.06449963639119066,0
org.apache.log4j.varia.PriorityMatchFilter,0.16027409544474594,-0.29777446193100254,-0.06361973056044248,-0.02434738958634814,-0.4505952087936898,0.15539886995414787,-0.272747740857142,0.008839348191417101,3.583586665722614e-05,-0.1185317314147896,0.08898237207203265,0.034695304247076744,0.12011621917560647,0.11340966676515941,0.16498836746612672,0.002282125062239789,-0.14895796624612434,-0.26422571323084776,0.03874413058403083,-0.053093673567451906,0.09242499737792093,0.011141589977107796,0.16736262239662106,0.11975265515516877,0.016096145574346774,0.4142690061547272,-0.2598117129203774,0.18374504969584762,0.2716562900694525,0.07339155955703827,0.019543232235763076,-0.040146012374953195,1
org.apache.log4j.PatternLayout,0.2675691076655931,-0.10001465505128204,0.1503800006248711,-0.029046742103747483,-0.10344017559764697,0.20004651316328304,0.3292604264880796,-0.4375735501398425,-0.10260748990922877,0.11434890609647977,-0.2526918473869493,0.019965940946874636,0.0836425193260336,0.133357203635899,-0.39050574824748124,-0.1511433512867647,0.13562495579988798,0.22245234756075444,-0.13928707544468924,0.17278480475273697,0.11389068247038625,0.05705994638386165,-0.0702042600324937,0.06818592917091833,0.2430273096520332,0.03352570787180452,0.041260080051136246,-0.05530859948084007,0.14660047439056428,-0.12376395356338396,-0.020288288398621245,-0.10611961100623687,1
org.apache.log4j.helpers.FileWatchdog,0.18060329724523036,-0.05080739734155875,-0.2275894821668749,-0.09334291304810217,0.04267296120762068,-0.29943099968365683,-0.13834598408744117,0.1208642562609752,0.2910382405569027,0.17454445341667843,-0.16749412031651476,0.010675047132815738,0.02175897857421265,0.14906037328378194,-0.014944394696291502,0.14428957117467633,0.39066803386878246,-0.012306672933491705,-0.1814791566284905,0.09103662659215157,-0.02053969581736219,-0.08016322908207074,0.0463722227537862,-0.013495829557534035,-0.015276640580811317,-0.0472616743566292,-0.38636467414144043,-0.4479661177622976,0.11466911910884414,0.01018844192421783,0.0328028807297502,0.14855278304018033,1
org.apache.log4j.performance.NotLogging,0.1520342695914558,-0.25813553600223155,-0.3150804431847462,-0.0503554835989154,0.191826815331784,0.054166833269990854,0.17833678222476845,-0.0016624511890763606,-0.27073783383517724,0.021908640358998335,0.20319738640468646,-0.10576959187747523,0.002584954572905261,0.09090476865668322,0.0027436567512775746,-0.24337261908425567,-0.25081038867152194,0.3169223387009292,0.08836027493646924,-0.33558729110221375,0.03887611137672808,0.05941069753243166,0.12377441114708637,0.2407019076855743,-0.02198375373074479,0.12932322456479745,0.09520468322790669,-0.1231571082205977,0.2550436456086241,0.2575810871157753,-0.01163612195861632,-0.08998837173250201,0
org.apache.log4j.Hierarchy,0.1999028220500272,0.06814733349897059,-0.13366726912835558,-0.08432685881536285,0.06761110022084679,-0.233339530826629,0.04284991615547013,-0.22817255511274784,0.1602800170779172,-0.1821306694086228,0.2697302311640379,0.3162026682658215,-0.0869140150096127,-0.12195236555430713,0.14068496414265305,0.1782289480406936,0.14033940853628554,0.1604758060243073,-0.16136797275682965,-0.04019639734894419,-0.09456078653647458,0.3541237756171344,-0.07812724392987436,0.4023728155119094,0.040469601677507544,-0.020823816177160878,0.04736263447186045,0.35227325773878854,0.018380318632533015,-0.021674173870370367,0.03615008948442247,-0.07703061772041142,1
org.apache.log4j.performance.NullAppender,0.21285760316312388,-0.3491976462067417,0.0370868389352164,0.13688616356963101,-0.525883282855453,0.10254951643633915,-0.1554004355901044,0.12949880189905177,0.008904104313575741,-0.016170285606062023,0.22695626777006775,0.11806715892422352,-0.14872855080144604,0.049036395398296295,-0.13743840709528246,-0.21322665662168383,0.17626998742904035,0.01418488640249037,-0.2595376589289706,0.04604246860508139,0.24252791760768208,0.23112867602777307,-0.04255840654693912,-0.1840684447740932,-0.03483299079756171,-0.1933735382838286,0.05603461313927977,-0.05391871416051791,0.017383461779800678,-0.014303937663538234,0.025364075818920025,0.188394547517981,0
org.apache.log4j.test.ROFile,0.06509347033702809,-0.24118808698096572,-0.5418617565749314,-0.34084630343924655,0.11334366806605996,-0.07471962398214693,0.0716356323343645,0.07124835379746106,0.1664740129477442,0.13246529749094849,-0.2790068120552505,0.036464458526904685,0.001959858082404767,-0.05661300639862759,-0.03146662229306241,0.11952829737514754,0.21951948716584874,0.044344628929958795,0.1776179577849839,0.3052846734396694,-0.007491767786942388,0.1661315296284514,0.005069540786632447,-0.1944729138732703,-0.17879316090911498,0.17677583886221926,-0.06615709653758839,-0.06130195665580897,-0.14804179181040913,-0.003338860264563605,0.0703825885208154,-0.13268712901433297,0
org.apache.log4j.test.B,0.003941579330132203,-0.004777934680585811,-0.017729326336224413,-0.008707327588364405,0.01523412143011695,-0.0528641797646716,0.03749253797056508,-0.08586478238483453,0.03424520422099265,-0.12049541473131156,0.13721379421929186,-0.06342841725359326,0.11504547552576437,-0.09754900506876112,-0.08325592457840018,-0.18968684376778122,0.020668561956112788,-0.05104378892920875,0.031057426401578887,0.053165850732610036,0.03580724348054943,-0.22960301974450242,0.15414741751821923,-0.16436250399296787,0.020135449924326636,-0.40340703945216777,-0.5664451760385025,0.2984412668328953,-0.02780708029218904,-0.1717900652832335,-0.08431319764474669,-0.40186562349179666,0
org.apache.log4j.test.Shallow,0.09580132222935886,-0.2886538510224235,-0.5463591244081051,-0.3404299201394158,0.028509744377946976,0.09473099516164493,0.08923351895250081,0.09857042060768949,-0.0015086504321692737,0.011415324869976397,-0.25002140143607005,0.07393008251380864,0.052269589392325205,0.03204655330941774,0.12856561563594437,-0.07262485019632615,-0.2393760138237784,-0.16234711186124043,-0.08030322804024348,0.1290748474459255,-0.28054732663034915,0.25879972448288774,-0.07105008233325612,-0.21257782810281672,-0.06276640381571857,0.10914666820025602,-0.08230015152266405,0.0033721706399782374,-0.07021156353214338,-0.18015763548099134,-0.06660731027524021,0.06939015336797173,1
org.apache.log4j.ProvisionNode,0.08160339408987963,-0.16810023383503292,-0.4307384608607217,-0.2726214146219195,0.08843466892448545,-0.11662931185982016,0.04444915674670456,-0.07800935636040633,0.025525937617415635,-0.03852651454776789,0.06395400770371382,-0.007155023026707225,0.20216301390636943,-0.07611999636732637,-0.008525220604436095,-0.02709743347711013,0.07659295843789922,0.044630780045580236,0.5333992698876174,0.05015168772747813,0.29963021590978517,-0.2525991611073309,0.1680874655893301,0.004401103441119471,0.08496412597185563,-0.13611624470918982,0.1465370216799263,-0.11471731335863847,-0.08668282541966014,-0.04820195007097973,-0.02106458284526108,0.27310459696804856,0
org.apache.log4j.varia.HUP,0.07623092339141178,-0.11906596952717842,-0.005261135206376229,0.13601786179505349,-0.00705924980483429,-0.3484151195089202,-0.021429236289433138,0.17642193610132276,0.16917964233637653,-0.25443164805722834,-0.09027456299407383,-0.07000462010203987,0.06860274973215218,0.6055484750769153,-0.05944049945196428,0.1504643765278455,-0.0689870067683455,0.3024628983787375,-0.002265133477864473,-0.031079058562369363,-0.21526433378941184,-0.2761253878613356,-0.10185430005083065,-0.03784286928131414,0.15672090694285426,0.07059385741056462,-0.03655702416358158,0.050452124346938486,0.10259384128713098,0.071090594462631,0.13335480226584326,-0.07802162643680072,0
org.apache.log4j.gui.JTableAppenderModel,0.1087928288313384,-0.1733201595460664,0.07688206668989234,-0.06908926451898577,-0.26931602735935095,0.27377900013200596,-0.15646696816269895,-0.050605050380512,-0.04658080078663587,-0.1456722071341792,0.058353154395974265,0.16439101505873202,0.1069815439458742,0.05109041497220397,-0.18343508172724068,-0.003025771627468774,0.129590307447811,0.1378292934564576,0.03217673944436302,0.1195391664218365,-0.12947186589798118,0.03594962758451483,0.2073454530559823,-0.044047526448447144,0.047049112088903236,-0.18578211583131932,0.1472277230224097,-0.15914008926941664,-0.07992585971725427,0.036049211749156373,0.5599851589213023,-0.3902233504013411,0
org.apache.log4j.xml.examples.XMLSample,0.07215677536956772,-0.2003776722356448,-0.39390274849952983,-0.19090293908358938,0.11304329950626664,-0.03390288556094595,-0.027232858785117213,0.00789903042102101,0.15301676149994836,0.14069229807683623,-0.186087987968168,0.008821626128617631,-0.1648276967907654,-0.12675708745271794,-0.02446210289337891,0.15824114092257496,0.25839534993739366,-0.03765042493193842,-0.40244221813330144,-0.059198782353035,0.14737263941122386,-0.4999322373041224,0.17687393736714105,0.05163008493094134,0.024162057934400297,-0.09749776101877898,0.02025096607566329,-0.022768520704820782,0.06674592075308775,0.1948985839963369,0.09310279875969074,-0.011823659578227223,0
org.apache.log4j.xml.XMLWatchdog,0.10874447862413446,-0.14521904137703495,-0.35304455473642876,-0.15851417222844133,0.113091251834045,-0.1424821276830033,-0.1334639786633258,-0.030460615382099678,0.07846139969166031,0.15173158304623188,-0.21356122770007652,-0.010602843074518194,-0.10402574408033476,-0.022100106178710995,-0.01050556713099406,0.11521341765158481,0.2442093943902441,-0.13910285999503058,-0.41404916993695867,0.0024125799761636757,0.21142225000380074,-0.45974554805462536,0.18043043067913664,0.09442038397125331,-0.0757730301533956,-0.06687880101109947,0.017529573226511313,-0.10307898416502594,-0.15850587337456104,0.15008830206746923,0.21569684033852699,-0.05104080685919077,0
