name,vector_0,vector_1,vector_2,vector_3,vector_4,vector_5,vector_6,vector_7,vector_8,vector_9,vector_10,vector_11,vector_12,vector_13,vector_14,vector_15,vector_16,vector_17,vector_18,vector_19,vector_20,vector_21,vector_22,vector_23,vector_24,vector_25,vector_26,vector_27,vector_28,vector_29,vector_30,vector_31,bug
org.apache.velocity.context.Context,0.09012017828881774,0.12542593687703735,0.27546357436246166,-0.007601048903596537,-0.08650324265486299,0.5685616615461786,0.07077573531187496,-0.10631127881512745,0.01740894736250339,-0.015788828486947355,0.06146457934804204,-0.1555441923768896,0.03296367845578074,0.12483429452597232,-0.016302133337447296,-0.20410315499090337,0.12838013002083024,-0.2609642036907958,-0.1501257779506125,-0.021495135765870043,0.05496749233013582,-0.048838476218029586,0.31902908236502187,0.4330965674280106,-0.11748394991557665,-0.1225487176441558,0.09616473999638206,-0.07677177722149392,0.09579301171025333,-0.036496196887713224,0.08760428203827571,0.03932635242975443,1
org.apache.velocity.runtime.exception.NodeException,0.04008869487287901,0.07443625655976177,-0.009693719046189169,-0.055592369949463025,0.046906768984861895,0.004115921448004448,0.025185795986001718,0.1065071395994219,-0.20564956751328498,0.05079378290865096,0.05499721763965404,-0.3258842665602024,0.09448131197792821,-0.0897768532252551,-0.16068415268193628,0.033707848745760806,0.042804583305975565,-0.13779667377511057,0.010180433106492045,-0.41610863417829574,0.17311056427629753,-0.1900398708373461,-0.17071140658059752,-0.03347236471458761,0.14520093851598134,-0.04560370762471894,-0.47756909217800775,-0.02396309343469068,-0.15322968530406617,-0.43227060364503067,-0.0782468116379635,0.1369252015765004,0
org.apache.velocity.test.VelocityAppTestCase,0.015417475223471989,0.13624243001987144,0.23819293398301372,-0.46174871957984726,-0.5121124060299972,-0.17714909864260808,0.19220943927155545,-0.23386041453710815,0.15317100038802564,0.12451533284248331,-0.07184511967029601,-0.026717130187803816,-0.20821762749378925,0.32903707532135995,-0.06671419528994567,0.043463267137848205,-0.013648960900832785,-0.11157174980691319,-0.05998288466159162,-0.07000877199110861,-0.13662082293201477,-0.09717553806179652,-0.012374235003961053,0.006110317348733599,-0.07493616015255755,0.22815605917383663,-0.0041111415281994594,0.005304162667704847,-0.12061608903234651,0.004766285455444831,-0.036836878919660414,-0.009980903414514712,0
org.apache.velocity.runtime.parser.Parser,0.7902442699686274,-0.12193218277776222,-0.13954153359110139,-0.013053236511063685,-0.1649940585309693,-0.07557912781728394,-0.08440434217458129,0.1504161736580407,-0.13237326862743676,0.14176421474881845,0.1151795717472403,-0.130869171043948,0.17702814559327912,-0.027088609868519232,0.035497230440790034,0.2384179681541203,0.08243357228688242,-0.07463032438395173,-0.02929319322739695,0.025762658847979684,-0.04819852660069684,-0.023971043639898406,0.1477613628846322,-0.02218666518635828,0.10657996727275602,0.052862059345514696,0.062493745532446875,-0.09121295178696258,-0.16068655345231084,0.1451815700335158,-0.001753237948544123,0.08798358292896201,0
org.apache.velocity.util.introspection.UberspectImpl,0.025235317378422006,0.0657774263227239,0.014901551859116702,-0.07257262555225405,0.18851168806565385,-0.010325161324503266,0.40155284254360774,0.3958171486186922,0.5571363405756108,0.08541724114983978,0.10634574730686314,0.11504346475611874,0.034316162315433885,-0.2011607523855682,-0.05998434891351241,0.12824718869190707,-0.07986075759805787,0.04967741115395239,-0.14621076151564902,0.015366211529142046,-0.019705033952693702,-0.04822026681478366,0.08915777241230802,0.10139069515526508,0.05574333478627625,0.1050640172809995,0.041087108585101534,-0.28154860222873396,0.0791810551223279,0.18129255143108922,0.13823055085187994,0.16525302485407015,1
org.apache.velocity.runtime.parser.node.ASTIncludeStatement,0.026248830006990187,0.5600609417905519,-0.36135026241525803,0.22388035502107476,-0.07241423430384505,0.011113035969533143,-0.095113743081765,-0.2566479642989851,0.13492915232807678,0.17712604990435324,0.001925465705726396,0.03718661064278274,-0.010758515020974127,-0.007925966240589118,0.2597815027695392,0.1368163904339238,0.06707021328543555,-0.1469352873883778,0.1757906853822486,0.3296684416775589,-0.01798268595848919,-0.03807758771835383,0.08450956420726465,-0.00026417125364676044,-0.1121998752980827,-0.13283777383136314,-0.12707805602606395,-0.11113499833353842,0.2094779331031774,-0.04923954635364898,0.042833796443879545,-0.0765008120519789,1
org.apache.velocity.util.introspection.IntrospectorBase,0.007852395656536384,0.023645550241735206,0.025235788308487897,-0.039107449051784635,0.06524341696785788,-0.03390952790118328,0.10596509122829506,0.1403227798410392,0.1850062234614258,0.10615759110464167,0.007893647118819907,0.12158919991889143,-0.036008418529631485,-0.10934936682568505,-0.05624228124441124,0.046514314133633175,0.13191135709464225,-0.09353879832461394,-0.0864366784066955,0.04542084212947025,0.11421917068713357,-0.31932301805924207,0.21652533367463495,-0.0661610187307736,0.07693514184303178,-0.1944422754938094,0.46391316963177803,0.5486349348241165,-0.06867495451209747,-0.19096548143116046,0.22523418916388968,0.1677751098886353,1
org.apache.velocity.runtime.parser.node.ASTIfStatement,0.04301501374680581,0.689824180172543,-0.2805901753763932,0.05062302555712293,-0.1533153919953596,-0.012375407131791121,-0.16675881556034858,-0.059572782230599974,0.025213197509302426,-0.008728748428907385,-0.14271881458067237,0.21598489625773334,0.2848363985523284,-0.26934851544704186,-0.07982462075189616,-0.11146796823513766,0.0576335392619956,0.0995815938885093,0.21969266328916792,0.09477202882678804,0.04015547849546093,0.10279047302659737,-0.12321578931301803,0.08482303253065757,-0.07595334342227511,0.02169480163540829,0.07635061467617811,-0.006699746409100061,-0.03375424564791979,-0.05265240904989599,0.15547856727965945,0.02314852980641771,1
org.apache.velocity.app.event.EventCartridge,0.10223499247186249,0.09363133238616152,0.16033149257761597,0.0038674314048550177,0.05001705259519067,0.16945323350990865,0.5086997616198433,-0.15139779215410934,-0.31545661645295103,-0.40314649923341683,-0.06313598416907577,0.05044992876597725,0.24666684026351976,0.061434707414308544,0.28381909054680154,0.07174862989805474,0.20195743094185958,0.007939837432797464,0.04858591150105765,-0.019655834035857564,0.029528732899383552,-0.08020865911478803,0.0045498727126138715,-0.1461459097000141,0.1297388725240002,-0.12598251038278604,0.0641469823319124,-0.064590814190482,0.19463397258619275,0.15784665553154992,-0.032285774135815334,-0.21481057700388997,1
org.apache.velocity.exception.MethodInvocationException,0.6796719373208915,-0.030181347335671866,0.10307252607222371,0.08221581963555734,0.04113228340095767,0.06444058977496106,0.024561515092268955,-0.20289499887915355,0.21610985870773017,-0.23984698982198815,0.13498013239352588,0.06429578039655734,-0.3104023267824973,-0.13062870197763898,-0.14834297177435318,-0.11626819060356869,0.003145854427875044,0.08270118231512727,0.2205530469365273,0.02143134890291107,0.141521473444228,-0.06644419718337156,-0.10620417653908573,0.01993288327436642,-0.05292924142219889,-0.05724313035984259,-0.25679363661871796,0.05721174780413425,0.06637563667887361,0.1344194149096275,-0.0723244719731022,0.03930550457970584,1
org.apache.velocity.test.EventHandlingTestCase,0.020484410485407625,0.19409808780975865,0.16844529907966183,-0.35479005613539666,-0.2868651337354702,-0.09347769248874263,0.29329029175039173,-0.04305217497792282,-0.2822192124465735,-0.21564328597579252,-0.03717464542489906,0.14433643512074645,-0.021461672687228355,-0.32861176992446445,0.2595616359043637,-0.1673702606417686,0.35118055075043686,0.20905373055417834,-0.1185330918194078,0.13882585463726416,-0.03834105417469902,-0.07891539393010717,0.09138860913602656,-0.014322307765451325,0.08950293229519578,0.1612730048036117,-0.00665869532543108,-0.09760201486856233,0.11700595389132828,-0.002141524619741532,-0.03224617828553729,-0.04030450446243928,0
org.apache.velocity.util.introspection.ClassMap,0.0005477017063341683,0.003008954343453892,0.003747351428322857,-0.006192932205277325,0.012682692487529854,-0.009289808447651425,0.02173384160064548,0.0427754166671337,0.05034452343697834,0.02562793545848962,0.033653266459163556,0.03046699490819872,-0.0334664528527977,0.001426456483193727,-0.027952752549945777,0.004829397246090218,0.1592180616549119,-0.02369209290073872,0.041235962977107146,-0.03657578990966042,-0.03283977880672143,0.026836906962960583,0.17486798517150315,-0.1628520147427267,0.29784261196995543,-0.24185830154392632,0.20656881317241269,0.7558707705697701,0.21729486783313262,-0.05066865156247273,0.2853974570471386,0.09954369170513683,1
org.apache.velocity.util.StringUtils,0.054288596136404604,0.08804824491587036,0.12514957812825728,-0.04367111350766687,0.18417139082110515,0.01672896073112847,-0.08898231121472033,-0.14495314958157687,0.12188984378434688,0.024202847679004068,-0.168453459367752,-0.1407433934931673,-0.2073673750101055,-0.12152965363073834,0.16085198826378125,0.25746796315243525,0.3949893992432183,-0.028823158657482962,-0.25343002617640864,-0.03080571702917861,-0.08566679340781067,0.42817397973453847,-0.23719199371066008,0.1600761757539426,-0.31760690568369954,-0.26788739962342545,0.0409787736964134,0.0009488540921342776,-0.14708882440875196,-0.021997193407386224,0.026756827629413112,0.05751713260517323,1
org.apache.velocity.runtime.resource.loader.ClasspathResourceLoader,0.024715744472178437,0.20065104893936844,0.11059083787477368,-0.20427678563076512,0.20438280248872995,-0.0943663116127394,-0.3273375826988482,0.40359247206621646,-0.06781642898880103,-0.29173107942247095,-0.0017445185400025852,0.057140617683112856,0.203929772364651,0.33218073875131326,-0.3157284268808828,0.01951800138963169,0.07999986397511272,0.13253746721050572,0.21854202082855403,0.3070625639621601,-0.07453279968077446,-0.004542995938063822,0.043533190889932606,0.04045188851575608,-0.13047883489527035,-0.07251474829169703,0.03132851290937111,-0.09774429830272381,0.046094411024213175,0.14279007780655792,-0.08844153511092866,0.03476009023406078,1
org.apache.velocity.runtime.RuntimeConstants,0.14147139862591704,0.17578233288483444,0.5246197311237337,0.40750902715707626,0.14462217768556876,-0.07449049637234056,0.06719119737551182,-0.10592392536876394,-0.14507772533574492,0.31991532826477986,-0.02808211532590163,0.15275298401756549,0.09194875887405218,0.18856032591344682,-0.07715385705068997,-0.279835184307595,-0.08895093250833246,0.045196450314570986,-0.2477287342932055,0.004545438265865112,-0.12081137537069817,0.05192451070835996,0.07670462444177585,0.018963519488936296,0.10800592141511196,-0.12892773986921385,-0.0005396143975692236,-0.10671576731781555,-0.10800500807653686,-0.15478247972500814,-0.0520406069959076,-0.13009803337613052,1
org.apache.velocity.anakia.Escape,0.006293509169958256,0.02725806682350332,0.07895572127768241,0.06433948648930572,0.016802944871586668,-0.0037464377898632504,-0.02809935324083626,-0.02304181121605626,0.010154355832291514,-0.06033852572703571,-0.06996198511660003,0.010211029710684065,-0.035683318245281606,-0.08609441753862457,-0.016597758567658653,0.16804087026790068,0.1379527113181033,-0.38104383303162354,-0.13759776456770093,0.05740881872538721,0.1558672895058757,0.6638327335380603,-0.28627797205083416,0.08510395664678189,0.3011914447247536,0.05350298855320656,0.07022667511557353,-0.056078763459133485,-0.1591898659364586,0.2603417491190561,-0.008163827628229559,-0.07631173562620173,1
org.apache.velocity.runtime.VelocimacroFactory,0.057321555389136296,0.23697912065684923,0.2242300602710223,-0.2940024690394612,0.23348059362791967,-0.1351212907568172,-0.19933169108490267,0.26508324300966407,-0.17534519059124273,0.01914969205522682,0.19151075629176287,-0.2657705664029995,-0.21258841714600496,0.21245526594397598,-0.16974578659877446,0.05048997964282833,0.14798093784990698,-0.010152534079233605,0.15509783156330872,0.09113437227719787,-0.01463939142232051,0.026145653737492378,-0.10779389757692838,0.026637952823579693,-0.19176919301193848,-0.008820568063426314,0.0413557569323524,-0.013961741418237004,0.49365346468005655,-0.01593861439715304,-0.10081640713262421,0.022112633825950027,1
org.apache.velocity.runtime.parser.node.ASTAddNode,0.04487381850190191,0.7957807276628256,-0.4378737637171053,0.15607209862358917,-0.03323926148296096,-0.021748133302871796,-0.03846633648494689,0.007515623319799867,0.055483395010976114,-0.07518672397455586,-0.011310485198430793,0.14473039397411444,-0.06033503607017203,0.1787239752860645,-0.046121485844656356,-0.10813170294949166,0.08191308790742508,-0.0386957682711084,-0.0922723856042587,-0.1253990479594969,0.01905375562571178,-0.038153574356699096,0.008764539595370213,-0.05063596395279767,0.0340197845340459,0.05111683457085304,0.03583909592203403,0.020769608542501126,-0.11583194312128388,0.07265472311626851,-0.05959416359442729,0.04081512686773681,1
org.apache.velocity.runtime.directive.Macro,0.05320602250684378,0.22525286304137215,-0.018135240141212622,-0.055889174141510636,0.07824264888969017,-0.015567099178486985,-0.025236606316622324,0.16455194102559353,-0.18427228246252844,0.16067533673613799,0.1811692627766546,-0.43326761384800366,0.04449909292256112,-0.16305780442785558,-0.08799295399820017,0.2429276717697819,0.042278555605970145,-0.19483028946114264,0.03537861833565702,-0.23231379445537823,0.12304346178759909,-0.26230775802903117,0.18990959599658871,-0.01646743234979609,0.22281543239754797,-0.15660802553342026,-0.43932039267012085,-0.0913044505210469,0.06958313593968854,-0.04977799258686678,-0.17685050439899833,-0.06246358480966694,1
org.apache.velocity.runtime.parser.node.ParserVisitor,0.8879199943728534,-0.15578986806466724,-0.17971249062808883,0.002203316245228653,-0.19129606450940836,-0.07042963679443659,-0.0697219348417057,0.1469644735773524,-0.0880889792595793,0.023191701965780652,0.0521197726616134,0.08226961499672521,0.09572936514134317,0.05107654079366164,0.0759993245619349,0.07880430293621028,0.01818432500457495,-0.0590056706133719,-0.07184767261077034,-0.020836676685742732,-0.022484078293433712,0.03128588499244268,0.010534001745311567,0.00240622157268908,-0.030380874467765228,0.0745344304665386,0.10473174947084311,-0.014920768224759403,-0.05906383264795997,0.03511976135209752,0.014587485983085418,0.10888780854030922,0
org.apache.velocity.runtime.log.AvalonLogSystem,0.02131200735077473,0.12255375831825449,0.1500832390499772,-0.2628882103034203,0.07172503416940923,-0.17103866091632994,0.09505871410693441,0.11618979814267133,-0.3376402501116283,0.29181842570795724,0.17422012858500516,0.18287587509485279,-0.45624112771625963,-0.21359485159219177,0.3765721497695549,-0.22802038855407436,-0.1449489279684345,-0.16840042328681787,0.14317595912756076,-0.004041598878952969,0.05490505264559352,-0.04372591639905096,-0.011775680633402705,0.0010606002256091198,0.001633804449428831,0.0414081384995632,0.029859309396844707,-0.125100717500607,-0.049386692391050944,0.053515321328623945,0.08360938708526468,0.1411348320503149,1
org.apache.velocity.runtime.parser.node.ASTFalse,0.03908096540064456,0.6962922074173109,-0.45069752954135633,0.24506034093934326,-0.08383737284757391,0.014831585765432536,-0.08148642828897598,-0.23352439889897755,0.11853725831678683,0.12242018325433551,-0.009572026233085616,0.10073126557531051,-0.07457445278482872,0.06138045744167243,0.1907591131268545,0.029007526640150983,-0.00714331754985843,-0.06615895353528566,0.10676980943952903,0.18696988501231487,-0.005483060221284906,-0.002988818578099782,-0.005540892964441361,-0.023863072746943197,-0.08833862615015525,0.020069286462343065,0.057330734465543376,-0.014037165250740127,0.16974321961691455,-0.059632440322784815,0.02644488495470756,0.005088101585460729,1
org.apache.velocity.runtime.RuntimeInstance,0.05018993104305617,0.19160492531853984,0.22662968559750943,-0.23181585811860095,0.14018889860818695,-0.10824733295488558,0.013852464487067933,0.007320444665944936,0.018846796067233468,0.39891507583713715,-0.0064964431896205104,0.24506829062096847,0.18360721356635173,-0.2802009647362831,0.06163134036625427,0.18395391265381758,-0.24223398751053757,-0.06329453824855576,0.025986716325194337,-0.02031355436553623,0.29040251839683034,-0.3060054991625804,0.018551835209962085,-0.016818085782144738,-0.05033662464764888,-0.0814254080551679,0.006542373667144467,-0.07638102053356045,0.26858352813942427,0.1255939535519511,0.22100156694588996,0.24584023229821847,1
org.apache.velocity.runtime.resource.loader.JarResourceLoader,0.03320452974030007,0.17662568063618536,0.12447777769500021,-0.18826079863665393,0.22953464883322466,-0.08498760088601626,-0.3039926377091998,0.33128331508489456,-0.03876837320487322,-0.234836832098068,-0.02959553811013924,0.048244811431995376,0.16047519503256677,0.331461051449698,-0.312084974107291,0.06831866130773169,0.12576976231305528,0.1360302792850884,0.1365795281840656,0.32122080425276267,0.0753920713822358,-0.16057422213788736,-0.05275644467843907,0.01158879912732711,-0.22320568711246278,-0.16464845977629194,0.03684045885944331,-0.14526670418494902,0.1276655525822686,0.21950025944908977,-0.0005142442123472104,0.052378680130323034,1
org.apache.velocity.test.InlineScopeVMTestCase,0.02472642807907489,0.14739369416362327,0.2711650681554626,-0.4314135336142146,-0.4453542392870476,-0.18644815385388372,0.10139204994611402,-0.22848740328042408,0.25013109576668435,0.22140264700284043,-0.02273731568516123,-0.07101336220372557,-0.11027917878751198,0.406197636001137,-0.0015487766248142572,0.13281759704621784,-0.07049210249774235,-0.032164454250094156,0.12094258674340298,-0.17660540952142886,-0.1297987908716304,-0.013041098249427242,-0.11032317411104044,0.01741573973149026,0.07643651497628198,0.04292587687351373,-0.026848390052074903,0.009311850866029177,-0.04539567560459745,0.11202442497869554,-0.0766937588625993,-0.013507110321947527,0
org.apache.velocity.context.VMContext,0.06220631114657481,0.22568901822144016,0.1130235375790299,-0.19758104512948665,0.11884540900790537,0.10081057028401068,0.10307417039302472,0.07296173508973422,-0.24992464631616224,-0.17480461900005373,-0.043052641467567744,-0.24909823166185316,-0.4301905422247818,-0.02137322695659222,-0.15309665235722364,0.17639135064117362,-0.21953874634130963,0.17844623763286804,-0.04432512564395765,0.16512010387615983,-0.13497527731489917,0.2264327713214214,0.005172673702338539,-0.017126674935040522,-0.1904518717654318,-0.12588131926862683,0.1847211859549146,0.06781910504683918,-0.01939696378601252,-0.17259814467949827,-0.07541636053981418,0.3877868578322519,1
org.apache.velocity.runtime.log.SimpleLog4JLogSystem,0.012907332276958942,0.1322291726930757,0.12710532430948207,-0.3149577492613336,-0.011582295480636717,-0.17464872461929057,0.06315908128034259,0.19171301066699856,-0.3172999092204913,0.12864556115116102,0.20514756401305564,0.0039953626903952285,-0.4906367890226206,-0.20829983717237985,0.41923913343758146,-0.25374009030151423,-0.1011516673720671,-0.17784877902788443,0.19030661433408508,-0.014803278448793157,0.018145362505864474,0.006733741325963839,-0.042999904871603996,0.02253708333228437,0.01325515855447924,0.07972615889625231,0.0825887925685085,-0.06866238769990708,-0.06755465366848908,0.02685899833627259,0.03882385282361936,0.07834180512955105,1
org.apache.velocity.runtime.parser.node.SimpleNode,0.8719601786634561,-0.13460013307729526,-0.10645644235918984,-0.015194994162828147,-0.14520097965454193,-0.0672962673628687,-0.08348817938309956,0.12068981829278677,-0.0927969826161311,0.06711271863927039,0.044850216877246454,-0.011628363713580774,0.04892605425348836,0.002232029791635769,-0.004016082265774029,0.10476900575488597,-0.004880422638183655,0.05633080121013795,-0.18640578104892755,-0.030551671664148513,-0.055027351579943574,0.09454202334513824,-0.01512679375906551,0.06740622090416756,-0.058631562078377615,0.07432728370226546,0.24317883080644043,0.0033083086311575817,0.044213394512090214,0.01058572027958961,0.04128461632792017,-0.08188944891361993,1
org.apache.velocity.runtime.parser.ParserTokenManager,0.04156141444349793,0.11429882941423355,-0.08604863379935415,0.031091669032841805,-0.03370302775347918,-0.0003542131415587466,-0.014474863414222583,-0.002376244092772884,-0.050602615628248075,0.15811983363907955,0.08827575274068881,-0.24847254437435276,0.06535141292038169,-0.1532610509522391,0.08960622776827766,0.41048553138799865,-0.060019333742123766,-0.04395423487691019,-0.0034248994210300666,0.22823030169919786,-0.15368138983506047,-0.019307621365823036,0.3318737253516135,0.09109349348979749,0.17998922047438495,-0.2533991245113375,-0.27143125270219043,-0.12165816573490724,-0.1491131581587876,0.20503173081093898,0.01338341125582899,-0.47382093732270225,0
org.apache.velocity.runtime.parser.node.ASTLENode,0.04487381850190191,0.7957807276628256,-0.4378737637171053,0.15607209862358917,-0.03323926148296096,-0.021748133302871796,-0.03846633648494689,0.007515623319799867,0.055483395010976114,-0.07518672397455586,-0.011310485198430793,0.14473039397411444,-0.06033503607017203,0.1787239752860645,-0.046121485844656356,-0.10813170294949166,0.08191308790742508,-0.0386957682711084,-0.0922723856042587,-0.1253990479594969,0.01905375562571178,-0.038153574356699096,0.008764539595370213,-0.05063596395279767,0.0340197845340459,0.05111683457085304,0.03583909592203403,0.020769608542501126,-0.11583194312128388,0.07265472311626851,-0.05959416359442729,0.04081512686773681,1
org.apache.velocity.test.CommonsExtPropTestCase,0.003198791548778225,0.027220958572353397,0.06822966278752285,-0.13371368782948495,-0.1634768128414329,-0.09616709945439139,0.05745068657170538,-0.14190372145782257,0.18308160445208013,0.15045383917764352,-0.031022041207875217,-0.08005017576574551,-0.10668087534198717,0.4932826335932577,0.03718578231158152,0.33371054579266984,0.07099828270998765,0.10845987834856315,0.19163351561483521,-0.31712505556169424,-0.10797162051609391,0.09046163216994073,-0.354905009805177,0.149326167975176,0.07429873928858302,-0.08884949183635615,-0.014677271241223156,-0.05651091316506691,-0.05628700302637159,0.12781722782495988,0.28970750310881405,0.209456473427704,0
org.apache.velocity.runtime.parser.node.ASTMethod,0.041914689936838015,0.46030530895528254,-0.17488959360162162,-0.01331275549258398,0.07943790571030887,0.031633081812715166,0.3257122731250401,0.19117417109655635,-0.005566015141629979,-0.18015226880682014,0.10219232591562992,-0.08206342428226616,-0.06086022647039338,-0.0024040433101866114,0.07639253884113757,0.16876987217594352,-0.4559701752291343,0.253870797959655,-0.28627076354906045,0.0074797539840757475,-0.15757145613156875,0.1655442490776875,0.07484174914579607,0.18793481526437478,0.05321197702300271,-0.0355258605558443,-0.10826350684186281,0.07725293791072957,-0.07685612525717991,-0.017329582601421218,0.12323297828936834,0.16511357555660008,1
org.apache.velocity.VelocityContext,0.0620676950685947,0.16011065935102567,0.5351982978080714,0.6006030661777617,-0.20037770638485625,-0.09465555895229244,0.05374622381403068,0.10493046342910589,0.021188432198417963,-0.15003964076760418,-0.057490008413336485,-0.005784184110482092,-0.20764738734244925,-0.1469741910393733,-0.12239225391134818,0.15246238072738177,0.03749928848070969,-0.175837132719016,0.05798371457095595,-0.0015511874497634347,-0.09054864621117546,0.15180384004255965,-0.014553054711313419,-0.00685314092702776,-0.12771488520891147,0.15415989919110623,-0.06401633771011371,0.03992495053522174,0.019827404727253143,0.10596754360395631,-0.054777299792447526,0.059288914428741374,1
org.apache.velocity.Template,0.0739692008132462,0.2440296852343602,0.5542376342661977,0.35135562639482465,-0.10958873878861534,-0.06194669315456786,-0.20422126421234701,0.22816048018759233,0.059655160310401925,-0.0822137852641702,-0.03570681084229068,-0.17642495897514474,0.09707354936129278,0.009933097766862648,0.02058135947672973,-0.15867393161922874,-0.05166362435770072,-0.08254162877602494,0.008268201554700559,0.023409312499721543,-0.09484430091578151,0.009062852575767295,0.13044064130448121,-0.1284243447580996,0.11535600353426428,0.014730952853594848,0.16437154361849898,-0.2223470079398224,0.09549310689628523,-0.03255513874117054,0.3780995739423363,-0.14523692875351354,1
org.apache.velocity.exception.ParseErrorException,0.217713014722211,0.12908127961298496,0.36438850649257926,0.13963692059074842,-0.011759019613932376,0.12033747516778691,-0.2392901491751494,-0.23083695485883812,0.22739026983317975,-0.22773829946904994,0.6616743931657919,-0.05074120757197031,0.0056675602387936995,-0.016158265487385064,0.05260529795536198,-0.12226399355464732,0.040328702946106944,0.16370741745360898,-0.10853818169940645,0.006780323597575371,0.10015433251050404,-0.08657464788558766,-0.07549344796547913,-0.0395103551292276,-0.0250163677894126,0.006312146817581664,-0.09905982825289421,0.049544925106501894,0.0034605577727329167,0.09093363277860866,-0.042190820347932124,0.09217051577322655,1
org.apache.velocity.runtime.resource.loader.FileResourceLoader,0.02393984577316226,0.18272643898853755,0.10742579710048274,-0.18857544613342878,0.18042679927795405,-0.09803131692411025,-0.29377206664194533,0.39301420194413744,-0.0864720284711659,-0.2526524988760519,-0.022595592673671627,0.017880988279616417,0.17037175716619993,0.33926944148371296,-0.33014512020922226,0.0650371968669502,0.11478777113053014,0.10825633246002413,0.16400696363597328,0.30638306427969986,0.06003087183290863,-0.1127606443880291,-0.04496579633718383,0.03384917874630676,-0.20592957752881327,-0.15247991148925533,0.03357469371651252,-0.1347181468012809,0.1227147303153148,0.19817073999058865,-0.0024856268050659665,0.04574810047346017,1
org.apache.velocity.runtime.resource.ResourceCache,0.04139965072700489,0.1502508431459188,0.19377549109815967,-0.26963656986606593,0.40038514887498117,-0.11604561979535069,-0.2950018721025656,0.2108787441927462,-0.18993487172387674,-0.2062436451114313,-0.006483958227742057,0.08447355181143618,-0.17705573149098155,0.2766519179727657,0.2704949700591916,0.06328454212463054,-0.16041687857696263,-0.0654487801569258,0.012934496920387785,0.2503111480711228,-0.13029247475042735,-0.04626749583156222,0.2039515056599234,-0.02633629141407409,-0.03969760150126322,0.30325864543997744,-0.07216585241312273,0.000881676274232426,0.04405734022104718,-0.10378985382773863,-0.09159383766906082,0.12345123870663843,1
org.apache.velocity.runtime.parser.node.ASTObjectArray,0.042600541449341375,0.7667031617126283,-0.4588899523697892,0.2188235932304556,-0.12182476898575528,0.0029931461638216103,-0.0649137333694793,-0.19747637852906283,0.08956187906175937,0.06582285311918805,-0.038805642024800385,0.15097356740071383,-0.01499223486147797,-0.006931255329626992,0.0883927715270809,-0.06780374911609101,0.06277808870674724,-0.009825653565874353,0.02849185351826414,0.08773337132194929,0.01957796630037003,0.01179036147943018,-0.0373612913495097,-0.024335776688786684,-0.06990430047850804,0.06076584947144934,0.05916172611046391,-0.021057042432886856,0.05651984100626228,-0.08009858224893034,0.08264751707321918,0.021678994177039595,1
org.apache.velocity.runtime.resource.ContentResource,0.039131386865910466,0.20731739869078797,0.213137441132102,-0.2171588634710257,0.1911313490523297,-0.15418524861490993,-0.3084483610830035,0.3573976425473537,-0.06410219319228347,-0.10508963231079009,0.19190605375833195,-0.0513158843543711,0.1278097527445269,0.34327359387352285,-0.02475604280296739,-0.03926138259989833,0.12341593810496182,0.18950683610410823,0.2713320161369478,0.26723659397420557,-0.22838065614050312,0.21071471783979082,0.07171862795611741,-0.006232351148327514,0.08182582102144638,-0.060750625199276716,-0.0507594188073757,-0.08297538334619858,0.11115102929482183,-0.04752240103728353,0.1791816399681172,-0.15587242333612725,1
org.apache.velocity.servlet.VelocityServlet,0.03391893791030411,0.19530433215279597,0.28707234783834945,-0.1801812484453705,-0.2883608289747536,0.11438480792904987,-0.09112186799423495,-0.044332830347573904,0.1283009545230362,0.06771104242404268,0.07815144371393203,0.059772625966788534,0.22506993005351994,-0.06029073289570753,-0.10606606669900225,-0.267956098197993,-0.12732585184526052,0.07627758270721595,-0.13982676626558582,-0.09426650527683199,-0.02326180014228322,0.008703267410405235,0.03559844309038896,-0.17039849535040832,0.0919653623572692,-0.26908542834682014,0.3077474731294428,-0.43706139756414014,0.1328942383780272,-0.31360168933166555,0.00593774980450417,0.08503929158053201,1
org.apache.velocity.app.tools.VelocityFormatter,0.00799316888066715,0.05895520841243947,0.08112437516219315,-0.04088165438320822,-0.11657896737465408,0.3471039850092943,0.0155507182399171,0.13577326356891697,-0.09349669458312689,-0.01111748088630572,-0.07110752107154321,-0.004026440131255493,-0.04544225558680974,-0.1513720881173606,-0.18090431575510743,0.18979637758585335,-0.20203645059402103,0.008542477657573131,-0.023358957857989398,-0.017965612528750646,-0.12315617820608235,0.2326764044819259,-0.060046435425995255,-0.6403037018140979,-0.2205400530244165,-0.11382581904618298,0.15390874833000914,0.13700677465544894,0.26388443757552915,-0.03558970914661772,-0.13264001681508777,0.10289005675301437,1
org.apache.velocity.runtime.parser.node.ASTStringLiteral,0.054647607819962404,0.7595717689714391,-0.33205050942473646,-0.0034520939739251222,-2.4640583567317568e-05,-0.08013185553157541,-0.008895092123840454,0.09615123571982497,-0.08940784777766764,0.05057655838429821,0.12047274892845485,-0.05396627427982423,-0.2988067034144974,0.09334752076338827,0.15118499266988186,0.02941386484217162,-0.15749814488995925,-0.10698628937272264,0.012587993427176107,-0.0710326323362645,-0.062439956701883514,-0.022886237187029607,0.06180882022262473,-0.0018021647098213154,0.10640306739414546,-0.03126214045585533,-0.02440424470628617,0.03407107967943564,-0.0364338081897923,0.13713539317818763,-0.16560253774955302,-0.18175677612741828,1
org.apache.velocity.test.MultipleFileResourcePathTest,0.02904733403215073,0.16812602585535114,0.30267851553898134,-0.4624577625458458,-0.46313278068837543,-0.18922153491900012,0.09320491716422434,-0.22505898500610771,0.24849693529157443,0.22113697404862398,-0.007268331861265564,-0.07032453306799809,-0.0880269555536496,0.35693558526306907,0.005226848178163475,0.12101519518368899,-0.07425142820070148,-0.014310274317191563,0.1368107943178116,-0.16582728998038848,-0.07652392265094628,0.016709603440633856,-0.09757913283269357,0.007021651310295112,0.07527964696182428,-0.03837836549970672,0.003062825100242604,-0.013355686662382944,-0.022006208515077154,0.11411046641226001,-0.0376433741470524,-0.020206940468659337,0
org.apache.velocity.util.EnumerationIterator,0.007689500518251776,0.02335275341424297,0.009103053979593137,-0.032453838611779987,0.10660174230388138,0.0013563547966475888,0.28097732010840637,0.2691982459589711,0.344952851575229,0.042541347679065686,0.1452673752895638,0.023233145203876298,0.14296188304610719,0.06028133559819355,0.008944550734006197,-0.09385777243790308,0.18866547533027672,-0.10554882798024247,0.06297797615645141,0.06459677280496198,0.004593720729883651,0.05553326292619964,-0.151043342557671,-0.05611912237245331,-0.1948098465454491,0.10352772239878866,-0.005160699670216239,0.2488219661195503,-0.2360683932984413,-0.27138259821744287,-0.3742736458313788,-0.4427908316710797,1
org.apache.velocity.test.ParserTestCase,0.029735650448230642,0.1448282653085732,0.2272457801989316,-0.18371009217348808,-0.28440581169991463,-0.03240134461613904,0.05524914845771818,-0.10985133520481603,0.0071090689031498835,-0.12262301446923672,0.05600803996414346,0.11792960870970658,0.09955400373654785,-0.2261396539183853,-0.15823264899265108,0.08024108874355367,0.01079276546816221,-0.012626432563667283,0.07155987526134608,0.15099608423344846,0.2967358941285415,-0.2554373206721105,-0.054943901951390095,0.06908160755381305,-0.12977961314065267,-0.15224058456003242,0.1765237380054965,-0.024098722414252746,-0.38913741977251765,-0.08607222381223706,0.421017672996519,-0.27183638548099104,0
org.apache.velocity.runtime.resource.loader.ResourceLoader,0.05025579814822182,0.13453661419944313,0.22191450822079736,-0.24437400844749996,0.3330157570619939,-0.04526542342615049,-0.38622034824733853,-0.07012272908529034,0.18989351611297411,-0.14366024312789796,-0.2589086053786256,0.09744522480593433,0.0830925903881799,-0.1255238895488871,0.41274474400805755,0.31140516505158067,-0.025898854705605025,-0.13950648951636901,-0.16538805077687604,-0.1367716911979189,-0.061101810130050144,0.06203184748502377,-0.018941598824165407,0.016144393849706742,-0.05841950863066569,0.0344740044302187,-0.04286642137189759,0.07329289286017321,-0.12023878874639977,-0.2643161886699349,-0.09418009174519049,0.02764717313923542,1
org.apache.velocity.texen.ant.TexenTask,0.03145860424276011,0.2648833996262519,0.20421348404298717,-0.29509857800556666,-0.2829768258132038,0.03073916513578338,-0.061734853852314954,0.13302580784042348,-0.09484283528053195,-0.06733366792101564,-0.10657191826941641,0.07543011189984501,0.15650410010661853,-0.28824069878363484,-0.3317037412811192,-0.09966743103750832,-0.03686763967869076,-0.0677059309543571,0.03786542064616783,0.10002077079598479,0.23834776470224858,-0.010777004321296284,-0.15101364460162672,-0.09305674456482202,-0.28053044422623047,-0.2314105346491351,0.13531004364184174,-0.02783106135935942,-0.21519641095984549,0.23428678913405643,0.2760070948161113,-0.07026042949131668,1
org.apache.velocity.runtime.log.PrimordialLogSystem,0.019047792563971436,0.11049910595403305,0.12714944953318597,-0.19278860067746245,0.12383088218812219,-0.14396783254602352,0.01940418082690978,0.24126400275938203,-0.2958960648321835,0.15387293369762844,0.33158471088382196,-0.0003922377181203253,-0.3900815186383171,-0.15526502166638342,0.4138919380565057,-0.23221673246452446,0.142808881674741,-0.10039846775192282,0.15313539315262947,0.07411221293743404,-0.08526150872864079,0.22901632971868416,0.02883647377325077,-0.0009407493782672306,-0.014781980098897297,0.04104725928423848,-0.13153199631137197,0.010043836098100743,0.007411686868288315,-0.15408861973068333,0.2282568100146998,-0.03991328901186621,1
org.apache.velocity.util.introspection.UberspectLoggable,0.022888023530069003,0.15450671944667677,0.04770926613208694,-0.07201040833664372,0.19393643494826077,-0.08225031038816394,0.10485813891022068,0.42052611250490635,0.16134115924909329,0.0439447853618504,0.3111863557165824,0.026225892621472544,-0.0226183101937226,0.22338211352784987,-0.04814507682414657,-0.11074493831826128,0.3995119683985519,-0.07299696335437877,0.07249576684608411,0.042518846434988086,-0.11269512747677357,0.22517236870399743,-0.018563157467130505,-0.07311827608817466,-0.09489744471055855,-0.0769784026041076,-0.08987848921074393,0.1602859959930662,-0.1532713542695449,-0.1314049184262369,-0.26992440191173217,-0.3768724368987412,1
org.apache.velocity.runtime.parser.node.ASTGTNode,0.04487381850190191,0.7957807276628256,-0.4378737637171053,0.15607209862358917,-0.03323926148296096,-0.021748133302871796,-0.03846633648494689,0.007515623319799867,0.055483395010976114,-0.07518672397455586,-0.011310485198430793,0.14473039397411444,-0.06033503607017203,0.1787239752860645,-0.046121485844656356,-0.10813170294949166,0.08191308790742508,-0.0386957682711084,-0.0922723856042587,-0.1253990479594969,0.01905375562571178,-0.038153574356699096,0.008764539595370213,-0.05063596395279767,0.0340197845340459,0.05111683457085304,0.03583909592203403,0.020769608542501126,-0.11583194312128388,0.07265472311626851,-0.05959416359442729,0.04081512686773681,1
org.apache.velocity.runtime.directive.Foreach,0.0516700008247579,0.37789552149949146,0.034707917271401295,-0.21555685799396093,0.012604769392242527,0.03646055426056253,0.11253355070946208,0.30572246695100225,-0.13621401311967787,-0.018615680360725678,0.061728530672508004,-0.17700616980224357,0.1378342192580054,-0.40778680655528493,-0.14542445741173565,0.048605381001816224,-0.4211755360281409,0.16625012293246372,-0.03124102981326712,-0.2853287736451988,0.06064569084226125,0.04450923997100741,-0.2258774109538634,0.08705411147314855,0.08575139248870159,0.03696915118248899,-0.21650090989858145,0.1467227886638574,-0.038981210694560765,0.060502840129861075,0.04887857913762328,-0.005663760421595882,1
org.apache.velocity.runtime.parser.node.ASTNENode,0.04487381850190191,0.7957807276628256,-0.4378737637171053,0.15607209862358917,-0.03323926148296096,-0.021748133302871796,-0.03846633648494689,0.007515623319799867,0.055483395010976114,-0.07518672397455586,-0.011310485198430793,0.14473039397411444,-0.06033503607017203,0.1787239752860645,-0.046121485844656356,-0.10813170294949166,0.08191308790742508,-0.0386957682711084,-0.0922723856042587,-0.1253990479594969,0.01905375562571178,-0.038153574356699096,0.008764539595370213,-0.05063596395279767,0.0340197845340459,0.05111683457085304,0.03583909592203403,0.020769608542501126,-0.11583194312128388,0.07265472311626851,-0.05959416359442729,0.04081512686773681,1
org.apache.velocity.runtime.parser.node.ASTSetDirective,0.08571342536694464,0.6707886578984397,-0.2115951315823555,-0.04965587129596645,-0.008806637731296587,0.10234044629586292,0.2671592160404343,0.1360579829724004,-0.25958626499797977,-0.17769311681665687,0.07480803477989863,-0.14191293220113688,-0.11729713532697174,0.048210764410795734,0.08614609647829523,0.11729210498276596,-0.2612844894635298,0.038421407480029944,-0.15000218861586923,-0.1615135098816785,-0.06943948796261641,0.05950403091000851,0.0036651761784710643,-0.09376940291650636,0.09551404788618958,-0.15879556210462611,-0.10076736917538409,0.07175818189140072,-0.13647427233329862,-0.1270729409058088,-0.10813755777331048,0.03812133072820454,1
org.apache.velocity.test.provider.TestProvider,0.011032736620078589,0.032260323661253705,0.1162598434584772,0.12968560516761576,-0.07060599212548176,-0.04400476890375895,0.0715608534303859,0.00039897698594575575,-0.010732868537228104,-0.1571039026239694,0.0414432008734355,0.03798721723182077,-0.07450979102332939,0.031230097337244613,0.0812781139652669,0.3436169158252188,0.0773733031919103,0.1291433916506963,0.24867561208596606,0.014410298963955487,0.1447676398957645,-0.3710453658918012,-0.30248142450660703,0.18903082854353628,0.07148839272362045,-0.04220178233248319,0.2701523228882064,0.10299513380913336,-0.2901164988489744,-0.30180800083343884,0.3546373429974656,-0.18766977975257854,0
org.apache.velocity.runtime.parser.node.ASTAndNode,0.04487381850190191,0.7957807276628256,-0.4378737637171053,0.15607209862358917,-0.03323926148296096,-0.021748133302871796,-0.03846633648494689,0.007515623319799867,0.055483395010976114,-0.07518672397455586,-0.011310485198430793,0.14473039397411444,-0.06033503607017203,0.1787239752860645,-0.046121485844656356,-0.10813170294949166,0.08191308790742508,-0.0386957682711084,-0.0922723856042587,-0.1253990479594969,0.01905375562571178,-0.038153574356699096,0.008764539595370213,-0.05063596395279767,0.0340197845340459,0.05111683457085304,0.03583909592203403,0.020769608542501126,-0.11583194312128388,0.07265472311626851,-0.05959416359442729,0.04081512686773681,1
org.apache.velocity.test.TemplateTestCase,0.016269890318670228,0.09538824401026655,0.20898572413960387,-0.2231282580535925,-0.3414235999268413,-0.1350485854231956,0.11261427685753563,-0.17666534094777794,0.19615880834384541,0.11973539379175054,-0.11466095462222695,-0.0317379797415024,0.014199243249065331,0.3812473613656523,-0.04138279345628069,0.14206112060956666,0.17261805040287895,0.0645560898835789,-0.13188240151493216,-0.04418145061222704,-0.29599736749030203,-0.02627107949497253,-0.07319923750008586,0.012832801034037845,0.17954530149637463,0.25752528195200103,-0.3094526100349447,0.025588382765688963,0.24883728760101326,-0.17464068484695325,-0.06038502460920189,0.21420996970250414,0
org.apache.velocity.test.IntrospectorTestCase,0.014416368658447597,0.05586608743170441,0.11799643222785225,-0.1194458595755844,-0.14825414716376126,-0.11272868441076564,0.0331683512315853,-0.10102603938911331,0.21418433114618626,0.20558104259292426,0.05209347879222135,-0.10734701910191767,0.012079354004324451,0.44559922584986006,0.10147836882966939,0.2120233603581035,0.07702366452160382,0.2410153699715386,0.23050587140634984,-0.2570226070378706,-0.12335111445162328,0.13165325630611735,-0.27553907992618953,0.02411401713527796,0.31744046720137004,-0.16163628487271048,0.010209630947130354,-0.13229014667594116,0.12460433639915296,0.10319496779078059,0.2558027558743801,0.19436858941671345,0
org.apache.velocity.runtime.RuntimeLogger,0.46370390609128187,0.01174191989787339,0.09130987713881339,-0.12744438251680856,0.3864738690293762,0.015084846410526417,0.07304033352911884,-0.11360454281014186,0.35394288825256703,0.016393814606272768,-0.45574745464149735,0.17713685904140442,-0.26811687349381763,-0.17587536876921858,0.0025417517607438963,0.054930837339172166,0.06879460632690268,-0.05194975396164334,0.09574560798928412,0.013143430584489945,-0.014812021641530617,-0.03823214179530228,0.11773538141540019,-0.08816328829196858,0.07807068416475074,-0.14242398646653082,-0.06115646507962323,-0.19988136854452385,-0.007307189027612501,-0.10613965659055996,0.01620470286508768,0.014823369762719793,1
org.apache.velocity.runtime.resource.loader.JarHolder,0.03857694970493076,0.30323020694174524,0.1306721298612477,-0.32279314553450783,0.2901778319488347,-0.13370157393117837,-0.29831044499840903,0.4656866408261543,-0.06634624493862744,-0.20728021392712204,-0.026907370861766446,0.07194290681966764,-0.033511982146674266,-0.10457428378338675,0.06714374628652243,0.04058416495975836,0.29142484694346144,-0.053582879760786774,0.10911814044387341,-0.15401042806261012,-0.059946547602320786,0.17433493338199055,-0.10672851653217894,0.09499516567015893,-0.10049822017969513,-0.10436271568759707,-0.05440991237684413,-0.0889936103391085,-0.2730120299145037,-0.11432434578084617,-0.09237715007568659,-0.006442124006261017,1
org.apache.velocity.runtime.VelocimacroManager,0.062408829070413674,0.1116581116306516,0.10975085094411431,-0.15225607681926348,0.2874576577819329,-0.0398789738944599,-0.02080630537203001,0.0032727104073427414,-0.17206243687822503,0.17213744817788199,-0.10501896929968574,-0.23372402944487716,-0.29450947816857376,-0.16947104046293346,0.025105169018748406,0.13931560229854975,0.30969164995610265,-0.06144249691299876,-0.11217990172154219,-0.1875544714021136,-0.009367977501703706,0.15019492592409042,-0.21917069821679713,0.06037411673448295,-0.25215028976800746,0.06775983291230468,0.16344505417832073,-0.15715705104762182,0.14513218913821996,-0.42462029606975443,0.23608221788760242,0.06999976713392686,1
org.apache.velocity.test.TestClassloader,0.014834524038268073,0.05327873060452128,0.16472921103399726,0.1499953803162117,0.07660218767356959,-0.03904222700333618,0.12559440203586048,-0.018784067838175083,-0.11180816384202169,0.2047520930178342,0.1398394781342896,0.3685392112760929,-0.03524930514709277,-0.01134873423110511,-0.27026941662016996,0.14689724924359837,0.19090755395017203,-0.23431711167845407,0.049340669389128025,-0.06838755863609959,-0.1251119389374619,0.38800911816229294,0.09963826637520072,-0.11751107509501181,-0.012248339446905109,-0.009363618124604907,-0.19445415250887263,0.3318566182592212,0.11249765310103493,0.3697911089990545,-0.13313670405666625,0.11951504799673372,0
org.apache.velocity.util.introspection.Introspector,0.03586990100223437,0.10420176466806604,0.09411431817611907,-0.09048106250022213,0.1623507226002193,-0.0911596092608239,0.1773032805318839,0.3234330719466019,0.3075987668094716,0.13567794129524915,0.20674341625338172,0.12609672446091352,-0.1591325293464189,0.04876594368235728,-0.072945375502539,0.014104036840251473,0.42355798785342247,-0.04244604962653985,0.13358016163339478,-0.07352919362147492,-0.130939134427317,0.16230399153798336,0.20260625423524156,-0.209146119395056,0.3591979689272193,-0.18688182865377062,0.009966274539376341,0.2718227604563539,0.14633080809891014,0.054284767502951047,-0.011192904664160381,0.007468793803964787,1
org.apache.velocity.util.ArrayIterator,0.007689500518251775,0.023352753414242967,0.009103053979593136,-0.03245383861177998,0.10660174230388136,0.0013563547966475883,0.2809773201084063,0.26919824595897107,0.3449528515752289,0.04254134767906568,0.14526737528956377,0.023233145203876288,0.14296188304610713,0.06028133559819353,0.008944550734006206,-0.09385777243790308,0.1886654753302767,-0.10554882798024244,0.06297797615645138,0.064596772804962,0.004593720729883641,0.05553326292619965,-0.15104334255767102,-0.05611912237245326,-0.19480984654544917,0.10352772239878862,-0.00516069967021631,0.24882196611955035,-0.23606839329844131,-0.2713825982174427,-0.37427364583137873,-0.44279083167107974,1
org.apache.velocity.context.InternalHousekeepingContext,0.5503081168061479,-0.022139576811725917,0.02601204512081649,-0.03886366302826854,0.2156942219415935,0.07606451736071908,0.1700109621681131,-0.17723527717171356,0.0750430404829244,-0.14936758757682037,-0.3545039884148343,0.004543624951307746,-0.2331059108311548,0.04959543507731621,-0.17231252937803287,-0.2736699247911442,-0.17037594256523184,0.07997737568549466,0.306177569328992,0.14176836447085217,-0.01927667539511465,0.022656938657615745,0.06264571224976427,-0.04643590248550126,0.12814066975071048,-0.14577004614932726,-0.23152898078312575,-0.05308542821623016,-0.03193152434335728,-0.08686385083464603,0.07645317676522137,0.04584137804069252,1
org.apache.velocity.test.misc.Test,0.022511589174841144,0.1653543547080047,0.19845821745660536,-0.24422519292433137,-0.2994046035557074,-0.08732995454940076,0.18008690826690446,-0.080547065816465,-0.07799444801854616,-0.18166309574557638,-0.14190277143067928,0.07765722397533259,0.1713184552004224,-0.20010045083126346,0.1548881705005874,-0.014095700692501314,0.46066303648341095,0.36477460526357314,-0.16232445712440174,0.1425936368250549,-0.09724001398697155,0.03135530983128285,-0.06329377579139892,0.020009294654772306,0.10894631965981337,0.005281668269631749,-0.19209749996419098,0.01616222834079233,0.21761558200188527,0.1531444383437585,-0.19409544022472924,0.11729819963926527,0
org.apache.velocity.context.InternalContextAdapter,0.9055866973371768,-0.07492150650165025,-0.03658711403676644,-0.019962172675770246,0.09178476182822051,0.07126551305503889,0.03475465819058609,-0.11415291448020908,-0.006655792549662285,0.00966703232291761,-0.07251118735179968,-0.13840089528358235,-0.06266518478873565,-0.019772053714290777,-0.1490291880283834,-0.17149417640207112,0.1292694305029317,0.014508267425503266,0.02375576001143648,-0.07098584210102281,0.007031139469815512,-0.047590991080829446,-0.0030270329182285416,0.038201995453031594,0.061306587854390464,0.106885282597818,0.035744005747962125,0.012661057270266627,-0.056961533440008004,0.08732423541483046,0.04330993772977799,0.09304881087846949,1
org.apache.velocity.test.MultiLoaderTestCase,0.023627719996072164,0.16306099476394212,0.2867786126279863,-0.4994173005637178,-0.4882102285509885,-0.1705373307229318,0.10488036606617492,-0.23831473395575917,0.19545473398072266,0.16013347510838363,-0.0583156461498458,-0.03158954160174172,-0.15160787626638528,0.2716287035024994,-0.05342705184356791,0.10865809414711967,-0.11939918415580375,-0.15057311166117135,0.06673107957470703,-0.12702882135317686,-0.042825079283358145,-0.04039162081099637,-0.05225859748975592,0.0458140709861319,-0.10203404535999251,0.033331674015321236,-0.0053299722383589885,0.05242255809265246,-0.12674603361441378,0.1115975531675243,-0.11209693234639885,-0.07140917330916909,0
org.apache.velocity.runtime.parser.node.ASTSubtractNode,0.04487381850190191,0.7957807276628256,-0.4378737637171053,0.15607209862358917,-0.03323926148296096,-0.021748133302871796,-0.03846633648494689,0.007515623319799867,0.055483395010976114,-0.07518672397455586,-0.011310485198430793,0.14473039397411444,-0.06033503607017203,0.1787239752860645,-0.046121485844656356,-0.10813170294949166,0.08191308790742508,-0.0386957682711084,-0.0922723856042587,-0.1253990479594969,0.01905375562571178,-0.038153574356699096,0.008764539595370213,-0.05063596395279767,0.0340197845340459,0.05111683457085304,0.03583909592203403,0.020769608542501126,-0.11583194312128388,0.07265472311626851,-0.05959416359442729,0.04081512686773681,1
org.apache.velocity.runtime.resource.ResourceManager,0.035981621901542894,0.15041839314463779,0.2123878734646989,-0.21573154287328128,0.32755215066120846,-0.1356714832252476,-0.29327165013478207,0.2877103128913968,-0.18583910078342006,-0.14068193318263497,0.1904060544837479,0.003929126710853508,-0.13535167349165847,0.2864808235682749,0.29104237115201903,-0.029115116243769047,-0.012127151383922384,-0.031029711856018532,0.0903374518549763,0.28309129959372775,-0.2420995767270598,0.22110615928132862,0.18642168251249677,-0.031621713788882705,-0.0011749251696585303,0.14824193473841707,-0.13237624770645906,0.040944331858528187,0.07412086362305327,-0.14687696252735588,0.09249613852261715,-0.06278771887265272,1
org.apache.velocity.context.InternalContextBase,0.03097294607048749,0.1729685692682881,0.07097434732425592,-0.10507126372685105,0.026602432261007107,0.06753178401166454,0.2040450655042136,0.052084661426723744,-0.19905947867440185,-0.4475869063464438,-0.06842284513153257,-0.06604904460100447,-0.02801143796448349,0.22345271755191579,-0.041133835541119795,0.0972194162022717,-0.2987795496737563,0.11808247786958033,-0.35071310900701586,0.0427150847537414,-0.1771621302562259,0.11954221977302393,0.32145452219205967,0.05112336407108714,0.1315073095048067,-0.11570747068215151,-0.058824448702914964,0.09613413522299191,-0.09267728655509334,-0.04482454134839869,0.08157873328966105,0.39021703677962155,1
org.apache.velocity.runtime.visitor.BaseVisitor,0.874118007936487,-0.12414167152769923,-0.16593166880526594,0.02537145746025279,-0.16331891354976816,-0.059665184242036054,-0.04260707455453344,0.11100214987317372,-0.046680540764196504,-0.009686415849906475,0.024406092901560778,0.14755177339702455,0.0296907434446244,0.06790324729113255,0.08363882351680069,-0.015512091694155464,-0.08628812614017352,0.004721950268487596,-0.08509836652346157,-0.03498544089298052,0.014402578767349608,0.02220573827126905,-0.08914641857659879,0.024040473507673646,-0.09167412078205824,-0.045702488662122794,-0.02199212388147529,0.08969185088736177,0.156539267091467,-0.12735705463874258,-0.03301336888827867,-0.15683282471039134,1
org.apache.velocity.test.ConfigurationTestCase,0.0038652113211828836,0.031513860057084765,0.07906068897247517,-0.09184498157087337,-0.1518049382919804,-0.08705770369052666,0.04774224294476126,-0.11577667251834713,0.1511554464618503,0.136742429487789,-0.02377491381326748,-0.05633756461565892,-0.06434035763975629,0.4127787194088236,0.004948229050777356,0.2933329240530273,0.08091247726857433,0.051202909382852345,0.18540555616152687,-0.32990070259056287,-0.1226592724878601,0.20867161125390218,-0.327771321665552,0.1451968337748556,0.06379485725799633,-0.1482022554014201,-0.05782566086214758,-0.0471718247908909,-0.07452739216537113,0.22524286797647677,0.28739031061969833,0.34949981135871017,0
org.apache.velocity.runtime.directive.MacroParseException,0.04831628547076066,0.17281010233280616,-0.007519581814291775,0.05675021031329263,0.035806378821968465,0.004242006824464301,-0.029772516937873906,-0.10734890055352488,-0.012012618214894792,0.3318118637877359,0.02016826029393027,-0.37569054903352456,0.2219032690922072,-0.2921921027075075,0.014073804280787364,0.3105789365566889,0.09424499108516074,-0.14502246174404812,0.27109293335982027,0.2535793201282631,-0.09220487495059669,-0.08490270057539075,0.3128721027199019,-0.21967199193604384,0.175923307823963,-0.08236800552056218,-0.16550275439289058,-0.08245765531795966,-0.17816210381285316,0.104429300836458,-0.06796570500052322,0.1378176103417659,1
org.apache.velocity.anakia.XPathCache,0.0002698015963178231,0.00265021158572277,0.0067593956111958965,-0.011234343630156603,-0.009272248171759291,-0.006152887697012916,-0.004278349819437504,-0.0030298841958195165,0.0016994099178844573,-0.015574826016293829,-0.010338516561868566,-0.0046716974500617455,-0.024760790972551825,0.041291442264886284,-0.07261780132895175,0.05353751705160913,-0.015188778773018292,-0.25507908820789416,-0.19972627754338243,0.3875760866551322,0.45365396891323884,0.2871849582623081,-0.3138113069827564,0.06358379034095535,0.5638463036037328,0.11152890395857173,0.03373111289876369,-0.058721463740305485,0.022533851287131354,-0.06571236097092746,-0.05138722221327237,-0.014984359350192952,1
org.apache.velocity.runtime.parser.node.PropertyExecutor,0.020865773470468155,0.09925939884560389,0.005696170710093681,-0.08025268946449501,0.19045511180637809,-0.053489153656565126,0.24945414212965802,0.42539342577529526,0.4538195904804247,0.056917713111614435,0.08091946106988349,0.1704600322534051,-0.05057182003800941,-0.001364116439444805,-0.18771349189708164,0.025428263937371586,0.3378543898428052,-0.107932494858312,-0.05317029717491572,-0.03387062598259084,0.05287422795547322,-0.1887724585307123,0.19492963076628655,-0.09960213800652938,0.08249821719621188,-0.06323704662455766,0.27080105181504743,0.008508505136632406,-0.15351706343234378,-0.13788916194369064,-0.23733064157897982,-0.13580837421716563,1
org.apache.velocity.test.MethodInvocationExceptionTest,0.019521724919197327,0.22854682623809774,0.15344736531416356,-0.3517044727206766,-0.4730627925231442,-0.0977921926232338,0.17732096652813806,-0.17345741238571968,0.08326456429407061,-0.05440993448618263,-0.11205220954334472,0.07979645057683933,0.01713901677575589,0.03185455013996757,-0.26121369624452656,-0.15016627483141984,0.16579973700309808,-0.027437786569518428,-0.3211080336761002,0.017464492861291116,-0.01176536809861667,-0.09937956833939832,0.1860394194836822,-0.08213856149962671,-0.1525408510752858,0.2964287099258298,-0.06986860458957407,-0.010516281484624305,-0.14367870520956277,-0.21203941109351682,0.10183374265544695,-0.09601274191134984,0
org.apache.velocity.runtime.parser.node.BooleanPropertyExecutor,0.018496691425313308,0.11257687733085396,0.003803932839545746,-0.08157449324872829,0.18571914562648936,-0.06038417001234114,0.22866734203027847,0.4384289023972034,0.4036181271532802,0.044741545776786434,0.11616069530867751,0.15198010042543103,-0.04246161047228846,0.06124842637521083,-0.1870039793704284,0.008278368554514604,0.3708255480028706,-0.1280796343711259,-0.028796157406632085,-0.019110819344980916,0.0447879671473692,-0.18964684185024053,0.17117348647709868,-0.13748909964401132,0.050181549619496696,-0.06208750869584883,0.20558009950051165,0.10801384157998462,-0.15218955754980842,-0.08150352175438115,-0.3116630222800485,-0.16446108875058538,1
org.apache.velocity.runtime.visitor.VMReferenceMungeVisitor,0.10455061418432722,0.3595819088299183,-0.1540708130758562,0.07868166003514065,0.11624892794757555,0.08946539501995893,0.16175456761420165,-0.1944387211270692,-0.008891501678479161,0.10076627736728885,-0.07210033295065268,-0.21021288658614493,-0.007230002659177883,0.11987195040598994,0.10996027782978947,-0.06981863172729057,0.21874738168306537,-0.14167663966056587,0.1556223717604527,0.0953021021362924,0.05603212725257029,0.13186234675585223,-0.32683193644397723,-0.06470402530523003,-0.40884904101873387,-0.006434022301362961,0.19472613015596166,-0.02706090725787142,0.21472141561971392,-0.30944147529944044,0.10900466929491422,0.24697564147178167,1
org.apache.velocity.exception.ResourceNotFoundException,0.21618628029341935,0.13273696603639265,0.3436181867655533,-0.011346957825535787,0.1819374978718909,0.11085169796976921,-0.4163847177913855,-0.2604868404660557,0.36379065933601906,-0.20501555590609782,0.3948745881297054,-0.08674419593500508,0.05780880141862078,-0.0380842356914242,0.2622620350151714,-0.09388891063654795,-0.006778201422621817,0.12350644410175132,-0.23548028428517445,-0.04911711360527502,0.07181002461526341,-0.12949145491172337,-0.06514109702841325,-0.05318111668121033,0.0036419255903618114,-0.012121671588806482,-0.00910921876925486,0.06446238793063758,-0.056968161452821284,0.022420122096140655,-0.014283244905916984,0.009936835099739638,1
org.apache.velocity.context.InternalContextAdapterImpl,0.06845016245020281,0.22378515862166945,0.19478429676592696,-0.21842810846530594,-0.03851577180668023,0.1594997887688821,0.15261072433912373,-0.09217808073832268,-0.08702926444990414,-0.3143656699323056,-0.12037532587144134,-0.15862681485251157,-0.22534728553791997,0.10167903843539014,-0.21227817553966657,0.23374662600542304,-0.3987588238583556,0.06872081975154751,-0.09608624449893836,0.24781654089352956,-0.03690378926499385,0.13019807332913955,0.24168577891324375,-0.09699889596821076,-0.20044583044376138,-0.27868578802929045,0.06606795207130928,0.1685499389979086,-0.09090176321567917,-0.027097833554084124,-0.02161861620948873,0.1157856753850696,1
org.apache.velocity.runtime.directive.DirectiveConstants,0.04465742298669749,0.26742805915017476,-0.06663132717537618,0.02784224142312334,0.07162503984732983,-0.003414193408972061,-0.12426850946153178,-0.1208251587776727,0.00792374846509651,0.19901979693127225,0.1663750414606474,-0.31427998882377,0.006335908983756814,-0.30305392375207524,0.0320197039181705,0.2313639138867898,-0.04855691737443194,0.008063715001250112,0.149666965355573,0.009865600032123473,0.19242716932115314,-0.342881400900597,0.023235013736895443,0.08737982651840683,0.15150392459031287,-0.08744492939169429,-0.38968799084056505,0.02840300603932164,0.40508251070918766,0.101037494907094,-0.16560307871226235,-0.0291487776564174,1
org.apache.velocity.test.VelocimacroTestCase,0.018915407921359564,0.15767101702173145,0.25074826588456367,-0.4879923377287976,-0.48677802663631786,-0.17922910504797152,0.16283870150002552,-0.1797125166561114,0.07178488879111121,0.11855974827145756,-0.016295303732039496,-0.004128268817153,-0.22051249920969532,0.09099308456316041,-0.02183621439842714,-0.1239983509725047,-0.11553228526941706,-0.16191892582129058,0.013309532037625567,-0.023613872411184438,0.02020569385453421,-0.12420913164672043,0.03876614449194321,-0.01873469696062531,-0.1303847735658501,0.08461224404361657,0.142948299975613,-0.021741258840511483,-0.24598313582800554,0.17478685282830161,-0.12414846747030786,-0.2100105178360813,0
org.apache.velocity.runtime.directive.VMProxyArg,0.0815109360787234,0.33977522720744746,0.040912892130347836,-0.12447181216901138,0.08564553102737807,0.10231555372066967,0.16711628663939646,0.13154220371411635,-0.28826511072494293,-0.13243712416114162,-0.08461266195504312,-0.2788231554064034,0.026583168000481026,0.16843075745353542,-0.2083679901371848,-0.041006206919755143,0.21772517652040277,-0.30329788635359256,-0.2083271134618338,-0.46004179809254375,0.1953613601615252,-0.13395627364060977,-0.11923916683920482,-0.1516047203704753,-0.07570191902675413,-0.127351901499072,-0.09048485568444371,-0.08444769697097698,0.007270212234180046,-0.002955488155011672,0.1100596206743533,-0.028403516002173685,1
org.apache.velocity.runtime.parser.node.AbstractExecutor,0.033411764150742276,0.08804355674987682,-0.0006341491476220913,-0.06863403995131358,0.1934636073172396,-0.03508428785816705,0.2704396163806512,0.41941376482031484,0.49473085905386543,0.004971441837555726,0.12446681933737631,0.13783134004303257,-0.07032616579443396,0.020784838687029787,-0.19829886731909854,0.008592626168595576,0.3651095023641457,-0.08380686573599418,0.026978695552878504,-0.024012505353779297,-0.03329742773898163,-0.06950486275150057,0.13832471154062212,-0.13445504092422003,0.10956784848031026,0.014065306717057255,-0.026926738829416437,-0.10242113089071972,-0.08064882307383203,0.1452465876306148,-0.35268062039477105,-0.12034326397421938,1
org.apache.velocity.util.introspection.VelMethod,0.058432418118294555,0.04156860788247403,0.02167800459323806,-0.04547663765301723,0.17154897234180955,0.04670125773722609,0.5060631254139984,0.26372834603972484,0.360109155037382,0.03416386656587338,0.08804645969635601,-0.02561555431341919,0.3375184145367433,-0.01738397732642538,0.16705498923444195,-0.036036410453740515,-0.2199857748777505,-0.07641116400035104,0.040904411967643786,0.11040100737631411,0.0633113115922417,0.010075204528663806,-0.2871077944223905,0.06814398648107434,-0.3310836911751756,0.1682695927367918,-0.10970102352107945,0.14230297997496305,0.01773946950924978,0.05800629162981586,0.03270139826236784,-0.1346605877200979,1
org.apache.velocity.runtime.parser.node.ASTParameters,0.026248830006990187,0.5600609417905519,-0.36135026241525803,0.22388035502107476,-0.07241423430384505,0.011113035969533143,-0.095113743081765,-0.2566479642989851,0.13492915232807678,0.17712604990435324,0.001925465705726396,0.03718661064278274,-0.010758515020974127,-0.007925966240589118,0.2597815027695392,0.1368163904339238,0.06707021328543555,-0.1469352873883778,0.1757906853822486,0.3296684416775589,-0.01798268595848919,-0.03807758771835383,0.08450956420726465,-0.00026417125364676044,-0.1121998752980827,-0.13283777383136314,-0.12707805602606395,-0.11113499833353842,0.2094779331031774,-0.04923954635364898,0.042833796443879545,-0.0765008120519789,1
org.apache.velocity.app.Velocity,0.0676889563877388,0.22371559684503187,0.5960589545417379,0.6132168207375525,-0.20033709989959625,-0.12615527458192477,-0.002496827400309929,0.15133227077869868,-0.008575588617861934,-0.04219745472159003,-0.010916610933465893,0.016023371451416205,0.022818664945789425,-0.06292722108217906,-0.03589388206754458,-0.023378767335351852,-0.056895292774597706,-0.1292484182444866,0.09942044330464239,-0.1314049219975476,-0.07774579624358008,0.07458532418250888,0.10263604610032538,-0.04009238578953699,0.07071359531826996,0.1228823058348271,-0.00876570090458818,-0.15387202242572945,0.022256305789200386,-0.054914738915865284,0.030869260092621583,0.08593256718601802,1
org.apache.velocity.convert.WebMacro,0.010837034472179471,0.05237249259604172,0.04779599388388731,-0.0593779798077961,0.03208142878769202,-0.06294920212366575,-0.06537560226995259,0.18631066768111856,-0.0958011130286678,-0.030294689361169032,-0.06783480549635212,-0.09521885151540901,-0.00031438100130098273,0.20038445545594596,-0.21917319187788467,0.15694259796504761,0.1584519765358859,-0.008866992808852137,-0.06020848270082323,0.15758340267677362,0.39609822878919804,-0.35246437109854245,-0.2624019816103693,-6.858162164064534e-05,-0.3121911240691571,-0.2986591975772953,0.023015225188024457,-0.1712420730848174,0.26819924660456845,0.2546386962400411,0.22548429454828708,0.05490263074856439,1
org.apache.velocity.context.InternalWrapperContext,0.0232330653471152,0.31531215267887625,-0.04752573973769948,-0.0082723920653035,-0.1109975341962745,0.3561676094596398,0.0001057301168436199,0.14800549948436265,-0.13386961693278365,-0.02558253959395238,-0.06637912362745953,-0.05802082758004777,-0.1387225027029903,-0.15805855025330243,-0.2787534169436596,0.1740934848061223,-0.23564200803850813,0.03934767146584562,-0.052568905900304067,-0.14662589353867408,-0.01159164950023646,0.13874209174270583,-0.17725615428578007,-0.5813045708601733,-0.12210154726233732,-0.05683105753260625,0.042213807835760384,0.18291464149806252,0.041783661563350574,-0.0950884374157364,-0.14852818760474043,-0.04195397477077556,1
org.apache.velocity.runtime.parser.node.ASTEscape,0.03425829045462775,0.6885401574596586,-0.423144390446877,0.22620127888634176,-0.05859741469103261,0.019861680391100523,-0.09593666787801461,-0.22180876982034464,0.088246794807791,0.1488345852623302,0.0019462121601891225,-0.008519508716035532,-0.0779623868734387,-0.02048840880610094,0.1319915254855818,0.11900185816762009,0.022915983578707444,-0.10459418952808944,0.12981727111914493,0.19031152431868206,0.032029615224876275,-0.07183317280174271,0.030277423257416336,-0.020734540959681986,-0.08283006285413945,-0.09466953776076896,-0.13235736628145794,-0.03517223542714444,0.1900668151212088,-0.12010527987642462,-0.012058331743084145,-0.08276103434319743,1
org.apache.velocity.test.ClasspathResourceTest,0.02904733403215073,0.16812602585535114,0.30267851553898134,-0.4624577625458458,-0.46313278068837543,-0.18922153491900012,0.09320491716422434,-0.22505898500610771,0.24849693529157443,0.22113697404862398,-0.007268331861265564,-0.07032453306799809,-0.0880269555536496,0.35693558526306907,0.005226848178163475,0.12101519518368899,-0.07425142820070148,-0.014310274317191563,0.1368107943178116,-0.16582728998038848,-0.07652392265094628,0.016709603440633856,-0.09757913283269357,0.007021651310295112,0.07527964696182428,-0.03837836549970672,0.003062825100242604,-0.013355686662382944,-0.022006208515077154,0.11411046641226001,-0.0376433741470524,-0.020206940468659337,0
org.apache.velocity.runtime.directive.InputBase,0.1041071583505236,0.312732916514772,0.13101556947397056,-0.1874483427374961,0.28493728507610644,-0.04482145843679014,-0.12740421738867985,-0.029447644960750627,-0.11757973449157241,-0.1044633693522924,0.05207996808993086,-0.21435748922450903,-0.35394594717416894,-0.005792443130358009,-0.09931427049554117,-0.23279056261033287,-0.3181571925742387,0.14440462525405892,0.006528535513909223,-0.14965495003429405,0.06187981658808828,-0.21997866069525038,-0.027994913889029544,0.0008147775353951019,0.3032108828466076,0.21619582175125837,-0.006985409320049344,0.15546252164786276,0.01574379485564466,0.26207014540580004,-0.2133985431369149,0.033362977991770994,1
org.apache.velocity.runtime.parser.node.ASTElseStatement,0.03908096540064456,0.6962922074173109,-0.45069752954135633,0.24506034093934326,-0.08383737284757391,0.014831585765432536,-0.08148642828897598,-0.23352439889897755,0.11853725831678683,0.12242018325433551,-0.009572026233085616,0.10073126557531051,-0.07457445278482872,0.06138045744167243,0.1907591131268545,0.029007526640150983,-0.00714331754985843,-0.06615895353528566,0.10676980943952903,0.18696988501231487,-0.005483060221284906,-0.002988818578099782,-0.005540892964441361,-0.023863072746943197,-0.08833862615015525,0.020069286462343065,0.057330734465543376,-0.014037165250740127,0.16974321961691455,-0.059632440322784815,0.02644488495470756,0.005088101585460729,1
org.apache.velocity.runtime.log.VelocityFormatter,0.016193122595135768,0.05036441832744473,0.13520901297744325,0.03771339153945108,0.20330319520001838,-0.08023447622340066,0.12152413902053211,-0.07907869886747576,-0.35957305994883554,0.5076905607419139,0.22068234172585222,0.49434441554511915,-0.07744403265065887,0.1809076340220712,-0.05961646634971578,-0.11982255492592891,0.013311572802333796,0.03380911327440927,-0.16240059135226972,0.04798236565409676,-0.07992272320941014,0.15185805028520064,0.008315093927741097,0.01638442746324204,-0.0908669456581732,-0.05070609424660676,-0.1818319116240607,0.10719643885790921,-0.12946955353341533,0.0928208572808509,-0.13929972010356068,-0.10955763548107444,1
org.apache.velocity.util.introspection.VelPropertySet,0.053233240413231714,0.060350496798237716,0.02794639741622315,-0.03720975207418654,0.16494828127368885,0.06406456225890164,0.48599590315850133,0.2404148544185482,0.29952334830526384,0.05598505490893529,0.09846835271412883,-0.06944387643244106,0.3200853126320639,0.019070867287853774,0.15124491627308212,-0.0732033622898765,-0.1754889334199532,-0.09778250065694045,0.02354168637475123,0.0860805776695658,0.08187405987200148,0.01695441432814336,-0.31980513907372127,0.0692175519844214,-0.38142051008626654,0.10860571012447222,-0.13968606047690327,0.19871522634709524,-0.009331067159404603,-0.1534190748743317,-0.031146334379878675,-0.15615846921360366,1
org.apache.velocity.anakia.OutputWrapper,0.006293509169958256,0.02725806682350332,0.07895572127768241,0.06433948648930572,0.016802944871586668,-0.0037464377898632504,-0.02809935324083626,-0.02304181121605626,0.010154355832291514,-0.06033852572703571,-0.06996198511660003,0.010211029710684065,-0.035683318245281606,-0.08609441753862457,-0.016597758567658653,0.16804087026790068,0.1379527113181033,-0.38104383303162354,-0.13759776456770093,0.05740881872538721,0.1558672895058757,0.6638327335380603,-0.28627797205083416,0.08510395664678189,0.3011914447247536,0.05350298855320656,0.07022667511557353,-0.056078763459133485,-0.1591898659364586,0.2603417491190561,-0.008163827628229559,-0.07631173562620173,1
org.apache.velocity.runtime.parser.node.ASTNumberLiteral,0.047328471849900786,0.6666924322789209,-0.4230320936943723,0.21531849736293823,-0.07169437411356878,0.02539107354087817,-0.04852133961126576,-0.19381363864225484,0.0697972519302336,0.15858009343622187,0.031350081567892325,-0.0501527293265624,-0.06942282070397689,-0.03070290659691557,0.15867211788943714,0.18470395814081977,-0.12101035752224036,-0.014168366634264457,0.04883120226715937,0.19285055029319023,-0.07242553308281365,0.008464824238027687,0.08437380622131994,0.006303700027079755,-0.003460649222461395,-0.05631531444025201,-0.05952527415369758,0.009123805072685356,0.1759008184954558,-0.01953699079185879,-0.0025654269848428583,-0.28045148019059135,0
org.apache.velocity.runtime.parser.node.ASTIdentifier,0.04148535991346592,0.45386416162278975,-0.17189913228541748,-0.014222383857176248,0.08134761648204336,0.03129603205319792,0.3284395998924243,0.19420332959521064,0.0032118693348473053,-0.17675420492676042,0.10138142248610546,-0.07918395444696635,-0.06133381992370878,-0.0063199359156035795,0.07364030084943649,0.16890921192926356,-0.45301747290335875,0.25476962706986506,-0.2863894522399724,0.0026186292226613446,-0.1537170194698751,0.16086719619967751,0.08505434538294818,0.19079415257597301,0.07003435616811515,-0.04274648529665119,-0.09367908671206225,0.05349268354339708,-0.07126155351029077,-0.00903866544535102,0.13916306078647087,0.18867192743470956,1
org.apache.velocity.test.provider.BoolObj,0.006478709342622087,0.03909861598098926,0.1485706118868257,0.20575387698164926,-0.12898473008780637,-0.12234984526046433,0.03984452438932434,0.14465323887221335,0.026211570514478665,-0.043994846234578555,-0.1921719005447473,-0.09917749813863452,-0.16417644195313555,0.02247980189452454,0.14354935953850217,0.2150084911288909,-0.023105866419315443,-0.005498097056796356,0.240716705276618,0.05860565789176902,0.07618305080165787,-0.3685949020515927,-0.2967778849030504,0.21820266762550455,-0.07293820892231988,0.1647316616192461,0.27757187384880505,0.32275050502493396,-0.21660860479523728,-0.15117792035230798,0.294646237021044,-0.16327826239537466,0
org.apache.velocity.exception.VelocityException,0.02025581953917696,0.26088533434062555,0.05629734890931681,-0.16885531685787622,-0.12594038278100878,-0.03153012880123342,-0.14672203001193054,0.14628909541015717,-0.08142691463543221,-0.13027631832295258,-0.1832450027194188,0.19167963622737197,0.4583340569660159,-0.4251822349232534,-0.29523786026995197,-0.1770945178146171,0.08950416244442023,0.19764945047284826,0.19189283944345528,-0.05293009233728859,0.05980857518672689,0.1401411233501916,-0.15885076079378568,0.13726877274514346,-0.016681090062546637,0.005234396699362741,0.03952261099769663,0.0013462405841912991,-0.21420242553149557,-0.01528995363036969,0.18480075561107648,0.025162440487825396,1
org.apache.velocity.util.introspection.MethodMap,0.0006620881012019157,0.0035914306254214135,0.004500197431493356,-0.007769701811145399,0.015394847686305294,-0.010888896076086828,0.027333900969504596,0.05072742347877403,0.06163411604871678,0.03125978374277777,0.03322425279768084,0.03725842679904524,-0.03663479894148979,-0.008817220019662838,-0.020729853564974657,0.016245838450657787,0.15552774246361756,-0.041579106486722174,0.012523463702672127,0.004175702139593857,-0.0265879359665026,-0.04424857928126814,0.1684946275271057,-0.12990962823445748,0.2262734516809432,-0.2456705735403986,0.2668482502707611,0.7703296382371927,0.10522960198003614,-0.07211932804747537,0.3063772988510369,0.1628306860169292,1
org.apache.velocity.app.VelocityEngine,0.04527145299446169,0.2115662371600866,0.2499480140929353,-0.0028262367236622675,-0.060179977933058446,0.04322578085737981,-0.027354250186170177,-0.018499103277270387,-0.10451901652410252,0.06412949224814242,0.05566633302331231,0.13459111314547886,0.24340744141949902,-0.2130345520892002,-0.1650819876638306,-0.05464482109976569,0.1385966526467161,-0.19680909302578345,-0.07827897613341514,-0.0818884083538841,-0.052304415047033655,0.5027586253248689,-0.012601523079157732,-0.056605548002763115,-0.05576292532788955,-0.3079695644663775,-0.23407189799726744,0.11983070783538079,-0.09336175219689365,0.4102929166939157,4.384602098587111e-05,0.1980067417053681,1
org.apache.velocity.runtime.directive.VelocimacroProxy,0.08280462882450433,0.234930632650103,0.025493492495138236,-0.08701718875093699,0.19636601491294298,0.008766507232446994,0.02622467358926251,0.08532852007992417,-0.22467793707827505,0.06724928847711532,-0.04413747167893022,-0.3148828194886136,-0.12013212902375804,-0.06484217976437977,-0.2363052993825654,0.1954530373801752,0.160082432289479,-0.0670766993264856,-0.26313993962995363,-0.39353527437684876,0.18688827411450587,-0.1409628303620061,-0.1466343501743191,0.11226224180331554,-0.1025729105611199,-0.11463283438977044,-0.034958962555117955,-0.1235637783287265,0.3702427589172933,-0.09740749104070559,0.04949123348608258,-0.28641549024077617,1
org.apache.velocity.runtime.parser.node.ASTAssignment,0.03438476024127811,0.6165763021046584,-0.413973270163238,0.2450062471903159,-0.09420726723298088,0.009020759093952276,-0.08011748055979244,-0.2563560823809582,0.14992009664578876,0.13858680567688916,-0.010343134116434432,0.13658851094946622,-0.032179978359619145,0.07457475993922609,0.2749910167270544,0.03443453267430917,0.018674221243430877,-0.09036557143928982,0.13426860665643028,0.27447269925548995,-0.03929687376596921,0.022640529082382326,0.02620018692245777,-0.011205626512026438,-0.10726605544629104,0.0034473507246312956,0.07284183252947406,-0.06043143764880319,0.1808739908309155,-0.011293005815652308,0.06347042587026831,0.014603346122645633,1
org.apache.velocity.test.TexenTestCase,0.003198791548778225,0.027220958572353397,0.06822966278752285,-0.13371368782948495,-0.1634768128414329,-0.09616709945439139,0.05745068657170538,-0.14190372145782257,0.18308160445208013,0.15045383917764352,-0.031022041207875217,-0.08005017576574551,-0.10668087534198717,0.4932826335932577,0.03718578231158152,0.33371054579266984,0.07099828270998765,0.10845987834856315,0.19163351561483521,-0.31712505556169424,-0.10797162051609391,0.09046163216994073,-0.354905009805177,0.149326167975176,0.07429873928858302,-0.08884949183635615,-0.014677271241223156,-0.05651091316506691,-0.05628700302637159,0.12781722782495988,0.28970750310881405,0.209456473427704,0
org.apache.velocity.runtime.directive.Include,0.06010132104854984,0.3718258579412613,0.032112364431791954,-0.23164136677285377,0.1443564995590269,-0.09597946019593162,-0.10084030904741093,0.30913822407005054,-0.29306838534525137,-0.14287684055085825,-0.01995154913272871,-0.1215240569777879,-0.00994223352076712,0.08052773251118464,-0.317243564457398,-0.16009778765882543,-0.01742038901742259,-0.03369508130216788,0.0157248600235653,-0.3702869615356915,0.0728383336987675,-0.09515848410369653,-0.08124091185811873,0.019211811879477007,0.2034102179343168,0.003918793817451048,-0.24304022275767548,-0.007885819774867403,-0.34476260160990135,-0.10495158326334836,-0.10842042668676159,0.1051182063922805,1
org.apache.velocity.app.event.NullSetEventHandler,0.027386790586458126,0.06355781919976058,0.16865321477713716,0.1487309408588024,-0.002074696570787358,0.03199446085154925,0.24452964669968474,-0.14192115533338984,-0.20069052677595944,-0.28636995819954014,0.26045086265473855,0.2732794902141251,-0.06746162443524018,0.012746578865434082,-0.02503898979220393,0.4899923840010913,0.04147607892667728,0.23605252546973252,0.1773111203949355,0.02748300188875635,0.09267203267615613,-0.18365944009003676,-0.04675362801213552,0.11034828767096373,0.08970141492519351,-0.10224228631067743,0.137039150537033,-0.0866247336071207,-0.28697055483875433,-0.2719921945570265,-0.0769906287840293,-0.00935343904790349,1
org.apache.velocity.runtime.resource.Resource,0.0872252475449421,0.18722520483400185,0.26880804264554115,-0.21346829876703968,0.40595615450338146,0.009767482916705214,-0.2684782049492783,-0.1413474007230393,0.04300627702065293,-0.22613327555505502,-0.3439750905808947,0.07473500263532946,0.16986880026861217,-0.002097369948744561,0.28430331915413654,0.0804053887780313,-0.0983271944769988,-0.198043331502261,-0.08325305635444787,-0.23563430998381993,-0.04395622217022051,-0.00685027530725418,0.06173626324833581,-0.01792190283854966,0.18907001686780997,0.17021344082399403,0.12670454136588835,0.045121731789300776,-0.15355149188553832,0.13762785817591522,0.024212955645294545,-0.2148066144629386,1
org.apache.velocity.anakia.AnakiaElement,0.00033939798767341155,0.003299211921091136,0.008214161260618793,-0.014086940534495678,-0.01128834101747824,-0.007405179839737213,-0.0049098056401218415,-0.003060778095418319,0.0023791815026719763,-0.01718944126739433,-0.009565012085772972,-0.005790308013052326,-0.027246652096143627,0.04219193535114823,-0.07305253209146631,0.06321147164582537,-0.02791412491902998,-0.2614625829301538,-0.20247610748230424,0.3955674025436396,0.4354799729762223,0.28556037798646067,-0.3255846825819671,0.048471908455928844,0.5573245816253474,0.13294518002783953,-0.019245275338670577,0.0018310222178682584,-0.04793486500268979,-0.052374559670952205,-0.056506937028015375,-0.06464592468288768,1
org.apache.velocity.runtime.parser.node.ASTBlock,0.04301501374680581,0.689824180172543,-0.2805901753763932,0.05062302555712293,-0.1533153919953596,-0.012375407131791121,-0.16675881556034858,-0.059572782230599974,0.025213197509302426,-0.008728748428907385,-0.14271881458067237,0.21598489625773334,0.2848363985523284,-0.26934851544704186,-0.07982462075189616,-0.11146796823513766,0.0576335392619956,0.0995815938885093,0.21969266328916792,0.09477202882678804,0.04015547849546093,0.10279047302659737,-0.12321578931301803,0.08482303253065757,-0.07595334342227511,0.02169480163540829,0.07635061467617811,-0.006699746409100061,-0.03375424564791979,-0.05265240904989599,0.15547856727965945,0.02314852980641771,1
org.apache.velocity.runtime.parser.node.ASTElseIfStatement,0.04301501374680581,0.689824180172543,-0.2805901753763932,0.05062302555712293,-0.1533153919953596,-0.012375407131791121,-0.16675881556034858,-0.059572782230599974,0.025213197509302426,-0.008728748428907385,-0.14271881458067237,0.21598489625773334,0.2848363985523284,-0.26934851544704186,-0.07982462075189616,-0.11146796823513766,0.0576335392619956,0.0995815938885093,0.21969266328916792,0.09477202882678804,0.04015547849546093,0.10279047302659737,-0.12321578931301803,0.08482303253065757,-0.07595334342227511,0.02169480163540829,0.07635061467617811,-0.006699746409100061,-0.03375424564791979,-0.05265240904989599,0.15547856727965945,0.02314852980641771,1
org.apache.velocity.runtime.parser.node.NodeUtils,0.10320313982875558,0.08843122572939006,0.004769131536393935,-0.03232103580111751,-0.03671751545911039,0.1982165836092383,0.04654828207538239,0.04270702824554753,-0.14194736201660377,0.21284418067219438,0.02611181636522638,-0.3772911261262033,0.08475989174379035,-0.23564251441150913,-0.12568053879162,0.3971214497540028,-0.138464060708461,0.04131540631445997,0.007022311896212321,0.16793108597004783,-0.23811326253219467,0.1109088809536626,0.1488570867069929,-0.4140044818277041,0.04708608404725161,-0.0008100875529442529,0.03810556490587656,0.11925246652078007,-0.18301723052981803,0.05776986195931165,-0.16098608387902208,-0.3143434789917079,1
org.apache.velocity.runtime.directive.Parse,0.06628398621166408,0.4838896388925564,0.07645814994933624,-0.3034114943556509,0.05367759150060578,-0.10260497039479062,-0.1528127493765333,0.23985382725459037,-0.20960419646230077,-0.1446714661425075,-0.09874992652048595,0.006284703546602869,0.11819669938654803,-0.018718129863538432,-0.3193177400211181,-0.2011468332653465,-0.08271998665673226,0.010757081094617947,0.13024289645751855,-0.24771357374996208,0.03905590679235539,0.006610873972533423,-0.11276923982256787,0.05969506126392854,0.14559961230308036,0.05277906581960881,-0.1965468614036791,0.09835779269299338,-0.32642024226914496,-0.14203221221414955,-0.10487696377735296,0.15721770073355745,1
org.apache.velocity.test.MiscTestCase,0.015873649856481927,0.05689847997635131,0.12104476367241,-0.020272434013531303,-0.07788354507267262,-0.07257774923083513,0.044292259338841,-0.011464920067098672,0.010754436556711823,-0.07716269397779418,0.056315042301658125,-0.015761141368022962,-0.061979010206525444,0.3186684084594538,-0.07716433688483167,0.43786903138825917,0.14613830995896057,0.13012569435392002,0.1982865680280974,-0.0736047728559643,0.24428445296209367,-0.29957622682577667,-0.39259082925766653,0.12588654656372558,-0.06154507778797284,-0.26353424195014996,0.13837813628191217,-0.1529828984454831,-0.05911364790382547,0.016359512769986602,0.3647141832113961,0.02163482548329245,0
org.apache.velocity.runtime.log.LogManager,0.024818030209251076,0.20056768158249744,0.14509590362195668,-0.26919898377564866,0.11467214834779144,-0.1986632847807724,0.04459867415340518,0.3240582750203287,-0.2978885149969467,0.18828685073962712,0.34952232508821457,0.08469085839735606,-0.4451966926704875,-0.00775769896756735,0.2806885054594502,-0.25554356637260617,0.1320573837283375,-0.14417536463210578,0.1497627166530041,0.007036846037593993,-0.07496987234510807,0.16218709094094982,0.006643198488025202,-0.011315548363085562,-0.0038936183838688275,-0.03087793674068929,-0.023628869652799825,-0.010157307673502276,-0.09428811663436817,0.031417493694731666,-0.040918615268281645,-0.06446928033494706,1
org.apache.velocity.runtime.parser.ParserConstants,0.020078594033137692,0.21284560939068495,-0.14579418296150748,0.09354561487358681,-0.02872254031002864,0.011073932543027479,-0.037728024015464226,-0.1365348230064008,0.03332374105959162,0.1970372394403469,0.045689010046456334,-0.1905348873338146,0.10651035192039238,-0.0815555953833866,0.21171912389880265,0.2806419873953633,0.15334174537310544,-0.2178655469846001,0.2050820838861982,0.4209041991779898,-0.07608485470127856,-0.10529272554895776,0.2952707729026246,-0.0151033945946993,-0.012514232590592993,-0.263717813149364,-0.25987174346323266,-0.2507968668278673,-0.1936137994537256,-0.013541509076716118,-0.09048139128398469,0.20709682948642516,0
org.apache.velocity.app.FieldMethodizer,0.01474399941417633,0.04211596033937024,0.15030672244012763,0.1666994270225444,-0.08439420774226772,-0.05174379250796923,0.08358043554470361,0.003438551613929223,-0.015103933838111195,-0.18143981044843044,0.055811427977428725,0.04320172475731421,-0.08842426448797816,0.029229066100630502,0.07472762429377897,0.37663610966960376,0.04283062949618601,0.11388637992402684,0.28872057199494633,0.0015393534779872629,0.1589353581605391,-0.3665677793912087,-0.27250361628683467,0.17047093085485784,0.046318343172059635,-0.04100782714264702,0.28567123794725136,0.06889233368278806,-0.3023085726187492,-0.2695410627799299,0.2941229923550962,-0.18638359851235833,1
org.apache.velocity.runtime.log.LogSystem,0.032438167980923215,0.0837537261564676,0.22184161538725403,0.09509458413961257,0.2414033024146096,-0.06559093050263984,0.16497357207955762,-0.15096926282955023,-0.34799000086260684,0.45676959203427153,0.22602530751517239,0.5684416917450922,0.025804553167473394,0.08576714002425426,-0.13979475065687091,0.12104150732747274,-0.010338812819306055,0.05718829593084094,-0.093971739872522,0.01901995510995949,0.014556249459167095,0.06895950791428493,0.009092611339670442,-0.0014903159858028036,-0.0762271181991754,-0.03509484687983228,-0.17727833260751388,0.0797117285424373,-0.019213902557941417,0.0922667551010575,-0.04537786518532314,0.039229827359603106,1
org.apache.velocity.test.provider.Child,0.0019995092127335456,0.022032348753821974,0.05153985285140383,-0.056239680429844736,-0.12634651489179466,-0.059126399655707707,0.09121513431595668,-0.06953657623971174,0.03219325167049895,-0.07921328285492851,-0.082182453018796,0.032733625634072484,0.045909516321553524,0.08951985359360752,0.12741812760264026,0.20909336124254674,0.43713827639022496,0.32522492343554515,-0.08645226563865546,0.10240139909584332,-0.15161158541881692,-0.2646221522144205,-0.36243815522021505,0.18189132030656419,0.2890805129723553,0.12951668705680072,-0.20992832200714878,0.18952967956505437,0.15460650355282696,-0.2418759831385489,0.1699818578901131,0.10931795619886377,0
org.apache.velocity.test.provider.Person,0.002000659328684245,0.022045001707290707,0.05156936752318978,-0.05626989655704753,-0.1264180021796861,-0.059151230914572535,0.09127382835254916,-0.06958902997147205,0.03219349378803778,-0.07922032312476683,-0.08226430392582168,0.03276834582353772,0.04594920493899233,0.08968982575503043,0.12729825514446477,0.20898383523641878,0.43752914538462623,0.3254747264906101,-0.08624193053729261,0.1017652513938846,-0.15125406441122127,-0.2641078755514914,-0.36223119091698164,0.1820369439350699,0.28997915959320963,0.12928115055462125,-0.2088091844547705,0.18791771261923662,0.1557178960707201,-0.24270020759890676,0.17025445038122752,0.10885453024925185,0
org.apache.velocity.test.view.TemplateNodeView,0.0442237900583073,0.5068286077428134,-0.13016380669956784,-0.03781696463491099,-0.21655122571017804,-0.12457188467441316,-0.009953300863303101,-0.17169984306439948,0.15963010240703832,0.2339990083558371,0.07211687830484438,0.06604888996840899,-0.1059382952097792,0.23915754927015667,0.3167841977266942,-0.08315945434831538,-0.09933683744427824,0.042306400711604505,0.2678839265173174,-0.018663259851301982,-0.05383512917545565,0.11003777777992392,-0.20813796029425558,-0.05161552577898209,0.16302428577071634,-0.06046124555961665,0.303338408036436,-0.0899601595517482,0.195986199537986,0.15184140987868966,0.0034704662190850953,0.16952402187747226,0
org.apache.velocity.runtime.parser.node.ASTModNode,0.04487381850190191,0.7957807276628256,-0.4378737637171053,0.15607209862358917,-0.03323926148296096,-0.021748133302871796,-0.03846633648494689,0.007515623319799867,0.055483395010976114,-0.07518672397455586,-0.011310485198430793,0.14473039397411444,-0.06033503607017203,0.1787239752860645,-0.046121485844656356,-0.10813170294949166,0.08191308790742508,-0.0386957682711084,-0.0922723856042587,-0.1253990479594969,0.01905375562571178,-0.038153574356699096,0.008764539595370213,-0.05063596395279767,0.0340197845340459,0.05111683457085304,0.03583909592203403,0.020769608542501126,-0.11583194312128388,0.07265472311626851,-0.05959416359442729,0.04081512686773681,1
org.apache.velocity.runtime.parser.node.ASTLTNode,0.04487381850190191,0.7957807276628256,-0.4378737637171053,0.15607209862358917,-0.03323926148296096,-0.021748133302871796,-0.03846633648494689,0.007515623319799867,0.055483395010976114,-0.07518672397455586,-0.011310485198430793,0.14473039397411444,-0.06033503607017203,0.1787239752860645,-0.046121485844656356,-0.10813170294949166,0.08191308790742508,-0.0386957682711084,-0.0922723856042587,-0.1253990479594969,0.01905375562571178,-0.038153574356699096,0.008764539595370213,-0.05063596395279767,0.0340197845340459,0.05111683457085304,0.03583909592203403,0.020769608542501126,-0.11583194312128388,0.07265472311626851,-0.05959416359442729,0.04081512686773681,1
org.apache.velocity.texen.util.PropertiesUtil,0.010896798932802834,0.06354269675763491,0.1539721336444679,0.08784905620167183,-0.10803149247226343,0.09876434018759836,-0.021341173446492907,0.061889065288879136,-0.02665885723217126,-0.06396164239298953,-0.016882424820715846,-0.028361926766674192,0.08637289399800947,-0.18562346990660497,-0.23252021960735691,-0.12353795474372109,0.10722683309441906,-0.34118940457868596,-0.05907692012547207,-0.0013438293114479548,0.02855630312484119,0.31137396014168967,0.153516874618609,0.09741253099978305,-0.2788935872881402,-0.2831963756626422,0.007727387128394684,-0.0664572776374358,-0.06500183115444404,0.48350526759886464,0.39147690268805196,0.07505066109434168,1
org.apache.velocity.runtime.parser.ParserTreeConstants,0.10436680973152562,0.15658855629991666,0.05312806555227656,-0.01018023836385237,0.2704434545454698,0.10919252261929704,0.04394311029741008,-0.3166784222075419,0.011018401462768656,0.1840273397572736,-0.16543566859081163,-0.4862693781964343,-0.2939717952884442,-0.21210374946855692,-0.2605279797050121,0.1533243226683184,0.18864488793008377,0.13646243614767328,0.08288547358442223,0.26017631951498843,-0.15604909515689036,0.0931178702814199,0.053249456113532795,-0.021832065042623368,-0.11577461645695403,0.0709305898513513,0.22922670554058638,-0.007520386933094739,-0.08784464811293984,0.059984762923095195,-0.07827412938087695,-0.013946093029167262,0
org.apache.velocity.runtime.parser.node.ASTEscapedDirective,0.04045875096734398,0.5626490282374427,-0.3372683521947637,0.16258032741788203,-0.03943152766569491,0.029458299929605452,-0.04109301530057027,-0.14560533201199738,0.021151079836172502,0.16973755805228974,0.05008405857092258,-0.17686329763083525,-0.060976704199733174,-0.11917693376331341,0.08322131897830383,0.2812105364828345,-0.12320231116268517,-0.022114876805144422,0.038809308199449326,0.17180394586130782,-0.05891408304650585,-0.03911398304775091,0.1311432757539346,0.018404665342333947,0.030958697538275248,-0.15994296404784708,-0.2320045523436509,0.0006526661560933898,0.16983813898067485,-0.04723527871130242,-0.04069922956851499,-0.40864770794922206,1
org.apache.velocity.runtime.parser.node.ASTExpression,0.042600541449341375,0.7667031617126283,-0.4588899523697892,0.2188235932304556,-0.12182476898575528,0.0029931461638216103,-0.0649137333694793,-0.19747637852906283,0.08956187906175937,0.06582285311918805,-0.038805642024800385,0.15097356740071383,-0.01499223486147797,-0.006931255329626992,0.0883927715270809,-0.06780374911609101,0.06277808870674724,-0.009825653565874353,0.02849185351826414,0.08773337132194929,0.01957796630037003,0.01179036147943018,-0.0373612913495097,-0.024335776688786684,-0.06990430047850804,0.06076584947144934,0.05916172611046391,-0.021057042432886856,0.05651984100626228,-0.08009858224893034,0.08264751707321918,0.021678994177039595,1
org.apache.velocity.runtime.parser.node.ASTDivNode,0.04487381850190191,0.7957807276628256,-0.4378737637171053,0.15607209862358917,-0.03323926148296096,-0.021748133302871796,-0.03846633648494689,0.007515623319799867,0.055483395010976114,-0.07518672397455586,-0.011310485198430793,0.14473039397411444,-0.06033503607017203,0.1787239752860645,-0.046121485844656356,-0.10813170294949166,0.08191308790742508,-0.0386957682711084,-0.0922723856042587,-0.1253990479594969,0.01905375562571178,-0.038153574356699096,0.008764539595370213,-0.05063596395279767,0.0340197845340459,0.05111683457085304,0.03583909592203403,0.020769608542501126,-0.11583194312128388,0.07265472311626851,-0.05959416359442729,0.04081512686773681,1
org.apache.velocity.context.InternalEventContext,0.17526693961452694,0.05498032170197546,0.07019535719717522,-0.019547979426283398,0.1638276922638241,0.18591875778124403,0.5614443693863164,-0.1455470054906722,-0.15923460309279808,-0.2797151080916121,-0.1420922828417742,-0.1490285815098907,0.28821945775871477,0.25394385438512573,0.2654041430651771,-0.08534244883670729,-0.09687322944942216,-0.1761690299359888,0.2719716132642705,0.11230912064262843,0.06609882956369208,0.017077100462788066,-0.04060935603410807,-0.10997484328013726,-0.0849789843922518,-0.15532415949987646,0.087112416308562,0.04250090888017502,0.05472819534941508,-0.039279001904933025,-0.032333447157232714,-0.011492352832914268,1
org.apache.velocity.test.VelocityServletTest,0.01571194144483159,0.07173579584664716,0.1375159879861116,-0.09455111850675134,-0.1245510910786241,-0.05592167222164677,-0.0015555497849961916,-0.01199678903476377,0.06395457782432949,0.13622205569861143,0.09681212725265068,-0.02484394800547725,-0.03164274525059589,0.0667216638504199,0.09495258337180737,-0.14224070617877418,-0.17081046497584002,0.03454608017071702,0.21952754566022725,-0.12268069368518389,-0.092218855404774,0.1487443442325045,-0.1529645881232099,0.11527061262540157,0.240955921977247,-0.4459910891982612,0.4249468367607083,-0.15975524472904898,0.18353995845594634,0.037707462119553024,-0.4675818490893846,0.053795571955621284,0
org.apache.velocity.io.VelocityWriter,0.020315697336427484,0.052712871102842875,0.15831407046211549,0.062446106079079945,-0.09672042751947854,0.08465735130455884,-0.07331294344178176,0.023801086254100837,0.07440341420513753,-0.024751407032264965,0.11980952146947653,0.012409251868471112,0.007274762274426849,-0.14424832972351434,-0.008847415109837185,-0.1172520678846461,-0.15127203264646996,-0.11648891901628484,0.299549773529849,-0.06384856415684023,-0.06592944969588374,0.20973653401644732,-0.07485706068681783,0.3274575753299596,-0.02313548859520928,-0.3384165292447061,0.30872237614164394,0.18240963636929902,0.1937748325105283,0.07872749706554856,-0.553020630896496,-0.07341039282242177,1
org.apache.velocity.runtime.resource.loader.ResourceLoaderFactory,0.030304541450856624,0.20326449831873827,0.12698690405154525,-0.22062976849847318,0.3120761074703571,-0.1487047844432941,-0.25825990010464317,0.4346674181264593,-0.14864227319248044,-0.18321126714790634,0.11445522129713716,0.0041367749543019285,-0.11464943107990515,0.4007146818368952,-0.013187657850343175,0.06971938477914687,0.19399604284403435,-0.03607286347063374,0.016742517225433007,0.18456740157376858,0.08027465286971958,-0.23414778304726025,0.004410607197400842,-0.042388061941130824,-0.207489250216172,0.005595914998559975,-0.009038574707046991,-0.17020025075913728,0.20000957600829444,0.14048727012647091,-0.02637094014976709,-0.03685900917084118,1
org.apache.velocity.runtime.parser.node.ASTprocess,0.03438476024127811,0.6165763021046584,-0.413973270163238,0.2450062471903159,-0.09420726723298088,0.009020759093952276,-0.08011748055979244,-0.2563560823809582,0.14992009664578876,0.13858680567688916,-0.010343134116434432,0.13658851094946622,-0.032179978359619145,0.07457475993922609,0.2749910167270544,0.03443453267430917,0.018674221243430877,-0.09036557143928982,0.13426860665643028,0.27447269925548995,-0.03929687376596921,0.022640529082382326,0.02620018692245777,-0.011205626512026438,-0.10726605544629104,0.0034473507246312956,0.07284183252947406,-0.06043143764880319,0.1808739908309155,-0.011293005815652308,0.06347042587026831,0.014603346122645633,1
org.apache.velocity.app.event.ReferenceInsertionEventHandler,0.027386790586458126,0.06355781919976058,0.16865321477713716,0.1487309408588024,-0.0020746965707873575,0.03199446085154925,0.24452964669968474,-0.14192115533338984,-0.20069052677595944,-0.28636995819954014,0.26045086265473855,0.2732794902141251,-0.06746162443524018,0.012746578865434097,-0.025038989792203956,0.48999238400109135,0.041476078926677325,0.23605252546973238,0.17731112039493546,0.027483001888756308,0.09267203267615622,-0.18365944009003676,-0.046753628012135416,0.11034828767096372,0.08970141492519362,-0.10224228631067753,0.1370391505370331,-0.08662473360712085,-0.28697055483875433,-0.27199219455702667,-0.07699062878402954,-0.009353439047903112,1
org.apache.velocity.runtime.visitor.NodeViewMode,0.8666957822504997,-0.12920141517602024,-0.16527113987335085,0.017901451850948356,-0.15956740811925504,-0.06351044509211896,-0.025774793100138447,0.12243814581694676,-0.060604672250431924,0.00416848590368627,-0.014083391044639742,0.14659417125485052,0.02913568004120361,0.05682319563014716,0.0719456540487404,-0.00730926273909397,-0.10426645821496949,-0.008161407412480942,-0.03784166973707141,-0.02544172498878436,-0.0018947257373462915,0.02731472979896221,-0.06562589760756449,0.017903478024276335,-0.052152894546651396,-0.07747319906158413,-0.1000079259674054,0.08872233043101824,0.12358416688746954,-0.15839784941905588,-0.02191199831857649,-0.1970814449813419,1
org.apache.velocity.runtime.parser.node.ASTMulNode,0.04487381850190191,0.7957807276628256,-0.4378737637171053,0.15607209862358917,-0.03323926148296096,-0.021748133302871796,-0.03846633648494689,0.007515623319799867,0.055483395010976114,-0.07518672397455586,-0.011310485198430793,0.14473039397411444,-0.06033503607017203,0.1787239752860645,-0.046121485844656356,-0.10813170294949166,0.08191308790742508,-0.0386957682711084,-0.0922723856042587,-0.1253990479594969,0.01905375562571178,-0.038153574356699096,0.008764539595370213,-0.05063596395279767,0.0340197845340459,0.05111683457085304,0.03583909592203403,0.020769608542501126,-0.11583194312128388,0.07265472311626851,-0.05959416359442729,0.04081512686773681,1
org.apache.velocity.texen.Generator,0.038540477344626796,0.12666192054197956,0.26970221847561227,-0.1916890193169758,-0.2670782128226105,0.15988056429314706,-0.01987936244507294,-0.15234346857845224,0.14714188914523305,-0.01459329938032565,0.07387475506468333,-0.030394337822203063,-0.08816447662375768,-0.06608844063884517,-0.2029347425533736,0.0748101551706909,-0.07903073189239544,-0.262570516075975,-0.30497354153042106,0.13378013349822984,0.12816847612064886,0.10213066100861111,0.056710786559594925,-0.2357341753734797,-0.4342354973375599,-0.3102848530405365,-0.14849351368881708,0.1687772411715232,-0.16473410451128034,0.11741434228794378,0.041514792945778985,-0.12476610927251139,1
org.apache.velocity.anakia.AnakiaJDOMFactory,0.003257500244505763,0.014401368111841662,0.04205677615068119,0.03213361004659798,0.007155160018501705,-0.003343636248424896,-0.016152491631685327,-0.01339835954431037,0.005744266356218631,-0.03763261217146738,-0.04218310222563817,0.004188919249780477,-0.028477657435166927,-0.028846818419958342,-0.04225478258855699,0.1135236359545848,0.0743547983220463,-0.3334149154735415,-0.17400933365083524,0.22536080578059758,0.33336491944649504,0.5245032335961294,-0.32566035912184305,0.08844950368933995,0.4912023922501644,0.08733898579584853,0.08200775260909549,-0.09191247733885037,-0.049463773818092804,0.10009132910576651,-0.03584971636636345,-0.034779297489253534,1
org.apache.velocity.util.SimplePool,0.031666911067107714,0.08535625285441097,0.20206624312672938,0.015120045610022262,0.02986828294941654,-0.003298231383362598,-0.0784834782984472,0.12336333197884491,0.002987948264707738,0.1132269169364533,0.3353840968120627,-0.007838675399257974,-0.055678140372058864,-0.05558603674077523,0.11729990628759683,-0.16108515601543513,0.10625234066632036,-0.06284672978031498,0.2843244470787332,0.056063298116509855,-0.20986114613424484,0.5062924020607696,-0.03967556617123074,0.20195363546657594,-0.020855462301068182,-0.35424941837748264,0.04628805979194734,0.24355050472152404,0.1403803435342201,-0.04549977981975153,-0.24841103596231953,-0.2104100617801442,1
org.apache.velocity.anakia.TreeWalker,0.0032221084555501514,0.01423276022102867,0.041673349414491745,0.03311985696000718,0.007979757260916097,-0.002926645697821854,-0.01616517844829867,-0.013092836503683385,0.006034490680714415,-0.03674809972584505,-0.04090350444205435,0.00446615068982838,-0.02656573044994117,-0.037279190096903246,-0.0327779933963856,0.12296390311997606,0.07032405541122105,-0.32738315551964803,-0.1557201064199687,0.1888912755270763,0.28512583131174235,0.546916981570387,-0.3334178175519448,0.07259319063370917,0.4893809512696187,0.11844255802982902,0.03611385780290882,-0.04334765078092259,-0.13982971957792203,0.13303878602486133,-0.05384361792577153,-0.09652049807042479,1
org.apache.velocity.runtime.parser.node.ASTWord,0.03438476024127811,0.6165763021046584,-0.413973270163238,0.2450062471903159,-0.09420726723298088,0.009020759093952276,-0.08011748055979244,-0.2563560823809582,0.14992009664578876,0.13858680567688916,-0.010343134116434432,0.13658851094946622,-0.032179978359619145,0.07457475993922609,0.2749910167270544,0.03443453267430917,0.018674221243430877,-0.09036557143928982,0.13426860665643028,0.27447269925548995,-0.03929687376596921,0.022640529082382326,0.02620018692245777,-0.011205626512026438,-0.10726605544629104,0.0034473507246312956,0.07284183252947406,-0.06043143764880319,0.1808739908309155,-0.011293005815652308,0.06347042587026831,0.014603346122645633,1
