name,vector_0,vector_1,vector_2,vector_3,vector_4,vector_5,vector_6,vector_7,vector_8,vector_9,vector_10,vector_11,vector_12,vector_13,vector_14,vector_15,vector_16,vector_17,vector_18,vector_19,vector_20,vector_21,vector_22,vector_23,vector_24,vector_25,vector_26,vector_27,vector_28,vector_29,vector_30,vector_31,bug
org.apache.log4j.xml.examples.XCategory,0.2361905753331763,0.06642883048149556,-0.14894012164945208,-0.04259165705787383,-0.021973073719485488,-0.16876447405850192,-0.20689454547739974,0.1312518505347821,-0.07199417474595053,-0.004925715180255721,0.27093815988509634,0.10673855810371673,-0.23594529476999831,0.40786558014898505,-0.014269611839197638,0.14585279099536005,-0.14867442899639055,0.26776586611871545,0.07788744576745656,-0.27264348412338407,0.12157498165017071,0.1672691273891542,0.0857542922176314,0.1960607511852441,0.10634721806478277,-0.055699845490013104,0.002508250641987708,0.26922435819090185,-0.2318979315975247,0.1464523114437204,0.08337156757458467,-0.24792241838238,1
org.apache.log4j.helpers.DateLayout,0.09810951879310129,-0.129612303851584,0.019607453301950947,-0.18728686846309053,0.0294930203790814,0.14311625914316603,0.006490281523694108,0.0016720046189497631,0.07400425139131532,0.10590166783509533,0.1459418622455272,-0.004650540759924638,0.046980338036195196,0.04560731844253641,0.494126538465076,-0.1995148209512157,0.24432509469493377,-0.16287177714063777,0.04624502098646119,0.18691223022748266,0.06003408766355848,0.5401909666701237,0.02823513734802016,-0.04942343310550186,-0.18049646490315452,-0.232864911507696,0.17235116563093977,-0.07150050638850335,-0.09854889394599643,0.131941588312635,0.13695810828459437,-0.03167335305860347,1
org.apache.log4j.net.test.SocketMin,0.2178528299162414,-0.11399642858515137,-0.25157370387527866,0.10954598624836409,0.03347510375522512,0.07065357848540452,-0.10949137642264416,-0.11282793706366624,0.028104691611007645,-0.14847448990777434,0.08125983329834584,0.08635591084157566,0.051475319364614795,-0.1615685321930913,-0.09601072626336724,0.0609169341754646,0.2035884418279411,-0.4152316345746826,-0.20972524673279658,0.03330373775308679,0.2721552896216888,-0.10161685395373991,-0.3120682527533363,-0.1046523937026492,0.26844159590695166,0.04929987919612492,0.24618085852712973,0.29627122209566137,-0.1576486685141455,0.027079782622529257,-0.0003829359340157359,-0.23386756322138502,0
org.apache.log4j.spi.VectorWriter,0.05866207036439987,-0.05700274274340088,0.1530313921477065,0.06178863711657005,0.17187512570254984,-0.02298317509681979,-0.17561322814589392,0.19244800586937724,0.10652233657519261,0.15800858447291696,-0.08961619556069902,-0.06712826725696111,0.09637808363908344,0.0069144759655199615,-0.10644453738050907,-0.04403770863452093,0.02791968319068477,-0.040249655736805966,-0.20127991069800688,0.02845045892717004,-0.14429471055580811,-0.03665956597116691,-0.10521082254873515,0.19631860313169977,0.10712346058158077,0.18709623204700312,-0.10885532435772731,-0.46185660892004265,-0.326168320178857,-0.3494497688016825,0.425407975198038,-0.007623062456206332,0
org.apache.log4j.StressCategory,0.13324502678363626,-0.1539017535108837,-0.46628995605182383,0.10916069189122395,0.17107787243474856,0.10538050516309606,-0.09162626603083829,0.20165903970524385,-0.0053080083471575374,-0.29755516579815733,0.3165564342709215,0.02749227671029527,-0.06289265028715,0.07395034898916003,-0.06818979962293341,0.10206738293937936,-0.13670239584189664,0.06890065661147549,0.166295786807207,-0.17081458585316317,-0.2991752662769856,0.1464104357289535,0.24234453069862902,-0.1515125102259256,0.06402270030976887,0.16156709313550596,0.07223909900162742,0.12049064747211755,-0.08553345026140496,0.24376455661370955,-0.15378456628281065,-0.1119765506073417,1
org.apache.log4j.test.DefaultInit,0.0611737226265121,-0.16962762701557174,-0.6117557161608779,0.16318233744726188,0.2453540723275609,-0.14000820111957768,-0.009967078472121542,-0.24784839697275615,-0.0024661541518824553,-0.00927498142896674,-0.11575452095176465,-0.038213728824133486,0.04270646058427994,0.01510552626449127,-0.044196725383268715,-0.002204043471246267,-0.09556894214791896,-0.049829972711035085,0.06798886938740303,0.09958259063329196,-0.10611732868533795,0.07868093936928627,0.015957344493494313,-0.233299610801741,-0.0975360319713623,-0.022271532216390208,-0.10662694685643491,-0.23520006033200783,-0.2267326213104015,0.40499808883729804,-0.12326683450258841,0.02656732512767965,0
org.apache.log4j.RollingCalendar,0.1742163773429712,-0.21188384682946068,0.2536962708359719,0.31440565061993,-0.07365458293405183,-0.13537455238811535,0.08162062866122553,-0.11740508792229275,-0.012177332526879695,-0.05099919854646899,-0.010313041022769618,-0.015166059445525694,0.07477156428997708,0.03938301587970157,0.03945658882923843,-0.041318027038700175,-0.001873983321902369,-0.023250566040269486,-0.08566516490467976,-0.12349749480839525,0.20207751787079214,-0.11576348684273033,-0.013098259360803544,0.4198137869229573,-0.008805032790145877,0.21256039708423455,0.5875415692629068,-0.04516100613977724,-0.09812015473862279,0.15828318665074698,-0.12715796336751328,-0.08192900595146166,0
org.apache.log4j.spi.Filter,0.16916314170833022,-0.1391808710409532,0.05967392704839272,0.11747661208183581,0.08135237787544873,0.02342538075278339,-0.38565938960362206,0.24704464719560318,0.020992959234974694,0.22733946890289908,-0.10732677227106155,0.032365429721291084,0.16864662845847803,0.028809075025409737,0.15418594926484241,0.14645040875813375,-0.23896427362158087,0.08483630563357648,-0.13087954476021116,0.18352591957877173,0.33629059572030623,-0.11983212383019104,0.22896794329626877,0.01889803800625122,0.24506968467036153,-0.23825971886876832,-0.11281040255197641,0.17832119498746063,-0.22241494547310053,-0.21015774418839728,-0.07804660244639962,-0.1487013640480581,0
org.apache.log4j.helpers.FormattingInfo,0.13656480805493376,-0.19449276736019436,0.22633263193260753,-0.46967873216756606,0.5316492314319854,-0.21580765401512234,0.024447445202615437,-0.07767455227357938,0.2996578961592273,0.036821226209998156,-0.046592532267268984,-0.16393365850987474,-0.06869293429717895,-0.006163413141680444,-0.2617986514303364,0.009600088247216691,-0.009264232715721155,-0.045019706952732316,0.0459771189911003,-0.2618741874172047,0.005099409438769543,0.024948535779548902,0.08030584265266887,-0.10674267123134315,0.13951103897480582,0.08035907865639717,0.04751191119865628,0.06321436533872377,0.09784863868398277,-0.008960608629168067,-0.09541461687626142,0.005569740653143253,0
org.apache.log4j.spi.Configurator,0.18265068141185611,-0.1495800000575625,-0.34442212435195896,0.0318389311080614,-0.004753586683287362,-0.07406018475796365,0.23145013204753437,0.2760344680602017,0.035086890878977685,0.02828226362427889,-0.20857589277881258,-0.16737986501866758,0.08807886143047783,0.24218122850144447,0.1452888445548133,-0.0444747201624107,-0.08791470130397144,0.1974631028262666,-0.1250537491696337,-0.18383157057945765,-0.19910182733815918,-0.016369716515634843,0.4449930957830066,0.05427761449086182,-0.01935066581082619,0.07708125351783579,-0.040093425175925915,0.13535899485268793,-0.02620969693171191,-0.31059609997328336,0.1943891526929863,-0.16759487052027927,1
org.apache.log4j.or.DefaultRenderer,0.0503359016802747,-0.0024579577174122583,-0.020619932414942838,-0.002950937904951593,0.02014189999696531,0.08912911397813886,0.28413438097503296,0.3934141717760118,0.13777469463128417,0.0343837577056204,0.02348361221800005,0.19885611965002653,0.3688991576693237,0.10359912113932188,-0.42396582895145785,-0.24278298985539631,0.20370551315074795,0.11898365785064277,0.10297676480136729,0.18612077705697144,0.3326789251562101,0.04059988499651006,-0.05800135109008347,0.11608324713495616,-0.06174280631338604,-0.08094454741967759,-0.06215324115245143,-0.1357107596461186,0.1904480297918481,0.091470286155983,-0.007354924709991264,0.0017343607463377573,0
org.apache.log4j.test.StressNDC,0.11975289166147308,-0.1535985382845803,-0.4354641019597106,0.1258898923770714,0.17122379822700018,0.09443091125001647,0.031314079987095886,-0.038359175866817044,-0.09216141914019382,-0.17192034209480386,0.11876126444774276,-0.026112845063835974,-0.08524037537015604,-0.04148955071495864,-0.11081280083508414,0.027457365773900275,0.18943075940470433,-0.43674945796479764,-0.19574854591988763,-0.037423413196497744,0.20145446717040927,0.002464084083951333,-0.33879957259478527,-0.19954859154035348,0.29938357400329785,0.15003752090355907,-0.11015578575575359,0.13586517675168844,-0.0971084588761802,0.06494965346391628,0.06242638473057262,-0.13862792663012674,0
org.apache.log4j.CategoryKey,0.0700547678934824,-0.04436120691807849,-0.18783660308142716,0.076673576113682,0.09550631695481746,-0.07193915837854298,0.14300700099984695,0.2618501400953733,0.00942943144505471,-0.036559756635116354,0.3326599181683881,0.22607708047597175,0.11909630002198095,0.20074528255440058,-0.021076837490835266,0.14908333830646753,-0.2502125758979797,0.03851526702273417,0.15783130871537762,-0.198886423178593,-0.4292855251239835,0.09928543798183691,0.3465910215905115,-0.028522686996182642,-0.010339698974886673,0.09697513865168225,0.183266806448439,0.17113690051503094,-0.16816656306076092,0.0003726219698958757,0.01697770442339514,-0.25239902279806326,0
org.apache.log4j.nt.NTEventLogAppender,0.3532898755297686,-0.32555087967658963,-0.13993156799189732,-0.2918763857916647,-0.34737636855772297,0.24337462004832253,-0.25576354372126153,0.1783604444628311,0.2775108669519699,-0.07738115073846885,-0.004233297460694087,0.17091872106753053,-0.026623025462468697,-0.03234255390453184,0.239800563936778,-0.07246857594417407,0.19521780099841646,0.015823956927077994,-0.17899821387021747,0.04846648982987816,0.019900763445227083,0.10725642651629627,-0.0739638119046185,-0.0322962697445378,-0.15713520943715564,-0.2103814514393088,0.15916162191069824,0.12286535999521343,-0.007205285575536156,0.06146298402669465,-0.07194015673553181,0.03178956905280208,1
org.apache.log4j.performance.NotLogging,0.14144130872418,-0.16732645458522763,-0.32924927725792724,0.13438096401676386,0.18421716875544233,0.16436718309615106,0.06367979469986623,0.1002942407677374,0.08989655912245116,0.006516318735012638,0.501149565898622,0.2527061756162223,-0.010374723244299592,-0.009512818733569762,0.1835842589102933,0.0768146709071803,-0.197887504168342,0.11633382324198528,0.11575376005479696,-0.11448941399176962,-0.385777805580169,-0.17565333217393944,0.004569512380005711,-0.12979607351544623,0.0047517292565567035,0.2622805032125702,0.0394788184261525,-0.09810406383281178,0.10786746917036405,0.11516611709943042,-0.005050954693997684,-0.08283892437834217,1
org.apache.log4j.performance.NullAppender,0.23327680129431805,-0.34743494341086034,-0.07596870724789052,-0.31813275159873855,-0.3777858307709121,0.130623804375585,-0.1689112451922124,-0.012091428661976966,-0.07624600751653719,0.1816992946731638,0.08331970903484123,-0.008080067849576426,0.2467568291348263,-0.11555751437589498,0.04903700211932692,0.04079781898000611,0.0837034742871269,-0.1272758228190385,-0.1462381916979805,0.06347331328594549,0.045638619157823496,-0.14370318760187273,-0.023190454775277047,0.03720790397565332,-0.31380622462062374,-0.3102027340907337,0.21615231078469138,0.11624870607665569,-0.18028988076674296,0.021046618461423583,-0.20438188000954824,-0.048492846299215436,0
org.apache.log4j.test.ROFile,0.06911240945812287,-0.16550870551128258,-0.574957278735363,0.17569875488417191,0.24256549921399276,-0.2052513492482128,0.016444699090716126,-0.16096080564801188,0.06932710036276772,0.0052695206679971626,-0.2329017004624084,-0.12217472552843002,0.0786930918698298,0.15283506389116985,-0.005393294490207741,0.03376836590229315,-0.055940199557881085,-0.11268374502625086,0.015533215489666238,0.02808689576327562,-0.22549564570585948,0.1195618349669805,-0.01659742253372542,0.29703068880289896,-0.13972419462421684,-0.21179980139682236,0.04177830341426139,-0.203145082690244,0.13615652098644432,-0.2156022192677552,-0.1504013151496001,0.09472646515324348,0
org.apache.log4j.test.Shallow,0.16647831534409954,-0.14589484695076418,-0.6040578448349518,0.1808027831488329,0.22358709203143176,-0.18296468458222903,-0.1204997916537692,-0.11149864400831654,-0.03831179660717393,-0.03425312760851298,-0.12974824592468776,-0.2862778450323899,-0.12953536021405954,0.1886847144507939,-0.03136812496554456,-0.10693816022032968,0.20867149806094193,-0.07322231366584678,-0.18918164440222066,0.13513854496625238,0.2590352234166397,-0.05765567457047219,-0.036383013245626886,0.0415575892703585,-0.011305194323291072,0.17247285684816235,-0.21986339641512564,0.10428790932569791,0.006068546676602399,-0.07734231276263825,0.07108085262936589,0.013403661975573897,1
org.apache.log4j.ProvisionNode,0.08723934182595035,-0.11961881144810359,-0.4541210966056627,0.14280999526219673,0.1985886850863948,-0.1275498178148683,0.1117662739704786,0.09172409800696067,0.006479817570395203,-0.03438799758955191,0.21446004048499115,0.1656441987895178,0.11816579464003844,0.17120193848630028,-0.038932233183823585,0.12054158092817191,-0.2511327942846364,0.006913768865912119,0.16220134266332287,-0.1132784029326459,-0.40241261064302564,0.11969696186865664,0.29060517582457035,-0.1380131650042141,-0.056406491562438835,0.06816073120574931,0.09707093812724962,0.02393899267970759,-0.24870798991852006,0.19949412957320692,-0.04677550534139926,-0.19284628962109038,0
org.apache.log4j.PropertyConfigurator,0.4355849453294516,0.4237708912607958,-0.04011573834140632,-0.0533718500346927,-0.037420146143261376,-0.23233960794828631,0.006085830858721278,-0.008970607333674075,-0.04952624674025708,-0.07466061494982196,0.09864713264761205,-0.027732836777835588,0.36214870624254203,-0.3710256213564849,0.23233828137202014,0.18501573371749555,-0.13987235642084314,-0.06462096476164175,0.08697877026048152,-0.23378806956538792,0.25698466525911634,0.09812298023162601,0.0033677870822790426,0.01385431820433194,0.044151138859954864,0.02991883730734162,-0.02628961728480336,-0.0770424986089444,0.12193424808995978,-0.0852239403991384,0.03985770804270164,0.012246145835474774,1
org.apache.log4j.test.ConfigurationFileParsing,0.07442713809929251,-0.152751597734861,-0.5436338942752532,0.18703194142180316,0.24837735277678422,-0.18356283717085253,0.0020302738030429615,-0.20549313118294113,0.06070987711176861,-0.04455162589532282,-0.2229036627831221,-0.14674291074008775,0.05887048840797591,0.10551506232295156,-0.03236675108100058,0.017315762334896494,0.1245688967527976,-0.3743020663490689,-0.18717985237830742,0.11653318499245159,-0.0386788926132513,0.025798794669089128,-0.25663218460761944,0.2807066186560198,0.04002221641858166,-0.08257230601123608,-0.11922415501327795,-0.011304621377859734,0.06130606318834887,-0.15876323077094304,0.08032969266448345,-0.030349520163306862,0
org.apache.log4j.Priority,0.4401443478051508,0.23956201965822904,0.15204348470291212,0.06288192472803972,0.11846170935646186,0.3932557700378618,-0.3025414802632592,0.18052230586772364,0.2394690817178294,-0.21850102378019706,-0.01674449427487333,-0.08399651601172169,-0.15027285210646946,0.0833739035283084,-0.029064678149191742,0.13084679878068642,-0.09373980114229115,-0.15786886253961097,0.01914990627247176,0.25643127638160507,-0.1591676950898829,0.03285318647543143,0.13494756655614845,-0.07605778680798929,-0.085709918972426,-0.07223069912571273,-0.027397507287843657,0.179196368334216,0.26260492389276535,0.041383949053562616,0.051271646857735505,0.010725954406484491,1
org.apache.log4j.spi.ErrorHandler,0.2675959217935997,-0.3127279763806536,0.3186680178662885,0.5148909428726117,-0.04258246918680994,-0.2117363437301105,0.08094240883715041,-0.2717964681201366,-0.12257520206650137,-0.1429253461282966,0.05509376183603738,-0.08687884137739822,0.15034995944239804,0.004942990352117333,-0.07565360197385163,-0.24058349236005108,0.05589068783031967,0.2505039409981337,-0.01979900203630275,-0.0010399450304127873,0.021498262683812004,0.14702047823430384,-0.08106740848505888,-0.1049607396318382,0.01610325291913356,-0.08221094862903855,0.14862417405168168,0.24306748063408265,-0.002393074582207927,-0.011095665890408038,-0.09510037029227317,-0.03599047956818779,0
org.apache.log4j.spi.LocationInfo,0.2084466568933591,-0.26017963437488667,0.17196341280547936,-0.21274779616678083,0.18041911151032353,-0.017256221119252364,-0.09070619579474537,0.14232437712228413,0.3168699215905351,0.16219893143964959,-0.07570648438763608,-0.04816918650687045,0.014860966438539507,0.11205429037454291,0.06817278782766112,0.17048758818882506,-0.022357396838519377,-0.09372939453197798,-0.06294906555149368,-0.3766604432094103,0.040599453912379964,0.0210316880433662,-0.24544843221399298,-0.1492923305999245,-0.35061704242275143,-0.13390450265814108,-0.15503298521871184,-0.17342975008113182,0.008622831030752742,0.18680164030722957,-0.2025109498509968,0.2464411950858354,0
org.apache.log4j.helpers.BoundedFIFO,0.15521278085646406,-0.11622557275702872,0.06964275689088968,-0.05574489800030492,0.01817227412222595,-0.07974678971535686,-0.27235493462503024,0.2637766874349959,-0.34487473109082956,0.19719355992787269,-0.2428709296211269,0.19186251352213163,-0.050820907472648315,-0.24803276371074381,-0.12028642644744726,-0.11915216520878913,0.11395627605289242,-0.13511597516739893,0.14305067351453354,0.15404948937792823,-0.4099527757042644,0.07546164244168421,-0.013120720516907826,-0.1814059724801937,-0.01584155346049627,-0.023941405768806146,-0.055995566987654094,-0.32049806574355405,-0.11717124466069023,-0.04341092105168299,0.22815781927308645,-0.03140095223627589,0
org.apache.log4j.spi.LoggingEvent,0.3383960251498946,-0.2430953203409863,0.4925426246075715,0.16183768423882935,0.434228772762794,-0.03125846146079022,-0.2710820710231288,0.25352528935337776,0.1339824698025918,0.20752797263348596,-0.10370948883032934,-0.08810284774057184,0.13209775192344564,0.00358188486963528,-0.0901361696162753,-0.019826102560264024,0.018921096625549905,-0.07638491797027509,-0.135944385672121,-0.07126428931050423,-0.09078714500926588,0.01971947785305214,-0.061214391874258686,0.08576170498846715,0.036529702363926164,0.06235095433121608,-0.0737645311435122,-0.20823385805312394,-0.1430789990600686,-0.010973637592031437,-0.009085503932397774,0.024676184372846834,1
org.apache.log4j.helpers.Loader,0.1110961865431107,-0.21490354822389446,-0.3720151557516036,-0.0008621194331936374,0.020287999733436528,-0.25094012985714276,0.07734489018984494,-0.017914730342910967,0.2965712121022029,-0.03517477522809646,-0.29845897758455114,0.14965982339512174,-0.2515967904936554,0.026249544098067516,-0.022988427598861126,0.2247522204422679,-0.1348272230757497,0.12361138687464306,0.2912105154530435,-0.009363028297357046,0.09067058057246813,0.16679694186661848,-0.31427310975168127,-0.14938366428659972,-0.13099666137315563,-0.08599976259027214,0.10049978061068211,0.018939416924253494,-0.10869796624323093,0.3000330111864735,-0.035724430004049366,0.0639661490116343,1
org.apache.log4j.config.PropertyPrinter,0.08842048287452403,-0.10533842073732706,-0.19913211287981503,0.07591938133327666,0.059210463093269654,0.05976027983202939,-0.15171190920013114,0.020744288028167236,-0.06308328940835545,-0.015897963851366808,0.06318522927834469,0.035503762416899474,-0.16461976870494693,-0.19069849772903683,-0.00992789146819563,-0.075265740311026,0.08075378692159438,0.12428174753102314,0.205721520413827,-0.03851450220919973,0.09414949392806532,0.0034365285525505985,0.053878292710901485,-0.038816112498869154,0.47350838929387373,-0.20229244760693627,-0.0585410500876636,0.1515925548696257,0.2947083324170627,0.3083130482036577,-0.38030770839072686,0.3595678749511973,0
org.apache.log4j.or.RendererMap,0.10101412983317062,-0.09185094395292331,-0.13499758619163513,-0.032523638655619386,0.03158901230101492,0.044977755115272716,0.248966114423409,0.3667936559292034,-0.10367648412834175,-0.026406224114067206,0.24866876269681887,0.3579569841524526,0.28597526039691396,0.1866783822639166,-0.31608823625553617,0.029067544545649984,0.012477212919602384,-0.2723845459355516,0.06300499430842597,-0.048868770380660016,0.0705898768962379,0.13465292387811245,0.05222173063056022,-0.15950062593242084,-0.05143836028760512,0.0012154698091073424,0.04203019203254682,0.2443849652350762,-0.2275000831365497,-0.1359058272112784,0.09631506382382336,0.2609638016396248,0
org.apache.log4j.test.SysoutConfigurator,0.14619560129209902,-0.07202641744278253,-0.20712695065107253,0.13549629894347576,0.15878230392504733,0.0298050703034238,0.14814480813787514,0.14168414148532218,0.09683351578965495,0.16055533464013677,0.46981014361035295,0.23444231130265036,0.07480786087314775,0.06718543383547944,0.24187567624550743,0.1070930223946829,-0.2705534646941699,0.10632723710539173,0.040688053546229036,-0.047092683820474206,-0.3338699687055698,-0.21069288332405198,-0.06173855748389766,-0.19409454601416737,-0.022276503610626355,0.2266371179255946,0.15918772134939316,-0.20182827291012798,0.15346244449562624,0.011877583962413191,0.10093519681495121,-0.1248831465000735,1
org.apache.log4j.helpers.CyclicBuffer,0.18252358786922956,-0.1695247004166578,0.11298444254173863,-0.05498745616324072,-0.014146733704748145,-0.028280930548213703,-0.22546524692946285,0.1456148733581012,-0.3028620380155588,-0.18870417325924213,-0.01754836835372219,0.041157244976436004,0.1845886856492393,0.035846698779127065,-0.05965815784435397,-0.10408626634278896,-0.056942543228641604,0.0386971477211626,-0.24384082716826003,0.020891906390786464,-0.28040118073759246,0.17679400119778846,-0.2035102841237927,0.017943768373445104,-0.4002016797254879,-0.04536978533029093,-0.14751113259568688,0.03137040849431186,-0.25341491349679335,0.27231207566037263,-0.35375073717081684,0.07281164968805703,0
org.apache.log4j.DefaultCategoryFactory,0.12256587109666742,-0.0928227816581222,-0.5065504621728687,0.15964041955408675,0.2217501712079899,-0.21826635954088117,0.16951113558004485,0.0947422764710138,0.035461939542583566,-0.021875093670116343,0.02279785553438716,-0.05263597129111128,0.21285656547621842,0.16495809759324567,0.008238800833823669,0.15048001457234983,-0.22371711543272427,-0.016929026108185433,0.08941255147366024,-0.10051654983284891,-0.39010121334401776,0.12689170427736138,0.199604414396358,0.13217550072778428,-0.11856801448503206,-0.11458791268289222,0.2849990558851601,-0.2128139986461493,0.011907677433333026,-0.05540996933166566,-0.09011027303188378,0.020982554450206293,0
org.apache.log4j.test.StressAsyncAppender,0.07138545259055713,-0.13455389819622093,-0.4131545438753325,0.16454115961131216,0.18515515675711366,-0.15899565918632771,-0.03574150495334625,-0.09966467206065437,0.011811093892059038,0.08179693342394018,-0.2641135370871991,-0.11090308260090409,0.073196468236336,0.059595121964593996,0.06828585489484812,-0.05820532701919896,-0.07707651530889317,0.17432745050658682,0.028875212119527777,0.1861585664172145,0.20925816517953666,-0.06799107350043855,0.38257114341512577,-0.3644136093066844,-0.2333174005697093,0.17709392339113827,-0.16389299743443184,0.07076060553990979,-0.14807829662598063,0.21863731709539713,0.1150995681825827,-0.04874987595437202,0
org.apache.log4j.AsyncAppender,0.22199610125717925,-0.19856178638724925,-0.054530866543942846,-0.11747660416718382,-0.18512965546802526,-0.1211362263047259,-0.26240539368080124,0.2125293183150735,-0.24244342984500594,0.43498332968668013,-0.2786020634397993,0.21791214931344524,-0.1580748732278586,-0.24301926765522172,-0.11541413746039111,-0.12372320594749069,0.12136451465464582,-0.0029907244384793155,0.3147282920440772,0.021551797772991904,-0.1783086401235288,0.05794839917677797,-0.07542953124176535,-0.13646014669222944,0.19707414848582236,-0.042279590543040944,0.01576371345624105,-0.06829533225313843,-0.051161681332384724,-0.14188285186917252,-0.023941312878112762,-0.05653910419005419,1
org.apache.log4j.helpers.DateTimeDateFormat,0.058988585735714534,-0.08802403991789613,0.05454321433317004,-0.20220207961695533,0.19430401455296079,0.07393608763833462,0.13251825937403894,-0.12105808191762187,-0.14702837816082068,-0.07425580922013056,0.09295809293646115,0.06227746146707796,-0.026760254539469966,0.13411819234306563,0.4466159681510647,-0.10599699252232143,0.049939626450310616,-0.01889285915431755,0.25241181472439583,0.45732422324066385,0.14577845627686561,0.32570975921556783,0.018652426581184583,0.20432761498117577,0.184540338051274,0.23208069055088834,0.1408311006199682,-0.12076310642346362,-0.09836207968420686,-0.08803837289626107,-0.11373548269031766,0.05078869350128315,0
org.apache.log4j.net.test.Loop,0.2045712469109176,-0.2412039562161592,-0.19979777481216507,0.10038596789411534,0.10959187851767838,0.11979481247000073,0.030179251379267347,-0.25053171094895843,0.16083185934777916,0.3441299860790362,0.28054329593750765,0.18016369136720184,0.03960111179730413,-0.2828545286878394,0.14591350318219792,-0.11577212399764585,0.17359349119150327,0.05543663720589902,-0.07975249050470828,0.05886602219099895,0.06421793603313418,-0.36365252721972463,-0.2829040645476037,0.09125475469152237,0.08490450125652665,-0.15064958490416883,-0.1341628548114089,0.14418605894969647,0.04391810539941978,0.09181080174400472,0.18841930326096712,0.07678482329936001,0
org.apache.log4j.or.ThreadGroupRenderer,0.14211387983095083,-0.14746136601801688,-0.05533974691754654,-0.13455076559855753,-0.1750750222476168,0.16745518135827636,0.2221207725509619,0.1469709349609391,0.1662411339573433,0.1871606758809072,0.14897717732452836,0.05004233162027286,0.2807830855201802,0.000919633204508546,-0.056469451014491745,-0.15473576397380445,0.2633750708830015,-0.0018597561799611135,-0.019085347216416335,0.02660297177901052,0.27445888249048356,-0.04395578705644548,-0.08633301771635665,0.0018785844876800337,-0.33908210456639576,-0.42667719435765267,-0.050657834595842506,-0.04012834222549974,0.2052657561527138,0.132901517536318,0.07234194912913429,0.3041887949921613,0
org.apache.log4j.net.test.SyslogMin,0.1742002149457788,-0.14805747715293882,-0.5287590506725954,0.1531201926245706,0.18143893374583706,0.028912589773376806,-0.16210790774146094,-0.1886801662429687,0.1015186618850492,-0.3136566527524028,-0.21215770144257154,-0.0071739283480812205,-0.01950026256225656,0.08954809793801985,-0.11187322906828936,-0.1030638773393749,0.2568354681043019,-0.18645841643657296,-0.18327902400584076,-0.008088051040451455,-0.03327062890439458,-0.0032489285021140048,-0.21681998300271102,0.3283078929681419,0.19447576629588825,0.0641674749560469,0.009279566613655898,0.04002204740285099,0.09342308813981677,-0.04005949858249295,0.1392021298197765,-0.011917508058449745,0
org.apache.log4j.spi.ErrorCode,0.16468385200363164,-0.21301440065581778,0.23925139523500571,0.33693410143251246,-0.07775024356772871,-0.19482317078277356,0.10258792998006855,-0.21606470010813522,-0.08362879615810477,-0.2011856922471799,0.12214843180917413,-0.10093284772623276,0.13749621549875116,0.030217191371979316,-0.051127867553273684,-0.3161276048130361,-0.03591693912228617,0.1591159723841863,-0.02320060016774146,-0.05007569515818979,-0.1223879203436836,0.22863357184459285,-0.1553767886749921,-0.249050166157065,-0.2114556642552758,-0.035962233518116365,-0.14158657098047986,0.24947188942523685,0.03167213455742494,-0.14666068577808705,-0.35160308765466786,-0.05551524072476219,0
org.apache.log4j.helpers.RelativeTimeDateFormat,0.03511205427670665,-0.040764792410734337,0.03650673401753959,-0.050529193368221134,0.07738178964480778,0.11597161320828163,0.085195329614872,-0.03390948041912482,-0.11500199951325689,-0.058592500462010415,0.001641368866570256,0.02142967381817331,-0.0343041110696024,0.14782411080509028,0.418406386854694,-0.11010791430071126,0.11279907641335628,-0.013982204812479892,0.23548182979545415,0.30675031445207396,0.11125762805980441,0.37062194995528874,0.06099688080001709,0.3320671443306654,0.1907507327573597,0.4256929690839852,0.050343909493630115,-0.1440434717853149,-0.18428056443521426,-0.10373155234532645,-0.15470221303588816,0.04802838714828066,0
org.apache.log4j.RollingFileAppenderBeanInfo,0.10739103644964351,-0.15100621156295158,0.024502629504252395,-0.017768370988247448,-0.1253638307375957,-0.23329562403966073,0.16342611921994654,0.14541468877139047,0.38416790166022746,-0.07100527381843345,-0.25398479051931794,0.19025604517769476,-0.39402953208023767,0.006530942678727436,0.057110151955132527,0.32439795906896335,-0.1367649152337385,0.08177156229844007,0.2644101204245705,0.028539155647701892,0.18863629588824538,0.05520740968112579,-0.35088454219487664,0.05160196818425828,-0.043287363245589634,0.15786523662025276,-0.017821858201426476,-0.10388782589386879,-0.10421460411326,0.09703567809260984,-0.04212866737119288,0.0955626312972299,0
org.apache.log4j.helpers.AbsoluteTimeDateFormat,0.09334703941631135,-0.06699478917257556,0.056736564742439446,-0.1984123971497956,0.1604468542994686,0.19566434882683137,0.19138472641091941,-0.0857212234676297,-0.07936173375570348,-0.026489446306712093,-0.034930483069863,-0.02951723830572708,-0.041419711682983695,0.14387901072599826,0.488526984535923,-0.20625944595864518,0.18372462095986739,-0.036036924874725575,0.2435074056224939,0.27138328474855905,0.08861381415885063,0.4665711651510251,0.10591987435529757,0.17363440579046427,0.07090982410628487,0.19102524221096573,0.1016001956757587,0.015010362542560749,-0.15794861465914586,-0.07679875827088394,-0.04910057058185407,-0.057159929284100734,0
org.apache.log4j.test.DelayedLoop,0.09162031737036347,-0.17771696978542786,-0.560057732014454,0.2147720624787344,0.2510730299161116,-0.24186832005611583,-0.015116192142370902,-0.1115878759881447,0.0646138020760436,0.0804539055050096,-0.36624982195415184,-0.17667598827931288,0.1080430524870538,0.163942044820932,0.07441144571223794,-0.024938054411667333,-0.072664825770197,0.08867710829164008,0.010042905218350499,0.14659875804933892,0.056038004477300715,-0.000618455246498372,0.32067593305235986,-0.0017123569837224778,-0.27486468538201486,0.004033273619908385,-0.07043305527662407,0.002363963559307673,0.06453441801882896,-0.1348642043003489,0.03687599067151817,0.018530391217497246,0
org.apache.log4j.or.ObjectRenderer,0.07235083192726303,-0.039579179294407824,-0.07562940597080067,0.07002241010189082,0.07684937962416823,0.04857369856152544,0.33324178274038607,0.3551721228736582,-0.022675040174132778,-0.01820113421279285,0.2360214212709586,0.38080244940779623,0.26797825745825093,0.21421678511276132,-0.3902942437258226,0.025001849421282973,0.10134582680898015,-0.2878262647347863,0.174237371187474,-0.012139929890005473,0.14439566382220637,0.07686300094824336,0.2105107217435371,0.010863501889634319,-0.050511898464081634,0.09298573418877552,-0.06277135612807183,0.10678763481130024,-0.16047047085093208,-0.1101632835685605,-0.06169543437150433,0.04299945546917491,0
org.apache.log4j.net.SimpleSocketServer,0.09954238386214694,-0.10232954238400924,-0.43979246144443473,0.14861888006826335,0.2242790769467225,-0.14714851789223807,0.02423687873973501,-0.001847416965248842,0.12713766050856298,-0.02004432200792719,-0.2275510935311773,-0.2034822548587785,0.06141485360013396,0.15233304700544922,-0.06066510129018354,0.05274484772608864,-0.07707243341073733,-0.07245829198493653,0.010222551957282947,0.09936524292329353,-0.3583450520206823,0.13792225788273102,-0.07460265177931957,0.34281659249924207,-0.11492702933846724,-0.29957354591773044,0.1651533239747845,-0.17165864470927342,0.16508629531706753,-0.21146390206810706,-0.12546107193986114,0.09635383917807101,1
org.apache.log4j.net.SocketNode,0.2513751994358253,0.021072050958776855,-0.2707693922477302,-0.06066267970351949,0.036477924108724795,-0.1401938106499672,0.006705652730125988,0.25285847511554055,-0.18135716525772222,-0.3067610094112278,0.26400361152741164,-0.05489964938320944,0.23684834075917366,-0.38515543962498755,0.060656533257539016,0.1987658355102215,-0.18676023626176183,0.05176086290493267,0.12080402081633917,-0.18111177710937063,-0.14805065026123662,0.20246412472275924,0.09783538615773599,-0.03524812447008357,0.049689741118871325,0.1216584381633704,0.014367766230121076,-0.0430133466506613,-0.18210424120996915,0.3216991763975331,-0.09218097472039827,-0.06256959217720738,1
org.apache.log4j.performance.ListVsVector,4.462833737143487e-06,1.338084225349706e-05,0.00013837248512439337,0.00021298478911071473,-0.0002228215122635463,-0.002008840243060257,-0.0013384480963344483,0.005672034969775858,-0.005190437466096051,-0.004288554393601991,-0.008440779265371307,0.011104808385803834,-0.008727284754081922,0.021754660047736706,0.016495823178600665,0.009664045687733762,0.024843424758302056,0.023693630555351345,-0.034587999070562314,0.04786397342582636,-0.04260241004202028,0.023667283570592144,0.04922963729779477,-0.09438391674142926,0.08067527271116302,0.2333791075902918,-0.09598309324888281,-0.3982462024401156,-0.032777862947384426,-0.5445223131290119,0.6456698311891369,-0.19281759771529206,0
org.apache.log4j.test.Finalize,0.1263364781131927,-0.17869966560610376,-0.453509273180201,0.19231947386670525,0.18205448316613834,-0.13464004485862216,-0.09820865707379733,-0.12845389658026515,-0.020165265313282284,0.24070028415003547,-0.14789322542201408,0.03533212062867895,0.04853516063489561,-0.0022869811727115625,0.034887654095700944,-0.08086220043713463,-0.03959639063639765,0.03923934424727275,0.16250901899657022,0.019045679903451226,-0.09750230868504461,0.04706524165347295,0.03354992713690185,0.24744315008343282,0.2773964549161973,-0.453664245771697,-0.04347714024166053,-0.08892468588738148,0.25658261186956993,-0.12930258493791244,-0.13807342840551898,0.2057162142578383,0
org.apache.log4j.test.MultipleAppenders,0.1263364781131927,-0.17869966560610376,-0.4535092731802011,0.19231947386670525,0.18205448316613834,-0.13464004485862216,-0.09820865707379736,-0.1284538965802652,-0.020165265313282287,0.24070028415003542,-0.1478932254220141,0.03533212062867892,0.04853516063489561,-0.0022869811727115716,0.03488765409570095,-0.0808622004371346,-0.03959639063639763,0.039239344247272774,0.16250901899657016,0.019045679903451237,-0.09750230868504461,0.04706524165347293,0.03354992713690187,0.24744315008343282,0.2773964549161973,-0.453664245771697,-0.04347714024166051,-0.08892468588738148,0.2565826118695699,-0.12930258493791244,-0.138073428405519,0.2057162142578383,0
org.apache.log4j.spi.CategoryFactory,0.1540130567959651,0.03628173572226912,-0.32814927292685314,0.0754671313922074,0.13085598835530332,-0.20593868107587926,0.13677206298433592,0.08764815915012811,0.05230184383349702,0.044413708218742146,0.1170880737101993,-0.07442316941175663,0.15775898419936465,0.1240242866538611,-0.0026169480999033924,0.11149823468725917,-0.23194537565257065,0.12215411871859243,0.14262869593729902,-0.12058282713004256,-0.3722707571814996,0.12764644328212751,0.060946309096929156,0.41631959047399414,-0.14667676099400107,-0.12252552704860767,0.07843250300849912,0.16147947930382361,-0.34239265283532133,-0.05374125870832656,0.052049414101164794,-0.2681334714861552,0
org.apache.log4j.helpers.PatternParser,0.1740635026881203,-0.22330011880411715,0.1671873240890364,-0.48882749378819274,0.42727572462235563,-0.047773087263960776,0.10671249859652317,-0.15057346265086952,0.3322342818876741,0.16246034960809116,0.07477582633422929,-0.16694487186030957,-0.050260268930168585,-0.03661672988166234,0.03912944465218617,-0.14589963791693758,0.1951210518091234,-0.06689099406868702,0.04958928027583502,-0.22312885532944934,0.03891761015817776,0.23335131405494725,0.13799137257884864,-0.0701310895490166,-0.024680319031924334,-0.06623562182435355,0.04648325204511937,0.07938184016192101,-0.026307913743365406,0.09849468131139934,0.15284730335235,-0.12318657373326819,0
org.apache.log4j.net.SocketServer,0.17182316507913808,-0.10630911157028151,-0.4273045551937549,0.1531910919787362,0.20827170440080783,-0.046048554183701684,0.0115174344349316,0.2094713747130457,0.061502073171875796,-0.22171016603426355,0.11889190925911063,-0.09733901478951872,-0.06779135147028505,0.07674515489804573,-0.1088633363456474,0.0900205773562927,-0.06921958080378321,-0.039556878619847136,0.07908148697718058,-0.019346671769209928,-0.5175239813251727,0.15201031470487297,0.19757686304151043,0.25949783745029764,0.05188618504345987,-0.22473213983016976,0.19856405471326144,0.0758478612924429,0.11582066717425611,-0.05692271947089229,-0.17682945400933017,-0.004765972825320221,1
org.apache.log4j.config.PropertySetter,0.1957810768030492,-0.21521058476360905,-0.26452475588128105,0.06646350090630657,-0.02982442800028616,-0.10745638599124006,-0.15711859211256166,0.13166411142502052,0.026726204904030226,0.08533876106297167,-0.18470121826891317,0.024959258398266165,-0.07812702914408357,0.03260517753097361,0.17254089228462027,0.05619791421639008,-0.07486075545085401,0.3260256114522823,0.13986586250495375,-0.23437305648028883,0.36288090745727203,0.04320784951247482,0.2310049082879613,0.26101069763131995,0.29291115925200856,-0.13899111763548153,-0.1697992071374357,0.2274488897590609,0.1814491309964025,-0.10710045531876101,0.17478479798976324,0.040271133621378394,1
org.apache.log4j.helpers.ISO8601DateFormat,0.058988585735714534,-0.08802403991789613,0.05454321433317004,-0.20220207961695533,0.19430401455296079,0.07393608763833462,0.13251825937403894,-0.12105808191762187,-0.14702837816082068,-0.07425580922013056,0.09295809293646115,0.06227746146707796,-0.026760254539469966,0.13411819234306563,0.4466159681510647,-0.10599699252232143,0.049939626450310616,-0.01889285915431755,0.25241181472439583,0.45732422324066385,0.14577845627686561,0.32570975921556783,0.018652426581184583,0.20432761498117577,0.184540338051274,0.23208069055088834,0.1408311006199682,-0.12076310642346362,-0.09836207968420686,-0.08803837289626107,-0.11373548269031766,0.05078869350128315,0
org.apache.log4j.helpers.AppenderAttachableImpl,0.1696733797295941,-0.1379771611536977,-0.08833909925363202,0.007305310989041569,0.00868867525869835,-0.1298688382121348,-0.24097891435692192,0.1273302823655046,-0.39584775910581377,0.4021964172435427,-0.19564989413119813,0.2361768365193184,-0.10811179671340057,-0.22720756336762196,-0.09293785664840319,-0.1950361696261011,0.12132325058577356,-0.031209622800049276,0.2842155260737143,0.07832692979572468,-0.24447207011245847,0.04175888218528552,-0.014967227096091133,-0.20809457468005615,0.20331212484463215,-0.1251919074690108,-0.036422551951833665,-0.23057918144325903,0.031746083618913984,-0.0553899487693717,0.07534597246647597,0.04107649412569416,0
org.apache.log4j.Layout,0.3792431364206596,-0.22779444059512974,0.2670421486007311,0.3247598604006881,0.14236423061337794,0.2564548761927074,0.1621298063928187,-0.1570448185933604,-0.14764481195801585,0.01598563792986526,-0.05726372063943314,0.09370338294047027,0.01888467444788773,0.2514007475628182,0.18126457576009894,0.19759331901786928,-0.05873885575749057,0.02486647412824363,0.2160845562611039,-0.19288791907425498,0.07937828900418217,-0.23099362829996334,-0.006630327724666021,0.19309658207750147,-0.10697949792645181,0.15326983918955187,-0.18506788071617086,-0.16272462504042523,-0.031918917391369934,0.08876625791697591,-0.14066946964394583,0.1078756954266974,0
org.apache.log4j.net.SyslogAppender,0.3031673235440161,-0.44343953411427,-0.09017281748684267,-0.2175283229318791,-0.565770443080985,0.004833184518505514,-0.08212060677657357,-0.047666600676185986,0.004285610487351211,-0.058744693733106715,0.1864162506903964,-0.1913748423906484,0.08172731144915157,-0.13109791797102688,-0.055106965247255,-0.08637354421925258,0.12583963202621662,-0.11711221738494496,-0.17579844120942767,0.0281449259819347,0.003338416490171309,-0.07550249422637977,0.30443161072766445,0.09199762154271038,0.13025012353475782,-0.010415339610398614,0.1523625916417756,0.05457334087988949,-0.028902059487938853,0.02644787209818786,-0.06481130179693004,-0.023545578236905094,1
org.apache.log4j.net.DefaultEvaluator,0.15772179961581687,-0.2632627109091972,-0.04655127043033541,-0.053161075110801814,-0.03638708382384103,0.03873083935776853,-0.2652692179580922,0.17223448858215842,-0.2922303101753108,-0.28928458626041414,0.09049898709840003,-0.03280688708213945,0.10453511628802875,-0.04008106490039165,-0.06448634670163203,-0.11740392340046864,0.02283984666178011,0.10530122286754201,-0.2085643271172406,-0.18650874511505353,-0.0976727329865339,0.17079008442960603,-0.23903651689828617,0.031792993043592954,-0.15009911096477868,0.12379988288647954,-0.10431220868525709,-0.09548154245130983,-0.24930645227076476,0.32068564746008776,-0.3907361364515219,0.16390682521141334,0
org.apache.log4j.SimpleLayout,0.2649275851029234,-0.04505103262137831,-0.11552268434368831,-0.1626512817333529,-0.10636566683339134,0.42783007598315526,0.3496107628979062,0.24481612377418827,-0.12113042355615668,-0.05975929278970563,-0.22093434970025622,-0.31566641621509556,0.0719703650806601,0.011040457376626492,0.21741760558036335,-0.18088081171935916,0.12356544151890436,0.22204927222541632,-0.13129769145712664,-0.18973621051452155,-0.12349760034128716,-0.09451049947847875,-0.1022321244424514,-0.11766368005183325,0.15966256537638304,-0.13939473430298885,-0.050588396205697155,0.057236702352584226,-0.13669112272724188,-0.14645935776294744,-0.028066472786542316,0.038768906836098495,0
org.apache.log4j.Dispatcher,0.14875133475465221,-0.168230691879432,0.004110120446640733,-0.09260608241484787,-0.052956242812595165,-0.14549694935888055,-0.20588826039183755,0.2486240381275205,-0.23495504726168243,0.25742755244720955,-0.38599076215656464,0.25045240874149477,-0.12317916042382872,-0.2199023813627391,-0.10540096014917104,-0.03629317664565788,0.04919025066579871,-0.00015280826702555972,0.3637422103212332,0.005210948244609556,-0.21231205102207187,0.1654474590254909,-0.2561145060859829,-0.26770726078274887,-0.056405214334700124,0.06332910352262197,-0.000881250008307696,-0.11937064451146844,-0.11986856171119058,-0.04213509858852168,0.13050134105849306,-0.06762569770393427,0
org.apache.log4j.spi.NullWriter,0.029612088994057238,-0.0794331084173673,-0.02077609035488415,-0.1791901802307921,-0.07771028214180407,-0.032713443426337814,-0.17513702853582302,0.1738151165869228,-0.3810117472201824,-0.1278640344563945,-0.05644059620807694,0.15957839104861576,0.2344091701441105,0.039300764691324014,-0.0015858703276392728,-0.01888976964195847,-0.12808988480015124,-0.0012547803467858108,-0.22093152659785345,-0.019403684788687516,-0.21877911641494238,0.1411882732233485,-0.16663283662615352,-0.04729278790368736,-0.36487383997802014,-0.011495022267843782,-0.1260346662616569,-0.09397373479682451,-0.46560557062317043,-0.04745394007142651,-0.10833102583803068,-0.3051282164972877,0
org.apache.log4j.nt.test.NTMin,0.1654844466370429,-0.1697938484087383,-0.3023654565464162,0.19709289330494673,0.20142423036232882,0.1380082880437114,0.00829653584588254,0.02604820187836836,-0.11921652256799975,-0.21357947077564998,0.09330658327039433,0.00012376641814351654,-0.12852495463794433,-0.019982216379944816,-0.04239825167386516,0.06573176422936461,0.22566016461455893,-0.4596961765209464,-0.22679730953199959,-0.030184854924245563,0.19229383518004226,-0.022722300729536814,-0.2868390480726045,-0.05640986337844458,0.29879363919235485,0.25754304460418975,-0.10812626108653607,0.0812105905669601,-0.0764110953463436,0.1106061262598384,0.13535307847787112,-0.11725821637856527,0
org.apache.log4j.NDC,0.2957975612378476,0.26464842360682367,-0.051543837259241936,-0.09095919757994607,-0.056635375673484825,-0.012874848251000355,-0.23162946781511345,-0.2791239023934953,0.22980884891889544,-0.2977763150686052,-0.202332830701048,0.5100403275820002,0.14741664851218106,0.18275711264212974,0.027323901734796315,-0.15302848246817372,0.1269011070322589,0.05119223222870458,-0.12108665943343043,-0.14325372459167468,0.004073865578743675,-0.05785711620316853,0.03182051796057467,-0.18916477456852726,0.06584401726059848,0.0021193421746715175,0.2006100222906547,-0.1705956911252803,-0.025807970646240012,-0.07891047916767177,-0.006934547387236205,-0.00663653476806286,1
org.apache.log4j.helpers.QuietWriter,0.18212670682863744,-0.2424107441676678,0.19039264388017849,0.22973174221590167,-0.2719946182660506,-0.16031869529680517,0.15190611534269763,-0.2820877110550193,0.09053447243565908,-0.21699377538130013,0.1419537117825376,-0.24906665126453525,0.06773950308506396,0.11810935571768967,-0.1450368350206586,-0.19604957220467237,-0.16269018355286005,-0.018209305081809263,0.18083405143811926,0.08253683237049284,-0.09399716340248614,0.1183212222699629,0.123228423645595,-0.23298966489845874,0.2622858972626969,-0.09660658053895209,-0.2497242705274133,-0.1481238694254353,0.03906141631107855,-0.20841036840933022,0.1845656417260125,-0.034041272778640816,0
org.apache.log4j.PatternLayout,0.2730625599834552,-0.06325984861593215,0.05239894786186805,-0.13504495723418267,0.07518463472842214,0.3522222026910498,0.3089094190011166,-0.30394872561800645,-0.3347429687226261,0.00989224962920573,-0.18644323575536823,0.050730223170601,-0.10091358165473406,0.21569091432105966,-0.05793812717768757,0.3281506144605225,-0.071480908687595,-0.1923619272678384,0.07113135915142399,-0.10444756921814856,0.11632276199326945,-0.128059236870555,0.09636048260557324,-0.11747266128030409,-0.07304549806342947,-0.3104519136488216,0.005903439085657647,-0.06914690634886986,-0.01137801491718397,0.21269772597916783,-0.029574325834069336,-0.04271452413544155,1
org.apache.log4j.helpers.FileWatchdog,0.1960586479207717,-0.019121762882415107,-0.3040450034379881,0.047838159324986106,0.046021557565434065,-0.4031721320681145,0.03388325850023208,0.011934139654519102,0.17010740067004,0.15379767699781718,-0.3120004679353129,-0.11691886605803556,-0.13074323893995643,0.16963432373610837,0.08897575339776351,0.12094748586952385,-0.08055174191203873,0.21727581704356583,0.16683735408080327,0.07105031892673339,0.29076502821538724,0.07951634633351078,0.030688315033647565,0.12458419092637082,-0.3515793358623297,-0.01577745285858889,-0.01937646827012493,0.1727788761763377,0.1520573677960695,-0.2780007993766044,0.06087182359500139,0.12799041588581964,0
org.apache.log4j.Hierarchy,0.2549982747208986,0.13295520020165832,-0.10155187688653645,-0.023607226666895045,-0.005565478943466276,0.046356589846712024,0.3751969327047858,0.457758095054885,0.03859196633295861,0.02141890164355467,-0.09098770045100356,-0.3732797916826985,0.1836310285318448,-0.020084611917969508,-0.07690010755112309,-0.10045487820607266,-0.0014074726721371334,0.2669159278570089,-0.12097022445679594,0.10073234686048416,-0.017520636997998662,-0.08516742216485995,-0.2454404288877631,-0.10541108011942019,0.15446949508215216,-0.021597751752714583,0.33040559933577146,-0.09822137586686558,-0.012216071037445216,-0.0016519369310759975,0.1861843181851467,-0.03662452376935694,1
org.apache.log4j.net.SMTPAppender,0.2598692154052825,-0.36277212496499484,0.0032142239325837255,-0.2414954757795418,-0.4758695080967462,-0.024955611342821503,-0.17268006160771138,0.07379402979984474,0.21081729003474242,0.10554865225375365,-0.03398546701025029,-0.13475765726751573,0.1477244908274534,0.07010345796753266,-0.08329421860427234,0.07897747825215287,-0.1581020588098912,-0.24278361989161049,-0.11629252598563998,0.03808073667565535,-0.10427438779777831,0.05705942916102466,-0.026671217007641326,0.1428734942930452,0.040803677839639285,0.11196395826660606,-0.09749646233826736,-0.18914004435423518,-0.13677779239513635,0.3526940602644843,-0.034559084344007535,0.16565215110925685,1
org.apache.log4j.net.test.SMTPMin,0.10847040177127643,-0.21655498026653086,-0.627653910233961,0.16594879567150664,0.23363103955388484,-0.05382109779588769,-0.1028747370252849,-0.12088421630413981,0.00266710195829201,-0.2237668799429592,-0.0876749281274939,-0.20912449334140448,-0.046809241354044934,0.019934818425366208,-0.05351224935370817,-0.017490401566817176,0.19743962295848083,-0.2563422294312156,-0.1555909178969964,-0.013254330330469978,0.050150358915784635,0.048159598483183054,-0.28461179203768394,0.24619405113683168,0.15095894484769515,0.023980817660960867,-0.12005931978057648,-0.005948171412288839,0.06698172391710841,-0.10310884588770113,-0.029459984088191473,0.024284231975986746,0
org.apache.log4j.helpers.PatternConverter,0.15103036353813454,-0.21641833743125816,0.20318565441809652,-0.4718133242755569,0.5284871506372377,-0.14099910363656737,0.0027261922305726357,-0.13723301543986582,0.2330070256334654,0.07818324117721652,0.07904597189886542,-0.13206286555269806,0.008624787904758038,-0.11235447566910772,-0.24239383879280815,-0.0817038664205366,0.05198349449603374,0.025770586788362748,-0.01885586466460265,-0.1559883902919172,-0.04726511795276412,-0.12010210666158597,0.14574634842868264,0.02494671165444368,0.1426436563293888,0.21754526542226968,-0.02396447130979688,0.02761476211379767,-0.01412362668259565,-0.17565754237471315,-0.1390597041885029,0.015464247343763195,0
org.apache.log4j.test.PrintProperties,0.05677937934891352,0.016626825685086714,-0.007105341937529154,0.0031957355275791964,-0.0095887296369426,0.09521775861227265,-0.052430511016757816,0.0428823705728362,-0.017465595686211033,-0.017172660780558173,-0.0993404314637209,-0.01196158373332285,-0.17804288765266563,-0.10379853480456909,-0.04894647432959802,0.04944278188351516,0.03317994979224967,-0.0904130885422912,0.2682199254086439,-0.010613666585185517,0.008872567844692768,0.07618313169869013,-0.04857171599455118,-0.10171078737471553,0.008668573827751026,0.17699474885992916,0.04655690387190844,0.4921928302191058,0.5096666772319188,0.11708368992741594,-0.4832856639290943,0.20492235359713706,0
org.apache.log4j.spi.AppenderAttachable,0.15519339845814037,-0.1356973767707009,-0.17842991585934684,0.15850994399022064,0.11102487651932667,-0.12290672728863554,-0.20663673146725034,0.055217769335502875,-0.23451636625254357,0.4349980931483015,-0.34882965994406506,0.14067134158551134,-0.03430157948070501,-0.22516840449136896,-0.015125048895303502,-0.18635789991597707,0.047230827605088246,0.09505279572244714,0.36172429716313664,0.12122364085696126,-0.02544759098389685,0.0055577258122282945,0.16431291742410514,-0.3303869377283191,0.11664929857139927,-0.004364858683625646,-0.13550938256111525,-0.015528090906584215,0.02404249106502779,0.02535387100250693,0.16648979991943327,-0.0048067176843312855,0
org.apache.log4j.config.PropertyGetter,0.09451987639018224,-0.13313541469532142,-0.1641713348923275,-0.03970865306789689,-0.04474310989706653,0.038631293624797114,-0.08439634218740938,0.1339575844823001,0.10225257207136386,-0.19088661937795498,-0.04980590198661784,0.02559282996660948,-0.32828104717865536,-0.1245290317791304,-0.03977550460466907,0.09727386886196614,0.05567940920771763,0.16047381071215366,0.29483658682725417,-0.1598968744838887,0.18753625589863243,0.12377389666181413,-0.2418529076569959,-0.06733180820884915,0.1889394047423631,0.06060735775474365,0.07786817145825946,0.2986676759158403,0.2672178809332825,0.22968783432291026,-0.37959534607899703,0.2722967503926914,1
org.apache.log4j.net.JMSSink,0.1607652467870095,-0.2556094704220964,-0.3867702013320285,-0.025386233434939582,0.06696037451892227,-0.27720786344894444,0.1473122422104539,0.2652639184016176,0.02628327881280329,-0.11531522301328154,-0.03254083232395008,0.29761985058283685,0.044069583939812494,0.1805537702887747,-0.11184083652359923,0.22187343246740926,-0.14024850245795029,-0.06487370363518087,0.17142690464769247,-0.0910723967649846,-0.3040742298267427,0.18939216840799372,0.12320414054990056,0.18138949782495772,-0.21899189552763912,-0.11962393171170305,0.2091378184162257,0.04708783647475871,-0.12834028884934806,-0.11616188155003912,-0.09068409414706063,-0.03004800436178052,1
org.apache.log4j.helpers.LogLog,0.25002050077403826,-0.11991408213803459,0.21313903680928906,0.17827344048729293,0.049110063666546744,-0.30372060406789564,0.2696060078264162,0.0980250609812773,-0.10556829386636288,-0.19700495207288768,0.0819047151473213,0.12845094926264725,-0.29016873788948194,-0.3786581196195678,-0.008711016995513564,0.025322708315659,0.26579778817001193,-0.12054559394092693,-0.1414599963705825,0.13094274279187615,-0.06505481939255384,-0.18558461329471218,0.3781988544318351,0.11611889024533284,0.008970660039316592,-0.04286129897939118,0.18164753231728145,-0.09354398782157845,-0.007748234844137844,0.06674169488306869,-0.01663816092239377,0.038757887913200714,0
org.apache.log4j.performance.Logging,0.07844413730691184,-0.135028726434238,-0.43794379780411535,0.18388902643473534,0.2112057649511304,-0.15611746280094735,-0.03772523315211545,-0.15918761714200186,0.018513234540424042,0.01987856959346496,-0.25753250511784564,-0.1410648211676405,0.05890617059965191,0.0409432609846865,0.0280124771148526,-0.05323480022075313,0.09383683548430173,-0.13313200990373228,-0.1626980918885724,0.2368380435328949,0.2853679529106008,-0.11235682985907279,0.07589299009024952,-0.23002458105851475,-0.05175157123231816,0.20900572642977314,-0.26950634950077584,0.18624455667039666,-0.15254950757073402,0.17116868422547302,0.2701859786698468,-0.13213263910057907,1
org.apache.log4j.test.Min,0.21744341877927317,-0.21545586141450784,-0.19101880890302364,0.05112884207900383,0.12317944012462698,0.2952878700247311,0.028554251298057463,0.03368948248292642,0.1029355644956353,0.23913688202604638,0.45373980564303185,0.2349060210783007,-0.020496440934895367,-0.07500770727905558,0.439698529334583,-0.0762939991995662,0.06321776403764859,-0.1420500217961807,0.05357515547058595,0.09435389560802956,-0.06401739380751696,0.04612749987727993,-0.15158579143792866,-0.21111508370531998,0.13085560386649767,-0.15113535889884847,0.058349631341631604,-0.09983860669932444,0.22110578381899149,0.09899797157755519,0.06009045701788954,0.05893645530464834,0
org.apache.log4j.helpers.OptionConverter,0.32858178794894394,-0.25043735683033996,0.3721157317712746,0.4484279797930207,0.20491163326843256,-0.04063594907188673,-0.1050656781423123,0.2679092514061238,0.06530525980711378,0.012279000752583539,0.05774171058466942,0.08257054510812165,0.014608665721143376,0.10111250564477726,0.2839535646097234,0.08862491554637768,-0.160301866896875,-0.034629775180257893,-0.23704467611821795,0.16602622346254217,0.12706370749985127,-0.03923187864170017,-0.19274746980716684,-0.16506021682713917,-0.026697622371859304,0.03359076030075289,0.036018927421485845,-0.0937904419303409,-0.032083568877373105,-0.1715173627322768,-0.12044691404487125,-0.013882546036479532,1
org.apache.log4j.spi.ThrowableInformation,0.13857832379144266,-0.27847839854116263,-0.05623430481264373,-0.3992930117682029,-0.1669008678138921,-0.047701259585164656,-0.23783764726899057,0.21528632012083443,-0.46092969419526747,-0.14954998886702264,-0.05713065127322777,0.17710996352108402,0.2478872523002434,0.030753390080290117,-0.004310289257893018,-0.012582444212454282,-0.11060876221088031,0.01740499099600259,-0.20784755925246248,0.0009567946079288069,-0.1892279330200653,0.10032476926774571,-0.15323089342712715,-0.06287306351561486,-0.2501999216283239,-0.07475556564802796,-0.09841933285658445,-0.07706960379346335,-0.23523799390569997,0.04689172870901385,-0.021342133525233176,-0.0687670301677912,1
org.apache.log4j.spi.RootCategory,0.22725494897788473,-0.08804389654003203,-0.31995018411929377,-0.029189294500487847,-0.022596819213001464,0.03793398999546389,0.0240852867204991,0.24908649088812856,0.17505063226722672,-0.25048479856095107,-0.12538812269477767,-0.15484069865992892,-0.09096384959714147,-0.2111144428876672,-0.07757535382027199,0.11891609995619412,-0.12303307806744092,0.2340641195592494,0.2660434735049044,0.005044872186392494,0.03618347589581632,0.15334039491424295,-0.3666059527744924,-0.17142538925384704,0.09999564562404378,0.24616423226517384,0.21481969232647746,0.1386344848357769,0.05805305352517462,0.299225766368626,-0.09114265931383574,0.01451326425687285,0
org.apache.log4j.test.ShortSocketServer,0.1276854271638954,-0.15072608570704235,-0.384457460313071,0.07423701144168857,0.12492086732881127,-0.21792434142357126,0.06650719473504015,0.07029052810714785,0.27385040324708043,-0.034316074506398946,-0.3214824765721712,-0.08088401605425913,-0.10030239841287147,0.13898518622348027,-0.052200383543057484,0.16986433242331897,-0.11076541643288942,0.023344351908232554,0.1479278972546314,0.05057037235002568,-0.22536785794463232,0.1851324235720921,-0.2432240189575359,0.2821052099868664,-0.13869951700756486,-0.2973798667964218,0.2323632608184852,-0.06139604423418898,0.15120440680286035,-0.13922329994669033,-0.08717213526934739,0.1088063868586472,0
org.apache.log4j.FileAppender,0.3065544977246004,-0.3428385408992194,0.1597571480833293,0.08893192130066528,-0.42972725391595495,-0.12738075920172448,0.235865529845881,-0.08496638664578776,0.3175241009654825,-0.03153589270447707,-0.07492617950883995,-0.19321393245046772,-0.004248249435210995,0.13576222856204329,-0.005403802738396803,-0.005033515032216382,-0.23405592714860082,-0.07170925011758819,0.12082256959715934,0.1126824251053043,0.008978483314956737,-0.011402417125137709,-0.1082352702774297,-0.04206777398576974,0.18979941513740095,0.3520266161816152,-0.04941253179854792,-0.20098485732452942,0.03417768330812702,0.05409837565865206,-0.06110344347148545,0.12852853000547745,1
org.apache.log4j.WriterAppender,0.33904718336084166,-0.4802553890274559,-0.030411505563165873,-0.14122697738993537,-0.5626959503404385,-0.06407950557622355,0.09840986539664362,-0.12752354991542886,0.26634137953510356,0.10525592923108698,0.2503126443317075,0.030095167192662427,0.07940429265719662,-0.029527105741888254,0.08771552755429692,-0.03361014565000825,-0.16596957607612475,-0.021063972523337277,-0.009639557993257502,0.09287559180685456,-0.13177852556974834,-0.0990927947085787,-0.042258250986713895,-0.11934544560009208,-0.07821465406712196,0.005087499154468105,-0.05561022080472186,0.09769061962272513,0.13357422920534598,-0.08609230276961274,-0.010470933938665272,-0.034749626687756094,1
org.apache.log4j.helpers.SyslogQuietWriter,0.18416096216271938,-0.23602387203977682,0.14679433374364517,0.11595461824343875,-0.36514122142385913,-0.12267482777437418,0.001534247827766553,-0.2645853288467363,0.23035775911407244,-0.019881558339288116,0.07563276608783571,-0.21316567900103872,0.1378293513864181,0.22110135231423164,-0.1896259024862268,0.014355285059472516,-0.29469278994331666,-0.11319335822466925,0.23587012013845263,0.25633782563274005,-0.04465920377776026,0.08633199765476895,-0.08652375731863947,-0.09208356042488561,0.14623161037263946,0.32993175823825105,0.1758999489945149,-0.05512352627442007,0.1359508673829819,0.07710279843161078,0.07038455728912486,0.09120566825724007,0
org.apache.log4j.HTMLLayout,0.24869078270238268,-0.3725132341371157,-0.1478088735114503,-0.3387655748843931,-0.2640001931340005,0.12016078037104061,-0.08699069486408789,0.1860354437274722,-0.22214919247301326,-0.17354883455886494,0.12754791642174168,-0.026841162144328072,0.008942101060218284,-0.060435621123482046,0.18703090203337475,-0.06152872967235092,0.14598904732709958,0.06942590505401133,-0.30196699384851977,-0.1876213354000994,0.0008758799706419087,-0.11729331057357323,0.049923030216278884,0.13128129827419316,-0.14434237567894637,-0.07183149125054769,-0.3192485616268387,-0.1328443530988439,0.10795441613975267,0.027697137786492146,0.08456360940714026,0.21533826478429083,1
org.apache.log4j.or.MessageRenderer,0.15003570132964228,-0.03471110484845724,-0.01757105844601595,-0.05807808020942594,-0.05365818169303656,-0.171245858632339,0.2900660927916079,0.3916254263527237,0.27875276246993175,-0.015205493408008648,-0.14639535077249297,0.13919538091181885,0.06680330512083087,-0.12141964204763275,-0.20716637690768513,0.06281851392624453,0.08000783609160962,0.1892438106753659,0.19438492993183898,0.05702618900113885,0.3505192377559432,0.08960676926925568,-0.31253043196213415,0.06534590124573651,-0.08220210418085078,-0.18147036689977772,0.25293893825027886,-0.04336867847790168,0.08666843629559402,0.14821182703394173,0.13222053409786694,0.22244151625543948,0
org.apache.log4j.helpers.SyslogWriter,0.15027940013190713,-0.1793709509922624,0.07386834476690979,0.06986110240157266,-0.07942919052563259,-0.15601414819225176,0.035978606357368006,0.07284077189901832,0.3130093035374797,-0.06943973892029322,-0.2500125682119207,0.14545084088340987,-0.2345467736053219,0.12538784845482315,-0.008114535957227683,0.24961642667201236,-0.15671566363866915,0.18916059312315014,0.3130917013443486,-0.026762632710608927,0.16524841323427503,0.16806394482377146,-0.4369555470159864,0.006634010980605785,-0.10145893007655696,0.0008972465163253766,0.2678286134443379,0.17980579702268865,0.08467175320415196,0.1689627086554137,0.10713556411422087,0.10451965013401461,0
org.apache.log4j.Category,0.6038595139405936,0.6389379100157391,-0.0061533345446851,-0.06493477222481876,-0.013516923446320958,-0.07090872773179749,0.036538671337619726,-0.11152325826975136,-0.033783501553309524,0.06090523486187219,0.017149607840473265,-0.118756468728599,-0.06562042813574284,-0.0509077193997882,-0.1032484359253725,-0.07523695523875004,0.030327630206382853,-0.005249115218760985,0.023723288072443595,0.16385511839802314,-0.15339033005340744,0.010334638107911572,-0.06197657450952407,0.11934446722957216,-0.06817470903745729,-0.026593069466809123,-0.1762866366666161,0.07826787971368301,-0.18465913194172684,0.10122028764965557,-0.06402163673085472,0.01812684221263396,1
org.apache.log4j.Appender,0.3154658263769296,0.002235100905181791,0.004995962130022878,0.018253553092607643,-0.10253440526136443,0.15682992256791314,0.05030319678189219,-0.0725005114830165,-0.2904144071615275,0.29070140241475967,-0.29881282384765145,9.955802503284663e-05,-0.011074092990822047,-0.11567780476492148,-0.048238972855055795,-0.01604095665779531,0.02209321960651195,-0.23449581444141254,0.26573880876597317,-0.12045503967487078,-0.029587591287391243,0.04673754044594036,-0.019362489768743548,-0.10437339413913643,-0.23591860959241315,0.3641678680952456,0.07156791632204293,0.25649197778589866,0.29041045387295816,-0.23545237186357587,-0.11780983668915201,-0.12338822017438607,0
org.apache.log4j.test.CategoryWrapper,0.2055811395265922,-0.26092550256795616,-0.2731108414380711,0.011407747069018344,0.06917389673070465,0.23794144467302153,-0.01682090189373029,-0.18143589533848173,0.138976815261128,0.3135797325908038,0.3828027902423317,0.15119640337498924,-0.0031385591949608486,-0.2973231322543893,0.16270871620418065,-0.13150087989741907,0.09368398405602393,0.2622226300509484,0.07364367251284172,-0.05947783980157663,-0.0043392988303631915,-0.32012918377506694,-0.1143616954168925,0.030920395926597084,0.041128166629418726,-0.12587868776009717,-0.17572046846287587,-0.0013993119056718306,0.09940423163508523,0.07777849798115853,-0.018036442736271453,0.18276124857109294,0
org.apache.log4j.helpers.OnlyOnceErrorHandler,0.19042164286520938,-0.27521006943822013,-0.034656266678774285,-0.14189136745128972,-0.4560049876545923,-0.11041723290065002,-0.06350705773599429,-0.08161663911934744,0.3177083441063892,0.14888155793804303,-0.11249744513796016,-0.008144300333028102,-0.02620122854644716,0.007596947869083921,-0.17316316798395326,0.24595215031163217,-0.14480818283189162,-0.12019992712227275,0.2090773571942031,0.17566608039853046,0.1285973547088786,-0.041380730083379946,-0.07092496529060051,0.10146189259514295,0.08187042890835473,0.07979867057992832,0.4250952016663146,0.1823629016709725,-0.09827117923476612,0.06468126459015372,-0.11609606608221179,-0.10427650569058974,0
org.apache.log4j.net.SocketAppender,0.3111046709733235,-0.2335477221617658,-0.028218665152556006,-0.20491436215428804,-0.4254148972181294,0.039023756272226456,-0.017237763644611402,-0.11332563281841143,0.10568587858499885,-0.08911161737469596,-0.3532565775725055,0.25256161775039515,-0.04051201942974555,0.1068843221759159,-0.11607809849175126,0.10070656631157107,0.05958947244400056,-0.1475044292020698,-0.042598125316755844,-0.06897519428942359,-0.050349812873805584,-0.18833918773712643,0.21621012791177477,0.17922528589183587,0.09073087290246766,0.1585214417627986,0.3709786291059343,0.06050223302989559,-0.06375020605375901,0.08447427457400324,0.030861289593738725,-0.1741209769625893,1
org.apache.log4j.test.Hello,0.12204841645689647,-0.12025235843827768,-0.42666655458323144,0.15473457865592702,0.20303012875387091,0.04375037653238038,0.22122589815890517,-0.05379708149522483,-0.10025277875377823,0.027189472400167596,0.11028324674642095,0.14017746607916398,-0.005421606632799421,0.04529759574712708,-0.12451752361922314,0.10665716614236928,-0.00964305613497164,-0.5090325191877044,-0.10241757118792169,-0.016939714666867795,0.06285477593047827,0.05163484166268658,-0.1997699298297873,-0.43296321902134943,0.17200914372614268,0.025665138010527402,0.017517963007302413,0.04649239003021174,-0.1449161269248219,0.06923631122166739,0.004909214310320206,-0.18874387660759973,0
org.apache.log4j.spi.OptionHandler,0.20095390371740177,-0.18190745614512596,-0.16212555792408764,-0.03168179790872957,-0.14081249765416987,0.0011941346948606004,-0.09495116172032991,0.0410400236895916,-0.019101873057722974,0.18589370277192394,-0.03637542794142556,-0.20252682848386125,0.0640126137950154,-0.019505282729436756,0.05764224580833361,0.011281640568176158,0.1767910596158396,-0.14789823044621625,-0.2267419204640792,0.023260301277645383,0.11660293047695591,-0.12588669297821845,0.14036154000136622,0.17747398502296116,-0.45126327586546183,-0.008002550487108849,0.4296467716439518,0.0487186991885014,0.3583388406139319,-0.21514406231039038,-0.16287921945072478,0.07681018868781753,1
org.apache.log4j.BasicConfigurator,0.3068016706818482,0.06662368376020654,-0.12501351907456612,-0.037590605808560267,-0.005245993127441098,0.31469814137343266,0.17477500861695439,0.042197571366954845,0.3160853031403071,-0.02601180120192586,-0.20951567901438528,0.34796918406353305,0.10041164875139426,-0.030577427192395253,-0.075964987260049,-0.345350798775951,0.07435531437521836,0.42378448352992915,-0.0345313469875503,0.1385470615884717,-0.1547058162336211,-0.10948480507499882,0.04103994870621003,0.15223685317303462,0.14822014590598553,0.1301999997405213,-0.1607289868006552,0.11561484090100434,0.01125701125671433,-0.06493946203122705,0.039140734941566745,0.03306683671236242,1
org.apache.log4j.helpers.CountingQuietWriter,0.13309502708364082,-0.19818371162448,0.08324187085668386,0.015189529535853775,-0.372701649176299,-0.1720216780539279,0.09188302125678338,-0.16537100948886582,0.2910853687221993,-0.014145485266506512,0.03305450566893917,-0.16279407384138778,0.011006375918345374,0.1344397461541984,-0.12092442938323528,0.07464993101654749,-0.3032927111203878,-0.21037185476269826,0.1980322752545009,0.25353624769994687,-0.031685827200641656,0.0220266302684331,-0.015146945167614195,-0.03435699652847588,0.26601659636583347,0.35537055464572875,-0.14438784478693534,-0.30153357844924844,0.0016618677524617544,0.10472502514816513,0.0412120801198898,0.12850687676943837,0
org.apache.log4j.test.L7D,0.11329102066744945,-0.24521518682262466,-0.6723474060108258,0.14631787835307744,0.2197730775455543,-0.02911151985541086,-0.12320081040876564,-0.05174268387464539,-0.00889966334050631,-0.23569898168749429,-0.05045460868584832,-0.2049395967655407,-0.06357312583154506,0.03296920314708304,-0.03593591020833232,-0.014245769175514662,0.06035660616393572,0.015791601226285527,0.03476037386274972,-0.13351288158546548,-0.08502650789418786,0.13689389846797795,-0.07911786311209483,0.2459798182799777,0.02775328975000035,-0.054629817394802146,0.022853491955013867,-0.17191266678136638,0.1339463005990687,-0.13391244682276157,-0.2672746210753751,0.15154899880837638,0
org.apache.log4j.net.JMSAppender,0.2527169787677753,-0.38630223440960343,-0.0447070852873814,-0.2846901774679225,-0.6019436622619412,-0.13029105673561425,-0.08022804654555084,0.011005824191642049,0.20092164496954187,0.05973649995440768,-0.0969682749400013,-0.06263585759809544,0.05879546895271948,0.08767185626291535,-0.11805174167798504,0.12670321139825239,-0.22460466424244274,-0.1748697562858212,0.042268167093880184,0.10868608429364576,-0.011596931565396611,0.027031230872182833,0.05386425087611715,0.12148349084615435,0.2155930632062981,0.18890749717629599,0.03945930475113271,-0.02888318258373263,-0.05231073168274736,0.10463960853021823,0.08302125509612818,-0.03610902457494296,1
org.apache.log4j.spi.TriggeringEventEvaluator,0.16450539778812048,-0.22191379989835983,0.10914813635344088,-0.06936817004766174,-0.05417553878715455,-0.028037493002236385,-0.24246725871975422,0.16451064880617783,-0.2765385949063502,-0.18228221010092419,-0.02291921184830463,0.04567572532826013,0.21964375956435656,0.055876475691309054,-0.050903437829579797,-0.07695381570928062,-0.09063189310979763,-0.0014854951360071254,-0.2697210810895203,-0.021622755604984435,-0.2568347059784644,0.1831853898395733,-0.19714846877901873,0.023935312144648987,-0.36106894391746536,-0.0032336556991380844,-0.11385619787275152,-0.04213585970337863,-0.2261598642588351,0.33617784694755976,-0.31933389232331716,0.1163984685790238,0
org.apache.log4j.config.PropertySetterException,0.13978428329693202,0.03706205895586759,0.03287003971752462,0.054275170087847116,-0.018467331229748373,-0.08761853897763236,-0.04458569730738817,0.09617039218104954,-0.11588253674334592,0.1313439170331047,0.06987802338846688,-0.044308233541972095,-0.10617724853596376,-0.04038933421549254,0.11164251559785211,0.0865168223689337,0.0723887410802684,-0.2174250800802027,-0.11013656909470888,0.012191250159055873,0.19468151704486622,-0.08344823325168618,0.12014126094789676,-0.045255497747511496,-0.319299937235201,0.1799831752392515,0.3777355686432565,0.035789805734301544,0.5564347149542336,-0.35944624323019453,-0.2025434032699036,0.03361734199050429,0
org.apache.log4j.helpers.NullEnumeration,0.0611737226265121,-0.16962762701557174,-0.6117557161608779,0.16318233744726185,0.24535407232756085,-0.14000820111957765,-0.009967078472121521,-0.2478483969727562,-0.002466154151882419,-0.009274981428966723,-0.11575452095176463,-0.03821372882413345,0.042706460584279925,0.015105526264491255,-0.044196725383268715,-0.002204043471246215,-0.09556894214791896,-0.049829972711034926,0.06798886938740303,0.09958259063329196,-0.10611732868533799,0.07868093936928627,0.015957344493494313,-0.23329961080174094,-0.09753603197136228,-0.022271532216390194,-0.10662694685643488,-0.23520006033200785,-0.2267326213104015,0.404998088837298,-0.12326683450258841,0.026567325127679634,0
org.apache.log4j.RollingFileAppender,0.1755299014934814,-0.2502594743993459,0.04883901851037687,-0.022647015236406352,-0.2551765794542753,-0.24762762126779456,0.22845317031895918,0.06403748555875641,0.09721818929856023,-0.20452599099086802,0.03658450985391764,0.10934543547709895,-0.24973633188926206,-0.1389419806387898,0.14480821804606536,-0.041647731814979556,0.10955117343422101,0.04454600826447117,-0.15348511091412745,-0.04164652155236672,-0.056248137682001605,0.13837645186839453,0.027795987130659734,-0.22602620830977616,-0.22866108272956837,-0.34237366770145083,-0.4049764543949873,0.13645021402225171,0.05295680108221738,-0.24210401211183918,-0.01908357307019431,-0.15689971500718783,1
org.apache.log4j.AppenderSkeleton,0.31171933843134286,-0.226836371976396,0.28522901406673556,0.41974063510886817,0.05572861230998048,0.043565609073022295,-0.09431958859811801,-0.1638855567769778,-0.2121079753880618,-0.03970720603475499,-0.0727231330235324,0.05166411987032412,0.033243966399177656,0.042202047123420336,-0.12098462003636237,-0.031190605190760317,0.0913588748654302,0.11102759135439166,0.07214198643105475,-0.18650251787334998,0.0506445568302935,0.07834244889699712,-0.05727799594211093,0.3172821581160619,-0.022485067444317067,-0.010778675537716172,0.18675292452159775,0.05294557456735653,0.06574343748933083,0.236338294908627,0.45622291887695104,-0.011325407578259668,1
