name,vector_0,vector_1,vector_2,vector_3,vector_4,vector_5,vector_6,vector_7,vector_8,vector_9,vector_10,vector_11,vector_12,vector_13,vector_14,vector_15,vector_16,vector_17,vector_18,vector_19,vector_20,vector_21,vector_22,vector_23,vector_24,vector_25,vector_26,vector_27,vector_28,vector_29,vector_30,vector_31,bug
org.apache.xpath.res.XPATHErrorResources_sv,0.00368212257195641,0.06662020288757033,-0.020754750648291735,0.09271832081404525,0.05497814373095926,-0.11488575360402942,-0.05633543890257061,-0.01578380410913034,-0.037802087305506736,0.024141273558000245,0.08909115290113312,-0.022785349679907245,-0.002170760251508938,-0.047707307669016596,-0.2764267909474035,-0.17644317421468386,-0.03884042554537633,-0.29931836899532027,0.08063893245882947,0.1025605565889921,-0.20161854394024975,0.04485181708597457,-0.050864758162008396,-0.20249310610397117,-0.33744310070899064,0.019578833886278877,0.5634218984535159,-0.2961181092932182,-0.3303175572957069,-0.1462355677178562,-0.002581069617381819,0.04824333316674004,1
org.apache.xalan.xsltc.compiler.TransletOutput,0.44598816487639065,-0.0565524205657601,-0.8108837967984519,0.0052801228725838,-0.0869261151931104,0.07165610477009512,-0.05806373505896724,0.015832304463183858,0.03301023610735956,0.008101840585415757,0.01506836713893984,0.08416834401698017,-0.05314600915254248,0.014689542564089436,0.04617868664860944,-0.045074405428997544,-0.042372102939826,0.05172239409217088,-0.05740124709849643,0.06477574652228878,0.09517367535148072,-0.05989547757407838,0.07217341680471123,0.025198099507325933,-0.1502377181944562,0.006235324862413936,0.00640500913032539,0.1400083968334832,-0.11824815715064481,-0.013119168848593717,-0.020916452745136063,0.14510451040750735,0
org.apache.xalan.lib.Extensions,0.01959455374254097,0.23390721064877038,-0.040411587751134306,0.20269352538201285,0.20111917822540942,-0.2882857533954113,0.15964744171970977,0.4830200136421467,0.2175859498666763,0.12038928852331346,0.17666266706661304,0.005396076468790135,0.1960714573322003,0.0779576343331846,-0.1447152300350038,-0.004794986398171234,0.11943824703001454,-0.04734055349588817,-0.16074460236684657,-0.17841425445119166,-0.1215856704182838,0.23144460772686906,0.09945149912308618,0.00892168268078761,-0.09275197657097091,-0.12128623659396152,-0.18297140812814702,0.2442154975452793,-0.030466972998111446,0.24110734461339833,0.15635644848746585,0.09397447142894941,1
org.apache.xml.serializer.ToHTMLStream,0.0068136006651601565,0.04978675865941437,-0.004771911379087099,-0.04655327444257384,0.09044488521741752,0.05405520243022286,0.06369327203030654,0.14917192402561277,-0.15155632265479646,0.22444200515147616,0.17591622712410196,-0.05647370618067853,-0.10278212465589036,0.23421576344442835,-0.17983152952262016,0.15792805217842287,0.011702644275592915,0.3222644245915762,-0.19999574855284766,0.20694227527095094,-0.055676447108401486,0.05224824296110838,-0.03977077135371628,-0.06338929733441143,-0.02330090998737631,-0.21348978989433595,-0.4602418236877261,-0.4740440611074844,-0.10830193595672855,0.05585428339863324,-0.17717840310346847,-0.02335940087203977,1
org.apache.xpath.functions.FuncConcat,0.02019422672424418,0.22665900143831383,-0.03429637553106088,0.20645048198415122,0.16255583787813535,-0.35130703753325637,0.03500472176727388,0.19689800888802234,0.22986770534742695,-0.03289400763911041,0.1261877058382881,0.06263304884270675,0.10070145662813883,0.030591556144152668,-0.05689474661626257,-0.1993800685309561,-0.02615732071046783,-0.1542079867891658,0.13153336890252915,0.21276886434358816,-0.13895237581188605,0.012462414962231182,-0.018468910174811202,-0.29260539222567916,-0.19156257004324131,-0.014913366346991863,0.4536439717595026,-0.20640281400344543,-0.2671916102350433,0.04285954550442773,-0.18754595387075243,0.024037305392967518,1
org.apache.xpath.patterns.StepPattern,0.14566642676726207,0.21247310543763798,0.015584782550716358,0.29641534264741326,0.06937876942974859,-0.1421246241487621,-0.299388560515392,-0.14434339435707697,-0.1323890487013028,-0.013261229680542778,-0.10888798013414529,-0.05210605306289328,0.21142578290275782,0.1963936588016304,0.06541546315147818,0.36506249054077416,0.08618891907908179,0.05977650615509706,0.33507655273324155,-0.01750718148127596,-0.2134529636684272,-0.09260146109024528,0.25047516621813615,0.07569859034298011,0.19337661578523668,-0.25384024225684976,0.06355156923408802,-0.05000041443113958,-0.020636921907091745,-0.18473005918058974,0.20331850118987227,-0.16281011631673822,1
org.apache.xpath.functions.FunctionDef1Arg,0.020157981302173365,0.24974237770541885,-0.0023589687409810056,0.3246717627743171,-0.08455071806350975,0.03765421726541919,0.30041627124263565,0.1250118756615958,0.16880839140650683,-0.07069877641293501,0.0712791036417627,0.005374940621245089,0.009496781169233689,-0.1226966512379545,0.007860739468547321,-0.1844168845780487,-0.13785588695620873,-0.13956069654747819,0.2938271320951893,0.16662815457627683,-0.10578425624299226,-0.023228822428086965,-0.12140360794018608,-0.14267335887791016,-0.15138229724540453,-0.0493242299665717,0.236039942759583,-0.40622163446725423,-0.3885706050928596,-0.1772293953261678,-0.011271788597748255,-0.03911956202830046,1
org.apache.xalan.res.XSLTErrorResources_zh_CN,0.008040246109152238,0.13960604819717834,-0.03139370016395506,-0.1420211486430963,0.09862921744795626,-0.19040910011864512,0.32113990112375407,-0.2481509197019765,-0.09901340935742292,0.07342179936999173,0.08179364515681231,0.03722055431920622,-0.039915241406361,-0.032907523829605066,-0.09010341670004751,0.000528182747549829,-0.019503158881065897,-0.20406887035763965,0.08665435265873829,0.1995646604359416,-0.24504498943098937,-0.08309078826453904,-0.15228672281149647,-0.33217670300598673,-0.3035378901011198,0.041709133968292095,0.41141532974460454,-0.02086736155357927,0.222675943603222,0.13160376724229622,-0.29421661668955323,0.08745364565302512,0
org.apache.xalan.templates.Stylesheet,0.06394837124641257,0.3539852572672677,0.017211615437101358,-0.32234713549789723,-0.076701935728515,-0.04198853861031821,0.016564587228478266,-0.22618445571201776,0.04883861850283075,-0.11300534834901971,0.339154861711719,-0.028359205571474994,0.21010538136895424,-0.18444574442077488,0.08633276540117617,-0.0415658768478573,0.07535095396388551,0.07249366661747371,-0.17487936300287413,0.1117776383397648,-0.09551683754062992,0.32484168281373604,-0.09992051249364368,0.2143645847682641,0.20857146389947764,-0.3977764254172388,-0.004189878739791093,0.06856804534839862,-0.010129592196332646,-0.022860852062333098,0.2038590772448766,-0.12556604509921862,1
org.apache.xalan.xsltc.dom.LoadDocument,0.016144994907385805,0.08303085329869622,-0.024890596436870253,-0.006618870305622551,0.42074543365226447,0.25776747309808656,0.03352177362319509,0.23527003453573023,-0.3772532800913834,-0.09660424907243488,-0.2859662478192308,0.1344165996686007,0.43998693375402576,-0.25521074720496534,-0.028717540349513203,-0.10861333179652172,-0.016283571016277573,0.08817543028987809,0.01839390826353035,-0.0899371841120325,0.09561837202174654,0.15318950150096905,0.027595257798898463,-0.09627488867480483,0.09804537722460747,0.069305616514359,0.12572922720356036,-0.04751205929031474,-0.03985300121394388,0.23702405016622213,0.05208987796914452,0.13162485197366017,1
org.apache.xalan.xsltc.compiler.AttributeValue,0.5262047920038637,-0.05512810713197395,0.05770277258716582,0.03945507199095249,0.021622284514279656,-0.03864426810024494,-0.023932307464478914,-0.028230697798896896,-0.05271082676054727,0.038604434167140475,0.023396989146657384,-0.07264075398204577,0.10018463947469564,0.1671608483298946,-0.015423106462700528,-0.027824171843201618,-0.5348089152129373,-0.11722103186850348,-0.0930111011136771,0.1217679098064249,0.10790248406898936,-0.20036313917201293,0.10839810724264064,0.13680318318835416,-0.1824434828925816,-0.0785609633830039,-0.07074071396356141,0.30156014644409307,-0.1857735187555113,0.29003421538738694,-0.0384017788654161,-0.04204609270062066,0
org.apache.xalan.xsltc.dom.FilteredStepIterator,0.003533563566044658,0.024459503908687272,-0.009767169402769255,0.01445471784179759,0.24371431973604293,0.15067517060728142,0.017417742355926982,0.10955027531667837,-0.29758237533961646,-0.3777754661045051,-0.07504017308433399,0.17650568246335147,0.26919621857355236,0.05554564313706653,0.05849569592425666,-0.25037002595926744,0.14673149553364942,-0.09107337746078818,-0.15704923941058685,-0.06645821846453813,-0.17665852254071476,-0.10047133102240159,-0.13266626177464863,0.06208871573996937,0.03759948296692973,-0.13560660182986964,-0.1476674802071745,-0.0928824728083276,-0.055698385797086164,0.20409992550465111,-0.2781205182025191,0.4482826979095533,0
org.apache.xalan.xsltc.compiler.NamespaceAlias,0.41924000757467084,0.04504449786640422,-0.7410316838997636,-0.14688252179469966,-0.07970005152598775,0.014546615636254744,0.07820524999237187,-0.12491813370918721,0.05336436030864863,-0.09448840900290832,0.048693390882685185,-0.344108380958392,0.12437150258051853,0.06963233979061438,0.13071670703696336,-0.050922238312911004,0.013589015270241351,-0.0070217018065739135,-0.024641014289819747,-0.07089265068037298,-0.06000580229780389,-0.009684604002837266,0.003663396003435076,-0.17437051054819383,0.012989378201008307,-0.04087996066325378,-0.02307808374593992,0.01794577302835596,0.05175809897997353,-0.02988110659194288,-0.054067617838831024,-0.03870712211526565,0
org.apache.xml.serializer.ToTextSAXHandler,0.006419741326198952,0.1312107632948501,-0.05666686733785404,-0.130129589223944,0.17103299174954417,-0.08336353704322366,0.2875717177375016,0.1845642897763857,-0.2752359524725489,0.35651169318253073,-0.02412425015402325,-0.029028781780725384,-0.06176070675891146,0.22828625845438072,-0.4513693888291019,0.09652385640486832,0.030925394984329654,-0.1264947944351675,-0.040476458676823875,0.06829669331829682,-0.1682911317750185,0.1323555747903138,0.029536722077043158,0.15916031192211375,-0.15900070694331084,0.04346288757950794,-0.368145000086623,0.06137773946485711,-0.1608149714421965,-0.043670186425621725,0.13823111218484646,-0.1665088009477619,0
org.apache.xalan.templates.ElemLiteralResult,0.03769428898138935,0.3747908551550821,-0.014259223121047054,-0.3932609297150577,0.12804356463028643,-0.17374111955008367,0.33734894043782515,-0.23303757920399246,-0.07545577024434744,0.07819023324431236,-0.23163090389164634,0.07236001676713862,-0.10136461721654785,0.038248778447878405,0.31375970731447744,0.0376890763620018,0.05191607365903684,0.0899816828248968,-0.059591713164282474,0.3041576901628799,0.08735681313674855,0.038730342539470546,7.473564971513889e-05,0.11713804456684464,-0.00038811702856573127,-0.06627050769159498,0.06993489806758484,0.21180129682495452,0.11490247536435005,-0.2043271730666143,0.029650682415598324,0.2580318410269602,1
org.apache.xml.utils.SAXSourceLocator,0.03850657076675041,0.43473729714096165,-0.050553379640317274,-0.08889439222995366,0.1449671730286839,-0.30170021522073176,0.08834680147306603,-0.043989961508441,-0.019862477276422468,0.09112932983397735,0.3678769179299385,0.02412750411056898,0.11694649964353797,0.03484625915185181,-0.15647130331603235,0.044960415711195405,0.06779774125971731,0.07348427089928875,-0.21070308637006782,0.10113793177058411,-0.12515676596808073,-0.055963966491982334,0.36728734830150145,-0.05013102194721063,0.3239965461841933,0.2475286743597365,0.00018666293495974408,0.04027145215608185,0.17169735718455897,-0.15563921747321624,0.2155555083028751,0.049089786628244855,0
org.apache.xalan.xsltc.compiler.FunctionAvailableCall,0.3814288758662215,-0.043012217443158786,-0.7228705504489853,-0.03936579189699378,-0.07956853878493331,0.07533563895646822,-0.0004799038779313702,0.022308495784102152,0.054318869983230884,-0.036844595546036404,-0.016373576689157083,-0.19360695793642457,0.028548756688033996,0.02819547484504896,0.0944356695676817,-0.08512894710047304,0.1416277431657886,0.14377824964943692,-0.02260102545046847,0.027260803850254152,0.005792502299783867,0.15148492920068582,-0.22868233662087184,-0.09400220001142144,-0.14933565131354298,0.19708080467892797,-0.0278391899986313,-0.015122182542631115,0.1719032451060363,0.1616526517627771,0.10673635211172916,-0.03020983427219223,0
org.apache.xalan.templates.DecimalFormatProperties,0.057270335751964024,0.30405427695344317,-0.1108769226708869,-0.3507023329317726,0.0642547245908764,-0.2241174439923888,0.3268331804833223,-0.3944915604283626,-0.07230768921802941,-0.0199874067709079,0.059055446210115416,-0.06338243736121986,0.0037894849893158784,0.0643106408575816,0.09640799199332308,-0.07380858314678641,0.07341420657906343,-0.015224682687331757,-0.0019500578009169576,-0.18794671500767082,-0.07706530761438737,0.13475620640884026,-0.3021982257275136,0.07189535701114129,0.1289981494439716,-0.15592018078839232,0.09834812024697343,-0.1271724475144575,0.01775816545741007,0.29056983327092983,-0.011233497054754371,-0.32703191010353655,1
org.apache.xalan.transformer.TransformSnapshotImpl,0.024012642631835602,0.27331274417779594,-0.022925792131797434,-0.05518419289322129,0.22996055175321045,-0.09921813653279195,0.18705816569061692,0.07139078776647181,-0.11950197621725879,0.1702638367487545,-0.26661697409935775,-0.04968674424467008,-0.2291296361528855,-0.08788999028714355,0.07274834189915873,0.15648775316070587,-0.0031104433785696297,0.19392501478833093,-0.27306339582913514,0.38659899854251917,-0.07027520781139814,-0.027208909997221687,0.015277096321231943,0.10798976629818273,-0.2853963393802102,-0.25365126086729506,-0.31976248038197114,-0.13660890097578537,-0.06673732650070031,-0.18620948450100058,0.15962554144351068,0.03143519781450256,0
org.apache.xpath.compiler.OpMapVector,0.009248178812388885,0.08380056870067791,-0.008378609866470018,0.13430300277739976,0.031238928901244356,-0.08219709096597326,-0.2162215692198943,-0.11101057349455526,-0.16249015225589133,0.10438123999855753,0.038667556187319534,-0.020403509214260058,0.03443387625946874,-0.02646119770611792,0.012366646133034329,0.07010601529871849,0.24733245380986613,-0.3097314533085989,-0.3365073250290662,0.20795060547116556,0.15779364465384427,-0.08275940018195099,0.22412876839486381,0.1084057731649542,-0.010245666852296961,0.36351683818157354,0.05188519639358326,-0.3313429968475851,0.2542147629209728,-0.09316235759937735,0.16643683229745113,-0.32978343196687226,1
org.apache.xml.utils.DefaultErrorHandler,0.02160378708612957,0.2154156121398222,-0.012534248383515866,-0.04370765315280408,0.13371626651994048,-0.09789241325998067,0.10716011758273378,0.11232303265411298,-0.1058761255205301,0.190705212069293,0.2661585003687732,-0.08356075988282122,-0.1409786908878261,0.15893883034156495,-0.07572506452212352,0.01737153758574162,0.02091747671983321,0.11046177951608441,-0.23474678025451698,0.012606916321662304,-0.22144737352431654,0.22003831417927563,0.32803864653778586,0.0727223112943046,-0.13678159611595275,-0.16279722907729047,-0.22925883441458242,-0.3120226325213905,0.31828140603442445,0.04227126256261587,-0.3275171573406815,0.19794021339463055,1
org.apache.xml.utils.UnImplNode,0.1293651513631692,0.1469078140736872,0.05813833916813442,-0.11413806781681649,0.1391147583759957,-0.06844638891824069,0.09364938263670565,-0.03085911051257651,-0.2068517504157965,0.09217490491627722,0.27922570775546346,-0.07107328424129779,-0.025256996970706262,0.1600249645605976,-0.36196786354575183,0.0283080488790073,-0.24203530087550604,-0.036607998097684044,-0.025912337328430162,-0.10313019817094292,-0.0021994188773469515,-0.0678271449434159,0.16291330923160044,0.012556387106955365,-0.23075023802078806,-0.039379384094360155,-0.42925774836075165,-0.23182051211956098,0.1309591673615138,0.3458115203260152,0.16819662225046542,0.24246018969392122,1
org.apache.xml.res.XMLErrorResources_ko,0.0003290522535460337,0.019328141682564626,-0.009977249539886554,-0.002943325404225875,0.10147098792942671,0.03774137788682708,0.052766763529006916,0.04871502991369544,-0.10309650085685584,-0.02253738013059129,0.17089249486971275,-0.06351399231632585,-0.16789287677301745,0.11095145418607501,-0.19231292014097454,0.13717835671652487,-0.09452805543693675,0.22988647325363798,-0.09378073116268718,0.1404592040931504,0.0037710536760301792,0.06606159130938107,0.08394117241434089,0.009922437890029598,-0.03180108519728483,-0.3312513036019898,-0.3749899187416301,-0.5705927188870342,0.2667814824626633,0.10989728770256053,-0.18257456257855018,0.2159143183280194,0
org.apache.xpath.XPathFactory,0.014652459871366576,0.19393382171752527,-0.04588694854693329,-0.05117726115078769,0.03979388695809316,-0.10270540786490812,0.08352592761308818,0.03184289658551023,-0.10693839129388365,0.17811257936999442,0.13987342568419925,0.0008393523361262387,0.041122065578418056,0.21837307872338008,-0.26582845136559585,-0.1316251813126654,-0.019720580664960383,-0.23191842435915727,0.18483905214430063,-0.469775477871339,-0.08387545143183221,0.2332383960310366,0.12500932097761305,0.29326719431857207,0.029527658827052952,0.23916757725915425,-0.017602868630280287,0.029784591263316354,0.3216799302427717,-0.2563046571259148,-0.18389940355033108,0.05364688633724647,1
org.apache.xml.dtm.ref.ExtendedType,0.0006398018852321104,0.0371674992780177,-0.028960670740791207,0.0008385342387075266,0.42016286473192416,0.28318834755907957,0.02185749136263459,-0.10098590649710495,0.13957071904737095,-0.1263828591230195,0.05704232164345438,0.08825740531912661,0.004633221709613347,0.18312410196463177,-0.13509803991383418,-0.2290115637765904,-0.02428766406284269,-0.0762493369746965,0.05674986858929723,0.06211694980338202,-0.02132422761611785,-0.17394579527425374,-0.11434365885389233,0.20104097454083905,-0.2520498256060835,-0.04348660849112383,-0.1428116219437008,0.06505098867368855,0.21570594475950342,-0.3893363462934584,0.10140953536679248,-0.4283589924149815,0
org.apache.xml.utils.res.XResourceBundle,0.00248958331092631,0.03561585728190392,-0.0007217166212108941,-0.031538968451792264,-0.008869366702864302,0.019901583202280453,-0.04613394466619264,0.05638121304995692,0.009305720382760469,0.01911637263406486,0.01978306655598855,-0.006399911911560043,-0.07006664218005315,-0.02566648907822409,-0.09606692060422839,0.07721776461544567,-0.045042106077484614,-0.012980637529171987,-0.03807013817641612,-0.06054462794021158,-0.1534728810937348,-0.011891880478124785,-0.14755470976746973,0.14669578044635134,0.19228335713736555,0.10146870796905672,0.11518622880356537,0.18289525670365014,0.6785277083090494,-0.2637369656685654,0.2203725328862637,0.472753826758681,1
org.apache.xalan.xsltc.compiler.WithParam,0.45386036513697164,-0.04521991290775298,-0.8341837432992675,-0.009873704276898522,-0.08892158112772658,0.06452086455852801,-0.04603709325381075,0.0019729353778955676,0.043334990801664024,-0.013765614571108068,0.002911219688742738,0.05699919524830769,-0.0768575006329499,-0.008254544106597915,0.03325860787710875,-0.07340919140029432,0.056314047627610476,0.08843284396555301,-0.07071887301625204,0.021558460038742955,0.09207510428323705,-0.02254407059373167,0.039018986444983174,0.006217364471820994,-0.13693705290962302,-0.03069599760031147,0.026045255709359394,0.07545652480600902,-0.08379284019810868,-0.0013092144709077069,-0.04478314183733081,0.043798178964331066,1
org.apache.xalan.lib.PipeDocument,0.03160997940863886,0.37424686183706146,-0.03353135333787915,-0.24731660876633224,0.1288569823580762,-0.15561457184591063,0.20899625487378024,0.10531188258284833,-0.07339757606097183,0.14791083640847322,-0.05947234737074773,-0.051106237911018204,-0.1913651907382885,0.048905600589797586,-0.236585842574978,0.06907153734007065,0.0503537229658718,-0.1364526980151438,-0.10954250413955764,0.3945230665332749,-0.3013840112772347,-0.06671967751957093,-0.03546422560764616,-0.21916401357194637,0.13647485292811742,-0.10709428898205517,-0.12444786379329836,0.25845483998297936,0.22429489171827924,-0.10284984443346169,-0.09060003688515583,-0.23029931010576082,1
org.apache.xalan.xsltc.compiler.Variable,0.606640494917065,-0.07400171687034951,-0.4232459100472251,-0.017108020185680195,-0.048708037888353324,0.022997945961558134,0.014924333923011244,0.01118259439164595,0.04528757435565191,-0.0019286106525267395,0.031202428220421255,0.12622301940193115,-0.08037059370347215,-0.030458648993156215,0.00362299091426154,-0.07531900367471892,-0.26190055400943996,-0.1417731360114796,-0.3254656118834929,-0.10623115843552891,0.23080082537973431,0.0007207420552554415,0.049208617036446134,-0.060723401470535496,0.05455727859542244,-0.19031027495043315,0.07034819309444647,-0.030892830323669795,-0.07727866469265016,-0.24880315724111432,-0.1228836843081142,-0.13580279463619513,1
org.apache.xalan.xpath.xml.TreeWalker,0.006045839225270619,0.06634781220215583,-0.009268367310615396,-0.04118944706428427,0.09855699323836732,0.0024100220426299898,0.11780431733863986,0.17157184553281551,-0.15803990333776435,0.22953256452758425,0.2066225999911772,-0.07415255794512006,0.011623185574560413,0.08259696409254344,-0.30589147365842867,-0.018192206806450024,-0.006340247924989772,-0.04371232092732908,-0.04423131913523662,-0.36905350071262893,-0.24105438137211835,0.25599193415452676,0.32548937739267675,0.223843212773267,-0.4479530680034922,0.050370737533210114,-0.0975641999269727,0.0705095908231381,-0.09432477293881715,0.08563605330574738,0.21523075161629654,0.11829245477232131,0
org.apache.xalan.xsltc.compiler.SyntaxTreeNode,0.5797004685609342,-0.05505313453468592,-0.07334867508731907,-0.019485550420019225,0.019758492276316656,0.008197710261777477,0.038713034670484786,-0.009348849073901763,-0.025927350904216637,-0.04367619247078939,-0.024567489303181478,-0.3134027712351361,0.22586077822714046,0.0920472982842444,0.05173767281976506,0.019226261715925327,-0.5936092432161353,-0.20727398579503045,-0.221534947698425,0.010110127623845227,0.06207217485415014,0.055292375028508804,0.056692993855698134,-0.00978735472020617,0.04950511046786913,-0.055352001691251554,0.032395345221328246,-0.07459989905708445,-0.012240333546738156,0.13684382165986453,0.015249469107861246,0.05660293924547322,0
org.apache.xalan.xsltc.compiler.util.RealType,0.39164002421501326,-0.0652083513602798,-0.22837742421586602,-0.0008943373905429279,-0.03274145384167888,0.022986304247037688,0.008440141773375695,0.05504049334107689,0.03207040171133974,0.07891069311473055,0.05851918713722226,0.6951878657015237,-0.31680424281346203,-0.2112569983502214,-0.060233388268641566,0.016653196750442297,0.05393660694168692,-0.0663748957327575,-0.13295016273148458,-0.15434153871923043,0.02559136739954843,0.049369290016745594,0.05665920268299254,-0.03153109109315088,0.15192119304905782,-0.08845106072078211,0.0380485566187434,-0.1032272148784798,0.0004499542228830443,-0.20411070866261705,-0.04178098729824352,-0.010915822507583696,0
org.apache.xpath.operations.Or,0.01861291419825436,0.22220634087003013,-0.04432601524902943,0.2539297261346933,0.25199880531938806,-0.5035012908524455,-0.0601211358047603,0.3607732791396219,0.42426684447200896,-0.1490497900824913,-0.02982180756861657,0.10217035613720453,0.21660477689370658,0.09934946800644558,0.060443259670494,0.2119528775156302,0.07163161733036714,0.12612095659352762,-0.15179374197186765,-0.020571001116603944,0.06692519144644068,0.009796137015806113,0.05896481002826001,-0.018696460343688496,0.11582016282540718,0.10655113400684237,-0.050843208034692784,0.02390460436229185,0.11148563832384162,-0.056888416574775565,0.001062158790843747,-0.13280979939219414,0
org.apache.xalan.xsltc.TransletException,0.018691197805997543,0.08875842602521782,-0.01877564530973551,-0.05255524684355331,0.3766742995414641,0.22561777136476885,0.12612569358509343,0.12562978812433936,-0.26620011131606386,0.16354169199529486,-0.3808369603955873,0.11956244731476191,0.4110637984472344,-0.2864425427855666,-0.01246927392385196,-0.03162238694948288,-0.032537916936571785,0.07674240565100421,0.12472032461260003,-0.03900409474493693,0.2013257284530724,0.28608781410864376,0.11837749235932764,-0.16533253573713724,0.06700371089078301,0.02235042586802205,0.04475488424452659,-0.002621473705208799,0.0074244552979959525,0.10947705879210191,-0.057817439592473575,-0.21196438598181494,0
org.apache.xalan.xsltc.runtime.Hashtable,0.07633941826861373,0.16173519926743957,-0.026067330257403036,-0.09750970675143082,0.30706270088062304,0.17374282400296695,0.12670004583811387,0.03345913076519506,-0.24180007068361542,0.12125951673212604,-0.32094569297934117,-0.049918865210522,0.3997598540016013,-0.28980123024852583,0.14727671935352318,-0.056494557741691674,-0.07761045895160222,0.07156761876116428,0.06421243655513535,-0.2504633985723436,0.1574484175818309,0.199861595458895,0.26554108268939647,-0.249732777403203,0.13826481798204057,-0.06320178645597867,0.030603720903388126,0.01894768165366923,-0.14019656059452237,0.03736491698524564,-0.12338841874706863,-0.18038613551665725,0
org.apache.xml.utils.DOM2Helper,0.00976573540306625,0.11962183507625007,-0.021091612861766754,-0.07866383787415697,0.08701763730092801,0.012441943695061328,0.11420846225875449,0.1797220175208114,-0.1893415185318897,0.3037870304262792,0.464481183544643,-0.09963316375132292,-0.015365805193614256,0.10619811615595501,-0.3222751484009498,-0.023562081282532222,0.008360609489470056,0.15340310176312166,-0.18088595425582457,-0.00980249238488208,-0.2985605314623804,0.23926481204541086,0.3772763991836444,0.18123263780352464,-0.00143411458036364,0.18645102957167978,0.010147283532960698,0.0726637673035949,-0.05011633701867964,0.07510618383852503,-0.08597365934880666,0.14991642772813876,1
org.apache.xalan.processor.ProcessorKey,0.023062679496639326,0.20830151384383014,-0.004779287970409495,-0.21900275495552007,-0.013539513761631193,-0.0902472826454596,0.0670824346473444,-0.2601476446777486,-0.01729973813893888,-0.052251282944762494,0.44324839103723845,0.07360614579044984,0.29547165717258395,-0.24466043173215507,-0.10401279909529236,0.02151269880017086,0.03675400863247227,-0.044929737172222144,0.030420380867521784,-0.12093940881240832,-0.001441590458629525,-0.2791699520274505,0.08034354330110258,-0.5470674049097282,-0.20766017317266044,0.07995227332490311,-0.04481387488069969,-0.030237129995484,0.06805028363986668,-0.034011042118024165,0.03732985741140927,0.04486422504429676,0
org.apache.xml.res.XMLErrorResources_en,0.0003290522535460337,0.019328141682564626,-0.009977249539886554,-0.002943325404225875,0.10147098792942671,0.03774137788682708,0.052766763529006916,0.04871502991369544,-0.10309650085685584,-0.02253738013059129,0.17089249486971275,-0.06351399231632585,-0.16789287677301745,0.11095145418607501,-0.19231292014097454,0.13717835671652487,-0.09452805543693675,0.22988647325363798,-0.09378073116268718,0.1404592040931504,0.0037710536760301792,0.06606159130938107,0.08394117241434089,0.009922437890029598,-0.03180108519728483,-0.3312513036019898,-0.3749899187416301,-0.5705927188870342,0.2667814824626633,0.10989728770256053,-0.18257456257855018,0.2159143183280194,1
org.apache.xpath.objects.XRTreeFragSelectWrapper,0.04902572503480253,0.3027434892928128,-0.0824274018970388,0.19669196083792237,0.16730216316948857,-0.30909489685479635,0.006101659419287818,0.1793983368572891,0.11781298218676889,-0.0069917754928528406,0.11409536595551267,-0.0014310978825216867,-0.035195762129693595,-0.10223874138573343,-0.18720762259088816,-0.18738754681074046,-0.07159489095491876,-0.17086171113235726,0.24090586549892096,0.06908129086907586,-0.08549603727875797,-0.17446030152256664,-0.15826670473616775,-0.12140903209853429,-0.27831221400103845,-0.2222205698017584,0.3664539041243171,-0.11783834657830171,-0.3726124088394507,0.007789308098343886,-0.058922149240075744,0.06213632436258613,0
org.apache.xalan.transformer.KeyRefIterator,0.06293043665927353,0.3643354090963461,-0.08844912168857644,0.11302044236391966,0.23508155530383504,-0.3031138071763193,-0.016444332379713912,0.02227133214138935,-0.027336285229527645,-0.03713332174042352,0.07647094897516411,-0.28910760833659255,-0.2043878658480938,-0.34769273912877685,-0.002973000912037828,-0.041096391585036335,0.08316822820797938,-0.1067896853388014,-0.05478339234507641,-0.22507488832384442,-0.21532325493083931,0.021603272771457585,-0.24634221643840956,-0.0677170424203919,-0.20946704530138,-0.2893786612878173,0.07181928829799133,-0.2688911761607098,0.15393953700003368,0.15848367232569663,-0.02990405615014653,0.0028016644730699133,1
org.apache.xpath.compiler.Compiler,0.04521024044854547,0.323671910528358,0.0017244732241724098,0.47976574678171524,-0.14622783629896005,0.07112940381027423,-0.04533222633513509,-0.29544203399109514,-0.18566460942926746,0.044889331503005905,-0.06523932657898313,0.0682722488260272,0.13821166903581808,0.12997518164380772,-0.11627337004938892,0.3552359999515967,0.1037687488283241,-0.00098998232497701,-0.25689084271853146,-0.0441666905614004,-0.019620678835465723,0.051271563189124535,-0.12300134507449434,-0.08072402036923482,-0.17943456799733462,0.1159720061910311,0.25023247430923495,0.019220173623004128,0.26303111919539857,0.018985530562297334,-0.20295804697118297,-0.05811941960338669,1
org.apache.xalan.xsltc.util.IntegerArray,0.00927568521330089,0.03889192909423542,0.0018059007765168452,0.0034265034821055235,0.32686149469533066,0.2720710855577558,-0.015039400075691779,-0.04341974070247792,0.07281949525060817,0.22128144685258289,-0.31177828578397654,0.11035091885147948,0.47738189412429183,-0.23926500609859042,0.022229539163381266,-0.30371172440238764,0.04431513110994035,0.057369784115271584,-0.11881842215195743,-0.15386106915045825,-0.002377264125093316,0.003930728411582225,-0.0814223657982304,-0.02770566761508078,0.11228832804178546,-0.13110521389173224,0.010038084985880913,-0.21571412965987138,-0.08310475964687684,0.2761883447322401,-0.1635841832004495,0.19247126045464932,1
org.apache.xml.res.XMLErrorResources_es,0.0003290522535460337,0.019328141682564626,-0.009977249539886554,-0.002943325404225875,0.10147098792942671,0.03774137788682708,0.052766763529006916,0.04871502991369544,-0.10309650085685584,-0.02253738013059129,0.17089249486971275,-0.06351399231632585,-0.16789287677301745,0.11095145418607501,-0.19231292014097454,0.13717835671652487,-0.09452805543693675,0.22988647325363798,-0.09378073116268718,0.1404592040931504,0.0037710536760301792,0.06606159130938107,0.08394117241434089,0.009922437890029598,-0.03180108519728483,-0.3312513036019898,-0.3749899187416301,-0.5705927188870342,0.2667814824626633,0.10989728770256053,-0.18257456257855018,0.2159143183280194,0
org.apache.xml.utils.synthetic.Class,0.06632587833175387,0.07079998311207525,-0.002034708008724782,-0.079433468551685,0.04779873777258612,0.06507003782782923,0.03591683580308504,0.12765289875345892,-0.08267601542704167,0.1775724376364649,0.05729622678739614,0.16171408602708676,0.21678488528586887,-0.17112607497117202,-0.11610557045320465,-0.1834257977473037,0.3022111701413218,0.07094941672892827,-0.058321103226137636,0.09165971111821872,0.29931057251258913,0.2966204497941958,-0.4155788893176597,-0.25546288601108,0.22680713403324415,-0.020617122584095357,0.19029533540144788,0.25187640407653106,0.17941041420724443,0.17326733747395265,0.1477508102727649,-0.09847307646851963,1
org.apache.xalan.xpath.xml.FormatterToDOM,0.0014374772311920591,0.01685772468272435,-0.00294720882791322,-0.024751280485960262,0.04561905883877867,0.01469452399355591,0.06844437197652672,0.10992972959073705,-0.12733251939989298,0.19890713668552024,0.023714497084695484,-0.03939595789377876,-0.04344754499234244,0.13998982488071773,-0.17470263283129797,0.11278207569413841,-0.004496183573714241,0.295469797988954,-0.2061119410206947,0.23603840432604137,-0.2589138107687388,0.1864107233021621,0.07333291202370999,-0.0215930052164736,-0.1712185489123635,-0.011140834910956408,-0.3456492483378695,-0.33674159176970336,-0.2933045499502896,-0.05598301129443984,-0.390190439503791,-0.2460526976476172,0
org.apache.xalan.processor.ProcessorExsltFunction,0.04077806233790464,0.40102661659171623,0.037186374211795326,-0.422282715100559,-0.19391681686282122,0.16066519783785677,-0.2820794529857089,0.1534429170513409,0.14402037439950824,-0.17766985344315503,-0.08788615930978042,0.08114385510642606,0.046256036351889754,-0.04470619270695252,-0.2205316327806548,0.224263665003495,-0.11395070077093436,-0.047800487697697,0.12030891679344134,-0.07517328337158037,0.0663180694002369,-0.35957427649720203,-0.04389108120073044,-0.1886747912898243,-0.12742189822592134,0.22876558872175995,-0.1370066999351942,-0.07425425136412027,-0.10712588321431385,0.08563747242720812,-0.014284284826542704,-0.05581847220038466,1
org.apache.xalan.templates.ElemChoose,0.032967639516057794,0.4026243917446711,-0.04988266840941335,-0.2871272072919527,0.21416101877783383,-0.3918861260246846,0.4270500787138401,-0.18524479521569104,-0.025168870861685035,0.07836188525870681,-0.2825454452952734,0.12003678426642539,-0.12472844797028049,0.18483330826513425,0.1637203262720823,0.07758005325944088,-0.004540363237891455,-0.10221518248741669,0.08876323302962456,-0.0014811397704756683,0.042779439816398646,-0.1683305806391747,0.07886127701842778,-0.006027035696900165,-0.05636097977208139,0.26641019294911544,0.01867052464259268,-0.016678937650983282,0.07482522117305342,0.0068015299822834566,-0.09852088342852153,0.08539002004484385,1
org.apache.xalan.xsltc.CollatorFactory,-0.006235812231889326,0.0175488822027141,-0.0888645953715055,-0.056296466513529,0.13129682821335276,-0.032287330944217874,0.16583342772638796,0.17926171074924072,-0.24328160939547566,0.320154301049143,0.029823831972124473,0.0693983959208374,0.26387893014385766,0.1459522680566737,-0.43355284347743567,0.002484733496314024,0.062463005680324805,-0.23973145987333241,0.2889058516668423,-0.05090298594336852,0.26371687048574505,-0.07823548275041785,-0.3420637488539404,0.13870168355373244,0.3042923049628795,0.02940541611352958,-0.09043184829953071,-0.014015535488890271,0.021852707503313896,-0.008563732927560798,0.047500114553729676,0.019692306566550074,0
org.apache.xalan.xsltc.compiler.ParameterRef,0.5235459735084959,-0.05184944312463343,-0.4727333078237084,-0.04757849930475241,-0.04815669590723006,0.02121640377550339,0.029486670957449515,0.036927456831002646,0.0253948140853269,0.03992768114124384,0.04653874338327797,-0.03976245898462479,-0.04241456698088167,0.09972045178041102,0.0400917792279246,-0.0995229171260009,-0.06453258505556082,-0.07519656039809507,-0.10673696808904938,-0.13793906173116668,0.13658895893805345,0.10009580849457984,-0.2934556930229392,-0.13249844079001535,0.019541297117451662,-0.028264121150369928,-0.11084578621827243,-0.16851124203639622,0.07567205178696768,-0.1710979750055304,-0.1137114114277357,-0.4481581776329045,1
org.apache.xalan.xsltc.compiler.FilterParentPath,0.44321621890824325,-0.054593052034645324,-0.6275781297901235,0.01725475481934869,-0.05061088546062804,0.04784418711144928,-0.061144391803270914,0.01570174209247244,-0.012678294193057844,0.06344171794376624,0.015422717519277443,0.376461016364005,-0.12864783861353485,-0.10710633243547735,-0.032146321665991094,0.04335250001198546,0.21992696663412079,0.0720051779024382,0.20568238925490367,0.029137606725076128,-0.09323666423240877,-0.10319329592351374,0.19140363726681775,0.07161159166319866,0.033101401247484244,-0.1529768158996538,0.00549217788834016,0.08464748195147435,-0.11250438066717132,-0.07712626398219871,-0.0938650081433159,0.05990292191314749,0
org.apache.xml.serializer.ToHTMLSAXHandler,0.00725629770864827,0.12112266656293313,-0.0465795956311881,-0.12143322654535796,0.1596409264782546,-0.06499828125006309,0.26464399874613365,0.19121971604433224,-0.2711349242414507,0.3633364040094949,0.0018431298450625015,-0.03224732345593263,-0.06100488179849417,0.24624283893449306,-0.408396489305752,0.11341502297957584,0.03523141100355155,-0.04733591088033038,-0.08451991272461293,0.09139870878060583,-0.1597002798200978,0.12358258400318076,0.03160728108294725,0.11751048746912152,-0.18438714415364935,-0.002751382263051626,-0.43956538964079706,-0.03463277195438589,-0.19223549740077467,-0.029158637032355317,0.08256063332513486,-0.18401845741804718,0
org.apache.xml.utils.AttList,-0.001906361423026556,0.05381213034344899,-0.09336165516718485,-0.07486936370524128,0.13971811430253192,-0.033721769848592015,0.19648525097016462,0.22569717768673617,-0.25924815367299603,0.36543294256121117,0.35391954443729456,-0.07694597284398313,0.017919920791489487,0.2551141491218324,-0.543009502705028,0.036484394336555,-0.005905529188409013,-0.05242223276119368,0.13689347942362634,-0.19270842326724852,-0.012840644079794931,-0.08090855879638412,0.028155396105563644,0.19147353741635206,0.15563579603324368,0.1995060487127187,-0.008987934162981154,0.07738718693394682,-0.054675044720340606,-0.0005673020051625225,0.042595463504729224,0.03640665082968147,1
org.apache.xalan.xslt.XSLTProcessorFactory,0.009137511130367263,0.13388257714288665,-0.043528263065708915,-0.10231585279766778,0.05071322724218637,-0.09202214025328151,0.1861427239860983,0.034204487713015076,-0.08001622363328585,0.18217059886939388,0.15026577258134058,-0.006324278620055831,0.09216422754719324,0.19232144109236438,-0.19707441247534915,-0.01682681401415926,0.04738408847160771,-0.22606603212026857,0.06514084825903138,-0.4688727760502679,-0.10556719910944871,0.337407853247776,0.032630836762347015,0.42904730739229024,0.10658458339577213,-0.0483943791019419,0.03742867369559047,0.23926764180300297,0.197085839622105,-0.20170782193004963,-0.171489971741067,0.08424446283590036,0
org.apache.xml.serializer.NamespaceMappings,0.010988398106982699,0.12095429103844803,-0.00681813249448371,-0.11187637447036732,0.10823329422493039,0.08070454116611343,0.09096804881262877,0.19194763281394733,-0.15699752546748594,0.2441889217230903,-0.101558083481356,-0.020882486566798034,-0.07419504929447161,0.06649882767121564,-0.13384366631517458,0.17918603645276449,-0.038492903947720765,0.37906748864658013,-0.2462955153259634,0.3300066508958893,-0.1543911122284136,-0.022348380844141577,0.09815781295870987,-0.17344568165671606,0.00947828656557743,0.15704485440493493,-0.22052465620432804,0.14243651858996254,-0.43752647075586987,-0.2526602515292999,0.1353456812119364,-0.09117553659920387,1
org.apache.xalan.xsltc.compiler.XslElement,0.4840726421939699,-0.061830132518351205,-0.626624855641091,-0.042367942746264306,-0.06627475485355262,0.05318807319204714,0.0369130499988249,0.039055202981390175,0.0528065379887982,-0.027943316563870453,0.017394435128937544,-0.2658214652916887,0.040363843251127705,0.12202438834257356,0.04289240681437171,-0.07595276099660493,-0.18226978295265475,-0.03583888700971252,-0.19224045310895715,0.04395465989549234,0.16203346887718698,-0.018020234986762772,-0.1458582665835213,0.02507297718718166,-0.21556436648221905,0.17321391931281305,-0.046672307710743606,0.07720537948908807,-0.06542411581872212,0.1906030121053886,0.044686262068904886,0.09763365544165056,1
org.apache.xml.dtm.ref.IncrementalSAXSource,0.006525241388530064,0.061518386202503036,-0.0019718154043974283,0.02525442683886922,0.20316717108887206,0.13524442760530148,0.036130159861620915,0.11467349847795162,-0.09739025557152836,0.046563571815753844,0.3113003504339437,-0.16419834337626768,-0.30514902947748446,-0.08010485636074986,0.05355470462153496,0.10070062891751294,-0.20556529377174407,0.39082699136679616,0.11398581538957674,-0.08083911768929493,0.19805357565153228,-0.12793286158237877,0.08974209262060849,-0.06272449975116554,0.34741475989037074,0.17160514833069332,0.33872664644392286,0.1253262811030941,0.18968473870540584,0.1291032621125254,-0.11687950968518912,-0.21080151089926727,0
org.apache.xml.serializer.ToUnknownStream,0.007289788234639005,0.0683605024713006,-0.022042110817254344,-0.07396015005309696,0.11669572699596824,0.035924081846123834,0.12004190732173564,0.22183460480643008,-0.224414764188013,0.3147755613917962,0.12397974512132992,-0.05959516674594116,-0.03288480793573086,0.1939427684743895,-0.3701202387185684,0.1594070786667941,-0.037333944904390494,0.3232042093559474,-0.2136019012233511,0.16111812263407965,-0.2176061994577741,0.110699925475742,0.03308617328542821,-0.030663795413498333,-0.013098110580905284,0.08003385313287245,-0.2745958788840486,-0.16850852647986922,-0.4055105315900996,-0.03577025985356996,-0.021403635224641535,-0.16028949940827264,0
org.apache.xml.utils.res.XResources_it,-0.01256246389975616,0.0015105397340062074,-0.047960041382333674,0.0069398686195528666,0.05136769691751681,-0.09286448160506812,0.12821197476452434,-0.17187051109220206,-0.005926087326157038,-0.25088294083397944,-0.12063840436850677,-0.059029464443567374,-0.16651984745321488,-0.19471552038867648,-0.4456610437716442,0.053617150615068644,-0.15990981292993087,0.05452221245753786,0.047684648891075286,0.12415968375860587,-0.26140495183013657,0.27897990375571946,0.3462604736396256,0.08764253764182131,0.012690051135468174,0.11561058025538477,0.026952242150412902,-0.10831881595680931,0.2899961087787212,0.013055309261344693,-0.3784713692359804,0.13651438883470923,1
org.apache.xml.utils.res.XResources_ko,-0.01256246389975616,0.0015105397340062074,-0.047960041382333674,0.0069398686195528666,0.05136769691751681,-0.09286448160506812,0.12821197476452434,-0.17187051109220206,-0.005926087326157038,-0.25088294083397944,-0.12063840436850677,-0.059029464443567374,-0.16651984745321488,-0.19471552038867648,-0.4456610437716442,0.053617150615068644,-0.15990981292993087,0.05452221245753786,0.047684648891075286,0.12415968375860587,-0.26140495183013657,0.27897990375571946,0.3462604736396256,0.08764253764182131,0.012690051135468174,0.11561058025538477,0.026952242150412902,-0.10831881595680931,0.2899961087787212,0.013055309261344693,-0.3784713692359804,0.13651438883470923,1
org.apache.xpath.CachedXPathAPI,0.02355879197282271,0.28754962540484774,-0.04513227139532284,0.14149380236996795,0.2683901209772265,-0.4548940180216204,0.07998054556134901,0.2931862381850964,0.2149678844311003,0.03064128115259207,0.06617652947416094,0.0024942705281222584,0.06090931610014048,0.05167837865560693,-0.025884383353852534,-0.021406351619085558,0.07777503274585222,-0.11208009809690864,-0.06759308735671105,-0.3979250335286435,-0.13713579536489565,0.1794163549136569,0.2160130352146691,0.219520877591533,-0.2796457074772128,0.21085705807006516,-0.012129829813260551,-0.008087208687434911,-0.0116045619355953,-0.00460761704462846,0.058535289863184445,0.10253113030455374,0
org.apache.xalan.xsltc.compiler.ForEach,0.5192844561679135,-0.0726766257791685,-0.5793726480142286,0.008500896282682965,-0.06652317798927042,0.051967776385473494,-0.0426981330258249,0.03627847200427754,0.027654512110050943,0.059423630167510365,0.0417872150986643,0.44408736597123716,-0.19142851565937183,-0.09756319353328503,0.014143459532596934,-0.009605896299065617,-0.03943566883881794,-0.0271945890942527,-0.11778814254127475,-0.04292924924809537,0.07699196352626117,-0.04392158313297771,0.1311122095615814,-0.006250673529707232,-0.0008565481455482086,-0.1408640573030683,0.025165330203403495,0.07023260302807784,-0.11132516392569737,-0.17926832503475762,-0.12236246747304208,0.0364659380692444,0
org.apache.xml.utils.StringVector,0.025318888435231786,0.29093187527504155,-0.012930757836309516,-0.16190946287132604,-0.0012628846332167977,0.12725211075797155,0.014084032413803418,0.10832775860591141,-0.05920180068814954,-0.013938502427102697,0.34098353459841607,-0.06925624281477989,-0.053505204669740965,-0.21903773114625394,-0.15125906429601468,-0.040792171451743145,-0.08367943528806397,-0.08073873697339759,0.19203158947030136,0.1609623041316017,0.11071938828603817,-0.18355472729193792,-0.06836348649051315,-0.19455638196791086,0.35343540884503777,-0.026848822913582388,0.0651071722543194,0.37347955877167177,0.29472502806034145,0.08162289537617028,-0.05142595458450453,-0.36019826276400024,1
org.apache.xalan.xsltc.dom.DupFilterIterator,0.006576686501095007,0.04351174781078193,-0.01276671222300691,0.0123231362256191,0.365893904625008,0.24076770831994243,0.043946811743053794,0.1647522569891636,-0.4220083372646334,-0.5207105222122482,-0.0968346741258892,0.20992549765229385,0.29860012509196654,0.04637626037262937,0.0835013252246159,-0.27570057879042786,0.08928679878574791,-0.04046176268082225,-0.16385246228202371,-0.07919510016561189,-0.11287998938943794,-0.008680153808146305,-0.07969151328399947,0.0005711177366740579,0.014160821068789135,-0.0017899449064984108,-0.07339518834640821,-0.002342794771690178,-0.0748680772919511,0.0876218064962083,-0.11563853079992825,0.07553871647206269,1
org.apache.xalan.res.XSLTErrorResources_sv,0.008040246109152238,0.13960604819717834,-0.03139370016395506,-0.1420211486430963,0.09862921744795626,-0.19040910011864512,0.32113990112375407,-0.2481509197019765,-0.09901340935742292,0.07342179936999173,0.08179364515681231,0.03722055431920622,-0.039915241406361,-0.032907523829605066,-0.09010341670004751,0.000528182747549829,-0.019503158881065897,-0.20406887035763965,0.08665435265873829,0.1995646604359416,-0.24504498943098937,-0.08309078826453904,-0.15228672281149647,-0.33217670300598673,-0.3035378901011198,0.041709133968292095,0.41141532974460454,-0.02086736155357927,0.222675943603222,0.13160376724229622,-0.29421661668955323,0.08745364565302512,0
org.apache.xpath.functions.FuncQname,0.021092621447372704,0.2624330855665299,-0.051307079341860407,0.2541981317416139,0.31712227565722345,-0.47824500153463173,0.06967416775141634,0.45171367992739675,0.4186505718435686,-0.15159792452980686,0.005984495762800798,0.014308544080003052,0.08983380842845987,-0.1403779357659036,0.12380925275697167,0.046108545384299635,-0.006003277834419558,-0.010408022912152842,0.07090437330135077,0.06141652644331043,0.05132522882513404,-0.03056581262544376,-0.03356918413197836,-0.033416111436656855,0.03642218947252959,0.06221351312825315,0.051702579752653736,-0.04272184513507826,-0.14184358041362186,0.12524170859764003,-0.07595701094280621,0.12451064249272013,1
org.apache.xpath.axes.IteratorPool,0.024887736769184036,0.21381499569041965,-0.021105456300071424,0.2657099249855294,0.12723060773370382,-0.16241671320900058,-0.2998266905842677,-0.09799230886767864,-0.28390443407395977,0.1316426508872414,0.027706858986875447,-0.13736178262088275,-0.1611857227957914,-0.21647010744386982,-0.04875932278147751,0.07684805794998538,0.04141294670582746,0.05857566976906609,-0.32946462490311895,-0.027933781746834262,0.016826465041417604,-0.14740690591522115,-0.2637696405192074,0.11632427586393522,-0.15007165996510818,-0.29610782736721897,-0.3435803158035936,-0.10846785054775634,0.06404251684728753,0.06787174760804228,0.0787966449283509,0.25949654520933685,1
org.apache.xalan.xsltc.compiler.RelativeLocationPath,0.2802603276468091,0.00554114710885524,0.03195003137539064,0.09299188451199294,0.045771586871041096,-0.032461193506164464,-0.14893689431598253,-0.0826897683558494,-0.13703441766443353,0.09036098869725252,-0.05689419644858897,0.20079410520258414,0.08456969509545721,-0.023034975135517,0.02363472180702884,0.12792475709288706,0.13009912059541756,0.13205009746137447,0.48344504235489444,0.12338813292011537,-0.31898446678252773,-0.2573850378208466,0.33293853736418827,0.19322769697804001,0.049200657475135655,-0.28729681470300594,0.041745719159794574,0.1720425570882099,-0.08150174187202017,0.08528966672704781,-0.1562218701153557,-0.17426497588994075,0
org.apache.xalan.xsltc.DOMCache,0.011700526329750802,0.09233600512070736,-0.051418681824497874,-0.1039331771329954,0.2967817882257339,0.08830647937352958,0.22716278149969885,0.10615602236087292,-0.28647754432482536,0.24301638937276512,-0.41053356948580877,0.1302081518473876,0.39086412914008656,-0.15792521982167704,-0.18752393928035047,-0.0459982872994115,-0.07309363014201645,0.0022345833845739452,0.11269172407569687,0.027086154697544284,0.2849684907053658,0.17181594457968058,-0.04925217861585614,-0.0775573248565071,0.2197672166188359,0.06265186772282119,0.07075562971839229,-0.11429730701534595,0.02685774903366947,0.13731748144093214,0.08340665882893156,0.2067619199602861,1
org.apache.xpath.ExtensionsProvider,0.01964951927993706,0.2847273744184807,-0.0491015682578351,-0.00527879704859455,-0.038700045029128466,-0.008606128517777336,0.36129242976905,-0.0056099383353492085,-0.14377828058715986,0.18293898908768016,-0.02627446274705981,0.05850831126084469,-0.041940975519803254,0.2677356068874596,-0.3877452634745483,-0.03891774380494078,0.07620505238386595,-0.28253834769769853,0.038856310553885796,0.3190262775160733,-0.06512628275794485,-0.0953297058987142,0.013751849977808941,-0.13031035005108582,0.26604325126394324,0.017591539616989282,-0.27974535141534285,0.05155451599934886,0.029200405814076225,0.01508221261227285,0.3137272619923229,-0.17171078113917213,0
org.apache.xalan.templates.XSLTVisitable,0.021163552760265988,0.24940625847624323,-0.010910103277397146,-0.21616169705086336,0.04514311936124443,-0.1363174829459018,0.20741978586411652,-0.22860270710562672,-0.09110012152284412,0.0700183786058764,-0.08231338254438339,0.030796777385334196,-0.19574355947852654,0.11396340938884177,0.2412475736857035,-0.15125626954191246,0.008062652797028617,-0.09739562171216426,0.13360721268110773,0.04301728743032609,0.04553582164822956,0.025235406341321515,0.04879251986006639,0.27043421088382674,-0.035174528394591946,0.30619116233831195,0.1654478105975255,0.1023563639721957,0.387178344925178,-0.13622005553455407,-0.3327746368940669,0.3190194203252094,0
org.apache.xalan.xsltc.trax.DOM2TO,0.012033540089275164,0.14879169786196964,-0.04420399758124096,-0.1628144529572088,0.2530396769435516,-0.018461903166880102,0.3325907625712878,0.08655742237786891,-0.23139232348691732,0.3412482673911257,-0.31909999916537485,0.06064495248453725,0.028268420275906155,0.04219655353612382,-0.09055013198987757,0.07448206918537537,-0.04353793599202092,0.04683228709669702,-0.020731890924392128,0.23197777142032597,0.050536199460091205,0.08907763807540577,0.059853904893963715,0.1714647617926305,-0.27695470729838,0.06921963531344294,-0.09756010143524027,0.21110380153380312,-0.07107800755902882,-0.2765617565408161,0.3751234254604657,0.12375446816563561,1
org.apache.xalan.xpath.XNull,0.01726739269981343,0.25295932386568415,-0.06218861960061898,0.1700539311625859,0.21662519914705317,-0.4114534592848046,0.15162478587417413,0.43595820981496924,0.3352125217036072,0.0004383166622516803,0.09464097658584424,0.057700054196111475,0.20353770443980593,0.14200872100287154,-0.149431963730088,0.125455910172099,0.05773429034692355,-0.11756574344132517,0.03272028316766462,-0.28017826735797274,-0.05007551042512003,0.16602018371832877,-0.04166311236287085,0.23578783268158268,0.09846327011375826,0.0005892451188075194,-0.010462132676988306,0.16879167980095694,0.0322672534582142,-0.10190016346136567,-0.10521412069912205,0.066504859884382,0
org.apache.xalan.trace.TraceListener,0.021450289203170433,0.2514195089757265,0.0027736120565057614,-0.19830999562087934,-0.029240900956133787,0.007892378732288416,0.06131981620078884,0.17899484765787543,0.03818930490080953,0.08267868464223521,-0.21679402988109214,-0.0011338409564647502,-0.1323057787390648,0.2380903207534613,-0.09306083256702166,0.13716416311056764,-0.017656588727754684,-0.1528563663639894,-0.055590105252968904,-0.3816638122672406,-0.158075484786166,0.2989048377478562,0.23642455315210986,0.37649354298995585,-0.10282339106805799,0.1262778647980374,0.08757022192031008,0.22036402061119664,0.021672504028073927,-0.1579668202980559,-0.25374191770080184,0.2152897252875954,1
org.apache.xml.utils.res.XResources_en,-0.01256246389975616,0.0015105397340062074,-0.047960041382333674,0.0069398686195528666,0.05136769691751681,-0.09286448160506812,0.12821197476452434,-0.17187051109220206,-0.005926087326157038,-0.25088294083397944,-0.12063840436850677,-0.059029464443567374,-0.16651984745321488,-0.19471552038867648,-0.4456610437716442,0.053617150615068644,-0.15990981292993087,0.05452221245753786,0.047684648891075286,0.12415968375860587,-0.26140495183013657,0.27897990375571946,0.3462604736396256,0.08764253764182131,0.012690051135468174,0.11561058025538477,0.026952242150412902,-0.10831881595680931,0.2899961087787212,0.013055309261344693,-0.3784713692359804,0.13651438883470923,1
org.apache.xalan.xsltc.compiler.VariableRefBase,0.5910779895829306,-0.05154889209368163,-0.40296820583748993,0.0021861895293072693,-0.03701690611748393,0.001917402222121751,-0.013707498057154382,-0.013604932527155163,-0.008936427188135546,0.02855330235719486,0.020435380187530622,-0.048305024081494466,0.025172756824355512,0.12072022629845967,-0.002518519499369915,-0.02790285264790636,-0.1370940991646186,-0.08877000444246173,0.019474464166953302,-0.028048888200771,0.10663314968557439,-0.09770424786849974,-0.055159064457035376,0.003406364156186097,0.0536629765116731,-0.19742536870328808,-0.036871395752674334,-0.02735239242032594,0.012768694263173314,-0.22342780923238978,-0.24265876829658015,-0.5093664139262345,0
org.apache.xalan.templates.ElemCallTemplate,0.06420771005051117,0.5015494557568436,-0.047141119443802885,-0.38569797636772846,0.050100144586318306,-0.2368622448177074,0.24546517930708925,-0.24878322009175102,0.0341674862131644,-0.10253212566979183,-0.3017280533798913,0.004802319726313567,-0.1812062105539405,0.13048258185021797,0.16903284043365396,0.0006561785650079081,0.008711791826799313,0.03705020102249457,0.07405795010934567,-0.20204496826483098,0.09133066761837197,-0.0358405974125164,-0.11328620977873284,0.15421663087939363,0.10470917256101855,0.03899553088861278,0.00869192566382267,-0.2745300290460216,-0.10783413825883553,0.16312952784706905,0.0537644908154415,-0.09137010903725476,1
org.apache.xpath.XPathException,0.023375206754801366,0.2764963578841455,-0.05873306804165752,0.14073797435373753,0.10137896369831861,-0.27264063408981953,-0.053575653582965135,0.11278080741866484,0.007052787149839497,0.15294109802612918,0.11575739116120161,0.08028903508959762,0.10586912126558852,0.2740787888541399,-0.15054945816361845,-0.27367753227263003,0.10293381802139959,-0.2154388434049779,0.07830298644821268,0.21467688950145566,0.20252544476968273,-0.009328673612172555,0.15122800437033118,0.09956971882283805,0.23426166152507977,-0.08046825553989954,0.14465714746554845,0.28849570774356215,0.2376673410699035,0.18959473880940714,-0.15195067908501061,-0.32897242472637056,1
org.apache.xml.utils.synthetic.SynthesisException,0.012550841852583712,0.017566718425792608,-0.045477122822121144,-0.03886389899414393,0.057677923403679436,-0.019949971539548556,0.10606725850181674,0.11487568681502963,-0.1285279561473937,0.2160450704237254,0.07243278676262162,0.08582955861961937,0.14257458897137923,0.025818749657160352,-0.31594432387553856,-0.12748998706725004,0.30282011734540887,-0.11507275374594052,0.1607792305622972,0.061412890211470596,0.3024855236390452,0.10035543188485806,-0.5196958392289257,-0.11129392636004959,0.2322870520755018,-0.032956952190194864,-0.01485677376866385,0.2555192545169844,0.23912268473274198,0.05222763274613168,0.11853558594764109,-0.2044327007425081,1
org.apache.xalan.xsltc.dom.Filter,0.002280034033797855,0.01680129680936529,-0.0014420123078096407,0.016697802248496443,0.23961375556958212,0.19647143946246592,-0.04760471984536738,-0.15064746508914942,0.21495337305612425,0.10922420487945504,-0.14480083410694522,0.07452200607052463,0.24595952958294712,-0.06775380398476835,-0.08249598950851667,-0.27972501314806747,0.11044420026888385,-0.07941094375880652,-0.213410346222331,-0.1207465982171073,-0.3392814064872539,-0.31627737772259973,-0.16874985580695223,0.09855367838269127,0.21094073102484232,-0.008589423094798203,-0.08633205518775529,-0.08980150898886645,-0.08517459012362788,0.2503707735206571,-0.38256168076870783,0.18793519070369305,0
org.apache.xalan.xsltc.dom.ForwardPositionIterator,0.0031233319396914787,0.023079248928026562,-0.009415876678741879,0.013849362304021628,0.2189850379045098,0.12684174455005928,0.025828576791140468,0.14904526741551571,-0.36414500512916903,-0.45039185248040975,-0.0391962583447293,0.1783823179943669,0.23830235676083486,0.09161259386404871,0.07846986820949074,-0.2284382451133825,0.1391703827854455,-0.09564156778616169,-0.1434134896816659,-0.059880355844359606,-0.13928536200436753,-0.0608686632755288,-0.13357309990669808,0.05154388247349699,0.004849373843156098,-0.14656249789488607,-0.15328169068102532,-0.08446801554110665,-0.03498960737049969,0.17251459623109205,-0.2697565774273485,0.4095823420948408,0
org.apache.xalan.xsltc.compiler.util.ClassGenerator,0.7879847195480637,-0.10531754707749123,0.517425414320489,-0.0002193842313533592,0.03802734058559318,-0.056316765948613005,0.05398178992661015,-0.013583133631132624,0.021870201632025854,-0.059487386723534444,-0.008695397158184535,-0.10103760662172664,-0.009383101737672931,-0.01986339583388591,-0.09191088281497112,-0.035681999661632796,0.21076134902301136,0.07885529067570635,0.03698792530336069,0.02307270287975663,0.05980789966171099,-0.007369113310294442,-0.0062083871811430425,0.006409178118942293,-0.06705852310801315,0.021175014090018367,0.02134867495866507,0.010357407834406177,-0.03840378074297297,-0.04298093417931023,-0.04926644964821233,0.023038855653294294,0
org.apache.xalan.res.XSLTErrorResources_en,0.008040246109152238,0.13960604819717834,-0.03139370016395506,-0.1420211486430963,0.09862921744795626,-0.19040910011864512,0.32113990112375407,-0.2481509197019765,-0.09901340935742292,0.07342179936999173,0.08179364515681231,0.03722055431920622,-0.039915241406361,-0.032907523829605066,-0.09010341670004751,0.000528182747549829,-0.019503158881065897,-0.20406887035763965,0.08665435265873829,0.1995646604359416,-0.24504498943098937,-0.08309078826453904,-0.15228672281149647,-0.33217670300598673,-0.3035378901011198,0.041709133968292095,0.41141532974460454,-0.02086736155357927,0.222675943603222,0.13160376724229622,-0.29421661668955323,0.08745364565302512,1
org.apache.xalan.xsltc.util.JavaCupRedirect,-0.01140361382979096,0.011215804271170639,-0.1078757953815057,-0.052839703755473956,0.10586955270959851,-0.08283033407488524,0.17638436487137343,0.13434136508092465,-0.2019427193268776,0.2593753432151837,0.11574056544827144,0.02553766649785192,0.12110780779217926,0.2068634878560982,-0.5150814294204821,0.05023359659095705,0.03136456262143195,-0.28880961563804997,0.2846655985167456,-0.019378493292511328,0.1581280897587371,-0.16141408864780138,-0.31200977004913555,0.21243143877828022,0.27298731432387674,0.06646765463748525,-0.12813100975282524,0.03500201485130937,0.018747301093963734,-0.10219288025319634,0.05520205011561341,-0.030405362320415616,0
org.apache.xalan.xsltc.compiler.KeyPattern,0.0463482294026321,0.0036644288954418226,-0.05630741354065898,-0.03809948882839181,0.10330615525865076,-0.08027361387437637,0.1468395736165356,0.11337190517910765,-0.19685819208058386,0.23096819299235147,0.08514833392893678,-0.030871855554665394,0.17216033198750783,0.20654268518880314,-0.4375115594956809,0.15613399596420088,0.11268685148054906,-0.25782975111020007,0.4196234850061507,0.0206454091452594,-0.012668942230142251,-0.2309998286526698,-0.172777108142346,0.24500872021036676,0.339176099983992,0.005980671069823434,-0.08807139425126148,-0.019404269242164374,0.021682084649606796,-0.12792128642140316,0.11825292227101793,0.013228449925875985,0
org.apache.xpath.axes.ChildTestIterator,0.04052313998494198,0.2247530200061671,-0.026466223109683027,0.3031792433651116,0.15434442686141545,-0.06273892438188054,-0.3345598832554582,-0.12904996545132708,-0.27118911848884353,0.03171492100815397,-0.06556861522827603,-0.15412876785831803,-0.05020371771058364,-0.31593834992418207,0.07138678806554205,0.437570402518061,0.21905268811512105,-0.24193025102471985,-0.2528245348067563,-0.0018649854922781614,-0.019535075649186356,-0.09167720205031066,-0.14056467510472073,0.01481648822748018,-0.031136668580777228,0.060396457322438035,0.06190222507612783,-0.052646076481522405,0.07269716906904111,-0.1409153431316544,0.2486211169495046,-0.00022640303322044627,1
org.apache.xml.utils.res.XResourceBundleBase,-0.011403613829790963,0.011215804271170643,-0.10787579538150574,-0.05283970375547398,0.10586955270959854,-0.08283033407488527,0.17638436487137343,0.13434136508092473,-0.20194271932687766,0.2593753432151838,0.11574056544827141,0.025537666497851923,0.12110780779217933,0.2068634878560982,-0.5150814294204822,0.05023359659095712,0.03136456262143182,-0.2888096156380501,0.2846655985167456,-0.019378493292511612,0.1581280897587371,-0.16141408864780143,-0.3120097700491355,0.21243143877828027,0.2729873143238767,0.06646765463748514,-0.12813100975282504,0.03500201485130915,0.01874730109396384,-0.10219288025319616,0.05520205011561352,-0.03040536232041571,1
org.apache.xalan.templates.ElemIf,0.032209813852722854,0.35256829473308776,-0.043337378512988474,-0.26064418296128355,0.181933355442667,-0.35668825487953026,0.4178691961081431,-0.31539080388760593,-0.054335024583020794,0.039328511794789404,-0.27800099603894307,0.07736995340512597,-0.15932403080810806,0.20570707074041444,0.289112807485149,-0.0443568785073477,0.004734455454021042,0.01550752466907933,0.0790314077605604,-0.10998739800524515,0.09360075857085512,-0.009827452890757588,0.05546267773732053,0.10964924062030254,0.06388701448668106,0.13083320513047086,0.028510433322983524,0.025172336954972986,0.07679214604750224,-0.05952137166646853,-0.15129116674619134,0.17852812840193144,1
org.apache.xalan.xsltc.dom.DOMAdapter,0.031307566186466435,0.09996982778548065,-0.044777249305744754,-0.01193722313841628,0.4074906462287829,0.22549588118287775,0.03446287781001025,0.20312934803515195,-0.35137420665034125,-3.2402245310289015e-05,-0.3521348357149212,0.09452878867463936,0.4425558658261765,-0.3124299743264232,-0.0310964244928337,-0.037433500529251235,-0.007886767300167243,0.07707720857698522,0.07772321249357747,-0.01914478633624387,0.03219753204217948,0.19728013028370478,0.16969923182248306,0.010919935218943962,-0.08081483941094345,-0.004779402323590836,0.01165677205765927,-0.08491958862799431,-0.0009604318842003154,0.1458366422342877,0.20058450587995794,0.13641484353426817,1
org.apache.xml.dtm.ref.dom2dtm.DOM2DTMdefaultNamespaceDeclarationNode,0.003842638858385991,0.08535313204028676,-0.049907423755279,-0.0038361120399954575,0.3126852054327449,0.114872529972421,0.14564472462498754,0.21825525681921137,-0.2342168128463742,0.1975495203260223,0.3948361183000323,-0.150861695917124,-0.22436730966435642,0.1018590765840596,-0.30538036897642235,0.132218310437008,-0.1229899790350685,0.12541135906205586,0.16381992234066942,-0.2505489321831992,0.14007791298921846,0.03911377039346948,0.08380869207105619,0.1891825855288557,0.20519489465182333,0.21489850713702865,0.13597123444903292,0.18378010509858497,0.06132720555171131,0.14201847110963714,0.13200624520584472,0.006979009505775271,0
org.apache.xml.utils.XMLCharacterRecognizer,0.014895909147502074,0.19610837011297116,-0.02987417925445066,-0.016073809013952344,0.14003634440996096,-0.014278660737744937,0.17617300139883652,0.13853117958451222,-0.02462955397836822,0.10360266839037421,0.6139693102053027,-0.03510237660109556,0.022579082264457023,-0.1215157970766577,-0.04346180575300052,-0.07604152666564128,-0.1290630772621435,0.14621873709472524,0.32032660198436236,0.00905083977634079,0.19556622395885986,-0.30268817895196465,0.09210692568156151,-0.07514058865378363,0.06092802094407358,0.3716704897071582,0.14222200781192487,-0.013994902345785923,-0.0019845682730667154,-0.009998125277524441,-0.16823455394121944,-0.04737010261632966,1
org.apache.xml.dtm.ref.DTMTreeWalker,0.023939929978240827,0.25383352235436646,-0.006944707484080669,-0.023078978254982997,0.20319307093487388,0.12144773761655034,-0.09411773259674301,0.36176951928667467,-0.030639582441788184,-0.04390940535168256,0.009554039687720142,-0.1674513079877847,-0.2759993374781267,-0.43732184495380416,-0.060802914610946154,0.15458415539654408,-0.3495415652079374,0.1560236846948456,0.23131867779947135,0.09091567976624339,0.008789305909830337,-0.1392557938837256,-0.038365429889613153,0.05784728446476314,-0.1866886978526466,0.14726818278682735,0.08350364623668304,0.2802228897934165,0.03614255771045192,-0.025009940351952243,-0.08755835490112843,-0.16853494328746735,1
org.apache.xalan.xsltc.dom.MultipleNodeCounter,0.006060108702937188,0.026500400695014702,-0.03435590927538845,-0.022089668813446674,0.21371498624842883,0.11141777625449589,0.06830157263172497,0.1425534907911992,-0.25984528339792456,0.0023484377783037414,-0.17942544775637687,0.13471705215040974,0.4349753150900797,-0.07448330424017864,-0.16112583609203143,-0.1844147700625023,0.06096291451195405,-0.09205610387475745,0.04186415275088528,-0.11320933644902197,0.07925938342602352,0.018949546582986837,-0.16283731020869222,-0.0012605770929055478,0.2994972788676863,-0.07584487284634207,0.0030205008305531213,-0.18439914622097361,-0.035445143277180464,0.31245076127145727,-0.21328707880489378,0.45626120311705387,0
org.apache.xalan.transformer.ClonerToResultTree,0.022809977057262246,0.22838048414920206,-0.013339805298893965,-0.08703741899816503,0.1890193919331495,0.011401329490700315,0.16540964442027975,0.17262086706903754,-0.0841516151428938,0.11681965843998875,-0.32879451184489306,-0.05521222758403191,-0.16614082647602282,-0.23403464344009012,0.006919587420008689,0.15237317303300485,-0.09939479939207765,0.07779277884344256,-0.0877380165927913,0.45585326056886055,-0.12440669283422202,-0.07327470534164568,-0.06335217915907736,-0.09679070243078103,-0.2813833127051906,-0.07626282937044113,-0.23318778697102585,0.2832844160804635,-0.13039739467517278,-0.2352427753548207,0.22242521566326406,-0.043986409236971766,1
org.w3c.dom.xpath.XPathResult,0.0007368706874823775,0.06277653504311104,-0.0516989832362793,-0.007578638443397209,0.09398211328383807,-0.022597714252157657,0.1716763494488745,0.1973166615848018,-0.20137661167123755,0.31905661961042064,0.17913188336106553,-0.018533655704538778,0.10321754495433946,0.16957337532252253,-0.3770669685266423,-0.09642258928021569,0.08654034279915977,-0.3175971418286493,0.10718394619009064,-0.21304514820999756,-0.03470223460656983,0.14668397736767513,0.1424244117274979,0.34626249648081453,-0.15618761286531377,0.27290427497271985,-0.16245339978501064,0.06275687901341764,-0.15035774586149414,0.003227200402143415,0.26449009129491496,0.0009058096059507774,0
org.apache.xml.utils.PrefixResolverDefault,0.01260076270835017,0.17332311871091166,-0.026892284575265032,0.00013318674971531027,0.028288763166984095,-0.017701012865982364,0.11724914116638746,0.11480872700402,-0.1170028485958892,0.20548816500725936,0.22964467486054202,-0.0269852302638596,0.09199323301223074,0.055166469958654395,-0.28475566641679373,-0.022482334619964153,0.06115856465212971,-0.24947323472955765,-0.008393033373372378,-0.43234898806279604,-0.15511751996734716,0.30222959746448325,0.12988903233857638,0.4568059130931776,-0.28529309493504235,0.20895294910445633,-0.02285663474532709,0.0220013842050403,-0.05891809592757806,-0.08155661659106644,0.07907292958280211,0.04692751988340351,1
org.apache.xalan.lib.ExsltStrings,0.0026339823725254146,0.11486997069889757,-0.08303198521008086,0.04015646423036599,0.1540585958107372,-0.10028235922103779,0.16331187397132668,0.2555959771540928,-0.22461823484430649,0.3288698316562231,0.292485311039127,-0.08216640417416038,0.014741262373792486,0.11727918979757453,-0.46222494138331705,-0.054165147361378396,0.06642960407807108,-0.14400124974192188,0.0022951498189474357,-0.046176107906798866,0.0028654642682550704,-0.011843703594442697,-0.0070844968934640805,0.27299900496240886,0.05280855823486655,-0.11987311884794448,-0.42351059100245536,-0.19274813590516213,0.03094309027856797,0.1446713832183634,0.07387899809344856,0.08946850153076862,1
org.apache.xalan.xsltc.compiler.SourceLoader,0.18420692489556031,-0.014149159225228188,-0.02114357162099416,-0.04442966525386857,0.036106232414575584,-0.018192265872004426,0.10699798120677013,0.04026273093945551,-0.05522687914076965,0.04719873177311428,0.016666434645009345,-0.2906462579775063,0.2443919310255818,0.08741602320609124,-0.14256447761045135,0.013710166633722242,-0.31252427107808345,-0.2862647550406267,-0.2087970538064275,-0.08594715073611078,0.230983102030178,0.026728452589947858,-0.07823040152015631,-0.024382082836808983,0.320142955034728,-0.1341680469744746,0.1072602676454061,-0.03220752212721539,0.1479978821183823,-0.5639307213668177,-0.05080099924864961,-0.0625235292425909,0
org.apache.xpath.operations.Lte,0.01700192329109141,0.196979128478608,-0.03916613706411827,0.2582961847336844,0.21975362777877216,-0.4642219343960955,-0.08105784061066888,0.3523889642396985,0.4231909709708533,-0.1490251449098659,-0.008830842872417668,0.11830274907906055,0.2591778595075083,0.13328699617547715,0.04017912463209292,0.20697385748227137,0.06605336701148377,0.14813950473770077,-0.1586644365243094,-0.03179901819995155,0.07495562608776567,0.04142103131326863,0.061038580317909805,-0.05027022112095906,0.14279705019253497,0.12290410922719565,-0.06273126527454112,0.033206617152920385,0.1243478039767966,-0.065585516081271,-0.0016777070391047573,-0.1642307567199546,0
org.apache.xalan.templates.Constants,0.0533724784965682,0.4986107677530555,0.05468124720775089,-0.4657880754879685,-0.2658980209958584,0.21498579654068545,-0.37687699699189353,0.20196912766238492,0.17004741036392945,-0.16775625597055038,-0.0478368098212242,0.08389631112792305,0.04298432385669151,0.03069756524576766,-0.21153609125119968,0.1034757749733214,-0.04558926350592612,-0.08438427401741587,0.1008937455475672,0.04679581547604421,0.0703326540687933,-0.2026856929559448,-0.03546067118238926,-0.028552518837941396,0.009728902740287076,0.08060156196400567,-0.054840478685508696,-0.06549810169052256,-0.03244301639961231,0.08124533876045617,0.1118685763072096,0.022037324950501775,1
org.apache.xalan.templates.ElemFallback,0.02433565036109513,0.3112345990986443,-0.040094872325044086,-0.37462881317677443,0.1351004332361317,-0.22454963270039097,0.49384055888240613,-0.3124595352164721,-0.15673567456512633,0.1217379506612826,-0.2723383658173647,0.1284842237776584,-0.11152504170432338,0.13541734333768263,0.1513202272068441,0.12189002090541164,-0.0004126408916748893,-0.10692396456345217,0.062125075112757285,0.2072612649481056,0.09115819897736036,-0.1850472097166609,-0.051475918485582244,-0.012183185840585366,0.044505601632851395,0.14080772121475904,-0.059170096928077696,0.10978045260130083,0.00411538207145687,-0.034670814576096214,0.07590566239997087,0.0621919436980024,1
org.apache.xpath.objects.LessThanComparator,0.00833783791888414,0.1051464196984323,-0.015373574124841494,0.11842789763428488,0.13816937189923306,-0.062305810086707804,0.03531264609882959,0.17473509641014068,0.03204569929028797,-0.024887468884546175,0.12179778899123185,-0.18664179085955895,-0.24853152959178465,-0.474350240419008,0.09392919902263942,-0.19286061014031688,-0.22938967902854174,-0.04033852687793255,0.3030567329606086,-0.13846880614241475,-0.10068572972321364,-0.1509028250231634,-0.3792849281321279,0.09207132015669647,-0.17763663448030856,-0.19806391516006974,-0.2387344187673713,0.10690560178948873,-0.0091653577695012,-0.09629315671510451,0.1165730514371042,0.15195712452870963,0
org.apache.xpath.operations.Number,0.024880624238848865,0.2553264023505301,-0.042736860392027204,0.31167456936590915,0.23290449989585502,-0.5020738614133109,-0.120241482754587,0.31150446429773876,0.3826226276117136,-0.12692813357163432,-0.03683028137142104,0.1263669215377765,0.23497795720908837,0.16738756406846808,0.04764923178059218,0.16711681050225086,-0.00029090195273078525,0.1910269629506364,-0.10876059566695204,-0.059355392747111664,0.09273083774725792,0.04322981141109222,-0.024574036290946524,-0.05653079715595582,0.07638170241055849,0.09646858820281569,-0.08346989149448238,0.032434620575133424,0.10700725671960284,-0.13488560811635986,0.04892649230294269,-0.053195551728390585,0
org.apache.xml.utils.URI,0.00030454477484200617,0.0421297762534634,-0.03902498565812536,-0.03400287312200095,0.14754374680992097,0.021955780067933434,0.11323651335247008,0.11233661840120984,-0.18116402771979867,0.12943855507818758,0.28200281394294646,-0.05655490486135521,-0.10577606225119762,0.17688267878383096,-0.30937532199710965,0.15219315077765755,-0.056530596225413336,0.13074434296869517,0.02682546721449087,0.1259860977292135,0.08852575406239632,-0.022910458069396917,-0.04202843504631845,0.03391961001638026,0.05571236702899131,-0.33762947505300334,-0.34029157990345194,-0.48391970641418647,0.3135653383665048,0.05821742209728412,-0.12956252196444829,0.14306741634200057,0
org.apache.xalan.xpath.xml.FormatterToXML,0.018931513978775072,0.20168821465321424,-0.019752958329624582,-0.24116327221591513,0.04533914745002455,-0.132298873520537,0.25210483105127746,-0.2647126372136167,-0.08091938167125332,0.05881110581241997,0.010555975495860353,-0.024022266887319108,-0.05669497921904679,0.14849541466863586,0.17543724590396986,-0.12474549918580219,0.03692765734389704,0.009150736553472802,-0.03261212522279557,-0.42537581315748957,-0.15873721016518957,0.3860467893624073,0.1984811989035693,0.3455409944463818,0.0891698329100002,-0.21327399406713127,0.17326749378203718,0.1834111108245201,0.017151910588775028,0.042835699406028944,-0.1594262996446085,-0.06166505274831843,0
org.apache.xpath.operations.Mult,0.02063986058550176,0.23053830729540628,-0.04492494403450059,0.2815568785452425,0.24084911333333006,-0.5018057422349402,-0.11597100971856378,0.32550229006648707,0.39658400973778474,-0.13920136326036553,-0.03424123279653872,0.11699977374894542,0.23497474628266884,0.14777525061508573,0.0338374872499344,0.18389292100270566,0.02176097809988226,0.1858380464326269,-0.14030432865624262,-0.05366050287372088,0.1138170694818929,0.014975415114256803,0.019008258460048937,-0.0384015847996593,0.0937375751247008,0.08896151782478295,-0.06981113957243272,0.04477109697407976,0.11641808026652806,-0.10915996665526834,0.03865879446821706,-0.09620052984136081,0
org.apache.xml.serializer.ToStream,0.01323091581721397,0.08202967474185888,0.009315067877852677,-0.045566656517900865,0.0970103836059727,0.0485401625774427,0.06779451591198898,0.18378451994859185,-0.15347570216262604,0.29464158094063914,0.24870096850309897,-0.08049647519136581,-0.1269035210410627,0.2577968876219808,-0.051828953280519015,0.12443491591360728,0.048762618538538825,0.3846307276939324,-0.22221079665388171,0.05993732864212353,-0.08352825644115011,-0.009933721253481255,-0.0320918696565252,-0.057479918147169,-0.15584113337638544,-0.2538239250673015,-0.33072811433694527,-0.45901535455551357,-0.16604975335161162,0.060375457180367104,-0.08079055444595121,0.011242705027350232,1
org.apache.xalan.res.XSLTErrorResources_it,-0.006341959626133399,0.07415409547013903,-0.10946572071589435,-0.11192635397746566,0.13865449535561314,-0.16061886195995384,0.303206267550173,0.004070713744028681,-0.22344800018793412,0.26224930578064526,0.13959717433278568,0.039628991755443974,0.08828862607762795,0.16704451033459342,-0.49514326737780356,0.04448651302208585,0.0186449844519299,-0.3483245652281827,0.29061611974914103,0.07481354171010965,0.026450911088305287,-0.1804214298304176,-0.34491722423962495,0.03416254002249611,0.10068278113696731,0.07774473317345987,0.07656732464837547,0.021220587295823146,0.11903352777343285,-0.029415128809494075,-0.0868404046672471,0.013484787330408322,0
org.apache.xalan.xsltc.compiler.ValueOf,0.43440303237484634,-0.05170662344728496,-0.7940536965839144,0.0008311004803822397,-0.07881842564715391,0.07180977956989522,-0.04861683913398668,0.008259796149021992,0.02618189613344206,-0.00928285086503542,-0.0038161817485498246,-0.0797696658684336,0.035831476226950605,0.04297531213894954,0.04649469368837527,-0.0510870858503441,-0.07150942313442726,0.05080778844013007,-0.06814424051034162,0.06836380982065642,0.12554859827515263,-0.08423414303609518,0.1094008371913438,0.011013137028816861,-0.12125265728023743,-0.028300518360429187,0.019321487778166214,0.15716918419297718,-0.14999123196539252,-0.10852076275045958,-0.08498548290684056,0.12333128044322163,0
org.apache.xalan.xpath.XPathSupport,0.022914704512481097,0.25930383756526787,-0.00020424906403294595,0.31027895267558997,-0.005647737463502086,-0.09918426857548113,0.26266990041627564,0.3835245972839109,0.3304236488477103,0.004686918401275272,0.12333252266132266,0.024061777200841898,0.14068419860597314,0.042009351963995495,0.1957527665787441,0.07532777964195898,0.09451371660153118,-0.025716761626690874,0.00640315105391328,-0.5275411844362429,-0.12451437350598528,0.16552694548085814,-0.015403291585399704,0.12299285096177649,-0.08332001168788096,-0.10995703211906449,-0.14842623538610666,0.011272793060905437,0.027936867414215662,-0.1440636503197415,-0.05804922535303918,0.08466617563701162,0
org.apache.xml.utils.Hashtree2Node,0.026631054148587078,0.13131642834753748,-0.01126022892270303,0.05880438521113136,0.08718556268564774,0.16160191906720858,0.15561628482401008,0.18852634954011133,-0.11086041450809599,0.09971512041467989,-0.13664875644386168,-0.011480103843662277,0.35972922839169735,-0.17351246129620523,-0.1371836516571771,-0.029973847451149775,-0.06657355405686169,0.08061344324078498,-0.07229443270660721,-0.1877559924249406,-0.03391548186945219,0.36214968652844176,0.22392296595262262,0.02535952996056359,-0.10456636195381541,-0.05121211377711534,0.09596493098761485,0.08644911561511934,-0.04587929719658427,0.35420247399268195,0.5061766241870812,0.12729654586003786,1
org.apache.xalan.processor.ProcessorStylesheetElement,0.02234337710162917,0.20402932648338998,-0.01008988965218572,-0.2562148199522013,-0.0034189437425727765,-0.09070016985924864,0.1318559494828819,-0.2883066438689967,-0.019888405703521662,-0.06651638373832422,0.35051617396157053,0.044998925344156115,0.22979345696677778,-0.1735835214069051,0.010821581299618684,0.03776211756647539,0.012318737800297018,0.05013059434124851,0.0028704670627227274,-0.2868454770621542,0.005888052512536841,-0.27170476813604516,0.24810395605933716,-0.526214855298205,-0.06386857714291466,0.015592964432678932,-0.21716866035187127,0.05212694945053961,0.11951812957400194,0.0015104188263841106,0.030485285398748837,0.05007023878154497,0
org.apache.xalan.transformer.TransformerIdentityImpl,0.01655077431171493,0.17219611783993202,-0.013609981626064286,-0.08540921765688221,0.07676097679204064,-0.02307505040437882,0.08925680261017527,0.12113152653621087,-0.1604575972845667,0.2624021659849958,0.3419076853648252,-0.10986561056240837,-0.11696594304569444,0.13660628429120428,-0.3078955795647994,-0.03296460628722874,0.024105408233146938,0.17844580981118793,-0.18120858110060584,0.09703484196350709,-0.3950389296720493,0.06317849643899007,0.13501910792125613,-0.2865636200511712,-0.10698037792229528,-0.12368601631193563,0.2359296986306498,-0.227362795142246,-0.030356437289591094,0.04574675576465422,-0.3059052238559861,0.12635007875515605,1
org.apache.xml.utils.DOMHelper,0.03978189333097931,0.1376798639558364,-0.02336742793172536,-0.07891937737073398,0.18907204260001578,-0.01766904747339242,0.2186246887461143,0.1403227763371787,-0.18846003871475409,0.24492248221405974,0.28161418787299825,-0.15407421810941932,-0.21869991830679025,0.20398090950443054,-0.18259968334764853,0.029411521118180472,-0.10333321993075724,0.06269172894682713,-0.03613707981647666,-0.08736854894065887,-0.085338367905492,0.0484080021389527,0.11876231512536158,0.12558446382939564,-0.41277123822574036,-0.21884219847038977,-0.200735443735965,-0.3646371521682644,0.16324713219021023,0.20991628095586248,-0.047342804120477804,0.13932928182905305,1
org.apache.xalan.xsltc.compiler.util.SlotAllocator,0.39423979540236476,-0.06249901809991193,-0.8217967020202217,-0.02965657581915978,-0.08648784757848788,0.09336427733716055,0.002826174439444907,0.055011925046136154,0.057720351796367524,-0.01757786605211613,-0.004022526263058777,0.010758003181035647,-0.060557521850024366,-0.027769221587687562,0.028170965365127202,-0.04559528025330644,0.02529078118800606,0.05952135165371319,-0.0983776043616453,0.011018357954336004,0.09290954475541645,0.11142923969392,-0.14807594721838524,-0.06785524853208831,-0.10102677691329277,0.2099952008174013,-0.00800153793036857,-0.014849480818861288,0.11855183499364086,-0.024768705202888645,0.03344836224236816,0.0467715784792052,0
org.apache.xalan.xpath.XBooleanStatic,0.016672127518653143,0.21193826314102335,-0.021492306454575436,0.2820834938022408,0.1279742945115,-0.2504348415004209,0.22951784293942626,0.44188054034104335,0.4000538589608983,-0.07169031758351359,0.14893947953901754,0.0667212552725505,0.2161208961458297,0.09146706684593799,0.021059616178110516,0.20175472891700416,0.0742127770344703,0.09127961646383113,-0.026667714493270687,-0.28496231605139966,-0.05300375650299081,0.06580432889780694,-0.06191341082942056,-0.07452153138267417,0.0611144711098192,-0.13592857598363112,0.08729927538196042,0.20688484811589436,0.15430268298979335,0.082787984255881,0.03999579658853198,0.20620781076481307,0
org.apache.xpath.domapi.XPathNamespaceImpl,-4.3837508081190964e-05,0.06716389439120578,-0.058976871245672226,-0.0037441881688718088,0.10225755111412084,-0.036025102709661944,0.1867145295126329,0.19499376648483227,-0.2036587142336841,0.308144437149095,0.17845093863654246,-0.01790446579679558,0.10298924861886774,0.16430325154569753,-0.4296641381690026,-0.09952430141705018,0.07146796593260672,-0.3357248935499742,0.12307639204032733,-0.16799512030174976,-0.03736266983159945,0.1430144603361705,0.11693032479767153,0.3411249079436668,-0.13517942521651602,0.2568792658576962,-0.14450561205806853,0.03076239478826281,-0.13176868468857642,0.0028793291486880596,0.2635219103421094,0.025744855719630384,1
org.apache.xalan.trace.TraceManager,0.04684015592381551,0.4498052873819862,0.04040425350707621,-0.3841103270980985,-0.17624503440386677,0.1504040165249404,-0.31985167008621807,0.3151890905321556,0.16718488413498725,-0.12339279750335118,-0.3179553150132588,0.033552896972503,-0.14177227155010552,0.14496344714588194,-0.20250386770900367,0.1605270558340492,-0.10576871857358919,-0.07977942566444414,0.09032117465133013,-0.08478194522047189,-0.0011522540739864454,-0.0927325139199782,-0.003845488815427546,0.13013906582406845,-0.08557675229032666,0.1895268897205746,0.042526688508968534,-0.08538545723718102,-0.055965815193074114,0.04338690406638459,-0.14663031856172956,0.01947301124488992,0
org.apache.xalan.xsltc.compiler.util.Util,0.6035801248447294,-0.08626917312749209,0.30870482964484625,0.0052826543403139675,0.0347393675520771,-0.039525587294395176,0.06296057319786524,-0.0009399328572581874,-0.00488209016821925,-0.03375293724681603,-0.006291986739262775,-0.14702352695410795,0.09501341543670955,0.06642909765588963,0.0051433266580990615,0.10073539701054184,-0.5050067111457183,-0.27810555712408297,-0.18199635200493422,0.022575591793809135,0.004468722604754462,-0.062009755379594085,0.07714994868569727,0.03939884432223001,0.09728392281952032,-0.027336467236520695,0.024422508594312324,-0.05249751281738956,-0.03235474613019176,0.2867139928690979,0.05436607588996351,0.05106216107037186,1
org.apache.xalan.xsltc.compiler.util.AttributeSetMethodGenerator,0.37591781336720226,-0.05580200144685834,-0.5527029292147538,-0.05279034511252356,-0.008856749969506524,0.016837202620356255,0.1193373549367854,0.12249296413051769,-0.045039288986740283,0.11955719010282384,0.08541389146034668,-0.18569029533136,0.09723063306870204,0.18460161699729633,-0.20889266175699428,-0.01573300960895311,-0.19772279674151613,-0.24354633182106164,-0.15728846486808593,-0.026456992603859027,0.28038459293843493,-0.1438378264170886,-0.2154681250132468,0.10568090848643785,0.07772560978407769,0.11931243942674358,-0.03884574998426004,0.06038835422891555,-0.11389472967646368,-0.21348701230028438,0.036073026695140224,0.07843217753074726,1
org.apache.xalan.xsltc.compiler.FilteredAbsoluteLocationPath,0.4108153071999333,-0.046869493902960795,-0.7879900042256028,0.006823731376915203,-0.0661682288739837,0.04551945886509023,-0.046140074552652934,0.010936333902453804,-0.004963248919620272,0.03504529348687538,0.026763215265528127,0.10318204220082423,-0.04223946231559254,0.023742078018952843,-0.06774701148362733,-0.02043362164831411,0.17409559691090734,0.08591754127454737,0.16699739171985262,0.09619957655739496,0.019053237820153127,-0.12654948234410043,0.09970290011177457,0.09751067730164248,-0.10248090480275737,-0.05695211196964214,-0.022044941926214486,0.1664273530241804,-0.11920993293104146,0.04544150488239092,-0.05273831638765974,0.08798990163667439,0
org.apache.xpath.functions.FuncCurrent,0.036065803309897816,0.3545508423117425,-0.05037969770874224,0.38733659105239626,0.29343780960966437,-0.47193935230415623,-0.22923946940981724,0.1720901481733292,0.0874642433673755,-0.02479190347243026,-0.021271141264448935,-0.04322967736116566,-0.021047622589844852,-0.19325267809777757,0.09181726598310708,-0.016228143193774063,-0.06842551028933175,0.08138391387570942,-0.0849398554977424,-0.07230316563473961,0.03889779780111834,-0.02932187764390606,-0.2605636336660502,0.04024647619755665,-0.05701969248445529,-0.09058509424622098,-0.17587810700141146,0.18754321193385246,-0.062120335149333544,0.07089818807500052,0.05259387789100511,0.29582039017591916,1
org.apache.xml.serializer.OutputPropertyUtils,0.005482246781104005,0.07984188196844821,-0.05076305625329251,-0.10050608003940532,0.08443623640184433,-0.01258001700080921,0.11174677574206049,0.1739427236365577,-0.19264834295211902,0.2630325996075137,0.24870139266330427,-0.09001039439277132,-0.03682431117495643,0.2393699968698758,-0.49879073572242766,0.03363925327773979,0.08652544333505054,0.15713048170466018,-0.05376409192999991,0.11034205998573511,-0.04103283872447439,-0.06583464597967131,-0.012945927112598449,-0.020475177514441247,0.5056939742302253,0.014580600559408014,-0.21209900770089382,-0.01132285979927146,-0.21170427770273287,-0.17489391030322501,0.12533896628536195,0.006096389795894913,0
org.apache.xalan.processor.XSLTElementProcessor,0.018350318091363112,0.19599206074982198,-0.0024687397318346525,-0.24454943234201776,-0.015803423750778395,-0.05120501350630348,0.05488492863710269,-0.2543848244094593,0.008655824288735067,-0.05220149227865527,0.5109540415178854,0.132226767361157,0.3637337318858798,-0.2932916853373833,0.0013657859349017747,0.13340164095947638,-0.06692026708655223,0.12876599282911572,-0.022005947016062975,0.23301615368263173,-0.03578019887333884,0.14322427572939483,-0.20701283381222324,0.27696705137653965,-0.1667811677077488,0.004750488301545665,0.10953569598132358,-0.02431748724280427,-0.13339591348705493,-0.008446645312787878,-0.11665901558430881,-0.15577177078087287,1
org.apache.xalan.templates.ElemPI,0.02995782983483012,0.33468436062650025,-0.03624829145153728,-0.3385765937891128,0.1547254280750445,-0.2835693371866978,0.4738264149402565,-0.34125465626658363,-0.10261779126261598,0.07360460184049013,-0.2418671180889916,0.08048324028552971,-0.15581607462033054,0.12734279101487767,0.2966907233203851,0.04184697283964188,0.0372329490136363,-0.042141718569150284,0.03333108277980058,0.07393373199332984,0.08519127399290069,-0.06174638890599555,0.00835414275641672,0.13923554999367435,0.03832044185213745,0.1286634047730934,0.07402507234686163,0.07114359065702959,0.05105203576939415,-0.059833242781451496,-0.1040525757896033,0.16965681907079802,1
org.apache.xml.dtm.ref.DTMDefaultBaseTraversers,0.0062159968443135675,0.037026967399032384,-0.007704498213475435,0.03435802133041588,0.257313430352903,0.1849466479426472,-0.05335123953366015,-0.1124941485745016,0.09482457413086816,-0.07126650726672651,0.15052023518924412,-0.05218357532400756,-0.19533372854940262,0.1322620924972999,0.03465614020332332,0.4253261928563175,0.05617081388591468,-0.2340606910312224,0.2533609707767993,0.06322722758972212,0.34336891630820615,0.47003438416346444,0.10937990582619965,-0.19660580288283538,-0.04707527986794382,-0.1250888548955702,-0.12545777957310028,-0.00358871881854824,-0.1392262189228342,0.12583145017969188,-0.028851244186695272,0.13778481904647838,0
org.apache.xalan.xsltc.compiler.Import,0.4383461236569593,-0.04520487417197703,-0.5534992176012163,-0.0532022435721466,-0.0663327158428312,0.05664771834179943,0.022303013602876887,0.0037053501847872385,0.04668883194201114,-0.05152177516543345,0.01885471615967477,-0.3334866458872727,0.15358598850686123,0.07411043755671692,0.1021995982481129,-0.03234617457024973,-0.22147874549242955,-0.10749115931511456,-0.2066252295296477,-0.06345837611558383,0.08917429382730198,0.1143415165982958,-0.0474782950452353,-0.10957297207494572,0.0780301294437614,-0.014063235322432368,0.03560568179392874,-0.046791139342246955,0.1286656913022413,-0.3925066624482225,-0.09164396382901756,-0.012196390437333096,1
org.apache.xml.utils.NodeVector,0.025902082112088443,0.3180697981279468,-0.023739486731509347,0.021572825096054803,0.29707921610902066,-0.05560784033064745,-0.01091938867494924,0.11032656633137748,0.11405625366283438,0.05779755496916289,-0.10507537837860936,-0.1588278677974017,-0.4107454205228632,-0.16009712950694407,-0.07829222878019493,0.12490982787851002,-0.011047592045860467,-0.07703897198584214,-0.20514997989091993,0.12844460900587487,-0.3135287250535455,-0.28420009675919483,-0.12526061781567402,0.0057759901104593924,0.19655752751837358,0.18367833742505285,-0.22031210729154643,0.2650515954382062,-0.058768288805363056,0.07171916340076523,-0.2292768884829544,0.11418398789773931,1
org.apache.xml.dtm.DTMWSFilter,0.02047711680664909,0.17309066993142244,-0.02095322748978315,0.0015932358585695517,0.47052653845280623,0.18733121833388136,0.1260682779252832,0.19143647158512297,-0.2712774832535153,-0.16191514724643444,0.04224797293184797,-0.0515557214556102,-0.20172527409828211,-0.13512892767272403,0.13540266303210158,0.11722195152837311,-0.19110121977927808,0.21232744866467476,0.10946849142831167,0.009053462981637827,0.255679124209458,3.8788065832496486e-05,0.10922074780194699,-0.08924592899759928,0.12787232114152589,0.1572133865968341,0.29084933001771573,0.21276903090994276,0.15725252935741663,-0.011274164332415359,0.0230887958024066,-0.2993610637294474,0
org.w3c.dom.xpath.XPathException,0.0006543891027675564,0.0807321236038499,-0.053401358052922336,0.03264266728696425,0.035439759753963934,-0.021545563326757815,0.12092990525547391,0.13654725020123895,-0.16653381962219174,0.2815708290348193,0.1946694761888111,-0.009794110477062652,0.09030181982500408,0.15701533263524514,-0.29451213029692647,-0.22360415068152006,0.14353846510833368,-0.4229241174506261,0.12022513180496422,-0.08803264697819803,0.032456540104910135,0.10736527426162679,0.2155026957733494,0.2851483981707699,0.012276607172479049,0.4761237393586102,-0.08606465831152153,-0.10066042231807552,-0.10146132507621301,-0.03502524131336866,0.1441186764567868,-0.03665829316975294,0
org.apache.xalan.processor.ProcessorStripSpace,0.02223935485263458,0.2021009817643712,-0.010167213690955587,-0.22444067732964001,-0.007519922674587057,-0.10791149608735795,0.10249304404818729,-0.31798037794829376,-0.008294858789835208,-0.08989098883650892,0.3714604246688275,0.05812238569358692,0.2819042781232681,-0.2023044702376808,-0.01140654745759537,0.02558340608133451,-0.021791718547988757,0.05108156145488376,0.005176798623188095,-0.3516702357864383,-0.015937080620585437,-0.19484173023926368,0.25938279188970603,-0.42820029236620377,-0.06413502260767671,0.07150796107600348,-0.2661080136349619,0.057185511881262543,0.07053169167313252,-0.07991934573046706,0.06142491951623888,-0.009668167849560405,0
org.apache.xalan.xsltc.compiler.XSLTC,0.3847120282834045,-0.025929540797719766,-0.1484368141585984,-0.04067154716979827,0.004886634968000008,0.024876505397307094,0.055564799511649374,0.006147529055737839,-0.023845749971032372,-0.008661198691659176,-0.029519721883311877,-0.37503767946218663,0.27979340149069226,0.03963200019535455,0.06871378364895431,0.07630359764289725,-0.2859913525417818,-0.2149983273363171,-0.17319689091231738,-0.10414924943031491,0.026983824495934523,0.031562013419684454,0.026017550054471286,-0.058131872457884,0.3289856406223711,-0.19791070488986343,0.1359595642771046,-0.07047883997574496,0.1518879750847051,-0.4273964585178859,-0.09976290473635518,-0.17354723077853043,1
org.apache.xalan.xslt.XSLTResultTarget,0.013008726383544273,0.20080794173809166,-0.06290679864919735,-0.17951880264152623,0.15049394764338325,-0.1523542038654302,0.3446927067964185,0.03060028075070046,-0.21066220195657606,0.26962079473829065,0.04774557789471761,-0.038397289278555895,-0.038526076807787676,0.20397313846868317,-0.34792165966803773,0.022935780116142262,0.025490494694228535,-0.23769503076986334,-0.003989743304005761,-0.19588601460153035,-0.212070864417864,0.29757097842663927,0.05935009860395865,0.39421965136687354,-0.03141206599606308,-0.053590236194372434,-0.11242726364880917,0.22420742024253038,0.0228452730340825,-0.10220847160302891,0.07796124547733069,-0.02040286635618823,0
org.apache.xml.utils.synthetic.reflection.Constructor,0.05276623629544922,0.031569247068674235,-0.07044847755599498,-0.008935003959976586,0.0015689908723891049,0.012399853534084135,0.057590143591697694,0.0576158574424163,-0.024548137730044984,0.07150563660777359,0.028805136558986876,0.046517784000463386,0.025907823413595286,-0.10766617878202595,-0.10148949573525663,-0.1688145760833497,0.2914609722253019,-0.007555934134173052,0.05651324503010203,0.13957597770670946,0.02426143115875072,0.2551373472271684,-0.40692782734147465,-0.21141210222942342,0.12013049289128735,-0.030377334711780217,-0.0755250199537087,0.22622537491587644,0.43481911312361293,0.34484711077249447,0.2811510166373518,-0.2858196776513702,1
org.apache.xalan.xsltc.trax.DOM2SAX,0.025100439892971862,0.07652688039226072,-0.055573271520377034,-0.045769019825467445,0.3474789487374942,0.12887886521048342,0.18901271296086075,0.31194007301256177,-0.4241579605532929,0.08207623260792068,0.06749317371104752,0.026225738095221975,0.21350582725482012,0.08116452746138395,-0.3971711245300883,-0.06557743440462822,-0.16611499961462659,-0.082232080419767,-0.018863288276687228,-0.2289863158923488,0.09070802533862536,0.1357249726805471,-0.01506793485310116,0.1952524905767573,0.01910504847143924,0.22712933528975024,0.05293519382877399,0.15553776238262576,0.02656426108056886,-0.09043873354566134,0.23099980309473692,-0.136014837612151,0
org.apache.xml.dtm.SecuritySupport,-0.0063842847802143,0.019175199119620075,-0.08750238726754449,-0.050935035006516166,0.10345901861394738,-0.05174778579847504,0.14866703586157334,0.17391834495370295,-0.21271218181873688,0.3061648111486184,0.1482200571375508,0.020946542639596125,0.11147178200664024,0.22103568256107345,-0.3945978995842564,0.0576770541204404,0.05611660241365904,-0.27775585414561627,0.3076788631620173,-0.058192264129034145,0.21162541256994197,-0.21847451697403172,-0.36120675037404404,0.21576337176605634,0.25020280283371565,0.01953545815689728,-0.1140552180092176,0.048749437538176836,0.05048133949900335,-0.09179926172560003,0.027557637201036097,-0.06251067520030354,0
org.apache.xalan.xsltc.dom.SingletonIterator,0.012196603962923009,0.0521335173870796,-0.006037011122183351,0.012507958137547815,0.37896374528142124,0.2728428021953726,0.002528737486819202,0.09573418865646845,-0.24303255414335273,-0.15411302198285004,-0.2597234001986448,0.17859184843818243,0.43304004977986654,-0.17519766398756248,0.04872652511082105,-0.2188312426239124,0.09451938246601341,0.012928104020437403,-0.0807341129841656,-0.08463970802481824,-0.14524134126545665,0.038808471957607026,-0.03228205381872418,-0.031670114335689246,0.07577867390217109,-0.1599399328400697,-0.0823707741043231,-0.141549713380815,-0.03368198433707618,0.25082865006970906,-0.2353034611220366,0.30671682031461744,0
org.apache.xpath.objects.XNumber,0.04864698990369781,0.3580719544190389,0.021219951860668267,0.5688806176466453,-0.2592571536323608,0.19159052362382242,0.32812884415625687,-0.056872471156832916,0.061935557153640054,-0.03138563962762068,-0.025572404366373473,0.10381231965131857,0.17323314076409096,0.16601347661486054,-0.08827391648176065,0.15175273560079658,0.01263530239352787,0.14101611273130188,-0.15846762602884165,-0.011258166547022642,0.14452303398459757,-0.13662612273561064,0.025406341405868737,0.09003216597999647,0.02402931304637861,-0.025065764370993827,0.00868001583506068,0.12637220761140155,0.26793204710206997,0.17949082188541743,-0.03991191954663393,-0.09714737210412092,1
org.apache.xpath.axes.RTFIterator,0.021656251265092314,0.1978651825238643,-0.003245230654888598,0.1571249706316095,0.160070476160766,0.051689377344364164,0.08346042447682385,0.17422838874749935,-0.0704947845549935,0.10899284664982856,0.15130147506454658,-0.23179331978508402,-0.35441936645780303,-0.43902167792277735,0.19332782746545651,-0.08115132947311245,-0.06435544200126313,-0.06534057106833158,0.10234022454610496,-0.04402850812814513,-0.07807029661972291,-0.07029992328636055,-0.16480991245063978,0.05281912447066296,0.10635867368696462,-0.052632392949522495,-0.028091521202056723,0.4502354375616812,0.0017153101125367773,0.16967963780890308,0.10166434858005634,0.3094464091678761,1
org.apache.xalan.transformer.XalanTransformState,0.031770146084692356,0.3441790059103294,-0.03420097962007031,-0.10704559129359326,0.19934781039871283,-0.28112404406682584,0.17886042406353672,0.0970916616765317,-0.0491953257962253,0.10640286338320364,-0.11465483833881711,-0.1222800642502063,-0.2168766927445373,-0.04149990466975048,-0.08974458984653347,0.02641428246565398,0.0761454500402638,-0.20035579359899222,-0.14805107562469147,-0.29647226040701763,-0.3038216514616335,0.04376023766451463,0.07936737949205404,0.14583438277085892,-0.22320240893579676,-0.1791723524203669,-0.2089466162771956,0.2461320536996532,-0.19505724974655453,0.14223466527970827,0.2369791061132073,-0.17384387262858186,0
org.apache.xalan.processor.StopParseException,0.013078006411302134,0.1354027543306598,0.005944667624375743,-0.12868511616175987,0.03902068830367371,0.016011242376006072,0.057663989935623404,0.054962379054333245,-0.10470273272675988,0.17274537336384826,0.4500241041362639,-0.06069681928625491,-0.012858535276325527,-0.007033680641897411,-0.011462896372418409,-0.010815282753010856,-0.017295201060876002,0.17767901723767185,-0.09644714417640424,-0.033084799454166716,-0.22252369717132175,0.11384195481990368,0.404749555587908,-0.14321522103239748,-0.11235175410666,-0.07966730279928119,0.20794240318836055,0.015794315540990832,0.420126882942179,0.07105545128847655,-0.3962964209322444,0.13842489868783203,1
org.apache.xml.utils.res.XResources_he,-0.01256246389975616,0.0015105397340062074,-0.047960041382333674,0.0069398686195528666,0.05136769691751681,-0.09286448160506812,0.12821197476452434,-0.17187051109220206,-0.005926087326157038,-0.25088294083397944,-0.12063840436850677,-0.059029464443567374,-0.16651984745321488,-0.19471552038867648,-0.4456610437716442,0.053617150615068644,-0.15990981292993087,0.05452221245753786,0.047684648891075286,0.12415968375860587,-0.26140495183013657,0.27897990375571946,0.3462604736396256,0.08764253764182131,0.012690051135468174,0.11561058025538477,0.026952242150412902,-0.10831881595680931,0.2899961087787212,0.013055309261344693,-0.3784713692359804,0.13651438883470923,1
org.apache.xalan.processor.StylesheetPIHandler,-0.0008202724440574388,0.09932316638890562,-0.08261733766338694,-0.1199731021663326,0.13744636544672803,-0.05945955649759994,0.20325674373642066,0.129637898209359,-0.2455629811763873,0.2821080824998179,0.4131343203291724,-0.037041973647091386,0.057652086158028755,0.11184427676960078,-0.5100165153608469,0.08590985771504107,-0.03543926215292525,-0.0785689052483699,0.17825978380799096,0.013497677051644057,-8.94068745452284e-05,-0.07540711890926888,0.001614847454766666,0.03401060864440473,0.10135763667504945,-0.1662440750981006,-0.07463640184577018,-0.09731187153076601,0.40680881584202444,-0.04437381119989123,-0.14089371217247068,0.08125819035100416,1
