name,vector_0,vector_1,vector_2,vector_3,vector_4,vector_5,vector_6,vector_7,vector_8,vector_9,vector_10,vector_11,vector_12,vector_13,vector_14,vector_15,vector_16,vector_17,vector_18,vector_19,vector_20,vector_21,vector_22,vector_23,vector_24,vector_25,vector_26,vector_27,vector_28,vector_29,vector_30,vector_31,bug
org.apache.xerces.readers.StreamingCharReader,0.11775811995347756,0.2692361276139975,-0.18559958200443258,-0.23686754051806297,-0.25370344788203253,0.014092401095640146,-0.1140460195881877,0.006748939443845925,0.028355508097517267,-0.1274385276323531,-0.18952720560205696,0.012789110881988976,0.4230737684168226,0.4242663119483975,-0.14945834657349902,0.008941921219923616,0.014623529446889631,0.002978936552442911,-0.02624223927436096,-0.1628014187354024,0.06984095500997328,0.11192222121997075,-0.03736611547486165,0.015141283952998089,-0.02703934320276773,-0.2612831566317495,-0.20803292447470836,0.24623119323819248,0.18311919460470366,0.11693858947670328,0.044427814982402655,-0.2059162140282433,0
org.apache.xml.serialize.OutputFormat,0.16911914239301848,-0.06191724130809303,0.017836426359855145,0.04436449572001421,0.06201590172832501,0.03566634737746087,0.024320631069395502,-0.13800568822820455,0.8947328050964986,-0.18154501259241582,0.11099965218794411,-0.026923648172975687,-0.033315534366975076,0.013517100112755732,-0.022153956144810857,0.043676015911251254,0.03871585193441867,-0.08667847749687368,0.0004218960374896728,-0.10741649473604153,-0.04324095109276603,-0.04015345314671218,-0.03854738352024499,-0.019165556484767053,0.04522436642967026,0.10288747132097738,-0.059057900202941965,-0.14722940110625543,0.14749391739823361,0.028278069108302415,0.0402120144140291,-0.04928395282193521,0
org.w3c.dom.html.HTMLFrameSetElement,0.036675075418495955,-0.03675978655834295,0.018616878508864097,-0.03751077843291223,0.02739453226279627,0.641396933357715,-0.0072803353425935045,0.09303271846981102,-0.03552274074106272,0.007473114918542651,0.013391774382692777,-0.5424959666441621,-0.007724946238565218,0.027938871311853446,-0.0042942239757976525,0.02053154185053411,-0.018820742146471368,-0.02789262291373317,-0.00535372559309586,0.09563305881858826,0.043801688536286305,0.23207306534172406,-0.3224160867468413,-0.04175216523366584,0.2977012712667333,-0.0017275883787704214,-0.005299047438798154,-0.05330264674686509,-0.09072217866235943,-0.023546861704782623,0.07206194510714678,-0.019174385825873417,0
org.w3c.dom.html.HTMLLIElement,0.01801300282446585,-0.018386413113988937,0.009249301971322958,-0.018143645978889844,0.008010257915098523,0.20131923794179707,-0.0016815429876932725,0.01960077029268317,0.002131716836288141,0.0006019683797164979,0.005533990423396726,0.4156891790119496,0.00992894182643968,-0.0193645443248086,-0.0035830425696854787,0.01989914582149808,-0.01816627997092194,-0.021825583054294172,-0.009118562202345972,0.2223579921783857,0.09425579800199722,0.4204955652518502,-0.5434433537847462,-0.06848639378167787,0.4682815519671129,-0.005606704189976268,0.005749248609380709,-0.05779164947602441,-0.12431316148299104,-0.05569959332890445,0.08055194815027855,-0.020870299461836758,0
org.apache.xerces.validators.dtd.DTDGrammar,0.3865798530547637,0.2601318937561845,-0.0692897610922746,-0.258352974696335,0.3606943239442839,-0.03156797006177602,0.049425338767236024,0.01986485361441885,0.052260950196976436,-0.09379860937303791,-0.19501120367957356,-0.006088589610925017,0.054177849225648785,0.060567739551014264,0.20226860594757307,-0.20762213676058813,-0.06907752430763715,0.08833419530637503,-0.00874770897736588,0.24030758820769066,-0.005896316604113876,0.060069031738615164,0.07024000403252963,0.4334891154747764,-0.16849640523397252,-0.07083629627764808,0.01647014154033264,-0.09586873550988868,-0.20737581633901453,-0.17695020846211582,-0.0035523938968654778,-0.23043127747745226,0
javax.xml.parsers.SAXParser,0.18806062102106136,0.11172863509442786,-0.17826804403410113,0.4858298152499324,0.00759665266792443,0.045799753600017624,-0.0035133157749604343,-0.09027956609160855,-0.15877740742620983,0.0015221391170422568,-0.11882572286313552,0.011801437155986019,0.01542735864668837,-0.0021308620494316704,0.006058419438147965,-0.029050456939757392,0.019188193416334084,0.0849203581156224,-0.008411928126978127,0.12302403049138116,-0.0017134889936949367,-0.07882719095293225,-0.045955591969260384,0.012791667064076617,-0.03439119554801608,0.0339479616660313,-0.33788501604149934,-0.35380522855565855,0.09930762612540306,0.5091228138816024,0.16466519406489152,0.2535494226536728,0
org.apache.wml.WMLOneventElement,0.007160028785300499,-0.006653222196289185,0.00310172878538384,-0.0061852959465555244,0.0005394873803873507,-0.0011438004182562887,0.0009446068127006039,-0.012482414127356515,0.006327396565065521,-0.0029531132880025518,-0.011693549873411662,-0.001062940733933741,0.034440401497683716,-0.04023806349798834,-0.0014527091266211597,-0.014330569047408606,-0.05016041764310069,-0.0010236186236816196,-0.004962505103626868,0.059218664444612934,0.07429305056581435,0.12678873114481587,0.6955098187835137,0.09592070567742496,0.6641667013167393,-0.0639750022300115,-0.1533680068792719,-0.05034554006449062,0.007197938255216932,0.008638009840042904,-0.058190609326742235,0.03378790281688438,0
org.w3c.dom.html.HTMLHtmlElement,0.03667509944841814,-0.03675981461034165,0.018616894926721823,-0.03751080705947835,0.02739459564575509,0.6413973909657158,-0.007280299863166024,0.09303281021538438,-0.03552279197892227,0.007473236586377454,0.013391514843022314,-0.5424964280542928,-0.007725173652854409,0.02793877167975465,-0.0042942794021314495,0.02053188151542816,-0.018820105183370097,-0.02789135312205965,-0.005353327265152607,0.09563378961070008,0.04380160960923278,0.23207240478835053,-0.32241404888526626,-0.04175128234250902,0.29770211795479745,-0.0017290824950556463,-0.005296474733937785,-0.0533031180616702,-0.0907195020698882,-0.0235428772998022,0.07206735119479761,-0.01917170748298187,0
org.apache.wml.WMLFieldsetElement,0.007160068983243404,-0.006653276737407129,0.00310177341797843,-0.006185336165889322,0.00053948700791426,-0.0011436188669808217,0.0009446018963156625,-0.012482323288623781,0.006326708298232653,-0.0029534009658020157,-0.011693601193895778,-0.0010642776051079396,0.0344394520831796,-0.040237617373736496,-0.0014533567876590914,-0.014331550437552567,-0.050162007912704615,-0.0010211720123407264,-0.0049652685383435955,0.05922340767567727,0.0742858519568874,0.1267858293442005,0.6955107953951779,0.09592597713072387,0.6641682667009322,-0.06397672961087582,-0.1533593024487455,-0.050347190897426376,0.007212605356511006,0.008611825921932326,-0.058188592094456044,0.03377968943568117,0
org.apache.xerces.dom.DocumentFragmentImpl,0.33492132730348945,-0.24512652015603462,0.09096572765709005,-0.17825162911238565,0.020592635597684174,-0.03935449344494287,0.04820078340823665,-0.39062148329667834,-0.14369483194393082,-0.034139730735154354,-0.1273862120002004,-0.026930585690670014,-0.06235654463664619,-0.02624707931242454,-0.04233517550381974,0.04181330798186348,-0.22694503262197221,-0.15277099138600192,0.003250515565256346,-0.18490953215900321,0.07609209181037434,0.17062369662336838,0.09412296244539783,0.14854510053760056,-0.1909480957617169,0.0814652312167423,0.14173374049924628,0.161657008544457,-0.23238471655207962,0.0670364167816852,0.48562953135156267,0.1593824400678256,0
org.apache.xerces.validators.common.CMNode,0.0752271376430383,0.15512070501148456,-0.05638869141537876,-0.12705212128782267,0.44910531048267716,-0.043703475807267286,0.0748481458872171,0.19234709464292482,-0.11994110667129858,-0.5080173622402606,0.05211902440265549,0.006053748449534296,-0.028311150709914752,-0.03141515587459822,-0.14914239290703807,0.06092117433140581,-0.08106078052611032,-0.12314746520040151,0.0428355200108236,-0.07367188421888567,0.07655518851024967,-0.04301872893408561,0.02712578219272683,-0.3943086811797681,0.09039822022087655,0.19072145783054467,0.1750009797580799,0.12271595104857473,0.10755118572709475,0.22335764465996608,0.013196372364584685,0.2387495359022849,0
org.apache.xerces.validators.datatype.DatatypeValidator,0.15855290040588255,0.43546675306101307,0.6782894021907674,0.08123870474927442,-0.035967082747862554,-0.0009237975270153865,0.48114293371048267,0.07184106976326594,0.01542464348317614,0.005477212331223011,-0.07906258325944236,0.0017881111089964362,0.06814683986829072,0.06588359536515474,0.035412138714941366,-0.005168893995025761,0.020533224550867306,-0.018084166083321817,-0.15726275818941343,0.08043711294208335,-0.017262516911626474,-0.04532529866892699,-0.01471318972530353,0.14205914603658346,0.001247665551628363,0.010767447931143958,0.010389010660246039,-0.05594979997111681,-0.04613343269652342,-0.01154557913863416,-0.006836125684114493,-0.05871770254957913,0
org.w3c.dom.events.DocumentEvent,0.282737778855178,-0.20641744210661714,0.08092937792015731,-0.17213188469619925,0.035848196847281924,-0.03405176878197227,0.05641026356824916,-0.4302934362468569,-0.19363564356137772,-0.025164790208159062,-0.0563292851865838,-0.02719003153061171,-0.03709374423732132,-0.008248340225630223,-0.04224862543488801,0.0851801731351131,-0.08847015303877596,-0.2509428241746484,0.01238864922769522,-0.31233648145506926,-0.09196595017392019,0.2893488955983754,0.1784568372036295,0.2615756715034662,-0.18088679989599318,0.05219716294083527,0.26005288337748544,0.09919459669551435,-0.22673264152730022,0.19717747514496134,0.18354579384034989,0.011170707326518372,0
org.apache.html.dom.HTMLTitleElementImpl,0.2166448168575202,-0.13713197104902705,0.04947111882406191,-0.08344569468064489,0.04874081286388157,0.4460550351928286,-0.002761764496957299,-0.015936499333520624,-0.011510355196475586,-0.017275248849634994,-0.15165333380806068,-0.5410191827298682,-0.033686008387579375,0.004178582594571396,0.06143202503389439,-0.29883420471453803,-0.16233922969875902,0.04110874616310503,0.014273032962970054,0.28114635709623853,0.06155179164894852,0.27285663909270336,-0.11248429720971567,-0.05835048389103654,-0.06128161824384407,-0.031655348776974485,0.02886909314667765,0.14861430308053303,0.02821634822562044,0.0024928336791167744,-0.23585748374647833,0.16489826790983902,0
org.apache.wml.dom.WMLSmallElementImpl,0.010318417158644877,-0.009165575702650629,0.004197498381377602,-0.008217127860160817,0.0009066632198407187,-0.0027255033631744673,0.0023066356137303673,-0.019455226376737685,0.015330720087002639,-0.006582344223562985,0.023378128006065833,-0.04841606879469237,0.710938656667415,-0.695942321620178,0.002351712711159988,-0.0032124389287798857,-0.01665621960430508,-0.0006808955829003521,-0.00046031774729738274,-0.02562622952852971,-0.016904908608715734,-0.02660261570811223,-0.059294073699510785,0.0007826900294295676,-0.028854619099087694,0.0027425439459983617,0.005501886214596571,-0.0031631921446933957,0.0031198360459988818,-0.00594238415481793,0.0012198583061064213,0.002520243591468285,0
org.apache.html.dom.HTMLButtonElementImpl,0.029961769896505695,-0.03109593785308126,0.016501679504467414,-0.03463606118960908,0.028034252389315686,0.6380393635465912,-0.008236566073097478,0.10023846886080132,-0.0401189113271782,0.009120538828519417,0.015073052627884123,-0.7393286273300471,-0.011095155728001804,0.039688664468534016,-0.0007984431700592947,0.005315300237789342,-0.01238835648724355,-0.0013010557593675373,-0.00417989508752253,0.0188432723940506,-0.004664967369985602,0.0386697450811597,-0.1003448455672284,-0.005647246271288658,0.1117331341910592,0.003119514147365581,0.0060969294564744755,-0.00726962702152571,-0.010571254139309552,-0.019865853393797588,0.02064281242458094,-0.052453346379477905,0
org.apache.xerces.utils.regex.REUtil,0.007391183251425831,0.035669041872308946,0.09530585490481741,0.019177856791563277,-0.031523295304652,0.001979539853587723,-0.041993859801468865,-0.00898874410427201,-0.008108437326365958,-0.03535931831825385,0.0033318498308622236,0.00028732119546675974,0.006953280741339397,0.007184838248510979,-0.05410161392942334,0.04721660149223956,-0.053098185833929286,0.10212625008438324,0.9783327696991998,0.02595982724117157,0.01925133528981616,0.010004284961067214,-0.011007284122517665,0.04664528027146578,-0.01089106443173138,0.003423902999195058,-0.046668433384828525,-0.03374449510131327,-0.0064191959395378945,-0.01945190227620846,-0.013382279552760175,-0.04387721344147541,0
org.apache.xerces.dom.ParentNode,0.36277475877476195,-0.26118292324446574,0.0993220409559676,-0.2036257310686162,0.014286958472354488,-0.005239339562313091,0.03880915698588975,-0.3586509241687046,-0.24081945451110293,0.001624893541238714,-0.0056147371782648454,0.02362293371204788,0.019765256112425262,0.06007294027793017,-0.04680197650499181,0.2689853643000446,-0.1114087630713067,-0.29766489452749145,-0.0076884781298882645,0.10564161606136019,-0.18652048139643337,-0.08241714639058435,-0.011117744859175238,-0.02951618348911397,-0.008933767626952204,-0.052734996425241744,-0.06554585917190515,-0.26914265831598316,0.20139997578568966,-0.09546563141401383,-0.4320999513400765,-0.10275492080198344,0
javax.xml.parsers.DocumentBuilderFactory,0.08465530805097903,0.03136783107523388,-0.06740171391423903,0.19275051385799766,0.010734974399397456,0.019989656326658667,0.013413166434263372,-0.08304256496374113,-0.1285124459959953,0.02283290474301341,0.032754008101265226,0.006100039777936824,0.018311680155485743,0.01327111891138627,0.039476068673474064,-0.24740287702149047,0.09712271653776465,0.15505506157048746,0.022610650470304715,0.015120655972567416,0.04044472170448931,0.03270676810596849,-0.01371159815826342,-0.13385644818687129,-0.06720522004511054,0.2644969115789734,-0.3107081640372303,-0.43420416458693023,0.35669900310132785,0.4880435717892307,0.25203582361586335,0.1327463541671502,1
org.apache.xerces.utils.regex.RangeToken,0.007380302138994768,0.03500674565816805,0.09221035754637208,0.018348811742630994,-0.025617306454427495,0.001798943899544581,-0.08257188615673657,-0.013075041044515854,-0.009062335719088908,-0.03445619695093896,0.011356303102784349,-0.0002280305618325051,-0.0019735781438243644,-0.0020880966037197515,-0.05693923365411502,0.047189740764895835,-0.05366267124228946,0.10208930896650298,0.9756110179158247,0.026652930694333398,0.020443232489537357,0.012882698773765253,-0.010374633348249444,0.045719859833977514,-0.009806538240420241,0.00427503372227187,-0.05131887286678876,-0.026781077684529697,-0.004585022395785901,-0.022949039509637607,-0.014672949801536807,-0.050172206590818016,0
org.apache.xerces.validators.common.CMException,0.09914262916156079,0.1983194003520344,-0.06440812056111989,-0.1385951534852862,0.503563465043972,-0.047800904166700554,0.10246253412043427,0.2105659763199033,-0.11756844466566317,-0.46620743449946583,0.07692145249137271,0.006827397464160345,-0.05825829228402901,-0.06429118232212612,-0.1512535096218251,0.054852871581122,-0.07895506917464272,-0.15301177140652056,0.05256394136508431,-0.1030724802933004,0.043636294386590654,0.04033735868416978,0.05514803538381448,-0.46749549593411627,0.03971629357492076,0.12137320912618897,0.05122341478918714,0.050819864741629694,0.06690045358118266,0.09006885627566483,0.10781519665484271,0.17986343343852612,0
org.apache.html.dom.HTMLFormControl,0.029118837166193512,-0.029486106157698345,0.0149726923742107,-0.029754968219792004,0.015076638171590382,0.37324418766727563,-0.004938450101391819,0.05065359760180253,0.0015084192213638617,0.0033510513012143858,0.016529379184534454,0.5374789131442546,0.017892977875039566,-0.026850611906954445,-0.006075187839716162,0.030407092683299768,0.02253568736903181,0.011080695191416695,-0.011944347874857467,0.20411180582104696,0.06777581079844136,0.3394377549802402,-0.4466137406626583,-0.05608080408866481,0.4062362304030468,0.01806423095277675,0.017701781406019138,0.023471102190742804,-0.07030779687531415,-0.013496141359366198,0.1637172981818941,-0.02947880932879821,0
org.apache.xerces.validators.datatype.BooleanDatatypeValidator,0.07441472907513445,0.2424991460521643,0.45968248052189215,0.0698332125255881,0.01569537428411167,0.000829226820449752,-0.8207766771556206,-0.09203029866838369,-0.029895928273155715,-0.04787234634960455,0.1000402319989191,-0.0027978100367449382,-0.09198293604566458,-0.09089844939372277,-0.04623246590871349,0.007596768944390198,-0.027019839537897865,-0.002466825161408518,-0.009067206436912632,-0.015257102173524537,-0.0043954995152805255,0.006855997839850349,0.0023678131837093896,-0.03928845355425532,0.002691296636471009,-0.013431181052566014,0.0003424608097223848,0.03200154701093089,0.004864341861435813,0.013361108252994013,-0.0009702359949177425,0.029654721700107474,0
org.apache.wml.WMLPrevElement,0.0071600873948361185,-0.006653290415613409,0.003101768857336881,-0.006185269218310688,0.0005392509005497057,-0.0011437674554410548,0.0009445941823075285,-0.012482592403088157,0.006327198228094445,-0.0029533730163093376,-0.011694075768478014,-0.0010630386128385857,0.03444043902547834,-0.04023715329903998,-0.001455197628880907,-0.014335685505018847,-0.05016540408789469,-0.001021883579668351,-0.004961235083678516,0.05921732145014648,0.07428662547815908,0.12679358341602648,0.6955079136637361,0.0959032615197107,0.6641674320476423,-0.06398110728901328,-0.15336700762545996,-0.050365496796547074,0.00716694467749869,0.008637562854124032,-0.058208082219082996,0.0337917321447434,0
org.w3c.dom.html.HTMLUListElement,0.01801285824903147,-0.018386269270484937,0.009249235501517208,-0.01814344869279408,0.008009812721954841,0.20131777830046732,-0.0016815856454682157,0.019601101904241712,0.00213141362106377,0.0006021517070222933,0.005535232284395255,0.415684491465378,0.009928770934182932,-0.019366282228994575,-0.003585368012440023,0.019895849075347194,-0.01816558781880522,-0.02182451998713866,-0.009119844671583251,0.22236161473562627,0.0942422554524715,0.4204914991685651,-0.5434550377442899,-0.06849837776679762,0.4682818502209555,-0.005593153837398483,0.005769255715759269,-0.05779792666783582,-0.12429332916252032,-0.055713818378394314,0.08052126886180605,-0.020913562913265786,0
org.apache.html.dom.HTMLDListElementImpl,0.03006285841420852,-0.030560299057924165,0.015932690163140067,-0.03310772268216266,0.026506194058734018,0.6033648486554443,-0.007192049741972331,0.09220736190872313,-0.040082189472060575,0.008617605052235484,0.0126594168267421,-0.7573090904600063,-0.01130281983425866,0.03906179251258115,-0.0012370835534142033,0.005006123262785087,-0.01743833183419496,-0.011410641679703652,-0.0023371020516593103,0.02123251632420425,0.01107201482327072,0.07392310259803442,-0.13390343242184494,-0.02372210717928809,0.13276238357862477,-0.0018045039935768253,-0.008585528948105716,-0.033226766059422486,-0.04151439400174698,-0.007897909419139598,0.02691661023022749,-0.013435822711375016,0
org.apache.xerces.validators.schema.SubstitutionGroupComparator,0.22665192266758427,0.3682358096138772,-0.11993903748274624,-0.13668445552674405,0.5340094501244909,-0.04374168019308779,0.06575177949406011,0.18642821177403648,-0.0846985215385834,-0.2484353943805388,-0.11918105273176002,0.007673683070033151,0.03254479690108246,0.020357296814586246,0.03375726870331977,0.07246064063959284,0.04394604022478143,-0.021535619490087,0.012822042422536825,-0.09969197873694641,-0.10032079483977681,0.16316449783494794,0.058785935002157924,-0.192132917954235,-0.08300013678812128,-0.10241548209969302,-0.2586311817798057,-0.22552932489986105,-0.09288380367815054,-0.28403710038835944,0.14899763031336583,-0.16307184026239072,1
org.apache.xerces.dom.DocumentTypeImpl,0.4677468553267378,-0.2742129250163966,0.09934909284141462,-0.22929892657083642,0.034153095026729925,-0.045782269410376136,0.06125565644800417,-0.402783957085933,-0.11168533347949251,-0.011262616247500527,-0.10319178419044492,-0.011330694404987967,-0.06911768233574504,-0.050853116647947685,-0.057988854592862286,0.10206612718751183,-0.18584098714932343,0.20290743819948884,-0.049034555517196196,-0.2272235808026901,0.24363405406719504,-0.0838391260303183,0.07959366296934256,-0.13428440981151016,0.03236224757236813,-0.1277538276532414,0.06963274021186805,-0.24721398587860166,-0.09197687417623589,-0.15855899730699957,0.26273432541200775,-0.1527818708098473,0
org.apache.xerces.validators.schema.identity.Unique,0.10723921468558452,0.16529742593130534,0.010824360724765805,-0.022415697830820338,0.2921640987699966,-0.014876836142662076,0.05306305831898243,0.0352631114953233,0.16388264761563248,0.6887676684782548,0.02019805867163657,-0.0033659440908263972,0.003745031881724924,-0.00016808951709076922,-0.23910296582539922,-0.08876263725747777,0.03679281918546176,-0.3606135633495404,0.06965210906370689,-0.06916292317807265,0.3212074177508501,-0.08018089352660746,-0.02732215623993618,-0.14451368121606237,0.004776806449153946,-0.10658450865078418,0.04602045859246266,0.04352435147640077,0.07694609533255244,-0.015351293744439576,0.04579574765141478,0.09089618765353777,0
org.apache.html.dom.HTMLMetaElementImpl,0.03006285984901462,-0.03056030117935307,0.015932692813102063,-0.03310772184247992,0.026506180778633433,0.6033648955759883,-0.0071920475419081096,0.09220737796737422,-0.04008225948280145,0.008617658405529529,0.012659565255882525,-0.7573091511358632,-0.011302787934722591,0.03906180731767468,-0.0012371649797828122,0.0050059810987644095,-0.017438823658744006,-0.011410386639147643,-0.002337420048739576,0.02123234774891673,0.01107175727470553,0.07392260755732719,-0.1339030852796858,-0.02372103522650053,0.132762077851717,-0.0018056557727328375,-0.008584571570802807,-0.03322673024101535,-0.04151475319926868,-0.007897286204307684,0.026917870101680674,-0.013438226286415953,0
org.apache.xerces.dom.TreeWalkerImpl,0.23618133414705925,-0.17336242770660384,0.061314561838172875,-0.10426839932054154,-0.011124686899786783,-0.022673241844456425,0.01634720115321446,-0.13815804597369744,-0.14033942130522878,-0.0004972491836920537,-0.13083541080980862,0.03203893695967499,-0.06743184618014195,-0.028356245308345764,0.005228628677236165,-0.1562087861344072,-0.14462378588738736,-0.12035672806724351,0.04144555622781223,-0.6532062480143594,-0.22671042772258526,-0.18312748437657075,-0.10118012006833843,0.11481170933682681,0.2382445402189381,0.0008108792821589327,0.11303286511371875,0.007992728977275113,-0.3603614281528281,-0.02235674678141764,0.19541205211705337,-0.040279856961946324,1
org.apache.wml.dom.WMLOptgroupElementImpl,0.010318417473497243,-0.009165576032382525,0.004197498693322479,-0.008217122418296311,0.0009066647857819738,-0.002725497642169978,0.0023065970495778397,-0.01945524419962415,0.015330661317805666,-0.00658231404555688,0.02337800436953235,-0.04841610539137044,0.7109388172636518,-0.6959423192820982,0.0023516242050850306,-0.003212344110782963,-0.0166558960149703,-0.0006802667264139399,-0.0004602662037306466,-0.025626852766520696,-0.01690439293912128,-0.026603551570137933,-0.059293134347977956,0.0007820397788938502,-0.028852810062636552,0.0027415241779765558,0.005499923663763688,-0.0031614786234159514,0.0031168833099537766,-0.005942050072230498,0.0012182014220487208,0.0025219472144198504,0
org.apache.xml.serialize.Method,0.08576627029706481,-0.03552018130673217,-0.0015632079403234312,0.05964619884420802,0.03123751046367056,0.015582731665419316,0.008370821822449338,-0.09977779007500123,0.8260913906293008,-0.18810469652493542,0.1676857467580644,-0.038027361748688024,-0.006389871430457306,0.04306886594248487,-0.026485666795850796,0.1968474116835408,0.08097263025485428,-0.14105603923167395,0.0029676096452062686,-0.17089803179314328,-0.048078995382273476,-0.11130900248872069,-0.097994402268376,0.09004425388005281,0.11901393969344992,0.12620297718418508,-0.03596770504674312,-0.18183712290145043,0.1717965869120853,0.07460251284665556,0.007485668422399814,-0.013817813927921231,0
org.apache.wml.WMLSetvarElement,0.007159978431639618,-0.006653185609422836,0.003101702543798739,-0.006185225162130849,0.0005394875186505065,-0.00114362244002539,0.0009444452752703502,-0.012482135219942842,0.006327066527787248,-0.002952918986445155,-0.011693809482023334,-0.001062789972823799,0.03444037656483861,-0.040236735955225075,-0.0014535757118841017,-0.014331436820452152,-0.050160180397050905,-0.001020544747035494,-0.004963103410971183,0.05921617954861198,0.07428966089850254,0.1267846760283981,0.6955123560905923,0.09591959505882615,0.664163404439538,-0.0639778917076599,-0.1533699140310299,-0.05034121473441072,0.0071737481081663125,0.008622488076143488,-0.05821443483598648,0.033792740210521734,0
org.apache.html.dom.HTMLFieldSetElementImpl,0.02996176846476808,-0.031095937735876062,0.01650168006986276,-0.034636059534955674,0.02803425413630616,0.6380393599594523,-0.008236553679527515,0.10023846505220349,-0.040118994939751254,0.009120501437890033,0.015073013407396207,-0.7393286035945636,-0.011095244579913746,0.03968868021049999,-0.0007983320751858737,0.00531550274622452,-0.012388320729500833,-0.0013008155384672821,-0.0041798344796475225,0.018843783368011218,-0.004665147473589096,0.03866932452816468,-0.10034529307330474,-0.005646809799760102,0.1117324461596814,0.003119884585708553,0.006097655125624303,-0.007270133667905822,-0.010570557189986778,-0.01986677798490472,0.020644938757784156,-0.052453201942765475,0
org.apache.xerces.dom.EntityReferenceImpl,0.5795319832449951,-0.3377776086698407,0.11887427678908716,-0.21458440463079853,0.060098704441797095,-0.025306012135146074,0.04358854290642927,-0.327079627361435,-0.033061578036685094,-0.037881280017782036,-0.23959180867351412,0.003994538472984554,-0.1003479694227654,-0.06719057712583272,0.0346292078378138,-0.29841733946247195,-0.18826348077061178,0.24134825603965251,-0.01569078156916534,-0.08816826754308492,0.1805975082298098,0.03806244541937095,0.048207969167576345,-0.10593647899662664,-0.1154975923611161,-0.12364218782657771,0.04860673235725608,0.04709101527916187,-0.05749804277173457,-0.1544702654938789,-0.04586448896394861,-0.012363856672265916,1
org.apache.xerces.dom.ElementImpl,0.48717477994950203,-0.32431657503584893,0.11533759697008088,-0.23258309447715086,0.015605260529450831,0.08169227920483345,0.030405305326889686,-0.334920484334065,-0.13315611818211356,-0.005967660717386823,-0.12160577804016182,-0.04544166696155643,0.06969490205185798,-0.050285149123818824,-0.024233413899728613,0.0955759107334491,-0.40962057274804176,-0.07566661792787191,-0.025631189300745438,0.23331675000057545,0.06735047473809233,-0.13239647290018655,-0.13546414548256125,-0.10605866706677383,0.012832799440325924,-0.0073625331792769155,-0.10603306186124387,-0.12521216631929308,0.20084096639317162,-0.1322643191116369,-0.22167204070804145,-0.06292838454558784,1
org.w3c.dom.html.HTMLAnchorElement,0.046422069670731786,-0.04598634236346232,0.023592097681690023,-0.04636586760277216,0.02675063589541232,0.6758921317225395,-0.008928551303108353,0.11135898015790402,0.004687423140154318,0.010309039719428235,0.07094249675910214,0.6778356253234492,0.036061296574303306,-0.02748833983331248,-0.011088442118472297,0.07706701121423767,0.13490752061586161,0.05007855439128489,-0.003070637849326376,0.0571585392845996,0.0014837264556145917,0.026827404556740802,-0.06875455403220644,-0.08369106091701714,0.0817590393286467,-0.010809556589873046,-0.023613093677610796,0.041026064018744424,-0.04165059687071154,-0.005195524532554218,-0.04035745108772839,0.03723863876436984,0
org.apache.xerces.dom.TextImpl,0.44087539006306325,-0.24479174358573366,0.07520276438864833,-0.12790089924164721,0.045758144519005985,0.011599129137529491,0.05884702467233442,-0.3316454920346979,-0.21494765401742666,-0.00016558395427404655,0.022489355480819578,-0.06077093787394742,-0.02977554951904598,0.004206298846725718,-0.01489580903001799,-0.054959981600819045,-0.24614199752605231,-0.06112511432430663,0.002487033884621823,-0.00674976273434427,0.16689078759470338,0.34869982053839077,-0.04200079848128678,0.12946172991604704,-0.20968862585963413,0.010917494885034663,0.008761075528806736,0.08774630737553606,0.1397117070577428,0.019094068759065067,-0.2961657959269709,0.4020676124735837,0
org.apache.xerces.validators.schema.SchemaGrammar,0.2277473368131947,0.4045754698182672,0.094642184248351,-0.1065912612240135,0.5196311963302449,-0.04107950462280257,-0.11712838663385317,0.12387041668488473,-0.0009325772059377429,-0.029451895405546727,-0.0381618563597296,0.0034966270203784034,0.06994207677410903,0.06968112331392931,0.08469071241318954,-0.03817769948726961,0.019878643872028777,0.044981012274315,-0.09237080795901595,0.16876155962194825,-0.07579077274884032,-0.07447283946715785,-0.04475866594640897,0.5011257059898752,-0.03648270754773778,0.05790244198932025,-0.10069587733403368,-0.13431032581006672,-0.1202500891317257,-0.18668063537375906,-0.05568227623729809,-0.23135429249269068,1
org.xml.sax.helpers.XMLFilterImpl,0.22200739631660452,0.11672857889561317,-0.2037901358311681,0.548468869161558,-0.03177159997758607,0.053560837013856465,-0.030811130712862345,-0.07916784594668333,-0.07082957835650205,-0.06541169901105974,-0.5603149949489937,-0.007262210086114207,-0.1266091991699451,-0.16533024749216063,-0.08948472085922089,0.28692078495791407,0.30534336069377904,-0.03576417116790481,0.0054606879425273735,0.07190443517265492,-0.020958178629463784,-0.051887374198384704,0.0027443365562863,0.0013098208430824267,0.05742617021022106,-0.001148908751151572,0.07828902519226882,0.09809921401742876,0.0445538751453347,-0.017332990854944226,0.016537756779248524,-0.04671387253793342,0
org.apache.xerces.validators.datatype.IDREFDatatypeValidator,0.0929106059224971,0.2856326610372048,0.3534174557200474,0.003651796863143397,-0.05949231838129492,0.006176068289660135,-0.8270619222470648,-0.08651658574783984,-0.020922690739220293,-0.052171196472036524,0.04108544940636969,0.0008571818064001493,0.009134719732718895,0.011847249870477165,0.12219157126961301,0.04972728284747276,-0.002529695036452792,-0.06418192219736103,-0.13531180597723652,-0.10375653415823974,0.03265823138704493,0.05480645016786939,0.02629881552501344,-0.08213556943517182,-0.019898408528149572,-0.07955128004634511,-0.01502889425744916,0.10232681703435588,0.01660980359529851,0.005904900815803861,0.0633859067032105,-0.028922109179257874,1
org.apache.xerces.dom.ElementNSImpl,0.38713391417764415,-0.2708969152046336,0.09727493487664854,-0.2204082748449491,-0.030417492662482747,-0.04131647150301117,0.043997555260111,-0.26120623715182006,-0.22008742835960904,0.0184744114016014,-0.02060484396688477,0.008269817825373452,-0.0831439130588214,-0.06621637607411475,-0.1247986535840897,0.3168885408459595,-0.27832463901112514,0.008169037035120934,-0.0557018806743841,-0.29670648367482383,0.3816922244945774,0.1365085521579784,0.06752447765522805,0.25706902802054366,0.1447200838932364,0.15880098617503638,0.03217449731039329,-0.05178554430517203,-0.11560070197232991,-0.024852386599012666,-0.026841281588692624,0.0335163722122488,1
org.w3c.dom.html.HTMLScriptElement,0.09081369384630805,-0.06466606099460086,0.025130830238667055,-0.04314967398011153,0.01766493747848188,0.13703498631136288,0.011873327641453098,-0.0369906396696167,-0.02154668952867578,-0.0004935504234405322,0.11561590855628065,0.31506504502232957,0.02339372173650086,0.007801947774162566,0.0009076951986405976,0.026737916470147383,0.2633884386182565,0.031012716325372783,0.00564245903409111,0.19538083056599453,0.13609506145704447,0.5935802175968665,-0.4020386831584041,-0.052794698038285286,0.2900638665568436,-0.044656541813399155,0.08435013431867257,0.011025580626420542,-0.2577829555611599,0.10160961472582106,0.14374963173455768,0.12419994479067431,0
org.apache.xerces.readers.XMLEntityReader,0.13706615626899157,0.32726265192916365,-0.2412219995734958,-0.2854026055570548,-0.45582263361200936,0.02883144643679365,-0.013594139234986037,-0.01316337579016569,0.03603192625020761,-0.08257826988121303,0.05492204844088826,0.0011646239036311363,-0.10470796300082678,-0.1082082459141994,-0.4117044946412605,-0.13232570362778695,0.03446107637876769,-0.09034223427432649,-0.0011585300093179865,0.17446539742592967,-0.11545615946268034,-0.09921245933104408,0.0020662113870178345,0.18861117572156852,0.02327678773969456,-0.2679930074416364,0.23397844547895547,-0.10005494391173272,-0.06741248602975287,0.2427818158305517,0.032795525695347744,-0.06681730457736246,0
org.apache.wml.dom.WMLTemplateElementImpl,0.010318417889305069,-0.00916557652035806,0.004197496944640188,-0.008217126555931197,0.0009066991062265011,-0.002725508119935043,0.0023066215990172395,-0.019455275717916116,0.015330612633010806,-0.006582339647534505,0.023378017391153028,-0.048416073794212554,0.7109389431689754,-0.6959422718865593,0.0023519055958706077,-0.0032121770192376376,-0.01665606910054424,-0.0006801740474891047,-0.0004607207653705833,-0.025627135242988933,-0.01690361188571986,-0.026603383482035076,-0.059291466439509104,0.000784039450409497,-0.028854370312432147,0.0027400706674013536,0.005499475372219736,-0.003161540061419374,0.0031170285244687982,-0.005941254645323937,0.0012222684727895752,0.0025257780819060082,0
org.w3c.dom.Document,0.48164355807409015,-0.2185073023675864,0.059396798371524236,-0.07281449018064659,0.06578091331034852,-0.018157994606649658,0.02702469065538924,-0.09162722946963026,0.08780476022223827,-0.012607502424287717,0.21274138615972743,0.023982221549338968,0.04913271160125291,0.06399084867638742,0.07381968158285018,-0.21745068661671904,0.3686391527351434,0.12759586902913111,0.03187019577755248,0.30569700292627217,-0.013176350398782476,0.02233304704813547,0.057890263410634794,-0.160889192231336,-0.0009219129085556589,0.019976844868413886,0.004932780795115276,0.28376939701414455,0.018403888354021288,-0.02123447899610418,0.4758159837498524,0.005004224657730557,1
org.apache.html.dom.HTMLElementImpl,0.05927497680463376,-0.05036340511986978,0.022658743168784606,-0.04215531783579172,0.015263378085906122,0.36628607203396235,-0.0031346190284010193,0.03459529674931342,-6.055306903111694e-05,0.0024260526034421137,0.012418750962185124,0.543075714616168,0.013980412056784925,-0.024048468721007892,-0.00504089384424451,0.029765453213489352,0.006013918716326653,-0.005895444309942051,-0.010234350967130984,0.20613142933463546,0.08943690880431177,0.3639142062658499,-0.4499698402294636,-0.0630865838637255,0.3899744700281384,-0.0036694950607150975,0.005234944192271818,-0.03998134969596945,-0.09203545444075886,-0.03861583207409309,0.07524327096151755,-0.019596905215627684,0
org.w3c.dom.html.HTMLPreElement,0.018013229752064236,-0.018386647146814893,0.009249435076555566,-0.018143821080395913,0.008010345921233274,0.2013215839141907,-0.0016815069301561031,0.01960119217281698,0.0021324153821803975,0.0006022659882135673,0.005532963039430194,0.4156954011941222,0.009929277432974334,-0.019366221370694495,-0.00358374627819206,0.019898672307620262,-0.018165331765667557,-0.02182729854909111,-0.009116649883810217,0.2223586939737263,0.09425820834953229,0.42049447041264626,-0.5434352456869231,-0.06849265493076612,0.4682875635023605,-0.005599314172341336,0.005754183970488777,-0.05779502677316926,-0.1243265446604447,-0.05571428123981355,0.080499135787409,-0.02085687091281168,0
org.apache.html.dom.HTMLBodyElementImpl,0.03236177499499152,-0.032832807586049076,0.01702007322481524,-0.03513850077461496,0.027279016784862192,0.6239369698888813,-0.007341132896240715,0.09387347776966368,-0.03936942754101124,0.008518825405442753,0.012711204943611502,-0.7049000840065065,-0.010132649129129225,0.0365890330452914,-0.0014619887702794685,0.006516855007598276,-0.02218229539047512,-0.015496139014685042,-0.0030439456657052055,0.04674242434750617,0.02120222693436827,0.1222886672954664,-0.19468983629340514,-0.03044634595759202,0.18429508359031235,-0.002207554207467975,-0.008614717138386336,-0.03922930781259955,-0.0550946867757364,-0.013897416289454664,0.03332091392447928,-0.014333089208305375,0
org.apache.xerces.utils.CharDataChunk,0.11259423948432169,0.2587653062199083,-0.18462148258865874,-0.24576121666884576,-0.25543977522274347,0.0109902059079346,-0.02500432030620363,0.005589854230122245,0.007206571281299597,-0.13801755643618538,-0.020901021412670452,0.002679469353168661,0.06819796576011895,0.06871804111942091,-0.3848372929046217,0.013971168672575383,-0.040464369862935494,0.09534538595487169,-0.0302357416626382,-0.04061688840948898,-0.010710953759179456,-0.039759366231138855,-0.06249888461473262,-0.06244278984120808,0.07579622166337141,-0.4549738826697397,0.014127371452016637,0.19755976637863695,0.2028080159847043,0.46527380682215275,0.03108238108382316,-0.22202326481319698,0
org.apache.xerces.utils.SymbolCache,0.13627996192550967,0.2775979307167474,-0.18385878094989716,-0.26419215736404134,-0.22898558028744223,0.007053620785236118,-0.027795209606022955,-0.026837507260057226,0.03205628705069647,0.0014835976079764,-0.045309970053330956,-0.0012431335275604834,0.02834394177350983,0.03167239305730723,-0.21283373395101776,0.14242553805189764,-0.08486752955213088,0.20525102758866917,-0.018092070217224965,0.08279198506578059,-0.20460630255827245,-0.0698888223940712,0.06639946925801538,-0.2443054121013284,0.044888639330817104,-0.41315003955387325,0.37339117898970026,-0.34468217165701776,-0.12345225571350425,0.23256272246047624,0.0756822360394633,-0.05451253026432818,0
org.apache.xerces.readers.XMLEntityHandler,0.18849593879465895,0.35331091248321506,-0.26224972644915356,-0.23885584676161262,-0.4470871979510065,0.029873110036467927,0.04493182146890998,-0.03569120750673107,0.0007086767422479509,-0.04913593361728091,0.17759446359607028,-0.01088243232074135,-0.373000133112631,-0.37724854809917474,-0.3073836453222272,-0.15818111864791498,0.05805466809129661,-0.07731384799181731,0.021864548259981083,0.09553389003555324,-0.07293703060939795,-0.005515726527490243,0.009956495067403717,0.049384651179716396,-0.01060638088577827,0.07973402616594653,0.09542156672921706,-0.10594095388539593,0.005579003123286995,-0.07343235704785328,-0.027825553154690118,0.1219824243978895,0
org.apache.xerces.dom.NamedNodeMapImpl,0.41792399469984115,-0.293091895970323,0.10715103124864872,-0.2303560638097803,-0.007732553399734929,-0.04599887861358609,0.03915109950102097,-0.3553074044488949,-0.21326569014452146,0.006097128448643888,-0.11702764824478526,0.007375376114889068,-0.056106211660623746,-0.02503947336441076,-0.08779071158448908,0.26259102449600824,-0.3654092762814273,-0.006464811950497623,-0.054925785189265046,-0.17579181997006316,0.2196588835248007,-0.2752093661506127,-0.03556719003024278,0.11055633066894455,0.12563568989053475,0.11324545752355264,-0.06379480266450624,-0.09487538232844067,0.039027900933297846,-0.11649729877026492,0.15673169472213144,-0.13759087548239424,0
org.apache.wml.dom.WMLStrongElementImpl,0.010318418518188467,-0.009165577367953478,0.004197497539878426,-0.00821712571342235,0.0009066850138299272,-0.002725507714310279,0.002306618857599725,-0.019455252495856355,0.015330671437346705,-0.006582346619079511,0.023377994150436288,-0.048415981344255926,0.7109388971538313,-0.6959422622036842,0.0023517395926837973,-0.0032123980719536605,-0.016656179035605498,-0.0006804734686651639,-0.00046047418226521014,-0.02562718309216146,-0.016904005364789237,-0.02660267372372748,-0.05929228159601117,0.000781973437348744,-0.02885436107667283,0.002740446951987448,0.005500252803229342,-0.0031629611220704338,0.003115917520325557,-0.005941631761340489,0.0012192592624144774,0.002526331063290479,0
org.apache.xerces.utils.Base64,0.06836697793478069,0.26658509461915314,0.5980211314281516,0.10432979878987753,-0.18790132585634362,0.009588319780391088,0.6143327564765009,0.05450704344095416,0.003684357894458969,-0.051931218977831956,-0.09306978128178528,0.002640024709151577,0.10144455589802479,0.09883352983031629,0.013529400009190647,0.024839712616628772,0.020001242635863534,-0.020041576338862773,-0.3176452544442446,-0.002879072030379631,-0.00713793408838436,-0.0003897520532637363,-0.005052659976500076,-0.02457906119285841,0.009810513455301633,0.0010922954453944644,0.0675102215213532,0.0022312545329281133,-0.006793078445001686,0.0099375181639067,0.021162416036117696,0.009444384025152148,0
org.apache.xml.serialize.SieveEncodingInfo,0.07478245966031428,-0.03412258501658769,0.0008950428129403471,0.05113189228055275,0.03649763701836331,0.02255746740116045,0.012668782836082334,-0.12437281926608787,0.8819361429657042,-0.20803504623849536,0.02491534408877878,-0.04213819929976783,-0.05599283824188002,-0.00884469476799034,-0.034331523381610544,0.07722886508107951,0.030487256667837123,-0.12009480818264785,0.002812185470087247,-0.08380157269173599,-0.09912559770739011,-0.10619562817160505,-0.09347018573788568,-0.06494224214714338,0.06324619352269473,0.12002685351500156,-0.050196393724560466,-0.14039772796545721,0.14921396888681193,-0.008612368841966363,0.11892144889383426,-0.0758669562527494,0
org.w3c.dom.html.HTMLHRElement,0.018013005369749466,-0.018386403192401216,0.009249286956794108,-0.01814366835520753,0.008010130661904384,0.2013191951395923,-0.0016814927806297613,0.01960094750137919,0.002131677977459562,0.0006019398518113478,0.005534262552459563,0.4156897214471068,0.009928274941562114,-0.019364862658484753,-0.003581287165952587,0.019899493410212334,-0.01816642919957017,-0.021833841783308394,-0.009119435692257604,0.22235991230751395,0.09425260641453147,0.42049477336598223,-0.543454743789336,-0.06848590539692649,0.4682764085470114,-0.005587610180234305,0.005748726545053534,-0.05778187136849868,-0.1242887124423283,-0.0557140153722923,0.08052936488127709,-0.020907471275910004,0
org.apache.xerces.readers.CharReader,0.17196528762178642,0.3756033968621619,-0.28384361249353995,-0.31770298711010164,-0.49415017554546065,0.03089587546527688,-0.08994600156746375,-0.03869770749701544,0.03854214730401822,-0.10691074721595463,-0.1093954436778676,0.010428001787851691,0.2930774660301036,0.2974822708926208,-0.34374996695146104,-0.0627448719640448,-0.003843573983702194,-0.003882824992218928,-0.00899218157483379,-0.014592157773075598,-0.007891180991166934,-0.001969629917566795,0.04115401825794641,-0.13150990854157507,0.011858007721763453,-0.09726399913518997,0.06552058280908377,-0.0906383288023323,-0.027998434307841005,0.12759952866569177,0.050224213956643095,0.10277572671965152,1
org.apache.xerces.framework.XMLDocumentHandler,0.2723235283445559,0.24678267812982266,-0.11562638872051287,0.01216896591591951,0.18149761146028434,-0.016505848410084786,0.0954001374350281,-0.015076853558731774,-0.045101467766849146,0.10648006212946155,0.1052878101571108,-0.00040372674571195836,-0.05053741709258818,-0.04024643112065732,0.08538190976562542,-0.15579452093659707,0.04102605969688908,0.09037254206910426,0.013287854759570871,-0.36552282427113203,0.05274180685621797,0.33057187262442894,0.027152413487153873,-0.01729476689670874,-0.14810736846767553,-0.26932529210823497,-0.42303772650668003,-0.05103712166141805,0.04736619070060286,-0.4149925034812587,-0.12885261751182622,0.15764546704877608,0
org.apache.html.dom.HTMLObjectElementImpl,0.031928419675421406,-0.033121603569065974,0.01757678566752134,-0.03680453000773932,0.02932219259842959,0.6720173112828434,-0.008994792953598934,0.10652197309947284,-0.039074634125066204,0.009189953323150991,0.012571337356916984,-0.7139663043855979,-0.011827440725310093,0.037535156348655244,-0.0007440360456044348,0.0023956619611166822,-0.017243784857904166,0.002180694982577099,-0.004208426438039294,0.0061001918199883,-0.007966406412695009,0.014827914469860138,-0.07304519292597916,0.005459133485489797,0.08765898757664654,0.004818085552465014,0.010922475122110548,-0.005598816686627444,-0.0013858211391370738,-0.01934053392977486,0.028237130785959977,-0.06492933728530767,0
org.apache.wml.WMLCardElement,0.0071601005803296,-0.006653290982269645,0.0031017758464589747,-0.006185323397181278,0.0005392760322693852,-0.00114371303371194,0.0009444004274565498,-0.012482520673962385,0.006327324604130001,-0.002952961658102876,-0.011693188492664383,-0.0010635916825311076,0.034440532059168104,-0.04023790938509654,-0.0014551861569412283,-0.01433468910892465,-0.05016353105456313,-0.0010216596800313787,-0.004966284553618139,0.05922034094026377,0.07428445905900849,0.12679366801217093,0.6955045395514406,0.0959090089919326,0.6641738988968274,-0.06397362849031003,-0.15335683941172248,-0.05035851958039341,0.007193234483259449,0.008623592723167718,-0.05821939619994538,0.03376789929107628,0
org.apache.xerces.readers.DefaultReaderFactory,0.17038974597849046,0.3511167501685007,-0.27252156149668294,-0.22396413010374444,-0.49226536789432934,0.0385403401625663,-0.053535536717440074,-0.04769307851826395,0.0135902619256876,-0.07004412586386982,-0.07462562720452384,0.0032432946048135754,0.027159376132043226,0.01856935722969835,-0.31140652905501887,-0.11164410469079916,0.10301734328993124,-0.09804869863420365,0.0054414659467131666,0.08262275395031869,-0.020900334727691053,-0.030511203936961256,0.06666644857868258,-0.05613686887964104,0.019819749183579063,0.2822817365285536,0.29330995753101524,-0.27926194046107694,-0.1577956172910762,-0.06165411665641979,-0.04234035645322591,0.20610920761207674,0
org.w3c.dom.NamedNodeMap,0.44683919825386953,-0.23607163740161594,0.07150547083372578,-0.09419725546975649,0.0015767736393050306,-0.09166361912279768,0.03311811095242305,-0.0737207543019026,0.09305516367698637,0.023125728592579872,0.4104912532305107,-0.04939935235858701,0.0493266118941704,0.07524321496116537,-0.03391276029140975,0.17236797081969057,0.5022120784427534,0.24625615695668188,-0.01399436127005536,-0.048413644704485115,0.20246496332562924,-0.13834078763825192,0.06752892131704147,-0.009036822637903806,0.0835744268786467,0.08427283658288814,0.03509112051482804,0.08339680487240848,0.04663132805708116,-0.01614529184994473,0.27743332489910283,-0.12141401218893678,0
org.apache.xerces.validators.common.XMLElementDecl,0.2566725670910038,0.33369002726322394,0.0014139225610048961,-0.09327361695398369,0.36402749452239364,-0.03350310680063016,0.0009743607923524437,0.052767044104793104,0.011262193524970923,0.11763627321471454,0.1417963851762114,-0.007980664936032493,-0.12585567056680755,-0.12262205878563723,-0.019187138578736485,-0.06867586685241521,0.08644679682389073,-0.0159281860550692,-0.026953320184285482,-0.17946758157722015,0.041864519337509794,0.2932101050076551,0.01745656908087489,0.06801455867643182,-0.18725355935981955,-0.24422558126883187,-0.3824421819271978,-0.11066169972702385,0.022928510394389673,-0.4567260270598892,0.07384321687062395,-0.08022717787342439,0
org.apache.html.dom.HTMLOListElementImpl,0.030062874812074824,-0.030560316404733612,0.015932701567909137,-0.03310773929330798,0.026506216371642535,0.6033651762941078,-0.007192014411609104,0.09220740860657363,-0.04008221321779723,0.0086176013646988,0.01265939077014347,-0.7573094017465732,-0.011302881223803896,0.03906181587212871,-0.0012369507546361003,0.005006024700308691,-0.017439415921916022,-0.0114107891718336,-0.002337204926587446,0.021232016225373112,0.01107294157640091,0.07392363050366609,-0.13390156315033894,-0.023721910372997024,0.13275996728220757,-0.0018053805913246825,-0.008585380473290475,-0.033226993193702876,-0.04151584699575218,-0.007900279216882638,0.026918013800974562,-0.013432117528433414,0
org.apache.xerces.validators.schema.XUtil,0.56324193464595,-0.26128473904458555,0.11972560410409798,-0.16871041160558192,0.0897523846969404,-0.023869602387603644,0.04030185887793858,-0.1839622892620228,0.10550910177552165,0.03571744804395325,-0.25227851090263514,0.03259329110853731,-0.1150048596953636,-0.08999064665854233,0.014463400712147738,-0.41296239434681925,-0.24166165467817485,0.11054237765918554,-0.00508960248623652,-0.22803579424306006,0.06443811446943176,0.22502038363687393,-0.03285363066198798,0.04234347687998279,-0.05345427336771651,0.0477427639433165,0.02313955992568186,-0.1107923304829166,0.16477586960906254,-0.034801732079326214,-0.17531600942343956,-0.03261129766847571,0
org.apache.xerces.readers.UTF8Recognizer,0.12312680512902831,0.2578903337308799,-0.2015157074136532,-0.21815963153648202,-0.3874189654781157,0.02648110951210365,-0.07301597573872234,-0.043689065815874964,0.038060422339919325,-0.05046039685984017,-0.10812522236383038,0.005138914828096641,0.16824397257915166,0.16898510972546094,-0.11887684256611183,-0.10746896807858271,0.08297285525113327,-0.0493961436399726,0.013026903540519903,0.029374006689964947,-0.0003909083287449245,-0.028068435710035727,0.04257760871184914,-0.05058194056703217,0.02295799740222905,0.28713573770982703,0.29281058392311665,-0.297656486497699,-0.16542583655053125,-0.1971267758483232,-0.06650574456309157,0.47996280378824546,0
org.apache.html.dom.HTMLIsIndexElementImpl,0.030632859619314702,-0.031260894706266674,0.016359210159734218,-0.034059468544201076,0.027366791264051647,0.6203659902594811,-0.007566878568182287,0.09542658835935194,-0.03994624294681895,0.008890779440755404,0.014625922147725026,-0.7498280015493203,-0.010849205226462657,0.0393777355705569,-0.0011951342557579951,0.0051554525274989365,-0.012997410077037308,-0.006623767649496202,-0.0033831207496893877,0.021520550284249346,0.005142450432711815,0.06119704683015231,-0.11665996699431654,-0.016837213689745743,0.1222112861623597,0.0010780847922234127,-0.0020047823359299935,-0.020019127353617973,-0.030185335625558016,-0.010845564650641595,0.02652326875864774,-0.0252496154292675,0
org.apache.xerces.framework.XMLParser,0.43314445726733625,0.3468310357052166,-0.23008718836766437,0.20278363561081197,-0.04246847179213361,0.014570779024841182,-0.09149346559695959,-0.09527360531619664,-0.10478459346377553,0.06136903595768938,-0.15764177270741386,0.0028939669873275825,0.006305286429446095,0.006249477751694976,0.16304062756373422,-0.18857624249304145,0.44574024200670515,0.028989304640746803,0.026048074014010377,0.0050197372037278564,-0.0015968566300958947,-0.25983188400913854,-0.0911295774126291,0.12491620047503528,0.19571618167791455,0.040419164176701265,0.16845800665451846,-0.13169856835499952,-0.04575252745140531,0.01751125126019558,0.19875183509899153,0.2398454450621717,1
org.w3c.dom.html.HTMLBodyElement,0.03667511511596656,-0.03675983028888617,0.01861690922817907,-0.03751080857271137,0.02739457739908712,0.6413976351142742,-0.007280376728184017,0.09303277877081087,-0.03552277126174994,0.007473121479088963,0.01339160794255091,-0.5424966324672352,-0.007724861650378503,0.02793879225473755,-0.004294315947917202,0.02053133794230179,-0.01882126606236852,-0.027891379049104468,-0.005354126930202284,0.09563251290743194,0.043802745554536775,0.2320731454479474,-0.3224132667603885,-0.04175389806205926,0.29770071287877553,-0.0017292547246100113,-0.005299298164105238,-0.0533024523862269,-0.09072675870424099,-0.0235432533481041,0.07206196136121928,-0.0191677106335282,0
org.apache.xerces.validators.datatype.ListDatatypeValidator,0.10542990603448649,0.36782626728953843,0.7568750649749316,0.12410896017485891,-0.0831201270220423,0.006051701084590883,-0.47882603769263493,-0.0626403197852234,-0.02505548846778274,-0.07476101123167926,0.05001626956249121,-0.001409445805198726,-0.03746300437281956,-0.03755359270479639,-0.05617337086381128,0.02149315444862644,-0.029441387192728635,0.010092113917081218,-0.03331184239804504,-0.005741681782881594,-0.00963448578015782,0.002671898214187323,0.001846099927121719,-0.04392225573741423,0.0079078357002638,-0.007727364982698782,0.02546924149926087,0.02637193972769575,0.011409379814913797,0.033001201872886604,-0.012915007634805208,0.05507879847625048,0
org.apache.wml.WMLDOMImplementation,0.22367431207654576,-0.16945458415766024,0.06631796907835075,-0.11423216131214177,0.017834711978598927,-0.04525216360028332,0.028412237820146326,-0.1812325382671418,0.044591004222955324,-0.027545320707015725,0.15970905549805622,-0.030124146525953008,0.09358058884538378,-0.0007354773901136289,0.005076821366523742,0.027467263497436823,0.33161382356776165,-0.09713031968477018,0.04651969880148114,0.27378213759056175,-0.022420976813139922,0.3455965090194694,0.5748356431322895,-0.09708644488127152,0.09931015568509094,-0.02404067818152031,-0.022094552092053504,0.171321168181125,-0.13828680637554192,0.2656096267128371,0.19503773253795756,-0.06909925449560511,0
org.apache.wml.dom.WMLAElementImpl,0.010318418177681704,-0.009165576466606058,0.004197494248083199,-0.008217137617241308,0.000906692114428891,-0.0027254992610856892,0.002306628516537082,-0.01945522017190991,0.015330691099606287,-0.006582316502581663,0.02337808573216385,-0.0484161296015025,0.7109387301468671,-0.6959424237560566,0.0023517758676526025,-0.003211906124512731,-0.016655286638644413,-0.0006806687738665719,-0.00046016062725910277,-0.025626743726593276,-0.016904283779429104,-0.026603372037525823,-0.05929295091075583,0.0007841458944989341,-0.028853181435987446,0.0027419064685066594,0.0055007203809695916,-0.0031596702509033778,0.003120433311530183,-0.005940982936638361,0.0012197728966910123,0.002521340205325023,0
org.xml.sax.EntityResolver,0.19102011714212427,0.15240958376053,-0.15349678488839028,0.3696910402331046,-0.0189709047186565,0.03521783986232721,0.038050365906254185,-0.06316168403468128,-0.10856868751776043,0.07490142750585034,0.2946750932858038,0.0209459329277143,0.07990144875161341,0.08373764955737785,0.007866631947713653,-0.19042315828609105,-0.26392232339272653,-0.08028349408773505,-0.01147208420617648,0.06302615467334403,0.039640730510650965,-0.0010311895651419626,0.08254970717251167,-0.21248249928507157,-0.09098192885170449,0.34747315730573847,-0.2948977012638322,-0.11282788361013091,-0.29075149762497804,0.23581352906387082,0.09721877958114483,-0.3264625073438013,0
org.xml.sax.ext.DeclHandler,0.21440711936092438,0.0331973883445841,-0.11722861317310691,0.30763930805650447,-0.014554244295411136,-0.012589289128879005,0.01064886558881579,0.06838317202332903,0.17002098846461125,-0.07920491314566003,0.3800109271167562,-0.011081635285917334,0.05931010910327507,0.08249431945633616,0.03574604534868449,0.07542986743547271,-0.20996970364667758,0.030854091396958345,-0.011695510615498185,-0.11275187417362233,0.026834095080360432,0.19425270554959942,0.004538735157680417,0.3363254364602981,-0.10213352275928941,-0.3922207594137101,0.20175913910232263,-0.05122586083165634,-0.16752121971706171,-0.1282438079841361,-0.11994673953752519,0.4079290026477156,0
org.apache.html.dom.HTMLHeadingElementImpl,0.03006285915590618,-0.030560298250090843,0.015932688497757367,-0.0331077148734196,0.026506194134538596,0.6033648545672393,-0.0071920529020800495,0.09220733543582199,-0.04008213913592125,0.008617665227838012,0.012659538394668827,-0.7573090033760005,-0.011302563338478025,0.03906176476117354,-0.0012372100916360875,0.005005950627934286,-0.017438977057107872,-0.011410480840364539,-0.0023375222005346855,0.021231561366417063,0.011073544426024432,0.0739226899448562,-0.13390233285023334,-0.023721660232535444,0.13276293613915605,-0.0018056016592297136,-0.008588575448358634,-0.03322566279785123,-0.04151778635620953,-0.007896263319244933,0.02691850467246964,-0.01343636932215646,0
org.apache.xerces.validators.schema.TraverseSchema,0.36396905732654655,0.3211767675250222,0.08579333094103408,0.04848589274955906,0.3426557267088686,-0.008639020527236356,-0.1756950734973237,-0.04269791693607246,0.16127222006103184,0.3197853396973279,-0.23672002351138008,0.007297335515329056,0.11425975647390478,0.11273015315591446,-0.008568638045723559,-0.18652262960817811,0.10883148293001861,0.0782358656798965,-0.03928888769925219,0.20384756448185495,0.001456679870015091,-0.15782615915839548,-0.06313528033644525,0.2368962870113484,0.09290820116423726,0.209315042042407,0.05519849843281011,-0.21040616623770364,0.1067526166901457,0.23299880578335289,-0.17070283265293798,-0.13720999575624515,1
org.apache.xerces.readers.StringReader,0.1328650267482969,0.2995642097592198,-0.20961973906841583,-0.25346953655575594,-0.327838599543512,0.02065739907615295,-0.12777757262000183,-0.010180175383940686,0.04030349658791508,-0.08803532572010186,-0.1924918975520634,0.012073863311022517,0.44068603065695,0.44178635136564925,-0.11845554193893541,-0.017714218146943315,0.025454333984316613,-0.01540606098594443,-0.02190997042628594,-0.15330993605541776,0.0575708387267387,0.14248219543499893,-0.022484981283742173,0.02707172917627845,-0.06225535138398046,-0.11658242680636471,-0.2582446575957854,0.18423130020177064,0.1263109623627148,-0.06239539003308722,0.051293642349683956,-0.13959337749848635,0
org.xml.sax.ContentHandler,0.22404804018515354,0.07158459525890297,-0.18141167180973686,0.5120665704505052,-0.050793553732503986,0.03060765559176393,0.01947691607488481,-0.020265963942029914,0.12456908643318151,-0.0988544616482064,0.3452983844389974,0.003608836620109005,0.06854919874020479,0.08764052690041847,-0.01168088923539499,0.11247347940067667,-0.42348564407647893,-0.08466257785356927,-0.02653252660288971,-0.0538981177865288,0.0013506222118528578,0.10214800514021685,0.04874280391211923,0.0614157205718436,-0.1180860324813533,-0.2591583447061769,-0.02431642022068755,0.10948334869338505,-0.3753720181086394,-0.030896027612929148,-0.02405976465832839,0.18090103538075572,0
org.w3c.dom.html.HTMLDOMImplementation,0.17211009748484898,-0.13418970783546075,0.05406220141792156,-0.08055195741961992,0.03443630752253852,0.5659020058663398,0.0017978553149115507,0.023543289858518893,0.19451392259995692,-0.03643962716473505,0.08379660901393247,0.41990412175893876,0.025239793462546286,-0.014513672182140915,0.0038740963413919343,0.0466106666152428,0.1970042687496453,-0.046344378019400806,0.01532671374225675,0.14005840088182286,0.03673029245863862,0.1650944037612409,0.24830948538644532,0.07128282708223,-0.13938769102605977,0.1396058869825556,0.032360488510226416,0.18518675121264552,0.1724417848883684,0.1619475039633721,0.32418632137831827,-0.06290835071609917,0
org.w3c.dom.DocumentType,0.4624174879387604,-0.27257188376700087,0.08586486604154121,-0.12473085600279363,0.021097004897337877,-0.09179199979472957,0.030777902022684277,-0.1571111552891325,0.19149303597675502,-0.05168079199332635,0.18137254163098174,-0.06907930828908972,0.10659663811361166,-0.08820656229281115,0.005972251054901057,-0.048136042273325186,0.4019227335935469,0.2550938483894476,0.004528866530716403,-0.03365861634494021,0.2337741617892659,0.2420303153678738,0.18838945105867858,-0.09304845309600908,-0.20949526604408034,-0.04431540411756299,0.1102620002495842,0.05187636614298621,-0.2846153746885451,0.16529640366260015,-0.027315396919366974,-0.031872692630688905,0
org.apache.wml.WMLTimerElement,0.007160043657962682,-0.006653244522440463,0.0031017470829223888,-0.006185279375560201,0.0005395445466342177,-0.0011436321445836824,0.0009444089324995435,-0.012482298210402129,0.006326829479077686,-0.002953065687689156,-0.011693949394151231,-0.0010631474226524226,0.034440478032475505,-0.04023720207524876,-0.0014530139684197812,-0.0143336444673769,-0.05016366513400235,-0.0010218545922140738,-0.00496428406321024,0.05921678746464625,0.07429067813001898,0.12678367450539338,0.6955140490952323,0.09591959825437485,0.6641638931184778,-0.06397843079712423,-0.1533655377176529,-0.05034313532609571,0.0071828488891584625,0.008619905050284144,-0.05819549071784607,0.033788988458433394,0
org.apache.html.dom.HTMLTableElementImpl,0.03762701309633595,-0.04010717961887663,0.021145946080928825,-0.042524770755271696,0.02788723372100765,0.7462849141529179,-0.011404407903404511,0.12990033688926123,-0.00863849608929049,0.009511730709744206,0.03384295869862381,0.317745810507849,0.011838434012282876,-0.016517299212831193,-0.005689778637266357,0.037441368880640806,0.04957177580030247,0.045732742698301534,0.001333478110472052,-0.15121589555179302,-0.02170093797917891,-0.276423497764121,0.33100355361485995,0.01377399877441477,-0.29820439776166563,-0.028446206525349904,-0.011541072962329141,-0.022092308034770216,-0.004501449218737015,0.008406599119033574,-0.08704506858468958,0.061661363743818025,0
org.apache.wml.WMLHeadElement,0.007160033937071301,-0.006653234364478231,0.0031017377230982456,-0.006185289978281076,0.0005396341750866043,-0.0011437543241904302,0.0009445062953217099,-0.012482470394766637,0.006326738414751362,-0.0029533901058409347,-0.011694195329400827,-0.0010625361434725628,0.03444065494736791,-0.04023634346975763,-0.0014520801362394914,-0.014330825926308024,-0.050163256091325444,-0.0010208820936022211,-0.00496471000978409,0.059216587684290375,0.07429573785912173,0.12678552089122488,0.6955157565999518,0.09592379263758641,0.6641594365491481,-0.06398498572369014,-0.153369849710522,-0.05034314319437039,0.00718294025390734,0.008620008810902214,-0.058190370078712444,0.03379111271583716,0
org.apache.wml.WMLAccessElement,0.007160064406461949,-0.006653265068508935,0.0031017747669723297,-0.006185313891238008,0.0005393340828030812,-0.0011438556904642945,0.0009443967240908995,-0.012482477076086216,0.006327296451176284,-0.0029530501394392636,-0.01169420765575306,-0.0010632637693023762,0.03444102647606135,-0.0402376237491669,-0.0014541015551026056,-0.014332607887030016,-0.05016222413131466,-0.0010210399482785048,-0.004963727378625193,0.059217866564096576,0.07428832558013342,0.12679032788428696,0.6955124213966751,0.09590453231039363,0.6641652861280972,-0.06398360382740191,-0.15335622946446092,-0.05035178852352487,0.0071903171218489475,0.008641285939446032,-0.05821145494101758,0.03380251136438588,0
org.apache.html.dom.HTMLFrameElementImpl,0.030062866385674136,-0.030560309825174263,0.015932695161425984,-0.03310772965198342,0.026506233684492665,0.6033650795286706,-0.007192076980414934,0.09220742643804494,-0.04008234885038588,0.00861764535612216,0.01265945570235487,-0.7573094000699496,-0.011302788725325964,0.039061903649838046,-0.0012369143943042865,0.005006352543972536,-0.01743861322552755,-0.01140985401277927,-0.0023377253010989844,0.021231928365564843,0.011072985218775996,0.07392028173588114,-0.1339017290547332,-0.023720210960518715,0.13276235296254904,-0.001804695148437925,-0.008585249922356764,-0.03322359494852057,-0.041515542982844815,-0.00790096970663008,0.026922537874533494,-0.013433737119694365,0
org.apache.wml.WMLSmallElement,0.007160036034213939,-0.006653241033115885,0.0031017492689674473,-0.0061853228002162,0.0005395416535392845,-0.0011437443793321615,0.0009445931462684577,-0.012482322628671761,0.006327217957625906,-0.002953431389361371,-0.011694668668959511,-0.0010628886023809686,0.03443947127204077,-0.04023691793929298,-0.0014520368234582953,-0.01433166936422694,-0.05016269674166537,-0.00102278479584679,-0.004960756033390803,0.059218408018724696,0.07428848014287999,0.1267896324679808,0.6955178145401741,0.09591814305334366,0.6641584868684179,-0.06397417594841535,-0.15336231596841693,-0.050347979807455284,0.0071894394136158765,0.008608375198928637,-0.058209450997387883,0.033798266731197256,0
org.apache.xerces.dom.DocumentImpl,0.5138470954584422,-0.3193164862552211,0.11046699316487851,-0.22066968025070105,0.04564346102450062,-0.05587228302888334,0.04870965555249367,-0.4351195128664817,-0.13372984626975293,-0.022718275058591853,0.07119617979107434,-0.009739878858880432,0.04722414360936291,0.06968659347263506,0.011825984456176485,0.05322973915321375,0.08146583876512348,-0.11063933899985322,0.019178401814399663,0.3667867427841087,-0.11797379413077588,-0.20225600600175891,0.031055979901631413,-0.2505581702850049,-0.03890476325498443,-0.04158497208962968,-0.08817913870190695,0.1832452210819026,-0.11739729318562452,-0.08466378064625013,0.054178048700055166,-0.04171827115876114,1
org.apache.xerces.dom.AttrNSImpl,0.36193762293947235,-0.2531861869811822,0.09283336756749073,-0.2153249647179038,-0.024731735207248532,-0.051080033873913154,0.041773834423749295,-0.27688220638589045,-0.2483692818026717,0.01756941197706981,-0.07573649516659767,-0.007285698857060244,-0.07799583881809657,-0.05739653163883647,-0.1149951918657718,0.2756812175628184,-0.41077930762404047,-0.1346596457095584,-0.03534633832908325,-0.21898070492082627,0.23653744453525674,0.16080501014042295,-0.010461472357368393,0.29278108036502387,-0.04441834949345071,0.17826434546255962,-0.012397956086964318,-0.0444507459246859,-0.006483745201261256,0.05179993774161435,-0.14521910998254045,0.1961906702139718,1
org.apache.xerces.dom.DeferredAttrImpl,0.14293599828959488,0.01820732231475051,-0.028339823685268786,-0.16045578552032377,-0.03470201080010333,-0.006816086667343947,-0.008874561913534758,-0.19399172729083483,-0.0812793386929578,0.02156539771446846,-0.06950551006789549,-0.011911339314149722,0.1328627180247946,0.15039491707072333,-0.030722266836614078,0.34043688758542023,-0.1555635822555466,0.16980809808440722,-0.042705467490234066,0.06855332588395684,0.022649721651937182,-0.10153816754425056,0.015154150340189597,-0.3957575400649183,-0.03239686382421002,-0.2759216989389848,0.2426020830976938,-0.6048216640248103,-0.034493868861680516,-0.09962885256209156,0.04639538368902935,-0.047109963436507744,1
org.apache.html.dom.HTMLAreaElementImpl,0.0324219248244778,-0.03299099423726468,0.0172228975986433,-0.035718857288636614,0.028104147025463082,0.6448067692534666,-0.00808341607702221,0.09977035337528109,-0.03913686492516218,0.008749082056166226,0.010027657834874274,-0.7330264698729486,-0.012163763587269796,0.03689916960420822,-0.0011878239208100042,0.00179666613099921,-0.022754919666279558,-0.007450787629877515,-0.0024169132036492174,0.007228531679794196,0.007213657605946489,0.04739032106046941,-0.10369429265016301,-0.011223568429864111,0.10635131195382327,0.00020548644041055536,-0.0029867352520070323,-0.031057010226789264,-0.031048312972310393,-0.007483018048111885,0.03547906855356991,-0.02795563720571301,0
org.apache.html.dom.HTMLStyleElementImpl,0.030062870769343747,-0.030560312126560452,0.015932698448926027,-0.033107730432119085,0.026506222319678047,0.6033651035454884,-0.007192047485494098,0.09220740127150194,-0.04008222306931687,0.008617653096948353,0.012659405458159292,-0.7573093574378913,-0.011302750758844488,0.03906176412289587,-0.001237110597010582,0.005006164400106679,-0.01743904946780403,-0.011410542116528973,-0.0023372082369314,0.021231482633179213,0.011073384194049296,0.07392313050095298,-0.1339011907061031,-0.023721812080881196,0.13276111526444542,-0.0018053059134870019,-0.008586981388886524,-0.03322619263881071,-0.04151770050204235,-0.007900521811951996,0.02691615246083641,-0.013433346454378676,0
org.apache.xerces.validators.common.CMAny,0.10200831550860975,0.20275942188557458,-0.08507481720613888,-0.17073707605247382,0.41282879793936517,-0.04222813218370126,0.0413576882254482,0.17881344226812337,-0.10539939416302954,-0.4844005692320406,-0.031136521625303202,0.010153871519299565,0.09618447533977503,0.09698779750044237,-0.09300981565390902,0.11780490628282025,-0.08811138137531625,-0.06172148571706982,0.03557992128282145,-0.07030721850347707,0.053475164911180574,-0.07827812586681389,0.06513203100302031,-0.4084647522514592,0.10146466649718379,0.1405803294073607,0.29587348811561054,0.05335906201435178,0.04540358402849939,0.2107494704798989,0.0003831060852956895,0.23110170427013157,0
org.apache.xerces.readers.UCSReader,0.13105294706099554,0.3006150456897357,-0.2148779540154249,-0.26809926934745104,-0.3567078695881024,0.021522531920635763,-0.11873800158955465,-0.01487412500464112,0.04141308393335937,-0.09459989032576592,-0.178393424095118,0.009739978505053655,0.40518756782464,0.40597384637114947,-0.18134184248082913,-0.014244756384552911,0.026382436114177857,0.027628792294541106,-0.028412874622888575,-0.15764341935859322,0.06392275765224163,0.11620720333110898,-0.05700898644502041,0.02643117391690852,-0.026250737914126014,-0.17596621469726814,-0.23726378555620492,0.2240625557746107,0.17696959106711288,0.019861626904331665,0.03096362839133732,-0.090772924931713,0
org.apache.wml.dom.WMLRefreshElementImpl,0.010318419390943308,-0.009165578147283129,0.004197497267754791,-0.00821712877199694,0.0009066771732536257,-0.0027255090891231664,0.0023066305283663767,-0.01945525156220676,0.015330727827913606,-0.006582358271188331,0.023377978872149516,-0.04841598243457555,0.7109389408000294,-0.695942273010234,0.002351894474040319,-0.003212364314749338,-0.016656109033348392,-0.0006808008126886492,-0.00046015618913132543,-0.025627043382819358,-0.016904196804642686,-0.026602349878327318,-0.05929185163933825,0.0007814542252495944,-0.028854500917430796,0.0027410633271007703,0.005499166571051713,-0.003161334330259493,0.003115292571674916,-0.005941635609369366,0.0012202102595262677,0.0025273667850784806,0
org.xml.sax.helpers.ParserFactory,0.16717424530935548,0.08823406754266215,-0.1924352920635918,0.5748152382516494,-0.04700254611479006,0.05468888120203956,0.020953617080349388,-0.08322894660050725,-0.13898782095337242,-0.052509782133963186,0.2805472136882871,0.02714950875839096,0.10488600020384997,0.09589943413558161,-0.046152049372866565,0.16401013671750428,-0.31818677881926577,-0.0902480350701805,0.012495367570033637,0.023917967118435326,0.029111463628766696,0.1488429970946975,0.05763230446193049,-0.038515672517636663,-0.021612427655908407,-0.06071927680995649,0.3882167612575571,0.0407479497512193,0.28730486062806676,-0.153216723183101,-0.008047259337264315,-0.18159951696757834,0
org.apache.xerces.framework.XMLAttrList,0.321314756704249,0.2907440240928744,-0.16279231866356994,-0.11796412248159857,0.15080035975531772,-0.020831263175868756,0.07370847148989623,-0.05328906444352261,0.04964121942742939,0.26486861427882097,0.09584440315977534,-0.010818439607197755,-0.039829619583167164,-0.025061700253200828,0.12413177206320458,0.2691946538053788,-0.051719494875452396,0.30481777514416736,0.0050274231154856085,-0.1336270686010261,-0.24760961016929336,0.22327777400689744,0.07829112728538042,-0.23836668221969456,-0.11254641881970047,-0.35022826954550856,-0.14369978208210685,-0.19302281452436265,-0.047741743239060865,-0.2865151858383392,0.03817182727678175,0.04129830567261485,1
org.apache.xerces.dom.DeepNodeListImpl,0.343061908973101,-0.25707034198437806,0.09550534696210036,-0.1794651816160494,-0.00018833328831133723,0.022226872547590423,0.03451881447519169,-0.2931588599490733,-0.2078207782224891,-0.005455397432963856,-0.11214096192706524,0.06535462637897893,-0.04777619467565122,-0.020721466319133987,-0.056800002544352655,0.141902682457443,-0.19994547306340163,-0.24857150431046568,-0.0017903615103939824,-0.401960156841999,-0.0794855165685399,0.06964937396406891,-0.018283783195616368,0.2722525288083272,0.14743809278554768,0.08621730059521049,0.0946875347333769,-0.05436145501335433,-0.06846371978203532,0.05446970616931232,0.4455351923857781,-0.07008542914995586,0
org.apache.xerces.dom.DeferredElementNSImpl,0.14774562992555945,-0.0012209997358236645,-0.020073116690841015,-0.12754422245581884,-0.032924892773826625,-0.020646336050752216,-0.019400974732728667,-0.12043205976043313,0.010421229846248329,0.008943070540853002,-0.14968006101881462,-0.0129169810743689,0.09978747634787909,0.10604795941151271,0.002239886969826855,0.14855711296377522,-0.20125100807562143,0.25746040949664584,-0.04156891617562606,0.0991775339134369,0.0370944590672754,-0.1664482217699373,0.012464954885582297,-0.4903277475638543,-0.01149010415163065,-0.300411196560648,0.24156754047848364,-0.542165179821243,-0.05618620608670837,-0.1473339585752776,-0.02147146699198507,-0.15185334186773655,1
org.apache.html.dom.HTMLDOMImplementationImpl,0.3639335465325098,-0.29046654596875976,0.11169542063713199,-0.17268936918615962,-0.005110846449688943,0.6284950152941551,-0.0056512808492315695,0.08140135808114175,0.02691921002982157,-0.011536483286400126,0.0007774706329778263,-0.2572716042154408,0.010504638385807409,-0.022885885734571513,-0.006269619786441456,-0.0013382809772203086,-0.09649851033263818,-0.20176841014129981,0.019485885796105863,0.18343521553568623,-0.01558962727227713,0.23726139542086389,0.24392509340025764,-0.021264232883808416,-0.09267120493475002,0.09514011222014294,-0.02829016019526484,0.16333920901477253,0.1531890064450942,0.032153473449503124,-0.021814531254571803,0.02893357718627315,0
org.apache.xerces.jaxp.SAXParserFactoryImpl,0.12153797543201335,0.0836735198823068,-0.10684944419593934,0.27009748400627037,0.048352843197099205,0.022421853711429213,0.0044686838176496045,-0.061742625352417,-0.1085341802115188,0.018885171906198702,-0.04564934545978378,0.0052517227164805185,-0.008872950994905673,-0.017872841615453404,0.029898736165998124,-0.05831764362266427,0.0941554972006327,0.1421610745236991,-0.0013008286778067321,0.054069840880867304,0.024240658747931347,0.014627372204807098,-0.05418539862215849,0.16801670031530466,-0.0444212390292922,-0.1279867348069761,-0.19509560149984995,-0.43923867074375245,0.494845240736985,0.18798634121439675,0.2395612446742287,0.46618624050089535,1
org.w3c.dom.html.HTMLBaseFontElement,0.01801309921575542,-0.018386483509865468,0.009249356186389533,-0.01814376096099774,0.008010508142894076,0.2013199093370918,-0.0016814964256266715,0.019600751518530645,0.0021331985881924017,0.0006023640766225546,0.005533948449597113,0.415693623899691,0.009928991038815555,-0.01936705410222707,-0.0035815752290755403,0.019899934743811663,-0.018167264340143048,-0.021840697451911893,-0.009120078975351675,0.22235485169178076,0.09426448991311778,0.420511304287727,-0.5434419043740691,-0.068487081491579,0.4682733256009326,-0.005588070574864221,0.005737235064870023,-0.057782447824666995,-0.12431483911340642,-0.055708780138195885,0.0804961240062361,-0.020866415584064147,0
org.apache.html.dom.HTMLDivElementImpl,0.030062859678197235,-0.030560301187213573,0.015932691542769554,-0.03310771836288692,0.02650616681398421,0.6033648703339255,-0.007192030913004634,0.09220736835063556,-0.04008215221564162,0.008617622973309208,0.012659450550624975,-0.7573089621831091,-0.011302882400303322,0.039061845558585516,-0.0012370813118735228,0.005006031756094217,-0.017438809193059762,-0.011411098169900973,-0.002336894231371122,0.0212319548633818,0.01107214475756356,0.07392321032971792,-0.13390361553855087,-0.023722872265512993,0.1327616806847122,-0.0018043157537018394,-0.008586057387150823,-0.03322819775769706,-0.041516043471496754,-0.007900586509051162,0.02691576487311767,-0.013436151575244432,0
org.apache.xerces.utils.HexBin,0.06836697793478069,0.26658509461915314,0.5980211314281516,0.10432979878987753,-0.18790132585634362,0.009588319780391088,0.6143327564765009,0.05450704344095416,0.003684357894458969,-0.051931218977831956,-0.09306978128178528,0.002640024709151577,0.10144455589802479,0.09883352983031629,0.013529400009190647,0.024839712616628772,0.020001242635863534,-0.020041576338862773,-0.3176452544442446,-0.002879072030379631,-0.00713793408838436,-0.0003897520532637363,-0.005052659976500076,-0.02457906119285841,0.009810513455301633,0.0010922954453944644,0.0675102215213532,0.0022312545329281133,-0.006793078445001686,0.0099375181639067,0.021162416036117696,0.009444384025152148,0
org.apache.xerces.dom.AttributeMap,0.3322851205030627,-0.2594680917960239,0.10068114587218446,-0.19549471681257305,-0.009936127634097375,-0.02188105683093705,0.03672384664122482,-0.3184304528618229,-0.281322201816571,0.007734895779735522,-0.057678717114596545,0.02291555707963102,-0.016535092012978474,0.021813072707008697,-0.08314407641370054,0.32022819333349467,-0.2516455078799489,-0.45536629761928515,-0.00666685450331334,-0.15570960516338503,-0.20796623813365442,0.018361728743642638,0.01165649578057627,0.2081636612291952,0.027035184674733006,0.06948787948048973,-0.0658992941412535,-0.19680498728822543,0.20887760198706087,0.0015076260933396266,-0.05473612584748866,-0.0054960021808048275,1
org.apache.xerces.readers.XCatalog,0.15301037319689545,0.09556752684911046,-0.14427840333322178,0.34657985243420697,-0.04122934649572924,0.03655709817379315,-0.002582403854356383,-0.05831105811925051,-0.11355123659624516,0.006587625396910053,-0.13332124490088762,0.007835576519421647,-0.027155684619893383,-0.05080510923698765,-0.054341711498113836,-0.02629564004016675,0.08619595749403308,-0.06498386674389198,0.001630128764166056,0.007195529904515954,0.05994342837722193,0.07841246635587297,0.10834296229380273,-0.18422883785889863,-0.05771762042893779,0.5364814248143118,-0.09076690899142004,-0.203712584867256,-0.08553900493476142,0.19604936486576646,-0.02002167738748739,-0.5728698671383795,0
javax.xml.parsers.DocumentBuilder,0.24398951441660996,0.04809742343056666,-0.12923585120050649,0.3482320801207926,-0.002428821935428667,0.04018746263123322,-0.01072175980384465,-0.11006246947791129,-0.11777939947322312,-0.007335979778792677,-0.3867287458455977,-0.019553693252370493,-0.1057126753457864,-0.1344304226100303,-0.033338478522952804,-0.1314989051649662,0.3334875913344227,0.07335917597170519,0.03141764481238917,-0.05729486095519142,0.03908917959632576,0.13994743037170965,0.06148974477547212,-0.1834167669322107,-0.028212231702472734,0.3476508753655064,0.12640476535874712,-0.11704625920053074,0.2664073581640407,0.13544064521910684,-0.08230777697998526,-0.384698980560207,1
org.apache.wml.WMLTrElement,0.007160011078850934,-0.006653226542286853,0.0031017461196215504,-0.0061852440785966035,0.0005395844824852408,-0.0011436308186569925,0.0009444441136577033,-0.012482201440837119,0.006326865937205025,-0.00295314797845771,-0.011694572959828948,-0.0010626233073322494,0.03444011229561376,-0.04023650292697256,-0.0014527159740696058,-0.014332179947337001,-0.05016122454593918,-0.0010177509185917571,-0.004962947159876836,0.059217633813307656,0.07428912090139807,0.12678476469511474,0.695516487139726,0.09591206504792832,0.6641608792751422,-0.06398843295173162,-0.15335808699236048,-0.05034809997380468,0.007176455910493466,0.008622387288926668,-0.05821368477993542,0.03379976135435992,0
org.w3c.dom.html.HTMLFrameElement,0.018013020269304764,-0.01838642445088313,0.009249314894187897,-0.018143583343179368,0.008010078754188958,0.2013192251046208,-0.0016813022102724938,0.019600595861237594,0.0021322098958694168,0.0006020082166921806,0.005533448212425341,0.41569047083234967,0.009929679899332081,-0.01936503625026727,-0.003582557842806912,0.019896376114539902,-0.01817080121603342,-0.021835470317034242,-0.00911656345740202,0.22235683956834845,0.09425573786816749,0.42050456131936176,-0.5434382476154487,-0.06849574016004753,0.4682744511533556,-0.005602908115040894,0.005732477752072768,-0.05780818994918277,-0.12432508093044319,-0.05570047056987266,0.0805348853942469,-0.020878809893886227,0
org.w3c.dom.html.HTMLDivElement,0.018013049778803105,-0.018386453441045267,0.009249296917429074,-0.01814367253265954,0.008010274629467561,0.20131974620816595,-0.0016815687026763674,0.019600897493297794,0.0021318572779670847,0.0006025799774918839,0.005534485685031605,0.415691342967799,0.009929534751705802,-0.019364684794143976,-0.0035837321335978724,0.01989788009352709,-0.01816895913469199,-0.021832900857141107,-0.00912229061469693,0.22235535761766248,0.0942538262495779,0.42049698450094664,-0.5434414290599613,-0.06848970357123459,0.46828013164832,-0.005598452708962507,0.00575014217746825,-0.05779522859586931,-0.12432619747154262,-0.05571004104572325,0.08052365608294695,-0.020886163149879435,0
org.apache.xerces.utils.regex.Match,0.0138245355425444,0.062478000994498864,0.1572964345887345,0.030248137668496513,-0.03352329546718197,0.0023522832456515513,-0.17191462088133408,-0.024530212785673824,-0.013280798648170658,-0.04643206950543454,0.025026117154447722,-1.4815037299213083e-05,-0.014280833453579942,-0.015701484389724445,-0.07003662168735816,0.05043155256634738,-0.061095630730977186,0.0973304258874526,0.9534377969809674,0.023215433471729323,0.021465628534232336,0.018976403970232314,-0.013524241487129673,0.02208334727209943,-0.004838398312920972,0.0075606273033796325,-0.03578527994532623,-0.019437383280750956,0.0020609660028246164,-0.011799089766791683,-0.02586343868531383,-0.03568879699070529,0
org.apache.wml.WMLNoopElement,0.0071600495905235805,-0.006653252852599572,0.0031017514151728104,-0.0061852935948912445,0.0005394550613230228,-0.001143786840147025,0.000944592853988859,-0.012482488322047892,0.006327212529546448,-0.002953447359095587,-0.011694601986466867,-0.0010630720273887137,0.03444008911699377,-0.04023697518316459,-0.0014527695523250939,-0.0143329336671863,-0.05016296965043168,-0.0010216213837837384,-0.004959132015562853,0.059217241948347425,0.07429331414003926,0.12679032642918556,0.695511822455404,0.09591292130097265,0.6641624178412197,-0.06398661403621386,-0.1533697547226466,-0.050345170488747384,0.007188922113039906,0.008628686314077707,-0.05820489635710376,0.033796178953479465,0
org.apache.xerces.utils.XMLMessages,0.16931013987922797,0.35684149154115974,-0.01553924401192326,-0.1243357372512545,-0.19093665041451388,0.012867616467913076,0.2533650470987127,0.024346536075462423,0.0005849190912800378,0.10683651877631194,0.16125368799460724,-0.006128300473438861,-0.3243161928744876,-0.32629498497719284,0.5739985615700561,0.05727818241432732,-0.07613686589478875,-0.13949139684546152,-0.021864092821380136,-0.04237458403769931,0.0791951307700875,0.001859293732483771,-0.025490690823877764,-0.09156721695242004,0.00977596778377924,0.04207044177777095,-0.156662116779508,0.21262435615021788,0.0714813142069937,0.05531311198471772,-0.08618674685964291,-0.12237764256404303,1
org.apache.xerces.dom.RangeImpl,0.40165539811976925,-0.29658804971602176,0.10248371499093724,-0.1632348150614417,-0.02383884340466819,-0.0235220245856727,0.01359123727016767,-0.19636286665169536,-0.19893290217372192,-0.014017671076016426,-0.2754338592092743,-0.030580487115947054,-0.08562126023075307,-0.046713442581303936,-0.016053838922469678,-0.0910800781440644,-0.41181487863375726,-0.2967772456105541,0.021096608906740207,-0.11013375433072002,-0.09137625565458618,0.19060101335851945,0.005252852268844035,0.13710894800291476,-0.14467980799825478,0.06184881069909421,0.10824479689555963,0.14907848052309522,-0.1185926209495307,0.05438865845001983,0.14680048125097114,0.32869427468753026,0
org.apache.wml.dom.WMLTimerElementImpl,0.010318417238666324,-0.0091655760834579,0.004197498456661092,-0.008217131631870864,0.0009066629916294326,-0.0027255044942960313,0.002306594593188987,-0.019455238086626525,0.015330660915278857,-0.006582302981276695,0.023378127402236767,-0.048416223214580674,0.7109388205284539,-0.6959423148073212,0.002351588848622205,-0.003212233210175739,-0.016655902435877532,-0.000680236970890339,-0.0004608280477909008,-0.025626939648699942,-0.016904672440380363,-0.026603912732477416,-0.059292677761828665,0.0007830317685428943,-0.028853448315429422,0.0027414738077603906,0.005499624885915676,-0.00316024262494203,0.0031177841236231067,-0.005939148446871314,0.0012216845764716046,0.0025217921609777074,0
org.xml.sax.SAXNotRecognizedException,0.24141525859414986,0.1426059548940598,-0.1270285199309829,0.3342191679771489,0.08831855778719093,0.01930175269231879,0.07977735492604988,-0.0917894742471776,-0.12595859962120615,0.09857481506648257,0.2574356431391968,0.009416794373721655,-0.008171649442021828,0.002277214064057099,0.025781233967905326,-0.22045160738987132,-0.013539184664172185,0.14553724374312388,-0.007471455040090559,-0.1749768523312299,0.05488722657144021,0.1498064070838708,0.0012935790407911517,-0.04110398456947427,-0.07771708043708776,-0.17113049331362643,-0.23534739534502433,-0.26334401428731924,0.4598293098840281,-0.110612344681793,0.2179764830039944,0.3447642335146599,0
org.xml.sax.helpers.DefaultHandler,0.2126521238659087,0.09942648550000574,-0.19933183673197516,0.5551171138986222,-0.04614352845998264,0.050536423862294275,-0.012469619036426537,-0.0666005961545261,-0.05144405430412706,-0.0757128399473493,-0.32868882971005625,-0.0067148125098768574,-0.09036110750063017,-0.11686001257879645,-0.09126576658406967,0.26247501616862673,0.18200003893132477,-0.037583007805046136,0.00447842251156848,-0.04330121924457952,-0.020374698522464225,0.01895352609969035,0.032543430183415246,-0.02702630108871684,0.08509767296166326,-0.06906244397770098,0.34140859176096866,0.24589498691275158,0.20849348872326853,-0.29210326956514737,0.001099419627008044,-0.1240998194557307,0
org.apache.xerces.dom.DeferredAttrNSImpl,0.09821209636527248,0.04511279555019819,-0.038949986968215944,-0.12847689700583273,-0.04006545746321081,-0.011065632242317358,-0.01702421170863685,-0.12419648645852178,-0.042562578417001576,0.01979929157767153,-0.0696999463677836,-0.013200252086889302,0.13099319252757516,0.14069859523569234,-0.01549577053237318,0.2815121317437191,-0.1138616522603866,0.21971096128705211,-0.03975204365828083,0.09375744133526395,0.018069734128795888,-0.14079416256160848,0.032926220514787906,-0.46673464151492083,-0.010296330469463811,-0.3062565300624295,0.25129900407544026,-0.5727744832096625,-0.08810771242844896,-0.12350283767635238,0.024328654483385826,-0.0988002239011822,1
org.w3c.dom.html.HTMLTableSectionElement,0.03252190422485291,-0.03450090263787844,0.01799407287293018,-0.03557479931602345,0.02153615007943501,0.6016796203372402,-0.009594395772916424,0.1073207950552006,0.0019189229673621413,0.007457880041328519,0.03569528433181748,0.5312737725676331,0.01719681205584324,-0.025465091872399148,-0.0046312075856413185,0.040075681637791995,0.06352874413601343,0.04955696959918478,0.0022024818245720795,-0.13944004994365686,-0.026404174280850377,-0.28249857218254515,0.3432712113484892,0.01320970381506221,-0.3092244220795955,-0.0283958791879069,-0.013312577724538846,-0.002375974128341216,0.009673880390164116,0.006307982781560525,-0.1025163605803161,0.06487959334342461,0
org.apache.xerces.framework.XMLContentSpec,0.22939573866292115,0.31025655160626237,-0.08930267082078279,-0.15464689994512276,0.5099037116286231,-0.05114239715955702,0.132163009215832,0.1548285606887867,-0.08351974069640059,-0.30327587937671,0.13365531922554474,-0.0036623014390232554,-0.12099539783922582,-0.12232482157303234,-0.09370917584483247,0.0004965827667826692,0.019799048422991017,-0.011293731029276706,0.016483069820974125,-0.13860358810224896,-0.02490550872383213,0.22643642918580398,0.04863253922069586,-0.27567188239659457,-0.10152329546226811,-0.13962290347477563,-0.2088422428939608,-0.20009627482621073,0.005171363789358857,-0.2479481206910634,0.15317256015650307,0.1062057138225013,0
org.apache.xerces.dom.ChildNode,0.293052840408101,-0.21208368687786763,0.07429794583397972,-0.1398530338540059,0.0056508898980169526,0.011980776059205491,0.040035682795181396,-0.3242235801089904,-0.22333264442736614,-0.007292450361526822,-0.05337828251248149,0.021965102226903753,-0.021136989929571262,0.012610873258571754,-0.06535611465222295,0.20282545427761858,-0.30535324445193207,-0.33834689981090554,0.003349760849441429,-0.24374621616487233,-0.07184476253018633,0.09866133559598016,-0.04826567409450028,0.3121946770381457,-0.07154361907211458,0.1300199531153579,0.0034509247485678234,0.00094388082362342,0.015660285235674268,0.12873940193395075,0.433006950834578,0.1723380877753014,0
org.apache.xerces.validators.schema.identity.KeyRef,0.08839301111134476,0.14268548892131475,0.0053689557095747305,-0.022429633694709964,0.2686651387662919,-0.013681330869769704,0.04315530000908113,0.03578329348326272,0.15146310585120762,0.6662046123263513,0.004826407747274326,-0.001986044489549453,0.012085706648397873,0.007048366096478034,-0.22826955092745593,-0.08418202677130497,0.032463209529842316,-0.39719760660960324,0.08232268086299029,-0.06642955209478016,0.34887714640052553,-0.0970495552038061,-0.02285076790442121,-0.16094439465821828,0.010469034263839837,-0.12701570150490507,0.07254765403675865,0.0644083837355484,0.057023062252338545,0.003302663975872656,0.035956609351963556,0.10871964930840831,0
org.apache.html.dom.HTMLAnchorElementImpl,0.032421929480605335,-0.032990999958812224,0.017222902732838295,-0.03571885728634356,0.028104144480503152,0.6448068708474406,-0.008083413776937526,0.09977035429535666,-0.039136885984692095,0.008749087856629754,0.01002761361441711,-0.7330266470800608,-0.012163544176731626,0.036899091832435414,-0.001187998863003815,0.0017966919983110174,-0.022755251307473696,-0.007450024799589274,-0.002416715108742109,0.007228163414148345,0.007213651345635496,0.04739012719972778,-0.10369284160327497,-0.011224762845680051,0.10635141060666385,0.00020410686080197193,-0.002988349620264396,-0.031057107976452406,-0.03105065574183317,-0.0074792348651364976,0.0354799701261916,-0.027950703593942694,0
org.xml.sax.helpers.NamespaceSupport,0.13395606059962173,0.09519067404288772,-0.09652448328000957,0.4415742741056154,-0.06051469741340787,0.04317599200354313,0.10244160341627218,-0.06592226580611764,-0.08400135625503752,-0.03552595228395122,0.4788038801460111,0.03079609478162935,0.1527408155144746,0.16850011332984036,-0.004626461271452,-0.003248414025312674,-0.5536479056736706,-0.06350839334608373,0.18778771571371264,-0.05848786488698416,0.052848562890014876,0.15978480904155648,0.10432457460354894,-0.024402456831245235,-0.14957231447284547,-0.12288382170815214,0.0008697977354491715,-0.02452097101765103,-0.1284162157796928,-0.07315259964375935,0.08382265806624667,0.045380117073368455,0
org.apache.wml.dom.WMLDocumentImpl,0.05276097338432626,-0.037974885059722706,0.014623186374732932,-0.024718275701076656,0.0018060153913633155,-0.005951809932398844,0.0013681514416327264,-0.028535061417921174,0.023666446273920956,-0.008611781499217009,-0.03454245224268556,-0.0013744530476078249,0.049154738961160675,-0.06407026975754457,0.0033201447190702353,-0.04347913165324686,-0.08720497511367098,-0.0005733584429109104,-0.004424667158634275,0.08087366294097256,0.08486565727909844,0.1431308339518332,0.7093755651282333,0.09700188570826453,0.6356800199024264,-0.05767730400160419,-0.1338992717105586,-0.03370497715812655,0.005061294955957615,0.005809656640999682,-0.04653390950142525,0.02569357668917177,0
org.w3c.dom.events.MutationEvent,0.24183489169053904,-0.19324758632509795,0.07694096334907959,-0.15221550658951263,-0.0003861968488132533,-0.00708627359738943,0.0322225263388576,-0.2896506996911214,-0.2426975610090309,0.004011588723459427,-0.06363633707751386,0.007652202490680079,-0.015305883953019727,0.021326074040815022,-0.07472301794682745,0.2741371876353478,-0.25650980978590066,-0.43412985439190827,0.0025203626891468576,-0.1321884547877272,-0.20634511006617703,-0.04815983402935638,-0.06425803019478907,0.2709356424164708,-0.046683898196033205,0.15237603155354343,-0.1274076962041212,-0.02404392450948076,0.24570882339139585,0.11078934710740394,0.3554476503233041,0.10132921038767397,0
org.apache.xerces.utils.UTF8DataChunk,0.11414443116760875,0.2573653031310631,-0.17737038131972988,-0.24891863168229275,-0.19816835116526932,0.00631968753115688,-0.05772333028676354,0.013111336364565896,0.010024882145062617,-0.14987318314687478,-0.11286144801355535,0.006655365369936259,0.24639073358061706,0.24842565342897568,-0.2707676504862004,0.07791262752079742,-0.047085799755647424,0.12353556142598336,-0.03642998820360065,-0.09163217631741706,0.0043393736620746795,-0.006951464661083369,-0.048652907482099154,-0.09822508161385884,0.05910268210192189,-0.45428846553400837,0.03457815309584301,0.1723173647492277,0.18957819479481164,0.41594641465105403,0.03508293478287093,-0.23899561817162626,0
org.apache.xml.serialize.SerializerFactory,0.07491041236394555,-0.03104536914386008,-0.004903332676784893,0.06366047400017363,0.02854846947658028,0.021266321899315398,0.006393929209921881,-0.1061565720575886,0.8476071976139752,-0.20584807117124693,0.022172064102031264,-0.021910639197699193,-0.04854876986516833,0.001105089517355578,-0.01713678942662062,0.08667828936657049,-0.13391188340103832,-0.1380224430186046,-0.0037893270006175545,-0.12714010876725648,-0.06939934158349506,-0.12313103643768301,-0.12489566539011626,-0.02423358494495406,0.0569269018569833,0.0906265977120085,-0.20833779760291485,-0.21767660527150157,0.06275369030921017,0.06448700217613582,-0.057414180607263464,0.04315818170179056,0
org.apache.wml.WMLDocument,0.014620829012865554,-0.012376527684884344,0.005453522933676213,-0.00998010978626485,0.0009949117455478104,-0.004649818029635247,0.0025749760661761254,-0.01997977166779451,0.019631712819269034,-0.007307564246727406,0.028108753409065195,-0.04971284799681778,0.7117772787907588,-0.6958251504604205,0.0024549374731928047,-0.0037450948683356833,-0.0020293986354994772,0.0013232146995716585,0.0006792403191337402,-0.024020759832534776,-0.014463074610924232,-0.015007488874220995,-0.04649545646242222,-0.0006345204217769679,-0.03339588621533295,0.003896412606551646,0.009721247284174414,0.0027426618288385533,-0.005807876077621344,0.002772756965340978,0.010009093593994402,0.0011659253222826432,0
org.apache.wml.WMLElement,0.006643906087872857,-0.0064460779490560114,0.0031394862205266164,-0.0068063902796881804,0.0008451261711930388,-0.0008770087402098975,0.002098018038773184,-0.019384130847185866,0.011224508954920307,-0.0059312490179109795,0.018774249872857054,-0.047236580947172535,0.709689185047216,-0.6955689166179738,0.002226280823921008,-0.002629417484838264,-0.0310306258015529,-0.0026966624640197535,-0.0015526928697311313,-0.026408106718015245,-0.018756912697481396,-0.037124293109281184,-0.06939715275262495,0.0021096059342362752,-0.0229127988149276,0.0014478023643666664,0.0008555231265573318,-0.009039716748739521,0.011819613912595074,-0.014258149970115958,-0.007596976610162213,0.0037624638041747044,0
org.apache.xerces.validators.datatype.ENTITYDatatypeValidator,0.13736810130850446,0.35862361667580844,0.2951792586959082,-0.03664264618310207,-0.09376466699506875,0.008694607721061797,-0.7624343724284699,-0.09209559815460008,-0.0193487742500418,-0.021201583068314125,0.04945281183163453,0.0010515412897606075,-0.02071433356724557,-0.01875560680114774,0.12317450292832625,0.0928814981702779,-0.05382379743003172,-0.029820556400126725,-0.1286231746141409,-0.05699283348287504,-0.025609491148283925,0.037424074524758516,0.0889157427554137,-0.24222490733983723,-0.023195908835954043,0.005403419295997336,0.08397096054841334,-0.10284524850260439,-0.15402176547563726,-0.010319934205939204,0.057415654183870846,-0.0022630429754869315,1
org.apache.xml.serialize.ElementState,0.13640073164081656,-0.0525694639551161,-0.009403938616970772,0.09435870783857486,0.02736349178754731,0.005800057807314728,0.015268268420924035,-0.10922798964428927,0.7978956165981151,-0.18560235878230036,0.3151229623537125,-0.04868170058323065,0.034488937349553876,0.08230273016626295,-0.021091862658326733,0.2244281545505517,0.14767979374301338,-0.11159266433334294,0.009322728708317997,-0.18402743906414085,-0.011222545590722607,-0.01301812937623944,-0.027223068637473057,0.1562774119973648,0.06515103249507564,0.048414596271119194,0.09804713132150245,-0.07125781329911138,0.04231444688463048,0.0912847649034676,0.0020571534795610635,0.008791525328271993,0
org.apache.xerces.readers.UCSRecognizer,0.1277101545529741,0.28201072017057804,-0.217194665423711,-0.23333806419048103,-0.4176018689462624,0.028538584918484183,-0.07644976601794327,-0.041225389156266994,0.034765843100295395,-0.05341314735939378,-0.10396409022665672,0.005696419747797789,0.17878383807481468,0.17834782728951268,-0.13571667168276322,-0.08465000079603338,0.08568723529687652,-0.06737701396756479,0.012301389656152599,0.03454591648938256,-0.008343626415087374,-0.031801489010490694,0.05287882249592485,-0.05215557086363071,0.024215721363218173,0.24785396467623294,0.2929112108756132,-0.3002322378739366,-0.17441586506206694,-0.16032292976316692,-0.039583196275383266,0.44728246933151905,0
org.apache.xerces.validators.schema.identity.IdentityConstraint,0.09710470672216757,0.17092620190506816,-0.008573714730383082,-0.04111811593200689,0.302054817888126,-0.016658742013878656,0.04025267945651213,0.04645951870988602,0.16248073787199527,0.74368624829344,-0.04297262251597516,0.0022818664123724006,0.04636687884360816,0.03662946385697477,-0.21595995174843177,-0.018872930353197512,-0.013334082723431255,-0.31876546666270117,0.08483917044324711,-0.03460192199574397,0.22215316643428346,-0.07296646378550047,0.0017528827510083045,-0.1495441221635797,0.02993180126259308,-0.05169688164577222,0.1169014910041448,0.0767817787199575,-0.000468438938675613,0.1011650274434042,-0.018734136496765478,0.10745909390922055,1
org.xml.sax.AttributeList,0.2668891959310976,0.04288401053649291,-0.15611736834455314,0.41994174686714225,-0.02902744161047535,0.02447974541297133,0.0125471710961679,-0.005086454602265902,0.2923467725249844,-0.09030346759504124,0.3902294471569839,-0.0014559103457180162,0.08725314185838354,0.10692064223526794,-0.02565214143725167,0.38437165800378476,-0.22219164486293919,-0.10464417529469124,-0.006225875761055659,-0.04003688682139961,0.04639705519372152,0.12807857853658527,-0.009490869654502729,0.2788179939419882,0.006787554600023269,-0.06341991511148845,0.2928662991039507,0.05694538746326713,0.05934546386808218,-0.1473576956759793,-0.18102799346623608,0.042408900788668255,0
org.w3c.dom.html.HTMLImageElement,0.04642209151390456,-0.04598636065083764,0.023592103378015535,-0.04636588892775532,0.02675057006342185,0.6758923414025768,-0.00892835656873219,0.11135898275590042,0.004687704509223194,0.01030890815708672,0.07094243694810491,0.6778364507606313,0.036060854291153896,-0.027488377520957757,-0.011088018310672644,0.07706735927166904,0.13490621231622416,0.05007450778692979,-0.00306840931558316,0.05715893756826315,0.0014841693297132853,0.02683492611633016,-0.06875182165364495,-0.08369406521464429,0.08175541704261154,-0.010810950296113585,-0.023609811836973426,0.04101550304598329,-0.0416446339044069,-0.0051904954912876606,-0.040362920863423135,0.03724504886838948,0
org.apache.wml.WMLPElement,0.007160091530431242,-0.0066532845783747975,0.0031017774851921907,-0.006185327700346689,0.0005392652104503064,-0.001143890398532259,0.0009447892834975619,-0.012482383980418841,0.0063274021072846215,-0.0029532954540674294,-0.01169422616639561,-0.0010633644556192143,0.03444089792265975,-0.040237786671818786,-0.001453540413472783,-0.014334325750619608,-0.05016644942633154,-0.0010237137498655977,-0.00496035134679415,0.05921892548468216,0.07428554819670556,0.12679930486541827,0.6955110763722764,0.09590085299301346,0.6641625655601754,-0.06398194905082483,-0.1533689645115083,-0.05035816243723557,0.007192746108175262,0.008627010374590646,-0.058212327134450785,0.03379547729021056,0
org.apache.wml.dom.WMLSetvarElementImpl,0.010318417682668694,-0.00916557537645687,0.004197496824411933,-0.008217127199631774,0.0009066471672273546,-0.002725532814850355,0.002306630633284787,-0.019455272325905774,0.015330690124077031,-0.00658237765079134,0.02337798463839801,-0.04841607081218664,0.7109390184654667,-0.6959421648073468,0.002351873339573827,-0.003212279485401267,-0.016656474945794024,-0.0006806057955200758,-0.0004599122224286435,-0.02562725781123319,-0.016903716967665842,-0.026602241950012442,-0.05929265417453844,0.0007815188852346517,-0.02885434395004173,0.0027392622206229285,0.005498305395545831,-0.003162018533069725,0.0031169528538212837,-0.0059378470834088575,0.001221440737974044,0.002525755528764946,0
org.w3c.dom.html.HTMLLegendElement,0.02831297387607053,-0.02877076411817023,0.01486000263640863,-0.029680619157513837,0.01710400740283593,0.3756694675276365,-0.0064826873318966,0.05218525819389138,0.012139610604696701,0.0006277622450679073,-0.0018439507395199813,0.5464989161188742,0.01496181377103049,-0.02972650853229183,0.004678084983221915,0.005194308658667715,0.016587645698787217,0.04515705314826269,-0.014766347450832966,0.23146958453819869,0.05855553531366265,0.30760605165691035,-0.4140545532690036,-0.029901147991559632,0.40188233894111897,0.033363812526749304,0.0426822467476238,0.11399635414862784,0.014951452574899654,-0.0042916497262512395,0.20103941270245956,-0.09230656460423639,0
org.apache.wml.WMLAnchorElement,0.007159971479965964,-0.006653176884812023,0.003101706667704227,-0.006185233868338262,0.0005395795691507184,-0.0011437874389520104,0.0009444559012764569,-0.012482409660493922,0.0063270975570638745,-0.0029532239599484055,-0.011694353670082262,-0.001062092623856947,0.0344402183890288,-0.04023592156660805,-0.0014514514677746652,-0.01433344152572413,-0.050165353184935244,-0.001024556488992901,-0.004965028899771837,0.05921060310885506,0.07429571021283025,0.12678857124793702,0.6955186103073188,0.09591549209016113,0.6641549881150524,-0.06398663178786623,-0.1533722606631778,-0.05033854280247823,0.007168301132533234,0.008626060586911517,-0.058199286723250386,0.033818025454679795,0
