name,vector_0,vector_1,vector_2,vector_3,vector_4,vector_5,vector_6,vector_7,vector_8,vector_9,vector_10,vector_11,vector_12,vector_13,vector_14,vector_15,vector_16,vector_17,vector_18,vector_19,vector_20,vector_21,vector_22,vector_23,vector_24,vector_25,vector_26,vector_27,vector_28,vector_29,vector_30,vector_31,bug
org.apache.poi.hssf.record.SSTDeserializer,0.04258592959978011,0.21928591563596972,0.028103256642274234,-0.02472818365608633,-0.005493874865413815,0.04079385747893116,0.11813598420406302,0.023011386697658853,-0.012877436163889385,-0.0002882090519647262,-0.01803337444980727,-0.07285508480571984,0.03379759200028599,0.19970845587939587,-0.24248410163162,0.11164561446933921,0.2415535152906439,0.08705287060098366,0.7477071399810205,0.1719397870797563,-0.10441256977879268,0.1332577522348572,0.008944412434050128,-0.1088530374404759,0.10714252464818988,0.17435750103148528,-0.2611224109944094,-0.03538452170000596,-0.014344588200220516,-0.07607907634853187,0.044153932236280384,-0.005131201170656338,0
org.apache.poi.hssf.record.BottomMarginRecord,0.0067491221002531215,0.851280221300036,-0.17093013519660008,-0.06701165852793768,-0.09885739913942564,-0.035122177413038025,-0.07057372197711369,-0.06957798739028502,0.10550992213447795,-0.17763868308870936,-0.02151089132073374,0.24367164645604023,0.0043296620565367195,-0.23729420755168945,-0.04105383004762688,-0.03482250542815891,0.09975576001931472,0.0020915020735420018,-0.14915734362073962,0.10402785754366094,0.003017728253293832,0.022366904032882322,-0.06970910733816174,-0.03253134224781629,-0.027657789104085746,0.04388390031658562,0.029783101524779865,-0.05148619705376414,0.041627519740025536,-0.013627750026166108,-0.035278102142176866,0.01203603477175992,0
org.apache.poi.hssf.record.MergeCellsRecord,0.011459407309909617,0.8086005814607221,-0.14595304030942663,-0.07649422328402498,-0.10323895058696393,-0.030621013035589676,-0.07923732047390704,-0.07003583367001108,0.08997529803214173,-0.17357861558588053,-0.02333691736083377,0.23204098335645937,0.0010333072597306604,-0.25189003347136524,-0.039020041521770105,-0.025018880630490365,0.12338106221998718,-0.008232942355043418,-0.22200134791133538,0.18586530622217942,-0.029167513375155676,0.093797134792936,-0.0692865317220974,-0.03986491274163107,-0.03861654803665969,0.08697380602830193,-0.004240267557831778,0.05185706205384896,0.03820862591161909,-0.07421583814671545,-0.03225259146710202,0.05439805527406578,0
org.apache.poi.hssf.record.WindowProtectRecord,-0.0002673818841782339,0.8332599430892837,-0.165999254469594,-0.013728843601195615,-0.0944045465167498,-0.04994626441660509,-0.04954750719014775,-0.04832935346177835,0.09879957151834337,0.08838889507260766,-0.027517281515195918,0.27556778653352143,0.012605795633105935,-0.22578841796616694,-0.04914194537314274,-0.045143690588056076,0.05477934248751379,0.030251945626415637,0.06282800041552823,-0.13866781629483133,0.0915719719580211,-0.14926606345994464,-0.16440876562469822,0.052386578185403786,-0.02267060735313172,-0.06158867942075912,0.040036596218874954,-0.007134083128655391,0.06405260000571994,0.06173228286901073,0.05235143609984178,-0.0879055688239096,0
org.apache.poi.hssf.eventusermodel.HSSFRequest,0.05842943172176889,0.39308759343223965,0.028274004096911397,-0.12412074325625283,-0.11795386286085209,0.05495924797176321,0.05113746816131326,-0.051679358067949925,0.059377252882941677,-0.1145153794305702,-0.03002762273453895,0.25365574312451405,-0.03473617018692961,-0.14583484714466832,0.0846241381985999,0.04198961524074973,0.18798475213561047,-0.0881423689882155,0.2160138087480663,0.43835344436803314,-0.06068308410065339,-0.031657745543377774,-0.20115830689944933,-0.13613382893925063,0.050547196233746955,-0.16834711785184348,-0.2991167537622076,-0.343714276241666,-0.08871009068884268,0.30050378618088647,-0.06142103250066181,-0.06562617710580537,1
org.apache.poi.hssf.record.formula.ConcatPtg,0.007189250569570779,0.10843136261336285,0.08281780796670633,0.22814107375122653,-0.07875032122591098,-0.02017021066735645,0.012311057174620074,0.0368586809407513,-0.057102546885954494,0.9435601079472986,-0.032815373716416074,0.06994819080501306,0.005540212611888631,0.008902662742446391,0.03770404038704605,0.0699143713989374,-0.06709096597065654,0.029113951817746047,-0.04775179012024942,0.03984823521877512,0.024143895790323215,-0.008078194981598253,0.014193912694541691,0.012211865433836042,0.008728381828708899,-0.016849237152132483,0.00375917913652455,-0.04074482487963834,0.028114597706095656,0.017807821280870533,-0.035273697752045724,0.024654519488043525,0
org.apache.poi.hssf.record.DataFormatRecord,5.069724116490298e-07,0.5691593418937925,-0.12816260707059793,-0.007166579977960442,0.05407359132907037,-0.0522687615244449,0.1323002495618759,0.04342313247363393,-0.004002292815731552,-0.10072014192833709,0.04567458527251471,-0.3699933585407687,-0.011757378461657439,0.41659037198651305,0.14205623585395222,0.12659468791800832,-0.31950272865263807,0.040604999007186275,-0.04857250465509963,-0.12669676370615734,-0.06565392518946214,0.12487835039299436,0.31810958377747117,-0.003355830802452254,-0.02487195501137767,0.03769284401798219,-0.0052084691008184745,0.01816118279024851,-0.12113591563105836,-0.0369147847236193,-0.03430584085292579,0.11242774001919165,0
org.apache.poi.hssf.usermodel.HSSFCell,0.11453298764568516,0.09924666331433103,0.6764973411121722,-0.2896988338106735,-0.2376825631500585,-0.2549582542956694,0.26548691915421635,0.03342285183495334,-0.11053656830366296,0.04069613982467576,-0.022459233021924412,0.006074217667816975,0.00045024303309468765,-0.06651994880291454,-0.09217923511331817,-0.033720971132774426,-0.029921350881717296,-0.11635263340214119,-0.053918014524107105,0.08186713091116919,-0.04924403872914035,0.038868901219421964,0.062320910806601654,-0.0745294872695883,0.06288247371409492,0.041159425126385436,0.029121599377387633,-0.4071489433496293,0.05591892605494123,-0.012876156679837618,0.02895609870971329,-0.008447524759765965,1
org.apache.poi.hssf.record.ExternSheetRecord,0.026150256985126515,0.8138746612444301,-0.16083095159801308,0.01847128973251145,-0.09833759701774307,-0.05080791771523283,-0.043295745455933794,-0.047137081304634704,0.10155533568727662,0.06758068656260037,-0.02660789701345429,0.28335087889789445,0.013681417999849213,-0.21737471092276492,-0.05125053631955924,-0.030351584572601724,0.06755023501213622,0.02769259230286342,0.0979149324018734,-0.16753996260764056,0.10910686390189643,-0.16877891425049382,-0.18707225624947424,0.07377350539681231,-0.01547066172669412,-0.07673417538644547,0.0433974673506122,-0.009998825355873327,0.07689048927577859,0.07125035532704341,0.020277795384059483,-0.06463998280221377,0
org.apache.poi.hssf.util.RangeAddress,0.11793123306259261,0.03953307071240482,0.1906162389037696,0.342501711636058,-0.12002760519732501,-0.05391655055169975,0.10750641546635843,0.027377275161451525,-0.02888297598458115,-0.09759694323625293,0.02074370009994239,0.07715813771167768,0.02361116245246879,0.23684578859269467,0.09993137168144467,0.11405348821189101,0.17280920919059928,0.03282777540298669,0.2332472008450475,-0.3907111483582884,0.13321888354700115,-0.1482116740540551,-0.23750875312970418,0.1782085863759689,0.012899057332986255,-0.26892836374484475,0.053451542528804685,0.39357086131484925,-0.07644014256370082,-0.27321529811192935,0.10078698603581161,0.13454065149402036,0
org.apache.poi.hssf.record.MulBlankRecord,-0.004843412350579668,0.8845982550322359,-0.2139378105646751,-0.05983641014972098,-0.07352571166109093,-0.05457022818664141,-0.019841475287772716,-0.05615691502515225,0.12455444352065136,-0.15433846049921568,-0.009134046869611006,0.20039064936644208,0.010356357082755008,-0.1307524464627307,-0.03191232102181906,-0.025466314882758863,0.009307113240331984,0.021868233458331953,0.019102106380965482,-0.05788985401911037,0.03101483940646182,-0.0671668362703718,-0.031111085014329277,-0.008655301062854457,-0.007445223388751505,-0.016923564724913614,0.04450390865997766,-0.15745407882893603,-0.0066539045834970965,0.0925610976297777,-0.025337057586742116,-0.1028200227285321,0
org.apache.poi.util.StringUtil,0.5396728283603068,0.008802853870283678,0.01839023078728572,0.14827545151876334,-0.030225356026767847,-0.011508798308987744,-0.018366581537106443,-0.02314047564042905,0.05511619918099232,-0.05141919433036593,0.008249936364393784,0.009181936117236379,0.013261846615254869,0.04636199414198952,-0.06073960221067584,-0.031547949728638655,-0.020136803714858945,0.07005890130104092,0.4272540789629275,-0.15755963727519504,-0.027366673556399275,-0.01452433430439362,-0.14420331157585875,-0.009831418998051152,0.10988852181672037,-0.14501873407971505,-0.19234222238817908,-0.10766279477754463,0.08232118041502447,-0.49491261266113384,0.03738381450804712,0.3197617847457866,1
org.apache.poi.hssf.record.PrintGridlinesRecord,0.00817430758748721,0.8310886049938028,-0.09425868248543272,-0.06770261002034385,-0.10830712112616109,0.04210965507891845,-0.22193045543742496,-0.06587918559099491,0.013728876827447958,-0.1587523266797211,-0.026679406489427553,0.2531013314808231,0.009487541234055152,-0.2511695022855463,-0.06560942263239072,-0.039438214277814986,0.1059544331935864,0.030375219642713457,-0.07285439243977773,-0.023467037169259953,0.050384548803173064,-0.02925830069909272,-0.155812491316313,0.06654529542537214,-0.020185722163075438,0.011532524285676176,0.022879620110569092,0.0877883436340104,0.07868825012935236,-0.04851347053575317,-0.0005544052744955047,0.0451265111652961,0
org.apache.poi.poifs.property.Parent,0.015422661405350476,0.02336756218089291,0.07508462761454256,-0.04126938271041585,-0.03472985030334639,0.35904730659973455,0.2025229355008245,-0.03622444896639235,0.11121289030435717,0.006540926709632129,-0.055552776314119506,0.009904753587911585,0.09129651328831508,-0.0623801768920906,0.11792775556072856,0.00436402731361471,0.03659403268247339,-0.015367481210578666,0.1445084001023367,0.26984281263140786,-0.15757108710730186,0.20191998916208742,0.02869132135410738,0.08350789275409704,-0.5541504196215125,-0.18060105368678536,-0.33321790657617917,0.03602371305567145,-0.004224112904090845,-0.14735592420231197,0.34685381029694606,0.12222122710303299,0
org.apache.poi.hssf.record.LabelRecord,0.009647965337734819,0.8195187575872073,-0.11127696569237007,-0.08288979467262195,-0.11507994189712697,-0.051407117433719986,-0.0565412091645516,-0.06690748568229564,0.0841557348255944,-0.1533616157626531,-0.02538982834437178,0.24407649368149278,0.006345941389734971,-0.2368987962353813,-0.049810835833788106,-0.027295334493816374,0.1269556635271529,-0.015563719279294801,-0.14791210356061885,0.18098830593306062,-0.01895963733823809,0.06342844327099391,-0.08534188981792629,-0.05734302896081327,0.008537469168577927,0.07499957022837085,-0.025803010732671695,-0.168871129445383,0.1031648658381498,-0.03612409561429798,-0.04975364435160303,-0.004728045736305099,0
org.apache.poi.hssf.record.FooterRecord,0.0071978120113405115,0.8917166949955609,-0.15116803713978885,-0.07398398943778664,-0.11321226784091618,-0.054951435093893615,-0.06091821090703156,-0.0675078164291313,0.09841521089349207,-0.16355489653169153,-0.018204471012786622,0.21345700341771803,0.009424218400480203,-0.14919942020200547,-0.015245083560981447,-0.0032537504527806274,-0.02018623295638721,0.0540379652717926,-0.05335790545010093,-0.07269836087043581,0.037459669722707874,0.004459754415120704,-0.017688275696045867,0.057491550573452926,-0.03884950599039636,0.028061681440210266,-0.003484943804452296,0.13493142379547854,0.02144314765387501,-0.03419274449649742,0.00020491203380159308,0.09375729734079292,0
org.apache.poi.hssf.record.formula.AreaPtg,0.007088273409884875,0.26198313905234183,0.05235542603787355,0.19437703523881644,-0.048415756776745894,-0.013745461226804583,0.049816202223052074,0.050676066700061716,-0.06747692298017374,0.8310204583056161,0.023914754405989374,-0.0773726870914277,0.00689413706156334,0.18194374745145322,0.024979862085083397,0.05257843838145252,-0.19397496049673746,-0.006421146185175028,0.06101494658720619,-0.09256522046133463,-0.08581605922372457,0.08793617412130217,0.1214124679142243,-0.021172564275255684,0.02027218784132294,-0.0584731949559857,0.02054771974982161,0.09720032917941797,-0.17940128819912585,-0.12974824408450725,-0.03823085906964382,0.023149341914575357,1
org.apache.poi.hssf.record.CustomField,0.07315542872759552,0.05203325340251381,0.041778534779970865,0.30435886323733274,-0.04187323096562789,0.0016277854741962177,0.06323457398709806,0.05866011107899617,-0.11266954866114111,-0.1585974871458695,0.04292196729690915,0.2511765741262968,0.054598036309496445,0.5520852229036155,0.15426691690575273,-0.3021806460839542,-0.25245253708772514,-0.20220577776750256,-0.13218755674325228,0.12374604360136586,0.030077106558927293,-0.05898708735746071,0.009189172055013359,0.15969770890061483,-0.0891550569224615,0.20167266517828578,0.01284384346542415,0.18715598490485158,-0.20960032158193817,0.25677408987035655,-0.02840803189078819,0.028850338348123148,0
org.apache.poi.hssf.record.SCLRecord,0.016411239962329544,0.6874159911655972,0.01740979924034626,-0.07043444496417281,-0.008086582040697654,0.004022160649272485,-0.0323626218398904,0.026476112879191948,-0.10670128853135141,-0.20091753257799144,0.006142910218876329,-0.30074475390922745,-0.010834023017594238,0.28521634120990585,0.1095055699038743,0.14897550286940306,-0.11636331040439521,0.03809814459648129,-0.22205160152365813,0.03052947178102514,-0.024645089090166362,0.17093669863725597,0.2028641613183796,0.0807383458832686,-0.010381477707136532,0.12883387798483778,-0.008279916802238517,0.23619861926379093,0.009882558844048057,-0.10866193907367401,0.01595351383245159,0.1864211106521152,0
org.apache.poi.hssf.record.NumberRecord,0.06391548041065176,0.6695800944767891,0.027156201912561972,-0.1153662398461473,-0.14800760321489353,0.02913858037885534,-0.1340099346738269,-0.044688111792222804,-0.027643308658676504,-0.17211123560412647,-0.032432549282097003,0.1642394883792808,-0.007575767506388458,-0.1970842617418838,-0.03703728863069169,0.05376739565198296,0.24212066475368915,-0.06794593558839497,-0.13221433261867785,0.3002835807243822,-0.05816126798848634,0.09622036536241628,-0.09079908198696415,-0.11277269098238957,0.030964703452591495,0.08582852970817045,-0.10587626131347572,-0.3599570146832393,0.05279757937529197,0.07237082550639348,-0.1079087916316091,-0.12640212842961118,0
org.apache.poi.hssf.eventmodel.ERFListener,0.08309358299874191,0.6695097642643504,-0.1678997888460456,-0.07976259696872087,-0.1420598794220793,-0.03017448714634973,-0.12051826993248597,-0.08499730270120007,0.12659243202977113,-0.13597743211596208,-0.04223646184146066,0.29896458069644577,0.002316977456114016,-0.27097220565362495,0.024730578354867635,0.05341174166307406,0.13634306398758436,-0.016774799885893442,-0.03949944780703276,0.2070525916277256,0.005091904805921372,-0.15408074469622884,-0.039078374019720225,-0.0963112878548705,0.09085088219816852,-0.24757424698950667,-0.015510532597563562,0.15114532538441408,0.24555448231738453,-0.11036657743414016,0.04120814965270994,0.014289313078379893,0
org.apache.poi.hssf.dev.EFHSSFListener,0.04423973998490362,0.508480544164375,0.061601599316198234,-0.15881237888302951,-0.12413096181612576,-0.06166305812555108,0.1037983640902976,-0.024854617781351097,0.016820724203410787,-0.15824752946897824,-0.015754418707665824,0.1633357527866376,-0.004137722359997309,0.11666686541317514,0.098792811991904,0.051749794518309335,-0.025321902623121985,-0.13184011715719296,0.20617137541452024,0.4574157384015798,-0.10259398473164504,-0.06400822496101476,0.11553848316246519,-0.1671735418311318,0.2230886489488422,-0.29309852841376227,-0.26859962863353776,-0.15823237050183728,-0.06152254499498305,0.1208906625788347,-0.01988482371673006,-0.15563484715496645,0
org.apache.poi.hssf.record.formula.MultiplyPtg,0.007189250569570779,0.10843136261336285,0.08281780796670633,0.22814107375122653,-0.07875032122591098,-0.02017021066735645,0.012311057174620074,0.0368586809407513,-0.057102546885954494,0.9435601079472986,-0.032815373716416074,0.06994819080501306,0.005540212611888631,0.008902662742446391,0.03770404038704605,0.0699143713989374,-0.06709096597065654,0.029113951817746047,-0.04775179012024942,0.03984823521877512,0.024143895790323215,-0.008078194981598253,0.014193912694541691,0.012211865433836042,0.008728381828708899,-0.016849237152132483,0.00375917913652455,-0.04074482487963834,0.028114597706095656,0.017807821280870533,-0.035273697752045724,0.024654519488043525,0
org.apache.poi.hssf.record.MulRKRecord,-0.0044094562955211076,0.8665231813315778,-0.21177474171373592,-0.06124390684230685,-0.0756672146674437,-0.055111790073367806,-0.022960747507618118,-0.05783227354925702,0.12602054564688508,-0.15926895457856824,-0.010641324258858068,0.21433983388160685,0.010995628612017257,-0.1401411330499323,-0.03239036225549733,-0.027207528074087044,0.016295279926916408,0.016570888324774283,0.015126904827148268,-0.03879400205057279,0.031183409610461694,-0.08455540735930742,-0.030993773159093834,-0.02404981705092652,0.010893333591632113,-0.047867986222899755,0.059236499871338916,-0.1839113009451801,-0.004438247065050354,0.10104144782201038,-0.03138058648475928,-0.1270458779065141,0
org.apache.poi.hssf.record.ExtSSTRecord,0.05067531977439709,0.7158050916138976,-0.13794020298296145,-0.015700845722971715,-0.08908923431878459,-0.013605726381725839,-0.03401031012336495,-0.04197623502934848,0.08597928419382803,0.07124842418600236,-0.0298081520492797,0.24166340938173678,0.021808981140765682,-0.14860481757431104,-0.13212472832634806,0.0040480297750306515,0.13011819884792275,0.024204790020746835,0.4695960591244282,0.009771318656533823,0.059321407589361566,-0.10278388491510472,-0.23027141107843643,0.002559358162379309,0.0530865399112357,0.010611593906775588,-0.1710824731917183,-0.042158315316363416,0.03920087285585244,0.015124023307675346,-0.04359407807893511,0.0076615793007871694,0
org.apache.poi.hssf.record.BlankRecord,0.014421347737434281,0.7798694043144733,-0.026689354457360474,-0.07414342431384535,-0.13464835647773846,0.028756694912578602,-0.19046300453678627,-0.04313775178827387,-0.03497569585847297,-0.19198984221743165,-0.02833403625486855,0.1728702742375672,0.0024315684878207754,-0.22410703173280028,-0.0699342936784128,-0.014802253582901322,0.13635775496239944,-0.05543396270227878,-0.20480652802015542,0.17801948595832073,-0.03163373003621805,0.08559388350173122,-0.02913537145428115,-0.07091188290568537,0.012319067392521097,0.09761292551470215,0.0076129956372012544,-0.2641951090094764,0.06723628423416901,0.020223737115539715,-0.08625752675508067,-0.05260576324264736,0
org.apache.poi.hssf.record.formula.AbstractFunctionPtg,0.025044442985845065,0.10635495458944802,0.14597621116430992,0.3537635296665604,-0.130105211222226,-0.041312465885417246,0.0473918565759788,0.034104265981029086,-0.04745192626737834,0.8582624353982427,-0.029243021677175293,0.07555184893104178,0.010765776254053335,0.09640735184841899,0.04539834030730281,0.14135330334299107,0.04903582154638406,0.0219061481071934,-0.046860877105230715,0.12991914133106075,0.03328928439469553,0.006670806960032789,-0.014777361076554732,-0.034336300883067224,0.034002176664009155,-0.010748868963806682,-0.016079832637925496,-0.10282842780986201,-0.018763489799854313,0.022329093871364555,-0.05866085641576659,0.04212043169135794,1
org.apache.poi.hssf.record.AxisRecord,0.00928167889075523,0.6307117419167324,-0.1473830527577316,-0.018061401922241507,0.06163217789600465,-0.05611477029429416,0.14316746084304752,0.045435807734459696,-0.0016134102689938556,-0.15343846035010453,0.025092234986606704,-0.3660475585319509,-0.009835144893215318,0.41497186800549524,0.14859308223368928,0.1258853769780371,-0.2706587195822151,0.04401289118497916,-0.037612785565921486,-0.06429483737937204,-0.015519505433423059,0.057994539730649594,0.2930513677477328,0.0189399082778903,-0.017546045236841754,0.06279755600322327,0.00027829959240702277,-0.02494773122477438,-0.033303912121469846,0.07354072330510586,0.009179542595956556,0.010423213348748565,0
org.apache.poi.hssf.record.ExtSSTInfoSubRecord,0.11184197213070501,0.6297945972734658,-0.16654168182712187,0.001414650580202175,0.002752104121616732,0.0033692142944894026,0.0697508140999782,-0.0030964337964754906,0.06495004982305456,-0.032272759021856404,0.041322886775717764,-0.15757641859792068,0.009852314153980735,0.19700080472874615,-0.10259922139036154,0.007342361471629414,-0.11981115242619339,-0.041170688942023234,0.4911617593815495,0.09892527240376811,-0.12674093037377063,-0.0017427205445532988,0.20912786978016326,-0.131926685273432,0.20486572280855803,-0.09942869773560106,-0.10051966230999267,-0.09838582806531462,-0.08131000795434416,0.02484534875237943,0.011249657732472036,-0.23163994914874037,0
org.apache.poi.poifs.property.Child,0.002584280884653938,0.016421711020713686,0.027203393269924027,-0.010657701275639898,-0.011465571870112103,0.2750189572533186,0.12227526798360859,-0.019745007778015564,0.07380708504933788,0.0014130777287728357,-0.0652558302193481,-0.008382737539273839,0.011696161491787658,0.028665242160341442,-0.03745670493484951,0.004599882600988941,0.06050887023126251,-0.0020829259866967684,0.28001063352644634,0.19400453998884049,-0.13500376435636594,0.2816378834126764,-0.04811969395459953,0.09226976513882588,-0.47965594636977543,-0.012245193605813817,0.03255857936374931,0.1279909054990329,0.15115279307891286,-0.12233096173435914,-0.4935130569568125,-0.3721399321047223,0
org.apache.poi.hssf.record.LeftMarginRecord,0.0067491221002531215,0.851280221300036,-0.17093013519660008,-0.06701165852793768,-0.09885739913942564,-0.035122177413038025,-0.07057372197711369,-0.06957798739028502,0.10550992213447795,-0.17763868308870936,-0.02151089132073374,0.24367164645604023,0.0043296620565367195,-0.23729420755168945,-0.04105383004762688,-0.03482250542815891,0.09975576001931472,0.0020915020735420018,-0.14915734362073962,0.10402785754366094,0.003017728253293832,0.022366904032882322,-0.06970910733816174,-0.03253134224781629,-0.027657789104085746,0.04388390031658562,0.029783101524779865,-0.05148619705376414,0.041627519740025536,-0.013627750026166108,-0.035278102142176866,0.01203603477175992,0
org.apache.poi.hssf.record.RecordFormatException,0.9400658058308639,-0.04124522004297787,-0.12729614407981155,-0.07205869843570854,0.09482034939493189,0.016814342829870637,0.003927420239903704,0.04333786659338408,-0.07639227011828738,0.022642701553329647,-0.001464213989705363,0.14719958625755628,0.01988933655252602,0.09803947975287987,0.03473371555757413,-0.0741339009192385,-0.09006369768261732,-0.028390678193828085,-0.002167977267877718,-0.0021228109106124723,0.008980163525252776,-0.05359682638798863,-0.025179117878455125,0.05394088193721733,-0.023737939151728893,0.048665879699038246,0.009455300084305096,-0.07130170537607534,-0.04268108753069426,0.07848291884413985,-0.06122684850674271,0.04499407476241358,0
org.apache.poi.hssf.record.formula.ExpPtg,0.026654032351553593,0.16824080847222828,0.1162625817409487,0.35121436393046185,-0.11921871122360773,-0.007671277184633344,0.01719289393636253,0.025859935841567795,-0.028047686616441456,0.8873590694009432,-0.03950034799393078,0.058086778203818294,-0.005336586407029219,-0.05685494793424667,0.04485642822809376,0.03724319878721938,0.004583898804660301,0.02332235607788203,-0.0385331967802904,0.047086285058459694,0.00947802207641447,-0.023218831717723477,-0.023808101522410984,-0.00311331447398067,-0.009278888833527081,0.011388691987349445,-0.01556307656375978,-0.008858039176541039,0.0680893709506602,0.06632728996926758,0.005474379829054759,-0.06338992359279667,0
org.apache.poi.hssf.record.RkRec,0.5200405071870975,-0.04010181285690083,-0.1824559180015624,-0.15291595299328042,0.019660224413435082,0.014398903416222464,-0.08213901754357636,-0.04138177144006579,0.11029132291259139,0.11061485392966217,-0.01175968220915964,-0.17964110747882875,-0.01827986542345354,-0.09080081163921,0.015806271849826168,0.08043401584427037,0.0934865525114268,0.062166620722362904,-0.10012593417470449,0.07254066054838403,-0.02773749145238173,-0.02724632011793895,0.09602411464634418,-0.1734560102359476,0.04580070952389773,-0.012628970073288932,0.04248797348067549,-0.7076062885533969,0.04286470586881365,0.024474719160916612,-0.0297626825768731,-0.11538316571097285,0
org.apache.poi.hssf.record.aggregates.RowRecordsAggregate,0.06555678137970546,0.3295300481530803,0.06230935192952807,-0.09786559159067716,-0.10045011396006247,0.09031076489463777,-0.013590624131748085,-0.03787073809016368,-0.0013112340553358601,-0.11160651843738066,-0.010545851837748503,0.1096134893584558,-0.018559456994752702,-0.06572131060404363,0.18131297445449063,0.07129075650716499,0.21091189272903516,-0.10623620286172636,-0.18722977495983997,0.5481339269915273,-0.1459078645625392,0.15978022524471322,0.030385053308466897,-0.08044598400537646,-0.012883444996144515,-0.06354815424318713,-0.1709009337436469,0.19659973622644636,0.059463956562998355,-0.4449101013314826,0.18950213621152748,0.17787089220653093,0
org.apache.poi.util.POILogger,0.017038541881757244,0.17637866452387657,0.22365504867282537,0.008621803362987764,0.03264693029495549,0.1463655827338985,-0.3833611296944177,-0.03027667707923349,-0.05364127953843504,0.16936710109754857,-0.00334360614607335,0.06932726926493607,0.016992383200209592,-0.04167804076588154,-0.007574388242638489,-0.028296337240543857,0.026858904632981278,0.2605748646205208,-0.049617162638485396,0.02078789148978945,0.06607872570846336,-0.0012903764072074225,-0.20986299963370664,0.09634290812632175,-0.045146585857970066,0.03848801601661736,-0.136735857400372,0.4615504972838063,0.3485711892552065,-0.3313039654510922,0.15954367924258486,0.2961395972577264,1
org.apache.poi.hssf.record.formula.StringPtg,0.01090302199066239,0.18800216519545146,0.09246703943698435,0.2141254875506291,-0.08502523883716868,-0.04419583739040442,0.04218358618059818,0.03762211769013607,-0.05140218403336454,0.8933549144876017,-0.0028145282799265136,0.002765705959241938,0.0048553275035798414,0.1059925338191105,0.050505171781729676,0.09937412439526357,-0.13581666374550636,0.030892061164530422,-0.022476182063645427,-0.044451791359820976,-0.033082194820512494,0.07247582147056286,0.05855445250031384,-0.0010694728308395225,-0.0026520953771943015,-0.024540130946238133,-0.034360814969658746,0.01225620045330768,-0.0610907609115081,-0.10143603874933761,-0.09342858560917336,0.13032765605303812,0
org.apache.poi.util.IOUtils,0.002534555267600021,0.009206945232257034,0.021355846508131066,-0.008905896656989546,-0.007557390851095144,0.25402766275752425,0.14336148586335976,-0.020279888289299688,0.09158716927605313,0.005099747715977312,-0.09472223459837223,0.013301511011135983,-0.12430272528717497,0.09089340644694936,-0.25417973721316484,0.004036294036654422,-0.010703136410456305,0.016929591069615557,-0.01988941681396517,-0.038522452109710476,-0.007994543672826739,-0.021410934093804915,-0.00729768663609832,-0.04224681287431598,0.0820698725396314,0.22400097995001853,0.3048794649594851,0.06832469947184865,0.0930945207692217,-0.10403283821531076,-0.6102424861704417,-0.5068180246816323,0
org.apache.poi.poifs.storage.RawDataBlock,0.00952230728257509,0.011479882474045654,0.045607361725878016,-0.016819392932599292,-0.015319841160252756,0.5418623094070156,0.2820867603772003,-0.04204017361204469,0.1807616121424453,0.006522297244549969,-0.18644791800741486,0.06374748142899064,-0.24627134283812863,0.12665919434860537,-0.3926129585086832,0.004671922502240351,-0.011725081021914753,0.021735187951371467,-0.25044936455132943,-0.0974506355603773,0.04561343509396334,-0.09960526328640713,-0.0060162553750729335,0.017466328019293716,0.12834938001374857,-0.06963030401729349,-0.05237073913636482,-0.08208021837476318,0.04078673575778792,-0.26638019670598334,-0.30099333341259266,-0.201561059253804,0
org.apache.poi.hssf.record.IterationRecord,0.004051491137607521,0.8375062160348001,-0.1643669539408701,-0.060419809184490844,-0.10799273318327443,-0.03427681446679014,-0.083278419716468,-0.07132564074588917,0.10372387782608196,-0.15147270713828836,-0.024906830662990178,0.28920531719266834,0.008979430823975992,-0.26376522951504716,-0.05441754500753281,-0.04390822279765861,0.10290443018032698,0.018636436361644675,-0.05762081362704672,-0.008306011204792402,0.050807063957749025,-0.05717630299801538,-0.14746000330111447,0.023158185348641978,-0.026049124955027324,-0.012436045029412835,0.03510877153640719,0.006092960826568,0.07485617473959952,-0.011973287849384628,0.00032697761479538273,0.015112285230711247,0
org.apache.poi.poifs.storage.PropertyBlock,0.004259835551736416,0.01352405993167709,0.03563031376285765,-0.014083011108689801,-0.013522559157317537,0.4179538011251119,0.21413825117598786,-0.03205952261132808,0.13655577160519736,0.009824832262506973,-0.14435261591619972,0.02002225365831752,-0.04869703862820055,0.11288390712247744,-0.3892943177774685,0.016700790080593608,0.026385073619108246,0.007514912533490661,0.06341758678516746,0.09891683539463574,-0.05202751755431483,0.1389502579687252,-0.017624030016908102,0.044739778702972605,-0.3091342082247649,-0.01578662093926145,0.5963721079460284,0.0791905934785762,0.06560914187475492,-0.0070976743235995655,0.16580368191573844,0.20292620061851788,0
org.apache.poi.poifs.storage.BlockWritable,0.0038309029030168997,0.013379943183184922,0.06321033451000206,-0.0228782137821093,-0.024843108889305167,0.4968235027578091,0.21303209805968162,-0.03708081568083561,0.12847575032575637,0.007533124576334205,-0.12875833073798781,0.04657739686721284,-0.19012694382044834,0.028572891850989175,-0.09571477812520622,-0.004584068379026022,-0.006040289475079995,0.008006948386017015,-0.1522557221097138,-0.0443753342551416,0.010122141818965863,0.00962991587497779,-0.018930349807300965,-0.0295794167470814,0.02200229498754078,-0.02694723927498339,0.717107243052863,0.06556219110846676,0.10694787634544192,-0.06381252259158725,-0.11926488184003924,0.2084597459142889,0
org.apache.poi.hssf.record.WSBoolRecord,0.014911524037437658,0.8441023639984515,-0.036257694260560545,-0.09515800872349132,-0.12612318942068362,0.0025894144131601133,-0.17004567340057827,-0.058653098688565844,0.0007853636232875728,-0.13671316482520135,-0.004158028321386516,0.1847947652330274,0.006808856943999797,-0.15933025864141417,-0.03789133829957389,0.012863764035028083,0.0558135941525308,0.024737216700945638,-0.13909532798035873,-0.07746778833496315,-0.003722556743708917,0.07027433317138101,-0.09146297605747004,0.07099240270923231,-0.028457664835936192,0.02007321450027517,0.020934461036148967,0.20241795834953705,-0.01301082690684538,-0.15558537916037363,-0.03981658375510196,0.18088498135262085,0
org.apache.poi.hssf.record.LegendRecord,5.069731713647464e-07,0.5691593493019281,-0.12816260895674944,-0.007166579819510579,0.05407359263991565,-0.052268761400196644,0.13230024931939788,0.04342313465236722,-0.004002294961094638,-0.1007201398451381,0.04567460317398329,-0.3699933910812182,-0.01175739573982121,0.4165903600856128,0.14205626546652894,0.12659467810005956,-0.3195028179874492,0.04060502192900853,-0.04857256858965216,-0.12669663493021643,-0.06565378811952625,0.12487814085452462,0.31811001077159884,-0.0033561604304519557,-0.024871825223845862,0.03769336213692308,-0.005208714652874518,0.01816067473041918,-0.12113642519753602,-0.0369149082780638,-0.03430563445621912,0.1124259517912982,0
org.apache.poi.util.IntegerField,0.0029580391056115885,0.08098860261343771,-0.00021133178176562642,0.0006861159903608134,0.0071302436022275895,0.13036121608897627,0.09871803739655811,-0.0010318384925181317,0.03946748340145792,0.01872790049892725,-0.02750486248257795,-0.05304531156287502,-0.02972094635455564,0.10677294166882322,-0.21790971888189356,-0.0017310970446515323,0.01017529163219786,-0.020397664584763865,0.3205988790069909,0.10990088917522957,-0.08066273589443969,0.16963191808967942,-0.039652424482782285,-0.006486180359172254,-0.08407592215544009,0.3175082128906787,0.4394076540766294,0.08523231824366599,0.05182102721869141,0.10981574981509819,-0.47595498083416865,-0.44677844765585756,0
org.apache.poi.hssf.record.PColor,0.26815880402513337,-0.012414566654351254,-0.021818891442873092,0.046677585797938015,-0.020131497439366167,0.029166935298606037,-0.10992877941199602,0.05513508196321251,0.09515302312805184,-0.014820066437291791,-0.005612936270971479,-0.111280137982825,-0.00638686930910482,-0.04354528349176021,0.014567443399111904,0.023353328796792482,-0.03793407790238265,0.04531431981685517,0.14570957532934042,-0.019015400456583734,0.017388499098350396,-0.5455472968363416,0.1602702095795557,-0.6073093882714722,-0.06635852677082378,-0.33596694380175685,0.10980586338677925,0.11559347715987237,0.0634078130632388,-0.13190557696945066,-0.05033831070144845,-0.018652114397288946,0
org.apache.poi.hssf.record.CountryRecord,-0.0002673818841782339,0.8332599430892837,-0.165999254469594,-0.013728843601195615,-0.0944045465167498,-0.04994626441660509,-0.04954750719014775,-0.04832935346177835,0.09879957151834337,0.08838889507260766,-0.027517281515195918,0.27556778653352143,0.012605795633105935,-0.22578841796616694,-0.04914194537314274,-0.045143690588056076,0.05477934248751379,0.030251945626415637,0.06282800041552823,-0.13866781629483133,0.0915719719580211,-0.14926606345994464,-0.16440876562469822,0.052386578185403786,-0.02267060735313172,-0.06158867942075912,0.040036596218874954,-0.007134083128655391,0.06405260000571994,0.06173228286901073,0.05235143609984178,-0.0879055688239096,0
org.apache.poi.poifs.filesystem.POIFSFileSystem,0.040384893815838215,0.07906562658883286,0.3790340661206352,-0.1415200940762747,-0.15648222712112916,0.5126824264461386,0.45038333156991356,-0.05626479596949233,0.15092823885373804,-0.03208502721131333,-0.02345129329809149,0.03596742091519696,-0.13633768188752435,-0.11994026433834332,0.31951413611383694,0.02603886698096027,0.03747496890289885,-0.03809625888061641,0.08048417167882607,0.08021156340551536,-0.06612273788053497,0.03832860246383262,-0.08023789233699083,0.02851709778077965,-0.09473361375598754,-0.03654343176361702,-0.019714554157926792,0.0771198769801873,-0.06250138510348179,0.2264215979720515,-0.2438375042657906,-0.11641697067781773,0
org.apache.poi.hssf.record.NameRecord,0.03836289346765171,0.5764900335180991,0.04594322415204646,0.23290290183679746,-0.04906988968048459,0.04032069659003799,-0.05314974576709416,0.051886953994010804,-0.12375878597944472,0.3690624655586586,0.002243712373164998,-0.04905719555930925,0.017671029058519003,0.15633642991939273,0.05281050266432368,-0.07780243877467315,-0.1823272146668943,0.0011196023265138237,0.1732063005950422,-0.1813106488138402,0.11418447032516912,-0.13389473492141987,-0.20967903018804293,0.12365767169337318,-0.04368981484188002,-0.05290106079060245,-0.06369441885136021,0.24220525712154767,0.08846667409410786,-0.12183190416396165,0.2961964067483703,-0.22041214499301245,0
org.apache.poi.hssf.record.ChartFormatRecord,-0.0014992593363883976,0.609786896695986,-0.14660134810798886,-0.022546535255779033,0.001980620915741603,-0.048946341054438715,0.07651989684437926,0.007782404221058739,0.04083472670985685,-0.08653369813783118,0.05035700645968884,-0.2092867252235856,-0.002810148784110292,0.32772542492486606,0.0897629922270904,0.07497565318139014,-0.3340167533253065,0.031134036607940778,0.005832927624558643,-0.17200813512864135,-0.11082668672190904,0.15796194322308618,0.40220941271767896,-0.02602471082609062,-0.0038040254234249144,0.03523286553034882,0.004152209364378275,0.011153381166648758,-0.25453580666296294,-0.032266255651606436,-0.047572954331056634,0.09963505991936053,0
org.apache.poi.poifs.filesystem.DocumentNode,0.007899582269590361,0.020524030490719138,0.11371823881615237,-0.04633508955737245,-0.04610828363112103,0.5575252780984127,0.25163992415033637,-0.043541113586483236,0.12598429903757144,-0.000221354231727889,0.01030224047168866,0.02655230995173133,-0.05827888124623909,-0.1686754724568424,0.6080547488685845,-0.030414282958846232,-0.027260445842078086,-0.010632403043480565,0.15541342443799835,0.04074497702474921,-0.01610666177126408,0.12613265233165913,-0.017512825684305487,-0.020306377571027944,-0.2542434935952581,-0.17812145879259392,-0.1397714943700503,-0.12455232293505973,-0.06145737547046094,-0.006722990130904341,-0.08452614316908244,-0.03363285906438845,0
org.apache.poi.hpsf.PropertySetFactory,0.0005752134245576189,0.0038955787771305576,0.006653853799193584,-0.002076160684074804,0.0008118101538016946,0.1261936020491914,0.07564088578904671,-0.004614841110409603,0.044351946502620095,0.003335836436725089,-0.010240890890398409,-0.07774715593713859,0.9417980150310414,-0.02957815228865915,-0.16116015799538724,0.013155939014163672,0.017643301701923245,-0.00430729294366725,-0.1498319857704014,-0.007480560846691193,0.017337517004778737,-0.030624253820141403,0.026548581756158023,0.042284290838092105,-0.07451221478028568,-0.11922796248745512,0.075097130689338,0.00749112523135803,0.0165663088204446,0.0002281903371463342,-0.06076270974656206,-0.011811140268289137,1
org.apache.poi.hssf.record.AxisParentRecord,-0.000634688935969252,0.632179917635005,-0.1441225501660098,-0.014514116644514762,0.06087682676983626,-0.056425526751275414,0.1431842303513419,0.04435483589019003,-0.0003849594358590167,-0.1537967721934776,0.02486879067859689,-0.3698670255292793,-0.010753651901288854,0.39853914534747975,0.14071766359585683,0.1222258237024543,-0.28609738122966183,0.047199279009674265,-0.03697261443800414,-0.06870081232246161,-0.016020490792184268,0.06536062205726387,0.3011030668211407,0.014985008735999127,-0.013769847103945103,0.058514471735989976,0.002122347524734785,-0.01558744534011955,-0.038947227893022594,0.06184305774734823,0.019938806023670347,0.007831899177694984,0
org.apache.poi.hssf.record.formula.UnionPtg,0.010352706867794121,0.14437663787263597,0.1634507676288453,0.20053773763155022,-0.07819750611780046,0.10357416660223827,-0.1797765641508603,0.052477562359511634,-0.1750759997341512,0.891070474921706,-0.03093694249671856,0.033161173192014726,0.009788510581600516,0.0047488800909269106,0.04430760240557902,0.06074269451039579,-0.052869181686017376,0.03843327340519325,0.015540529672063064,-0.07432827572025487,0.05086638522608948,-0.06527538093841188,-0.048708274420870376,0.053115751659477205,-0.010574681507997256,-0.013763995072548907,-0.0110161893877505,0.02854733937076475,0.04823044782946946,-0.0032066946476731447,0.044530199959735395,-0.008778230601491244,0
org.apache.poi.poifs.storage.SmallBlockTableWriter,0.004486921124546092,0.015593724564872121,0.07370743908235124,-0.02666359851473455,-0.029079744909796517,0.5428139813253258,0.23046356435309887,-0.04059453437918642,0.13608824242859272,0.007336255926319547,-0.13518772785580743,0.0450930765955332,-0.22237435354010596,0.025607242381640003,-0.08701939467575093,-0.004805745514474287,-0.010479461707305309,0.0025740928330816684,-0.17395398409080243,-0.028316368744745343,0.012333453532558596,0.016382575137053077,0.02860090342307687,0.011135371659281865,-0.11610903876598552,-0.11166522520684985,0.6495440849702397,0.001710915272361461,0.07440137236615965,0.05635406356043007,-0.02941322143568117,0.2382778547470322,1
org.apache.poi.hssf.record.formula.AttrPtg,0.008619244407155195,0.21549628608288146,0.0774023491594434,0.22342695663642,-0.07029912586767627,-0.03365478607438007,0.06448235347289952,0.04334076297974663,-0.05187591248727697,0.892353655602717,0.006069826122418208,-0.037600935031857796,0.004700527707275248,0.13199874935436046,0.028619594515994596,0.08613210983851388,-0.14363340393937465,0.021318714474778115,-0.014970873466832573,-0.021910731736754473,-0.05009882843944221,0.08870742543705866,0.09364608867245297,-0.008936765879069341,-0.0033508194379801622,0.017754061068333205,0.000743884604107802,-0.02845509573415614,-0.07744758003610834,-0.03593646926162997,-0.08462676218529115,0.052339037947320574,0
org.apache.poi.hpsf.Thumbnail,-0.003285812923170958,0.453801549348858,-0.08558541347299568,0.03074876476571361,0.06362756190156567,0.07837907505914353,0.1555709420714408,0.02753932505724598,0.027775200175716244,0.08792329942632242,0.07092570376583421,-0.27141037187843736,0.506305331714891,0.16278492236788872,-0.25371657084951893,-0.07635145138191617,-0.06805892775081865,-0.04393788097610612,0.170458078453304,-0.060567521243444604,-0.09421246237930052,0.1030727291701183,0.09131826717189234,-0.01244712126851389,-0.08135889879392907,0.13642144585000401,0.027060931121309594,-0.07866110111131962,-0.11655088582796644,0.1249443694488759,-0.06389071810514887,-0.4215220186962299,0
org.apache.poi.hssf.record.UnicodeString,0.07592301773210172,0.1385277033149465,0.012183904157902761,-0.014442870406259758,-0.019472467252559293,0.025160819550399612,0.06047424814549731,0.004988758144945427,0.007616878303045508,-0.005217801016844955,-0.011325280450903976,-0.02115317495982266,0.025532527270616317,0.13271608042958724,-0.2014730398054145,0.10715621034526594,0.16813078223693625,0.028034645012574418,0.7525201406643427,0.21397851549304958,-0.052641639203816995,0.05610060859055311,-0.12404294832437775,-0.09292110094437839,0.18290215813938399,0.0658353142589963,-0.3790954141599732,-0.024315382347163114,0.0077288624347700095,-0.12110845153938397,-0.17196119820055986,0.039214977331051636,0
org.apache.poi.hssf.record.LinkedDataRecord,0.004260748804343431,0.5482908583989634,-0.12025100451647014,0.014915486009141745,0.04949379440165223,-0.04811177072896009,0.12850094395962533,0.04568484867088408,-0.013636845380321788,-0.08633257037303281,0.047388076006734295,-0.34055633506486244,-0.007440148177080038,0.4335070735054584,0.1434745361488751,0.08985462305707563,-0.3563386464275078,0.027337442991105947,-0.04567563638891247,-0.1254953384964119,-0.06994948282051894,0.12769668443949,0.3293612240590257,0.009219993994220773,-0.029526503805204225,0.054709427148575,-0.004651386084856197,0.040313141459806044,-0.14787344554434015,-0.027188567534202866,-0.0366621858630826,0.11841221333215281,0
org.apache.poi.util.ShortField,0.002422421101789163,0.1110758303270788,-0.011134207538537106,0.005059244124826232,0.014071506798431237,0.10713329242304721,0.09097465027698452,0.0036191728531387245,0.030229315110714916,0.024569225270680332,-0.012531929731505841,-0.07550088841486115,-0.01574154995259651,0.1104974709660803,-0.18820408002289207,-0.010463354401623133,-0.0032054876780325237,-0.022303172346060312,0.3335487520794265,0.10063432716225693,-0.09650806357180863,0.18543885930217235,-0.027002549302588705,-0.007796580020583615,-0.12513598212423313,0.3065354816362143,0.3989171277004314,0.06972212867470094,0.0562193132816076,0.10035396535649795,-0.4742849103904535,-0.4837367429729949,0
org.apache.poi.poifs.common.POIFSConstants,0.008054658508200179,0.013061699181351485,0.038735484194127895,-0.014753664493662116,-0.014316564988131268,0.432912570313978,0.2340785242433203,-0.034102389300149714,0.14853948559039695,0.007199173127932734,-0.16230534992656656,0.03677535445378248,-0.17994586408284946,0.14086056479770664,-0.4538559562706675,0.012857051731265293,0.018817477181036074,0.011972206958566723,-0.06133207332321339,0.01780527135824481,-0.0018905406653724262,0.03169980786425216,-0.01774502521428192,0.05271730121248021,-0.06292210521879611,0.0685340756982641,0.36841723094747514,0.11285568207083346,0.1032959307152614,-0.030660324027062542,-0.45417964473668676,-0.2501936334171086,0
org.apache.poi.hpsf.DocumentSummaryInformation,0.0002639227841143147,0.003380618382629149,0.004343108691540098,-0.001284280836180387,0.001432158039694929,0.09980180528543929,0.06241370056909027,-0.0028896133480149555,0.03664095058278757,0.0031465638526300527,-0.006264840028288807,-0.07672089673094834,0.8978166429550652,-0.023529306651651666,-0.18770422898935224,0.01832309088268444,0.01882242636419088,-0.0006284568390078175,-0.14731448730647495,0.025248454695624457,0.01878296661676847,-0.013884517849927865,0.04463592741832881,0.07971676605489209,-0.20774740528010752,-0.19100828093294478,0.10473199464812787,-0.008026837517538354,0.02507600498628506,0.018941813831842336,-0.10280954900093751,-0.052978751966020914,0
org.apache.poi.hssf.record.formula.GreaterThanPtg,0.007189250569570779,0.10843136261336285,0.08281780796670633,0.22814107375122653,-0.07875032122591098,-0.02017021066735645,0.012311057174620074,0.0368586809407513,-0.057102546885954494,0.9435601079472986,-0.032815373716416074,0.06994819080501306,0.005540212611888631,0.008902662742446391,0.03770404038704605,0.0699143713989374,-0.06709096597065654,0.029113951817746047,-0.04775179012024942,0.03984823521877512,0.024143895790323215,-0.008078194981598253,0.014193912694541691,0.012211865433836042,0.008728381828708899,-0.016849237152132483,0.00375917913652455,-0.04074482487963834,0.028114597706095656,0.017807821280870533,-0.035273697752045724,0.024654519488043525,1
org.apache.poi.hpsf.Section,0.00300883815689787,0.06832831328785975,0.0009803802466824877,0.0009723580165461361,0.011007488562181882,0.19899033652172923,0.12999418301742138,-0.0006596866161332258,0.05447605514143078,0.018880720514922338,-0.027926905931202027,-0.09901054975199547,0.7432538161669456,0.0673137791276069,-0.2799744883400491,0.005771862694765352,0.023618230774864572,-0.004645352093548246,0.2558130765992962,0.13572467659991597,-0.10225661363359766,0.15602654550185763,0.009077486845507722,0.05071204169541263,-0.2353529222171591,0.0631870857543641,-0.021746892338711243,0.08878695090294857,-0.0112164319681942,0.014653008458598599,0.31092294824189337,0.052635784970360346,1
org.apache.poi.hssf.model.Model,0.046272379923413105,0.2313767346878844,0.15809151490226417,0.029790341414450184,-0.11908508405017716,0.01227255076478929,-0.03261007603946057,-0.021590967928963225,-0.03149811020038596,0.2625430093805847,-0.043436839926051386,0.11236451405893208,-0.024352596996026044,-0.2993381747351573,0.02200774807808962,-0.029832116278862633,0.16675542393468937,-0.05951232659920725,-0.16922000762095882,0.255981935438243,-0.03581601212567772,0.09683973306909269,-0.12021853536495242,0.04638188064158554,-0.08644503653687524,0.07838201147674204,-0.10372764552794737,0.5867703440808795,0.24809793009217715,-0.29281161358550306,0.04872468036114037,0.2355020561508123,0
org.apache.poi.hssf.record.ExternSheetSubRecord,0.1299706890787033,0.6591391096934935,-0.11076628881448025,0.11114856094913218,-0.0244237383081121,-0.00954715836214091,0.03506711929679548,0.021873598556378042,0.02697820363001181,0.5002005452604782,0.006995969904363868,-0.07535849930324297,0.004185697963038768,0.04904043650458275,-0.06302336268323898,-0.03511784012792119,-0.08249300173231827,-0.03267397536375598,0.3189451128260697,-0.07599046537522519,-0.02394440889764111,-0.1220716745496823,0.09332264408685581,-0.03314913802527461,0.13491311841058937,-0.16015022863062217,0.015328643494925723,0.01748974203295016,0.024417900734302382,0.01991783767261618,0.13658383670760654,-0.22944645823362583,0
org.apache.poi.poifs.filesystem.POIFSWriterEvent,0.0009709582784522654,0.004871779166416359,0.039446416111570355,-0.016912548759548583,-0.016529325835431673,0.30316052117607056,0.14938050224931115,-0.025840671937914683,0.09017384541492354,6.205371029257569e-05,-0.039061100311717445,0.0113320937668357,0.036734862908553656,-0.07646800624814949,0.3294027258716967,-0.024327300960522255,-0.05855041285791225,0.013441855631107646,-0.051587454396999806,-0.16773700061681993,0.016201153227640073,-0.04980135124771002,-0.12144965710085924,-0.2045100676422976,0.5714355866435719,0.34556117416921217,0.3584978849043575,0.07983047759164635,0.11890439436896759,-0.15785254738166246,-0.1330789344962374,-0.15986827165242157,0
org.apache.poi.hssf.record.AxisLineFormatRecord,-0.0006346888812271275,0.6321798698108879,-0.144122538921427,-0.014514113597156987,0.06087682219656009,-0.056425525578494846,0.14318421082203578,0.04435482344397782,-0.00038495713993321254,-0.15379674433020163,0.02486880933392426,-0.36986697675547797,-0.010753596021985666,0.3985390557984647,0.14071765209590112,0.12222576215100875,-0.28609733378566227,0.04719929719196994,-0.03697257206813986,-0.06870098258026638,-0.01602033970761808,0.06536094748341924,0.30110310706088383,0.014984805086030248,-0.013770287512197135,0.058513753575582396,0.002123610772085079,-0.015589085111748297,-0.03894779027609034,0.06184385023995263,0.01993908966474984,0.007833010039141325,0
org.apache.poi.poifs.storage.DocumentBlock,0.001853927055534848,0.008455101855552795,0.0336702754395961,-0.013694302430758065,-0.011272334786124905,0.403644460602395,0.20289491566297393,-0.03125689930774845,0.13034568640378846,0.006388523081587481,-0.13529110615274972,0.04489717445204116,-0.17250444237976872,0.07354401260330239,-0.2085113250977147,-0.005011524431070296,-0.017732029498291623,0.025466651204205284,-0.12268265757947647,-0.07794112376626035,-0.008691233002402444,-0.00887122075107634,-0.04026924588170507,-0.07820796773608595,0.1038711558583516,0.11048425334922539,0.7192471609712513,0.032162080827100745,0.1298082068613266,-0.2542011430114634,-0.15244271557034808,-0.036749849316612085,0
org.apache.poi.poifs.eventfilesystem.POIFSReader,0.005140750173913778,0.011421478348661557,0.0631332149864707,-0.023858112970785,-0.01756139363144702,0.47298697482331875,0.25638206006762465,-0.03140501059567051,0.13492664735950635,-0.0013308807036127288,-0.09431917306465318,0.05975026732303851,0.015997659283941174,-0.0012410907645428013,0.0063140804918272,-0.009147135447298659,-0.020496638896041496,0.027681577890598708,-0.2242702964964226,-0.20002010864809322,0.07191959183017775,-0.1882941736580401,-0.006678736804111469,-0.12433587924124448,0.5217911076965256,0.2239476873624456,-0.38650716089774484,0.05132067649918685,-0.050888430187365136,0.07950403039909784,-0.20552854864409587,-0.016596846796363873,0
org.apache.poi.hssf.record.formula.PowerPtg,0.007189250569570779,0.10843136261336285,0.08281780796670633,0.22814107375122653,-0.07875032122591098,-0.02017021066735645,0.012311057174620074,0.0368586809407513,-0.057102546885954494,0.9435601079472986,-0.032815373716416074,0.06994819080501306,0.005540212611888631,0.008902662742446391,0.03770404038704605,0.0699143713989374,-0.06709096597065654,0.029113951817746047,-0.04775179012024942,0.03984823521877512,0.024143895790323215,-0.008078194981598253,0.014193912694541691,0.012211865433836042,0.008728381828708899,-0.016849237152132483,0.00375917913652455,-0.04074482487963834,0.028114597706095656,0.017807821280870533,-0.035273697752045724,0.024654519488043525,0
org.apache.poi.poifs.dev.POIFSViewEngine,0.004129893859590933,0.01573633531031246,0.09530313264939708,-0.04056710449440557,-0.04509768889929196,0.41951230629564745,0.21729000583022495,-0.03921375230318317,0.10753064621526583,-0.012828030917765756,-0.02785920673971286,0.022846782306995213,-0.0992148891468267,-0.14933482204285092,0.5358000395060664,-0.004643621513626903,0.010950007007201848,-0.034810224385651,0.24123815138185703,0.1998992680557582,-0.10637190464004445,0.21938775131887323,-0.07855360625797214,-0.015862172122557958,-0.4483966483904793,-0.1562648337414417,0.007708961621175569,-0.0696522468700773,-0.03239381311580644,0.03831639841148674,-0.1775193695212514,0.013470126024652428,0
org.apache.poi.hssf.record.RightMarginRecord,0.0067491221002531215,0.851280221300036,-0.17093013519660008,-0.06701165852793768,-0.09885739913942564,-0.035122177413038025,-0.07057372197711369,-0.06957798739028502,0.10550992213447795,-0.17763868308870936,-0.02151089132073374,0.24367164645604023,0.0043296620565367195,-0.23729420755168945,-0.04105383004762688,-0.03482250542815891,0.09975576001931472,0.0020915020735420018,-0.14915734362073962,0.10402785754366094,0.003017728253293832,0.022366904032882322,-0.06970910733816174,-0.03253134224781629,-0.027657789104085746,0.04388390031658562,0.029783101524779865,-0.05148619705376414,0.041627519740025536,-0.013627750026166108,-0.035278102142176866,0.01203603477175992,0
org.apache.poi.hssf.record.SSTRecord,0.05237156552850393,0.3210456381323273,0.03348312543557189,-0.043883950810189844,-0.06823609696467062,0.07509411607977129,0.022885030851375717,-0.0135169038723176,0.010876465788091368,0.017859754047984348,-0.03166519658664417,0.10419061093873996,0.026522063446199475,0.00970025200813685,-0.19206413469506553,0.08953631723956688,0.2155761931564854,0.021959449486279325,0.7111279821476407,0.22840116707351305,-0.036774129420714154,0.020252563451084445,-0.22354816855514184,-0.05258131179024613,0.0850518814978908,0.10694043332574558,-0.36459850851853604,-0.011346381398612214,0.023161285372428186,-0.09787990136813218,-0.025776980136595996,-0.017348799594338125,0
org.apache.poi.hssf.dev.EFHSSF,0.19953423353530791,0.14139524544499027,0.23727715538588284,-0.06809741644101283,-0.09123480629717713,0.3788616613586949,-0.3982954136345992,0.012888584972068212,-0.2851376933025377,-0.055185316089037734,-0.02146815355224365,-0.12085734742613054,-0.03467324747273201,0.0005229342070794095,0.004045572399116958,0.05096116234677545,0.07902956885374247,-0.11427355307660393,0.25251528010710933,0.31225269579456016,-0.09016999788389277,0.1526242029331996,0.0750080585884347,-0.07722135384159565,0.14261446316234738,-0.03506499775446932,-0.12738705150393728,-0.15262827205473645,-0.10589108642322191,0.052487128761713006,0.052645762675914615,0.4048995064202818,1
org.apache.poi.poifs.property.DocumentProperty,0.0023120305416189325,0.009348476416998028,0.06347617486612585,-0.026549860453584602,-0.02608831083683721,0.5183698098544273,0.24268771748588472,-0.04266685960291829,0.1484863766037755,0.0017426303092206367,-0.09481847202524042,0.0402884658009721,-0.1313009794006968,-0.06721295301755034,0.3288745244771955,-0.028449982899010278,-0.025042896604669438,0.007038594958960496,-0.036151641302698434,-0.056509384113203276,-0.08529397563648088,0.12920096537851605,-0.026312167320870158,0.07029025414956441,-0.4192157710736812,-0.4076774190990541,-0.23759914140282015,-0.14265759293708158,0.04158866919302061,-0.12528597327341265,0.05170498368173214,-0.16748833978433506,0
org.apache.poi.util.SystemOutLogger,0.04051228048540809,0.019871012833903856,0.1959253033672203,-0.016151921691392044,0.007530691254849121,-0.05796307648438046,-0.02784240496442578,-0.07229938798801538,0.10707517348253684,-0.0126271725585647,0.01383708012298102,0.029026445824954044,0.012237840932874507,-0.006781540696121211,-0.00401932183275279,-0.01750707260191853,-0.1287930072535897,0.3043787349323828,0.017502298582690496,0.08292057420023022,0.023648411324636444,0.022457164758168235,-0.060236583718042545,0.026707403247128947,-0.02639035760141254,-0.049072273623304144,-0.1466058675428632,0.7709470083383656,0.2457801424539165,-0.2925172370251955,0.02784702131748383,0.22179321000553814,0
org.apache.poi.poifs.storage.BATBlock,0.00863252869189705,0.01942982047977128,0.039218641779767964,-0.011420846784770107,-0.014143033422031666,0.3285012549171806,0.1391102517369267,-0.019063713331308452,0.07580814824420817,0.010246652218344811,-0.08948093285534109,0.01059473483080678,-0.10779023840705669,0.1055159841454751,-0.34736827179592383,0.02457199050240217,0.03641652886409288,-0.014542824810016198,0.25364959284543576,0.15251309575302294,-0.012894080143052164,0.10166922514315473,-0.024960309103658783,-0.031380667558336094,-0.060029004768913846,0.19050995299843948,0.5964863956671571,0.018568120956309133,-0.03728294925501105,0.0736503400636531,0.3519364998699093,0.2900012844678437,0
org.apache.poi.util.LittleEndianConsts,0.03931743876630398,0.04314550243004358,0.03866186723474624,-0.010443243628866573,-0.007082295448390367,0.223939614258184,0.16040291420378613,-0.0009426667343088495,0.05366823713305741,-0.00037945774662559954,-0.0797928269475149,0.01235559855457818,0.0705730348170693,0.18681754301694697,-0.48178886758329065,0.0835129101066352,0.1442138924301317,0.007937188907257527,0.5722029374536555,0.23704887141484138,-0.02421084190018669,0.11726547126550085,-0.137806409521992,-0.012832608279747719,0.08135330704145229,0.20564629299277104,-0.18640533799991865,0.05413984545514083,-0.01078772187786097,-0.05777307104272626,-0.3096370008259014,-0.08249730076121077,0
org.apache.poi.hssf.record.WindowTwoRecord,0.0173316766553822,0.8179385965123656,0.02245769469935986,-0.09516330393844613,-0.12714309378783842,0.07351794017038808,-0.2727764567751799,-0.04621940980852497,-0.07171404512055118,-0.12281520332285822,-0.002724038553442984,0.15100517284806136,0.009323357518723808,-0.14251234883608838,-0.028137056632386276,0.02012271386309688,0.04787096655437975,0.03215928080548443,-0.10659865385075687,-0.12872952837914395,0.004214455088877428,0.04741791317207911,-0.105521662562491,0.0862153527490663,-0.03590316962464185,0.021420189548477946,0.013803366278057139,0.2240475622167032,-0.012684857469128879,-0.16258620933136647,-0.010828453125483249,0.16561921172671432,0
org.apache.poi.hssf.record.HeaderRecord,0.007197812079550708,0.8917167034806406,-0.15116803845493273,-0.07398399021590715,-0.1132122691752361,-0.05495143565577758,-0.06091821101963087,-0.06750781758596641,0.09841521195591256,-0.163554897700787,-0.018204472525652098,0.21345700511082996,0.009424217426294549,-0.1491994227431584,-0.015245084517501782,-0.0032537322750684377,-0.020186249461078845,0.05403798360061983,-0.05335789076375959,-0.07269839282618902,0.037459661181399734,0.004459727662860742,-0.017688268406392933,0.057491495853930416,-0.03884954967618879,0.02806161432716433,-0.0034849551856098943,0.13493139434033738,0.02144311370324792,-0.03419251008209881,0.00020474885345402535,0.09375734691988011,0
org.apache.poi.hssf.record.StringRecord,0.02352751421864292,0.6004954056995943,-0.08187369292124767,-0.07179700813772849,-0.09498514503321032,-0.010660880148853306,-0.07632950150671892,-0.04723622259491815,0.040285583448809836,-0.11455420611923273,-0.02524580705293323,0.17074258223553146,0.002086346377970211,-0.14995467645888685,0.0238887107565941,0.09016768286873263,0.30435412608750256,-0.04672734113776835,-0.29829086107242403,0.4012356828743901,-0.08610171078890967,0.17434882156900985,-0.06502735483869164,-0.14472301461297238,0.03799835917418716,0.11946283499046649,-0.039012835465837996,-0.23797137560025444,0.15611078653666038,-0.055736453251743916,-0.13453693474001097,0.08283152103011707,0
org.apache.poi.hssf.record.formula.OperationPtg,0.060246513374159524,0.031028406351470614,0.22128065254059365,0.8568612034417961,-0.2659163351007022,-0.05589721326406649,0.041073883028191774,-0.05213222943730099,0.11143140075952275,-0.1706392391115825,-0.002802982970397924,-0.015785661174843018,-0.003035024730228337,0.0143186875473578,0.03182904374005866,-0.04047783974520109,0.03322567290138205,0.03825639958546974,-0.12609430600431604,0.1443038068866684,-0.06770692204513064,0.02428306399677669,0.09955189526755652,-0.0762053245347908,-0.03773278031413773,0.08891788899355361,-0.009265871977505896,-0.007438046344119983,-0.005135691971775339,0.13717291794637607,-0.027699629378741278,-0.008307358511265843,0
org.apache.poi.util.LongField,0.003130344418560525,0.11471946435356248,-0.0117109087777884,0.005432151225017615,0.014688155232885197,0.0926159255019408,0.09055109359003398,0.004988232602967711,0.02760754327421052,0.025590453852112355,-0.00889577956354607,-0.07504066542479002,-0.02301928804240805,0.11590546409121379,-0.2067003151035038,-0.010846629552157505,-0.008064864931307175,-0.02652686352364756,0.32558433542726456,0.08275543142579084,-0.08268142023562854,0.15862358008866775,-0.025594693075183205,-0.0192588873708263,-0.04163078438751375,0.3493711350461672,0.40773323032088044,0.058575071533046,0.02810737681119592,0.13980285852030136,-0.4516758839531406,-0.4911705864096298,0
org.apache.poi.hssf.record.FontBasisRecord,0.009281679218866865,0.630711763820865,-0.14738305734945178,-0.01806140208798928,0.06163217992947205,-0.05611477163220992,0.1431674675652735,0.04543581181273342,-0.0016134145895162094,-0.15343845866528324,0.025092236203723386,-0.3660475550150487,-0.009835113218943002,0.41497185065975034,0.14859312970631774,0.1258853487414233,-0.27065869687333355,0.04401301165971022,-0.03761266173125254,-0.06429512668077807,-0.015519276145744821,0.05799427703936312,0.29305136059643966,0.018940047222796495,-0.017546106878615197,0.0627978171679508,0.0002779710141534458,-0.02494725662448271,-0.03330403460949279,0.07354056304663689,0.009179407540875312,0.010423043120510487,0
org.apache.poi.hssf.record.SheetPropertiesRecord,5.069635432870978e-07,0.5691591454794142,-0.12816256288325342,-0.007166576417407509,0.05407357290206338,-0.05226874664413393,0.13230020744821738,0.043423114151317124,-0.004002289170808291,-0.10072010838814828,0.04567459154007908,-0.36999328527064906,-0.011757390113115463,0.41659015924447473,0.1420561228089885,0.1265948622791257,-0.31950289146276284,0.0406051767088203,-0.04857260047821476,-0.12669677931835518,-0.06565379889625246,0.12487774263099967,0.3181105749591213,-0.0033565786363806186,-0.024872584813262717,0.037692875606023975,-0.0052083725624892645,0.018159887050405728,-0.12113712506629576,-0.03691458281206435,-0.03430627175331087,0.11242589136594462,0
org.apache.poi.hssf.record.BOFRecord,0.06180525096556482,0.8612884531701901,-0.03616297240089175,-0.03544146828262651,-0.1271542374925075,-0.04749989800998662,0.004296948527916509,-0.027521350831299717,0.0317077905803723,0.12436597521525884,-0.021567897324171307,0.033087694936543566,-0.009493865020226224,-0.018102288808640767,0.03548768161728828,0.08560938474970242,0.027778521974948237,0.021285993101137574,0.04451448047805639,0.013962800100259428,-0.020868219043323356,0.044014158054617517,0.06611947188751155,0.0313896824878462,-0.0007312585332249869,0.008123318686408532,-0.12150736113701144,0.3688815966717286,0.007627368524975529,-0.084419494683945,0.1892915630451198,-0.022546046130669867,1
org.apache.poi.hssf.model.Node,0.009147363024821458,0.06349275986231045,0.08563350969977183,0.22425892237688666,-0.08374566529829382,-0.021229948543627863,0.03272221357117275,0.03322089668988074,-0.05410776559612903,0.8968656949836141,-0.02401749348092848,0.03337522090017658,0.009756123325330003,0.09064561181651791,0.02319536517076103,0.12382952310427921,-0.09767525480628311,0.03867218387951398,0.04020774603642196,0.13602072519002711,-0.028240061001910812,0.06935140527135049,0.09734233402858414,-0.04653097204213306,0.0453594892192931,0.02248255177520783,-0.06226255901232727,-0.12537496807838677,-0.04440845150611726,-0.0024159668612493816,-0.1474870856565606,0.03406524159486659,0
org.apache.poi.hssf.record.RecordProcessor,0.018715392574531146,0.1398365044609322,-0.01929970259006811,0.006977525541880202,0.010704233609918621,0.08689745486015585,0.06872551881417374,0.008094809929273163,0.012092387900301073,0.02598688366169081,-0.008261394368981026,-0.05267648465458333,0.039643810319301975,0.15613539454113226,-0.3085067789289465,0.036289066056009074,0.08621273604495426,-0.013343788912892174,0.7657474961830231,0.2317479345331524,-0.09474648743393566,0.1115457534775441,-0.1081072604796927,-0.0900131325110371,0.07743326591300356,0.25439895126083,-0.25668406661413334,-0.02745634237721829,-0.07256254983947778,-0.05500386522302166,0.08090559220295646,-0.004933443653750276,0
org.apache.poi.hssf.record.TickRecord,0.008917898967436833,0.5691328771216028,-0.13139632589103423,-0.010377801212662616,0.05488060989246616,-0.052097801748009244,0.13256645491892619,0.044480569833042924,-0.00510729720223971,-0.10069282984587821,0.04593517616288363,-0.3673085169785965,-0.010954323586324801,0.4321254676098603,0.14939366210705474,0.13004466349448615,-0.3063357910683053,0.03782954286268416,-0.04920361498953762,-0.12287939830587076,-0.06525739266635375,0.1184156120066541,0.3115345613613602,0.00022010423300593195,-0.028288187611237327,0.041676330972282814,-0.006871629744606559,0.00968304492291878,-0.11614771501249212,-0.026254337638225968,-0.043950510298875756,0.11474704813085893,0
org.apache.poi.poifs.storage.BigBlock,0.001670529876660551,0.009384918947234496,0.029725275259063027,-0.012987187939189553,-0.012686758441623557,0.2680563133673396,0.14629146938680068,-0.0226467802506557,0.09135126598002805,0.005046859176244834,-0.09146213580847655,0.014204582218994644,-0.10498506784647914,0.06501399319608954,-0.20198269065869467,0.0019222876125941138,0.008127373195297032,-0.0026596895567413716,0.048803847070815864,0.040233271681961676,-0.02403500712672323,0.07977941775673524,-0.05269163927452792,-0.02181850197161837,0.04960486831534463,0.21232206860735608,0.8122128578011928,0.10835800875517394,0.12122502999305237,-0.029834980124276017,-0.26159070727620526,-0.12117873412355154,0
org.apache.poi.hssf.record.WriteAccessRecord,0.00872797692899713,0.7949670931323035,-0.15445040058082865,-0.011860034139966408,-0.09196731758224716,-0.035579277524191974,-0.05203133693377242,-0.046187574660358464,0.09030314555847374,0.0940289458077707,-0.02949534508830819,0.27263778562545926,0.019939018444571372,-0.19051873744283962,-0.09975837091827626,-0.026177213508637918,0.08844998310726625,0.03539335929203325,0.286862562431489,-0.06764922374411961,0.07709363576731183,-0.13093666490735026,-0.22772987083914314,0.02484173368871417,0.017719161567948387,-0.030069035526643962,-0.0925442808406388,-0.009180876715056352,0.07607716719535829,-0.003170372725143947,0.04036623358381431,-0.03254554003335823,0
org.apache.poi.hssf.record.PrecisionRecord,-0.0002673818841782339,0.8332599430892837,-0.165999254469594,-0.013728843601195615,-0.0944045465167498,-0.04994626441660509,-0.04954750719014775,-0.04832935346177835,0.09879957151834337,0.08838889507260766,-0.027517281515195918,0.27556778653352143,0.012605795633105935,-0.22578841796616694,-0.04914194537314274,-0.045143690588056076,0.05477934248751379,0.030251945626415637,0.06282800041552823,-0.13866781629483133,0.0915719719580211,-0.14926606345994464,-0.16440876562469822,0.052386578185403786,-0.02267060735313172,-0.06158867942075912,0.040036596218874954,-0.007134083128655391,0.06405260000571994,0.06173228286901073,0.05235143609984178,-0.0879055688239096,0
org.apache.poi.util.CommonsLogger,0.04051228048540809,0.019871012833903856,0.1959253033672203,-0.016151921691392044,0.007530691254849121,-0.05796307648438046,-0.02784240496442578,-0.07229938798801538,0.10707517348253684,-0.0126271725585647,0.01383708012298102,0.029026445824954044,0.012237840932874507,-0.006781540696121211,-0.00401932183275279,-0.01750707260191853,-0.1287930072535897,0.3043787349323828,0.017502298582690496,0.08292057420023022,0.023648411324636444,0.022457164758168235,-0.060236583718042545,0.026707403247128947,-0.02639035760141254,-0.049072273623304144,-0.1466058675428632,0.7709470083383656,0.2457801424539165,-0.2925172370251955,0.02784702131748383,0.22179321000553814,1
org.apache.poi.hssf.eventmodel.ModelFactoryListener,0.06550978331035086,0.05173601097767118,0.05968694396213162,0.04409738052340577,-0.06502803142949366,0.0735387587064499,-0.07466433367090317,-0.025713956100377734,-0.013496149987814026,0.026723151601402224,-0.020987894839616574,-0.044143906336571156,-0.033139438511296915,-0.20074617996578034,0.0661162169045645,0.05755386841490656,0.12193960279660698,-0.031700612700491716,-0.090897339556702,0.24347619227254463,-0.08548831708763241,0.13689757612598208,-0.0006198238887336087,0.02256967407177208,-0.1408867106736433,0.10299061388419523,-0.13132105551487697,0.7566742778434294,0.24146105724580555,-0.28211995740296497,0.06651889337250826,0.21617663107857704,0
org.apache.poi.poifs.storage.ListManagedBlock,0.010662179463938663,0.009956743843617373,0.03498815141043343,-0.011448337794578737,-0.010365561436813888,0.4122946967188288,0.22042415338305635,-0.030070099825041424,0.13677756897847448,0.004706344971523587,-0.15705686463448967,0.05703070861525407,-0.21034960978899778,0.1428904771798289,-0.47143404355192675,0.0175528239666231,0.004340042194584943,0.025652700854772385,-0.24183059258465722,-0.08378897576835383,0.0683399822304747,-0.16482240089799416,0.04385601246644224,0.037269658038764295,0.15896253209881933,0.008649415439424386,-0.38036737290107087,0.025319967441368354,-0.004839496344471917,-0.06893347950844436,-0.35017830046924653,-0.2134971702976482,0
org.apache.poi.hssf.record.UnknownRecord,0.022506284286625558,0.6553501620677666,-0.046664884909569625,-0.044576016871150474,-0.0050726560376989195,0.08065736773057516,-0.10847470217399055,0.03040293490690054,-0.09268743770443227,-0.09911810465685923,0.03380318548119001,-0.26465433499199775,0.0050460019588682604,0.37615248360615255,0.09976554545058185,0.1389383931553541,-0.19964827173760266,0.04166419599731069,0.11644738924608133,-0.16343232404583885,-0.06799786507956657,0.060671641363002606,0.35287907985230055,-0.010046644664179653,0.031115741527683382,0.04556891939905596,-0.023951729289177427,0.02040105427509522,-0.20569765549334895,0.04880832150665279,0.09562348021464052,-0.11654357375675563,0
org.apache.poi.hssf.record.formula.NamePtg,0.009408161899875306,0.2225926477531842,0.09137580128347023,0.2273386479334673,-0.07428453457087114,-0.0330076777890668,0.06632572923431061,0.04335841705225871,-0.0532303501707294,0.9203695804113875,-0.01205578722850279,0.0005141577221517712,0.007942216054169487,0.07214644623136897,-0.004969581420191819,0.06251806209487341,-0.06967399745196763,0.014652212210984393,0.030576962400056577,0.018862484449721637,-0.015946592345263674,0.03684699235095218,0.03296125164754242,0.007703185497497631,0.006008204258193207,0.04183098991912139,0.004695498334196573,-0.030362732625226985,-0.014245762160108685,0.03171801926003808,-0.02822774554041696,-0.06580946115864617,0
org.apache.poi.hpsf.SummaryInformation,0.0002886421279541583,0.003890703512547729,0.005450069457453339,-0.0018376999632520612,0.0008716003349562519,0.11603576900063169,0.07069894973533304,-0.004219401472368097,0.04233067567171381,0.004042819779221349,-0.00949447167227135,-0.07800209915211648,0.9328172699906261,-0.027244319324975768,-0.1733239797630804,0.015640446146391814,0.01876025540094094,0.00011935800984367182,-0.14708994887333018,0.0005358527676013853,0.012008737933180209,-0.02254415107242056,0.033918942251082246,0.05377969384659145,-0.12411479571863296,-0.13627028241565803,0.09507737342434919,0.01254689089954359,0.020121336565483625,0.019331204905448707,-0.038670818238715196,-0.013548209174964606,1
org.apache.poi.poifs.eventfilesystem.POIFSReaderListener,0.0008514916206970203,0.005289432944825708,0.02367592762497911,-0.009459776955084142,-0.008766852759363388,0.23263590937014958,0.1068357877294357,-0.017479557174357344,0.06596591813324412,0.000463486566899367,-0.03362144119903609,-0.004746095665694556,0.11343072778439002,-0.03799059896759332,0.15503505556788402,-0.010339843064362376,-0.03536861992000065,0.010043463839823085,-0.10991078085604533,-0.16999047588733118,0.04358021181526853,-0.15074863971252944,-0.02327534815227681,-0.17985889524908655,0.6382364723869838,0.3734468995136919,-0.26271473321970035,0.003601503055479558,-0.00957500036608361,-0.01035117755005745,0.39565646560623696,0.13046348973381924,0
org.apache.poi.hssf.record.VCenterRecord,0.015264602464211194,0.8610119117859473,-0.04147079340101917,-0.10590157706786776,-0.12813264712997768,-0.005721556457479074,-0.15940724780822804,-0.05850689325485633,0.005055039437725913,-0.19150359355146274,-0.020605773184597845,0.1645168515964644,0.00783564737726391,-0.12436531945354862,-0.015668972635495357,0.03590141409926766,0.028538974248240794,0.044733803395204434,-0.1433049333298011,-0.06649810665540094,0.027782207573253122,0.05323892450771253,-0.006368864737748176,0.09986803677184747,-0.024772669770810385,0.059426894178214756,0.027813053186626854,0.2189845597941707,0.008010171928032094,-0.07388905841876059,0.009026099449078229,0.1381352946683936,0
org.apache.poi.poifs.property.DirectoryProperty,0.005639833751532547,0.015407779548700864,0.07152521808217788,-0.03021838880685489,-0.030902214857163546,0.5326018823909767,0.2365413008076623,-0.044024705895374334,0.14635522402691947,0.007884048064394817,-0.10434824872935665,0.021847571572451662,-0.08858352040042516,-0.03657135399617734,0.15533795137159276,-0.016633216328252275,-0.00681203306606432,-0.004588550269916533,-0.05380813299238827,0.02206361086357382,-0.06456920208384924,0.1209018433879134,0.02197277572488674,0.1125054360499066,-0.4086447819573937,-0.37701588009838066,-0.31501194542579464,-0.10038544320908835,0.017803011724878262,-0.06691143652968135,0.35383633587878816,0.030681520468976566,0
org.apache.poi.hssf.record.formula.Ref3DPtg,0.036163837361817296,0.242730585199377,0.07185261666380639,0.23186829882675628,-0.0576811785216192,-0.019931109464718474,0.06071545275595112,0.051877444073512816,-0.06919691602749416,0.7686516004585631,0.02138901477792999,-0.05756565019390484,0.00931499450617658,0.17927081626298036,0.029542832150983554,0.04831247203560609,-0.20085238398843316,0.016944841528487825,0.13326656146838814,-0.15978290990280344,-0.0732816539601984,0.043222674361211216,0.1254295549138658,0.011179288674732323,0.04722673881029591,-0.13711763611387814,0.025921985994973633,0.1960084822306978,-0.157494062325675,-0.14775807988855438,-0.08737528555044877,0.12050063619894351,0
org.apache.poi.hssf.record.SeriesIndexRecord,-0.0006346888660443818,0.6321798502626461,-0.14412253437399966,-0.014514114213045295,0.06087682050417778,-0.05642552376677303,0.14318421190689598,0.04435482409047627,-0.00038495686048460923,-0.15379674870338744,0.024868808336293822,-0.36986698149954716,-0.010753658604474848,0.3985390920932607,0.14071767052264297,0.12222588668053433,-0.2860974102808996,0.04719946462293227,-0.036972632375485655,-0.06870085057432375,-0.016020416220139957,0.0653606492300171,0.30110316074612037,0.014984621514413212,-0.013770535756020136,0.05851408062753092,0.0021227014002273255,-0.015587319264279309,-0.038948371726990054,0.06184325026377478,0.01993825627124458,0.007832697791499199,0
org.apache.poi.util.BitField,0.26222304933486684,6.583405666471023e-06,0.029580181306780702,0.1288180240360455,0.02384421320286724,0.006926890553610113,0.06598177017476578,0.07426916274820357,-0.14964808882678776,-0.08390185029982584,0.11707587457534509,0.3735531811005912,0.05057459851553398,0.36265615822433617,0.06503116592940027,-0.2804134474672535,-0.11666691167674058,-0.17493983148881623,-0.07358916976624184,-0.1359502910245818,0.07520672704206091,0.10535346388708153,-0.30194709514730134,0.05692845264382027,-0.12627885668857894,0.08486866113010225,-0.03724665014347282,-0.038593585757220585,-0.036614653894372504,-0.3833840424710033,0.3052119922729693,-0.2384905272345165,0
org.apache.poi.hssf.record.AreaFormatRecord,5.0696718401684e-07,0.5691591196085899,-0.12816255730433684,-0.007166577100128947,0.05407357001816379,-0.05226874244091513,0.13230020412654567,0.043423116247933234,-0.004002292556154763,-0.10072009846509702,0.04567457341028731,-0.3699932317901405,-0.011757408809944817,0.416590196278447,0.14205621951367237,0.12659477346878703,-0.3195026743199422,0.04060499719548288,-0.048572657115514235,-0.126696847240601,-0.06565400658387537,0.12487809838223539,0.3181101944850248,-0.00335616615486883,-0.024872133860173486,0.03769314047833189,-0.005208707546826872,0.01816130962086718,-0.12113643676207705,-0.036914890009999056,-0.034307040522226696,0.11242739103027255,0
org.apache.poi.hssf.record.UseSelFSRecord,-0.0002673818841782339,0.8332599430892837,-0.165999254469594,-0.013728843601195615,-0.0944045465167498,-0.04994626441660509,-0.04954750719014775,-0.04832935346177835,0.09879957151834337,0.08838889507260766,-0.027517281515195918,0.27556778653352143,0.012605795633105935,-0.22578841796616694,-0.04914194537314274,-0.045143690588056076,0.05477934248751379,0.030251945626415637,0.06282800041552823,-0.13866781629483133,0.0915719719580211,-0.14926606345994464,-0.16440876562469822,0.052386578185403786,-0.02267060735313172,-0.06158867942075912,0.040036596218874954,-0.007134083128655391,0.06405260000571994,0.06173228286901073,0.05235143609984178,-0.0879055688239096,0
org.apache.poi.hssf.model.Workbook,0.44374933342725714,0.012886180782983364,0.18123266706941443,0.6762896915792161,-0.18211510590634852,-0.06300616664063187,0.04851395071167143,-0.04463197945265541,0.13193267625833333,-0.243288090942531,-0.011990255671553485,-0.10827882401978696,-0.017863048180135427,-0.1509987145475723,-0.03258051602011264,0.08641807878435434,-0.011330694137647339,0.03672122741992928,0.17981331552666127,-0.20681690969352506,0.03746407310074553,-0.09430639648886789,0.011607908992617122,0.09340999719020482,0.06412385214279492,-0.17560571718788032,0.04832903533151778,0.06010515121377674,0.06115053551673496,-0.04539679618049993,-0.07337215829752297,0.05737473494764279,1
org.apache.poi.hpsf.Util,0.011588007340684388,0.0071727794666397145,0.007936582654783484,0.001463051031333845,0.004595980157830723,0.15626851491790217,0.10220454947713783,-0.0012130224852631272,0.04570423557459222,0.000916489490354446,-0.031244423188077027,-0.05272414637350927,0.7978831088065599,0.04389619104653406,-0.309893587851432,0.025162386058888746,0.055776158793951515,-0.002557204240318543,0.17015968738913198,0.16470156935031974,-0.020661399566187788,0.14190686799129615,-0.07502088145935626,0.09527296164945138,-0.22376868784438597,-0.05398367698848047,-0.17526200154435875,0.08747106987039255,0.017996658189961132,-0.028887695874475396,-0.18421959601609483,-0.0537198370120535,0
org.apache.poi.hssf.record.formula.LessThanPtg,0.009592490738168116,0.10238911358879997,0.11053634487450155,0.23302378044252217,-0.0925078364724179,-0.03675876088096543,0.03348126657500926,0.03581903446269708,-0.055127813622115156,0.9343514297392943,-0.03132075409614824,0.0624818952594058,0.0062403268048787305,0.030277945063061206,0.040810712694621096,0.09070719180657352,-0.05986708262752077,0.028953606624763314,-0.057285134668899076,0.04797011500962945,0.020129801691301664,0.0029894142575200926,0.02435385456398049,0.011604820150546181,0.013393787345469399,-0.01683308834576294,0.007048147295565941,-0.05227878840941776,0.017189044062045893,0.014776780359672254,-0.05619307826034604,0.027267808151341125,1
org.apache.poi.util.NullLogger,0.042754744835639916,0.02223518684151368,0.22268523346317454,-0.01937416392283044,-0.0008262391243044822,-0.07069243729985973,-0.014357456589205772,-0.07587770323089504,0.11192078789796123,-0.019178750961122384,0.013285820029256844,0.02466469680379425,0.010968669023119638,-0.021214296519043115,-0.001463546725910157,-0.014647672470612202,-0.13454494045136448,0.2969254006383552,-0.013711588841554986,0.09575677037800709,0.02604861109463599,0.030191546651172955,-0.035329693831188606,0.033823227525960516,-0.03850133010677408,-0.031436282684856494,-0.12649782172741092,0.8125932790521418,0.22569085410456122,-0.21187369013274743,0.017707346599901218,0.16660951232201085,1
org.apache.poi.hpsf.NoPropertySetStreamException,0.0007144451472904677,0.0053038231341311125,0.007352965069730462,-0.002204959533321056,0.00128149459018005,0.13591825171140046,0.08172595142631198,-0.0046750230163717064,0.04653665775106858,0.0033153716857525347,-0.01185207773018303,-0.08373703640171845,0.9454518508533312,-0.026354522361509355,-0.15437739241424198,0.010387489183878175,0.014211972747888805,-0.005082140478564457,-0.1353491631459173,-0.0021265824143478864,0.01767072559469092,-0.020553398649626003,0.018100605951386586,0.03699306046738752,-0.06624210323180488,-0.09673968159296614,0.034924682500426865,0.013050644756330597,0.03005220602392245,-0.009321205053150285,-0.07977742030889177,-0.05847511929722419,0
org.apache.poi.hssf.record.HideObjRecord,-0.0002673818841782339,0.8332599430892837,-0.165999254469594,-0.013728843601195615,-0.0944045465167498,-0.04994626441660509,-0.04954750719014775,-0.04832935346177835,0.09879957151834337,0.08838889507260766,-0.027517281515195918,0.27556778653352143,0.012605795633105935,-0.22578841796616694,-0.04914194537314274,-0.045143690588056076,0.05477934248751379,0.030251945626415637,0.06282800041552823,-0.13866781629483133,0.0915719719580211,-0.14926606345994464,-0.16440876562469822,0.052386578185403786,-0.02267060735313172,-0.06158867942075912,0.040036596218874954,-0.007134083128655391,0.06405260000571994,0.06173228286901073,0.05235143609984178,-0.0879055688239096,0
org.apache.poi.hssf.record.DefaultRowHeightRecord,0.004051491137607521,0.8375062160348001,-0.1643669539408701,-0.060419809184490844,-0.10799273318327443,-0.03427681446679014,-0.083278419716468,-0.07132564074588917,0.10372387782608196,-0.15147270713828836,-0.024906830662990178,0.28920531719266834,0.008979430823975992,-0.26376522951504716,-0.05441754500753281,-0.04390822279765861,0.10290443018032698,0.018636436361644675,-0.05762081362704672,-0.008306011204792402,0.050807063957749025,-0.05717630299801538,-0.14746000330111447,0.023158185348641978,-0.026049124955027324,-0.012436045029412835,0.03510877153640719,0.006092960826568,0.07485617473959952,-0.011973287849384628,0.00032697761479538273,0.015112285230711247,0
org.apache.poi.poifs.filesystem.EntryNode,0.006218468177797588,0.01774485394781915,0.10447546033347495,-0.03819477703125401,-0.042025418159207246,0.49366648816538145,0.20409273980853646,-0.03596032554162766,0.09816282876890206,-0.0013426617812761575,0.011376843444967687,0.007932678288000417,0.006876615598268587,-0.15379881781585772,0.5899896896295894,-0.029388513993452974,-0.02263916647499572,-0.01857563643359799,0.2633119341290065,0.04821702288148752,-0.03678942021449475,0.18369502216289102,-0.05363840798559896,0.030786848243851604,-0.31424432339446345,-0.21418349525415908,-0.192232930724812,-0.09318563033168391,-0.06490007742788134,0.07591533308586346,0.05767858958167222,-0.03699724214009171,0
org.apache.poi.hssf.record.formula.IntPtg,0.009408161899875306,0.2225926477531842,0.09137580128347023,0.2273386479334673,-0.07428453457087114,-0.0330076777890668,0.06632572923431061,0.04335841705225871,-0.0532303501707294,0.9203695804113875,-0.01205578722850279,0.0005141577221517712,0.007942216054169487,0.07214644623136897,-0.004969581420191819,0.06251806209487341,-0.06967399745196763,0.014652212210984393,0.030576962400056577,0.018862484449721637,-0.015946592345263674,0.03684699235095218,0.03296125164754242,0.007703185497497631,0.006008204258193207,0.04183098991912139,0.004695498334196573,-0.030362732625226985,-0.014245762160108685,0.03171801926003808,-0.02822774554041696,-0.06580946115864617,0
org.apache.poi.hpsf.Variant,0.01740849853686215,0.008507075886387577,0.008203964740891844,0.003647021460390276,0.006986274885757459,0.16473924740087653,0.1100000437952777,0.0009114016199364835,0.042140381894690354,-0.00063286270279277,-0.038860369168801395,-0.03344362227932302,0.6226929941859667,0.07833088002971278,-0.3309951598619299,0.024315843380138796,0.06306280261993535,-0.0020588202822469062,0.3334587092590823,0.23477288907854818,-0.052562267518959586,0.22348728734923312,-0.12483203141877305,0.11412197237293206,-0.24622263748228468,0.026350022287366742,-0.2848888322608224,0.15607706980642985,0.0355963663274755,-0.07216958410226877,-0.16049888556815398,-0.03364056629715231,0
org.apache.poi.hssf.record.RowRecord,0.04123676355060657,0.6920641168434207,0.146760359494091,-0.14717396534705388,-0.14950304585219445,0.07581950848104474,-0.19418425113038143,-0.03620187156081033,-0.10595682687845998,-0.16055324618989625,-0.005196887895696846,0.07923455637816028,-0.011475262496018847,-0.04342922776748197,0.034892439428891434,0.14865572261423657,0.25381067126860907,-0.02692848722800456,-0.15699020487905282,0.2190738038206999,-0.08659924738465674,0.19199804692443015,-0.12332430782937048,0.0028783757922596328,-0.04261773331965977,0.050269976590285405,-0.1576878379694621,0.22937525255936653,-0.08394033931965386,-0.14879638512163013,-0.15304626017322737,0.09269108760382526,0
org.apache.poi.hssf.record.CalcCountRecord,0.0019324067524522212,0.8727171998162558,-0.17456674297009514,-0.060919763337427435,-0.09623487527812245,-0.033982981291260365,-0.06721373655051276,-0.06582186628627303,0.1023149999406095,-0.17605535056082272,-0.019323025750987176,0.2369741589270457,0.00576469212744871,-0.21193559903827167,-0.03843439241885528,-0.03695819762326809,0.08756741129112534,0.004572148288878484,-0.10289052893374778,0.06171094488972018,0.012739471306471777,-0.000441141972725922,-0.06802442515716543,-0.016601335464865356,-0.015088946998328358,0.02208832886310164,0.03028676336700106,-0.08045511913647059,0.044377227049671134,-0.017073446988103824,-0.03654541402631897,0.016480504520502957,0
org.apache.poi.hssf.record.SeriesChartGroupIndexRecord,0.0015552119542782334,0.6708080049733888,-0.14575753949607786,0.007833944469555574,0.11522812349588019,-0.03810664350152976,0.18094886726549234,0.07177746882124764,-0.04038072678950627,-0.12108675890795544,0.027271957464267225,-0.43843746233633496,-0.013279877003976927,0.38719769798428894,0.09963403547810891,0.057172880864947054,-0.2038811059650047,0.002896116170071667,0.03983852665197661,0.07541779756807132,-0.004686495919423121,0.0007420729636543288,0.1169673748533163,-0.01925968844442648,0.02269993328049638,0.01985532270065103,-0.02436723893967077,-0.07080672124901838,0.08535258872341833,0.06961390312837545,0.05549480162409836,-0.13737612950322814,0
org.apache.poi.hpsf.PropertySet,0.0022319553878936216,0.035661671122336154,0.004815644043534543,-0.0007284088095406986,0.005881692397512601,0.1750663114545518,0.10933803891560843,-0.002928219499751936,0.05250198804042778,0.011459419933826941,-0.02145401859707178,-0.09133161843686444,0.9001269435364073,0.020852584023594342,-0.24198225557247324,0.011813473724054138,0.024256462575297767,-0.006450512888804533,0.06409710541193249,0.07240679209984303,-0.04492469093438444,0.06839679864147395,0.024148912204382013,0.047522021162704896,-0.17743043423547594,-0.03358846662717185,0.027794531114089697,0.035117525664643635,-0.008740221226954186,0.013541078946331045,0.14011013141903167,0.03131086776469368,1
org.apache.poi.hssf.record.PaneRecord,0.004444426825465166,0.8213290492521567,-0.15413530395714023,-0.013191802515290656,0.04303633520699824,-0.026386005789267114,0.07518627051776164,0.02098419363618697,-0.00979801387298844,-0.19976737640988487,0.005905483470912976,-0.2617406350427048,-0.015752154579015267,0.14483434110330792,0.06446714129708284,-0.03200706140399298,-0.22569833989007293,0.0008631937265118672,-0.14101383864202646,0.15597920638077187,-0.030616613872720935,0.10265627668505177,0.14518838220958735,-0.018711836992565536,-0.0132789862962976,0.09532937431888876,-0.0248082594133735,-0.03462791004755915,0.11463484712276373,-0.04640566674684873,-0.00391513450987444,0.05852289941475848,0
org.apache.poi.poifs.filesystem.BATManaged,0.006048835085331889,0.019734728354316583,0.08932961447438974,-0.03062193849340151,-0.03454141498100782,0.589726563987264,0.23252199200121604,-0.04061118498596634,0.12765069468053267,0.008157813684457962,-0.12194267724049401,0.052820742505294546,-0.20290148812981978,-0.0035721019468374984,-0.00047023706636474153,-0.005702902368947266,0.007988904017408018,-0.004945819385336847,-0.10218438297808614,-0.0005342835504726179,0.0011434215752126283,0.05424238444505242,-0.0010040550433909245,0.00523896781170228,-0.13027806757939295,-0.14680742176524625,0.5879788008727,0.027342797279031154,0.043156193410898123,0.06501590551798858,-0.05328996595535268,0.3214207909809969,0
org.apache.poi.hssf.record.aggregates.ValueRecordsAggregate,0.0885187614718769,0.16869849396296116,0.11304843108028809,-0.08976193591689748,-0.09477109476968999,0.00028905206493867676,0.029022118653894133,-0.018420601349646022,-0.0216517334305571,-0.05302595607202012,-0.021916800595911445,0.06012115928877325,-0.009708362008649605,-0.0827795725221959,0.09029220035497136,0.08172283673888753,0.2513750043930189,-0.11977164388202183,-0.32411635381275156,0.5963716659025703,-0.18629214020023396,0.23046002156049283,0.09110337242099306,-0.2024037259226829,0.11309112355753566,0.08949458711922299,-0.07419587666756952,-0.3689849027564795,0.19384217457354985,-0.1543103956321798,-0.025192541495349805,0.06121743526459086,1
org.apache.poi.hssf.record.PaletteRecord,0.00041670779768491036,0.7929671522594112,-0.09966428705903006,-0.03006278431325917,-0.08515467474537958,-0.06738403175717345,-0.04523559253112018,0.2181338000669623,0.2198898936514238,0.09100824901638646,-0.019677098847286526,0.21471118693508856,0.01254928881482476,-0.07632160288257482,0.024403877939482496,0.09408517391046833,0.19825493212874862,0.05064543327102144,0.02043712840799648,-0.114745118271811,0.11200120094216906,-0.22490472130051506,-0.16806924787570224,-0.06841385424341583,-0.06365097667195502,-0.06644675504648559,0.05279148779704158,0.02020270210262214,0.04051774421151559,0.07286453930486023,0.012933443449448724,-0.10052518780126359,1
org.apache.poi.hssf.usermodel.HSSFDataFormat,0.10047032734303717,0.11144965215695064,0.5912217444982832,-0.19753044515984225,-0.21415149685088486,-0.17920004153363261,0.17215654413705406,0.07757069046660485,-0.1038761592293509,0.13537809921887883,-0.023332285401385454,-0.04218140434644817,-0.003402026114160606,-0.04497979298754976,-0.0478086540922398,0.05408387676324481,0.05655572943756159,-0.06480646958883562,0.09197301413824996,-0.28261024832431064,0.06846242949808129,-0.20744329875210493,-0.12246288491090604,0.025409068965409703,0.016229836360388987,-0.12253051641440228,0.1190925539306359,-0.3827882670595213,0.1245695740160491,-0.11311563515311562,0.26151171196172646,-0.0695072705529995,0
org.apache.poi.util.LittleEndian,0.8824430661312369,-0.039595076141006755,-0.05457087341953669,0.1311828526356253,0.10800685801368302,0.06050893325944933,0.08937037288822225,0.06817858934776225,-0.10515347905805353,-0.05019141896844063,0.03925636260388708,0.20083889064884886,0.026719693082918047,0.12063588323624436,-0.10870873157849842,0.016261659427492896,-0.07787420516166883,-0.061013844709509026,0.13577360838621064,-0.01067928792181932,0.09432769743646431,0.06411454689314647,-0.09895061533095564,-0.001970021000230295,0.01003277676045688,0.08372869065030823,-0.045631712664673,-0.055667419575312474,-0.07204118831387268,0.03980118117484988,-0.07758273296636917,0.11202721462892452,0
org.apache.poi.hssf.record.formula.UnknownPtg,0.006103401630848083,0.16204567955867213,0.0748339621476408,0.20642400688116072,-0.06522586494696302,-0.014498931587645248,-0.002188433725679643,0.043069280124009825,-0.06494746271073623,0.9405977843106821,-0.036914205432066166,0.08411082885383296,0.005077700506156582,-0.03814902821531421,0.02034693301414238,0.025340763016566015,-0.023966988541984653,0.014958583300286843,0.007645791752420989,-0.026856982566619707,0.04423941711053573,-0.05322492238225005,-0.05500591518103448,0.03869010744922055,-0.0009121877367661221,-0.017638363292920258,-0.009024936349504907,0.04142316458167816,0.05927081224789444,-0.0025372532575092823,0.04578786961595618,-0.025215831709959252,0
org.apache.poi.hssf.record.Margin,0.35769892115706015,0.11445884326345869,-0.07461718501239824,-0.13836974233116164,-0.03808591510415055,0.02893515639531665,-0.12287782980349066,-0.054092947343075216,0.0421054759810478,0.028406743611405934,-0.027491356534660876,-0.012858356725354656,-0.02307583094126079,-0.25572762234249274,-0.014257191068582045,0.020113308566027756,0.15961706144252147,-0.020652175744875625,-0.4816026427309219,0.4939653948174218,-0.1329916549603433,0.28232543389405335,0.038198383510468996,-0.1949216212817119,-0.09137324009251997,0.2622227462701957,-0.06475271475011375,0.0799229088731656,0.005333033927591297,-0.07354637687048876,0.04481157906493455,0.10027499388207774,0
org.apache.poi.hssf.record.FnGroupCountRecord,-0.0002673818841782339,0.8332599430892837,-0.165999254469594,-0.013728843601195615,-0.0944045465167498,-0.04994626441660509,-0.04954750719014775,-0.04832935346177835,0.09879957151834337,0.08838889507260766,-0.027517281515195918,0.27556778653352143,0.012605795633105935,-0.22578841796616694,-0.04914194537314274,-0.045143690588056076,0.05477934248751379,0.030251945626415637,0.06282800041552823,-0.13866781629483133,0.0915719719580211,-0.14926606345994464,-0.16440876562469822,0.052386578185403786,-0.02267060735313172,-0.06158867942075912,0.040036596218874954,-0.007134083128655391,0.06405260000571994,0.06173228286901073,0.05235143609984178,-0.0879055688239096,0
org.apache.poi.hpsf.TypeReader,0.003978023539436066,0.17661544316761535,-0.02026742567734837,0.008149233084535875,0.021278974576132183,0.1820691709405301,0.13669867634627472,0.0044717954568218215,0.04827767934425804,0.04145880514737664,-0.021797797134633243,-0.12007980876112355,0.24641422838476454,0.16369749159197378,-0.3628121462783855,-0.0031224744761266343,0.018782574897453132,-0.02373564407336551,0.5390549619968622,0.18177411546081845,-0.14407003285783532,0.20671286458438803,0.0163582230733761,-0.005553118283051487,-0.1835404461908066,0.23526320201220172,-0.037963167770151546,0.02557287174029672,-0.09785900178444082,0.03990238481983466,0.4321877957527979,-0.022212309169023788,0
org.apache.poi.hssf.util.AreaReference,0.05871739673926501,0.03401566405162286,0.16142705414965192,0.34173167248334646,-0.11631554322435629,-0.030287008104835023,0.05778821900386494,0.031872017115871634,-0.06214452278659915,-0.04475977126146646,0.041992157594071836,0.1219319336465777,0.037537734593737805,0.3594101315330745,0.11144270775336092,-0.014951520560201836,0.08684570022544112,-0.13467776888422178,0.022881722406732863,-0.16288669920541188,0.0989586106572622,-0.06585865073668351,-0.28635577722576583,0.08341925085725312,-0.03746289720925036,-0.13636570203152393,0.058760671737442725,0.20986340232839507,-0.24898433251334579,-0.3620310715605678,0.359067847724504,-0.35031663471554764,0
org.apache.poi.hssf.record.BarRecord,0.008917897754987858,0.5691327996602527,-0.13139630745347494,-0.010377800567116244,0.054880602775257185,-0.05209779441301203,0.13256644828042388,0.044480567905234684,-0.0051072964026351395,-0.1006928195951891,0.04593516118734882,-0.3673084225441113,-0.010954333279931571,0.43212541521178455,0.14939357716837456,0.13004469699706941,-0.30633576843393556,0.03782993675261086,-0.04920350797763167,-0.12287937265861444,-0.06525773727796612,0.11841559204465592,0.3115343657451911,0.00022018731268762148,-0.028287932366263962,0.04167652659239879,-0.006871401392993777,0.009683024593426924,-0.11614890198411708,-0.026250583975019337,-0.04394921091768138,0.11474857680004909,0
org.apache.poi.hssf.record.BackupRecord,0.016197274887936857,0.8281595025655649,0.010695301111096447,-0.0549717738043138,-0.1436053926513939,-0.0026791090776329394,-0.11786395799237641,-0.035094005750764004,0.002582708972252297,0.07723355807918618,-0.030992226030151053,0.2336473363937529,0.010396879669913078,-0.22113727773720684,-0.03126534722636709,0.0038085790028328736,0.10308686489353097,0.013917394606742812,0.05911897254860884,-0.1746280663284897,0.0897608210470084,-0.16078051126208973,-0.2017170062968175,0.07254387632586538,-0.020933180514141256,-0.05847011627726315,0.04272705508385228,-0.006428005615485534,0.08623706060228294,0.0353672939374958,0.10421541270537446,-0.11632778010793185,0
org.apache.poi.hssf.eventmodel.EventRecordFactory,0.8601495951894012,-0.045937908904484376,-0.11728994102178036,-0.12469767538646631,-0.059864865343953126,-0.011319180322874512,-0.08599641395610783,-0.0779651617568681,0.15906727802084475,0.07520768989408215,-0.01782957227279089,-0.269540788683067,-0.03530229317614283,-0.23355068696330988,-0.040142582079505176,0.055400771478295446,0.016799206296286954,0.1003782057087755,-0.01720555027489597,-0.014669718302413618,-0.036059984789457225,0.02858295851760559,0.09187523479004275,-0.09165090537063325,0.02432364283347498,-0.06412134776671793,0.013520960435032946,-0.0391239974006517,0.035843915537362624,-0.07282505739471017,0.05597144672622365,-0.03425258856655394,0
org.apache.poi.hssf.model.FormulaParser,0.07548954206153216,0.049975390721798345,0.2337383791053104,0.866617289168744,-0.26718803272252833,-0.03409713508560287,0.009281205257268433,-0.03989934276087058,0.06676459927489162,-0.18489768739711906,0.004004662981279307,0.03073726675376124,0.005123337427512337,0.05255951727772668,0.021805362839488387,-0.06580409055813843,0.048405233643731185,-0.00311905877819201,-0.12744490807259334,0.12336165587486345,-0.036023739046912646,0.04548506531196821,0.0028198350612002403,-0.05876948322466488,-0.048447950677153656,0.10960341334454761,-0.02366254951256608,-0.026893014003264548,-0.02857239165677095,0.02521659210361445,0.06317254187765492,-0.05465158365305245,1
org.apache.poi.hpsf.ClassID,0.0038582119894625486,0.048973086664208465,0.04179123401344489,-0.0061356827385341105,0.02582878990159885,0.33824939030730294,0.22062197708723905,0.0028420407014188693,0.06528391869817007,-0.0174871814112987,-0.009133506246912592,-0.18878469678781454,0.6299847746096227,0.00509569395667052,0.12109904101852408,-0.017323445659922925,-0.07221855380075647,0.007568800689584688,0.12563019637225087,0.1319461684206727,-0.014821778041692366,0.18738581275306007,-0.055062694606454424,0.11431236297613621,-0.36167430375312254,-0.10498442276803147,-0.07865265179106264,0.11875671623052177,0.1859353654934073,-0.013382332630869577,-0.22235000346716044,-0.20897383305752917,0
org.apache.poi.hpsf.Property,0.005929259039084523,0.08898374188607762,0.030961453326883225,-0.011835710004509092,-0.00452707089059238,0.43027486651173874,0.24419147745664319,-0.022921470266501674,0.12734783534175234,0.020219172336019105,-0.08191234201549615,-0.07597072064987866,0.5034271111936096,0.07268194152074262,-0.23230252955201622,-0.0006216260639864747,0.027427033426152356,-0.003780908906995624,0.30417943230161093,0.15419973795112143,-0.12336082414542632,0.21971057957618031,-0.04321243358756672,0.0663027236989427,-0.38874711655929084,-0.038794606117286724,-0.1600729724079231,0.11334282227636434,-0.024429060148200305,0.06815992173225036,0.14269836888840856,0.01773361863029643,1
org.apache.poi.hssf.record.CategorySeriesAxisRecord,0.00891789736851344,0.5691327751020618,-0.13139630171144803,-0.010377799500055546,0.05488060021985086,-0.0520977952063323,0.1325664372397205,0.04448056290257139,-0.005107293207286406,-0.10069281738221131,0.04593517799624725,-0.36730843592411455,-0.010954337076119565,0.4321253726037312,0.14939352322788896,0.13004478142387932,-0.3063358129207352,0.037829909447414614,-0.04920355159581512,-0.12287931869323147,-0.06525773625002829,0.11841552450750119,0.31153455398515584,0.00021986148618784456,-0.02828810941304283,0.041676272576399005,-0.006871064459901211,0.009682164199463642,-0.11614886963201225,-0.02625180240047481,-0.043949734890647574,0.11474799190570191,0
org.apache.poi.hssf.dev.EFBiffViewer,0.04901995206437654,0.03564725133335462,0.08430365783441315,-0.04325378764130743,-0.043414276506379884,0.41299053673364927,0.03316272538137871,-0.023904015086306782,0.003571777330538772,0.005505858501509602,-0.008112320476914691,-0.019286186114411834,-0.10222736229820722,-0.08079672335535201,0.20250686628256243,0.028208703457556508,0.03789016488684762,-0.06794066760030978,0.22356292305733091,0.2520685026233839,-0.012224806052716865,0.11651994781106308,0.07269559087551931,-0.0810562742380553,-0.00255501464111698,-0.13128111730258213,0.050604035561191904,-0.2792897070284795,-0.18133570516027134,0.24979788091550417,0.3870545122552112,0.5156722015370414,1
org.apache.poi.hssf.util.SheetReferences,0.04614671308061222,0.14678176772162443,0.13286826158885146,0.3448483811029977,-0.10421821225900173,-0.033049976098858375,0.03734333098688676,0.04394282717025526,-0.059252154917730136,0.368745745418625,0.0026414389233733867,0.16933496744153506,0.026835437332478722,0.17230573730457194,0.0827041150498027,-0.025832294787522667,0.17161360959866015,-0.08475615350408411,0.026718880117667914,-0.19040666790265742,0.16273651392972524,-0.13992159400649795,-0.3878854620621798,0.13832250433684706,-0.08200339974028861,-0.044296293651653273,-0.0009725261986047554,0.2085140781933692,-0.018627111412987694,-0.23449029922735035,0.38187273989906023,-0.27533904733817083,0
