name,vector_0,vector_1,vector_2,vector_3,vector_4,vector_5,vector_6,vector_7,vector_8,vector_9,vector_10,vector_11,vector_12,vector_13,vector_14,vector_15,vector_16,vector_17,vector_18,vector_19,vector_20,vector_21,vector_22,vector_23,vector_24,vector_25,vector_26,vector_27,vector_28,vector_29,vector_30,vector_31,bug
org.apache.tools.ant.input.PropertyFileInputHandler,0.14735866742603274,0.10143767621030568,0.14584851552161957,-0.06782079887924554,0.11174185844388179,0.002361372307966487,0.05487261377653997,-0.03839516469208418,-0.13953507972368348,-0.09150184452426123,0.06502283059977668,-0.07378927745703416,0.01641209645237575,-0.009460712566450565,0.15198198218530803,0.06139706126547211,0.40201900389799233,-0.22201257239011354,0.013040667930878058,0.014036754613185518,0.4534275089437011,-0.11711387992410627,0.008818735482064237,0.23380321631720352,0.1708432514780489,-0.3513708509325948,0.19901995189560362,-0.21417756276221683,0.2966363622430439,-0.06688161053998716,-0.1643007485103038,-0.13222788248200737,0
org.apache.tools.ant.types.selectors.OrSelector,0.10260964521620547,-0.11641715597057734,0.12401210334390833,0.44978270915026447,-0.1277921409725973,0.5747062052849766,-0.2095294231951327,0.004499875367944574,0.23048522332421603,-0.1372304984016185,0.17492816919434392,-0.05420854350866056,0.05353780637223844,-0.013997667646008441,0.05030296513579297,0.4045924009036745,-0.07769064423738822,-0.0038929343847406085,0.0359868660171353,-0.037343199629065314,-0.005778841215489222,0.002741179374982364,0.10281977792254564,0.09285164839329742,0.027462885894941044,-0.13423574468859711,-0.013948702163711447,-0.029004389970409352,-0.08632504495407356,0.02831877022109326,0.19156635431946115,0.013286213060238701,0
org.apache.tools.ant.filters.util.ChainReaderHelper,0.21434942779650087,-0.19948750547723984,0.14255179158901632,0.05201092154186635,0.13011542618997815,-0.14596640493415963,-0.22714102502536565,-0.42738610529181453,-0.03410450680843598,0.3372491675508622,0.22540377857220237,0.05234559351131348,-0.13460158305907052,-0.017612662004583203,-0.05766243639168135,0.2021803248733289,-0.015626328872488857,-0.10423837381013723,0.021840481030275076,0.09196032798561361,0.05617636554033493,-0.03220671196336422,-0.046853476239962555,-0.08105303166680447,-0.08240269042753647,0.2852587044804007,-0.1639985009887783,0.28007887274823007,0.21145573102620224,-0.04057751515696508,-0.32758194137139646,-0.08656937958138568,0
org.apache.tools.ant.taskdefs.Ant,0.2217035924256627,-0.16646237097654581,0.08628224109986651,-0.033401637975024476,0.34502569643085174,-0.12454502271563284,-0.2228139955201737,-0.15523401519285746,-0.2338504239569665,-0.2196371538160293,0.002787696772086187,-0.25071368283933243,-0.12838821832461253,-0.3800781904534386,0.1417063269378274,0.009703241932154919,0.08343318090205283,0.05968956507772741,-0.05699870761672968,-0.33473117134239055,0.12687943142498848,0.017189641719220546,0.03941219193059669,0.12336978906001962,-0.11306427447000839,0.0030393214386430305,0.10623506844606202,-0.059682888288484795,0.006230817322489777,0.10707081482206518,0.20553880665316634,-0.3449569114604984,1
org.apache.tools.ant.taskdefs.JikesOutputParser,0.18214046457271763,-0.2978954045029035,0.2897710765597155,-0.19224582637574023,0.07740604740756764,0.018984338603621094,0.2677881918843795,0.044305829052699,-0.1437089526627872,0.0886755396318944,-0.016918315210114977,-0.03070771939545937,-0.2568866404369828,0.1421995448183462,0.0648018450783629,0.06466973948397876,0.18793538515681346,-0.010003709791096504,0.00570427869261181,-0.05677310753429829,0.44395606418253075,0.24021237425206712,0.1175794062843793,0.35260578928365227,0.04535677334479924,0.09750232937467186,0.19798483082441568,0.14324941884475398,-0.016180614196242987,-0.1282467259657841,0.1725731330282443,-0.05823239583434328,0
org.apache.tools.ant.taskdefs.SignJar,0.32180057973961285,-0.4337953527505684,0.41842182879826323,0.04046616064400408,-0.13137744689550954,0.25737756701396153,-0.07503145261889516,0.2805718100647401,0.038904482499597264,0.0963932006014494,0.004756983349670347,-0.12508292399483928,-0.13841001349625634,0.21273035306284757,-0.062209863373385015,-0.451148760366923,0.047535786028964494,0.029229724715359715,-0.05546153409322878,-0.038980164508394526,0.06819954244689562,0.02204294316267205,-0.06198750212486367,-0.03469410696632281,0.13344135377831945,-0.03617206618067221,0.0031614577086740755,-0.05139144737290492,-0.019949131169257256,0.0598997868607345,-0.14508423943963306,-0.026713576667604173,0
org.apache.tools.ant.taskdefs.condition.And,0.10557626490517136,-0.181965627129635,0.19908812309831764,-0.051632954831732275,0.06332935756385645,-0.021429849751295506,0.062277087683692965,-0.029723885291487947,0.00455756005290685,0.1768801914518339,-0.3214688652542157,-0.021602963984928968,-0.016880813096605902,0.23183486418219837,0.10821920834844659,0.09340644821456437,-0.18874280484095476,-0.05636255982875891,0.10991559725164556,0.179228060929868,0.08680048748667968,-0.09166744187636962,0.13940410456741312,-0.33103841473010853,-0.271386951228996,-0.21458819934622256,-0.13178212490125044,0.035283287432080014,0.16181078510805383,0.2479776925023581,-0.1893763313532721,0.4525617463075675,0
org.apache.tools.ant.taskdefs.condition.IsTrue,0.11527086975038589,-0.1848077706106723,0.19057876491101228,-0.06153272716777259,0.07091205149404507,-0.06185645169085547,0.012854377847674596,-0.07104923558723575,-0.057227071586201245,0.1177613999413982,-0.2391529780346278,-0.007986866980544533,0.0006312687843013661,0.2692602141774712,0.0439100593800898,0.13012839878583396,-0.14539095815629538,-0.11494941450140701,0.12005700852672518,0.24980580987681517,0.07990644812813451,-0.15519163174626635,0.21997369783629478,-0.37441160138388374,-0.33608924972404025,-0.05921057685239622,-0.15635328392092807,0.032182339864352115,0.2565023844527363,0.16945131213442008,-0.16395969060150667,0.3729292334772923,0
org.apache.tools.ant.taskdefs.ExecuteOn,0.38801795863121225,-0.3078799052290725,0.12015144576641584,0.1185876465208562,-0.25592167303368385,0.21211959369090705,-0.05982565321998826,0.24037128973920646,-0.04298989484460578,0.10085306937555451,-0.21835354910271873,-0.05897774993398678,-0.07744282194330954,-0.14838532122920572,-0.22227148439280198,-0.36322005245524247,0.04737488393342776,0.0716999861064995,-0.01609309630342628,-0.08524921715365961,-0.060412513894639586,0.06301739486116598,-0.11180360965100593,-0.22597730820596895,-0.1411589734418846,-0.08447120832462318,0.21244567095729103,-0.1523747968074719,-0.1288928589150481,-0.15296825175833945,-0.2452621364536825,0.010119846371250197,0
org.apache.tools.ant.types.Assertions,0.2477761181868948,-0.22385118522225947,0.08519258627832034,-0.09221353774499295,-0.1498107541291071,-0.3500096847290698,-0.3714059733278759,-0.17817451920059224,0.007563313947823875,-0.16070205105288238,0.06541994551874064,-0.24148317635616368,0.025547265939384934,-0.2268048148082751,0.23258971569599218,0.09155424664957819,0.12060764426591837,0.2915953282364374,-0.1658182586487994,-0.09382146822148471,-0.20453934261420134,-0.025084276547560028,0.18057937876480604,-0.11668879077366802,-0.15511502068097485,0.03996745517128898,0.006992826586180044,0.09047376362724266,-0.1152441212267006,0.11988098818209321,0.20652182321220253,-0.16213913500045557,1
org.apache.tools.bzip2.CRC,0.009732609280135399,-0.006997460332238663,0.004011323638073456,0.014430668532719492,0.012254189321643745,-0.02398141834474904,0.0009343856852245513,-0.0032341533032646547,0.012140759499488321,-0.04077494833299102,-0.12723096301077289,0.2212212513327783,-0.06908570495354359,-0.08268189467980758,0.008567907342904456,-0.02611438384011728,0.01700441883858043,-0.024464459289521102,0.03463538494529018,0.13178272752154294,0.031454544997888655,-0.07258738016511022,0.01461919777975464,-0.22329414853483567,-0.09968584047164138,-0.332409827301235,0.09720727226090167,0.07536078045072628,-0.4384036673914028,-0.25599098028635336,-0.23260167531737772,-0.6296136010325238,0
org.apache.tools.ant.taskdefs.SQLExec,0.17353236558329677,-0.1635030794475192,0.13298551320639782,0.25295351319505166,-0.04467834033905899,0.32329217649661585,-0.3289832988195586,0.23587379570401484,-0.005001870382982002,0.005722675771680684,-0.10756465714993566,0.0069468678363061925,-0.05219325526899758,0.09286704478986924,-0.11703075608730665,-0.5571776193853448,0.1286197927927018,-0.022748428257264093,-0.05598803066429488,-0.25972993189052235,-0.07229844853085728,0.025505736512449344,-0.13182397504493137,-0.10948919272545261,0.013772747401928586,-0.001663676219159476,0.020172558575914806,-0.21533290706226973,0.16320753863917659,0.054324745420800964,-0.19187550901466122,0.08754916935828985,1
org.apache.tools.ant.taskdefs.ExecuteWatchdog,0.32920145738329254,-0.2797039030974371,0.0735625313412872,-0.2684033960757888,-0.22378195309613663,-0.12036519632646758,-0.05794142428333308,0.021298230029141413,0.1549751198572563,-0.060725011167129375,0.08120525077978871,0.08246067913745195,-0.15932152495951665,0.21125775914591313,0.22018188256503268,0.12784814052090554,0.18020912475940531,0.4647843994218011,-0.2575729457710942,0.048013609915380326,-0.08165339059291794,0.19701952493538272,-0.01201209464740497,-0.07080927990816185,-0.15239205754592375,-0.21130915087997715,0.07176923895429993,0.0035869997698142835,-0.08602671269608471,0.18414806710139875,-0.05929774129715609,0.07725890685340994,0
org.apache.tools.ant.taskdefs.condition.IsSet,0.07170360881682594,-0.09612824365929647,0.09420511973616975,-0.02382657819165573,0.05276221856663243,-0.06242320653825719,-0.05301616712732547,-0.0628061352260977,-0.13196208363655995,0.06275139472379251,-0.13019751233647636,-0.005589270765997444,0.07001938768403794,0.25185335522685565,-0.05648411752431753,0.10084882577390708,-0.0775316646545815,-0.13606950509877797,0.13019263791959934,0.18192878334789378,0.141143175870472,-0.2059274410309807,0.30213804013927337,-0.3933438592911546,-0.41652692590946594,0.020595185893346624,-0.14198839576250719,0.03796924708513043,0.38120859869518664,0.08011472673145749,-0.12202103583464083,0.3124970455801501,0
org.apache.tools.ant.types.Commandline,0.37796353881682354,-0.062410421819488464,-0.41116242549752097,-0.2965852254005747,-0.37863166868833303,0.40558678253481917,0.23077535580165037,-0.21751231365474868,-0.23811317464237164,-0.031592459988734424,-0.056730319870462696,-0.07278507648004627,-0.12051287206405589,-0.10172293955095736,-0.08268469645919754,-0.06645150302455057,-0.0865212397816199,-0.07281585454113643,0.0604782366809482,0.06731409300774856,-0.01201807969032275,-0.11323804087699996,-0.013735546148883816,-0.10327095963143536,-0.014537655853704446,0.01912561257652857,-0.11737546430607415,0.03327541725812668,0.020083095818675144,0.0036234210349627392,0.09262825507545508,-0.12731347506203755,1
org.apache.tools.ant.types.selectors.NotSelector,0.11352920169567496,-0.11892233506454239,0.11876199090061558,0.518660453553344,-0.13961739051567063,0.5358734326261767,-0.13004402468086892,-0.018367821120018862,0.23237479747258336,-0.18447109011336435,0.19676911991478716,-0.05794065156269175,0.06000478141994443,0.007304005540229827,0.08386284646995512,0.3572292048898583,-0.08925316786282858,-0.0015861387314813843,0.03616738162681537,-0.040440414664451384,0.00017438922920875685,0.007555265456539884,0.09174140093204558,0.07808808700297137,0.013120909089386215,-0.11552466810376734,-0.024476758539315482,-0.024783786288521077,-0.0706761133408033,0.0383573238116733,0.22477224302856216,0.018627816593814954,0
org.apache.tools.ant.types.XMLCatalog,0.2308122944544761,-0.16772689484823305,0.07277547427906904,0.043244761974260804,0.07413181098083854,-0.3369668143873938,-0.45803454324214987,-0.18584483026979542,-0.24371884219289794,-0.15597295145327203,-0.01676271499798221,-0.20941228844245235,0.14663163566882725,-0.1616216037062795,0.052570101822205964,0.04562069640365842,-0.09315862592178516,-0.004359049265964775,-0.02873936238526945,-0.02980951715094149,-0.19797528566747147,0.1354324617600195,0.2010246171695451,-0.04920349764352008,-0.0898732548199048,0.22810975310859608,-0.03124181078494737,0.1972076805658481,-0.14833210097419436,0.262139036461172,0.1542207088895688,-0.2060608817419207,0
org.apache.tools.ant.filters.LineContainsRegExp,0.036917179532489436,-0.03463394215265212,0.031901748016045034,0.0922236413029048,0.03238855164026695,0.032498589971462225,-0.13057952257815036,-0.34496499685287735,0.07652820781213977,0.31163433746150926,0.10647302839614099,0.00680591485828403,-0.12487421565837116,0.009456143454737043,-0.1278358932055422,0.18878687778168232,0.007233776986011903,0.001968380563943926,0.00784744401756299,0.018712463305337067,0.17996311774337406,0.08731044170142406,-0.6698522379464614,-0.1652479057882788,-0.03432582578102904,0.3380601310870615,-0.017101539927417985,0.0731301418872454,0.10511287140632658,-0.07788846803245578,-0.061102028135520035,-0.09642593013504909,0
org.apache.tools.ant.helper.ProjectHelper2,0.1156803840531377,-0.06779854986409095,0.09149960501783362,-0.08491287370927467,0.5015554572844139,0.1464777991925953,0.18905258110374015,-0.04677900232439489,-0.0836523063666304,-0.2873217586528863,0.14358563882633876,-0.022409949759816746,-0.07976334508075805,-0.08659098386352791,-0.4044633909952076,0.05150135452897286,-0.2802537180621666,0.2487539215542443,-0.13362121647984748,-0.17531384276430817,-0.2569201520595975,0.1112722179177628,0.09192792222256964,-0.07172159242706996,-0.09184102525791928,0.059765231381952305,0.030306348346406668,0.011845226499439004,0.06908889275014611,0.07296943335752831,0.0036747021563685667,-0.24607175289777297,1
org.apache.tools.ant.taskdefs.SubAnt,0.25808078675362506,-0.24088955553821345,0.14244852937409908,0.026551127918828056,0.03958241213319063,-0.22354141836895527,-0.45243800402722517,-0.07680194720038507,-0.145752526236824,-0.16486765824268512,-0.06614144654968848,-0.31876238125408957,-0.10109354435648503,-0.31826108239730544,0.14923160934372345,-0.25147548407287545,0.12380244722176921,0.04059889269363457,-0.05899176729361576,-0.25861980755990627,0.09858236827613807,0.06829410860345046,0.12368206443752053,-0.06756950812620807,-0.16148421853455464,0.203700219430639,-0.02391356738679852,0.09469116557977135,-0.1492374735974034,0.08611097731343068,0.06979717892426045,-0.08690036008916723,0
org.apache.tools.ant.types.selectors.FileSelector,0.16625026159912876,-0.15149526140726108,0.14584368495467293,0.6122889874842691,-0.13989711525588466,0.5466318081723568,-0.0952512588845892,-0.01715068780245392,0.22518493445498325,-0.1682996840379125,0.15458367874303086,-0.0317341107871325,0.08453728682369184,0.05490085776539602,0.09466233230116763,0.2543601295917883,-0.07406214865932143,0.0027571864523583886,0.01750277184666995,0.04025615812330078,0.013239402737793332,0.010279445648669465,0.02440149312422171,0.0344409163030924,0.0017402408560555393,-0.07364804176398806,0.014990935409479605,-0.0037322712151517056,-0.1123061974215092,0.005950350333558744,0.09926066249007483,-0.009576806497604482,0
org.apache.tools.ant.types.Path,0.4454346483774341,-0.07591277214353709,-0.32977614499973645,-0.05963498686922017,-0.10288956780255343,-0.16260561367261223,-0.3477344168066252,-0.14308883459716842,-0.20215690834984804,-0.28474639455192374,0.10442396040138952,-0.030243618710498455,0.075157910555055,0.005691752857789869,0.039797516475359083,-0.09867847188046812,-0.06519683117273206,0.019955480837688794,-0.02437506863448114,-0.10153797981702727,0.06416566096506937,0.03961593255652286,-0.24018513156325752,0.16859973069326628,0.10319879655056723,-0.2526271428974972,0.08724373126642576,-0.14928722331670627,-0.09685682528228139,0.12871326808433786,-0.24785065074517237,0.23500099219170956,0
org.apache.tools.ant.filters.StripLineComments,0.02245627321073482,-0.02599845321643671,0.027716471741226326,0.0813688290946644,0.017258749272628385,0.036563978349315504,-0.09917049803310292,-0.31009827886533864,0.06966070128577077,0.23738675057424147,0.1376700663435108,0.038369001674269834,-0.12535562235782258,0.01634128493570308,-0.1244828796713263,0.1980956284926637,-0.01783521712305505,-0.003331047996132299,-0.007665043652199799,0.012773166657028637,0.20141710833674206,0.12208355974892275,-0.5541056855815164,-0.08776939759855804,-0.04998129303448245,0.293693950730488,-0.14251024236059465,0.28121878054448995,0.1978976853973065,-0.07842531910979669,-0.33604346595192386,-0.11959659935148281,0
org.apache.tools.ant.taskdefs.Sequential,0.0789355547544666,-0.126187348119731,0.13742772201349115,-0.09336178913373117,0.20669984514603126,0.029502923515885682,0.10183194935452249,0.025559547001077664,-0.06838632495745761,-0.13882773848230626,-0.047669385146929234,-0.09973158844878258,-0.431368506356605,0.08727057113844723,-0.03231179678393055,-0.06747982173253604,-0.08936692460142058,-0.010840062376031355,0.05297685603644906,-0.18056197721997877,0.4582883207145508,-0.05662109030355905,0.06329894767515236,0.3067303273456683,0.2144369231484432,0.1563411850402604,-0.04531856855726917,0.29994556004105105,-0.24089277353149616,-0.04820706054955355,0.27136697676424715,0.09426592719223127,0
org.apache.tools.ant.util.TaskLogger,0.1561754438339244,-0.3031339119298686,0.3471873851878283,-0.14103279800534413,0.204265231050556,0.0358473829808894,0.2273500496603525,-0.01838905362859117,-0.2534242077579457,0.05998138813054773,-0.11004019877195678,-0.04788201554981967,-0.23285484055168987,0.09783723497993,0.12008600224039451,0.02812343996140922,0.048252503407043644,-0.0775527800049826,0.07049260245338972,0.03413349825348791,0.4406103966671116,0.07456712995587103,0.06951168515517878,0.34374599706251513,0.16054513943461257,0.02973475464225043,0.11727525834813295,0.1333274006999199,0.018054998962950524,-0.1619400844870515,0.25498378819163864,-0.010105167375772918,0
org.apache.tools.ant.taskdefs.compilers.Gcj,0.2561940727576376,-0.3298280816023833,0.26639868697567143,-0.2407629219125969,-0.1932937132676221,-0.21788384830322005,0.1308139992017378,0.019898335417759913,0.27066933730853143,0.003936213520327275,0.12079610752457577,-0.05900025862600186,0.29017151433912824,-0.2649716420896864,-0.10011172125403492,0.09144577576057467,-0.1896173130048573,-0.04907069429371125,0.09250006604103819,0.20402649911411644,-0.03527399573234984,-0.19819128209524559,-0.05200375338514068,0.02697384539469647,0.28473473847952196,-0.07677116533322624,-0.07857682161280603,-0.12011308832678062,0.23973731018538424,0.030519969572461364,-0.10268905225640881,0.14537276021036602,1
org.apache.tools.ant.types.selectors.SelectSelector,0.14092140920423507,-0.17080719588873183,0.17915897017282373,0.489696426647251,-0.09978726071467926,0.5482772478375465,-0.09424314278506121,-0.0261172147914574,0.18362006684679227,-0.13538138383862452,0.17118728726497218,-0.04361019795506236,0.09004263179569598,0.0013884140809880343,0.1068464253288045,0.39776274150843577,-0.06412201071795032,-0.018462219138908192,0.04080155982812241,0.008948967612819148,-0.0005894086348889595,0.027375079281574972,0.11097408818112137,0.10990233314539517,0.004950201837985539,-0.1441005094000438,0.030310352807619553,-0.06430474447889968,-0.012848444987832568,-0.01726590952228,0.19976613587841352,0.01974934967402989,0
org.apache.tools.ant.types.selectors.FilenameSelector,0.1349042369732386,-0.14085743549652183,0.14302775353329877,0.45192821802611877,-0.07461377453851217,0.5507875247052907,-0.1520003991915494,-0.11502028850362811,0.23354922846711518,-0.03231457437411379,0.16188211786626266,0.00152125468575609,0.0701291282920075,0.01992194460743793,0.04969819367752856,0.4953073692998813,-0.05428411389715398,-0.028659066616966964,0.032972357493105814,0.011257310033040549,0.027784037943772502,0.033014117605154374,0.05235996569476359,0.16781292820619642,0.028060171949147086,-0.11240670613500998,-0.017198780929184268,0.019844550134003932,-0.018235384722707696,-0.04502380711227963,0.05321923885578865,-0.0057744369965681205,0
org.apache.tools.ant.types.selectors.TypeSelector,0.10526196695718254,-0.11933825251080968,0.12443643224899419,0.44594900384403297,-0.1073128366151086,0.5793105634597018,-0.2173331677587113,-0.155129879160511,0.29736834339907203,-0.09172778491849744,0.14034601678588818,0.0961353752416473,0.0401472511891645,-0.014498443502711827,0.05721253153190131,0.418456977705858,-0.053720934853299936,-0.001598480527735016,0.01873409117905695,-0.01684467622211695,0.051003610975329856,0.04694128348935986,0.017723808750078705,0.12477475914991193,0.03804746446400833,-0.044619610907823265,-0.0500308776617604,0.044977871972230674,-0.0005915036630298764,0.03185072244680517,0.051725509301134405,-0.007697546551254732,0
org.apache.tools.ant.taskdefs.GUnzip,0.09362873980238105,0.00912950218015952,-0.13947514129992308,-0.023091605677040553,0.21206752626136313,-0.031156530187398786,-0.13387101161959844,0.2827755069610583,0.237423220435264,0.1146921461695317,0.39056063304754507,0.2647374351253523,-0.2820329357601577,-0.07539474063988207,0.38323889042185005,-0.11394800663342002,-0.2125800500987789,-0.236327573682132,0.11031511283337388,0.013188109872316667,0.12101439891176122,-0.23235248527054522,-0.032374824281479316,-0.04859600543852169,-0.2174986926120508,-0.09301208445357598,0.036597735451700676,0.01781880579890979,0.15361268403001774,-0.07897787383934118,0.12586742006961077,-0.03727234722202546,0
org.apache.tools.ant.taskdefs.Basename,0.19969331259317083,-0.3819327254174402,0.42563909125568317,-0.16727341436683124,0.19453656028859145,0.01086708180271007,0.25178365390006796,-0.04265565166429769,-0.11982030219425353,0.13982202607666033,-0.27322381404905616,-0.041190726437581385,-0.25819483670174226,0.166217172329278,0.21907253049186468,0.0900290510330795,-0.08108231684638237,-0.06492259278202103,0.07335795809695375,0.17147091640387344,0.28371555717111513,0.07387916087664165,0.015446411132435386,0.18348402258474247,0.12688516027429803,-0.08435056534152327,0.029864992136041636,0.10350197327283335,-0.06462029493008654,0.026254153235245156,0.10133563444095775,0.16091649090757007,0
org.apache.tools.ant.types.selectors.SelectorScanner,0.16994501839963858,-0.19715182551028987,0.2055450076002621,0.4901612035353877,-0.14265328128791163,0.39911537426624893,-0.1250948138713921,0.24314983214565164,0.006050690643573363,-0.03952210386112148,0.05158272837734781,-0.1368899784039768,-0.05761845253834682,0.1883004187932094,-0.09678804528263901,-0.4767644645382572,0.06491209438557449,-0.015208945397381787,-0.03612080255505338,-0.14702136582718478,-0.10803248605859678,-0.06143691968178686,-0.05278732885711532,-0.13196487899759518,-0.0048831671614264684,0.006494266448626193,0.02025560997507934,-0.14038013852638664,0.03429493961606831,-0.008877410216108656,-0.10028917159960131,0.04873026874076559,0
org.apache.tools.ant.PathTokenizer,0.2782798865991808,-0.4054216783325083,0.3939934331589087,-0.11409023535308775,0.012578104827950302,-0.1427323277185151,-0.07025927780384619,-0.0005306625358317061,-0.23270710260216917,0.02424424723632625,0.0737583460998375,-0.0402222008341802,0.26822899867875233,-0.07075264572477254,0.05444042684450884,0.14014757647398904,0.0854363368026738,-0.08517742666821473,-0.005376662301391482,0.18841275645911926,0.05878699386314483,-0.0002485594848874485,0.3560823870616272,-0.11110553373764472,-0.11975620483701922,0.12307199170377982,-0.06581241598095978,-0.0737849053544069,0.3277638377564572,-0.16056967070237088,0.052440997730936946,-0.18766719528338982,0
org.apache.tools.ant.taskdefs.Definer,0.186614323740332,-0.15821719482990187,0.13262312468309387,-0.10206983404395542,0.45397350336460923,0.0755993036810773,0.10206719852791216,-0.1426446768941913,0.029354170491760995,-0.2367163207098385,-0.2870381008192413,0.25856852656263213,-0.13240322697731108,-0.19344978715130906,-0.06141893666436953,-0.013452573312629817,-0.3118868554347881,0.13898180011324038,-0.12167325002794341,-0.10791404948679839,-0.15699328955884492,0.06404554810887426,0.02155568191344107,-0.039650549552556744,-0.12548060624736848,-0.0603757317861053,0.20764319072467086,-0.17672570571001905,0.16852638727724303,-0.2044712447959712,-0.2575538895629128,-0.02011699031818394,1
org.apache.tools.ant.input.InputHandler,0.16007789757370688,-0.0851437627367226,0.12036581857922106,-0.08654783818387982,0.29513526651315897,0.06987151203666192,0.13060092832523737,-0.024348628977741458,-0.09203157085944864,0.016705502933809326,0.10005971824622197,-0.05579446830193455,0.24592371321064388,-0.030843795395637016,0.1987208045074356,0.02645315435731119,0.6057790999359124,-0.29151399256057414,0.07495387539628691,0.22332287879369325,0.28550039697408736,-0.08500974150345544,0.022099182999154587,0.03581476454474191,0.10594181046015107,-0.18109983502345522,0.08888084909783533,-0.0776849227080711,0.15420028009765885,-0.08081012033213802,-0.1532384876409261,-0.048204923213687786,0
org.apache.tools.ant.taskdefs.condition.IsReference,0.18705037380552048,-0.2696828184041386,0.2522556881708091,-0.036879815200541004,0.09008340409499797,-0.15005807215561057,-0.14489120254319152,-0.17662306379337414,-0.19213275459190945,0.07494657091265275,-0.22660164343901912,-0.18674065899681713,0.014315451098703259,-0.0326196251630847,0.18497079824483045,0.11930378192520187,-0.08500964416645972,-0.11356796475558859,0.10042316249439724,0.17150631345108353,-0.01720914436280462,-0.07564045370193578,0.34351058407042884,-0.3302164678815036,-0.41267076615517095,0.0349258739873054,-0.07234338252786775,0.04957699422620202,0.22874336583133223,0.14448213134999696,0.020578335181669166,0.1431280021957245,0
org.apache.tools.ant.taskdefs.BUnzip2,0.08194794706334262,0.0045504445396535725,-0.11142538634146983,-0.01470188070848761,0.1821513742985081,-0.034819444756819036,-0.11596793410929733,0.23241019857730646,0.20400905873910005,0.07649321113006949,0.2638264696823744,0.334209090239716,-0.27098876111640396,-0.10278942127281833,0.3183187268935409,-0.11067965196151103,-0.16916681307900297,-0.19896947429556464,0.10239796296201868,0.08824077015537173,0.11517450418699442,-0.21218989078996406,-0.014774004178450019,-0.15471530587787027,-0.2244388456698668,-0.24838079970524277,0.06543223336193846,0.047903557414084204,-0.09989907174291235,-0.16877763942258106,-0.006487673668163254,-0.35546657061197057,0
org.apache.tools.ant.ProjectHelper,0.17570127319066392,-0.050227404502549304,0.020618068206731566,-0.10806888502521739,0.6374079253547236,0.12907518976846566,0.12999812400532806,-0.046489867755229425,0.09928647135722116,-0.30334181273331556,0.11568218271697818,-0.06461056778182377,-0.03806477972530803,-0.17482247936502915,-0.2605544400118612,-0.025905300109006702,-0.19131776964784789,0.2115736076837388,-0.129961280957503,-0.11832071180701317,-0.2414772811169902,0.08300585314986499,0.005815115328644464,-0.14243830483101758,-0.07195523681325111,0.09800966971301327,-0.050816257052327084,0.09970545564805004,-0.12175949534862254,-0.038399248701802724,-0.11180257448437605,0.1964783948272007,1
org.apache.tools.ant.taskdefs.KeySubst,0.07264439763503787,-0.13566496601266886,0.15334862936865082,-0.08734090344113868,0.0949035807713337,-0.007137766405248731,0.07614008316665505,0.027484695030701802,-0.09975310498736703,-0.07052035631262417,-0.0857353659450441,-0.07584157809468187,-0.3977935467777935,0.11423508762935952,0.007298685369495681,-0.0668005150297886,-0.015846769777815538,-0.033617369885407415,0.056893591973250265,-0.1405004423316275,0.5082365921604772,-0.018589091506277428,0.060027147043210126,0.3470984305614204,0.26079284232225075,0.14097133572909665,-0.0415008678509856,0.303034014156685,-0.23494772968072442,-0.0310601201590067,0.282690720050553,0.03355494282754148,0
org.apache.tools.ant.PropertyHelper,0.16624516996253183,-0.2384649314476725,0.3122991628654598,-0.13399741692481854,0.41075052657368916,0.12022602772268312,0.29185480183641294,-0.11447552026859031,-0.23041327760614172,-0.04797298323819991,-0.02708665329523902,-0.04284784368341852,0.03631171837053744,-0.0904235516793723,3.162988326941257e-05,0.13234759351739242,-0.11296288426572373,0.08025857478524943,-0.07423807589219292,0.008227928756591413,-0.11538313419606257,0.11592951831574858,0.04852406226782124,0.08391134904772364,-0.15660826682626092,-0.10044392384741214,0.2937984335519915,-0.21879206145103874,0.3592291790686266,-0.23514982796250933,-0.04410742582466735,-0.13253617122988595,1
org.apache.tools.ant.types.CommandlineJava,0.37963845857819195,-0.1804600982033307,-0.14304529202514385,-0.22725278364427196,-0.2395908662104055,-0.1999179785497542,-0.1730901906757558,0.0054054700000397676,-0.024192280447985364,-0.18544018384906502,0.27803458506743856,0.0651275018886348,-0.03452077576435355,0.03198086688110994,0.17168714389946824,0.16270677450791896,0.25994498374461533,0.3721838307707639,-0.2726553529412487,0.012666505486761235,0.08048019686860562,0.10481405510277575,0.038728884582319684,0.01538918352107044,-0.0627489163853571,-0.12159898169512054,0.14849778964606503,-0.13932007654029152,-0.029957724371300072,0.03811979651793765,-0.18431826245455432,0.2299073986097873,1
org.apache.tools.ant.filters.TailFilter,0.028703445229565156,-0.022757712250939942,0.02896130530051134,0.08450524874152854,0.02192969265993225,0.03405384123059861,-0.11185418852640043,-0.3062816478468929,0.06878031367289322,0.25032586192114203,0.14738508317854776,0.04181859200037667,-0.12454125822311973,0.03629294699017684,-0.15929538926089865,0.1870692326090185,-0.029741570545474223,0.016291104835422815,-0.01492973775842324,0.026201671172128186,0.20583833632530918,0.13930107175702058,-0.5670673513425722,-0.10750524036347237,-0.042609472992578036,0.28371212618401065,-0.15407647860490664,0.26129310524223065,0.17868543788018137,-0.05976564595705283,-0.3040957547708998,-0.12410716738966705,0
org.apache.tools.ant.filters.ExpandProperties,0.08381324803306843,-0.11648061768349753,0.14007083959066394,0.0061744751768697155,0.10917672914349413,-0.008297851255865614,-0.02892199974540642,-0.3119378935954833,-0.06638111576967241,0.3649190869265293,0.11992906139299626,0.020232591884866983,-0.09061787383867333,0.004815842969081006,-0.135078291533374,0.1694130730293932,0.029344475296341408,-0.009951068416806538,0.006774713243557665,0.10634688913591121,0.18166113209647325,0.17957319541174063,-0.4992119653668354,-0.09853572691801755,-0.061394190454413924,0.24014651915670537,-0.052941197910471784,0.1765402838737329,0.31152315233831746,-0.14980404971139877,-0.2748485847458809,-0.1230840142044651,0
org.apache.tools.ant.DirectoryScanner,0.33544307138084495,0.03443811003026758,-0.15888076868611967,0.38114060841611463,-0.03516292948680098,-0.28611946195205223,0.16682722032561736,0.3971925433617987,-0.1851036926555836,0.06252361549398884,-0.08366816962724762,-0.05980729624481789,-0.12558061126716866,-0.10566890198151194,-0.2654628290568422,0.4668662223983772,0.058657485632829166,-0.12299585586289846,0.07791990558611475,-0.008359079942016595,0.002798870754548114,-0.11412345959684875,-0.050096872019212424,0.02369176178815035,0.09994635138941482,-0.06864168356880394,0.0006921152839284159,-0.04984833503398315,-0.012924846563360085,-0.10103030185768816,-0.07526128433730223,0.09448838383227387,1
org.apache.tools.ant.taskdefs.PumpStreamHandler,0.270158558898583,-0.1260806249343994,-0.13001074562676385,-0.23116101269176015,-0.25172074568963465,0.04793812609899438,0.13762906851765963,0.1500317591498927,0.09906144477252814,0.08523994856750984,0.27652862057836547,0.07042161923876418,-0.22302521020562738,0.06937427456818857,0.006154099561014972,0.011513150957754759,0.2757019094283661,0.23052598278587055,-0.1722728988330881,-0.21130899018115332,0.19159887838835904,0.4140680631881467,0.0842829732152689,0.07053154345108044,-0.2978495352364639,-0.054406441999244576,0.16885120307269053,-0.010322402815862022,0.027174312992931555,0.14420203736577375,-0.12092251256655838,-0.01633214666237037,1
org.apache.tools.ant.types.ResourceLocation,0.16797181276322298,-0.04272499296824236,-0.09745988689485753,-0.03909828986019792,0.0008755199104162665,-0.17334232336682967,-0.356280213921792,-0.06314396139813779,-0.14307574088238742,-0.3147288915569207,0.030932431549279427,0.13008380682545018,0.06852585386730153,0.5412680441419684,-0.18362756512205997,-0.004731167985808608,-0.12834144470779982,-0.18508005661088903,0.09854019496709486,0.10474668449281363,-0.23434631047959914,0.2935223774669884,-0.19816921908230606,0.17899079380250246,0.09452302852128215,-0.10965109137896505,0.07064612567305376,0.03196402036694193,-0.10517598822938833,0.06376986811301673,0.05633857721705016,-0.009288604762175095,0
org.apache.tools.ant.taskdefs.War,0.2563540014599298,-0.36218299462566855,0.39238772878703954,0.20513159371534676,0.09156860343564983,0.27654219205406594,0.017653481069905833,0.21429763198191834,-0.25879607962423695,0.2746508328813228,-0.2375711578013107,0.091238162420811,-0.02545837764091024,0.0029214929850371303,-0.0665532952432686,-0.0040234419857333595,0.04355889285215151,0.03567369148767232,-0.03850439757081684,0.17886207942138166,-0.2622144830728542,-0.039058229362722345,-0.11742461204469419,0.2703627790504616,-0.17002974509500385,-0.09259057173603927,-0.07499681856514154,0.031841997158083696,0.010214154604541911,-0.01086884370452462,-0.15844886412683282,0.020676269428868726,0
org.apache.tools.ant.taskdefs.MacroDef,0.1398116291071515,-0.07997889117176882,0.04370482027281098,-0.10734059928959316,0.5355960463265539,0.12705945625016202,0.1645319027911745,-0.05851000629132311,0.1038905161054666,-0.22956876755728958,-0.02705216815643571,-0.090773569382816,-0.17812131176721122,-0.1013256861994507,-0.07711681427294487,0.004103533406403943,-0.4450948705311798,0.19170121571519264,-0.15168045019269447,-0.20347610230968233,-0.2689381120547718,-0.04651197286760014,0.010220884536515457,0.004022672468656541,-0.09572869372081275,0.03981299518285318,0.11542659016907918,-0.10242300589392707,0.09006749117065893,-0.20267973501603312,-0.1487647937686762,0.16411243676951642,0
org.apache.tools.ant.taskdefs.Copydir,0.15863592190766285,-0.2003811648292863,0.21957128577202267,0.41180528407838596,-0.15963668111948565,0.530105355143799,-0.3105774325774411,0.2505562042722176,0.06367930578804759,-0.05600770467733367,0.11615361196750733,-0.14663344006253412,0.009748823703014822,0.08830026395252683,-0.16380185182965862,-0.2383079715366889,0.01108768660100815,-0.041695508301169804,0.025726965342795664,-0.0020677616274291295,-0.14211956458608618,-0.18356750452680062,0.07310236927015078,-0.14338828453000727,0.11472711843738202,0.01439250796352973,0.06727101260968157,-0.07473432730780828,0.010739299888324344,0.01753110886364939,0.052766983635734385,-0.09188075033213419,0
org.apache.tools.ant.taskdefs.LoadProperties,0.1439353768748158,-0.10715556269060404,0.06127780898290094,-0.01239097404430186,0.1554276918687293,-0.08438739257330623,-0.15719814973399446,-0.2923948991516107,-0.05257996282190523,0.17898635598027002,0.06127660227494998,-0.0849451819348696,-0.35771831042629587,0.02760929462528438,-0.1298231633259338,-0.07554471103351901,-0.03555521817157067,0.04072386463939224,-0.007072494496317735,-0.21616711487332704,0.4473468101968397,0.12986375332168393,-0.297659081279505,0.240156962157302,0.16211525685188735,0.18403959562417188,-0.09053253823186423,0.36031780476173636,-0.08591632147991933,-0.039244506410663876,-0.07141289233650651,0.013795447672883312,0
org.apache.tools.ant.types.ZipFileSet,0.24140990900234144,-0.18980636632088538,0.18507722618702144,0.3295208780000033,0.0021935457187755173,0.16248019365106087,-0.18405825196088466,0.3032155023379766,-0.16842879007278125,0.1592307900317457,-0.22669684091479278,-0.1361399731294479,-0.06454797770824583,-0.08391229171515226,-0.21470647371665386,-0.3877948106114461,0.19716120571314633,0.0380440847718278,-0.06906936449878795,0.13832768037437018,-0.32779126620470544,-0.06474126898882021,-0.06978004547583531,0.09421771905495645,-0.2213947814479952,0.03359846240378158,-0.0668941295669274,-0.043931628446096424,0.05686682772594691,-0.024772498485578404,-0.03966841496030638,-0.16648015517016118,1
org.apache.tools.ant.Diagnostics,0.1959884054400426,-0.2696738467559011,0.29099136277836585,-0.13730903638261988,0.2016486564881118,-0.03789305328063239,0.15549561453118743,-0.04577499929750619,0.14863866147678062,0.08610628054834936,-0.23171767425202858,-0.024533071781629216,-0.07389712107984331,0.10514796112009758,0.18496356573379788,0.12480510101985695,0.030440594278980406,0.07320708805491581,-0.03095376562429359,0.32868726650276,-0.03907047139209557,0.041556727326857563,-0.0434001140229797,-0.19238704940753681,0.08194423605509539,-0.19583565966266864,-0.1766228254811604,0.026111984069146364,-0.21608875166584124,0.3343761779581449,-0.22813648710608997,0.3491904646717033,1
org.apache.tools.ant.util.MergingMapper,0.13808135401968713,-0.02672229254104214,-0.04229154949048915,0.23486011176708935,0.030323269730397978,-0.125574389359183,0.019141084943238698,0.230317492223507,-0.0991643030251711,0.10719227739877904,-0.2560407360947374,0.05628401236044929,0.10523012133152357,-0.20676284697800595,-0.30512239398152907,0.004458522199590497,-0.01589542940083769,0.12549002380189972,0.01780705794679849,0.2911577537061545,0.186171547140923,-0.33489136582892326,-0.0049626269050648585,0.09586849009317192,-0.1504429220613391,-0.011759758979684305,0.20159030678630782,0.06576831113223268,-0.1525729619961841,-0.5041103292649594,0.04369669865359032,0.10958981766647174,0
org.apache.tools.ant.types.selectors.modifiedselector.HashvalueAlgorithm,0.06498684712548965,-0.030147335037915706,0.04846487512303841,0.20363381722991003,0.01275376163783292,0.09163791239326859,0.018076827349462952,-0.3430486489946511,0.200484911127612,-0.05266830862241135,0.01842675998570503,0.3969574925019335,0.08005956737048324,0.06309250293250902,0.08068312847528175,0.04309627978163527,-0.039932532192534835,0.07430348940411655,-0.13558768024454576,0.2514764484195677,0.079156067176948,0.03651577082673611,0.1179349832143586,0.24110958640332839,0.007743201760122735,-0.15909318349776014,-0.12469974065958243,0.03234114951769657,-0.387829210833549,0.16709703049805325,-0.21833168332550476,-0.4104789033248413,0
org.apache.tools.ant.taskdefs.email.UUMailer,0.03884927608070053,-0.05019413869228815,0.058200537884300685,0.02739533843619583,0.08615734168841511,0.09003547740492475,-0.024384234463893897,0.09922304081538463,-0.09547732053187213,0.027911017073242457,-0.013627358273777571,-0.0759815339051526,-0.06019777056096991,0.26528757719015006,-0.05633161948638396,-0.14189264422572637,0.3946449604643758,-0.24987035931321414,0.17348780842875203,-0.1613694902694177,0.4319874133360499,-0.2712832662559015,-0.1860006470219903,-0.1052106965588651,0.1631804737657602,-0.20063302901734376,-0.07727344168840573,-0.3069239336991875,0.21153744134690178,-0.13686410713502095,0.20050030423919438,0.04214096428780676,0
org.apache.tools.ant.types.AbstractFileSet,0.3422424867575736,0.0071922629420208386,-0.1479303364981675,0.6218748161868299,-0.059797364188335755,-0.38431255608921416,0.38426991759509027,0.20418759561803232,-0.11540014965087603,-0.03523024300029453,-0.04362428024739229,-0.10555299829865471,-0.10333670005327508,-0.06370823458815843,-0.07516552313048692,0.19514830581346712,0.036435564346585264,-0.05631570051248661,0.029454664949287716,-0.11413087970735257,-0.0629063323470045,0.013190246937155406,0.0017593170341012696,-0.08477325858136305,-0.0496755456534275,0.07270024004800026,-0.07719816763287707,0.015022918648633227,-0.0006682128771445348,-0.0041020864622672735,0.00821308815624746,-0.061399279320261686,1
org.apache.tools.ant.taskdefs.MacroInstance,0.12436441837131394,-0.07515048660432523,0.06349274976835938,-0.119123391298149,0.5633048591090708,0.16100015279649954,0.22688467426148856,-0.06693923006316614,0.0011318325369587417,-0.3177953667694461,0.008522367110055275,-0.15982659183983436,-0.2671096651060866,-0.05284022633108642,-0.1969099569184503,0.025434074992179038,-0.3116381313621173,0.185338556451454,-0.09787856845300792,-0.29801020906031545,-0.05266529167792652,-0.06416977143234211,0.011161302605044103,0.14780761937423523,-0.005412783700203146,0.03406157139975577,0.14057690689429866,-0.10326701549872172,0.12370361765630376,-0.10392627797552632,0.02498067621715708,-0.06508483650363782,1
org.apache.tools.ant.taskdefs.MatchingTask,0.2547845233325154,-0.0594511704173167,-0.09939374529928466,0.6357769216416854,-0.1277955313920179,-0.2960400759039415,0.4497540384002162,-0.08880153008817525,-0.07566375710199634,-0.294957562268308,0.06707272317978229,-0.041116472501585864,0.0694555576624372,0.06679348383656687,0.042515720689858205,-0.1936483689264066,-0.05815294975464456,0.009057008281022065,0.0172260116527764,0.02166391566884112,0.07628019941253943,-0.023105407790835333,-0.12782478311345058,-0.01450565169733117,0.05128979935170778,-0.013250792058818026,0.007080359992808729,-0.002750113582380557,0.06803090394907264,0.01655573377513285,0.0669640595734688,0.12819431761363662,0
org.apache.tools.ant.taskdefs.Copy,0.1670762587068413,-0.14789261635738696,0.1527815216430603,0.2375837892999712,0.0037414435245345054,0.17315085201133673,-0.22613949379918205,0.17070977437333837,-0.1478228501092944,0.15178475557875085,-0.006816557390416017,-0.028901916984714303,-0.09314485795628931,-0.10175071916388617,-0.23069176036371414,-0.37927494089594077,-0.06569414089642599,0.20749616228706985,-0.04256773213138522,0.1678943378348907,0.23294101665608474,-0.08703122831665218,-0.18089924359280216,-0.030565768964133076,0.09926255249258548,0.19746108744368202,0.26070975029044063,0.028146979242188706,-0.2255900776267285,-0.349251794596752,-0.08772008648899006,0.16506262771686378,1
org.apache.tools.ant.types.DTDLocation,0.12596959714211617,-0.06308768002868895,-0.006077826950468912,0.03297710382894895,-0.0015342942883430878,-0.29055107358801463,-0.240961311178085,0.058934819283974246,-0.10586604823488746,-0.3162096069623169,0.018522723655945195,0.19206105154203135,0.004610099354429064,0.4108048027969437,-0.21374113711265885,0.1593935088274316,-0.03549805668219386,-0.3708470059830744,0.15639259233880293,0.13646086167569466,-0.3126893909750156,0.17782430762449059,-0.014974562766785366,0.12417987198017723,0.1322385907128317,0.18700582957755627,0.0808009220707811,0.08383322947351929,0.0944764813917512,-0.13512318654305244,-0.021064293524626146,-0.15561972800644355,0
org.apache.tools.ant.taskdefs.Typedef,0.10985792552535532,-0.05480674760448413,0.022612824650598336,-0.07892616570817623,0.4348313735541267,0.06211797199468209,0.06659230715597207,-0.10497288399728968,0.08424822162679581,-0.2561001128515719,-0.14797682942077323,0.06503997813772369,-0.10326258126303839,-0.19045284740247642,-0.1155143677668329,-0.03348951528510551,-0.3420838611282548,0.16079546139433026,-0.1633133390737066,-0.20210963791577208,-0.18523975715209873,0.017629076215291292,0.09746622487372761,-0.03722896698094385,-0.10982043709910798,0.11173300544148475,0.175042187276024,-0.022580430708475423,-0.05220771191057313,-0.4759588636425376,-0.1901296003326611,0.18047308274436405,0
org.apache.tools.ant.types.resolver.ApacheCatalog,0.1354875921432534,-0.023426514755252863,-0.12429141537941067,-0.00704621558495683,0.06583343903759373,-0.15031541997842732,-0.31871995169592854,-0.128879447573232,-0.10749142440649626,-0.13828905635686126,-0.1359053325994377,-0.026414128433573495,0.1872162436307773,0.33641574032904437,-0.024135477323495927,-0.002981037360518321,-0.19671557525811126,-0.14221243594830307,0.06165363017127002,-0.052963763028236875,-0.356949765433949,0.1684702882373687,-0.02032500932128562,0.16000986561734362,0.05849863922132178,0.21895813554161658,0.11840719549655598,0.18992402605112926,-0.1961816740400085,0.35011049460662474,0.13026529392211134,-0.308193012316314,0
org.apache.tools.ant.taskdefs.cvslib.ChangeLogWriter,0.2819931957175808,-0.02429853158895162,-0.29760887190890095,0.07497182656241805,-0.19522103741081379,0.06349846813790627,0.31302018340109006,0.30459635179563277,-0.1982605684162351,0.1469690864111699,-0.007357881758813257,-0.12560717852576886,-0.38835105355415006,-0.09614400929619887,-0.1854185474668943,0.3392639553527338,0.08533341371585348,-0.20677237764214873,0.11041218937650685,-0.16575550855707205,-0.04594374584782913,0.06781746342686484,-0.020465500460639417,-0.12510320515520537,-0.23601475616469192,-0.0515233780376031,-0.037912429936639465,0.06781207684375608,0.0333966377666318,-0.09920880300053658,0.12532498253206656,-0.054547362409896806,0
org.apache.tools.ant.taskdefs.compilers.Jikes,0.2561940727576376,-0.3298280816023833,0.26639868697567143,-0.2407629219125969,-0.1932937132676221,-0.21788384830322005,0.1308139992017378,0.019898335417759913,0.27066933730853143,0.003936213520327275,0.12079610752457577,-0.05900025862600186,0.29017151433912824,-0.2649716420896864,-0.10011172125403492,0.09144577576057467,-0.1896173130048573,-0.04907069429371125,0.09250006604103819,0.20402649911411644,-0.03527399573234984,-0.19819128209524559,-0.05200375338514068,0.02697384539469647,0.28473473847952196,-0.07677116533322624,-0.07857682161280603,-0.12011308832678062,0.23973731018538424,0.030519969572461364,-0.10268905225640881,0.14537276021036602,1
org.apache.tools.ant.taskdefs.BuildNumber,0.21219994991729835,-0.39577174679882254,0.44738035551917077,-0.13681583063858532,0.20768260265120994,0.05279689634556634,0.219384726476477,-0.0075976542242744,-0.30945413438806696,0.18679588692837693,-0.14426818505807662,0.07738237556765172,-0.1914495069982722,0.1481042561991222,0.13634683988752389,0.06337018599553818,-0.12016928923799619,0.004155215722353723,0.04019784779886094,0.09327550641557132,0.2710374865309823,0.04791470933583728,0.08832350120486014,0.2134848792043968,0.1607480815193562,0.07308821223922032,0.029316521910220158,0.18568931343010356,-0.11478261863864202,0.014192120924636112,0.08625049766352282,0.07393072179731636,0
org.apache.tools.ant.types.Reference,0.29775233043993077,-0.10520995221622644,-0.10112822042964925,0.13588835586845222,0.08435038470518258,-0.29833230330618543,-0.42503750590406814,-0.1442724294212906,-0.06661542431777859,-0.050799730596959296,-0.11938323088885139,-0.1928459654293395,0.2375704194492956,-0.28813482678785546,0.12283657761355188,-0.07126517982500329,-0.07516255427628352,0.10093061802311862,-0.059264667520652854,-0.3000870225991866,0.09844163783590346,0.17096547228954595,-0.3470701731521807,0.13654334046786115,-0.05194916541638546,-0.13889791422652004,0.041925411326331964,-0.020713222852591553,-0.02654322642117501,0.11442177519165136,-0.1569726367739792,0.0765906491803842,0
org.apache.tools.ant.taskdefs.Chmod,0.33557996445267224,-0.42234716175117226,0.3726457765461965,0.04231261466220437,-0.25715111963005916,0.04707532031244061,0.13184040435455568,0.2667143814057745,0.30155387283931195,0.16216079068894165,-0.008142392994604527,-0.10050506724112118,0.16946757375534757,-0.047969400812277144,-0.12212833788172744,-0.26578868452485405,0.05795991841116419,0.0014137871197533996,-0.032414385337272617,-0.2486432429366884,-0.09856931982169015,0.1398278079321829,-0.102400830358923,-0.06748386443684336,-0.16579414797848355,-0.09667971329636053,-0.0032326926082048967,-0.0677236648985789,0.06087772418786129,-0.07358158450748843,-0.08009072109231521,-0.002251959392464214,0
org.apache.tools.ant.taskdefs.AntlibDefinition,0.18562302150873036,-0.15907692022802739,0.13234386744903034,-0.1379469970129965,0.5082252148639912,0.059913126819137213,0.12695263416436728,-0.08538586424094653,0.05983402115173455,-0.22923623626338951,-0.12738853255591004,-0.09620690016543096,-0.2757316674843659,-0.07339246601499341,-0.011916090499742764,-0.015536835223451234,-0.4448963352667073,0.17007869810910142,-0.12820353998585995,-0.2212734830835578,-0.04671334776897238,-0.0006348517012692415,-0.007098530610930863,0.11612743756737641,-0.03772704603872017,0.04020518773816342,0.13464024454328305,0.04545846449881141,-0.03294085785148393,-0.2203751805514618,-0.15649040233674005,0.22280816380812749,0
org.apache.tools.ant.util.PackageNameMapper,0.04912292183688815,-0.04424192510676016,0.03102492284239897,0.06386022987943926,-0.029453073145525033,0.018922245005883336,-0.08053052137951561,0.030471644225669368,-0.09558044531033924,0.0024314399687331936,-0.1767548351347487,-0.00987472740394718,0.09345842071981501,-0.36239864450713083,-0.19292437721562036,-0.15957385804113813,-0.08521888169414703,0.16950898622264132,0.05045936629912892,0.4584860719772614,0.12444985827995024,-0.38787099138906767,-0.0866385504103794,0.16031238147522572,0.0968770515757482,0.030019323589735948,0.3081853598173936,-0.023657974526574806,-0.07942174894291329,-0.3846478137278731,-0.15177847340081577,0.08778179955306904,0
org.apache.tools.ant.util.LineTokenizer,0.11129418498056243,-0.08360033467953294,0.07509033421950924,0.13269985248851748,0.07535902845887257,-0.20519394596997936,-0.02886682461133793,-0.32389876789364247,-0.2157984021949373,0.3808757427370915,0.26339476733988365,0.11727230368552594,-0.20590949491207847,0.11358677075197243,-0.4388831035418758,0.06835957242830867,0.042195864966269925,-0.0796131587372052,0.05595042567900307,0.01715596876169205,-0.0909540930714261,-0.20373538435341632,0.43095785450162954,-0.059296780232346136,-0.007647740969592621,0.03196973372729181,-0.13176470154499897,-0.0006560438861855334,0.05796743313951925,-0.04452223623254064,-0.020409248653321853,0.04154040912585358,0
org.apache.tools.ant.TaskAdapter,0.17976499965630396,-0.2634609992351975,0.28776814537792283,-0.1612174489967172,0.4302731677347161,0.08238909526163883,0.2479362198370619,-0.06109749028250091,-0.15841747657637775,-0.09720109188030904,-0.10417619928024713,-0.09483491704200869,-0.24176288319649422,0.010072037681562009,0.005555393040739709,0.010939426547569712,-0.16701165391214048,0.05022306022501441,-0.030382330288426084,-0.08079408698136797,0.24905237629765403,0.07587163561617095,0.08709581081018086,0.2783242598721189,0.07266572313653646,0.08123281034824723,0.17026575241978165,0.11940001363222055,-0.016044635904029502,-0.3718798016132417,0.1242997170257685,0.1393674697488596,0
org.apache.tools.ant.taskdefs.rmic.DefaultRmicAdapter,0.3347759152124998,-0.2666721819587388,0.1143756139433784,-0.18928942714343758,-0.10045934140463629,-0.154478963805845,-0.030251066812716387,0.020496768146845458,0.15042161734097317,0.04394685824833545,0.10939233460486188,-0.02622803465586135,0.33457917183945485,-0.1903964095520122,-0.06672087494367859,-0.0981290046779209,-0.142457444697527,-0.020472666690706715,0.07600089717555801,0.38349477238396995,0.12423642401085944,-0.3071782239403691,0.04837623331089835,0.02413006440730189,0.09140663152324985,0.21529402503563488,0.1886427027462526,0.03692117251093137,0.078929039525764,-0.37390185808464643,0.07775601388597612,0.055789738610374034,0
org.apache.tools.ant.types.Parameter,0.09709286865416411,-0.024730827191752097,-0.029740531610666338,0.3113963039244988,0.01779183857711961,-0.14978524477575272,0.14926120781154395,-0.5756379292830942,0.14633053424354278,0.20703663963666424,0.18931528988523427,0.12329310945746005,-0.10101274013938707,0.09137838911214849,-0.05658919648028702,-0.23431334924812972,0.08984794762026989,-0.04340642948183381,-0.02131113714702564,-0.10942324332460068,-0.11952202655413721,-0.09190852392862796,0.3493725570221075,0.2501459839222347,0.11291308835249593,-0.19562627358323045,-0.03854228486678003,0.03630110340099316,0.008828175848790611,-0.015963396770903557,-0.19387996492343762,0.047396290474180314,0
org.apache.tools.ant.IntrospectionHelper,0.21065186301158612,-0.15729472396851313,0.15460285163069143,-0.15300857022392572,0.5830594691555032,0.09088394568377475,0.19206732225649198,-0.12582768660605706,0.0001309925408381686,-0.33252471047079385,-0.022201889898643426,-0.08963136012761365,-0.10264853160011121,-0.10652670623653804,-0.1269836615959638,0.06720567367273912,-0.1850041694863972,0.08653602405011701,-0.08052977255657573,-0.04352669468311473,-0.11859329847168938,-0.021562254192810805,0.037080935951638215,-0.011684066091366114,-0.06445867030529709,-0.12678304157825604,0.1674387945666635,-0.21454465746728438,0.10585117041816737,-0.2609547275029141,-0.11320733893749567,-0.2616430039620738,1
org.apache.tools.ant.taskdefs.compilers.Javac12,0.24251674538388696,-0.305882994493128,0.24566871990383066,-0.2379275351667239,-0.13384836889310955,-0.07366450390859454,0.2780307780796719,0.029306435781758778,0.2147149426828243,0.12513603654825903,0.08703495431337042,-0.014234069127496378,0.18564152585644644,-0.2124672200752947,-0.06235983106363607,0.06684400429034343,-0.191128112154483,0.016177555366859848,0.08822985576364051,0.2330844500009726,0.06593598317398107,-0.12737276203956072,-0.09242688811644632,0.06906668123284727,0.273960083174395,-0.20723434896563403,-0.02616415177808158,-0.1953561442056945,0.28936834813568013,0.07066897749602727,-0.14741612731613443,0.2675037889993079,0
org.apache.tools.ant.types.FileSet,0.3182312101403212,0.025210225493089638,-0.16378020018264644,0.3428947681034629,-0.0074273743375173505,-0.2760803827952112,0.11916751087868316,0.4117768756773902,-0.15090104719308986,0.13220042175111582,-0.12259430845116481,-0.08503032270465223,-0.16817122865369585,-0.13333651969663216,-0.20471852371877003,0.5045826626036249,0.06874612012916659,-0.13335374282239237,0.06902790466880393,-0.16200974578060323,-0.0764631690681416,0.011571874509551366,-0.004143609697696066,-0.026662205805926875,0.03922043236146956,-0.029933805762186242,-0.07217516695675623,-0.018465252873088533,-0.00938017247147454,-0.06552954731391032,-0.11588554403747948,-0.05048678878916037,0
org.apache.tools.ant.input.MultipleChoiceInputRequest,0.1327334722596923,0.008452338532427502,-0.07272569011075682,-0.04850385319107147,0.24814739257419405,0.062327311496966575,0.03913608957526285,0.0830681836890552,0.12462158388833233,0.1380337276491348,0.09752740501366884,0.04580560939123532,0.13472088302759258,0.004768518454844686,0.38019871845080083,-0.08420581461126828,0.39625975142199826,-0.26768238094406077,0.052053284269892156,0.19431920314680431,0.28570188941864727,-0.200350090945039,0.0677890836085216,0.0550727892536909,0.12938501163780386,-0.12908460500045635,0.20075427027177606,-0.04837050936185352,0.26992720343474547,-0.07990006673201422,-0.22467064517408677,-0.28365658378945807,0
org.apache.tools.mail.MailMessage,0.06972399945401782,-0.011875523706272031,-0.0029496091942760832,-0.02426030421564838,0.19081653549940966,0.04346677400493842,0.007155709100512357,0.010818199376465948,0.00820540769389331,-0.021404189814857085,0.04464687297169492,-0.10141607356775423,0.18894817424240667,0.23577835137212053,-0.069011902843911,-0.011530602389165272,0.5824179739217491,-0.23877253774660206,0.16818082033634535,-0.029951079760540233,0.38990923375149367,-0.22185595032282646,-0.2219293969594745,-0.10214633492876989,0.16799705788965838,-0.2281180560974652,-0.14383657790925145,-0.18016353118056613,-0.08228148943559564,0.023333968032432737,0.11532297463488432,0.08109098378773888,0
org.apache.tools.ant.types.PropertySet,0.2666498753767014,-0.19426243899196602,0.04147583083018118,-0.013682304927502035,0.052129617271005776,-0.25188197013279556,-0.4117640723319509,-0.2063524794886768,-0.07468737005593515,-0.12049066934256603,-0.1342336160463555,0.0016966712696425267,-0.034467121841391876,-0.3216974709334402,0.2831181694195561,0.040838021854778236,0.16042497187631313,0.3345141255517643,-0.1485592097652418,0.06216039923179875,0.028217215514687363,0.025042878594130683,-0.05644093866834325,-0.14784414426273934,-0.16234512371757348,-0.07466814775485153,0.24730409583560586,-0.1240070689684727,-0.25747971355148175,0.0379152054896586,0.14175996404397684,-0.002607040990596343,1
org.apache.tools.ant.taskdefs.XSLTLogger,0.10171328960629568,-0.03093060794463592,-0.006502300763826301,0.08135492979774289,0.06150527766682212,-0.19545982782210714,-0.19122821170347604,-0.048472189551737044,-0.12561893816721814,-0.08966660674953765,-0.03479889908016624,-0.14556407497852294,0.20204222519608034,-0.1538039563863482,0.06759775741712754,-0.07198301338577613,-0.1039606528906368,0.19857267920877741,-0.1659871476835066,0.1545310604775375,-0.07850341849384021,0.2736599238318978,-0.15751061486101173,-0.0991392690638129,0.09159139582326327,-0.03959951816657688,0.028805588092528644,0.07504514914253536,-0.22037646629147944,0.69550092241886,-0.030240937750170886,-0.11705575838325963,0
org.apache.tools.ant.DemuxOutputStream,0.19399089815858506,-0.21444456946123744,0.36522632520779946,-0.13351950296340268,0.2909665380270812,0.0988862117693839,0.2881152257427327,-0.07819926793588956,-0.24452873125670896,0.1067264036266904,-0.004539993275535338,-0.022994436255218145,0.2019725876699374,-0.047914291018008495,0.17430513963191602,0.14287908138651892,0.34412606572945625,-0.15660004372131509,0.05223257712163316,0.2509432300004179,0.10077549676055561,0.057293999955101274,0.031801607679739656,0.030047293083144817,-0.03975319590531854,-0.15137474892651792,0.19265679263114413,-0.1543440528736389,0.2592396600411947,-0.1620804502196576,-0.06490063032380412,0.09411660606333642,0
org.apache.tools.ant.DefaultLogger,0.14288300115827945,-0.14235307237103254,0.13971214239461088,-0.11758298176355232,0.43048140577941185,0.0754739416594102,0.16830548553452251,-0.03576233213572671,-0.023380320013485376,-0.15660494773218286,0.06431572552354117,-0.15304946042508094,-0.028409092670118898,0.03177488150786898,0.01099172537251605,0.07577830289566874,0.5080735571700431,-0.16040545104031328,0.08909057421244054,0.007152489526328589,0.3137937097963821,-0.12733973973777216,-0.16442733015236413,0.0033144245513925994,0.12446589045581853,-0.24852325256062777,-0.05258990956616258,-0.15990962181704246,-0.09002888561897515,0.29031663295711835,0.06446297187936534,-0.09655745179149834,1
org.apache.tools.tar.TarInputStream,0.08213989420266651,0.028520945457116573,0.06631479162069591,0.10354664998856844,0.04070893064510815,0.02515640186942194,-0.048295661617086684,0.20833251948899878,-0.05570870436159319,0.0801391075348725,0.00216502035679701,0.1816225555545526,-0.12812547507078278,-0.033783723471814145,-0.3108686767180286,-0.09806798656536256,-0.01743063515167193,0.34156753368600584,-0.07826226947333526,0.4889185972767926,-0.058308875634896666,0.12321699436386664,0.039064186578391766,-0.1251726929398345,0.03353316327944062,-0.1868978387738775,-0.07283421076014637,0.1800975170943413,-0.23237815283973928,0.02947358383329011,-0.03503430696944503,-0.4849305921757959,1
org.apache.tools.ant.types.selectors.DifferentSelector,0.13069623821500576,-0.15103366223947892,0.1750107716286343,0.456226414843534,-0.1038400625330989,0.5939103088510616,-0.22744977506131347,0.018373516426858093,0.11291651410894708,-0.09474437532143264,0.21945007723633705,0.02915955683598797,0.08987728790257365,-0.029130845917519143,0.007651210818127287,0.31249259584347105,-0.12063876053681317,0.08785004234758134,-0.0010583120281057277,0.0012700674066702547,0.017963995780507648,-0.007125107744927154,0.1640635827295512,0.11643869844860323,0.06977427461007955,-0.03197157061790207,0.026809298950886913,0.018709558017087558,-0.1584209406861556,-0.0075496199448577125,0.18194362206624423,-0.006434351610272121,0
org.apache.tools.ant.BuildListener,0.08621099639912776,0.00020816403392374353,0.01093201115711204,-0.04820062645170965,0.279943145123294,0.06654231469065577,0.027567253555539527,-0.03247921083123749,0.036959951999289455,-0.1564149844444952,0.16182410957039797,-0.12251272728857285,0.23411008069351974,-0.09502141075907797,-0.021338940497953637,-0.027508666261109132,0.6643200063623975,-0.24258493798932315,0.09313972563555316,0.12598241710596197,0.09749181273362788,-0.10956226199837275,-0.03259851533192844,-0.17270893380642602,0.05777615232357514,0.03456933408073991,-0.21971715812648074,0.12228878260849217,-0.2666080736709073,0.09435263518332385,-0.07263362856301976,0.20808948333717034,0
org.apache.tools.ant.taskdefs.condition.Contains,0.10087969358130285,-0.17391583374078268,0.19097641546730418,-0.04914206051109068,0.06156889405479448,-0.020786422155967575,0.059749986800003686,-0.028743712756554594,0.002016385044015193,0.17434912181705223,-0.3166024118052152,-0.021483944012212576,-0.014525253534804388,0.23067372870514644,0.10479302124588005,0.09200661147697131,-0.186466074155791,-0.05731001212783785,0.1122486434070879,0.17515600643414742,0.0900480338260517,-0.09413521734423987,0.14164687605659923,-0.3341906776983465,-0.2769878481014265,-0.21562591772114947,-0.1313970484465876,0.036767451454637244,0.1689448837710131,0.24802234793819686,-0.19051774444781916,0.4581081082277162,0
org.apache.tools.ant.taskdefs.Antlib,0.19685130148431373,-0.23018678882516652,0.2285593407061639,-0.1627572658775998,0.5662590501173425,0.10872440501512314,0.24325800001816922,-0.06836240115352041,0.009341696485921803,-0.20874976703032305,-0.11263973053772415,-0.05607429475726029,-0.2943480793437891,-0.04131272762183906,-0.09040983000356911,0.03191499060484652,-0.3689361571961914,0.13979847985366262,-0.08328407279491493,-0.12049296300914776,-0.025653945968169462,0.027345688810176474,0.07987430963361504,0.0554324344724999,-0.02890085701082427,0.07099577478727083,0.08754394602326881,0.08720540740999391,-0.057730623310776934,-0.17334719469072007,-0.02443018172930959,0.1818960206438035,0
org.apache.tools.ant.helper.ProjectHelperImpl,0.21476302330558072,-0.10944551018066916,0.10156012187119226,-0.12772990920023786,0.6588990817837656,0.21088467730898908,0.2341827614584408,-0.0802828004251244,-0.01884106074752101,-0.18138967326403915,0.028304759446612253,-0.07851174897689951,0.06048358599472473,0.02399615269442528,-0.2949710413456349,0.061920032816376834,-0.27275994379749524,0.18626347253155676,-0.03275510890990187,-0.031582106637660264,-0.2727145798459005,0.06691491994629188,-0.014157358749527013,-0.07517507042651549,-0.06056083966383726,0.0721557035634555,-0.025797122686897777,0.009001298487766622,0.026922499835627507,0.176100097176717,-0.03785552924115925,-0.0375327753932012,1
org.apache.tools.ant.types.selectors.modifiedselector.PropertiesfileCache,0.08077362315211065,-0.029774534804261774,0.015361642893099546,0.3298875551025934,-0.012407270058287527,-0.03557374994442974,0.22054649044224478,-0.39484906388756424,0.18593222891402078,-0.1614698919589062,0.026955320710962634,0.4140209690960147,0.067457756358692,0.0874441636498074,0.13721833015867566,-0.18233910804677342,0.004111234249219384,0.047076673130131676,-0.1211271955609691,0.17554798286157455,0.08971117791914954,0.0229767763254453,0.07544786944556611,0.16891100787603835,-0.03110054067999439,-0.05131350319351452,-0.11732756172495824,0.03866210637063995,-0.24971903832131107,0.15356069909609682,-0.15163743908417995,-0.4027257736643171,1
org.apache.tools.ant.taskdefs.cvslib.CvsUser,0.28928035003439584,0.005623130485355848,-0.356120152642497,0.08481173126720276,-0.17065247157479677,0.035345727521809624,0.3065164695684723,0.24947226546188922,-0.2548823141911987,0.11512480487505185,-0.019442128120730158,-0.09856185913529589,-0.3674442001293401,-0.12562654422470845,-0.13519096892911034,0.42596293070400526,0.0688204397891525,-0.1961968653724415,0.10479197935307742,-0.08482431223879228,-0.04356257404198466,0.024010780429772085,0.017972091678276732,-0.14248749682063716,-0.19518088391978725,-0.02787676958320578,-0.07629437649468838,0.06522615850494355,0.044804413211778096,-0.11386829213272105,0.07664298294371547,-0.05078835146384408,0
org.apache.tools.ant.taskdefs.BZip2,0.1436497262654865,0.015184361907800944,-0.2076776285961924,-0.014267544721275094,0.2056426953736992,0.007387388697056926,-0.09097413840214905,0.1919081835514979,0.2367705057758582,0.15213673840410494,0.11152398023522704,0.3059680292349045,-0.17467296071300661,-0.017529548358595423,0.36175554622587625,-0.10802884666959128,-0.21186438009884578,-0.22069648874761302,0.1130020284051562,-0.03582772830514126,0.0357143446847198,-0.3353131647708567,0.004489696548680207,-0.09963434048697853,-0.16147305303936757,-0.0728076135332807,0.15617283646473254,0.039606331850455846,-0.057156742487118974,-0.130737847649214,-0.028479140811515147,-0.4241808377700654,0
org.apache.tools.ant.TypeAdapter,0.1426858313273512,-0.10331754868832269,0.0955259969160094,-0.11919025438068613,0.585620879348008,0.16017691425119576,0.22643011476409586,-0.06955404537329841,-0.011282242167922263,-0.24375090245541606,0.0734598396852967,-0.07804257865090625,-0.07950000046491724,-0.09703072946696026,-0.15979297704461556,0.048904731897943025,-0.3253562421651881,0.16890037767343935,-0.10942193708389894,-0.16396765442479858,-0.201809826040083,0.005163950709342304,-0.003729340324254075,0.028891569608347795,-0.16670352982966646,-0.026445715695170534,0.1840514443942171,-0.15234197144053557,0.23878631990304813,-0.19800715630936933,-0.08829053177724679,0.042307581863014455,0
org.apache.tools.ant.taskdefs.ProcessDestroyer,0.15600288851306443,-0.19178022763699018,0.13469096754451493,-0.22715215335475317,-0.27490144829228824,-0.0866797847093349,0.24432215186509063,0.17681832629468658,0.35369049640371475,0.1285923269214085,0.22092641631336224,0.019071649127189415,0.08534048271255897,-0.06445625276739216,-0.16881894427454955,-0.040477583052777336,0.19372650530964153,0.10932141341113703,-0.10702789646053068,-0.3316958105991018,0.041192020701532606,0.3559354666499196,0.023513277115040053,0.18544000750115852,-0.21232039708295544,-0.015561636039126152,0.2172145294087314,0.012490932638393378,0.08278895612270928,-0.13587348677904273,-0.020364397079891083,-0.10021917626523313,0
org.apache.tools.ant.types.selectors.PresentSelector,0.13394709445255482,-0.13170671889736682,0.12156591230661312,0.46598772288655693,-0.10952079254760647,0.504568887972203,-0.22877609592745643,-0.06453024296455687,0.21035013336483374,-0.1471582275413808,0.055680847929674905,0.05628577603233148,0.11195233304072473,-0.15845710486011363,0.061878383317339095,0.2921284310542271,-0.083694077895663,0.11892437700925347,-0.0035142889320914227,0.13052249819886488,0.1136185162511941,-0.036428027190974925,0.052644701555483814,0.12345364123440504,0.012595408526061575,-0.06463251993236749,0.19658497722592566,-0.0360232625037928,-0.18988368623195498,-0.15334113314809125,0.08088280798163916,0.17287298677926613,0
org.apache.tools.ant.types.FilterSetCollection,0.20210875137995107,-0.19240367038594347,0.2152423667011185,0.07853083842431616,0.15374510547970546,-0.0354738376775053,0.043343220662234526,0.07589097916942326,-0.41863358234698295,0.2488415841450457,0.08074311771897917,0.12245509644540674,0.1291728259318509,-0.19695114096011598,-0.14271697473578449,0.009496439307081878,-0.14028104426625784,0.2146568775489227,-0.01921098370550547,0.33655432630545956,0.19788965966583946,0.00134035822179932,0.0772386893095564,0.12690952536983047,0.18825545302251476,0.12384180899636854,0.31234448949510657,-0.02587256371054614,-0.07271518192965215,-0.3037819219890637,0.07801644641773493,0.09584783123067986,0
org.apache.tools.ant.taskdefs.GenerateKey,0.35146802506606184,-0.4773536907073587,0.4273534087826533,-0.31326578569185815,-0.0657707664343205,-0.0888839163910692,0.21290209686460282,0.06124157069533417,0.11004427001525044,0.0805387268352674,0.003503442903299218,-0.012488052994931286,-0.0918228739242245,0.12313660567458014,0.09764458918764748,-0.03492740161993614,-0.06794346752020308,0.07928397804236363,-0.02586365211391242,0.18005337214516845,0.2729072819309258,0.0811775716707861,0.0035809336930973986,0.17408776066337275,0.2362219920818436,-0.056272734764109794,0.01941419247124345,0.11796691780902552,-0.09493384564812431,0.11700705481462659,-0.016095344258045437,-0.0426584687433275,0
org.apache.tools.ant.types.selectors.modifiedselector.Cache,0.08077362154741223,-0.02977453429792934,0.015361640969889555,0.32988754836240564,-0.012407271352772885,-0.03557375322906496,0.22054646656865373,-0.3948490679752494,0.1859321804961813,-0.16146990552573448,0.026955360185116312,0.41402093466484163,0.06745784981906774,0.08744420370682375,0.137218334953954,-0.1823392580762233,0.004111228566382545,0.04707680977410948,-0.12112711902990578,0.1755477271862603,0.08971121097770857,0.022976602279639276,0.07544753785218629,0.16891125728103337,-0.031100540045455663,-0.05131351959401022,-0.11732705596528015,0.038661974024033666,-0.24971908545840776,0.15356109253637504,-0.15163681073519222,-0.4027260380936768,0
org.apache.tools.ant.taskdefs.email.EmailTask,0.14946735628811958,-0.19345113248076154,0.20991451299830566,0.20739588541102513,-0.016312511439644763,0.34026616680943955,-0.20421121630922076,0.27261766778446656,-0.05425567007272516,0.026057342180694585,-0.07960365451910428,-0.0759258871044494,-0.22472881917101958,0.23522249185508276,-0.14188974081953654,-0.5122436240201047,0.20063706501577788,-0.09714463118294124,0.02376677820968981,-0.26272103805050884,0.17640269354389326,-0.07764243611432106,-0.10410462874073394,-0.05344040708930953,0.11487398433203644,-0.012815671498625995,-0.04142473844989161,-0.1440093076031929,0.08171205935242391,-0.018643861437340252,0.02599960665129131,0.05806357818992316,0
org.apache.tools.ant.util.FlatFileNameMapper,0.09081496304331987,-0.040628069462046175,0.023056065822468212,0.14565893648648232,0.016122657917222474,-0.07904728953712223,-0.06255063293026543,0.10363610636664305,-0.10593403047667437,0.11434544909996835,-0.07104083168152657,0.013554457130097858,-0.032861934965550225,-0.28213424277776533,-0.2005306083354991,-0.02777348702884755,-0.07733080530207832,0.18813511997245155,0.00048051598488786277,0.37313517243902805,0.16494882946031247,-0.2142388279916394,0.05186342320957476,0.02832555011149816,0.03274702775376048,0.06326159326704836,0.3632629136890932,-0.03974754609928663,-0.2659148997118823,-0.49105479394534335,0.05041427607484545,0.29291063978930865,0
org.apache.tools.ant.taskdefs.Transform,0.25160619383549676,-0.11056909333014538,-0.08141947563315124,0.15695519984613704,-0.18765094625015505,-0.13756965847712785,0.09845876490718901,0.2478560024699636,-0.07965660373257626,0.0700839614954416,-0.3483376588317438,0.050620784248633116,-0.04965570471665743,-0.4426653731879301,-0.3483886313973918,0.24481856024048287,0.11159393359825862,0.023724470734034893,0.03631788520795009,-0.1345930445178018,0.022646442632809228,0.017928184970364924,0.060245642428807096,-0.09376382416080914,-0.10046724013433944,0.07596435002338087,0.1285472092980885,-0.03599614226436536,-0.078360282759598,-0.36290339324284926,-0.04722367586741223,0.1832830089725601,0
org.apache.tools.ant.util.GlobPatternMapper,0.11176165892622449,-0.044208322631398365,-0.011030256938565082,0.11811980562028472,-0.028355949178574116,-0.08225282956595606,-0.0522507801681895,0.07522971231981367,-0.059782269500989194,-0.0016346172192286124,-0.17750092526267963,0.06545181298350455,0.16803108334686576,-0.40977765270684335,-0.2555420774904148,-0.08684778764939584,-0.03850093987297372,0.16858989886840775,0.0319015198168784,0.36334812261287586,0.13715086165430956,-0.33101885485574833,-0.1366161126114188,0.23197636116027906,0.1590352501841025,0.04378955417916981,0.24697153878839037,-0.059994835787617204,0.0284454075654307,-0.34063537115584913,-0.12303138140174967,0.24407075977382237,0
org.apache.tools.mail.ErrorInQuitException,0.026472334344851873,-0.03143886058724249,0.03279805867941655,-0.021004901510608256,0.11881033260346767,0.026100744178911638,0.0494837772429554,-0.00403274857228888,-0.10667128039838476,-0.000507356986922312,0.02160138667666842,-0.07019353224994507,0.012792900307850243,0.21344369426839718,0.021894309836775733,0.0789261144989928,0.33364479577866657,-0.22137904006925604,0.14915618452606935,-0.0703608087741439,0.2895058342718378,-0.27036968380440946,-0.16815006180023812,-0.07814356544187928,0.027427228168309507,-0.3187580771045729,0.028226775065838504,-0.461702253586937,0.3802708946082079,-0.004274488936199407,0.1628231463213683,-0.20987670007582598,0
org.apache.tools.ant.taskdefs.rmic.RmicAdapterFactory,0.3068845698001473,-0.18907278814793352,0.01604802625370406,-0.13458733210471285,0.11940873749457402,0.0165171629459514,0.029772736222097432,-0.002380405556369023,0.034852048163796105,0.11762896057433883,-0.17329717090243701,-0.05148627320811362,-0.1097492263332695,0.024756679840738077,0.16649552948777424,-0.13956236850036366,-0.2933784913755868,-0.01662822279479187,0.11785428898625373,0.30881860721646887,0.3741376541604115,-0.2247521497215865,-0.07104856221966184,0.21935629573080911,0.26976243555320495,0.06981520926333713,0.15002316198934673,0.1886443563648171,-0.17762652650121522,-0.1596801401846943,0.19644900513252792,0.24092364833632882,1
org.apache.tools.ant.taskdefs.cvslib.RCSFile,0.10382004224704598,-0.16474363780079948,0.1712474911755894,-0.01785591880403348,-0.18929455323393626,0.15958277983888347,0.1219776498486499,0.35476842315544577,0.23442770006121946,0.1914440563729177,0.048727341241198444,-0.1609756310418615,-0.1535487755227767,0.12337944977785499,-0.27448222608289774,-0.38485864149425125,0.09553450648191303,-0.09885991231708681,0.030931274828108632,-0.41722171326213187,-0.0448462756589501,0.18242565936950123,-0.18846165576468665,0.03871886071280701,-0.1559108151293828,-0.10871644913178456,0.1434082767235126,-0.019534129873012906,-0.03437634734641315,-0.01610268212137463,0.15325537621230056,0.0024030236668931984,0
org.apache.tools.ant.XmlLogger,0.10112727779371405,-0.09844615622194723,0.09971467250966162,-0.1165168279882932,0.43651168135976626,0.1230647462062513,0.21477077151194998,-0.05108984408271802,-0.09159647719385025,-0.27458958628081825,0.05732635445979457,-0.1380740353121449,-0.22976787730510162,0.06076429916891984,-0.14356379850721135,0.0684799737022506,0.13500387925422558,-0.01501229953816959,0.01746014116269081,-0.1751006061031094,0.247084287482087,-0.14386129031433526,-0.09446612261204806,0.16061670835639738,0.12003841189096554,-0.18206853446330432,0.07661143792594732,-0.2607248415797385,0.11307413220033406,0.19210987475079033,0.14734697577979253,-0.39436004137873026,0
org.apache.tools.ant.types.Description,0.17792907514147419,-0.16526258341661598,0.17803875179956333,-0.1143353399442579,0.5976483917124745,0.09315013241539535,0.22198819328100397,-0.14955399263529637,-0.12663165033507068,-0.2642194432664151,-0.0037294409514169896,-0.2034068039936691,-0.1944142175654087,-0.12049338272853999,-0.18707722476401276,0.09361880927008129,-0.19779429459756845,0.16165092853856805,-0.08525930236932161,-0.20135639188332674,-0.04497890439051428,0.07542542760235946,0.01635576476157298,0.12363224818297283,-0.043615586262849726,-0.09104447353772246,0.1525015413793177,-0.10032341722860982,0.14131141264864872,0.025301612934742253,0.1406957995507877,-0.12325098334622565,0
org.apache.tools.ant.Location,0.2814834366902463,-0.0008194770910989079,0.04579821329640962,-0.1535710006123431,0.5375477168082178,0.14030193105922714,0.14013738768589143,-0.03190784634269459,0.1286037237282839,-0.26251103085009586,0.03853189338881068,0.12169188715816726,0.007810230920456872,0.007558981577496252,-0.3524384627133957,-0.010422772754787842,-0.2658213662775879,0.04209539920172884,0.015585086422441377,-0.16550434728715022,-0.22039501851817567,-0.0693014049095898,-0.05685677820962151,-0.07027634935277732,0.06502696597879933,0.16691895924776573,-0.13841296716024962,0.19537187263546532,-0.22846492829350026,0.03469586209490268,-0.027310090239773172,0.185530402306166,0
org.apache.tools.ant.taskdefs.CallTarget,0.20474947887799097,-0.16542231608640856,0.07839313433965434,-0.03706571141574406,0.17921110687002753,-0.2100822454032686,-0.3118935479459229,-0.14820603727717618,-0.11879980205229135,-0.1768151341590687,-0.08399227903120712,-0.22020237461031308,-0.19801763598911445,-0.3502782693609936,0.193886639343515,-0.09468585465288899,0.0968585458223148,0.10142099479372195,-0.03757121605624297,-0.2217844195544966,0.3082669188726376,0.0646089773897304,0.049696864566051754,0.11599647996269377,-0.03059842524761056,0.14396017460089547,0.023418276561549663,0.21451448667913947,-0.29096762001815135,0.09190257923468514,0.26735985311356353,0.01025697917991922,0
org.apache.tools.ant.taskdefs.ManifestException,0.08063362267056769,0.05251750372814037,0.04399370496860472,0.011043508724370753,0.07365924873867051,0.01083456423813231,0.003961289772454488,0.06115853906628678,-0.05248627395819219,0.1230007436793694,-0.17851065750337622,0.05630095618864286,-0.009604779034921646,-0.09160018884157006,0.15152623388128608,-0.07671991597612274,0.03164424347003262,-0.015181962028130557,-0.13262993190526004,0.05763257091404416,-0.34647470262877395,0.18961977222983492,-0.08849733865134579,0.23218337372879216,0.39965926631265725,-0.09930568365485236,-0.5777106113812935,-0.17671893596470636,0.08335613894263202,-0.285629481088021,0.13336946554379647,0.09144002964492215,0
org.apache.tools.ant.taskdefs.compilers.Jvc,0.16742976378679186,-0.16827400428836076,0.09522463957280242,-0.19703190865935663,-0.2575935136267594,-0.16848092103212364,0.1405207295311913,0.07271620045865113,0.35003212426401037,-0.012375596802566986,0.21175122493273787,-0.03579174284212098,0.3161376706114101,-0.31230494450363866,-0.23555101355260885,0.006584043314922964,-0.19404238013941366,0.0017558684236474627,0.0808119782676573,0.06757789506855902,0.00834640151823444,-0.23001872209598792,-0.1385401741584731,0.09310881531998841,0.35193738286260534,-0.10275279550737769,-0.06634664068166793,-0.11785995332193683,0.2006134411419696,0.0197627557879218,-0.08909398866773828,0.1526722498998303,0
org.apache.tools.ant.types.selectors.ExtendFileSelector,0.1202060373416134,-0.07006107686265059,0.005664472753100253,0.5038682964557356,-0.06304498444420019,0.10441645900715518,0.0566237242967339,-0.46531159696730046,0.24617534294042748,-0.19361825889757184,0.2070638790087495,0.11930356030497986,0.13087708475895193,0.03370392010827036,0.22841254623859972,0.09789590009066762,-0.07450184506551508,0.05661520209629332,-0.06747882337264954,-0.08487530676028691,0.100025601688384,0.10811103618934954,-0.05285848848813997,0.3679692750638215,0.06721231243025597,-0.17533766560400083,-0.05734525351336247,0.04666416319456956,5.4349917646771434e-05,0.09782964453420336,-0.14406909051520786,0.07384666607942637,0
org.apache.tools.mail.MailPrintStream,0.026472334344851873,-0.03143886058724249,0.03279805867941655,-0.021004901510608256,0.11881033260346767,0.026100744178911634,0.0494837772429554,-0.004032748572288852,-0.10667128039838472,-0.0005073569869222721,0.021601386676668433,-0.07019353224994503,0.01279290030785025,0.21344369426839715,0.021894309836775695,0.07892611449899288,0.33364479577866674,-0.22137904006925593,0.14915618452606924,-0.07036080877414372,0.2895058342718378,-0.27036968380440957,-0.1681500618002381,-0.07814356544187934,0.02742722816830962,-0.318758077104573,0.028226775065838518,-0.4617022535869372,0.38027089460820784,-0.004274488936199488,0.1628231463213681,-0.20987670007582612,0
org.apache.tools.ant.taskdefs.XSLTProcess,0.2510673332668719,-0.279827859571759,0.2427856147125936,0.1003485303108541,0.024958622702600644,-0.037500025050319456,-0.38381428907761717,-0.08695821039991398,-0.1842825066085532,-0.06710914518558131,-0.027498395468190252,-0.2505067411113287,0.11658284765766301,-0.195511720578509,0.14698350906671623,-0.035686057531108956,-0.03247284973794007,-0.0029575925383725395,-0.02933617561459972,0.10379866149931515,-0.21716163091010318,0.004678403700487613,0.30621738929322245,-0.18638287637937445,-0.062331658360141186,0.3009328515700308,-0.019895892192758,0.16417934966485062,-0.08969674650755904,0.2785221556570392,0.12609170608581613,-0.21064799202051412,1
org.apache.tools.ant.taskdefs.Manifest,0.09122744696553187,-0.008082059896583269,0.058612265947718366,0.009657014412217757,0.09897112974723231,-0.008088538632879378,0.0092690382473441,0.05840487798602832,-0.030370329292321984,0.1504033401007755,-0.23327952730340049,-0.023978116139660065,-0.047447740629237255,-0.09140629345721944,0.2323084294794019,-0.052997989938378044,-0.011991319269455255,-0.06288664580170593,-0.08893256519150501,0.03290511859563152,-0.3505874905445067,0.22386000516784169,-0.1104417297967621,0.19492934322208913,0.368921489659812,-0.12683067390587813,-0.5974038487876522,-0.10541731415669016,0.060538050863109726,-0.21656378732846282,0.12431290684279049,0.07927140066859006,1
org.apache.tools.ant.types.selectors.DependSelector,0.12258688230686315,-0.10869984620047353,0.11254664655186451,0.4629632450848389,-0.11302167978174023,0.5556406695651592,-0.2102854608662614,-0.005201782574054021,0.23247925220648372,-0.12988112472851668,0.12718498961986816,0.009040579331693102,0.07331374023709826,-0.06735254569749721,0.029215173179459077,0.40441616741169206,-0.06766860983663062,0.04826611448524352,0.012868105655873135,0.041397208187229854,0.026687944588469285,-0.007874720616793717,0.15280761229220183,0.1362350505648209,0.05315647753796947,-0.09674129815929955,0.04572316730534574,-0.03729640208459848,-0.12541047015281329,-0.03454711929310675,0.1670762809411661,0.08326236586172871,0
org.apache.tools.ant.taskdefs.condition.Not,0.04212647117664276,-0.05599207794411651,0.06670457052434002,0.007733915375436918,0.03744487145040691,-0.009133991686100015,-0.018909623416383147,-0.003724429161810809,-0.09184832981876705,0.12803049587762835,-0.2087320424619045,-0.025009221500972432,0.0864767491200657,0.21231015319037516,-0.01838930139728413,0.04152445682739643,-0.11441219050188431,-0.07367152317765985,0.13311947987013104,0.06081650172783563,0.1964081911902309,-0.1582032638484873,0.25471394591762947,-0.37741406496457497,-0.4028156518395302,-0.16596387203701307,-0.11224367770951506,0.04921357599423125,0.342405820600017,0.15819218786621644,-0.1500208604047242,0.42968041596576284,0
org.apache.tools.ant.types.selectors.SelectorContainer,0.12806629037047845,-0.0648430761579321,0.01201061120270968,0.5780763239994848,-0.08467844804061028,-0.14245318731345585,0.47425233281561324,-0.24115733749127427,0.07456845828962438,-0.2711583929287844,0.16033038195510357,0.02281821664916228,0.06242781861331725,0.14649935299985764,0.22671747946523338,-0.32193925832164616,-0.06062178084021896,0.02874216543995129,-0.020845133171782243,0.023429360009792382,0.031116377298176102,0.024987750522275993,-0.027803530846131137,-0.04181740645218956,-0.06896508221307383,0.08526647799429987,-0.0279155821484415,0.011666730106363257,0.06167622512194093,0.043204031962396756,0.14327345418739046,0.00921448192466069,0
org.apache.tools.ant.taskdefs.Exit,0.19969331259317083,-0.3819327254174402,0.42563909125568317,-0.16727341436683124,0.19453656028859145,0.01086708180271007,0.25178365390006796,-0.04265565166429769,-0.11982030219425353,0.13982202607666033,-0.27322381404905616,-0.041190726437581385,-0.25819483670174226,0.166217172329278,0.21907253049186468,0.0900290510330795,-0.08108231684638237,-0.06492259278202103,0.07335795809695375,0.17147091640387344,0.28371555717111513,0.07387916087664165,0.015446411132435386,0.18348402258474247,0.12688516027429803,-0.08435056534152327,0.029864992136041636,0.10350197327283335,-0.06462029493008654,0.026254153235245156,0.10133563444095775,0.16091649090757007,0
org.apache.tools.ant.taskdefs.Copyfile,0.07264439763503787,-0.13566496601266886,0.15334862936865082,-0.08734090344113868,0.0949035807713337,-0.007137766405248731,0.07614008316665505,0.027484695030701802,-0.09975310498736703,-0.07052035631262417,-0.0857353659450441,-0.07584157809468187,-0.3977935467777935,0.11423508762935952,0.007298685369495681,-0.0668005150297886,-0.015846769777815538,-0.033617369885407415,0.056893591973250265,-0.1405004423316275,0.5082365921604772,-0.018589091506277428,0.060027147043210126,0.3470984305614204,0.26079284232225075,0.14097133572909665,-0.0415008678509856,0.303034014156685,-0.23494772968072442,-0.0310601201590067,0.282690720050553,0.03355494282754148,0
org.apache.tools.ant.filters.TokenFilter,0.04081867510198847,-0.018007414959923106,0.015139345081365217,0.053346095244133813,0.06213667411745136,-0.1031132957917743,-0.16018129941902642,-0.37925498871766766,0.01990234349716399,0.429458992784821,0.14794008706311482,-0.016102109244903556,-0.19068179197774332,0.08223768158784953,-0.36574212853009275,0.06914764416317296,0.013193985361440324,0.014403822862384274,0.014757184106639181,0.013168721112960231,0.050695867264455886,0.023196361455134092,-0.40407222829164324,-0.27393906479299396,-0.07871556997032743,0.11145780157567917,0.04160437575962532,-0.20609149916162817,-0.06361373665840063,-0.013593097923219005,0.3360147787306468,0.011916607075505042,0
org.apache.tools.ant.filters.StripJavaComments,0.03246524694018617,-0.012339219344565134,0.01996851023383045,0.04548816153955805,0.04198147608568368,-0.033132129705237344,-0.12543103324103208,-0.3022970681399961,0.028999531407507745,0.3117871411163891,0.1471051389067469,0.011311662103754143,-0.15672756692962814,0.004636179022353992,-0.20788186822781274,0.12792080387115023,-0.005467509391103351,0.018011915065720255,-0.005717284720553854,0.020991398385985016,0.18579362196522325,0.1350293627666271,-0.5346066920619005,-0.1316635841707279,-0.028780468085502234,0.304670623393599,-0.1445057018230032,0.2577756197480248,0.19883454415981394,-0.07786618247885492,-0.29628020528027,-0.10622185843896922,0
org.apache.tools.mail.SmtpResponseReader,0.026472334344851873,-0.03143886058724249,0.03279805867941656,-0.021004901510608267,0.11881033260346768,0.026100744178911662,0.04948377724295547,-0.004032748572288931,-0.10667128039838478,-0.0005073569869222875,0.021601386676668485,-0.07019353224994504,0.012792900307850274,0.21344369426839715,0.021894309836775837,0.0789261144989929,0.3336447957786668,-0.22137904006925566,0.14915618452606944,-0.07036080877414404,0.2895058342718377,-0.27036968380440957,-0.16815006180023867,-0.07814356544187948,0.027427228168309538,-0.318758077104573,0.028226775065838216,-0.46170225358693684,0.380270894608208,-0.004274488936199378,0.1628231463213681,-0.2098767000758261,0
org.apache.tools.ant.taskdefs.LoadFile,0.20688858154816417,-0.31650664800460315,0.33879885523051195,-0.0873943683771572,0.19676234259453254,-0.05072919129437093,0.07026360649698173,-0.29705773915054867,-0.08227987972157345,0.33857878604003927,-0.1119499400995411,-0.03546325354167266,-0.3092637957573932,0.16050216158067415,0.010244942838181911,0.07524460903603979,-0.07518593740106204,-0.019570405967785608,0.04427173375710304,0.08953329820634508,0.3354789904208958,0.14610431469580537,-0.2566948485891919,0.1555645074457035,0.1460981853100602,0.019155728368810444,-0.06444266936196148,0.22470091492818106,0.007372919660158377,8.153973954272152e-05,-0.114094813673769,0.09130736755380921,0
org.apache.tools.ant.ExitException,0.1886869971263603,-0.17014049393017922,0.022347002274960216,-0.17845615400044842,-0.18785757647967638,-0.2647353281643179,-0.31273753995720316,-0.08984823183192638,0.05638920888392637,-0.31854324201835066,0.15698515253225367,-0.027869912859281042,0.03795301251728622,0.31584572905142466,0.2297071872108361,0.23797374194556242,0.12875334922607332,0.30338350228149175,-0.1748555763750417,0.18507550174883936,-0.24625028898557333,-0.16656313674704884,0.0705715089047781,-0.14133912025424022,0.04815325204877615,0.050343910805404325,-0.06081615913240191,0.11236053458857735,-0.08654575555095587,0.0722542028688562,0.12012582559560075,-0.12680890263973235,0
org.apache.tools.ant.taskdefs.Move,0.15685227720457243,-0.07466277664184917,0.08860366196736803,0.18724361954386792,0.09338292166429715,-0.05992219780104824,-0.017742414384805325,0.11548139890457956,-0.37796092492541933,0.20414983824133154,0.10781485097144503,0.1455967802085816,0.019963135755593896,-0.19488193500976572,-0.22475671598173477,-0.08008671331186716,-0.1526172352441961,0.2791694425191589,-0.0512223777659627,0.21584765380745807,0.15561500512104237,-0.02169750158699618,0.16236434304328803,0.03893403668529736,0.1809664105447492,0.3125432768468104,0.22524658304239176,0.12316433215987155,-0.30933552350810734,-0.2877380850818778,0.08145534763571732,0.061875447740291335,0
org.apache.tools.ant.taskdefs.XSLTLiaison,0.09745700364618792,-0.008586162666325288,-0.03545214824737002,0.08711321142728229,0.048690534336545084,-0.1969023678523137,-0.1398034782790652,-0.029424978528227085,-0.09785768564481791,-0.07875347838125664,-0.013932037319334163,-0.1138062796931065,0.21447703555944894,-0.1458653184371392,0.05386480761744666,-0.08615577342194411,-0.046436104672967514,0.2274333720557105,-0.1837805853167269,0.16075856342224235,0.020214429648651944,0.28254979323612733,-0.3058572087424718,-0.087481263165814,0.13994790456100356,-0.16288761536373386,0.03760312398270636,0.028916370929892448,-0.20858126904013244,0.6395460667499896,-0.08158619621780543,-0.1049290671636932,0
org.apache.tools.ant.taskdefs.email.EmailAddress,0.10076359684632114,-0.022637765020426494,-0.027645846255689582,0.029800161607417247,0.2009322464600773,-0.011486015578631888,0.02706691996521877,0.13582626968020114,-0.014067764788079359,0.03553945527235035,0.0579856653640251,-0.049442190685755255,0.026264890625087172,0.2095086320429555,-0.013130048870016956,0.06934876292923628,0.47746702926675916,-0.32330496439259376,0.2124528138462084,-0.07116129097098886,0.39158116226005263,-0.302703890884749,-0.2142540852586584,-0.13622096922615134,0.0997955881982212,-0.27187518959219836,-0.11045411780013767,-0.2493270490440418,0.05700721252816939,-0.05078873748133112,0.12232081274687283,0.0017713259089149863,0
org.apache.tools.ant.util.TimeoutObserver,0.2895811925877187,-0.10949779462837457,-0.20712396604916003,-0.22994568568652474,-0.16706811203271602,-0.13242564898140674,-0.1699246534805188,-0.08833106081167479,0.040941195570461525,-0.21823726629890028,0.1971376391944588,0.07330015227808269,-0.017989621525821495,0.23364373407015943,0.33198765083420995,0.09672796581126432,0.2060835968776725,0.4257325567573614,-0.23370942476297124,-0.04986083028573138,0.001083991541567601,-0.013179901145615137,-0.19892839754170036,0.16381157174210015,-0.0310417959172794,-0.2215336908558932,0.18980229515983688,0.022816332798899223,-0.1315883741599095,0.012892386395127894,0.06517953319664772,-0.05004739000592805,0
org.apache.tools.ant.taskdefs.rmic.SunRmic,0.29367319836187955,-0.4123114847970115,0.3604440731242544,-0.2860195475979339,-0.013631637240742846,-0.059393208253060756,0.2864912598653594,0.043749688101651814,0.13982361471681629,0.16501243824235556,-0.08631414100107822,-0.01871775459556859,-0.09136934495641912,0.01574606320367871,0.06281987559948081,0.02327195953726549,-0.13147144997597104,-0.030582540972925704,0.08466248195257547,0.10322639167228914,0.29344938912875534,-0.029522140213417453,-0.04542605638280955,0.2360003200822231,0.13218528339243543,-0.06256255616715908,0.10506540355734452,0.05792059019878227,-0.09682217520261342,-0.13812722142478662,0.19133545031380036,0.308266717042045,0
org.apache.tools.ant.types.ZipScanner,0.10649601223457966,-0.0745695119697087,0.06831960707235456,0.21865368209517122,-0.02344988622257463,0.06940568206353322,-0.05785797348676729,0.3051955363571106,-0.1315804003807287,0.10285467411692763,-0.18075085192801235,-0.010359725537416356,-0.05735230406300212,-0.07072336829292188,-0.35881019006043224,-0.27805638353948037,0.18851029841798517,0.043806706297661265,-0.043019053308448324,0.27409143105367906,-0.23117313889507562,-0.3147510058461777,-0.22365164338902266,0.3612705033255872,-0.2853144149125416,-0.012714773448932796,0.011847120070183568,0.12781381681066836,-0.008928360414431638,-0.05694515802147537,-0.0684055793594989,-0.014770051090310092,0
org.apache.tools.ant.types.selectors.DepthSelector,0.13061678766584917,-0.14893900571511562,0.15333434615793495,0.4235894543560989,-0.088355284538997,0.546526229615896,-0.16546704488191166,-0.14937834855101478,0.30149625103098737,-0.03751408606737455,0.12322366330324232,0.005551207039901338,0.03057535835893463,0.033276051991862614,0.10533053566813136,0.4662199434347317,-0.10515806158858362,-0.009009364676766132,0.029090803874989305,0.03380189379776562,0.008594189254411569,0.03455695061766028,0.042408811985254986,0.12931597500213612,0.04332413431425486,-0.11267754120385412,-0.056576915152221914,0.052283630823121714,-0.07497615262779762,0.04544358191233033,0.0312577954588974,0.038955787672846444,0
org.apache.tools.ant.taskdefs.cvslib.CvsTagDiff,0.17238239010334203,-0.14908319195537847,0.05715164837834497,-0.05491054187534215,0.015482962847242737,0.18348746042566838,0.008488410767931965,0.07201398652290587,-0.5411963553830316,0.14854517876357878,0.3338403730588338,0.31888123104338095,-0.019005826574919442,0.10052759104642822,-0.08205899088019819,-0.01749079900383584,-0.01832681405764851,0.24802860541966812,-0.11278679331798248,-0.10560206869435157,0.0838815579589818,0.05374903875851746,0.19324352816614265,0.09647365330310186,0.02174793707102104,0.3135732822282579,0.05062651557499206,0.23336319211751114,-0.16695646205379078,0.06052983191882761,-0.008990988021813601,-0.1651284191883546,0
org.apache.tools.ant.taskdefs.cvslib.CVSEntry,0.27866547033782885,-0.056786187058344297,-0.23564247133957475,0.05814671439871456,-0.2203814172422942,0.08372175317611338,0.3100917620687148,0.352061166824328,-0.12381256537247856,0.17525880536900557,0.022823463238840713,-0.14095843601236413,-0.3921031412418318,-0.056011764877419726,-0.22443554081775244,0.23379808736478644,0.11693375798513927,-0.17632634395325766,0.09710992090292281,-0.26011379881981794,-0.023477284175880537,0.12220782296643624,-0.04210521829695117,-0.08029433972968268,-0.2690935550513833,-0.052260348334568836,0.008517589200606674,0.053171234032724515,0.02023865965279019,-0.10116539779965238,0.13864597617920957,-0.05207519902066307,0
org.apache.tools.ant.taskdefs.Java,0.38838922852605356,-0.18722263584140844,-0.17637262703086104,-0.16537795853861567,-0.20517156270987122,-0.2670877156009889,-0.29636381380241866,-0.1381407484293516,-0.1334624267824622,-0.378470905971471,0.13794625264811078,-0.011805148199528048,0.010726494949932667,0.2791688343032205,0.11186558866261757,0.0886837417752243,-0.02088349789518255,0.020449654829481204,-0.0014167817275743746,-0.060743627618818505,-0.06396361757742784,0.019321622440500917,-0.21267704010330038,0.19459443038399848,0.005924696736582907,-0.23411890121745135,0.1443157004805739,-0.10297680392580257,-0.12499119567599465,-0.014507113795294062,0.1113425410076141,0.22367616051678654,1
org.apache.tools.ant.taskdefs.ConditionTask,0.1437178022240891,-0.2620179623453209,0.29342120692521606,-0.08172795022234118,0.12558941727715173,0.006535896160226073,0.14639410567481667,-0.04918942864617292,-0.09668148580087808,0.2196889432413285,-0.2929246441408847,-0.008713030199132363,0.049554766072995,0.19724684147457675,0.1560828829940216,0.12811003639963053,-0.12297377985213087,-0.07694744612820069,0.10692766219519079,0.23996633769997464,0.08087735687700069,-0.026518825111855902,0.13179060198971806,-0.2543708871352482,-0.2695551034177037,-0.23436853722674056,-0.022496760218455616,-0.04252452208438636,0.26891745506832615,0.12991893589472855,-0.15190585966206097,0.3620362741284452,0
org.apache.tools.tar.TarBuffer,0.04215291264824928,-0.03119983989731547,0.03871965298516059,0.16671791039440945,-0.005941295142189676,0.1500696975251473,-0.06742054540606683,0.22155574376299753,-0.09861070581295983,0.024523505334524357,-0.08972173912044036,0.20115109110861978,-0.07758937806902146,-0.16056943948199986,-0.35850398301028524,0.11508758075229636,0.08307737364378802,0.22776302344860702,0.06577049952358825,0.2604780681661848,-0.1343804010575333,-0.1572351213448248,0.016657758110339618,-0.015534292566430803,-0.08480692288377892,-0.07587882131454485,0.15717931923942932,0.36399940538030906,-0.04430964065859197,-0.3982109684787038,-0.14109551378943272,-0.3667568976179242,1
org.apache.tools.ant.types.Permissions,0.18379133910237677,-0.16676635897602027,0.05639730319693396,-0.14306186166927243,-0.04664876228415804,-0.12217143908903991,-0.10264139514225304,-0.0536871853035614,0.06329612721846617,-0.07611043272392531,-0.04797498459593643,0.04519871252794973,-0.1140206978321465,0.3455625216657899,0.3427306525971786,0.2072596054278504,0.14660020238896518,0.5401205135862627,-0.2299052697212929,0.1294686038937833,-0.18813020301298713,-0.28506296214022475,-0.09488440423496416,-0.12935550257960124,0.07811812336625286,-0.13083095551516974,-0.12609276716636858,0.0018501084398070387,-0.058017679838668436,0.06868981137320782,-0.03641589848931382,0.05917384746787054,0
org.apache.tools.ant.taskdefs.Dirname,0.07264439763503787,-0.13566496601266886,0.15334862936865082,-0.08734090344113868,0.0949035807713337,-0.007137766405248731,0.07614008316665505,0.027484695030701802,-0.09975310498736703,-0.07052035631262417,-0.0857353659450441,-0.07584157809468187,-0.3977935467777935,0.11423508762935952,0.007298685369495681,-0.0668005150297886,-0.015846769777815538,-0.033617369885407415,0.056893591973250265,-0.1405004423316275,0.5082365921604772,-0.018589091506277428,0.060027147043210126,0.3470984305614204,0.26079284232225075,0.14097133572909665,-0.0415008678509856,0.303034014156685,-0.23494772968072442,-0.0310601201590067,0.282690720050553,0.03355494282754148,0
org.apache.tools.zip.ExtraFieldUtils,0.00447649851557251,-0.003244309615538672,0.003512511939702903,0.0177370704921643,0.001784428594781101,0.005172865809744812,-0.005689585013317169,0.05153286713825483,-0.030034662811660735,0.03481015000096831,-0.05297780568365046,0.009611261398627557,-0.008109374580839069,-0.05777496712371483,-0.11769101638326382,-0.06417133848117905,0.09827973973323889,0.04707487552055638,-0.04464679003304274,0.23456389070909126,-0.19508950767623534,-0.2581638682404651,-0.2036543747723966,0.561073477010523,-0.4810148420321396,-0.06683804350302416,-0.0011978247133650247,0.25462911616767314,0.06768520889602828,0.34498300354409084,0.12724702018157708,-0.014032212888189751,0
org.apache.tools.ant.taskdefs.Expand,0.23998063351467527,-0.3298972904238894,0.3635780653977858,0.24906593865220608,0.012746796244095897,0.3161877612201962,-0.10269797122580739,0.28479543191877804,-0.18486198678106716,0.14800834375452296,-0.1039058816514805,-0.078002906221222,-0.16194648256707608,0.13181091353600746,-0.12900144093265611,-0.42891938303836924,0.08539356051643268,0.024406432766238325,-0.04882040817598508,0.022466864595429088,-0.0466125912411877,-0.10493560608328036,-0.1294342011256321,0.2105002617432781,-0.14317305756410312,0.005737133734975627,-0.01919877103848519,0.10166152616288895,-0.024233226652610712,0.08908257503583868,-0.07103413707858296,-0.0236392834719681,1
org.apache.tools.ant.types.selectors.BaseSelectorContainer,0.11409578871279909,-0.047133331894524885,-0.006855785119508935,0.5285737698072795,-0.06537418621665061,-0.20447199870608093,0.5079467775243451,-0.2683595238568503,0.061406119947898255,-0.26055839590858626,0.1397516584658645,0.045818926698621386,0.0651371661512543,0.1415722401638361,0.24224950632127049,-0.31969746907112173,-0.060334959192838857,0.03273831812459069,-0.025214418028112914,0.049452765725294424,0.048916419631077186,0.035218950462544564,-0.04409141786643849,-0.038287573293071635,-0.07749140639177031,0.0994725704522864,-0.023284537147529056,0.027876929036485476,0.05621199814347651,0.03699203705757001,0.11878893738446636,0.007158545570434862,0
org.apache.tools.ant.util.CollectionUtils,0.09030942103906958,-0.03893615138305767,0.02231399298793953,-0.05535520424904139,0.3902739750012662,0.10709687237978747,0.12485279629998351,-0.016209494741002653,-0.04770020885664685,-0.10451460391616807,-0.09332483203266233,-0.003003435173234503,-0.07888299177064916,-0.13851802453470483,0.025335942077919147,-0.0026065262290386783,-0.006252552664152423,0.0324815911415517,-0.13854118354060221,-0.1339368644115247,-0.31640742455111837,0.1264630642496893,-0.1097505041798131,0.20346117413595802,0.3050226402243791,-0.15364933530708408,-0.4132531662728425,-0.34344489086712054,0.2624047916482995,-0.1550984653763323,0.21708618648863345,-0.07722146868266909,0
