name,vector_0,vector_1,vector_2,vector_3,vector_4,vector_5,vector_6,vector_7,vector_8,vector_9,vector_10,vector_11,vector_12,vector_13,vector_14,vector_15,vector_16,vector_17,vector_18,vector_19,vector_20,vector_21,vector_22,vector_23,vector_24,vector_25,vector_26,vector_27,vector_28,vector_29,vector_30,vector_31,bug
org.apache.lucene.search.FuzzyQuery,0.2706169065339612,-0.08657185838227743,-0.0006275019672506373,0.37625165612818307,0.2987595632067522,-0.09092853363273554,-0.06219317097819038,-0.006543996737473569,0.0840973551896279,-0.6395322286679483,-0.01684083059174237,-0.33614562658523056,0.11059943346355432,-0.009205420738259848,0.08591502592127072,0.024890993493877505,-0.0036478365561791602,-0.02396245758221341,0.07762121733236631,-0.08565842939372723,-0.06140665815573488,-0.09455341278666533,0.11453446658686946,-0.0051360338474188815,0.019361831615718774,-0.017751789882746047,-0.004757981830451734,0.04126119604175047,-0.2219895783103042,-0.1814102774137935,-0.03430403908733397,-0.03184677231795579,1
org.apache.lucene.index.MultiLevelSkipListReader,0.0545081349920155,-0.04541728700038111,-0.00025782352382509307,-0.04623125958802966,-0.06459494992855354,0.5594505115241698,0.19171792116477662,-0.056272891630716845,0.3276500436252485,-0.04137949122296058,0.17442852249883503,-0.07834080586262186,-0.030386105695071816,-0.013536025313595422,0.42418651625443415,0.19186720515004574,0.0015894203592206246,0.002384602046645246,-0.26796571340043424,-0.36067664658745,0.04998878245794635,-0.011961938755378328,0.015411580935891709,0.009321164486063687,-0.016134251192197805,0.06738765261378142,-0.029564045480515957,-0.07841036820486792,-0.11162758033586152,-0.12085790995801356,-0.08939669871372495,0.14323124742667098,1
org.apache.lucene.store.RAMDirectory,0.783495264340787,0.4470366598214139,-0.00017169047210133985,-0.15056479810392995,-0.16686661410571954,0.054885944469062656,-0.17418968815339292,-0.011341795534909374,-0.05379817513476431,0.03260208601263856,-0.12324961901336683,-0.1265404277929533,-0.004168805425146749,0.002350184259946261,-0.0004737736937731003,-0.0995286120091303,-0.0046650315787468465,0.01716322642415631,0.04982536071864182,-0.005692397115008843,0.07201321279061533,-0.01372955675761833,-0.12803413374470696,0.0292263067352467,-0.05071285035450185,-0.06790066109054217,-0.04688714419637647,0.060594938731762256,-0.036306316768776214,-0.12365248161180449,-0.03763600402687812,-0.026023148827692077,1
org.apache.lucene.search.spans.SpanQuery,0.07981015445148508,-0.03650621866886808,-0.00025493220411396654,0.2090162361928113,0.1683082025907692,-0.041274059637876205,0.06336796586521189,-0.026216724057006785,0.2611295177718941,0.30968719443314513,-0.03988321665624677,0.0016457690225697467,-0.008995148673267311,0.006978402590378463,-0.10712406252878194,-0.22541154881483308,0.008150113902130832,-0.019398626871643686,0.31081716529818765,-0.05044343225329393,0.4553253784958046,-0.28800822535383097,-0.2253033084854721,0.03872166743181208,-0.18959494278460023,0.09138731501981574,-0.0763040726778161,-0.10511821351033247,-0.3160442129722862,0.18098534239683417,0.12308938762999203,-0.18624157924613643,0
org.apache.lucene.index.TermPositions,0.09736868402591019,0.0031217548473803734,-0.0001798652386976057,0.08863023762919278,0.0567907342639064,0.40159806911905677,0.32188974436275547,-0.05347484606744704,0.08433083484747898,-0.08054030088679233,0.12419408945250145,-0.058504179983020224,-0.01644548512167208,0.021458763078587795,-0.48116842813231275,-0.05960391032625826,0.00021187600072128428,-0.014105587222146863,-0.0744022141459524,0.2574804456859224,-0.10467083326300301,0.015150757325699121,0.1747073515137937,0.10346886333630466,0.03760811293467653,0.22038105797604265,-0.24868097981686374,0.3881196388612211,0.15913325120969551,-0.037255564472489636,-0.14064596368571022,0.1001235651200497,1
org.apache.lucene.search.function.DocValues,0.023351922318713875,-0.018595670098027397,-9.663929009301028e-05,0.11377224311801029,0.09340423491304252,0.09661421929879674,0.18292386864432247,-0.024435778626158876,-0.1478894745460424,0.06318837881904872,-0.16321906922939652,0.05748519203078713,-0.005326830269375043,-0.00028095292210371484,0.03653182477142242,-0.1982788999677395,-0.003068605771145603,0.009468443537725272,0.2543197417759504,-0.025178613925681197,0.15530269084223344,0.12105679105975954,0.2086476748797222,-0.08400550281683902,0.03669240708199834,0.1957792715784574,-0.25535257464119004,0.44422768411001956,0.3683597070337377,-0.2462282649676584,-0.08895793919742684,-0.4199231263583789,1
org.apache.lucene.analysis.standard.CharStream,0.009848540070847227,-0.0013389977604646467,-1.848413908913739e-06,0.004492642605528252,0.006894073594878471,-0.015188477976643213,-0.05252383977137256,0.014583163664836933,0.10567422251100125,-0.2546647356366898,-0.10236722523350507,0.41125324552763726,-0.40354059674797416,-0.0008083326336621855,-0.11631454249304705,0.02361165367561202,-0.004106758162323145,-0.011418904078454915,-0.04210877970927891,-0.12130474257269912,0.11664735814162264,0.1165321090957898,0.03246998994900374,-0.08731112470837302,-0.026860930929638285,-0.4859788427426865,-0.31816780382926246,0.05791136776142009,0.08848227819741333,0.3837073479252012,0.11867124460108341,0.03075454158259316,0
org.apache.lucene.analysis.standard.FastCharStream,0.009645509741567204,-7.50783324712733e-06,7.502926785096441e-06,0.0018585975230342882,0.004444534163132065,-0.01204094575962736,-0.0464274344865654,0.014146621681659366,0.09527667409567954,-0.22442362715779926,-0.09496239280607358,0.3736951282081542,-0.3656943136493374,-8.709687117989787e-05,-0.10194153999006633,0.02495732434714595,-0.0002344275995864719,-0.007392946356067824,-0.03003072143346672,-0.10920948991801836,0.096714303298399,0.11612404123231622,0.04016583909821806,-0.07970893674799283,-0.0036390828652757656,-0.5618501327461157,-0.3870273610669446,0.061654232832195746,0.0433571698917381,0.33136735452849003,0.14066954680336538,0.009245917727573567,0
org.apache.lucene.search.FieldCacheImpl,0.037326632033132974,-0.030401902669129736,-0.00017292336910382702,0.12124100480216289,0.0997521898903245,0.16518983970571477,0.18160993692045066,-0.03352572392558902,0.02080165308259763,-0.1163715165995619,-0.18600321910560932,-0.0980628778225318,0.04045239577400921,-0.013051132046082846,-0.1166859880912644,-0.08536439523551785,-0.026091850645079958,-0.019244101619603424,0.41736235731521654,0.09724821633486402,0.30702510152577805,0.08083483255001749,0.2108745116889451,0.02097826378744857,0.07096756853678324,0.10265448249104957,-0.11888018521603336,0.4803235120019046,0.2557795793006907,-0.3168858781402156,-0.18172042526946802,-0.2026191872635032,1
org.apache.lucene.document.LoadFirstFieldSelector,0.23527652430770993,0.05481119886211108,-0.0002828902013230996,-0.0917341912460772,-0.13077985862902433,0.4116699616625176,0.12489396241275619,-0.07410247026874434,0.07022403756511623,0.13854472785986202,-0.015231653793102302,-0.003162932065938002,-0.08782190246195175,-0.019849955635582284,0.09054415864346799,-0.15041306303280536,-0.028554432812588598,0.012157941182413354,-0.4785492546281864,-0.15733169825517446,-0.007922436319226442,0.004920964950998436,-0.247226640434597,0.1314591156403407,-0.06713442304921066,-0.10638685319021031,0.13467408581438395,0.3076927891939442,-0.21532267901205718,0.28054409667445457,0.10869645907797323,0.25204542860421814,0
org.apache.lucene.index.SegmentInfo,0.22773873191258007,-0.08586448809088862,-0.000291047977177261,-0.08021157565988116,-0.11810864393225937,0.7024289054982458,0.1865190446816221,-0.06872676563593315,0.3097118540567863,-0.02519931759439159,0.05160444073849955,-0.06466254324168631,0.0008807035743019513,-0.01682689449909889,0.2486629779885325,-0.012952220219715687,0.004024583164164314,0.0005137341346990718,-0.0929225458837825,-0.024584768310287813,0.05114305621419961,-0.04551183828918153,-0.08529463485360021,0.04091939510370641,0.08203296779820468,0.10347227111802533,-0.026006901625987313,0.20477293017811443,0.15884782854982865,-0.058954249508968354,-0.15518247342142827,-0.29333927370077983,1
org.apache.lucene.store.BufferedIndexInput,0.11315745558097481,-0.008824174191322982,-0.00021544300322184524,-0.0741735529982635,-0.09194930262070473,0.5857993306084586,0.1855804560859801,-0.05230653638443792,0.3285641279508329,-0.016735376803183002,0.12994879784929267,-0.04484108634243293,-0.050749052649976756,-0.016759391352989775,0.43670184179798677,0.13501750419128133,0.006213962261524278,0.03152392935451464,-0.2750914695335821,-0.22139073228501402,0.08270840053333044,-0.04730852373083237,-0.02906939430505652,0.05965483237556704,-0.08344106227559372,0.13419558719352942,0.026001416674894674,0.18500887598980725,-0.11559094895659114,-0.06418094573689213,0.11850368854657367,0.15262651407366556,1
org.apache.lucene.index.TermInfosWriter,0.11896832967041698,-0.1269409601697515,-0.00022509787233706448,-0.034779278591059316,-0.055505061883387836,0.6007262061876484,0.19527696091527152,-0.04226937246856253,0.30053116134876734,-0.10334103101052487,0.09888202001405264,-0.12877300000445951,-0.004604083148970699,0.0005049551058061139,0.18861847370920115,0.18338552037175543,0.0028516671493814157,-0.013337540362476233,-0.19733626691616893,-0.3616496743505384,-0.11664930023730402,-0.02136735855049416,-0.13911267616816397,-0.07591069434745605,-0.02269290499382949,-0.08979936794116945,0.10350072540603404,-0.31761068338672155,-0.12197018399824398,0.12243377413110029,-0.08436419274331854,-0.04260009033435603,1
org.apache.lucene.index.DefaultSkipListReader,0.058405308704495555,-0.04484481200882356,-0.00027257003205219193,-0.04267598542783803,-0.06204092343734564,0.5726409887803235,0.20388199367911708,-0.05807704170379427,0.32948013031519946,-0.04526920434727223,0.1941526999957332,-0.08238232633723336,-0.02548206621427324,-0.01254957138556007,0.37689707972715913,0.19239698874727848,0.0030715688359396493,0.0010510428526631483,-0.291945179508577,-0.3400773620957222,0.02067784082079955,-0.010799687722618204,0.01898904884410655,0.023437973491900296,0.00011158430814203486,0.06754546946418317,-0.049865527645994265,-0.09751296042237907,-0.09947624408986631,-0.10847786774456009,-0.13944486996406713,0.14515710500446918,0
org.apache.lucene.search.MultiSearcher,0.16685482094224358,-0.14264917272414243,-0.0004445780006704046,0.2564123719796617,0.2050670716851382,0.10423637742864583,0.22046178302532657,0.007052012159271328,-0.379579885523483,0.19884322801622048,-0.353488434206336,0.05635691460525745,-0.06011712272079775,0.0061488093210118715,-0.01808046775630138,0.6223137966668265,-0.0005098075775721921,0.012162519578807974,-0.016439654542558857,-0.1766621238032644,0.08523822468555937,0.005827163814692389,0.009309840353654857,-0.04071359336100756,-0.017253807961606936,-0.03138072450721536,0.08685282683347371,-0.13176533412956495,-0.0960515637986787,0.029368456050945728,0.06388300976268284,0.02145334571504227,0
org.apache.lucene.search.Searchable,0.25514450169759156,-0.07018078913323428,-0.0004450720768874128,0.23958215563716542,0.18100547276070086,0.06965099000197203,0.1800737970869642,-0.0018533370537538142,-0.3794396202066538,0.21702695273056447,-0.37228288182889197,0.04429776305904704,-0.061807284351488946,0.005879837899248925,-0.033068043880599536,0.6089178835220335,-0.0004936143458999658,0.01335675326301813,0.0005326512887277455,-0.16083078284332014,0.07898039143141052,-0.04075334345985501,-0.03052953083644317,-0.0545956079695732,0.02151093721538809,-0.07781817792837838,0.14092827242584494,-0.1005973069189618,-0.08190472685514864,0.09913257380376386,0.06530276257313612,-0.0038338748856738807,1
org.apache.lucene.search.MultiPhraseQuery,0.2356730083663794,-0.18849094095068494,-0.0006610273769032279,0.40841009482117063,0.324524103842772,-0.08714187729103366,-0.020893068106597218,-0.013687189538094944,-0.04747100239055069,-0.47044868998521133,-0.261213613548505,-0.2646727556422885,0.05790282351900079,-0.002699315680061157,0.22115469142579416,-0.06194009713541298,0.003356101827873578,-0.004331308573114687,0.08714244563784691,-0.22747575104222625,-0.14090715555738068,-0.18559257560231773,0.034875367380312654,-0.026571912333112496,0.0014389510640952236,-0.03436921704797394,0.06188507121643927,0.08840072622091033,-0.11948294113608048,-0.24901241021461032,-0.03300820510981673,-0.06956665251098154,1
org.apache.lucene.store.IndexOutput,0.1516655889107761,-0.045743939150479314,-0.00012749085526200695,-0.11191684477568893,-0.12501076881011972,0.5715955803309362,0.07384266657126583,-0.02699703363353046,0.3071959434029195,0.027732846523259868,0.0716727680134364,0.004358344415438456,-0.03642138570859286,-0.009325461132255757,0.5702851697192503,0.07811875777983354,0.006507930167008028,0.033253563508147864,-0.16786425471539343,-0.12225865531093039,0.11146681849507123,-0.06451696471811717,-0.12612731053767834,0.005315357367448069,-0.079985719628,0.05019555431208353,0.16104047561674129,0.15706933647785795,-0.1204576253905443,-0.043940161221313584,0.15634335035192634,-0.06008084370457189,1
org.apache.lucene.analysis.WordlistLoader,0.031086009364938008,-0.0495337403551297,-1.1636828374202415e-05,-0.026927025000540714,-0.013473817370584836,0.006606931072954458,-0.05616475744951749,0.03768219478200231,0.1006744946588266,-0.17467339162110979,-0.09744780709989181,0.37163757057088137,-0.33318923954742047,-0.002397741410518988,0.003654269615076098,0.028292003393412462,0.0010160008244523022,-0.014752547293978562,0.0913383197843207,0.16050576618273082,0.014191379982700264,0.04738405940409273,0.17653128374933755,0.04446257579991414,-0.30960588953494544,0.6281734002994683,0.17293375927228005,-0.18382806065278995,-0.18196172307216854,0.005490413380186742,-0.1836577838530282,0.005184808841666749,0
org.apache.lucene.search.spans.TermSpans,0.1104151072059926,-0.057328696264302724,-0.0002292475576318726,0.1490362370157754,0.10427681731834267,0.2613370557305643,0.2957868344909262,-0.05266289253188392,-0.022894524416223545,-1.875879745303144e-06,-0.020258833742462855,-0.028718348955829174,-0.02911627202343794,0.013542320831491587,-0.41750586410969254,-0.236862311397328,0.004525180328475535,-0.013481068438077415,0.18646968776456085,0.09511400283580987,0.041884840001694935,-0.01676998431191211,0.0057491975628555835,-0.14971038669231349,-0.004741465937389605,-0.23754970173383597,0.16440912964761417,-0.5703445003543794,-0.22351647381850176,-0.10376474678938126,0.1370816892488236,-0.053622884526440255,0
org.apache.lucene.analysis.LowerCaseFilter,0.022358421631275764,-0.030826907483207006,-1.4632346392282835e-05,-0.007354384759245318,-0.0029881316447730854,-0.009341777397690456,-0.056749294409051215,0.019726288643281308,0.1075999439381718,-0.22896082628933898,-0.10515410077830527,0.42023773841296896,-0.4011750050749673,-0.0017596023694197108,-0.0992511151150951,0.007987717922498477,-0.0018437881669140174,-0.012396924992421426,-0.03605084025605225,0.02636773647492841,0.06765215888060293,0.036736314788205535,-0.009860182866436857,0.10057740218857097,-0.2777702166374677,0.5797945721388557,0.12132318620336095,-0.20027250052811116,-0.13450271874227426,-0.19685826900745984,-0.17015985546704498,0.006042651141303436,1
org.apache.lucene.index.MultiReader,0.12064657329828109,-0.1735850106964333,-0.00032782422366705915,0.09102373699261475,0.057850476280971695,0.48982220822994493,0.32267703269501663,-0.038025089217572826,0.12897119927702438,-0.15776574652146524,-0.002045442998498416,-0.17405257895150184,0.009996156586835503,0.009728829565515686,-0.4476388185173474,0.0920221768821045,-0.0011634964643057633,-0.013457168517531674,0.28270999204932284,-0.043325296414649675,-0.14324772413080347,0.05004601867601219,0.13075825448817038,-0.10906156836337347,0.1064929272530238,-0.17086055623878757,0.10211119484176716,-0.2751048304211059,0.15791603525249742,-0.10221175145241349,-0.05330613221266495,-0.135839215509696,1
org.apache.lucene.search.spans.SpanScorer,0.07631800166133296,-0.05041753334516737,-0.0002818965114233143,0.2673386306396148,0.21546729123204544,0.10540095355950614,0.3098121980361821,-0.03439332082511154,-0.3119314851446229,0.19681279449349492,-0.2762154892132974,0.15625914244276742,-0.060417397347239,0.003924341907278606,0.17903965308035885,-0.49492347767031064,0.004570562025237254,0.04181097383643197,0.17378497004028604,-0.292691718828424,-0.08830962699049391,0.14597328157636857,-0.05208990381767837,-0.029000920817411634,-0.08005980124290947,0.088597047751576,-0.010979917829762965,-0.10519851030933165,-0.21695870468592812,0.13003263990196093,0.090824233146731,0.00826065415394264,1
org.apache.lucene.search.spans.SpanNearQuery,0.14628055457206893,0.025561124039802152,-0.00028899193445632606,0.19111858648055116,0.14441411877123206,-0.02569782025549571,0.05431449169718227,-0.04567865920884902,0.17916826795428453,-0.01812115247032554,-0.17573370153362247,-0.11130923118099921,0.04152030966233762,0.008396231634696405,-0.10217909376401063,-0.24155087226678193,0.0003982008615259301,0.016539478232056693,0.29633219954480905,0.07206585710621223,0.6599642626310525,-0.11854346586144698,-0.34242241672341683,-0.005670683092459971,-0.0750186486153826,0.13814875267953558,0.05562777265942822,0.016845386231814623,-0.25384620902525745,0.12236349061592937,-0.006308751805068871,-0.02956396103533019,0
org.apache.lucene.document.Document,0.7740982257708113,0.38055650990296735,-0.00020459879295801035,-0.11170887611293381,-0.08561835080361209,0.05831870982159172,-0.029437073040337748,0.048866427841201404,-0.08502353437646197,0.10327812522288705,-0.030700839073386776,-0.028751003069640197,-0.00033487597151529437,-9.735596778632052e-05,-0.21052674634266433,0.07763089806057355,0.0024552299115025667,-0.029176359524928887,-0.189536136218949,0.09231944121992067,-0.10498056456877704,0.03812255001174285,0.03560952012103182,0.019817860649658025,-0.026775802604092697,0.0712429459762337,-0.00960424234624366,0.059619110151159116,0.015933517735610133,0.2119171887071298,-0.06583937409623357,0.20271920328953005,1
org.apache.lucene.queryParser.CharStream,0.06258585971301252,-0.03664566977152408,-0.00017698763324137002,0.12265621976748728,0.10662477870974617,-0.1009369397355806,-0.12058198553846228,-0.00043153744863466497,0.16697471586218324,-0.3827670486369089,-0.018991115830711627,0.20103097846508078,-0.215100859137159,0.0037605900667509427,-0.009684846729358074,0.02369858038378224,-0.010414437958305,-3.0120489620965333e-05,-0.011678925897065222,-0.184679522219568,0.05538293411026213,-0.03815826384048121,-0.0474767951282953,-0.25419776601307237,0.2918442184483337,-0.24478504388557035,0.302713464874428,0.18506365699634214,0.4646831421843337,0.20813840012787116,-0.08524793827804775,0.19558563067760568,1
org.apache.lucene.search.PhrasePositions,0.06616589040780575,-0.07436631118633646,-0.00025345077153928364,0.16566105413323126,0.12285959130456307,0.36912507668301103,0.41564676566904213,-0.05445471621171664,-0.10537666068713371,0.004999726702663933,-0.07100769905880534,-0.007096672619422019,-0.05426164137001191,0.008030939512768613,-0.380287381533171,-0.27585474227232776,-0.01892151639035454,0.010639649117474215,0.17936740077018135,-0.013830648954456827,-0.3825418277439047,0.03994038504499812,0.2156731039240072,-0.05935653330147824,0.03400956434656463,-0.15820013509553527,0.06907003668843464,-0.3067649272162324,0.035739513877410145,-0.08262667673824907,-0.03679075015251952,0.1740797754864082,0
org.apache.lucene.search.SloppyPhraseScorer,0.0881217884626508,-0.035969958494009364,-0.0002747334288413631,0.2761130374446421,0.2223293602370986,0.12928899867113308,0.3226265874535704,-0.031429082008182584,-0.31987652391065097,0.2218953952182687,-0.10654420291293963,0.2333295328082452,-0.07402407167462521,0.01226514259188943,0.13030102135822358,-0.472484005385707,0.005789466363898821,0.014886728692019681,0.059181143141306146,-0.23071276013020867,-0.2900508331165744,0.048711261518941784,0.07836599310851304,-0.09446415904757965,-0.009902495134742027,-0.08681754296787475,0.08258830831169546,-0.20576472795908915,-0.04711980900931528,-0.23933733170427762,-0.06624533826067622,-0.03223164071212145,1
org.apache.lucene.index.FieldInfos,0.19041952381142468,-0.029255070387318678,-0.00017784119606224457,-0.10707786268053007,-0.13176632784081424,0.5654426058419961,0.15625130372272455,-0.0658204394788501,0.28142201321717103,0.0004960995307522705,0.10997731572011447,-0.09421723107162078,-0.047700175879984076,-0.0030168182298766074,0.16911928262279124,0.08142178535459796,0.0025792055599306992,0.009279880048789057,-0.4026535708766069,-0.36055965484005986,-0.06282401471469452,0.010519212272458493,-0.2489750599591949,0.00943495050987886,-0.10041193955023774,0.08987305343063734,0.04291778375078483,0.12700163600508993,-0.09375055372996084,0.20421638461682878,0.04276090257159882,0.03293162522074684,1
org.apache.lucene.document.FieldSelector,0.18566057232423203,0.005627504009058973,-0.0003532197939368375,0.16160671171925028,0.11165459651145904,0.3597921724264019,0.3382598104332368,-0.0380207155614496,-0.12109276402516221,0.16411524993886,0.05825559827950595,0.082030257371357,-0.05172522073967874,0.0043124778881772925,-0.29715102956745826,0.30699177717157544,-0.0035804364236780187,-0.020911345526290558,-0.3267386352741056,0.24809074350585877,0.03468066387903186,-0.11238554866104813,0.03335210572082389,0.11542093503563115,0.013261316228991425,0.1255512868127036,-0.16507778786623484,0.40122779166718836,0.04189477808138747,0.11052965564172576,-0.03723248380148039,0.1675886467718343,0
org.apache.lucene.index.CompoundFileWriter,0.094892841682525,-0.10972446054636725,-0.00022076604090949336,-0.08223934035457187,-0.0887604064987767,0.5555941211692406,0.10412738246306327,-0.01874386400052646,0.30207969279540836,0.016019814405987536,0.10942861636845021,0.015383372256174498,-0.0004923502727803093,-0.013968271173226372,0.5388579562670388,0.14133121117995123,0.007541645938955628,-0.024358078855752474,-0.07192305528798983,-0.11922195040516631,0.08448350656196521,-0.03223360953911986,0.02195844036870422,-0.04064447692675911,0.13738747029771844,-0.07172139670285997,-0.008292983243675504,-0.12378988657134292,0.17817774910842707,0.01802111105008371,-0.32742047849474143,-0.145402237469103,1
org.apache.lucene.search.PrefixFilter,0.10232174828632165,-0.11738732169535863,-0.00038715925889862274,0.22099674474908904,0.177500640445063,0.2875569612322383,0.2941632836676924,-0.02849067426843995,0.05244026856036592,-0.34547929221080054,-0.24997517825356014,-0.2751016870112488,0.0642936001210331,-0.004147199490779641,-0.3200112422191667,-0.012714597458566406,-0.01974216716534731,0.003421050084198994,0.48764506227619225,-0.005611875691293031,0.0827267430632542,0.009477483533888454,0.13156473637745214,0.010371721827582028,0.05884678257691374,-0.13801930232043008,0.12393626704679717,-0.04551815409011866,-0.13442723486038782,-0.17952641015711368,0.04525333403851168,0.05919169636437654,1
org.apache.lucene.index.TermVectorsWriter,0.13496087716453037,-0.07083554137163443,-0.00012910323267734702,-0.09347643081656022,-0.11452519427004619,0.5760167489154093,0.15020796004457249,-0.05805791005694389,0.30059541511082105,-0.00938878097082648,0.1071837690080599,-0.07909975854295852,-0.036065875239031736,-0.0010156226501208978,0.19331653319893452,0.09825592095396081,0.01628097871210633,-0.007409622250373835,-0.282686035929042,-0.3758151184470212,-0.10021561977923442,0.018312972971021645,-0.23108748376056776,-0.09630854652134323,0.004286407265279393,-0.02277346888084535,0.059430679293246545,-0.03822602683403827,0.13587606880469832,0.29025280164475825,-0.13988268396830383,-0.13541536843307464,1
org.apache.lucene.search.function.FieldScoreQuery,0.12778762693105583,-0.01305997556002896,-0.0002489514276067892,0.201963907032503,0.1779914856759074,0.05717985656455961,0.16300901553273084,0.023794695227508864,-0.33009777687270403,0.28359080931543684,-0.1345513108821133,0.19059941179183137,-0.04706411155322258,-0.004346333235654996,0.057025818355479506,0.3810135393406048,0.012792746920572482,-0.04391785830192764,0.015905747762285673,0.0776410451066297,0.2625149011236043,-0.06280330555001774,-0.004869183867947909,-0.18321229138677605,0.2514992117544935,0.23420302628024348,0.13346800174990073,0.31908872094019736,0.24023594472275353,-0.061445687414199576,0.0027373969562879577,-0.268497745700006,0
org.apache.lucene.index.FieldsReader,0.2570803008177016,-0.3931094944041113,-0.00016602277551509652,-0.1808840367386781,-0.2164755685390458,0.4088906527999225,0.1515476241217937,-0.08508646068075687,0.19957395559698105,0.10094728266215136,0.14527563449512954,-0.02110382279280903,-0.08205288277009247,-0.00413042117237454,0.004281122334669861,0.035783220832324915,-0.004533402524161616,0.0113720035870653,-0.27446827439273574,-0.42072185907525544,0.005699023378590193,0.08213939413024596,-0.13236412110788182,-0.13958430384314072,0.01558176129318737,-0.02180849238007157,0.18758753339050654,-0.054956261435572654,0.0030869567130406696,0.2874448267632491,0.06128595704095067,-0.03444220047163537,1
org.apache.lucene.util.PriorityQueue,0.06393562838771523,-0.01630234572695461,-0.00020258178836861894,0.18804796851990244,0.1545079781005858,0.1652216965810979,0.25845479524549747,-0.006638258540220302,-0.15394645375381447,0.12526246439914338,-0.030038575569120478,0.09246911776702911,-0.052199877682588124,0.00977599900104851,-0.22898941903094955,0.6076581453735046,-0.0082061827680717,-0.01607922407541917,-0.0280483141236305,0.21104820521584128,0.2905672018113242,-0.11561994970281513,0.224618060697972,0.068968350588597,-0.13418277495260508,0.11012508991443183,-0.2852862583387889,0.08534636787248691,-0.17377958230951232,-0.10542458374913322,-0.09552087876231653,0.0319163374552765,1
org.apache.lucene.search.Query,0.3114688632256907,0.035888137258406574,-0.0005866191547795853,0.4532528655683398,0.37322562692092287,-0.15237180067475428,0.015859850119697764,0.010193888311123644,0.17221691053350685,0.3309967614164267,0.37758204057440986,0.25307991025407683,-0.020684053293100607,0.00023796154552368888,0.11087352411106872,-0.0216755379630987,0.009320203820918922,-0.032534647936902715,0.041141287053945076,-0.004408312216421268,0.09487497706842964,-0.2837723476902054,-0.13781687758866562,-0.0649378284068857,0.018844816569098914,-0.15531757140068994,0.13825594775220515,-0.050936472354774144,0.08527385172396025,-0.007969441801277411,-0.0008155341611997759,-0.07242476140330427,0
org.apache.lucene.index.MultipleTermPositions,0.08238519721529092,-0.08138857895242226,-0.00028661436621977746,0.19309715009363818,0.15091742797622684,0.3184346578999204,0.3374971305529491,-0.04000242430899842,0.00982254068961872,-0.20101511644738337,-0.12284559342560203,-0.16081483285922554,0.010868221864441929,0.00833431082888939,-0.4169621477086059,-0.03999614114455095,-0.016761362706060098,-0.007383583788255987,0.34798634163731884,0.021838925232155765,-0.09376676647736358,-0.03865396619851167,0.2054159700408443,-0.0627178449426031,0.05745481086443709,-0.23559869211333992,0.15302420720971172,-0.25119052610356507,-0.10207516319329271,-0.34016325671482045,-0.026217241998138057,0.045375951133382615,1
org.apache.lucene.index.MultiTermEnum,0.09125725110343828,-0.07578695627200972,-0.00028385825004263927,0.17152653208850097,0.13217951103743092,0.39346268741397755,0.35336984561321577,-0.04215141615367561,0.08930585585156538,-0.2755431594217801,-0.08289988823118588,-0.2349161001751185,0.03118727879581834,0.012154023003410959,-0.5242491947060154,0.096455834615308,-0.01626373983153859,-0.0031462485712513326,0.30620077594164374,0.11357063381344933,-0.03731870801498526,-0.005815214392818625,0.20831812066556468,0.011299818104772347,0.05825176067404035,-0.08411231848064525,0.045415759341252644,-0.028717975861253315,-0.09062651171072178,-0.2133194120824942,-0.01735773340211453,0.08425878635698103,0
org.apache.lucene.queryParser.QueryParser,0.31439225385132946,0.039261907510039884,-0.00037275449277928427,0.19713964498061115,0.17461333487646216,-0.17919540737687975,-0.18949876625620773,-0.0144712849391891,0.15914618216855705,-0.18709734341542797,0.06365101803724482,0.08649622009332372,-0.02690103027373278,0.00034633785364034683,0.03896363424100844,0.05330363088295814,-0.009206542298991528,0.02497682609987171,-0.20709621054794447,0.1271080598847,-0.19041542857082297,-0.4974014663579154,0.07880050633804334,-0.16437179547556258,0.3059535361717932,-0.021179281432003795,0.4112007101870795,0.12091221222315524,0.10966021266664659,0.0959179765124644,0.053225054781075386,-0.0813290839511353,1
org.apache.lucene.analysis.SimpleAnalyzer,0.5839957227970186,0.3323275238519953,-0.00010559449565772139,-0.06483951068398526,-0.1203401407058023,-0.0050547841431143655,-0.15400966326480475,-0.05561963537686301,-0.0749616017994174,-0.09292970718543517,-0.1990829359729331,0.0018540848070487724,-0.11952778369499979,0.01680058121668428,-0.14060327152966462,-0.11312759073792067,-0.014294107470882713,-0.014970610960235366,-0.014388545549520938,0.09018394361613502,-0.13618103644596113,-0.2588626925881861,0.02491047565404844,-0.11197205197296632,0.13776735114836192,-0.0014232308866225253,0.26363388415621397,0.07218632433893248,-0.2546548659615587,-0.16286092117264445,-0.12680717624650523,-0.30548986364799596,0
org.apache.lucene.search.FieldDocSortedHitQueue,0.05077187093377575,-0.020544523784443405,-0.00016050099608997008,0.14085844125299998,0.11656695353804325,0.06651400095919058,0.165707820888479,0.011136977558297134,-0.26551946354248385,0.24215764231084214,-0.1247757491993581,0.12735499871554665,-0.05263208517010826,-0.0002422712191127363,-0.05398325668663143,0.7686001532115047,-0.005719775960429453,-0.01817876514990989,-0.12896084695847507,0.10488709913597327,0.2787494850216135,-0.12395181875281443,0.07636527479898549,0.022879835937407986,-0.07878411478342351,-0.0016964744657490115,-0.11983110684161985,0.026528615579066914,-0.15161654993892562,-0.01411034211600661,-0.018039315506752637,0.04475629646181039,1
org.apache.lucene.search.function.FieldCacheSource,0.029107707839762166,-0.02460430116439542,-0.00013624356213127965,0.10320474625098952,0.08213822128159783,0.12949493752700952,0.16065443600940824,-0.027360698838031973,-0.03341628157449949,-0.054848329110164566,-0.1668881580726414,-0.04702893795172376,0.027644473404354712,-0.007532900529600297,-0.06361262648392123,-0.10174019157189883,-0.017970353797113224,-0.003194097503856434,0.3563068837091879,0.041561024194044054,0.2644658709090546,0.09647414542573225,0.21895294218736394,-0.033518444178010136,0.07939321454928845,0.15796313693299477,-0.1725998339757806,0.4817081153575745,0.3170668305327039,-0.3540497889525687,-0.14640833226030017,-0.30113058832565415,1
org.apache.lucene.search.BooleanQuery,0.3119025066572064,0.06824173483850461,-0.0004603907142463162,0.31007493542788345,0.26657182762007803,-0.16931421993208812,-0.12380315016255404,0.055637820898710555,0.04439859502481903,-0.1722092432814626,0.5037383767898272,0.0015350819116610574,0.09231427950687215,-0.006335603966609866,0.20017224999046668,0.0743933861556348,-0.00023200608262120896,0.023005793265502623,0.14600150998273798,-0.24887270876508102,0.018545660116937247,0.48679611609534845,0.016814063922301274,0.006504635159837711,-0.043560075260330906,0.08861784071649145,-0.08998233897755518,-0.05662387572402559,-0.015400884220387715,0.02837567470058644,-0.017626663355828704,-0.01963879777109222,1
org.apache.lucene.index.TermInfo,0.07933068951019069,-0.020598273210560052,-0.00015692092371481222,-0.01867975903399357,-0.040875559741355975,0.5704095791595645,0.24863525265958442,-0.060507758638363926,0.29321393531891315,-0.06720263653447693,0.22411058982891302,-0.11193048883581047,-0.019697029302129906,0.006495266479966293,0.03532300767422842,0.17424837597266205,0.002320570178416027,0.014598800659568268,-0.4082791778557225,-0.3095987968854983,-0.1274076044646578,0.022990794412007687,-0.16259441211173847,0.03059775658225102,-0.14286076988230542,0.16005822221726548,-0.00451016498700294,0.04117693769961475,-0.20295839508042515,0.06318929855792682,0.10024319149028603,0.0724995514997906,0
org.apache.lucene.index.Term,0.34988348290734683,0.08070977998173219,-0.0004358383462583965,0.23168632579436915,0.20360294162314357,0.19806671871707868,0.2276568365721704,0.02769129354300723,0.019054625487022366,-0.05937561313420452,0.5036731164827493,0.04916854036117018,0.044927908011136934,0.01327563021481358,-0.34311301423285784,0.1108003493141196,-0.005942562450906401,-0.020411243882873412,-0.129422326104321,0.2831219740607212,-0.01289538225233823,0.1555783149008874,0.0883911801909167,0.10276927413939622,-0.03670935681300258,0.19801150142691085,-0.16562974829158156,0.014729533767170051,-0.09761081152164167,0.21219473947978157,0.006036386137750304,0.17034149864578443,1
org.apache.lucene.search.PrefixGenerator,0.1063127437066127,-0.115389161247682,-0.00039726139881419943,0.2367531169077197,0.1907788758227786,0.30530042642052435,0.3189137953005427,-0.029210013331235116,0.05387201159879491,-0.3333483899263433,-0.1947276367800346,-0.2524212026760499,0.06734754906505441,-0.0021254039665522485,-0.3493467205742951,-0.04016942411133872,-0.016031626362027755,-0.0019767724615069107,0.4706730991998912,0.06317422648882909,0.10612137953968938,-0.0090216750304529,0.14401524532220816,0.0020486329418072523,0.05268757879771328,-0.15494773649785248,0.09723451397820272,-0.05452482970153111,-0.10053853110618333,-0.18370961522358148,0.04812001091503299,-0.007291111532492877,0
org.apache.lucene.search.TermQuery,0.47350019680527655,0.1396828228799931,-0.0006175474265741255,0.3345945799366427,0.28378778861398263,-0.10861387538124644,-0.07512040019501086,0.056804813596124826,-0.028364075135715573,-0.0731661971405241,0.5275513614859102,0.09778392237292785,0.0541164807180948,-0.001248935001318059,0.05506592723419793,0.10381663576460572,-0.0084230273303662,0.02174408568601216,0.08298824775774369,-0.10255057405072736,-0.034756263570557965,0.3714767658879878,0.05846280305929659,0.005741747989225296,0.11007614851853821,0.12859267459681611,0.1350634363422543,-0.04453232707799456,-0.09906929215012107,0.09995565447105535,0.0423419895257823,-0.03580072997069635,1
org.apache.lucene.analysis.CharTokenizer,0.014836676077379434,0.0013396526508140168,-4.871966166487786e-05,0.013876142797099466,0.00981325375661978,-0.016351931790766248,-0.05242253383812132,-0.0025436950751788192,0.09645647778449297,-0.2551327497126996,-0.07548862187021402,0.3796802747888799,-0.37698579753980055,-0.002524649585547408,-0.13876832000429876,-0.05011101240451882,0.0013500154434968935,0.003389322440747943,-0.14907227437651666,-0.19602888630781717,0.19644309627416437,0.014935447487784151,-0.2915356148431741,0.11236634371065343,0.04785221483540212,-0.07626416333598704,-0.04628506435744299,-0.1745145240227969,0.07147502018598714,-0.5581655691235371,-0.0559510510395396,0.22524560017801554,1
org.apache.lucene.index.CorruptIndexException,0.15089910843296417,-0.0026533657975152144,-0.0002936523435119419,0.10518838127734587,0.07159954997049572,0.495122648432834,0.27340074578537876,-0.019478048625978014,0.06664094732795228,0.09887177827068282,0.127211173506334,0.0886707418691417,-0.0428832416579637,-0.0065542061743944415,0.08618526985507716,0.41237487613906526,0.006591505980108553,0.0022365011622755265,-0.32534352006623857,0.18019696016420297,0.06124939124514395,-0.20615074721652346,-0.003948018148492716,0.05686034257723419,-0.050083603085176266,0.19011054326823776,0.015223176143830338,0.362018892768839,-0.09466022162122217,-0.1074402282117468,0.21138876940615334,-0.01173283180601809,0
org.apache.lucene.queryParser.MultiFieldQueryParser,0.3328769246795162,-0.0012539252817579864,-0.0005231714139351356,0.3037459941993736,0.23390930563813964,-0.1803870559868386,-0.13483220530038048,-0.02146381697642253,0.15077210144376263,-0.21044243918790884,-0.025786430819508287,0.0574024545430889,-0.024676635172274457,0.0029399718124918255,0.12457527653387886,0.006660080720540261,-0.009882803571770548,0.05278392356499969,-0.3000557764176041,0.21485701188038367,-0.09710453173944321,-0.07044204259187849,-0.024923805353969097,-0.07760233917356324,0.31058602102464095,0.08988402540202338,0.13659246941406433,0.2992286560060676,0.24855917623429544,0.26156516713879624,0.059356931707721924,-0.3119326559742811,1
org.apache.lucene.index.SegmentMergeQueue,0.07825537389765388,-0.014167807640141505,-0.00011709781152225874,0.09574446201512528,0.06408174725487985,0.5221510221326479,0.3727034880851063,-0.05250211627477628,0.16242805111140735,-0.09477169593181899,0.22958469096057493,-0.0743475401256074,-0.009702572826233926,0.03252089195197101,-0.4519178298303642,0.21877388842497908,0.00551983430820207,-0.017412686228371943,-0.13625666026400216,0.22672923278405024,-0.056826317183041694,-0.03498184643440819,0.18606304687472414,0.027434274150035704,-0.019599688300103398,0.13449644228744145,-0.19182967979092144,0.131681645675129,0.01995692658272197,-0.052904375589757115,-0.15477441654422694,-0.09672624707270669,0
org.apache.lucene.store.Directory,0.5293178204623515,0.24239117121362255,-0.00015941799189021986,-0.16928387703302114,-0.13328099032860974,0.39416091731496805,-0.025502014918794,0.0394768197085795,0.15578203171780128,0.055962097935830964,-0.05516748480226761,0.06480894406784886,0.03971901362412963,-0.006189657306504762,0.3271400608127981,0.036310266677047925,-0.0030175831688757653,0.07732766510165795,-0.046706897270388466,0.12618845945989474,0.014045381345142566,-0.10170909703367231,-0.13310483038920767,0.07796738230527707,-0.1046032891073418,-0.00468614906511253,0.07582410098943443,0.29122617685249363,-0.14611413952663307,-0.15148207302793035,0.32617633526739687,0.042822459188849235,1
org.apache.lucene.analysis.PorterStemmer,0.009997035191809552,-0.012265806535344793,-0.00012695771502083575,0.007991921189759818,0.005297382254570449,-0.013127585676536633,-0.05175622032622255,-0.003040790112975583,0.10603720843233373,-0.2695150558705141,-0.08593050837593004,0.4221383642364714,-0.42517367867606237,-0.004512985295887646,-0.19870451784173576,-3.140168037994786e-05,-0.036227203003170165,-0.038180921814536174,-0.1306773631879424,-0.19018601453937886,0.17373771893718012,0.07702973002274228,-0.05526324883140137,-0.08743809934769887,-0.11298827300826973,0.2012460101998908,0.10707779044594755,0.20428647463424626,0.2648018779850973,0.4634559134260019,0.09892693753426522,0.05527719618925533,1
org.apache.lucene.search.Searcher,0.6286837607840349,0.25811471411312203,-0.0005782964449932093,0.243286687087913,0.18732728451111233,-0.05019732245193263,0.007873698977711787,0.027331100578788667,-0.34809518890180613,0.25334669322100156,0.1357878607539108,0.20893907182757762,-0.043674805604474676,-0.006376932174327019,0.05982032778927008,0.048367337855587285,-0.002411856913909801,-0.017538720743254767,-0.12857050496580386,0.07664584831803675,-0.08563201645719665,-0.027036732767554934,0.016360478619661858,-0.09025922944920622,0.13479042326103577,-0.14545435022040967,0.26671261578686634,-0.1042510713945965,0.00035715412742944844,-0.15708182022374528,-0.0026148536633816095,0.0014826656928465438,1
org.apache.lucene.search.payloads.BoostingTermQuery,0.19086288188705178,-0.1934707872763786,-0.0005076891662939529,0.30786577310826096,0.2376297628970234,0.10930232354383454,0.23082907033991873,-0.026045877248482754,-0.24197495563465937,-0.04961794093813757,-0.3151926418521235,-0.08506033661721701,-0.01760138625354633,0.014490332861113312,-0.1199974242884271,-0.025611293161077214,0.0166422277228233,0.007863719468444545,0.24602998688966654,-0.1740258547343911,0.10282379928052168,-0.025494848963757158,-0.09630279324275753,-0.07415242865464504,-0.06437983712672785,-0.07287842763114,0.11023093026210315,-0.4589167308147128,-0.3717706050007619,0.019206456701650762,0.17531417071192554,-0.0844631589937973,1
org.apache.lucene.analysis.Analyzer,0.2544912427688943,0.019097452710462384,-0.00021472093647882028,0.16355521282948374,0.14832267433194204,-0.15695543436123893,-0.1900373854548953,0.006455339335400672,0.4732818204963279,0.003327065945181926,0.04855344253504531,0.34939010016309036,-0.10685970748715189,0.01212179460274351,-0.05191283801238831,0.06753453851809434,-0.0022811003550908923,0.0006428623833248633,0.17058100253241412,-0.053276321426909294,-0.2972029881710478,-0.10205823357810621,0.021594856467190466,-0.10788334670282992,0.2586773250969808,0.045590281637178265,0.0899676650237259,0.30894177453097244,-0.03456626029199397,-0.2150277240927251,-0.0762116227238869,-0.29917404290546834,1
org.apache.lucene.store.SimpleFSLockFactory,0.0739853227080778,-0.03170857516811947,-7.017826672971059e-05,-0.07244075514847857,-0.05507288669147206,0.1638367104666542,-0.0414082010999367,0.04173140704012048,0.11616018877390696,-0.007524589375548968,-0.04974506193267448,0.15525603317455783,-0.04468181758752212,-0.016669607569431085,0.41866256338986796,-0.009779106022732562,0.0030856670855595523,-0.02055189117018513,0.35531378832682575,0.3174348133497328,0.15293297388818616,0.019284329925226273,0.4894183448543352,-0.02217520094621404,0.0921468214259401,-0.21279903097709713,-0.15781982266175384,-0.09460073199723486,-0.060932453650022735,0.12318696314050032,0.07272276203067933,0.3662375780874489,1
org.apache.lucene.search.DisjunctionSumScorer,0.03218868456788848,-0.028655537189599553,-0.00013117892856739374,0.16221531437942563,0.13264093419472442,0.09027776764154165,0.2544887975098435,-0.024999129348221256,-0.30401554016309884,0.15348499708900204,-0.29738865286452426,0.1571451218987801,-0.07221413595152107,-0.0036628037816721823,0.22709438868825882,-0.5143726603619155,0.003156629172115059,0.05010351023470303,0.07394555411460087,-0.3118125409005716,-0.3276592026273325,0.18851632455201803,0.03365544942825536,0.004539429606347458,-0.07033668768201552,0.07996183262154292,-0.07299103149127356,-0.019352247609999946,-0.11177312702842662,0.17123582331011752,0.07047065472089599,0.1307924248176865,0
org.apache.lucene.index.TermBuffer,0.09523706468819969,-0.10643759010605863,-0.00027671571411769615,0.024446618329794792,-0.0016842402462363814,0.4912767029893479,0.2114602342408554,-0.042110891265621654,0.24349498290041166,-0.18014096853888267,0.046833522842030184,-0.19211942820730354,-0.0060930241602609675,-0.0033567823302568904,0.10629091068479798,0.1920346917801414,-0.0013180492241983736,0.0020387063340937886,-0.11111523384826516,-0.38664192526084046,-0.10883834231181248,-0.05550347947890039,-0.05752066416574929,-0.06332357560251622,-0.04399705621391346,-0.15502846570491668,0.1677883014598805,-0.4096614289098154,-0.30140110871103304,-0.004609393319771417,0.0399840308606111,0.11659578565063895,0
org.apache.lucene.store.BufferedIndexOutput,0.10219467630656501,-0.17093321169690368,-0.0002064708502032786,-0.10734025391690068,-0.09998211425682275,0.4304041003680492,0.007719126181115616,0.017287339059821723,0.23033990026660303,0.044001691746439656,0.034544580240958474,0.07998105058625343,0.008152118214167265,-0.015852732574427545,0.5544152667219766,0.11297863303061761,0.004879860943878363,-0.03514556014505942,0.0960616127376906,-0.00907814607008847,0.08157493600550066,-0.014239062028980494,0.08968066781631767,-0.04854019850356869,0.14108472473601627,-0.07798281713914798,-0.007423422890970881,-0.29231105320867795,0.2287890297187228,0.03235915910671385,-0.38916395495824396,-0.16130703904483798,0
org.apache.lucene.index.TermVectorOffsetInfo,0.20084285438688498,0.07419906319319827,-0.00013805984678441627,-0.050587551354510776,-0.08187384517517877,0.4817901245414699,0.16867803600536657,-0.06875127310405049,0.18185034564240088,0.008965127029615489,0.1477565122953896,-0.0817974850233157,-0.04284595976772838,0.008187628793654268,-0.05501286081578488,-0.017502084645843484,0.012016719916866123,0.0011241729874059824,-0.42936794614939566,-0.17092446988642124,-0.17151629115823008,-0.013499824986166286,-0.22555206210508302,0.03208612140452494,-0.07253270459096015,0.22429182836621306,0.07773466666929271,0.4728568606364667,0.04185265876633581,0.164307043314383,-0.034011282762277835,0.0485266856428227,0
org.apache.lucene.search.function.IntFieldSource,0.009738362367453629,-0.005499649523436826,-4.154929399697072e-05,0.05861088614618762,0.048559790281044846,0.07537528228958155,0.11739949310133775,-0.019632258865474646,-0.05332496997841822,0.022578981957121238,-0.04529613214465432,0.02840936422500462,0.013870254044107095,-0.006547795492174727,-0.0365183545554328,-0.10079701065487784,-0.019607298759351063,-0.025830833511827522,0.23119353779050983,0.10958499533120607,0.24270493798688417,0.028597028945036032,0.303564819713482,-0.07001375230477026,0.029336169497609605,0.12859061663940669,-0.21735806191203563,0.4155581507758476,0.3087624313133035,-0.47679937276880996,-0.21635710984740741,-0.35523443424354834,1
org.apache.lucene.index.MultiLevelSkipListWriter,0.09075479849689017,-0.0297162055807322,-9.210975641961795e-05,-0.056464817657327894,-0.07762708750038586,0.6239943683923206,0.167609620568482,-0.04880796938247269,0.3322778784167848,-0.0104591152720869,0.16104992217813766,-0.04461945617259134,-0.028238972813760515,0.0025752850520237183,0.3833635928201674,0.12134973439686592,0.017072710885881158,0.001654907372572468,-0.2229090938239131,-0.15476029911021863,0.02131254949689866,-0.053364361602829945,-0.091489202290892,-0.060972667104967175,0.06296764246024113,-0.005128506585609801,0.11583772357024791,0.025502666827880067,0.1212453740305553,0.07787054240259553,-0.26154443677109723,-0.25362485385210665,0
org.apache.lucene.index.IndexDeletionPolicy,0.16100513631146676,-0.24789196275836914,-0.0003335665437569045,0.03308180349107488,-0.02567786356791643,0.27867027979971354,0.027082935587377007,-0.05221414695922578,0.04489927946287178,-0.02420427709610095,-0.11052363497622716,-0.0058664885351869265,0.09163478613419623,-0.02623213156486366,0.03680358634685739,-0.18427274975533744,-0.009444183433866394,0.007497567219204056,0.3931388070305948,0.25794973429401374,0.2522594800161551,0.020260055409562362,-0.01700510093782666,0.12642299558273737,0.13571779528232208,0.06007061390593281,-0.1540768544286728,0.19234425040453876,0.3509434976016867,-0.2703290112408277,-0.1733123384890885,-0.39988687344069146,1
org.apache.lucene.analysis.LetterTokenizer,0.03484612756597029,0.0028302515531235936,2.028128158836848e-05,-0.0021649998659467934,-0.008801684574243728,-0.021741562738499122,-0.08503849868130493,-3.656529880930428e-05,0.12107312239276255,-0.31843736389489347,-0.14657082539958646,0.5225309105409303,-0.5269186997063544,0.009084216855901018,-0.19394128396102076,0.0185684631266721,-0.01861708938367297,-0.023129331642145826,-0.09257580766506142,-0.08530041224568977,0.033543016988197435,0.030277178809487663,-0.01434719007800964,-0.07575820841204181,-0.19259851098485684,0.2414097255083764,-0.09507431990468253,0.032367993378652066,-0.18731209573025062,-0.1158604642922292,-0.058568177588419305,-0.28742046883912464,0
org.apache.lucene.search.MatchAllDocsQuery,0.2950750279873042,-0.02400974592806368,-0.000547091566555407,0.3618667493172665,0.28530325237504117,-0.14561181633232537,-0.031128118724387872,-0.011532298023154416,-0.08678840069685341,-0.038871313466105326,-0.048557192413830344,0.017630036461769413,-0.0009353565489912582,0.0012701759653402783,0.20696572306351943,-0.04714297005547993,0.006043718477015626,0.0038917340294468412,0.3590139750915192,-0.4802023016029214,-0.04702470512739263,0.25059263168057266,-0.062472934016020415,-0.13938968474911273,0.20104835394432297,0.1352080392121681,0.18367780863098668,0.0715091077674912,0.048558837570659825,-0.16769785223602005,-0.10416268167654749,-0.18485587712958995,1
org.apache.lucene.search.BooleanClause,0.31585622638253646,0.09606278555526788,-0.00041082608963309054,0.27259019056220796,0.23865313404749824,-0.17822478881204573,-0.14461219062531758,0.06194468294441301,0.07533859348016828,-0.1539742330158329,0.5620654535860413,0.00636429946362583,0.08557348641553356,-0.006810504774281362,0.16646168117338495,0.09047176020240208,0.0004950840126023459,0.017551337134696938,0.10130327979146052,-0.19095008505045338,0.011843117785574519,0.4816659217901601,0.02800083479247163,0.013794843233670185,-0.06117437800384372,0.0690259017481978,-0.12240268307745897,-0.08347060542487823,0.014193860289640682,0.047444045367668185,-0.019702920436114595,0.034345378890041176,0
org.apache.lucene.index.IndexCommitPoint,0.13704601978850092,-0.017554226500518584,-5.758117784114741e-05,-0.063655923520649,-0.0899370454191507,0.22271881563855755,-0.044484119908066534,-0.033478152374548466,0.05606621494568846,0.06962163654056502,0.001085390686200347,0.02247512270908213,0.04418240711310729,-0.03061296524666929,0.22029971956254188,-0.14153945763094022,0.007714041234228303,-0.006431174897721704,0.13392156769532843,0.23802361240379227,0.24978624762799054,-0.08341443668895912,-0.17046518927295165,0.1018354743008254,0.09960204923778175,-0.0520533349961794,-0.14377173837967272,0.0696129223584734,0.2954590386544106,-0.24876485729516834,-0.14823480679942727,-0.6658405555829308,1
org.apache.lucene.util.ToStringUtils,0.13507529145349073,-0.09027773620875303,-0.0004297732767455359,0.3269739044556499,0.2652613863256306,-0.08514385840963751,0.011973951519766438,0.0022557348022387994,0.04208845564526397,-0.11011990575691959,0.36607941301524355,0.025681105771069176,0.064657088283265,-0.00277479557564194,0.09179392754572771,-0.17434467030898831,0.011426408245410013,-0.019019632735331644,-0.1145086059363477,0.26440946466285886,0.2942535564681913,-0.29797389748180864,-0.07359802906315589,0.011225219384183822,-0.08584265186068932,-0.02546018869040934,-0.03538551700231049,-0.11673248532914632,-0.20564503835463546,0.27145484730539665,0.2005512580559803,-0.39220101422744436,0
org.apache.lucene.search.WildcardQuery,0.2399366451309572,-0.0675391588544203,-0.0005808310770121873,0.36550465885987554,0.2928279040495826,-0.02975828187455755,-0.0033046973100806084,-0.015891522634672063,0.14232742592017847,-0.5489994232945314,-0.01779732491485235,-0.1992465629913739,0.1028485725371821,-0.001869647018042284,-0.04310512057323899,0.029714462458316375,-0.008283842039672402,0.01008255170209617,0.3031438418232059,-0.10620488148228802,0.053237073222333384,0.10239712591078974,0.062057229058496075,-0.12891090992203028,0.2347515388139248,0.056210049795751255,0.25001909123477783,0.019237193008241386,-0.18907448313135886,-0.08602452487265688,-0.05624513080766606,-0.19438920237218318,0
org.apache.lucene.index.SegmentTermVector,0.0776777513303214,-0.0770021479198006,-0.0001884883108734646,-0.012557128489509115,-0.0423442236026547,0.5843711836266299,0.246188995589849,-0.0669055361926898,0.2835298852807819,-0.09337559099775064,0.07867835455077747,-0.14940101631624517,-0.04982067763968548,-0.004283662950111385,-0.1087658500736784,0.06411176617927958,0.025812822271588574,0.018284781203084098,-0.09784337589267324,-0.3762202210137615,-0.18059213786253506,0.05135473649379134,-0.22838939793505866,-0.13285596505367228,-0.0015219223341656279,-0.07688056370375831,0.198244484682787,0.06244707474583527,0.24663104299589295,0.12985425186459335,0.05546065114538059,-0.2374740178386875,1
org.apache.lucene.search.function.ValueSource,0.09300059808027185,-0.020458822724144912,-0.00027537123894282804,0.19723585104713917,0.15830061366916365,0.15032229875503023,0.2378019103247792,-0.019759825129653873,-0.21877276114484295,0.12416424226478369,-0.16514297947365317,0.08896874388362823,-0.004334750672095769,-0.012458473147999898,-0.025890102075444312,-0.014226087497439394,-0.00999964247220859,-0.03510495038363595,0.2223845447363693,0.1161665119714639,0.2915988242472075,0.056098135620004444,0.15594387019817849,-0.09927352941206151,0.1501119341330011,0.13302390580771437,0.011842633788360452,0.4308698261890273,0.32987036342043,-0.3310573918434166,-0.1265281247623743,-0.3175661611120022,1
org.apache.lucene.document.DateField,0.1847218479340915,-0.012461548527202092,-0.000302459574206559,0.1724366777795137,0.1416169434615986,-0.16346905946530135,-0.18078834881184883,-0.011144880238857133,0.11425491098233696,-0.29924784528834175,0.02078922154714071,0.014404605458723525,-0.018057521964993554,0.0018368055260645551,0.07540757410732818,0.08717882058715207,0.004214284315122024,-0.012637828161235045,0.180125559444173,-0.2582831321965218,-0.1712152406040527,0.108157344443565,0.053370785843645616,-0.28330497339270605,0.4214732423483821,0.14688165469273137,0.35998881716963554,0.18574964239526415,0.1885602598457083,-0.21097808683917038,-0.16228703180464288,-0.21534762121192408,0
org.apache.lucene.search.FieldDoc,0.03548858565606886,-0.02990949517005258,-9.541856657322407e-05,0.11271983640659165,0.09150842167039254,0.0683165740999838,0.1428629263630453,0.005037403889761592,-0.24806463942703808,0.19389848213237268,-0.1501142032296784,0.10132900688474694,-0.040490082626768856,0.004625646243453594,-0.04747547199101937,0.7634297245699495,0.0031436129440618526,-0.020625087392891102,-0.050182366899381096,0.07133371435349677,0.3534886669315853,-0.08608176021002346,0.09548780849701599,-0.040970282226284585,-0.069030938609981,0.052558758159173095,-0.16137876881776858,0.0572386454258649,-0.0337213907195186,-0.1453806338193718,-0.02548886087150003,-0.14838326905204266,1
org.apache.lucene.queryParser.TokenMgrError,0.09859983457752655,-0.09660505367348074,-0.0002754726116566406,0.1481806126021755,0.1318318021963266,-0.146655470343293,-0.16770843909310407,-0.013591365790004263,0.1660453153215212,-0.28199809800606607,-0.015270493445319867,0.07797951909949125,-0.06488738256091334,0.003251804161463802,0.02996587488235606,0.06797120161327087,-0.0020391510077288053,-0.03239605969999356,0.05890409566708471,-0.20634584728517663,-0.15187174686830304,-0.013230445121066314,0.021598500974753587,-0.2994541593518096,0.414985880094322,0.17118308061970783,0.39812108027269055,0.23085192778664254,0.4056921431426022,-0.03673328857441024,-0.150385534888411,-0.07937379397211027,1
org.apache.lucene.index.SegmentMerger,0.14739807173568006,-0.15147678600955955,-0.00028904106514393075,-0.0009605201621831941,-0.04065581266457896,0.7234943097002025,0.30037331728990246,-0.06817528206013343,0.3196253169732135,-0.14449959208871438,0.08440480592937817,-0.15983861868741592,-0.0119804852483722,0.0002847186268226612,-0.07986204291147465,0.10843206212254561,-0.006253363858775264,0.007675579735435572,-0.012482349967514766,-0.20174010646097312,-0.14792823233769012,0.008549827277635372,-0.04542892398765432,-0.06141514740717344,0.03799596316340125,-0.06559284329191778,0.19251879288789456,-0.18151631356645384,-0.010575046367629733,-0.04090490872218196,-0.055513787512566866,-0.10953360377913275,1
org.apache.lucene.index.MultiTermDocs,0.08995023127171649,-0.08576637572812412,-0.00028879497244578057,0.1522738892755549,0.11468567742575511,0.38935535953872136,0.3398750152579313,-0.04423821824434094,0.09936400368912847,-0.2633368232795284,-0.06641230580317313,-0.2324230753099595,0.03117867353160159,0.009624777536654798,-0.5301549985795015,-0.011323913569621018,-0.012519448459404744,-0.0019419941585005136,0.35101960145902816,0.07426300281802274,-0.10194769718012565,0.025446577100192103,0.16685666305103128,-0.028793174076392567,0.09338196795037539,-0.14253563822099832,0.09525437141264131,-0.09590630305799103,-0.0017557627132816609,-0.19853967911862644,0.025073423602383325,0.05723858607907303,0
org.apache.lucene.document.FieldSelectorResult,0.09179307369288359,-0.15088121579076333,-0.0002639143049120876,0.09632829424293755,0.04856280695335778,0.30048134889189315,0.2346011604972251,-0.046056194620351966,-0.11965373429610517,0.09569104388508975,-0.19262484483921918,-0.04090547921233172,-0.037942384225723456,0.010683354249784335,-0.2637679146064334,0.38046750768137494,-0.006693750973222868,0.03432034077225894,0.10413311786617618,-0.2921640679770659,0.01722929827527538,0.1411096309724851,-0.09160407692793453,-0.17566909933987,0.10357039548411244,-0.17423473839826065,0.21741654752300077,-0.31717574392560943,0.22094722957883767,0.2056164056302407,0.07505116716283933,-0.29836192952713825,0
org.apache.lucene.search.SortComparatorSource,0.04985875818329432,-0.03551318934093863,-0.0002151553032853649,0.1587254323913931,0.12619074129069793,0.1939898275000533,0.22602637566409023,-0.02660234596838137,-0.04010446289451626,-0.07334710356773264,-0.21985112261630657,-0.07383167208517476,0.029669407874634686,-0.014413487510660346,-0.14559356201383403,0.163233109875183,-0.023195314934568268,-0.009262079595567812,0.37706983670841737,0.14459209304281623,0.4212624910610823,0.03815398606616861,0.18705543989099563,0.01896667268483319,0.06261034278245697,0.09433932267094398,-0.12062682926839474,0.4383008115462732,0.19093809262337005,-0.270945389414123,-0.14694123167087628,-0.16457363487052187,0
org.apache.lucene.search.ReqOptSumScorer,0.028600146929326924,-0.027546305215306006,-0.00014030993167401314,0.15618647573969338,0.12807170508721294,0.07836371316284375,0.2284265933019383,-0.023411673303070087,-0.27177736614783377,0.10523568940810114,-0.3498099548949781,0.11990325735461616,-0.07314652730177562,-0.004998324845063056,0.2253197169894825,-0.4465471931492991,0.002671790601269564,0.06329780650085086,0.10321383248090032,-0.2978843177983675,-0.2561414261834381,0.21491653308325925,0.007414025187571454,0.0442350271002825,-0.04399355247566263,0.16697744127276928,-0.11728880839729455,0.19312282317885593,0.022262259207420813,0.33186814778050716,0.05588552558892627,0.09845038543316653,0
org.apache.lucene.search.DisjunctionMaxScorer,0.05273255772545685,-0.04261109819041773,-0.00019286241964979996,0.19698907560881376,0.15864539894137375,0.09321956339143013,0.2513396718440537,-0.025931670958356745,-0.2862975858229324,0.13100980989849956,-0.30377613357294475,0.14225253665387183,-0.07144750647860311,-0.0012584409646448083,0.22356723695052386,-0.4796451282455484,0.007162380953401449,0.062039677245822135,0.13634614331361616,-0.308197649476822,-0.2626057953125849,0.2124788493480054,0.001958869818250706,0.002454891940759764,-0.025738461747174157,0.12305766076870041,-0.08528726691864119,0.12429588701581247,0.07087182742552926,0.28982218453550174,0.045171711566590736,0.03030453992116931,1
org.apache.lucene.document.NumberTools,1.3420974586186854e-05,9.655507100298462e-05,-0.00010715082109527553,0.0005168271581975437,0.001232142222863978,-0.0038796086372653287,0.003131405320541385,0.004825630089003227,-0.004095960876264694,-0.00029916153192992615,-0.00781658331370345,-0.029229746952789137,-0.008126731640360015,-0.019460820901851333,0.02834173475984176,-0.015327109273704082,-0.01526956680662266,0.008847611922161288,0.038046529546704004,0.2793376812116381,0.16893959342748013,-0.12170781843245848,0.09984921456187425,0.41779405619703813,-0.21574090173802107,-0.14933972311595253,0.2074969100865855,-0.34115785267432325,0.08030772698266794,0.5828872809809543,-0.2822049730088928,0.1890355265809387,0
org.apache.lucene.search.SimilarityDelegator,0.0628001834538972,-0.07788890224233604,-0.00015836481887324916,0.15641912286953533,0.11757469917788024,0.11051529624642528,0.20777748950914443,-0.02833652024297803,-0.23187375917627423,0.05650930274683789,-0.2681724593572238,0.058909015335405726,-0.04840414658536555,0.006884047611525002,0.16235041009610782,-0.4403056474236243,0.011951784682582178,0.07209250688118105,0.2265232562045651,-0.37999653667392935,-0.32804227101485417,0.270827861112104,0.029893475858013854,-0.028340810504096703,-0.04062895932512841,0.14453345179111615,-0.13101907332350707,-0.0022310997969806727,0.029867899183518315,0.3350099371942512,0.05324681020379133,0.03421786996406235,1
org.apache.lucene.store.SingleInstanceLockFactory,0.1398146676977803,-0.16249483601040562,-0.00016459484330597266,-0.09699173047412939,-0.11178036975876728,0.14852313240258558,-0.12325973979766233,0.0015681018060108522,0.05343822249356408,0.07303825720165666,0.005284272592157934,0.05228189063170892,0.013403526274299481,-0.02123947571705317,0.37022549602444177,-0.08274119583626986,-0.0002776992097019788,-0.014846863486792808,0.30331606367494895,0.3453012530589101,0.2468565960463909,0.009222003980792998,0.25446723040037433,0.1377442244410933,0.10744292607596068,-0.14147814559804728,-0.26682233747186,-0.07416507529944212,0.009940751247703904,-0.2185874283167685,0.11863145138905112,0.4615012383968607,1
org.apache.lucene.search.SortField,0.05727480343621409,-0.047744797915572915,-0.00014294719703205258,0.1171531065462244,0.10565501893349873,0.06866280771440601,0.12919163045921234,0.020991123747618724,-0.25397775476933154,0.14281504492730024,-0.2076290603427126,0.046658825181535385,-0.02906278503088648,0.005181562856464175,-0.04198711173029885,0.7006379223548495,-0.004049570288558222,-0.02245612016885858,0.020565995053971033,-0.008614504258770795,0.3401075041405933,-0.07947827288777455,0.1506608240597437,-0.057434348223749994,-0.04830722775082095,-0.005856614717473778,-0.07998659119214456,0.010080040763785263,0.03681201220680806,-0.34506107939888014,-0.07697816423359942,-0.1994253409536722,1
org.apache.lucene.search.Similarity,0.1947243029531497,-0.003986210031730811,-0.00041221870498022253,0.2520265212735177,0.19204005750010056,0.15757172094263353,0.28726209241432216,-0.029844679893971306,-0.2880618952211089,0.22377899142812407,0.036852164681949476,0.25358042001090986,-0.06263443252729159,-0.00820436080021231,0.10807945193554902,-0.5150732727155085,-0.010120498401078279,-0.024122842683336074,-0.24821265345652038,0.08871499530632884,-0.31074862097322853,-0.09070233402101627,0.08433886733408413,0.053522325614602594,-0.0459093126827327,-0.08277577428648436,0.004627532357430453,-0.10241061399293593,-0.10232673722122312,-0.15247130279672527,-0.038921177067817704,0.1846761264843137,1
org.apache.lucene.search.FuzzyTermEnum,0.12498093395131225,-0.11360390862529558,-0.000448043883896962,0.29427625596597046,0.2396440006039368,0.20668988526585003,0.23276443298077668,-0.018096238675061733,0.10968244237887176,-0.44244739141388545,-0.027835551076739344,-0.26478930189608735,0.08853793169985927,-0.0036539289313809917,-0.28660095586221035,0.0092629802037154,-0.022333241082008657,0.0034342767807719913,0.4115294922068125,0.06253792758163844,0.0495621340574932,-0.022753681628404493,0.17741575568563067,0.015762039297010706,0.07242462252481,-0.1275573684448428,0.14562497630961563,-0.1271948337414425,-0.2679528127525385,-0.07651589268549576,0.10484300670434553,-0.07374492364221426,0
org.apache.lucene.store.Lock,0.08386718957724854,-0.08027487380026485,-0.00012401013927454733,-0.04992484511000496,-0.04719217590880309,0.23024356935208018,-0.002611631042553256,0.014230413224096721,0.13205276848361858,0.003114157823101934,-0.04130067440466776,0.09276440798571622,0.008155176147068668,-0.024937731422112187,0.42924415971231294,-0.012122660426166575,0.0015658198877387087,-0.007240491874153222,0.3973463470673284,0.3609198049318129,0.1801178050761305,0.0014641011133745498,0.3393121632971566,0.10707387196716595,0.0963141209962931,-0.04530751534302858,-0.1406572489373988,-0.008062740098224755,0.004303554245972544,-0.19706276503618966,0.09603359811966185,0.4350162119309381,1
org.apache.lucene.search.spans.SpanFirstQuery,0.0944336762737781,-0.05660335586164978,-0.00036979611643661196,0.25660768066482936,0.20372558076087088,0.017116059188791166,0.10425276056232019,-0.04374841743693313,0.13753575776855081,-0.14744344811935742,-0.3704414253140205,-0.23493309677465238,0.0552173044439307,-0.005208589850451968,0.028279925390320655,-0.21455223105554247,-0.01075096375547653,0.043406715424179614,0.2411785687510595,0.0710260243866428,0.5651079654254537,0.1869193481302406,-0.22960457847312307,0.01603398391222723,-0.021156753613925078,0.15569612397791563,0.043493136116343235,0.15629553744432054,-0.21371120840344557,0.0901144787596491,0.04899806169705078,-0.06921726626454054,0
org.apache.lucene.search.TopDocs,0.17734339249146205,-0.02218969792429727,-0.000343918603655978,0.18987492816907414,0.1472507622951242,0.04249900224886032,0.12456370277381601,0.020204726113837137,-0.3624228207210465,0.3042737426301403,-0.05377113581040892,0.18293104991833356,-0.05324034159243038,-0.0048056466622322415,0.008750671765110764,0.7255458710069584,-0.0011059445367366239,-0.025098137604516055,-0.18156351910036783,0.08967087623380247,0.21195853553652674,-0.05903501473490188,-0.02123088440263424,0.01579820122402464,-0.024415510844503302,0.0009199550757433564,-0.02878493456762383,0.00501045305066902,-0.060809944120858446,0.05171284957099155,0.0027468697678165147,0.06612597990895369,1
org.apache.lucene.search.TopFieldDocCollector,0.09160418007064326,-0.06154341289054121,-0.0002831147665637603,0.19207279805710073,0.15580033613124378,0.12648740839735034,0.191341444446843,0.004859173518648312,-0.2863008627731522,0.12487202499983732,-0.30570563316179317,0.029408893765257856,-0.02850073013619029,-0.002414109684996814,-0.019720747331587376,0.726630044633015,-0.009500736782233187,-0.014076061703272259,0.05306871245961185,-0.03316795014791349,0.312203376139877,-0.0575112551823833,0.07174831826618144,-0.007946825047501226,0.0038781012610867483,0.0041746866583617205,-0.012582630597404996,0.10527559073994074,-0.01376062970635209,-0.16780430526243642,-0.007083985361465602,-0.05545242204309004,1
org.apache.lucene.analysis.Tokenizer,0.007747563149271272,-0.002039445762367842,-5.591149669809905e-05,0.0068832043238073685,0.007045362364051126,-0.01300516487210645,-0.0429529941247867,0.005274289358784233,0.07986582841046336,-0.21356580658770255,-0.0830601107175685,0.32613602091830024,-0.32588133971947736,-0.003008396956163482,-0.11911096994470442,0.018127425509255547,-0.016607185860303787,-0.018880529476317368,-0.07165798708846713,-0.16563456603122748,0.1218955834017038,0.08930054800637238,-0.0033156823702087945,-0.10791944073715005,0.04772629809210011,-0.5308192601236021,-0.24802863824714483,0.1944623856423448,0.20029472091540848,0.43069064924759526,0.17592135465748188,0.06470281928623212,1
org.apache.lucene.search.ComplexExplanation,0.07818157583254214,-0.0006257862612137464,-0.0002860011826021609,0.25545047776124796,0.21175414653379057,0.0837866500762011,0.28022130789979943,-0.014883667080487707,-0.28545472423898977,0.3010406913792788,0.09571148785398362,0.3294662642844036,-0.0657251244483799,-0.006061696384912104,0.1788373886235551,-0.5470676594668471,-0.00020217283860604715,-0.017889097064561203,-0.125476827429191,-0.009627348248015768,-0.23572187271134457,-0.014467783593774737,0.03929426271873716,-0.03793165888601958,-0.013197995824241767,-0.1366576856696364,0.07753227813341636,-0.1718088960748089,0.0029536339897952802,-0.20084551195496497,-0.04741036563924889,0.026403058233510395,1
org.apache.lucene.search.Hit,0.3812877478379351,-0.41507947055986566,-0.0005928313080820655,-0.17761379674464467,0.034034735984257596,-0.03023083363100715,-0.20859311747366102,0.3007132677809146,-0.2871724559477426,0.19278519796267085,-0.08611413753866792,-0.12252063132421162,0.013848288566160652,-0.0015015520850741087,-0.3139276905096383,0.259955650426178,0.00888888894929236,0.0006537334831160629,0.014685798468645655,-0.1708206219295624,-0.12633149492373671,0.08096768978395145,-0.0356549170072499,0.1339845120977881,-0.13486324121945872,-0.023746089999943078,0.041670718187524235,-0.07493896380705659,0.28874536014264757,0.10179758759983419,-0.1165819806242755,0.0417323856122861,1
org.apache.lucene.util.Parameter,0.27103184063941144,-0.5492355613655768,0.00012806088153262228,-0.12600997793824206,-0.1616982434645845,-0.29757646050055725,0.0070959887984074444,-0.0813436871027248,0.01721422630408147,-0.07559562790198153,0.1443682899179465,-0.07151697221855595,-0.0005998488659053427,-0.0009707445554045004,-0.1077405397357807,-0.14710731716620587,-0.004150065311239634,0.007806899224648762,-0.25732347038226633,-0.0928829516610432,-0.021211955075254793,-0.12582766824351402,0.11291479421536788,-0.11232785594528212,0.012912120287229965,-0.09253066559343498,0.18142165107059618,0.35568807617326853,-0.23827798339256723,0.04583688843343755,0.13256973762082858,0.24746967194530373,0
org.apache.lucene.search.spans.NearSpansUnordered,0.05868789353238938,-0.06800590793819236,-0.00023959712371465365,0.20145776269241292,0.1609805392171688,-0.028881749675000564,0.06833197297083234,-0.03540828607711073,0.1330351519372335,0.0029712820680414423,-0.2831587846163656,-0.13477250060097298,0.021978495867518,0.005051285166311255,-0.0030694041385354795,-0.1480123171616021,0.001442481522132047,0.042504113080020965,0.01854546946261929,0.21848319609449035,0.621678255307556,0.09118259957829875,-0.2618264807662246,-0.032923943718933514,-0.07617986504076489,0.0616508290294591,0.04436626229698542,-0.11563006056999858,-0.37528225811237603,0.20375413070673326,0.16120372299827984,-0.18053708319836168,1
org.apache.lucene.document.Fieldable,0.4574880962826397,0.08976193603368705,9.213635483648242e-06,-0.17561640283618554,-0.21906232274052798,0.23499314273857444,0.08265450625846103,-0.10048575534018192,0.09641694093038923,-0.0024969053912686835,-0.0378927736251383,-0.04387636293466768,-0.14028935485969937,0.01283496486480866,-0.24629161924705142,-0.12928380185099805,0.00970883033237698,-0.002394466870033893,-0.4012550853813202,-0.28819904330803836,-0.09368119635343612,-0.0009153315391446053,-0.22005933963792182,-0.06947534172926456,-0.032515860413464354,0.013820475123501425,-0.04713771584115552,0.24800954493763536,-0.11971780111311957,0.35195220773215136,0.1031775562004032,-0.041980380727184116,1
org.apache.lucene.search.Hits,0.6789689105019532,0.3578696770537506,-0.0003633212090296389,-0.0033084010389503996,-0.020308946346859,-0.09552292799446552,-0.2069997293968149,0.03522545457214823,-0.20429384249959132,0.10493523224834446,-0.01804470623457835,-0.0010907940859305899,-0.0007295849510201703,-0.0050213880214200896,-0.00479216469882044,0.20269849497931897,-0.0027401825069977436,-0.0017930524671184967,0.10394834923299189,-0.034816281729978124,-0.025296436260759746,0.07741821279065605,-0.08089162301738331,-0.07730709314081446,0.16572567655848952,-0.17811913759222264,0.3033092997440872,0.014385331565769599,0.03512523284976795,-0.2727009027772149,0.004357650096139982,-0.06991512896790276,1
org.apache.lucene.queryParser.Token,0.028113137715721347,-0.024957511091352514,-0.0001516882451520802,0.04351592159378224,0.03713259990075982,-0.0350754429355014,-0.07125968540224223,-0.003122271433903999,0.12868307602951895,-0.3288822741924705,-0.10258979630706856,0.41806670171987736,-0.41850467262447655,-0.0012857058980347451,-0.14733233957321096,-0.014048756110751938,-0.02383770563965152,-0.0208808504367269,-0.12360927706932366,-0.20494781407798826,0.15171279025971704,0.028251054411442836,-0.0715580069201836,-0.09955085531527227,0.0694334019537354,-0.16913490376476736,0.07010850361519567,0.21675127070200087,0.3322289475028356,0.4107743744550174,0.09625078090973076,0.105281852239395,1
org.apache.lucene.search.spans.SpanTermQuery,0.19491159388719115,0.035885090241770445,-0.0003428092180496673,0.2196891837033533,0.1680378199823352,-0.007455720584075309,0.06765977548298903,-0.03324169615107979,0.18641820748770602,-0.010223627650919671,-0.03603382219096764,-0.09134827005659918,0.046979743113979726,0.011099857471806937,-0.1868445691850968,-0.14723897033024758,0.001536479199386381,0.0023826686339808736,0.37272625977736723,0.012690114164228558,0.5847367445460557,-0.06156227845565192,-0.267525435130067,0.022568889932873572,-0.13084847613289546,0.16445284822048556,-0.03568741840359025,-0.05607845129340976,-0.373221520708247,0.14910343072848076,0.03848064429980834,0.08119067801117026,0
org.apache.lucene.util.StringHelper,0.0696677529910679,-0.014814935282580079,-7.303644685510753e-05,-0.04094039508679243,-0.055913176529447106,0.4864743578260388,0.16043619482249336,-0.041842071900297546,0.26783732025018103,-0.022527403264648478,0.16948110310631853,-0.06674954061342844,-0.028090213857866905,0.001805452322253833,0.1674085886012277,0.13810757990398975,-0.0018402646235057133,0.031014920503630285,-0.4101878411995318,-0.3016872585212344,-0.1048820472181624,0.018982127100080327,-0.2939670172461017,0.03520971698907263,-0.1826167794749142,0.14846199643046215,0.18086876127656504,0.17360099482725957,-0.2009978295864929,0.17822054338777615,0.14859020301943526,0.03045466169810135,0
org.apache.lucene.store.RAMInputStream,0.18509482030953134,-0.3283266083526963,-0.00036217789848562475,-0.1402601005642352,-0.1753051785712519,0.35763007285433307,-0.12716013578745092,-0.03174191100029524,0.1428691190866885,0.13459198033703443,0.12253238745094332,-0.009764982281650458,-0.018303341424572385,-0.00787710370077027,0.4745208641197332,-0.01327901147235344,0.002444198932482458,-0.015078317170691429,-0.05280069437465075,-0.02532162119568811,0.2549936572775596,-0.026075157802565554,-0.10546202568240845,0.024912836221774946,0.09473532158752974,-0.10209298965513447,-0.04888126419875277,-0.16566875108917195,0.1604458633818901,-0.2689955375620586,-0.36494534658163086,-0.14647073471682023,1
org.apache.lucene.search.CachingWrapperFilter,0.09672839197220295,-0.04813615221471026,-0.000312853280583198,0.19551946360271058,0.15463974027151237,0.10898357977227043,0.13358853774589724,-0.02782973909399325,0.25037787264372563,0.14530907028442203,-0.2976556876626158,-0.12328732407603396,-5.966423958972528e-05,-0.008500175212367416,-0.16765842455537536,0.042068363194850404,-0.014141165297858463,0.005577350988523372,0.3277426405136765,0.1136305102756517,0.11161152384553549,0.13226038371614582,0.11990867928543761,0.09294471782973035,0.15261150610875265,-0.05421464507240236,-0.11494723275597149,0.48218399188528693,0.3307116019975574,-0.3337184964703108,-0.0704631223476047,-0.08343559190628835,1
org.apache.lucene.index.TermPositionVector,0.2230558299809618,0.10280363600777512,-0.0001605269116859304,-0.008651376243992289,-0.04100392592167575,0.40689868089022746,0.18818406920975722,-0.05802839770773833,0.10648222058335165,-0.024386679418719463,0.163276597966197,-0.020615545529571074,-0.06242242148944154,0.014575914504826565,-0.328803726014191,-0.10386077682905996,0.005034052042674641,-0.021111929984630583,-0.3332212277392927,0.12767760161439987,-0.1373744050645474,-0.017737641348445802,-0.06936032595238455,0.07788617904916853,-0.0032321244811973956,0.2828558486314446,-0.0786837578939596,0.5407242000278146,0.12912515467822056,0.08072428410781676,-0.10863235052881878,-0.009695419613234918,0
org.apache.lucene.store.RAMFile,0.2308255536582139,-0.34263926596447364,-0.0002806373225837252,-0.1642448212838914,-0.20204899902070325,0.27700325739188764,-0.22033871145380438,-0.01937226276327226,0.05657599504173066,0.17693000527675193,0.05704231214337855,0.009032359885770317,-0.034650323980077245,0.006810989452861168,0.4102847445408914,-0.09428765382099338,0.0008533504805569472,0.011951048286546737,0.04869659273901364,0.1353207786042322,0.2989154351289622,-0.023216354367881786,-0.163701315712603,0.05311856153369185,-0.02783214968436794,-0.017896077887829067,-0.03101506119232712,-0.029704701390629022,0.13462398834687814,-0.3691265612110915,-0.26664190196249793,-0.22538914766224136,1
org.apache.lucene.store.NoLock,0.032633223602351664,-0.021852004811322007,-6.412750515790852e-05,-0.03923989355130175,-0.03606811362278821,0.15502438083901598,-0.01612718913266205,0.014651024746704827,0.10272402519634326,0.019916780928333808,0.0024590631624903454,0.09383751138592213,0.0026992258558628927,-0.024225136190228213,0.41677563821439784,-0.006651618007591278,0.0023593183003788624,-0.00787515442817355,0.33496992134722225,0.3266140549265177,0.19446415815023724,0.016764517526907854,0.3917608571078687,0.07135177994211926,0.1564442780668066,-0.17797054991385466,-0.14581725487367023,-0.03887005971894498,-0.02103834408121593,-0.1239362054202415,0.1404379155413862,0.4969377949561677,0
org.apache.lucene.analysis.StopFilter,0.045072070105476196,-0.016512862595519172,5.049588797880927e-07,-0.011316742632481901,-0.008187510254392521,-0.01470529099759406,-0.06153848170557544,0.017301726756380163,0.11570507193897389,-0.22906040662100421,-0.1171665716135602,0.4393678820595598,-0.4141937811205353,0.0003767904407616731,-0.09506997939023391,0.009691482148098654,-0.0003131408211376898,-0.005695302599888005,-0.027947060572820228,0.04955606272075327,0.03447696650258242,0.004976643582773978,0.019357534915042426,0.07020667195475885,-0.26911558395820007,0.5853158413046052,0.1213828306451073,-0.16145408319573518,-0.14936222579591538,-0.1757583505560796,-0.14260057652206437,-0.027208138045764906,1
org.apache.lucene.util.ScorerDocQueue,0.023270863728525187,-0.02302181671021375,-0.0001570605544941556,0.15170002363798313,0.125425910181641,0.07281753611451194,0.2304172959044861,-0.024275591191555458,-0.2608530894239631,0.12697781899545005,-0.2733507522734054,0.18740442849683492,-0.09132416379068913,-0.010576997396962731,0.2346041235137912,-0.5850413572126089,0.0010290458160933252,0.04764339417135283,0.00911039328100452,-0.2344286224355273,-0.2969506812685133,0.15934092769885427,0.0042962198913685315,0.06033078259281002,-0.04495541370812065,0.10132875969905401,-0.10460772876706642,0.142460860741596,-0.0031800898648831873,0.23521190363699535,0.030195968049722584,0.16466839518624354,0
org.apache.lucene.search.DefaultSimilarity,0.1317363864850958,-0.042841707695394096,-0.0002799647102985998,0.2379719069431971,0.19042438012824953,0.10675575291286779,0.18701381853588428,-0.0027038088042147623,-0.1665112082885077,0.005452980443989145,-0.016866419229902542,0.16980702580607532,-0.08000335765059925,0.006650160280987261,0.14005977682904805,-0.3463979306257684,0.01592576979378876,0.06878050751347367,0.22175244526455076,-0.28474104161820446,-0.35645410506212954,0.4014012547846614,0.14956695423672062,-0.017261024626001088,-0.04282560631102331,0.25448949262858783,-0.1522493122662738,0.1417985767978103,0.04732612843964255,0.2787603845486229,0.029023309043991165,0.04301444569642248,0
org.apache.lucene.search.ConstantScoreRangeQuery,0.2630063188974155,-0.04873525333353252,-0.0005673417579904982,0.3420348858668342,0.2660196772793158,-0.03890156915458424,0.0008152726805992723,-0.03548509329551437,0.11472147545920858,-0.2655923562173446,-0.16919647257129689,-0.15020765829119273,0.04365109793463905,-0.006975026104871583,0.05704478857076297,-0.03904294878624408,-0.009521739747283996,0.022413459495237653,0.16768757509571258,-0.025505183807290707,0.10450247348951207,0.2856162401481373,0.00579386815840669,-0.06781749230525973,0.2846747351239939,0.14819098212267565,0.07871792828392593,0.4436602158821569,0.32395535077004123,-0.15926441271550004,-0.13594571214508394,-0.12241158904106497,1
org.apache.lucene.analysis.TokenFilter,0.020607324543230537,-0.007976353163363578,-4.4386654801732474e-05,0.0031514149359558683,-0.0003350529719653746,-0.005170996284491005,-0.05493035210319334,0.0010419137918148444,0.13447216988402208,-0.3262188774905962,-0.13964885768733695,0.5221945683484301,-0.532036906978315,-0.002169605473857786,-0.2144384857754604,0.0003821729240113791,-0.010767979132875643,-0.02034688510298573,-0.14521411220131886,-0.21081400637466705,0.1694605564401695,0.09975780966961847,-0.12172249001522037,0.0691878571195496,-0.05952746712771476,-0.20262254608199906,-0.2703855965271416,0.00865196955159056,-0.03098718719764843,-0.04473194726257233,0.07509071152263459,0.00039814759465799316,1
org.apache.lucene.search.PhraseQueue,0.0407940202837009,-0.027300753472119042,-0.00014502774571892646,0.20447853741560124,0.16723045926040897,0.17237656983360958,0.3406298773648529,-0.024607533705429816,-0.2860476448092956,0.18572346746957918,-0.14604198154459774,0.1749449550815322,-0.0838633634116204,0.012881766850224081,-0.0751415679981475,0.07328323042937564,-0.01928435016389182,-0.011016149555651732,-0.07262960519982894,0.07913565492402057,-0.0673868792823686,-0.17556267276901916,0.28189294649529884,-0.0402095467026707,-0.12694859883260537,-0.17674505139319624,-0.05456442497517982,-0.33974619535385703,-0.3519873765472739,-0.3920337928571338,-0.13558132516228244,0.06926085577166094,0
org.apache.lucene.index.KeepOnlyLastCommitDeletionPolicy,0.3171969440640668,-0.05946908141010475,-0.00038176855744872964,-0.026471359652509713,-0.08278836572358939,0.2881446384674147,-0.015653011577814714,-0.04764627640434989,0.033705294114399396,-0.02605374582422042,-0.20194535183663057,-0.03645874930122786,0.06159814075450885,-0.028231441279801574,0.14451888891651307,-0.18031780206648357,-0.006076955508810578,0.0266598151660242,0.43365914811749345,0.27297296009813654,0.2741630737399899,0.044435784847124085,0.022724122421976967,0.12810184385554022,0.10146470461310998,0.008346560266118248,0.08941602199262919,0.24921284641853744,0.19168918784067224,-0.42416949388861086,0.02089052632498321,-0.21419182771721068,1
org.apache.lucene.analysis.standard.StandardAnalyzer,0.48967828466737645,0.2536981384855825,8.07655683283411e-05,-0.08662834235813431,-0.030040608112416475,-0.08855120741254993,-0.12532808702494513,0.08671844971974421,0.0809883805748641,-0.09928946537136307,-0.1024305293561206,0.2770519429690544,-0.23095729056802133,0.01323388929985935,0.01292847938561901,0.14183394192558918,0.029356049226493094,0.0698926770509586,0.2797946561915339,0.14703049396531961,-0.28979490173165723,-0.0015678125712851204,0.12372630380748767,-0.13390334843443868,0.02313854093136103,-0.3057333622007216,-0.07521947799761544,0.21087123762277044,0.015512285284177002,0.1957188834873566,0.2702420371273082,0.018094954332988765,1
org.apache.lucene.store.RAMOutputStream,0.18611297997646556,-0.27508474045011405,-0.0002652980780690078,-0.14056010585687126,-0.17329316378915743,0.3935165088600903,-0.11592235810363967,-0.030006532976653028,0.16242481786294807,0.12433348653707907,0.096237225246335,-0.02054249925157823,-0.01999082518831302,-0.002440793333743269,0.4797703137296475,-0.008081611801019585,0.00483209739505572,-0.008004103201931534,-0.04976807976167362,-0.033902669361909894,0.2191736685853244,-0.03682002303899311,-0.16361562830262538,-0.0011255091264528254,0.07853695752259522,-0.10081114326428967,0.04309481080050342,-0.13864224215295753,0.17241442164442772,-0.2023229217194747,-0.37186199601920056,-0.24960780197220475,1
org.apache.lucene.store.AlreadyClosedException,0.3948123483634616,-0.28640096158679756,-0.000544069451952185,-0.09069707399964885,-0.1669658553427287,0.45004092776688787,-0.01197782142593992,-0.07793718449744452,0.10607321108941552,0.018235393930899155,-0.13898660401832533,-0.05005308188223516,0.017859850474649386,-0.024262746140308846,0.15437859742860835,-0.2305145612234903,-0.012008766624394205,0.03277929259827503,0.22413050245990468,0.1310847325922156,0.27521530408609485,0.0664950786103442,-0.08592370697466202,0.16644184365195333,0.03644389918642852,0.10268216137232114,0.04187830659144484,0.34139641091145423,0.12072600412029338,-0.2656082660026647,0.06997751149382991,-0.04326264173536634,0
org.apache.lucene.search.spans.Spans,0.0788034817015108,-0.0012020174767126055,-0.00016094451650660327,0.13626505419338228,0.10453307239498452,-0.020407180947257946,0.06164557877665648,-0.027309797267307163,0.08642509682052153,0.10535907279535406,0.05000289240323139,0.0031920108780961257,0.02271095522241005,0.005326576558246879,-0.05737698680636121,-0.27809325257194645,0.013774611358118536,-0.004374843371695224,0.08118629853599604,0.21569773433767928,0.5694753835362101,-0.15853068918977437,-0.2644134546735938,-0.01685107345759737,-0.13903227784717107,0.005728598624903709,-0.03183677964322608,-0.21381863498632034,-0.38376222961350015,0.22199181054317882,0.18103291230810842,-0.29782305242649004,0
org.apache.lucene.index.SegmentMergeInfo,0.07494496388223888,-0.08002291631623486,-0.00019354249219224762,0.09655296942868105,0.06713312486850347,0.39936935825974745,0.3043175048538828,-0.041294300777355165,0.1268121357699411,-0.2174664384813972,0.041865333516792946,-0.1987321285112912,0.008573011787042114,0.0162690213529452,-0.49209030333108283,0.07279327297507811,-0.004970835049851646,-0.005647088439441761,0.21914380207565273,-0.009490529156826919,-0.20802935092401798,-0.011823028193008529,0.13704092226192005,-0.09972057200133336,0.047039216484201944,-0.22171605237402628,0.16017654613306692,-0.37489865017460877,-0.08036915385209499,-0.1495036868305489,0.0335729221617077,0.010243923322150758,0
org.apache.lucene.index.SegmentTermDocs,0.12394307341778765,-0.04078565235454654,-0.0002260171049370241,-0.011904379283256685,-0.041998823833687034,0.5942151520438583,0.2791068242645898,-0.07063392880883591,0.2871247285947572,-0.14037182907734133,0.1274985792982466,-0.2007514982395045,-0.01355952013065427,0.0021174171396084584,-0.05773653911445188,0.1529584099518941,-0.005617034656142799,0.00782332845066807,-0.2054101166854445,-0.36023715488508923,-0.1556422569931071,0.010226795402739736,-0.08942829358406691,-0.01673495005014357,-0.08380043098438511,-0.021259565020258536,0.0631056685752426,-0.2597749719397926,-0.2214467613946014,-0.08371333654835812,0.08111915893666011,0.11505352071088651,0
org.apache.lucene.index.CompoundFileReader,0.1485824052189207,-0.05804906652571418,-0.00030285348473987607,-0.056808505941272264,-0.07916962553593715,0.619798710946892,0.14679845069732148,-0.0429968239811932,0.3182976117438319,-0.03540491297145183,0.009693422736792743,-0.058115232294102474,0.0072981650139197045,-0.02449944145757456,0.5517328216502335,0.09317545985580405,-0.0023628278059896262,-0.001898696814198323,0.028407499123520263,-0.14199450679572007,0.2046748987528461,0.019726175942229807,-0.002341471548185493,0.035129314662030856,0.10334705489480807,-0.02782157592836302,-0.0219311441011477,0.1223667696168813,0.09340452544370442,-0.11562948438729853,-0.1555168003436297,0.006212832452869608,1
org.apache.lucene.search.PhraseQuery,0.37897238084030554,0.008962290504262433,-0.0005751602083645485,0.3100654459307823,0.22524293828070951,-0.11319984126339364,-0.06212274751010589,-0.03195238141425356,-0.08523273370464174,-0.2891282566032631,-0.17408629370146317,-0.11569813670747377,0.0039574674711354485,0.007782412408931923,0.11674033200127355,-0.04946139683234617,0.004018650860600536,0.01846261890091216,0.24895238820545215,-0.37941368591424834,-0.018601069605049543,0.12437101514805331,-0.11875602600753468,-0.1484854266746547,0.1993635879698101,0.02074614425925176,0.2762694155820341,-0.06201189875274001,-0.12380376612267038,-0.27390314733452215,-0.11840099066298265,-0.24095096847458863,1
org.apache.lucene.analysis.WhitespaceAnalyzer,0.6203150308095075,0.3523401508926846,-0.0002705365486849241,-0.06913353566203131,-0.13267460679128956,0.031011435801821495,-0.186986568519317,-0.06169661899874836,0.007604035892317048,-0.09093289807812605,-0.029413705500903033,-0.15178076809601426,0.012229969858382508,-0.011149316818981004,0.10810582771953091,-0.15089950930041326,-0.011856761312415937,-0.0055606894821623445,0.11510048126260392,-0.13876138281691502,0.22126881200210421,0.2698355023110926,-0.23247775497265125,0.09213770586913944,-0.04077562529426721,-0.05346969494901301,-0.17936712612974734,0.021078300313764106,-0.131621458144101,-0.2949090283277377,-0.018328868300305744,-0.05692234241368052,0
org.apache.lucene.search.QueryTermVector,0.10332181721215203,-0.10599122805252303,-0.00025444753058805297,0.08522256942588634,0.05760615869072704,0.15362115776105817,1.7570378131659247e-05,-0.038395560052418336,0.3328900069718583,-0.2444442943588673,-0.21635931001932257,0.02552245473376978,-0.08189008113723342,0.00823542773209162,-0.1547954280378252,0.012915369706303527,0.002639431404666315,0.026697567098844206,-0.027900419460638533,0.03613643526537654,-0.2943942570335204,0.052852561625860196,0.02688042815682203,-0.16256750829094135,0.1691122718834734,-0.1215623779035471,0.0606674763977273,-0.11259623740703029,0.20939882103232332,-0.03989692587766588,0.005974523449989843,-0.6847447163657142,1
org.apache.lucene.analysis.standard.TokenMgrError,0.006807998677735158,-0.006592554010244385,-4.8715570226515024e-05,0.01766888180944246,0.017840789608542948,-0.026562008831014377,-0.06361581004025017,0.00973827322988282,0.12040813801885508,-0.32025128881938203,-0.09826472600742296,0.45107734293761204,-0.44807464021557425,-0.004226416310242866,-0.15132305988581066,-0.0010361423369531645,-0.01981731937235635,-0.023781766214214142,-0.11049763336949005,-0.15897897592986923,0.19214551093962018,0.05452661253671862,-0.06823915405476935,-0.07827148953048542,-0.07768371850739832,-0.057538664133385826,0.11686735511441887,-0.017167214879097854,0.32312241411657416,0.4328540474521918,-0.027787248427423968,0.18867627739550694,0
org.apache.lucene.index.FieldsWriter,0.177320827117358,-0.20226207916110514,-0.00020782303056800347,-0.13027898203362503,-0.14696663259316767,0.523556834149276,0.12140766990866393,-0.04506751645658397,0.2653661032552194,0.04200895897104929,0.09314380070596014,-0.027834980193610706,-0.06650231378763703,-0.001928788033241407,0.1454200194166536,0.10763587946426344,0.004445027554996442,-0.006427659975488229,-0.29691473888226194,-0.40346590443751035,-0.06917859209325222,0.01565881635301296,-0.19474536823772612,-0.10061744476605552,-0.011630336987537671,0.03937215187748165,0.11938222587557766,-0.08483300082729553,0.08748203765461575,0.36508390706645727,-0.02587186185262498,-0.102820562928331,1
org.apache.lucene.index.SegmentTermPositions,0.10196666894873772,-0.014861747100941373,-0.00022727166377812822,-0.03405898773141682,-0.059775919153037024,0.6144489105218135,0.2715566890692366,-0.07420109110071454,0.31592703721891907,-0.078141951111427,0.20480121754914668,-0.13615318287860054,-0.02074245194682215,-0.0009760451004028158,0.07281802095167596,0.17956037735284378,0.0024248703474036414,-0.0042484741813941865,-0.3602026324696972,-0.31693348404077537,-0.10124512797540453,0.0063262251472087075,-0.032237320450771635,0.04599919481590103,-0.05782105588001405,0.12920557174681993,-0.12200798168548116,-0.08181525948194682,-0.0921475764874681,-0.04624687097970129,-0.12168642399579155,0.11297113896107969,1
org.apache.lucene.store.IndexInput,0.13092792501348166,-0.041752941568166196,-0.0001794909810026945,-0.08590184861012824,-0.10183073409541119,0.5682042817693574,0.1231659393603192,-0.037184905081624815,0.31427417940757063,-0.006132697015358796,0.077431069257278,-0.019156586089528395,-0.037695062804909696,-0.01279025982415711,0.5492463932244362,0.0983928524151621,0.004607919669155403,0.03354465214629331,-0.15112571125565008,-0.16466067946298016,0.14075670929305956,-0.05906971837434893,-0.05299230001064815,0.032445728074780515,-0.08688034968425075,0.12083725005484686,0.10095576864461646,0.1522088720915862,-0.14004707293843965,-0.14571859303648696,0.17385135152388756,0.031773368225981445,1
org.apache.lucene.analysis.TokenStream,0.06335847016369194,-0.06243430270979961,-8.624487837196041e-05,-0.006957831532591176,-0.014617508355043317,-0.004878026210243544,-0.06739574956936067,-0.0016716383350640744,0.1504187961132018,-0.29876203669837353,-0.09895649201144564,0.5365065526933996,-0.5252435039293264,0.0010691532439758484,-0.20717799650460844,0.0016925580525600727,-0.01611862382629816,-0.019077641884038554,-0.10730573679039426,-0.09057478607699514,0.10512348930996454,0.08283412808168239,-0.021829603784123602,0.014099339938260697,-0.20205967248525164,0.3951689484419117,0.01074933397993914,0.02594939258786392,-0.006648764605481406,0.13177712436478686,0.009375795801305709,-0.06877787327953601,1
org.apache.lucene.search.ExactPhraseScorer,0.08894944379147053,-0.0451605548740212,-0.00026983248968452737,0.2740469730086488,0.21852108207353022,0.19571682250612787,0.36663902305919494,-0.03811769289545224,-0.285935561868309,0.1783643123599225,-0.11152999214638597,0.18574173834206867,-0.07520790225538555,0.01605336479819656,-0.009188037634630011,-0.3701409040563296,0.001777270073380727,0.011769652330398915,0.1211567421791251,-0.19928315786722145,-0.27954293761308463,0.034436866689127474,0.13729265408337996,-0.12255473042985748,-0.004123564098496776,-0.14488892462933697,0.10364000713938926,-0.2921740690931065,-0.06659554627867845,-0.3032075513977923,-0.0734092736136068,-0.05375433265670808,0
org.apache.lucene.search.RangeFilter,0.25223575075441623,0.014241807710133175,-0.00040832174605534083,0.19339899173403252,0.13704785993581622,0.15965595018518064,0.1490929937397851,-0.039077084668949345,0.15945527321264819,-0.13616527536513645,-0.05188644538594325,-0.21390998163889755,0.01906442618848691,0.002038438806899516,-0.438930850911439,0.04991569885637559,-0.015637739397862272,-0.022668558354863394,0.43988802454487724,-0.10188496605749206,-0.06713289687179375,0.1226826056210428,0.17661557897749225,-0.0509424125092497,0.21685104889782664,-0.18034088127839495,0.17058522211413318,-0.15610329950338872,0.0643015350169801,-0.3803123229397475,-0.05347499814970163,-0.013190864173468611,1
org.apache.lucene.search.IdGenerator,0.06930694498521461,-0.05011426599994068,-0.00031425973767639203,0.19630854132412978,0.15405935670576185,0.25176884924303083,0.2620568968201765,-0.037985231735902576,0.048553472690011125,-0.20501888246514788,-0.23533203697181093,-0.15910326779542627,0.05884833476282653,-0.013677802998478998,-0.18783520244257815,-0.13033690364074865,-0.024229554561122652,0.009855091733287424,0.4768300520279294,0.0980895100408267,0.2923598150192872,0.13165334634017403,0.11452442517812021,0.07428252975408993,0.1180813255752586,0.08239686326626879,-0.014333507096850544,0.4224267347397666,0.17871897698935785,-0.12445237233131716,-0.08523245357796859,-0.05210881850978293,0
org.apache.lucene.search.function.ReverseOrdFieldSource,0.04410532536375346,-0.036909536250194955,-0.00019563397842722709,0.14388234332958413,0.11353085821252384,0.17473376967380624,0.2066239170545775,-0.032371953346434966,-0.0295365946589054,-0.08642906352310926,-0.2186317526749554,-0.07401780894209227,0.033171290489085195,-0.010933738592316033,-0.09045835803198879,-0.10926679548450448,-0.020548512866421502,-0.002448459454222837,0.40610485724247214,0.05626361511707911,0.28281627614551547,0.09944207050208263,0.19332176732533507,-0.0018702588256100958,0.093490359133069,0.14238172486835368,-0.1057662959804501,0.4821871643515653,0.2800239481737213,-0.29301115068097267,-0.1506388658782062,-0.2245761730468895,1
org.apache.lucene.search.ReqExclScorer,0.028600146929326924,-0.027546305215306006,-0.00014030993167401314,0.15618647573969338,0.12807170508721294,0.07836371316284375,0.2284265933019383,-0.023411673303070087,-0.27177736614783377,0.10523568940810114,-0.3498099548949781,0.11990325735461616,-0.07314652730177562,-0.004998324845063056,0.2253197169894825,-0.4465471931492991,0.002671790601269564,0.06329780650085086,0.10321383248090032,-0.2978843177983675,-0.2561414261834381,0.21491653308325925,0.007414025187571454,0.0442350271002825,-0.04399355247566263,0.16697744127276928,-0.11728880839729455,0.19312282317885593,0.022262259207420813,0.33186814778050716,0.05588552558892627,0.09845038543316653,0
org.apache.lucene.analysis.PorterStemFilter,0.018390966941577123,-0.003964098861972767,-2.7065212606585463e-05,0.01219778396389189,0.008263259899946728,-0.01034653945363525,-0.046420657596751805,-0.001335931965895885,0.11425901060791291,-0.28181468465850323,-0.10552577941490326,0.42988338713319696,-0.43014569733642366,0.0004951511525598602,-0.1651775278240113,-0.028215471759468234,0.005454149040582105,0.0012828442404940476,-0.15610372598780192,-0.20232799832553852,0.1564320006543864,0.01756439564841288,-0.22624470234724436,0.10790909783676485,0.059733143589426406,-0.2577667603934719,-0.18416003197628933,-0.123312144123047,-0.007208277393114984,-0.4559885895631225,-0.020067135474352064,0.12324864355347036,1
org.apache.lucene.index.IndexModifier,0.25241469378492304,-0.1794508283583357,-0.0002593448092277783,-0.20087195921143597,0.047272067467486245,0.23076663491719945,-0.030327480608148695,0.4049505210314362,0.11302726940804889,-0.026247678147373287,-0.1104972297447186,0.07670090196547033,-0.033378222010417784,0.012466975719840904,0.04766036726297923,-0.03507432139617247,-0.0022240411447759906,0.035124026697420506,0.23862823637021408,0.21310333250837604,0.012112115324673552,-0.04388560916278561,0.5885812431981875,-0.07272321523662731,-0.1471595273374804,-0.23875595794839505,0.008208827437873416,-0.21955389267471687,0.020025442414977848,0.1489153853555742,-0.004346842700985633,0.010118369041674291,1
org.apache.lucene.store.SimpleFSLock,0.04164068091441763,-0.041778905634474076,-5.615293335917489e-05,-0.056259505854276505,-0.0345730840825534,0.12318445690449255,-0.029875001023557557,0.04956082239483121,0.11210478301893453,-0.025472264001504395,-0.03730177657614968,0.19247845916427542,-0.09031183196014089,-0.012999565718945132,0.34990458288234094,0.014506767922318198,0.005835738587179946,-0.01482198931262865,0.36288875883898086,0.31886048955596435,0.11650696944027422,0.043339854092049074,0.5384304690104442,-0.07427033589187687,0.09062258496516794,-0.2784726536211194,-0.07647654142216657,-0.049335697254553106,-0.11159169123349161,0.20527079869524817,0.08723616403675194,0.30046894341482855,0
org.apache.lucene.index.SegmentTermEnum,0.08350727957892831,-0.06358446478077723,-0.00023481665921386735,0.008326394345548188,-0.014902758730496853,0.5295232723493472,0.23322863567108856,-0.04848291496684802,0.27170127679703737,-0.13290453207923256,0.14923265114199663,-0.1590803550857389,-0.009121265139443183,0.0003124270237522241,0.08523191996266358,0.2129108631004905,-0.0044206591796426,0.010939566578697376,-0.2754060265506436,-0.3758184357715386,-0.12577403656318192,-0.00822396901654867,-0.10994174353333813,0.004374165011234512,-0.12439190183972701,0.013330560824157709,0.08615144308970496,-0.23985603583767745,-0.32297910706171634,0.003330133801490851,0.09052574988915052,0.14650678430226285,1
org.apache.lucene.analysis.standard.ParseException,0.012525906632014522,-0.002034916415826534,-3.463437154846144e-05,0.01743233935586522,0.016733184479532003,-0.02148736034691852,-0.05859582584731992,0.006775428238010283,0.12459181888940482,-0.31206416168129575,-0.10189986499228157,0.480092173536653,-0.466313955534064,-0.00011935719984010803,-0.1549898780102209,-0.024782680255155634,0.0024524671897247635,0.0003046910040364466,-0.1408819757604415,-0.20096404166598003,0.1895066684550078,0.028452981754715112,-0.1810213149505263,0.04125167793375667,0.06614386616961253,-0.3678063134543052,-0.1472403820473152,-0.09583997189039088,0.14266483666106794,-0.18101082188668813,0.012242885074491871,0.21030275406777055,0
org.apache.lucene.index.SegmentTermPositionVector,0.06477347295913259,-0.044911714349726996,-0.00013260717857999983,-0.05123670795741705,-0.07171261592145668,0.5136369129280467,0.17156555023192113,-0.060559490171691766,0.27366900456318805,-0.014803072264573358,0.13410929126384413,-0.10428831927286909,-0.037417383951982464,-0.003557471794191177,0.10664991778698242,0.08691117349443095,0.027088453953839034,0.022857294257026067,-0.3236210163048816,-0.3804289260194314,-0.12185819644018853,0.051331591663013015,-0.29308841865595825,-0.0360011755528622,-0.062191059009598634,0.11970918766915313,0.08917515662339029,0.34033596237632235,0.1636963768050013,0.2012658139869719,0.009993678280048159,-0.001157207366698779,0
org.apache.lucene.search.function.CustomScoreQuery,0.14785800321301248,-0.12929122453133143,-0.0005352712796727382,0.39313170496838196,0.31572064513639425,0.07854473340724777,0.2644793942682863,-0.03221761211472575,-0.27487140090744333,0.03726449431143609,-0.4461345130368249,0.008018660230907927,-0.020827746320753345,-0.004660697069896994,0.2126516637160233,-0.18256264729272745,-0.0008575056242564297,0.041986550138029745,0.22262221443246172,-0.22354901606448577,0.10238411648198184,0.18085379479189492,-0.08682700955678875,-0.02345487369386431,0.07374139167222404,0.18443649946910165,0.07773911657080163,0.23204077577934784,0.07262578741621364,0.07506977838138347,-0.010204419682746421,-0.10977770976123374,1
