name,vector_0,vector_1,vector_2,vector_3,vector_4,vector_5,vector_6,vector_7,vector_8,vector_9,vector_10,vector_11,vector_12,vector_13,vector_14,vector_15,vector_16,vector_17,vector_18,vector_19,vector_20,vector_21,vector_22,vector_23,vector_24,vector_25,vector_26,vector_27,vector_28,vector_29,vector_30,vector_31,bug
org.apache.html.dom.HTMLOptGroupElementImpl,0.027369293726857785,-0.02785681953463098,0.018029805744686246,-0.03505409735837038,-0.005335423806030129,0.6091624922464902,0.0015017045177038904,0.08074425235351561,-0.000804607494600776,-0.0680460251192597,0.10016645578753684,-0.7443297683802962,-0.05074322458477874,-0.017392372822476555,0.005213680809179381,-0.013430851748263221,0.009823472721203536,0.003981729164377564,0.0007438615410497369,0.002553740852726948,-0.02186718814708192,0.013612703965264447,0.1531708705316983,0.11814277567366904,0.05554312809253699,0.05730605424158833,0.007237938441854851,0.0019303741571011584,0.008765435550378156,0.03907602185245531,0.017855764667090837,0.031082341414918384,1
org.apache.wml.WMLPElement,0.006129462066844642,-0.00587408487428955,0.003389323665164433,-0.00634330564675906,-0.0006204892161524137,-0.001023023394831612,0.0002328545191520104,-0.012633333775880759,-0.0010780828547966594,0.007885182359887182,-0.013607098014739959,-0.0016528850701330205,0.010058588053341722,0.05855412259576091,-0.006281434851826133,0.009214706933474015,0.042596241261666945,-0.045154599787904544,0.004000560757567104,-0.009198662211612169,0.06903768907329866,-0.1458271324127252,-0.11456011010963964,-0.13726964922934493,0.9169077249512717,-0.01451264102533284,-0.2233539503968673,-0.06598447033564997,0.029498384190022164,-0.1577895969004818,-0.09848834178954359,-0.05672775582218056,1
org.w3c.dom.html.HTMLTitleElement,0.06269012212930353,-0.055586185677113036,0.0293919346466064,-0.052113315993438165,-0.004354391544183368,0.6196272456268282,0.0027523818222987364,0.05447690748920053,-0.004371501742808885,-0.0775495142261763,0.1404906722989566,-0.5001373651705875,0.0005872515409986617,-0.02866439706363847,0.0039701551744384415,0.017125821356908745,-0.0791503681612623,-0.01725001580968014,0.005485963769689503,-0.131720644574849,-0.14676214884483565,0.03796809422671317,0.3929210301420491,0.2639259659312612,0.1310383753644776,0.1128778796254995,0.02383712558302841,0.02021373122829055,0.030336738420434946,0.01522544300127249,0.12109044489575917,0.0880767996925326,0
org.w3c.dom.html.HTMLLegendElement,0.025911515149942548,-0.02614714342477067,0.017274999555050297,-0.03130274621843227,-0.002534306570108232,0.4024215105046044,-0.001376921514673841,0.06004672406492971,0.008212189633770356,0.03371169768905353,-0.06394853515386349,0.5928151150412304,0.049058957619172575,0.032953350998839295,-0.01949405790265664,0.05582734491844593,0.029464063916136412,-0.04319490842533776,-0.02380585019514021,-0.17973562942924337,-0.023326383443599986,0.058615567726316084,0.5351340782788672,0.30155598192041505,0.13770652034171726,0.04224115234855838,0.017930659782307824,0.04337572630972797,0.05131592262413014,0.038153890326648926,0.10345728705564386,0.11603604470218998,0
org.w3c.dom.events.EventListener,0.22578153677318075,-0.17882152334076717,0.07498647819883239,-0.1452218842035923,-0.01621260582873286,-0.021501784704486993,0.009755080969919174,-0.37486731554544095,-0.027982420291596033,-0.13555056961848327,-0.10792156793213772,-0.029669382192459074,-0.04199420300814224,-0.000317426900695368,-0.047805066440163184,0.0822897405144726,0.022071795620683093,-0.15211090194410856,0.003787015228107114,0.1958989267353831,-0.1209981079797976,-0.4173216001982554,-0.11401801927416363,0.07186964783094964,-0.04372958893538183,-0.023902386096680505,-0.029632108834965833,-0.14477573190091797,-0.017056476628216383,0.2974396463433391,0.37878059177979195,0.4253774638069852,0
org.apache.html.dom.HTMLModElementImpl,0.027369291218359817,-0.027856816903139903,0.018029805702983157,-0.03505409598038424,-0.005335433643559911,0.6091624373358214,0.0015016994705726314,0.08074424565853297,-0.0008046429725559922,-0.06804600311392521,0.10016647074726096,-0.7443296544311592,-0.05074304163445324,-0.0173923149182697,0.0052135869850471195,-0.013431018930235336,0.009823253700298129,0.0039816585001526406,0.0007440172439317024,0.0025536317874373855,-0.02186702565886387,0.013612525726099068,0.15317088031553902,0.11814284294480493,0.05554332460017606,0.057306294392587505,0.007236988656179461,0.0019289832655086136,0.008764785722259296,0.03907750662670379,0.01785807469793875,0.031082917050086454,1
org.apache.xerces.dom.CoreDOMImplementationImpl,0.4967130142797827,-0.3695912307035961,0.1497315638225693,-0.21895745424969884,-0.012898971900295897,-0.03086320743391547,0.0038468697619510744,-0.2830532391330525,-0.021036037546869876,0.061602130452257646,-0.34329537375415486,-0.051240471232380416,-0.17507028072061956,0.06087502717659212,-0.04691369383353978,-0.03843233776769323,0.24483421703030447,-0.218393831851932,0.006455073866977393,-0.1153964457652068,0.014850131607334168,-0.1120492889702586,-0.14754111231606745,-0.1465636483929671,0.10718004525942658,-0.1734103862797746,0.22836126644442675,0.04649091117793247,-0.030285565194295826,0.05541044648473907,0.15146997890631692,0.04993583363517596,1
org.apache.wml.WMLBigElement,0.006129441947446846,-0.005874067489406486,0.003389300238929254,-0.006343280100256738,-0.0006206094776393454,-0.0010231064877771548,0.0002327221164992887,-0.012633335376652366,-0.001078220045247265,0.00788518813634898,-0.013606648445479748,-0.001652141113313993,0.010058082296486599,0.058552954528837915,-0.006281181501309309,0.009212758607743949,0.04259714281840947,-0.04515590945505552,0.00400134758670845,-0.009197932984482425,0.06903588003263635,-0.14582660141592876,-0.1145613651790055,-0.13726625605688614,0.9169091459681696,-0.01450908121097892,-0.22334331598168974,-0.06598638471048131,0.029493236904463566,-0.15779234659259775,-0.09848841361814113,-0.05674959765347256,1
org.apache.wml.dom.WMLTrElementImpl,0.010053189960572523,-0.009301712960505635,0.005110281393555565,-0.00973434866268889,-0.0011331148558880537,-0.003088043438037334,0.0005269908722512135,-0.028161153368457554,-0.004093456650114458,0.0033358780452536173,0.031655642915732383,-0.03809134354308243,0.279927193535913,0.9537137948470554,0.015645805008265883,-0.026013187941532692,0.017687314238920487,0.027082158311888104,-0.0027315876322036876,0.01549501041655839,0.0004595895201261749,0.018463696369174318,0.022196037698372615,0.012966340964106536,-0.06944228408205978,-0.01398544480591835,0.009332731353459568,0.0011469018865799944,0.011388822150229946,-0.002950774543482511,0.0021752882405885066,-0.003260232223928462,1
org.apache.html.dom.HTMLHtmlElementImpl,0.0292955158390253,-0.02978572781852043,0.01923737510841829,-0.03712552349291909,-0.005598180873387219,0.6300658503298296,0.0013639189760154585,0.08323356237465959,-0.0005199561417801839,-0.06555412255138465,0.09338998984874435,-0.6923085398967498,-0.04686360549756676,-0.015733786258068993,0.0029147380789279016,-0.0060697563333719055,0.012730798952896418,-0.004977465773659538,0.001633954708085482,-0.01654916436546023,-0.02857483350439115,0.01803500957576127,0.228042033684822,0.1643027684771568,0.07760248314015865,0.07691022240092991,0.014387207264151476,0.006303661171416025,0.011385669153273154,0.057030793758634624,0.021562514582457313,0.03358285668801223,1
org.xml.sax.ext.LexicalHandler,0.23040156769658768,-0.0467882529153454,-0.12166941853371564,0.37614942628448456,0.016337343473710485,-0.023772391143380086,-0.0012028763446746608,0.1286479358917917,-0.08053435730610012,0.232198434392367,0.3943444284043406,0.021096380685287866,0.0600605914370305,-0.033993530854615484,-0.01452961022609252,0.08409258190121538,0.4266357116767219,-0.16494266759015608,0.002633710652514299,-0.019499368891657907,-0.25440600204064673,0.04936026929875919,-0.10755506970516684,0.12361223075317458,-0.03661755191090477,-0.29978195201392477,-0.12582515409532707,-0.12530817003374028,0.16495919317063043,-0.266131305951465,0.13428008821675108,-0.014813992264311095,0
org.w3c.dom.traversal.NodeIterator,0.1645025943125381,-0.1257393972017592,0.04715925452645229,-0.06848890255237448,-0.013460282107970607,-0.01951558802770905,-0.0006143258703517618,-0.05747737925377796,0.0011200297267801476,-0.09993946257453627,-0.12738387642610358,0.040806774019661506,-0.06392932288883478,-0.0037778792168379487,0.07957740006633737,-0.32358907818077776,0.011430255932162209,0.23216440086447848,-0.00941156484113066,0.7235727852400992,0.02612093544677268,-0.34913001417546613,0.06948129775880318,0.2473250592285273,0.029576872309267463,0.028647830030835198,-0.03219844341537854,0.051852517385793905,-0.006550099206857521,0.06574138464690908,0.1471885654477728,-0.07499528351698546,0
org.apache.xerces.dom.EntityImpl,0.3965555843359352,-0.2554617813540271,0.08770182565443618,-0.1908372034558313,-0.012341301824262666,-0.04864579947652132,0.01996593062485949,-0.30780869799595717,-0.025203697240314644,-0.1637274277855184,0.1107889835092146,0.020375566778054764,-0.08335485663164426,-0.019627177472035844,-0.09645435849812423,0.16025926024085527,-0.06436375577832672,-0.0014211184958932647,0.013005623271905959,0.07551571963012109,-0.370431888240851,0.242788111304177,-0.17676893970580235,0.09464733499545556,-0.07022625894417153,-0.28513133515468914,0.03798322740501771,0.0179330453494846,0.1982380201566633,-0.4016411486680243,0.0881764530282107,-0.10239778046466268,1
org.w3c.dom.events.EventException,0.1612819009749408,-0.11656616853366951,0.044714544483503815,-0.10365887705916484,-0.008453360739394225,-0.019353295133411576,0.005587575355135537,-0.2574228852869442,-0.012388398465831646,-0.058614518317175485,-0.2039907855670719,-0.007991512661845154,-0.05890017019563228,0.017572970526432606,0.012076865717295576,-0.09511827275140025,0.12740547778871567,-0.002854799671466648,0.0027942416542603168,0.4270473414345465,0.01376062835772662,-0.4007115391704772,-0.027373812926061815,0.07190617005901581,0.07077425179446198,0.025358746164384705,0.007747325421116138,-0.15232856742808987,0.21378762246113883,0.4428750074152386,0.2863640581533854,0.3234427429185717,0
org.apache.xerces.dom.DeferredEntityReferenceImpl,0.37365756943170614,-0.2631455065695118,0.09808484728001145,-0.2037254572964931,-0.03342111966172465,-0.06776951766853398,-0.002272108709855085,-0.36518139339876504,-0.01889567769223457,0.059650347892254235,-0.18230488026883518,-0.057705581839034896,-0.005588965318885804,-0.01639675160361601,-0.10238693322241509,0.2924468985949028,0.21399029536706557,-0.1650362534843402,0.04116525320922709,-0.04178247651449706,0.006728054906074176,0.053331832870110445,-0.16814619769039243,-0.2785694993994663,-0.1420796144171316,-0.07179346215108882,-0.07798375305968033,-0.24090726071026342,0.30987730436535316,0.1268515418988114,-0.2683765432870638,-0.07291194403476245,1
org.w3c.dom.html.HTMLParagraphElement,0.015508904251208822,-0.01580147427399715,0.01027280518448287,-0.018497440087200605,-0.0023310741031637625,0.20766356467832686,-0.0010220412223533389,0.02564492150510863,0.0024891231646089187,0.014834475794326209,-0.04499909545902177,0.42479515995422773,0.03737475126100516,0.010915492241830988,-0.019830732614827578,0.06427844595684741,0.012399569882841218,-0.06974485529991124,0.008660962754409232,-0.16943559585426685,-0.07012459390486522,0.053034437748937006,0.6677838850140007,0.4182018054163948,0.20316902903658368,0.17767403424355424,0.07118165806598314,0.04588531874605772,0.0171103751184065,0.14384846556809824,0.04483143016720557,0.0340292314830089,0
org.apache.wml.WMLMetaElement,0.0061294617752363,-0.005874084772379487,0.0033893326711846175,-0.00634328860473896,-0.000620583934049718,-0.0010230341772251008,0.00023274099500921185,-0.012633258503356708,-0.0010781023467694116,0.007885087401060831,-0.013607191943074413,-0.0016523000425647935,0.01005894331231124,0.05855449744195422,-0.006282424195000444,0.009212390658150866,0.04259481458635714,-0.0451563608085764,0.004002545287328458,-0.009196763731732307,0.06903884455939063,-0.14582835999330707,-0.1145628592422597,-0.1372596459704962,0.9169079193956012,-0.014514990651805736,-0.22334602902201625,-0.06597923247393209,0.02949786202835957,-0.15779481299024933,-0.0984977548958154,-0.05674447906247317,1
org.apache.xerces.dom.AttrImpl,0.5304865630663426,-0.36428957532938444,0.1479056395798828,-0.2756390280634971,-0.017403876974015443,0.010017100888276982,0.01073832788440434,-0.34452490657619583,-0.0005064934842516221,-0.13333206606312548,-0.17277798622478205,-0.02544100219982187,-0.08508156139270834,-0.002761433208378223,-0.09501712688517927,0.2201841588217249,0.15816354535945884,-0.20088098237118712,0.018245290328247996,-0.0682998618026518,0.04678479422374954,-0.04444186408536243,0.08765436768761402,0.12259980824329308,-0.13483263466168538,-0.02504557082417785,-0.10496256574673082,-0.13279129255870728,-0.024831753465057855,0.06217432095077576,0.06898284008637114,-0.3191112548141126,1
org.apache.wml.WMLStrongElement,0.006129448193959763,-0.005874072360348683,0.003389316376352173,-0.006343262740578856,-0.0006205488875504792,-0.0010231091774076154,0.00023280679763855368,-0.012633253043284139,-0.0010781080572002427,0.007884988089792468,-0.013607006057872245,-0.0016524195859188716,0.010058412188374253,0.058554325244783934,-0.006281348485492206,0.009212878593598602,0.04259476886365837,-0.04515490864574649,0.004002345830254806,-0.009197452863325153,0.0690343215863209,-0.14582985365212486,-0.11456401765948512,-0.13726817388910353,0.9169105786288843,-0.014511360591994208,-0.2233446487702275,-0.0659729851480453,0.029497884321969443,-0.15778403458355494,-0.09848672445695063,-0.056744401951735524,1
org.apache.wml.dom.WMLNoopElementImpl,0.010053192745400091,-0.00930171591141008,0.005110282817507564,-0.009734348198737565,-0.0011331252353322483,-0.0030880538492675277,0.0005269608160181462,-0.02816120448181182,-0.004093506528622963,0.003335833137733009,0.031655742905201026,-0.03809127061988117,0.27992715411035585,0.9537137888797255,0.015645706404314366,-0.026013077907219895,0.017687284351511446,0.027081984214539386,-0.0027321184636881725,0.015494412095798788,0.0004607636332168982,0.01846422343361153,0.022195706690644114,0.012967195785941693,-0.06944272724171932,-0.013985372155863507,0.00933359496993417,0.0011452395552315516,0.011387331785813163,-0.0029519397381806765,0.0021707341773660213,-0.0032619911829110636,1
org.xml.sax.XMLFilter,0.1289890163597696,0.01006385011792705,-0.1473077501138154,0.49436369509147193,-0.004700621757290854,0.033536337428264805,-0.002835385413709988,-0.010830002067718197,-0.030672831351467644,-0.11962980880423328,0.09451224610434707,0.028037304207103934,0.06987916454290684,-0.00970250727955875,-0.06870661221340511,0.04748032346205342,0.3924474710903741,-0.22498805463396737,0.02708622039451075,0.055173902673872066,-0.12252855994779305,-0.04512881185206893,-0.1280901916833218,0.03255243964836772,-0.06054053306878886,0.4092145855385417,-0.35169023154146417,0.1613183470854818,-0.3009854877732311,-0.08233446489715887,0.06632208110297066,0.11593158500118085,0
org.w3c.dom.events.Event,0.20896305665295553,-0.16611860497470216,0.06987146694517063,-0.13574866653165626,-0.015061400406045701,-0.02107111754526911,0.009479019746307408,-0.357021907022104,-0.026852032499808547,-0.13345615871521463,-0.08655266300469984,-0.026234254183881842,-0.03277989574262969,-0.0020713072709909507,-0.04176905950663228,0.06990085883267916,0.009347191560789895,-0.1287793573936523,0.0020619574353470367,0.225212807180578,-0.10178748423577712,-0.4110465226441097,-0.11715375485912503,0.07920349263242388,-0.03340803724957643,-0.004397949506418656,-0.0144658820880589,-0.10325732179201451,-0.054508777875195404,0.32209996584302164,0.3734748279884536,0.46675338319332654,0
javax.xml.parsers.FactoryFinder,0.04703431726764723,0.0006455347986509875,-0.04153247919094944,0.14053000380400965,0.022304142555775893,0.013661189923672021,0.0047679059164115285,-0.06494065895480179,-0.0038664684275068737,-0.10495856121636629,-0.031200088162980973,0.011022300137995794,0.0020451414177239864,-0.010262625179832285,0.05935536851596075,-0.14835593893477494,0.006293871871819071,0.16178231350775854,-0.022882252334394053,-0.07683547100378563,0.016365013963670065,0.27440067384128863,0.053702372931731565,-0.3092910432146928,0.13073954346114394,0.01975652115240872,-0.07827545129670205,0.07440851137540118,0.011636468468101135,0.5104233334999524,0.47648409011948945,-0.4582807191428163,1
org.xml.sax.ext.DeclHandler,0.2356253626270404,-0.036145272915690994,-0.1344517402825189,0.394126550265778,0.018128302968939754,-0.02061826671476493,-0.0017733591168595428,0.11657113122239977,-0.07898608262441216,0.20555056698663904,0.38269401072092035,0.019566708126643975,0.09051251488451478,-0.04483022380093483,0.019812962851410595,0.06826847852722467,0.40320524444619005,-0.13216758219848654,-0.005394504835235523,-0.033812058357272204,-0.15561993953392783,0.05475906973091362,-0.08106680012706627,0.10366848996920132,-0.04690851336291753,-0.330883420047492,-0.14256131853838638,-0.1488737118120487,0.21829102229072128,-0.29431554322512044,0.17290971475526376,-0.02721656375411865,0
org.apache.wml.dom.WMLOptionElementImpl,0.01005319434198654,-0.00930171804290253,0.0051102843914904725,-0.009734356226161341,-0.00113312387779663,-0.0030880468333553657,0.0005269667464984548,-0.028161200830716458,-0.004093575581190784,0.0033359122223019675,0.03165572913937282,-0.03809116362308043,0.2799273409214719,0.9537139014561015,0.015645732888505053,-0.026013447667569446,0.01768750644270581,0.027081556248895754,-0.002731238730228466,0.015494346569343625,0.0004594055451016164,0.018463695113456434,0.022193885977115947,0.01296695217611193,-0.06944118080621875,-0.013985596607654279,0.00933432423360159,0.0011470950315994586,0.011386994901513035,-0.0029496346017887968,0.002175193716948929,-0.003260631413288287,1
org.w3c.dom.DocumentType,0.4857247096944075,-0.34115382539118205,0.12109713233915478,-0.1656555568765925,-0.009501361802934118,-0.09658637308249969,0.009096103222105321,-0.2575028144034414,-0.039942509794581006,0.08761299225065738,0.26385044521998485,-0.036157899814582894,0.11077833737736088,0.10242497541910633,-0.011535935797458858,0.028007242948575466,-0.29443266235484633,0.012882626665961251,-0.005023737414745788,-0.22866842050010003,-0.27156186450844844,0.20493577400148674,-0.23865236469278522,-0.1396953692908853,0.04860026620906752,0.09020881964348698,0.034313319142657984,0.0574775883652067,0.057586592422941216,-0.10494010739005147,0.009112897157043774,0.2551781283750986,0
org.apache.html.dom.HTMLTableElementImpl,0.032631315924195554,-0.034522420768597864,0.02313382341193295,-0.0430488661972911,-0.0071351199430458555,0.7495368303327985,-0.0005464464841486845,0.12747991358142516,0.0029542250542292326,-0.007364881788946732,0.01281707637004863,0.31232062384487574,0.04442170563527968,0.0029474453417550677,-0.002818540378401443,0.020218062614061116,-0.04347396985254551,0.042973987743224626,0.010517494544640899,0.13278531602285273,0.0459504707256407,-0.01825335018170086,-0.4561710638796657,-0.2546992455405427,-0.1209849517324215,-0.05400561111739622,-0.022873327294812073,-0.0041029495659669875,-0.028100232066708877,-0.005614909228941739,0.003266560722330888,-0.03554749253996363,1
org.apache.wml.WMLSmallElement,0.00612949840728976,-0.00587411919820577,0.003389349159045528,-0.006343338892720578,-0.0006204851229173844,-0.0010230056605823165,0.0002328777394877111,-0.01263346796280766,-0.0010785321879648122,0.007885059309097728,-0.01360705526620656,-0.0016525994542831617,0.010059420630128489,0.0585542984815362,-0.006281636883371741,0.009213194535196813,0.04259466376546651,-0.04515680614336927,0.004002446514940428,-0.009197136473447396,0.06903421319159601,-0.14582991818364194,-0.114559600857216,-0.1372637039314837,0.9169132690906839,-0.014502908306369409,-0.22334375356558753,-0.06597532209021681,0.029494486824110582,-0.15778492196665392,-0.09848130805367912,-0.056730566027874185,1
org.apache.xerces.dom.AttrNSImpl,0.34444919987768574,-0.26950367575185274,0.11092245015301051,-0.2360456541339437,-0.05940014188209364,-0.06049186231633392,0.007698828979463723,-0.23225380307737187,-0.0047772702123896945,-0.2196155985840278,0.008154384512367639,-0.021511393103394727,-0.06249927836365982,0.011655072283821366,-0.18798497073503911,0.47134998806727785,0.15297352880181567,-0.2805267231262936,0.01835236192932489,0.0887033389882181,0.02698333224808378,0.03270850979810945,-0.022135154115354105,0.16406847040514932,-0.023324799183352722,-0.12005077571274567,-0.05047086395864151,-0.1427509409543932,0.044285067657480345,0.015099514333555338,0.25331092335214644,-0.354166112091144,1
org.apache.html.dom.HTMLBuilder,0.3099938790954546,-0.1932771936164579,0.02051818789221753,0.026452489265413572,-0.039286858758960645,0.2005829348678704,0.006497430535357133,-0.2541683757598745,-0.04824236037483648,-0.02932202629701684,-0.021688417228038916,-0.1462906713184125,-0.017807204769524475,-0.006859950983117427,-0.15229152951752145,0.4955717656372174,-0.21520536014095953,-0.28985456601199305,0.02490476683537277,-0.06580080986450658,-0.12383048270505882,-0.36052700142042976,0.019312997106892733,0.1923969864779757,-0.092471955316213,-0.1711691457075339,-0.12940267250286183,-0.16415013829150754,0.02061065186544004,-0.1705046308243048,0.012370750878995756,-0.18875198910723426,1
org.apache.wml.dom.WMLRefreshElementImpl,0.010053195169510148,-0.009301718553385708,0.005110278220944499,-0.009734353798478815,-0.0011331218719278812,-0.003088057981970555,0.0005269745088790683,-0.028161204674545793,-0.004093567668229479,0.0033358628611553603,0.03165578988905005,-0.03809135093879288,0.279927268665505,0.9537138308196199,0.015645939653215556,-0.026013375011991545,0.017687346576614974,0.027082224109451165,-0.0027319546173038963,0.015494446738396771,0.00046004647338504376,0.018463968030039888,0.022195405002358764,0.01296705521933428,-0.06944183417273263,-0.013983852372116058,0.009334266007337062,0.0011450933790540902,0.011387026114073315,-0.0029515537772824025,0.0021726142351439024,-0.0032605034633769706,1
org.apache.xerces.dom.DeferredElementNSImpl,0.2050216149502546,-0.048625592818308874,-0.030118784941787637,-0.149904479965698,-0.07276355742337275,-0.02966100217950049,-0.02112932836356966,-0.1702112844232631,0.01946410653904173,0.023792471931559783,-0.25928420580452805,-0.04307959137094963,0.10428765375963536,-0.034594272568513544,-0.04786979050207414,0.24044903116731137,0.24025313866855683,0.015254104076289167,0.029701376530084308,0.2576061577478186,0.002134534929185883,-0.03278997513734781,0.038798973280752706,-0.1646561690383421,-0.11617914296782014,0.14619613518349794,-0.19348385417720038,-0.4372975168346068,0.37751571183510085,0.3851222337273257,-0.20973283258468584,0.034151009500050955,1
org.w3c.dom.html.HTMLMenuElement,0.015508800598751267,-0.01580137363344912,0.010272758506715576,-0.018497271577466126,-0.002331017176284165,0.20766207552156085,-0.0010219442049334004,0.02564481061662751,0.002489366990646855,0.014834553182423296,-0.04499919440468023,0.4247921264679718,0.03737397301607677,0.010917000948749074,-0.01983241847695096,0.06427909406249586,0.012401087755315041,-0.06974745192260964,0.008658732226240584,-0.16943180991289478,-0.07012441144438625,0.053030954184770336,0.6677906982642409,0.41819687720993426,0.20316463144268346,0.17767666396768064,0.07116752917608185,0.045886344118723804,0.017130174648164513,0.14385016527313363,0.04484241102513045,0.03402974727810834,0
org.apache.html.dom.HTMLTableColElementImpl,0.02736929309637227,-0.027856819371955412,0.018029802612882787,-0.035054095290153235,-0.005335415075859105,0.6091624609129779,0.0015016970696034543,0.08074423731181714,-0.0008046019042529884,-0.06804605575729225,0.10016642142755737,-0.7443298122383941,-0.050743279555438864,-0.017392439240344084,0.00521372804035773,-0.013430612118064428,0.009823232945626544,0.003981482656226165,0.0007437319197563748,0.0025528504121337518,-0.021867044879374836,0.013613656912844243,0.15317075715332248,0.11814223755697544,0.05554399779354695,0.05730635560084783,0.0072366930609278025,0.001927162793676323,0.008765960866705861,0.03907713633036341,0.017854817384338167,0.031081809036349953,1
org.apache.html.dom.HTMLDivElementImpl,0.02736928890512218,-0.027856813565374196,0.018029799524164215,-0.03505409296297138,-0.005335407331368161,0.6091623810894098,0.0015017072437493778,0.08074420700645908,-0.0008045676071968754,-0.06804606856652934,0.10016641732165708,-0.7443298484404469,-0.05074324396349049,-0.017392350727706896,0.005213806895512346,-0.013430409172401046,0.009823405741918192,0.003981891469948543,0.0007430941535789251,0.002553065268074078,-0.021866254843140427,0.013613745203639855,0.1531706837523183,0.11814267706086477,0.05554354187797529,0.05730587896370261,0.007235704063063112,0.0019256236142360206,0.00876807709768281,0.03907567166532724,0.017852585431070035,0.031086411856228038,1
org.apache.xerces.dom.AttributeMap,0.38689113518845675,-0.316404944625321,0.1359098986313837,-0.2371940428458047,-0.04851069886262304,-0.03401862303501007,0.0024493881976905127,-0.24166162391950968,-0.011629790535385529,-0.20632829309991133,-0.06363261469058124,0.0032113081934582784,-0.022109316055884905,-0.015177947779277794,-0.12457441857892677,0.30824729250944316,0.0854379891807935,-0.2426971220957612,0.021607495297684146,0.1930853391152703,-0.13861104662128187,-0.2491955962134073,-0.017008869682420144,0.17654813526400873,-0.010151374068279333,-0.22934916083452528,-0.0638288006271148,-0.2771546604266629,0.1256365980872245,-0.010525110133328202,0.1765873712932669,-0.2411257170863063,1
javax.xml.parsers.DocumentBuilder,0.2713123521769717,-0.07159304940103459,-0.09110477878998398,0.33551123518209847,0.009210165889099729,0.024270907549190198,0.00396424819753384,-0.17844851430223252,-0.004686420256232306,-0.1056199254776508,-0.28163560536180376,-0.03484920823466821,-0.12401447341607078,0.05712917583271979,0.01605805089019428,-0.18806692771573333,-0.3777372923824968,0.1711739820788705,-0.026587951557076255,-0.13207950913622468,-0.07757481486807019,0.058170311229522695,-0.04965266487728655,-0.23663769605815826,0.15506327817294224,0.11477403993955843,0.3408184504928441,0.10033394550945861,0.03725840257960536,0.36667336361161645,0.2416200559614619,0.07886545421786681,0
org.w3c.dom.html.HTMLFrameElement,0.01550889194837451,-0.01580145846627352,0.010272803693442021,-0.01849738448549833,-0.002331148810226656,0.2076632654145767,-0.0010220379746923296,0.02564519094638426,0.0024897028640018066,0.014834472067203739,-0.04499996748980656,0.42479366189903994,0.03737410779685754,0.010918324861853122,-0.01983096704198011,0.06427972022757909,0.012399752442312454,-0.06974203664952329,0.008656767065402134,-0.16942875276244587,-0.07012300035602202,0.05303045819901836,0.6677888403584331,0.4182119750529763,0.20316026474848872,0.17766532992230472,0.07117703834990516,0.04588463301689218,0.017115570400900566,0.1438368453304892,0.04483712639880373,0.03402112523705205,0
org.apache.html.dom.HTMLFormElementImpl,0.11420641620163845,-0.10240792240237061,0.053629194766705184,-0.08826651728005135,-0.011308993310894983,0.9184079779049413,-0.0003353757626175555,0.13024588887832272,0.006668406564048071,-0.05450230327580302,0.024264155316792956,-0.20340525415062058,-0.005434311740069717,0.0046630824257540135,-0.001486534757744912,0.022129964404488302,-0.013935340037894673,0.014386028721007907,-0.017940359766151073,-0.010611219930319297,0.03879659229164929,0.0009342850495027412,0.011125477886076414,-0.04559449330115623,-0.06534386422075747,0.005019855659568204,-0.1524031512708294,-0.0006054351120752261,-0.06036286592736785,-0.05143397385860629,-0.13057019627523006,-0.06566958916345647,1
org.apache.wml.WMLTdElement,0.00612946181275369,-0.0058740907160156584,0.0033893145735422025,-0.006343276543242173,-0.0006205879757523168,-0.0010231223809392812,0.0002327209804348779,-0.012633248456638739,-0.0010781972261242963,0.007884852871667077,-0.013606806636429988,-0.001652250815387059,0.010058149446317418,0.058553481448062175,-0.0062822645763472695,0.009213084219107688,0.04259489983909073,-0.045154924486165884,0.00399937760141492,-0.009198719949867306,0.06903688124518184,-0.14582712991540808,-0.11455804431150059,-0.13726370280015324,0.9169090342672409,-0.014507120678304822,-0.22334506535690635,-0.06598226507404545,0.029496741771296735,-0.15779084107510608,-0.09850215448752915,-0.056740397696074696,1
org.apache.wml.dom.WMLTimerElementImpl,0.010053195723083412,-0.009301718843560432,0.0051102834111182065,-0.009734349380947804,-0.0011331239929571783,-0.0030880570761879205,0.0005269476233159805,-0.028161241554430994,-0.0040935452256430135,0.0033358959931451887,0.03165568148277199,-0.03809122957340724,0.27992726559650105,0.9537138220951957,0.015645816194930034,-0.02601299099364502,0.017687572064443328,0.027081956928701453,-0.0027317450513959928,0.015494219230246917,0.00046009900462177963,0.01846377152635485,0.022195433287281793,0.012967211650591387,-0.0694423476470104,-0.013983970505128984,0.009334621986372242,0.0011461241651673137,0.011386770934626608,-0.0029499102407185567,0.0021708954686740062,-0.0032623706060021136,1
org.apache.wml.dom.WMLCardElementImpl,0.010053193656058662,-0.009301717391232754,0.0051102818649614,-0.00973435130724811,-0.001133129948200942,-0.003088054215605382,0.0005269648846805977,-0.028161180377544802,-0.004093516238460056,0.0033359121280400433,0.031655761614187775,-0.03809121720304979,0.2799272328283471,0.9537138612813886,0.015645734061333322,-0.026013429049037105,0.017687584169443837,0.027081700495055674,-0.002731393096355862,0.015494403274247927,0.0004595777048648146,0.01846396664503311,0.022195305304177293,0.012967166796779764,-0.06944156769480349,-0.01398490240024428,0.009334233504453934,0.001146479880339659,0.011386680337000417,-0.0029511564142320175,0.002173825796646377,-0.003262881028066266,1
org.apache.html.dom.HTMLAnchorElementImpl,0.029400168558082685,-0.029912352094834022,0.019434767546362197,-0.03761533425263058,-0.005633779258304175,0.6506022795875244,0.0013502166271981543,0.08803652807410466,-0.0005726192196268331,-0.06610561779574999,0.09565379776863665,-0.7211765768123549,-0.05095824657598092,-0.016614414505696645,0.005428039043754888,-0.015511495086432856,0.014610975502369613,0.005963263515529771,0.0008323573670009121,0.01386259817611899,-0.015952155414247313,0.01443649655836253,0.11006789545626458,0.09397637875835019,0.048546030862443905,0.0462767656279671,0.012260021021062524,-0.0008409339315080458,0.006770604044490356,0.028723901983478496,0.019231017276236953,0.029685091377745526,1
org.apache.wml.dom.WMLUElementImpl,0.010053196305316042,-0.009301719743086433,0.005110282766460477,-0.009734355923032728,-0.0011331292113678456,-0.003088049296821918,0.0005269443013340601,-0.028161223104580097,-0.004093561978157202,0.003335878642673441,0.03165579511236285,-0.03809113529604616,0.27992732059939696,0.9537138902939326,0.01564577814957902,-0.02601341939491432,0.01768758975954339,0.027081736561595206,-0.0027317030851773207,0.015494019484282657,0.00046010801776087456,0.018464627291687907,0.022194443398393403,0.012966728354370403,-0.06944144123454012,-0.013984806740476814,0.00933482437191174,0.00114492305947303,0.011384390296687573,-0.00295093758303707,0.0021730918615430286,-0.0032626145829139416,1
org.w3c.dom.html.HTMLOptionElement,0.06676188670916604,-0.0608757697944888,0.033903775745742194,-0.058913501881132424,-0.0037489790857776054,0.6482992926082735,0.0006108544223059617,0.08277984323026227,0.007007892288030281,-0.00021012456727620435,0.02989228275674877,0.6660478033448083,0.10126359546164147,0.01776947790880341,-0.005508396078641763,0.05139261131777951,-0.08627115804711738,0.020714442214012717,-0.03271764388551634,-0.1393605530143558,-0.046140035811944535,0.035053703426073266,0.12897933372370343,0.009638172053484495,0.00370573130085949,-0.08925892651230674,-0.05522311725784491,0.034776323759966817,0.06060684149074359,-0.11570512919790706,0.11300177530675183,0.1083229000597358,0
org.apache.html.dom.HTMLDirectoryElementImpl,0.027369293455910132,-0.027856817910276443,0.018029803046267726,-0.03505410011069396,-0.005335415777247738,0.6091624867729145,0.0015017087615493217,0.08074421098743925,-0.0008046189609608736,-0.06804602673147887,0.10016646470782754,-0.74432981809829,-0.05074321938357347,-0.017392450635258277,0.005213964700912598,-0.013430731036581966,0.00982330541938443,0.003982021810913208,0.0007435807185164007,0.0025532883024783,-0.021866777920895822,0.013613339763022541,0.15317066507598925,0.11814223028460427,0.05554285672670609,0.05730615507985132,0.007238187021939409,0.0019276470420861635,0.008765588095574319,0.0390765027064122,0.017856281090472714,0.031083924797741753,1
org.apache.xml.serialize.HTMLSerializer,0.1911590725331588,-0.10217471145449276,0.0005386496860084996,0.12562949799802797,0.025653559550083374,0.02685728255292389,-0.005158832003502557,-0.08138176364789176,-0.07753330865122797,0.8528324882993885,-0.1472367501037698,-0.03362027052590706,-0.16672464199949602,0.03904450593702668,-0.013512347672585747,-0.02398356357327835,0.05672887043872661,0.05680343958323786,-0.013724701712554622,0.06520974438285006,-0.02868951694337786,0.15160155762038266,0.058255658105868344,0.0016892812680321452,-0.053812559043926386,0.17646832665419634,-0.18421131144400466,-0.10325518808567935,-0.02222476806412845,0.09101899015327794,-0.1286377085336192,0.03060879422093784,1
org.w3c.dom.html.HTMLHeadElement,0.033581708426881504,-0.0338668645298039,0.021438703122132974,-0.04050531429564209,-0.006254043026449,0.6494874288323484,0.0010947804982320653,0.08296907177912985,-0.0004809580445570549,-0.057357766097096516,0.07957551531216153,-0.5307603793345664,-0.0320747950638765,-0.013079983493344998,-0.004223631876166425,0.018753516179135562,0.00433389628517706,-0.02525617220380186,0.004313471543530002,-0.05633416071144518,-0.05498651222961952,0.021348191118346353,0.38442185637754955,0.27029555758391255,0.13013452924384766,0.11838183408670461,0.03487141908756781,0.015690725182947292,0.014342093186316315,0.09304948964663844,0.04464061833178817,0.05032331682643111,0
org.apache.html.dom.HTMLLinkElementImpl,0.027369287435535412,-0.02785681262755389,0.018029797709363853,-0.03505409251281427,-0.00533541431213766,0.6091623369999319,0.0015017017833928203,0.08074421100097469,-0.0008046130725938311,-0.06804601176394061,0.10016640637406689,-0.7443297090070334,-0.05074325777705986,-0.017392540569185877,0.005213813130105598,-0.013430706826164755,0.00982348573268094,0.00398179601130481,0.0007435370106835741,0.0025532559568845316,-0.02186713424293034,0.01361265821236203,0.15317143089468457,0.11814210738776425,0.05554300341415828,0.05730764708475709,0.007237242193493585,0.0019282524524149715,0.008765856676945828,0.039076894599260115,0.017853610801770132,0.031084490212266162,1
org.apache.html.dom.HTMLDocumentImpl,0.07484524159909182,-0.06262700899687841,0.03209606384244185,-0.0497140890255954,-0.0051564505833633315,0.40086201806310756,-0.002097632953891254,0.044945749529931946,0.0035099587080716357,0.027853169668602972,-0.07365523305371974,0.5432247401959783,0.04029424490384599,0.01714921846175229,-0.022734499301553097,0.06857364845964575,0.031145803413883136,-0.08238752513970052,0.006022616101835262,-0.1624981877209188,-0.051022597443609284,0.029013428940768575,0.549227917792248,0.34046039993078503,0.15729232315589306,0.134913250896307,0.04787123178536277,0.02787969423575642,0.011596795385430712,0.11331903502308209,0.03617461144792617,0.016870708205169626,1
org.apache.html.dom.HTMLOptionElementImpl,0.21081051944992363,-0.15548766205431316,0.06687644411814847,-0.10160059370742748,0.00657632199194358,0.6752086044963169,0.005929393095672607,0.00822760416551717,-0.004275098485140658,-0.01328132056524975,-0.16329002992295696,-0.375162216564337,-0.11732178722724221,0.025916622708382055,0.022150564947460955,-0.13893849063094457,0.18957489236635322,-0.0839418123874927,-0.006026273524522503,-0.29943593888891085,0.06444424478816417,0.02968111855405496,0.10634533584507357,-0.17383897727063513,-0.07734550145799085,-0.13363721426205263,0.04669722049819754,0.11410015596295503,-0.014757002604500065,-0.09207066137447645,0.005978411077522139,-0.1779925738643479,1
org.apache.wml.WMLOptgroupElement,0.006129494304741146,-0.00587411560020349,0.00338935655360266,-0.006343329626077358,-0.0006205971281741684,-0.001023015054116113,0.00023276352093579838,-0.012633511066594378,-0.0010783623544857839,0.007885278947144577,-0.013606765903315216,-0.001652284006037329,0.010058881255250379,0.05855391639003133,-0.006282518249172451,0.009213195093770846,0.042595550346445174,-0.04515625872800626,0.0040007684698746765,-0.009197846007003178,0.06903816183117378,-0.1458293352700275,-0.11456241652726325,-0.13726238965224918,0.9169110862521794,-0.014517550089481773,-0.223340990887617,-0.06598284433920176,0.029491389737377173,-0.15778707084624025,-0.0984863844972597,-0.056745443107158046,1
org.w3c.dom.html.HTMLFontElement,0.015508904943299949,-0.01580148078043468,0.01027286037754071,-0.018497426572620646,-0.002331121210674303,0.20766357692521062,-0.0010220724807850513,0.025645321320098925,0.002489367555367617,0.0148344596338519,-0.04499985013031824,0.4247949610852963,0.037375030094658625,0.01092002676943832,-0.019834458935392797,0.06427780677531728,0.012394054169960245,-0.06974913280587311,0.008657628381457196,-0.1694342020139312,-0.07012220268714522,0.05302954988150468,0.6677868883268373,0.4182073504696291,0.20317370472891952,0.17765018234508814,0.07116388206786767,0.04587990915097095,0.0171138700359323,0.14385137157340244,0.04484978605085983,0.03401693186415906,0
org.apache.wml.WMLTemplateElement,0.006129441054253815,-0.005874064288238,0.0033893063324197323,-0.00634328507097883,-0.0006206094652493666,-0.0010229900570712172,0.00023283864289207654,-0.0126332518228072,-0.0010779802645688008,0.007884968480782538,-0.013606674354471604,-0.0016525868520907818,0.01005864492934129,0.05855447879875043,-0.006282248466768989,0.009213741902832244,0.04259392492342547,-0.04515345062056542,0.004001085049318773,-0.009197364245321402,0.06903927111555916,-0.14582380751077806,-0.11456435777261635,-0.13726940428071144,0.9169080159260407,-0.014522805197671473,-0.22334445303108907,-0.06598367976127946,0.029494866206994562,-0.157795815310394,-0.09849147076167376,-0.05673918273345027,1
org.w3c.dom.events.EventTarget,0.18895503923828674,-0.1403358435196507,0.04811958419402355,-0.059235131190544445,0.0009955814686047819,-0.012070959255509755,0.00990718206383769,-0.27778820720634745,-0.02228925683407248,-0.16287421082872042,0.2450947128450145,0.007386458074630182,0.14664559454070966,-0.0672955742666688,0.038684608622344574,-0.04789713657142838,-0.10392660146054958,0.020595696845000063,-0.012740900997744343,0.16827728956452243,0.11146748545460519,-0.327638794812863,0.046378703004150826,-0.051485748615265434,0.017155153091868325,-0.07174278478249371,0.10588925318821148,0.08009147253817665,-0.2037262313883023,0.40302699067186976,0.027425861339539625,0.593596742932465,0
org.apache.wml.dom.WMLPrevElementImpl,0.010053192007290082,-0.009301715483944751,0.005110282751384185,-0.00973435047192426,-0.001133128562995091,-0.003088039876808855,0.0005269716686769997,-0.028161170012113556,-0.004093516919723884,0.0033358907522994035,0.03165576996486206,-0.038091230967764886,0.27992722511434553,0.9537138237589979,0.015645687762624552,-0.02601333269298746,0.017687161080837146,0.027081803853523784,-0.0027319308464484916,0.01549439142314935,0.0004602284163142743,0.018463841053683604,0.02219493457051559,0.012967290431042604,-0.06944222591921469,-0.013986088845501654,0.009333763976529194,0.0011462036159636728,0.011386256078169598,-0.0029515668710228334,0.0021747544286324083,-0.0032619215606457625,1
org.apache.html.dom.HTMLParamElementImpl,0.027369285811738146,-0.027856811283961783,0.018029799684570316,-0.03505408901063841,-0.005335404905007652,0.609162321647001,0.0015017414566109645,0.08074423378921367,-0.0008045747434912056,-0.06804602683821415,0.10016638763652011,-0.7443297116552595,-0.05074317449917767,-0.017392169630141962,0.00521373290258074,-0.013430317714701902,0.00982282712081803,0.003981928802463206,0.0007436419334636081,0.002553548972870943,-0.021867241070836846,0.013613310820595933,0.15317193774564897,0.1181410685675389,0.05554285892520894,0.057305887161363575,0.0072354281098767,0.001927298030876663,0.008767360254424159,0.039078232564663896,0.017857802022853902,0.031085951901808392,1
org.apache.xml.serialize.Printer,0.1029736155578829,-0.0654021266252669,-0.0031859875457297096,0.09502798427966881,0.01281637214951449,0.01374356886387651,0.0036028897456315294,-0.10216189534585002,-0.10345844386354917,0.8685156361314799,0.340814039106769,-0.03302131958440273,0.053274251962947224,-0.04498919891393346,0.022224760043610153,-0.03525705795482308,-0.02092868208315851,0.03466764601751125,0.005539233021163973,0.11996264807749142,0.008057329399127051,0.014824393072930394,0.02206177983321457,0.024166129623073702,0.008696150019144498,-0.028893296931639133,-0.002878981689747746,-0.04098219460906095,0.08057172054877748,0.05730416461331546,0.1563146645420122,-0.1489409205046435,1
org.w3c.dom.html.HTMLLabelElement,0.02372310890888873,-0.02413118770689554,0.016105342083625705,-0.029405753750361262,-0.0024579575369213964,0.3866484850265021,-0.0012523711994600294,0.05870485412287277,0.008557867696797993,0.03126381145933359,-0.058749486743759356,0.5833885951556768,0.05091756985403803,0.03406257928291282,-0.02057913293593875,0.05730522826143713,0.02868549722367235,-0.04083610183355066,-0.02681692988182653,-0.17649841616769707,-0.020010700548366785,0.054442099836956144,0.5503164660803855,0.31223753063353077,0.13538471983963168,0.029922130449808064,0.01445979150969521,0.05083119589208969,0.054265786836605996,0.03767226865761711,0.11715453214979543,0.11959380352899585,0
org.w3c.dom.html.HTMLInputElement,0.02372311265168033,-0.024131195417806842,0.016105346045748033,-0.029405753883367088,-0.002457974411157577,0.386648531684902,-0.0012524165954597593,0.05870492575853918,0.008557974989206229,0.03126382492656326,-0.05874942970359683,0.5833886423643755,0.05091759359702877,0.03406256743682267,-0.02057958166130114,0.05730512364611954,0.028685885990550924,-0.04083760716770326,-0.02681695918487834,-0.17649855848516485,-0.020011321880967936,0.054442557775079704,0.5503174619146032,0.31223688935322774,0.13538760467422045,0.029923518495202615,0.014459380087059596,0.05083149057215863,0.05426516984429095,0.037669579002558816,0.11715307738990144,0.11958818567090733,0
org.apache.xerces.jaxp.DocumentBuilderFactoryImpl,0.21638259945112595,-0.03475398911708993,-0.0815209618172348,0.2617205582621191,0.05244321088709407,0.012510636761718024,0.0139049111253699,-0.19398121265123794,-0.011312087123377926,-0.18528257249412017,-0.04349971464037971,0.019616291389575838,-0.08142162529151815,0.009736020557452263,0.07046325735538549,-0.3195126577392684,-0.055337414108137625,0.2640741298445288,-0.0333102729860251,-0.06259019281443594,-0.2716510248606485,0.39940088482993197,-0.029067344495788166,-0.2623632668099292,0.13132881668206428,0.15062020308624333,-0.08299380981999929,0.10614312059311161,0.03710713377307886,0.33284763377866067,0.3534333863118733,-0.09797624271561399,1
org.apache.wml.WMLIElement,0.006129461514536956,-0.005874087372077305,0.0033893378303443025,-0.00634327545097807,-0.0006206124926466468,-0.0010230853834339313,0.00023275983092526685,-0.012633273118572928,-0.0010782055901015753,0.007885257090791412,-0.01360711237738112,-0.0016518521078373529,0.010059026211686155,0.05855481178229285,-0.006283006669767399,0.009213261296860733,0.042595163259630094,-0.04515490935342499,0.004003981519397615,-0.009195354636749468,0.06903687921059462,-0.14582899716905937,-0.11455602093090951,-0.13726294815789358,0.9169102748230946,-0.014514144259715046,-0.22334424274046275,-0.06597575434868065,0.0294978844735876,-0.15779089795578266,-0.09848748642144287,-0.05675345752359465,1
org.apache.html.dom.HTMLParagraphElementImpl,0.027369286293771937,-0.02785681203651296,0.018029797963269974,-0.03505408812086534,-0.00533542277999999,0.6091623028112693,0.0015016991515716678,0.08074420838705046,-0.0008046514994192959,-0.06804596840893577,0.10016636090341037,-0.7443296301656543,-0.05074325141780219,-0.017392524526102963,0.005213914564565256,-0.013430655496424908,0.009823567048942355,0.003981817354842326,0.0007436391753652819,0.002553174785270854,-0.021867687658474275,0.013612524008531978,0.15317156643807886,0.11814245056427175,0.05554261701640051,0.057307913605681965,0.007237479679084685,0.001927809601886301,0.008765569609681766,0.03907731926338219,0.017854689743326983,0.031084096510316368,1
org.apache.xerces.parsers.SAXParser,0.33906773622693526,0.15037437668921566,-0.2762955479688962,0.4058921715704622,0.08276764885135582,0.012656448685906813,0.03722430794531367,0.05089458332301082,-0.043334520053060176,0.03574249143413247,-0.22120368298060528,-0.056636891231277,0.18402934487972256,-0.04633357699283328,0.12152322413758797,0.2507488329819523,-0.14735403288715435,0.11151182222809126,-0.013224522932622568,-0.11632343822083678,0.3934503373827469,-0.0003857527875587503,-0.019645839441478814,0.06598001544266043,-0.050740455610207014,-0.15956994483983902,-0.24095791954889148,0.04174731829209743,0.12355408487340336,-0.14098349447926178,0.2655210143317112,-0.2012829334626123,1
org.xml.sax.helpers.XMLReaderFactory,0.16811123428241412,0.004401543444207003,-0.17155675969691583,0.5953954373424505,0.012992984753086212,0.04360201241921587,0.00026598802629728595,-0.021307866412251554,-0.04259022778859421,-0.10467070572020305,-0.036958700022274076,0.009078602008929033,0.006321642127894404,0.023240186233430757,-0.10249915346265395,0.143719155471947,0.24283190384237957,-0.14474919249364943,0.025298261562242328,0.08750116629709176,-0.1952787016574422,0.011408304621808758,-0.05310020547639579,0.049355506555745915,-0.06853321152330025,0.3664586607531041,-0.4566301410226042,0.08007605195899951,-0.19786215346012817,-0.019575387219780954,0.004737261370994684,0.11876629311923784,1
org.apache.xerces.dom.NodeImpl,0.5105026098319981,-0.3690333635851728,0.14022930876035725,-0.23840681877054556,-0.01602458875211158,-0.017272275750332723,0.012608484839297256,-0.4419379308104133,-0.0333751662001422,-0.1764518317946581,0.01151824214778666,0.025768868580654008,0.02996688772957702,-0.021143771981226307,-0.05080021352214998,0.1304667684638858,-0.09091897928403925,-0.19498326465219373,0.022333656324034425,-0.07109621273140791,-0.18004856460793162,-0.2773195388528655,-0.031668225289677866,0.08550511097641797,-0.053761573074623675,0.09016121136214833,-0.13112640312539126,-0.026591938803603204,-0.2446884349781138,0.0869176657815475,-0.08021248776837873,-0.066523798939683,1
org.apache.html.dom.HTMLCollectionImpl,0.07882485629259772,-0.06653259421121555,0.037508860647922714,-0.06018778782204388,-0.004878366173514141,0.7289549380495303,-0.00258265504724033,0.12471108929403868,0.006950260434661002,0.03824251752862738,-0.08449285870161488,0.42350795404877517,0.00451245227145798,0.018264139878252476,0.0008129908669310773,-0.018649290306828027,0.0445875237623009,0.03533478539559897,-0.0023023775489955886,0.12409697187085639,0.0636063311974995,0.0007208570194085665,-0.3898164459735538,-0.2268028518588036,-0.07367338444271745,-0.10709708053836171,0.025333548934342708,-0.0169420117350319,0.004234919005626792,-0.06830543200337486,0.0038724550668991784,0.007152048137086913,1
org.apache.xerces.dom.DeferredElementImpl,0.23410610132788315,-0.07078208311591982,-0.020895566691178744,-0.16683639756448934,-0.07410132938045917,-0.018017819050934313,-0.019057660593730874,-0.20205760867187542,0.017284285158203266,0.004975279603086315,-0.2051391425339491,-0.01975855056791028,0.1158265344225161,-0.04815653584477805,-0.05867145506811545,0.2798892230380719,0.2005508152375496,0.024185441578492593,0.026445610722717724,0.28065982081917773,-0.04091908642841749,-0.0009132895699019012,0.05257959037012306,-0.11188982116607216,-0.026689296390100516,0.10392919959100595,-0.1834326400080854,-0.470547017794357,0.43181572472576657,0.30573333942071196,-0.18608137514550652,0.07888191992985186,1
org.apache.xerces.dom.CDATASectionImpl,0.33684764124491057,-0.2599768033917803,0.0994850801984361,-0.18207967130581088,-0.03718738558607327,-0.05314399785775926,0.010886063674295007,-0.3358207596597483,-0.025339724312287624,-0.18311138532461063,-0.05344474064419661,-0.05194057523263381,-0.040958118139083524,-0.010836126305815444,-0.17155789121534243,0.48678185827867776,0.0027135681596162004,-0.2978350772946603,0.02869184191501206,-0.21437690940026244,-0.017260057253793145,0.06943330249428586,-0.030721614548917538,-0.08186811855741666,-0.2105681074385286,-0.12056521877763166,-0.1175504105774036,0.05248315168534553,0.05532847334065041,-0.11671418705363124,0.31368642383816825,-0.10997941874753238,1
org.xml.sax.helpers.DefaultHandler,0.22143518546562593,0.00027180038151456727,-0.19387906601530464,0.6419124754759782,-0.002484761870555536,0.04324503681314468,-0.000279204373622534,-0.04906733105228908,-0.044854824387323564,-0.03629072022684528,-0.18400045565577022,-0.02163365186363703,-0.06983011265828205,0.04003673466036917,-0.0993155246550107,0.21696477213641657,-0.3587468602307203,0.05144206202812453,-0.000890725542913515,0.07488354682105247,-0.013827422503970828,-0.15863423858963638,0.06428141440019815,-0.05673148427588395,0.07086959223784356,-0.24583023431555934,0.34286640980165656,-0.015389625349557727,-0.0875144302000081,0.03826479178140529,-0.11156500158152984,0.14660354716458648,0
org.apache.xerces.dom.DeferredNotationImpl,0.13187730088206584,0.02764100465536477,-0.07534800510454358,-0.13299488299518397,-0.08618863080271373,-0.02081589756363422,-0.021677449693362442,-0.1261764101802598,0.023254880586817944,-0.023395225050656394,-0.105277026904286,-0.04171225547323462,0.22629488673177806,-0.07102743866018643,-0.04648593971231566,0.35116641928699216,0.15500499609415416,0.02600738145959992,0.033098482337626585,0.16288859306881456,0.004306170514369137,-0.010482285795074056,0.06979275359850907,-0.2438900917298301,-0.15209922057064285,0.10828264752222777,-0.2667844765003932,-0.41660561014977343,0.42758653871146,0.3549689357228998,-0.17073572619636876,-0.06474960403828726,1
org.xml.sax.DTDHandler,0.1777531581934663,-0.013539315816182214,-0.1439306368929217,0.47138793662664047,0.0033437608579385074,0.013494524179788588,-0.0020328478936674603,0.0276408076947846,-0.055711329251577936,0.021061798108924893,0.3436767624291068,0.04261817829025573,0.11784031788122146,-0.043775566111737066,-0.027975919020957755,-0.011729269231769176,0.6073116416656519,-0.2651153477742292,0.02004776792930081,0.031997848683526,-0.17187647314612303,-0.029075992379754105,-0.11395714417167956,0.10676061205178634,-0.060484667639394626,0.04714432359986249,-0.1768010909928036,-0.026933154468997786,-0.0329225860281662,-0.1846126263440134,0.08384499332706932,0.09362242875465493,0
org.apache.wml.WMLEmElement,0.006129448439926045,-0.005874075864045931,0.0033893068405776647,-0.006343296371419801,-0.000620533390883114,-0.0010231261850750576,0.00023276315809183667,-0.012633230603212331,-0.0010781809666064973,0.007885220577958787,-0.013606770038326268,-0.0016523713726364186,0.010058895993833583,0.05855397453786336,-0.006282522470285557,0.009213295874805535,0.042595524910335754,-0.04515532417534646,0.004001086164814351,-0.009199319334314034,0.06903469913379078,-0.14582920389302215,-0.11455670874404529,-0.13726715500482262,0.9169093447586981,-0.014508308974491357,-0.22335047412299877,-0.06598507423896642,0.029498323955899363,-0.1577902777888746,-0.09848435299413325,-0.056732083791632984,1
org.apache.html.dom.HTMLBRElementImpl,0.027369294558704294,-0.02785681942335031,0.018029803143659977,-0.03505409741525988,-0.005335432185133399,0.6091625177399664,0.0015016866308600716,0.08074420600006876,-0.0008046366600085335,-0.06804599412433879,0.10016644753739959,-0.744329750651526,-0.05074327325319182,-0.017392638193781704,0.0052138789960327805,-0.013430815361610123,0.009823159330010045,0.003981158448324734,0.0007446795970782997,0.0025530846988502318,-0.021867770652696218,0.013613935211081707,0.1531701748286622,0.11814248741157944,0.055545521231819564,0.05730697873309433,0.0072378399307527165,0.0019271159983693025,0.008763682118580817,0.03907674594320547,0.01785440883986882,0.031080623618332887,1
org.w3c.dom.html.HTMLSelectElement,0.07197714926630501,-0.06458021277698592,0.036038799178038226,-0.06064933711755287,-0.0030981435919033213,0.6920806485833223,0.00041178596313003993,0.09076659998228251,0.005405196196743947,0.021143021130865546,0.04500560454207031,0.6233574928105139,0.09902549172003643,0.010625960693384763,0.006931640043747288,0.033952183246214344,-0.1101133032955442,0.04250856465369759,-0.02667389059391547,-0.09690660692941311,0.001680724573595446,0.030345041857323892,-0.11965846820348144,-0.16387505540626224,-0.04567542894684488,-0.06363794419284459,-0.065227077292556,-0.0006249025881452039,0.038848819177780144,-0.09215230531217283,-0.016374041880949475,0.09726251028438666,0
org.apache.wml.dom.WMLIElementImpl,0.01005319374115117,-0.009301716642428742,0.005110283704220451,-0.009734351267991041,-0.0011331297233228789,-0.0030880530403439494,0.0005269589738726465,-0.028161242242368514,-0.004093549675478007,0.003335916777763214,0.03165577588124416,-0.038091218026643385,0.2799273091499059,0.9537137552587168,0.015645814903799533,-0.026013427141055465,0.01768802171296617,0.027081731476623534,-0.00273158729018314,0.015494536976283368,0.0004599690795671869,0.01846409497228182,0.02219514375036125,0.012967381890015244,-0.0694425218679358,-0.01398450654867613,0.00933483643193061,0.0011464721670846596,0.011386571601802512,-0.002951146831231405,0.002173518702933256,-0.0032625193120016226,1
org.apache.wml.dom.WMLPElementImpl,0.010053196352923252,-0.009301719010869432,0.005110283166974838,-0.009734354741183367,-0.0011331352844144579,-0.0030880576639695676,0.000526948618827319,-0.028161250737640142,-0.004093585825432546,0.003335944644277588,0.03165579774304908,-0.038091153210375185,0.2799273139064224,0.9537138880575347,0.0156458969842176,-0.026013366650841134,0.01768773470515425,0.027081398589753836,-0.002731411431976373,0.015494081341019195,0.0004593869367797732,0.018464038329434804,0.022194718480272713,0.012967281798197002,-0.06944155866784296,-0.013983924350764801,0.009334847766197083,0.0011456243426236391,0.011385073254382526,-0.0029507755066424815,0.002173071007240757,-0.0032631974475683476,1
javax.xml.parsers.FactoryConfigurationError,0.05553864980617942,0.0006848214982457141,-0.04754869035602495,0.15907406262105828,0.02490819838407207,0.01512932807323872,0.005491675378671211,-0.07127345686917996,-0.004084090648357983,-0.11366538003418294,-0.029143656838815757,0.011532787742991718,0.005399071858033589,-0.011107386937875621,0.06257579618561662,-0.16066515357209124,0.0194689302278826,0.1628798008102154,-0.021786131020517307,-0.07765914777823178,0.01715662874470482,0.2757341155625888,0.05721603253916177,-0.3092247777655045,0.13056856302236428,0.01823962278476453,-0.0806754040164372,0.08197888735960822,0.012809465570797502,0.5086883001711152,0.4654119400130726,-0.4525615980156908,0
org.w3c.dom.html.HTMLParamElement,0.015508824034290731,-0.015801390781420913,0.01027276620694305,-0.01849737530135625,-0.0023309712709134083,0.20766258557456965,-0.0010217617226123573,0.025644929911844003,0.0024892210053817417,0.014834863165131105,-0.045000012503427875,0.4247917066210858,0.0373751222428048,0.01091875066127441,-0.019832573223406348,0.06427964439519401,0.012394625643963443,-0.0697452164274101,0.008659790380912408,-0.16943117158628898,-0.0701245587406513,0.05302749241618543,0.6677883561523328,0.41820446981371584,0.20316733350839883,0.17766214173278086,0.07116612263758515,0.045876704686487815,0.017128343943028576,0.14384835423477807,0.04485890011190494,0.03405760697054021,0
org.apache.html.dom.HTMLImageElementImpl,0.029400177757455303,-0.02991236178977225,0.01943477799160689,-0.03761534724353362,-0.005633799127885654,0.6506024980640475,0.0013501790964247802,0.0880365463596473,-0.0005726656469239909,-0.06610559348613791,0.09565397961693775,-0.721176548645896,-0.05095820098219498,-0.016614535330300523,0.005427882066950608,-0.01551184573837176,0.014611337398086356,0.0059628891740990606,0.0008327606852848554,0.01386267077342865,-0.01595182962938448,0.014436698952098972,0.11006649142104252,0.09397750620302651,0.04854629738440411,0.04627525923807676,0.012260861475679466,-0.000839418372436403,0.006767757548507517,0.02872311617680381,0.01923237748537109,0.02968391384430594,1
org.apache.wml.dom.WMLBigElementImpl,0.010053194328281875,-0.009301716033430184,0.005110282621862545,-0.009734354245273951,-0.0011331153174703283,-0.0030880588492540693,0.0005269728211300752,-0.028161237468670785,-0.004093541718058627,0.0033358308161355156,0.03165564467158076,-0.03809136266073908,0.27992725029411997,0.9537138157862006,0.015646042381458555,-0.026012852678996036,0.0176873544301673,0.027082168748620242,-0.0027320286790863536,0.015494545816954149,0.00046008374258153215,0.018463916511968312,0.022195540593558483,0.012966681076109708,-0.06944219659901134,-0.013984700277156427,0.009333777460296712,0.0011455431162268558,0.011388301786084314,-0.0029504496819668996,0.0021711733351286234,-0.003259335009294458,1
org.w3c.dom.html.HTMLQuoteElement,0.015508991487867765,-0.015801565430275943,0.010272865241627122,-0.018497543803567915,-0.0023311507716348746,0.20766477968312377,-0.0010220338014041118,0.025645305506062168,0.002489741898883377,0.01483447753547762,-0.045000102861438816,0.4247969325185483,0.03737538216385265,0.01091823284656973,-0.019833397966257944,0.06427757976481602,0.012397673119884321,-0.06974360136207128,0.00865923058520439,-0.16943205239865067,-0.0701195600225358,0.05303153228400349,0.6677851847627163,0.4182095291596784,0.20317111375012953,0.1776527436251768,0.07117315695477806,0.04588921618974402,0.01712026503941424,0.14383787708466336,0.04484068206502052,0.03405101139780126,0
org.w3c.dom.html.HTMLLinkElement,0.015508852436453969,-0.015801427654766376,0.01027278452734938,-0.01849740528345318,-0.0023309702216878746,0.20766270890413105,-0.001021834569160307,0.025645348097686683,0.0024894890705446796,0.014834071008940233,-0.04500039107031129,0.42479184148053445,0.037375294841209744,0.010919957597094295,-0.019832508749528827,0.0642802268743227,0.012396584704509779,-0.06974236565041175,0.008656941271615598,-0.16943124588176597,-0.07012208506014275,0.053017699977704794,0.6677903003359121,0.4182038350270122,0.2031578176352427,0.1776670697252305,0.07115580523349746,0.04588729586415395,0.017136036491518705,0.14385635707239083,0.0448552822707364,0.034053922557599675,0
org.apache.wml.dom.WMLBElementImpl,0.010053195451725278,-0.009301717661660337,0.005110281015380968,-0.00973435677647712,-0.0011331086167387396,-0.0030880402954103605,0.0005269834306388742,-0.02816123160789392,-0.004093565221939432,0.003335903847055848,0.0316557558482869,-0.038091241955318496,0.2799273350370057,0.9537138043927437,0.015646029310908992,-0.02601319060606904,0.017687584752544828,0.027081714082765204,-0.0027318622343051914,0.015493909015806986,0.00045969499609999325,0.01846374825796437,0.02219522460995675,0.012967035375751498,-0.06944283029446355,-0.013983051127669201,0.009334173996792974,0.0011454087434241615,0.011385520454255095,-0.0029508573299979026,0.0021741758807217126,-0.0032603157304271703,1
org.xml.sax.SAXNotSupportedException,0.2718223580873065,0.04684869670367993,-0.1623544470944427,0.46082695946619645,0.07309063737462003,0.029935175999139366,-0.0033209799391921637,-0.14002141397807916,0.033730321430161324,-0.24192053325070298,0.25429578684182697,0.05973064441637629,0.021467847634267397,-0.027757240967262477,0.058028640306889284,-0.2510705044850861,0.2676648370768443,0.06750911124456256,-0.014977407720316124,-0.04679679396851865,-0.16082843204655253,0.25510854093373586,0.08358783916720461,-0.2295768949318327,0.08544431098470033,-0.17774572054294172,0.030039865338868994,0.008873774547692052,0.08394914765019555,0.3934644900191707,-0.08010451857373531,-0.16248321765222884,0
org.w3c.dom.html.HTMLObjectElement,0.036968868106367514,-0.03691535855843777,0.02416246209419384,-0.04393814642360558,-0.0045285796774674324,0.6354767974837966,-0.0010144102731951057,0.10622840717594573,0.011478256863058062,0.02367118743180309,-0.01642352313247408,0.7033613556039957,0.08691731263639754,0.03488618961683142,-0.01606030429334086,0.0608726324005489,-0.035832961842151956,0.020998670601194532,-0.03511148491021153,-0.06702210398020701,0.02523083849773516,0.024572062122292456,0.18215708032659034,0.08743094079733651,0.015524424410341051,-0.03982100472233309,-0.05905187224757304,0.04405516822313958,0.028251932848587832,-0.006842713279920232,0.07412123278512128,0.08997883992957927,0
org.w3c.dom.html.HTMLDocument,0.19318947980538292,-0.15897520068371418,0.06633772635314994,-0.08228448554900882,-0.012611413790483835,0.8042679297470375,0.00017075461990553718,0.022411035198186754,-0.02285221020475062,0.18196733434212264,0.04924920532464784,0.20736840642275653,0.03992714752067826,0.010393475120716634,-0.018064624325967147,0.10865439064109,-0.008717225444091037,-0.10090804919395158,-0.014457739953463673,-0.13639726558243928,0.03801745141717741,-0.02765866082498907,-0.04312683825847021,-0.1239794243307085,-0.11091093089143163,0.04668856483474959,-0.2231755744040365,-0.07462582005285028,-0.02071733174152547,-0.01594321166244119,-0.23552362703967591,-0.10632153326083728,0
org.apache.wml.dom.WMLDoElementImpl,0.010053198347490064,-0.009301720750320087,0.0051102825061336244,-0.009734358077150394,-0.0011331314871688234,-0.0030880536564293244,0.0005269508799584882,-0.028161268993885432,-0.004093627952291985,0.00333594779566441,0.03165577805550524,-0.038091189835213694,0.2799273877430265,0.9537138502343746,0.015645986405787633,-0.026013335956580577,0.017687761092808875,0.027081838701542422,-0.002731633695144571,0.015494248874051219,0.0004594528716406031,0.018463878625719545,0.022195103760364026,0.012966843977970228,-0.06944191516870082,-0.013983399837840185,0.009335250644342253,0.0011447759890489458,0.011383758534085466,-0.0029506975136868543,0.0021725498935323486,-0.00326131501383407,1
org.apache.html.dom.HTMLAppletElementImpl,0.029400180479285377,-0.02991236438329013,0.01943477969055647,-0.037615348411968015,-0.005633798653852978,0.650602550142374,0.0013501778797779295,0.08803655719105608,-0.0005726464541842837,-0.06610562848104361,0.09565394341291407,-0.7211766787023195,-0.050958254625194196,-0.016614425390398545,0.005427923963103734,-0.01551186806165062,0.014611515660779152,0.0059628424523498315,0.0008326739846602749,0.01386256979549558,-0.015951852984089264,0.014436734623354956,0.1100659377921954,0.09397654801877839,0.0485467275501381,0.046274821061185016,0.012260636637625957,-0.0008393570882700766,0.006768298598696527,0.028723803621315155,0.01923158786925114,0.02968438688556261,1
org.apache.wml.WMLDOMImplementation,0.20785789928902315,-0.16967953781103418,0.0742919165681766,-0.12166890567947955,-0.007742265943442788,-0.044684745722512444,0.005904367260528013,-0.2654152726806338,-0.024548564813290766,-0.049807026873132376,0.20969613501669604,-0.009064736522282282,0.13994528887035598,0.019200121720719488,-0.004033303969913382,0.046089518909518956,-0.28622459375081416,-0.09033115151871261,-0.005410147762817152,-0.19444802320205268,-0.07357469790926784,-0.19578781967870437,-0.25350639072274556,-0.1751757656951183,0.4533226656175226,0.23343919604975596,-0.04289242547046193,0.15355668350112164,-0.29241181360925106,0.14020664940995478,0.06975224963830345,0.3222550891468632,1
org.w3c.dom.html.HTMLModElement,0.015508999842905952,-0.01580158200909573,0.010272894191091182,-0.018497571041570997,-0.002331057506389297,0.20766499600833466,-0.0010218371356352442,0.025645321361560895,0.0024895692158205043,0.014834687400698229,-0.04499927912340944,0.4247975706639928,0.0373756939519997,0.010918799208882115,-0.01983290432417538,0.06427744456530576,0.012398425468953263,-0.06974391323960533,0.008656820583273505,-0.16943414741824306,-0.07012292356398779,0.05302449731324653,0.6677894933934705,0.41820082759766014,0.20316012884106904,0.17765558086701555,0.07117819404355595,0.045883150066444826,0.01710330314577519,0.14384784039849116,0.0448706045217208,0.03403380032168274,0
org.apache.xerces.dom.DOMImplementationImpl,0.4822085806701546,-0.34252795323478585,0.12341393342752813,-0.1675251000444993,-0.007387310757138571,-0.017364626285134594,0.0070304590784046545,-0.382325779884031,-0.02781798686036667,-0.010318808584338111,-0.12967403244260245,-0.020696472571389034,-0.03966800530765527,0.033021957269965097,-0.015351281473169899,-0.04723970380450309,0.08239014985291865,-0.20808703313145852,-0.0011356820749807658,-0.2657027072741729,-0.03650594957361929,-0.11433800929730703,-0.17148900217962054,-0.22480021149381932,0.18749406532449878,0.02353425856017985,0.1645370403495947,0.05051244775059579,-0.06128393025071136,0.1982464936068933,0.28600167264621357,0.178316575449814,1
org.w3c.dom.html.HTMLDOMImplementation,0.16656534751620453,-0.14137419180166022,0.06835784685045718,-0.09439689865037687,-0.0033940826584904424,0.6079899031588958,0.0011386295140885113,0.005019866363788241,-0.013048445952020288,0.19387133997943623,0.14489123895326314,0.4444610852020857,0.10857899884550373,0.006232124282943753,0.017385316749793846,0.06810600710490439,-0.21214125815996743,-0.01598772550715639,-0.05334615319605072,-0.331920928316786,0.007211941698023259,-0.04680772424028927,0.00980184938773231,-0.21817002792181506,0.06292395927603325,-0.026549741270579286,-0.016125490524428847,-0.14610375195378666,0.12084070681583639,0.014305039506647832,-0.08675930084983406,0.19776912774184807,0
org.w3c.dom.traversal.DocumentTraversal,0.1677491258175841,-0.12153135376203958,0.04148233856111466,-0.05625727326376454,-0.0098282941511801,-0.01565254941095372,-0.0017925591699714915,-0.06668855466009882,0.0008880887057377248,-0.09982386945244204,-0.1347156559909299,0.04602450032995217,-0.05681270076146791,-0.008241146179679552,0.09721881958657227,-0.35010996877097816,-0.0404806570018651,0.26986487788866687,-0.018201855051919943,0.6988220630568458,0.04968436003351104,-0.34859647654037057,0.1142358060686403,0.21690889065007302,0.020808747673743532,0.004484299809711377,-0.03210146224669302,0.049699175475086614,0.045987381278213654,0.06150753999509876,0.15439880329988442,-0.030479501239054154,0
org.xml.sax.InputSource,0.23273283330444877,0.07401076962922797,-0.20054827546174936,0.39456788411197213,-0.1090280948132898,0.018782528910808834,-0.02163006473560425,-0.022547389132246073,0.03574224895709252,-0.15519592146755623,0.153000559315341,0.02864438872563852,0.10480816751292994,-0.020775223618286275,-0.019489654246619387,-0.19022135524607126,0.2664782612405098,-0.24118415376250865,0.006776608228953787,-0.05141671874716669,-0.047216816463738674,-0.04390887489398786,-0.30771344532552997,0.12614550679058636,0.010672157670737046,0.561087927490213,0.06582275517969792,0.16061476695311513,0.014419541440773918,0.17303734385122724,0.06660261923319656,0.08595432642540578,0
org.apache.html.dom.HTMLHeadElementImpl,0.029295509415885962,-0.02978572155084737,0.019237371414129515,-0.037125515871598506,-0.005598168246791606,0.6300657213037557,0.0013639539109586507,0.08323354355634473,-0.0005199349242607233,-0.0655541642831274,0.09338998169004337,-0.6923085634159107,-0.046863552057761236,-0.015733625785327617,0.002914685534544569,-0.006069619526894723,0.012730554259615024,-0.004976892163260981,0.0016335313604119914,-0.016548544480070173,-0.0285740055167674,0.018034775532395648,0.22804252395893485,0.1643029892449641,0.07760096331017022,0.07690874635245838,0.014386195903232566,0.006303643546841069,0.011388772897061765,0.057030789305792993,0.02156431309952759,0.033587035897107244,1
org.xml.sax.DocumentHandler,0.22573437774329214,-0.024924491800123377,-0.16240603844278856,0.5030395781840589,-0.018981208755679477,0.035347552149885275,-0.0028813090141995576,0.012508727981608373,-0.06783930073699611,0.15707060288126104,0.22672473306223848,0.02235817999999912,0.04955427634630631,-0.004289642315390463,-0.09031314214998314,0.18475627835366185,0.4182839313320122,-0.3295800455746985,0.027528891620424645,0.028012616920030202,-0.18003709135865562,-0.12109289479337922,-0.12843580406182417,0.24250015527271368,-0.10184936231064229,0.1480554936127507,-0.26892763986880275,0.0074710685660109655,0.04475978393042227,-0.16288309541351725,0.0016578652379290258,0.023798662075132006,0
org.apache.wml.dom.WMLFieldsetElementImpl,0.0100531943649357,-0.009301716623377896,0.005110282768303783,-0.009734351779578484,-0.0011331134577423198,-0.003088058510201309,0.0005269623392293087,-0.028161204883526008,-0.004093575388204608,0.0033358664589059122,0.0316556597845921,-0.03809131198246454,0.2799272337344079,0.9537138339789086,0.015646009109394,-0.026013001799264183,0.017687387492877415,0.0270819062729334,-0.0027320305074247,0.015494116875358479,0.0004599158253205012,0.018463709791590597,0.022195485508766707,0.012967062136894351,-0.06944239641105956,-0.013983940319570363,0.009333638521402213,0.001145047094875103,0.01138782946016583,-0.0029506486013962507,0.002171284941089028,-0.0032601241255665455,1
org.xml.sax.HandlerBase,0.20428142685419362,0.004989648351889299,-0.18043102987940587,0.5791845425777614,-0.002293836000796114,0.04331244858696398,0.0005068358382358734,-0.035683987684127505,-0.03270958487210472,-0.0458993406494804,-0.18827371763846668,-0.029657203390732058,-0.06583899464281008,0.04522574289383792,-0.09514224611179146,0.26990057236739934,-0.41163939979835845,0.06984520645426069,-0.0036624551791563644,0.06229030282769077,0.046371909914525264,-0.15244868416033644,0.10441129764242449,-0.01340881535705985,0.04697309502381109,-0.2803693737717468,0.3180133476840219,-0.0734315264014642,0.09759198624645948,0.11256124643472,-0.1867299200256198,-0.014346367577618228,0
org.apache.xerces.dom.DeepNodeListImpl,0.38679991088222065,-0.31505665950265055,0.13405223437851588,-0.22731300566210044,-0.04081247388201241,0.021674386150611995,0.0058833838380591,-0.3024054781484935,-0.022414409461488823,-0.18379028200566244,-0.07664583934282923,0.06669682357335513,-0.053359614268187736,-0.011152618175265852,-0.1022356499412295,0.2025853497437162,0.049838675423498416,-0.19690832240177536,0.012877563572397499,0.22358329562809562,-0.22652577098303817,-0.28121541097505803,0.02344009436832417,0.2445937709087877,0.021250595639783335,-0.2743995256542392,-0.012164325614209015,-0.23820841452530214,0.12739999273771746,-0.14978229203265525,0.1744989795160084,-0.06970592493580455,1
org.apache.html.dom.HTMLDOMImplementationImpl,0.34889406010615853,-0.29581117086468234,0.1337841478197073,-0.18873750143822715,-0.03121116113842654,0.6445880248653073,-0.00024341526189493805,0.021772860937411993,-0.004774862138711236,-0.011374469724534533,0.02050085160304791,-0.29424853391843064,-0.05410111613111698,0.05990706481025116,-0.04837233825498963,0.09236064341933779,-0.010124467406804826,-0.16342521185897996,-0.03268693008552257,-0.19102587022662454,-0.02084543272918982,-0.14775714626956224,-0.03303708545373115,-0.12135778519614933,0.16238579212738996,-0.06563275875080464,0.10934940574846908,0.02890692395631654,-0.060173422755430014,0.21996029695324595,0.0865718398743036,0.10169853797727076,1
org.w3c.dom.html.HTMLBaseFontElement,0.015508995260695246,-0.01580156784174133,0.010272871320122244,-0.018497535732059422,-0.002330988154978312,0.20766476475129111,-0.001021923855488812,0.02564545599766162,0.0024893608429880864,0.01483412841482541,-0.04499950550222962,0.4247966800555644,0.03737448793439599,0.01091798321071899,-0.019830712640647463,0.06428101872751726,0.012399190471164678,-0.06974300677595158,0.008657581907938696,-0.16943185249927242,-0.07012302184597853,0.05302838015624696,0.6677908353709302,0.41820072539962705,0.20316400749998892,0.17766154208916132,0.07117097270034492,0.04588990857199538,0.017128331495710677,0.14383693083956436,0.04484413244636767,0.034043947398142,0
org.w3c.dom.ProcessingInstruction,0.38601011041236555,-0.2141220145292298,0.06309865137897021,-0.1403295512544756,0.033167334541589294,-0.08388692382076272,0.017468259206401743,-0.026365153503473897,-0.02481516974450169,-0.11095966561719904,0.20626766328178064,-0.024211133490445146,-0.010552351633201196,-0.012778202711038024,-0.012619451216517665,0.03356114856307741,-0.2619733903612812,0.005594816731294412,0.009306162539649656,-0.3062411932284795,-0.5586055711935365,0.16859389477550984,-0.22135648843699487,0.036032619864470206,-0.00796411041215653,-0.07744757353100117,-0.028021347922631668,-0.02875825622243735,0.08356353055771824,-0.22913186204933975,0.30554238646268034,-0.03015308148868778,0
org.apache.wml.WMLTrElement,0.006129491669239654,-0.005874110955166478,0.0033893360620329163,-0.006343345627302206,-0.0006205585190140763,-0.0010229874372377201,0.0002328682735834606,-0.01263344279072728,-0.0010782455350899728,0.007885495002034995,-0.013606766401515386,-0.0016517721397986177,0.01005850140495541,0.05855369327417592,-0.006280827577832146,0.009213080901551996,0.04259580833624634,-0.04515433441492939,0.004002615365607444,-0.009198050057088727,0.06903626165247304,-0.1458286849037545,-0.11456423819977654,-0.1372671270722897,0.9169092912387224,-0.014515335394338597,-0.22333834321591503,-0.06598591908873715,0.02949543299085097,-0.1577983426167461,-0.09848652565585043,-0.05673869519708623,1
org.w3c.dom.html.HTMLDivElement,0.01550885514165397,-0.01580142787720011,0.010272777950263611,-0.01849736947274535,-0.002331111173783292,0.20766280549655033,-0.001021996972017557,0.025644976405507593,0.002489186616616771,0.014834147345216573,-0.044999945005722644,0.4247934240486942,0.037374450405789295,0.010917116154977789,-0.019831590712748856,0.06427648884404272,0.01239855379409299,-0.06974455612371473,0.00865884429702179,-0.16943509676830767,-0.07012026562395499,0.05302986341233425,0.6677868079203778,0.41820602880536933,0.2031633563346666,0.17766992587584768,0.0711751120371242,0.04589659383866445,0.01711355728856873,0.1438451926682307,0.0448325341729553,0.03403298193375689,0
org.apache.wml.WMLAElement,0.006129451983182455,-0.005874074198699422,0.003389312596843829,-0.006343277831340392,-0.0006205081299639523,-0.0010231185835718913,0.00023273770159511968,-0.012633256931526672,-0.0010781493234672036,0.007885004277507204,-0.013607255420492155,-0.0016524274605226748,0.010058443030676992,0.05855339142399579,-0.006281940020098443,0.009214436146777328,0.04259417054493225,-0.04515593522975952,0.004001026599713368,-0.009199565958157064,0.06903453139438932,-0.1458282221220065,-0.11455902070392417,-0.13726429898306788,0.9169090308776081,-0.014503051149632466,-0.22334850844360454,-0.06598609330525018,0.029499012083077505,-0.15778118722750786,-0.0985044853721904,-0.056740961114363796,1
org.apache.xerces.dom.RangeImpl,0.34553842191698875,-0.27947557216740365,0.11549623852648434,-0.1786134066059604,-0.03441609097703175,-0.021336950222230054,0.003182842951808986,-0.1736948775257156,-0.012997011680483738,-0.11942349724883645,-0.28494475413685894,-0.06465483435707105,-0.15020281928336465,0.03198901073289051,-0.08307508745886832,0.08272831417665977,0.21461557789110788,-0.2611757392754626,0.022899549928304893,0.08636512527021978,-0.09640049477770564,-0.37786118060342727,0.05734570654110326,0.04630014491838887,-0.15218098856888412,-0.2643817885454422,0.004516892749141237,-0.008092058604549209,0.07699714384520158,0.05819820611024227,0.3887602576286352,-0.2344084531728527,1
org.apache.wml.WMLBrElement,0.006129495203249181,-0.005874113588216881,0.003389346413625992,-0.006343353080935111,-0.0006205173612318044,-0.001023018689113163,0.00023283304141157694,-0.012633377131448204,-0.0010784141257529397,0.007885440461970164,-0.013606982456763207,-0.0016520531825679492,0.01005950659182432,0.05855457298507301,-0.006282411715205564,0.00921362253083274,0.04259564342888675,-0.0451571650333329,0.004001678999307055,-0.009199649911247207,0.0690377823552027,-0.14583238274883392,-0.11455963309527291,-0.13726352045178544,0.9169086662649598,-0.014510986945710465,-0.2233560208041768,-0.06598933313489913,0.0294929473022467,-0.1577845414582631,-0.0984786746242427,-0.05673260479122847,1
org.apache.html.dom.NameNodeListImpl,0.3643741778426846,-0.30167077151433,0.13102082533539006,-0.21282726653029468,-0.037675360504498996,0.3273217820675191,0.0029139253850895474,-0.1770661729518857,-0.014842323366917582,-0.1919407135665927,-0.0627965330199966,-0.32846742881626334,-0.07177150838105784,-0.026895092820434587,-0.06269165162956532,0.12332058640561952,0.05685661466441997,-0.1079372865999026,0.00920408786218809,0.36058364152027417,-0.09132210824807577,-0.2699758378996677,0.09741668298281161,0.2939504038909579,0.09263246450927691,-0.18872153795356295,-0.0006752809846284013,-0.15533945563880608,0.026145975817229397,-0.09083018936362429,0.004447955516602094,-0.023303439774951445,1
org.xml.sax.helpers.NamespaceSupport,0.11494978176391359,0.02271424441662715,-0.09576602673622267,0.4336972451501941,-0.020156096736814514,0.03099175425961181,0.029410880131169586,-0.027202096018603163,-0.043970748268782285,-0.08477180799784584,0.3212085134403508,0.05131701798646783,0.14252507115460905,-0.04515786524116023,-0.06898443784121079,-0.01841884708488056,0.6543733817417134,-0.28319303608196994,0.2622096866750932,0.053097871397274385,-0.09420534598139058,-0.1330207933793061,-0.07147342652052634,0.12202615197740253,-0.03219535192393517,0.023460169014340018,-0.003025902743316168,-0.06311848550819962,-0.07498015554790158,0.035382367532961215,-0.06010814026135649,0.03232063756169747,0
org.apache.xerces.jaxp.SAXParserImpl,0.20217640242559456,0.026861294441790393,-0.18981493340011849,0.5982077400631067,0.0477497899132742,0.04614895350704185,0.009982709399243781,-0.0777190797913153,-0.020555032249518337,-0.183695985270866,-0.0974605208556021,0.010199577665768844,-0.004370712482327573,0.010047187903889754,-0.0034597431817907486,0.021801666140584514,0.08808976055312454,0.08636123272537441,-0.015225278036446358,-0.04970461227343341,-0.03478104825861002,0.25394893938630836,0.047843360778797764,-0.1941800067035353,0.015107109092179882,0.14728993444561014,-0.3680320871034334,0.007180495752753426,-0.05594956102681684,0.24101398153600678,0.28414335326588,-0.29428270068503015,1
javax.xml.parsers.SAXParserFactory,0.13224398344755067,0.021017771195983644,-0.1141919759717723,0.34838869908239367,0.04886353805997424,0.02896895644496895,0.00952776775601567,-0.07577355319678912,-0.005028624225359599,-0.13703376802432174,-0.13510324097578055,0.0017832939713759862,-0.0439669569489494,0.010562591603473845,0.03586233475735968,-0.032708834775251744,-0.11706413776992272,0.22063188365774541,-0.031369873468197286,-0.08364917099193449,0.0046790732747187406,0.3132481814611372,0.09674985322771448,-0.28123059966396247,0.1025467522259669,-0.07331822827640744,-0.13006272872714023,-0.027703328222549027,0.052144423193875224,0.4243242610653649,0.3436061894582322,-0.4536122534691255,0
org.w3c.dom.ranges.DocumentRange,0.1853417323144249,-0.1395745317071495,0.055384168550905485,-0.11595225227273126,-0.013086613732665288,-0.02785604318254433,0.006843929676661695,-0.27079565275074347,-0.015639772401261222,-0.07504594099693919,-0.14970950627297963,-0.009496939929410801,-0.04767560845011604,0.008329403287899736,0.013610642782894129,-0.11925282134468625,0.06979258305991569,-0.012227008472882382,0.00495654040445829,0.42448688455109357,-0.03199022599958818,-0.4513352190725081,-0.05851080594946716,0.09795020921362362,0.03313755886616448,0.06878249046894365,0.02703632508098293,-0.10213681611113416,0.12796944998297907,0.4065099513570774,0.367946138728883,0.2705929869670473,0
org.apache.xerces.dom.NodeIteratorImpl,0.22008672137194693,-0.18046658126791215,0.0743763954396772,-0.1046528759690332,-0.024784913461167925,-0.03200295678331478,-0.0022922589176273397,-0.001764402349845021,0.007422776457061831,-0.09423973207578311,-0.24654679461404738,0.025442029146468037,-0.14651195493567912,0.033703857570553206,0.019277029490075332,-0.22837661878432625,0.18545785938000972,0.09484762514123041,-0.0031904616807355585,0.6678416299443765,-0.02263821635138232,-0.3302831335562298,0.03878457448104797,0.24138100977890328,0.08443592083738441,-0.09972235620275564,0.03760189546096438,0.013409101412489275,0.052916535198988895,0.1348676441258884,0.22749930916647756,-0.07190171365175689,1
org.apache.wml.dom.WMLSetvarElementImpl,0.010053195851316856,-0.009301719560707265,0.005110281379063624,-0.009734352232129751,-0.0011331297219195878,-0.003088056359157214,0.0005269533944265786,-0.028161209356557367,-0.004093543442976909,0.003335914557492841,0.03165571525838866,-0.0380911968785712,0.2799273022376465,0.9537139340072452,0.015645786323233834,-0.026013465195896597,0.017687516024215585,0.02708190604606442,-0.00273141647081289,0.015494415400695438,0.0004594209534666452,0.018463761455415065,0.02219528933462193,0.012966415196957924,-0.06944078540224337,-0.013983806026447458,0.009334225931856116,0.0011465344532054797,0.011386344046602668,-0.002951192568800853,0.0021734509114219916,-0.0032611208932489676,1
org.apache.wml.WMLAnchorElement,0.006129529448183006,-0.005874151849723476,0.0033893578334802405,-0.006343361507579205,-0.0006204695784904003,-0.0010231526778814717,0.00023304957304108055,-0.012633222845703965,-0.001077864001456124,0.007885155228223037,-0.013607039691189137,-0.0016534953782869428,0.010058297636970172,0.058555678571343375,-0.006281007893948847,0.009215144513141357,0.042596417603503724,-0.04515204237431533,0.003997030688787896,-0.009194591194741704,0.06903898006554161,-0.14583288696414787,-0.11455112106334824,-0.1372737393233373,0.9169070487202855,-0.014504757679714033,-0.2233557125509946,-0.06598331540047225,0.0295139344284256,-0.15778899800092377,-0.0984866045955511,-0.056724828704164995,1
org.apache.wml.dom.WMLWmlElementImpl,0.010053196205210335,-0.009301719452632968,0.0051102840933721135,-0.009734355789722588,-0.0011331374907742214,-0.0030880597141947456,0.0005269509077593292,-0.028161252040462614,-0.0040935699850204324,0.003335885540877618,0.03165576237930355,-0.038091110854477604,0.2799273875933938,0.9537138567155459,0.015645869230404955,-0.02601369678180393,0.017687909462763485,0.027081794656857075,-0.002731485730908382,0.015494580838040799,0.00045986169219324315,0.01846347946120867,0.02219413641324385,0.012966699447293877,-0.06944155225085905,-0.01398439160069759,0.009335741285389897,0.0011477279318073514,0.01138475226486987,-0.0029512173906075857,0.002173834956658231,-0.003262186139446565,1
org.apache.xerces.dom.DeferredEntityImpl,0.1332595517788229,0.02696472877803575,-0.07536899650107731,-0.13305416624975017,-0.08578203966993271,-0.01847896148368256,-0.021462523295406308,-0.1292805498592282,0.02341305923052237,-0.0197620094154197,-0.11554372690241259,-0.03739303273609363,0.2166953624495673,-0.07197472566411973,-0.04535773974899817,0.3354238143039095,0.18010384318362618,0.04015651532443994,0.031144605033352885,0.18168627335751789,0.022424767560489996,0.02150910611806861,0.07492935740031258,-0.2575573753006414,-0.15084861326177096,0.07698172368169773,-0.2630200916000894,-0.396945589119075,0.4434020844172396,0.3157229240332239,-0.22606217528474135,-0.08427856556817716,1
org.apache.xerces.dom.LCount,0.1612819009749408,-0.11656616853366951,0.044714544483503815,-0.10365887705916484,-0.008453360739394225,-0.019353295133411576,0.005587575355135537,-0.2574228852869442,-0.012388398465831646,-0.058614518317175485,-0.2039907855670719,-0.007991512661845154,-0.05890017019563228,0.017572970526432606,0.012076865717295576,-0.09511827275140025,0.12740547778871567,-0.002854799671466648,0.0027942416542603168,0.4270473414345465,0.01376062835772662,-0.4007115391704772,-0.027373812926061815,0.07190617005901581,0.07077425179446198,0.025358746164384705,0.007747325421116138,-0.15232856742808987,0.21378762246113883,0.4428750074152386,0.2863640581533854,0.3234427429185717,1
org.w3c.dom.html.HTMLMapElement,0.03805025107220671,-0.03958468526477405,0.025078287214278457,-0.04427933741872693,-0.007559324607113361,0.6807579745661213,-0.0015208365441438095,0.1213379587096927,0.00594628448403184,0.008737745017089706,-0.013801765384823653,0.5933789408330449,0.07022541968618198,0.011877871067209143,-0.0023215118015783276,0.03698159960943012,-0.042613465260182226,0.039361929404459955,-0.006226837662791545,0.08719043306574359,0.06493307492058814,-0.009201586845200118,-0.28517964550884684,-0.1907369752304633,-0.0883959022672911,-0.028400176726255815,-0.0742773559040082,-0.009578306203270133,-0.025379214963936324,-0.035270983537852185,-0.0697598751180562,-0.057760857909719535,0
org.w3c.dom.DocumentFragment,0.37304992288193356,-0.27956145658176784,0.09892546688452272,-0.1109299265702029,-0.022428853324880895,-0.0853985722415207,0.0033425912446989735,-0.07414680417469374,-0.03468585653947807,0.06606523386782256,0.3087013866198223,-0.02647620465430446,0.12047830098623528,-0.05525329821626348,0.0007351858963357621,0.011926624808310119,-0.30908319817642105,-0.08721754744132507,0.01977556309459879,-0.25130939431720745,-0.4280638913932173,-0.026687365658474994,-0.20260692504674657,0.0063595224458145826,-0.05630905915003403,0.12364023638251795,-0.04794991066173611,0.006594642195212991,-0.03607977137352672,-0.23366073178547306,0.3991649727658113,0.015709043829277222,0
org.apache.html.dom.HTMLTableCellElementImpl,0.03849776852483531,-0.04012383393515381,0.026367879197113725,-0.04955694505683558,-0.008459645959101992,0.8680726947587227,0.00033213795255685103,0.13868000369598546,0.0008689813424471487,-0.048161602555456366,0.06759212024990507,-0.23941678515084217,-0.0024488776412623504,-0.012073950999565004,0.0036016532978636866,-0.007715144972068837,-0.018192865801463756,0.0394684425761386,0.012834843897743852,0.1381916366384274,0.02714321114278287,-0.01714858997841106,-0.3230759024617208,-0.1501963205092576,-0.06997369542075968,-0.027386582988329276,0.007240577829298491,-0.003551772736867625,-0.023579210413624062,0.003230122750675339,0.024834385929598853,-0.021363908815421523,1
org.apache.xerces.dom.DeferredElementDefinitionImpl,0.22638878608676355,-0.16269761656422616,0.060192722541062914,-0.16750482784802515,-0.037108570324714575,-0.03779671881956264,0.003091011679384905,-0.3245618804607795,-0.009310313570613462,-0.13965928798771435,-0.025958149226246206,-0.02401217413379125,0.07449373767018125,-0.03538066847870421,-0.09486718647346308,0.3453063980979126,0.11316926825975224,-0.1252704678561746,0.03134156653565917,0.23102149847550416,0.022417180623575842,-0.11378179771979469,-0.051535072718924387,-0.04053065187156557,-0.1481949773272042,-0.02063554432968833,-0.23048400243023853,-0.435033171389414,0.3626186624945934,0.28795690589082384,-0.11125445043229502,-0.18549337491220777,1
org.apache.xml.serialize.Serializer,0.14257944213576465,-0.06215273472625295,-0.050163434880338406,0.23898824277133232,0.0057479038878386676,0.02139004998607272,0.0029103026931749073,-0.08489630307816494,-0.11425014229939622,0.8394567992086929,0.14956369783885168,-0.05966260746157586,-0.016503441943435997,0.0003969466211681699,-0.05285214723893756,0.19509233504494167,-0.23835602194750863,-0.016896249832945867,0.010005766540818428,0.10337721569493402,-0.005229173169959847,-0.1311723120271259,-0.013805123029396961,0.06977002875346942,-0.01583080581229281,-0.08607513417440286,0.030114700602353748,0.059936456766384184,-0.0006802566385029142,-0.006174294874299101,0.04653289599409948,-0.1383207332368858,1
org.xml.sax.ErrorHandler,0.21318131488305977,-0.00796933504494132,-0.149443597899388,0.49991081051773917,0.007045354880312782,0.01928189902256372,0.006104208911471251,-0.029549186907291365,-0.012928840482428724,-0.18960353262852772,0.21469177372600506,0.04814560766069952,0.15839717542244114,-0.05588983593868787,0.07223901141667705,-0.23863324048177703,0.5146303169703906,-0.11469772936991515,0.011368179355847588,0.05600225027356617,0.07159814483794655,0.006978018950565265,0.028525456552408963,-0.019667739602396685,-0.097076438505975,0.14818636747821656,-0.2270377672168541,0.0106510007142507,-0.12582730426617728,-0.30973146829693704,0.04300584969371401,0.1473436977949986,0
org.w3c.dom.DOMImplementation,0.4180469948602177,-0.2906657450986167,0.08262426037235518,-0.06318261233482071,-0.00925791172416257,-0.05458309595555879,0.007672173687554974,-0.2995396212675696,-0.03984468511725085,0.002017757994670081,0.14905907940277385,-0.037776287176288774,0.06968621168355423,-0.008810825060850893,0.0187156949560951,-0.12233169062505814,-0.06827186280780363,-0.12275845434727126,-0.0010590916711295864,-0.24573896125478753,-0.2624043494362905,-0.08384589791614563,-0.2698465505502207,-0.21502445284952473,0.12291692113156792,0.12766789836195025,0.08444386142333703,0.0855549119006921,-0.05520091330509443,0.12259878110377431,0.4074159116987629,0.2943047956527587,0
org.apache.xml.serialize.BaseMarkupSerializer,0.27888758166629624,-0.15681046191172401,-0.004989220128274997,0.15459300305414095,0.007891468956446348,0.008710991334704458,0.002175876586229799,-0.13334724679263787,-0.09911269515926026,0.7784772136212801,-0.100884141813966,-0.07312666889302454,-0.1113529836170616,0.026905225098725918,-0.03699574027122375,0.08538584080469205,-0.1313131598068692,-0.023573038483459634,0.014956540039277889,0.026870552147244986,0.11898341168653483,-0.1489294113630873,-0.03380463505077115,-0.0688094956336398,0.017467169155534232,-0.15249370365325676,0.18932445905392944,0.24016771252512967,-0.13622341261920373,0.014481321219056504,-0.053118602927503415,-0.05472658097180053,1
org.apache.xml.serialize.HTMLdtd,0.09646648609351259,-0.05663577168728455,-0.0071086874789592904,0.10304478000442534,0.016095159882339335,0.010227345005250424,0.005577275157069374,-0.08345895922838202,-0.09327083731384148,0.7527807992810448,0.45099671088561977,-0.02571711032191919,0.13012168224902187,-0.08206153403952353,0.041163987198343466,-0.04321820056180386,-0.0432394648161994,0.06737786481541008,0.01337086946122766,0.11390187896713962,0.0969270117695659,0.0014996435761920996,0.0769049952583536,0.03846418428454967,0.05073039297364756,-0.1199755817313086,0.13492049972599374,-0.07866702878214754,0.10410032256238731,0.08315035279177609,0.20561087723752747,-0.1582801701656982,1
org.apache.html.dom.HTMLTableSectionElementImpl,0.03490705831535718,-0.03655104063567557,0.02418663170734364,-0.04481048585033229,-0.007286757316139238,0.7730796767451814,-0.0003931818447630979,0.130255104060563,0.0030945852174597676,-0.013121350905657114,0.02528160892860372,0.22153289858115774,0.038486873314792926,0.0013475862544332718,7.940929278681969e-05,0.013849532807257208,-0.04337107824313919,0.048961659708255834,0.006604823857278071,0.1356527631578462,0.05155086526124354,-0.018784067051287157,-0.4599135355119048,-0.2623706595624165,-0.12446591573567578,-0.05770083620804999,-0.035321738184683364,-0.008452373093571355,-0.028051814763145787,-0.01777146846661214,-0.00832902966553236,-0.03468495681675323,1
org.apache.wml.dom.WMLEmElementImpl,0.010053191384180702,-0.009301714559686456,0.005110283526541447,-0.009734351456855281,-0.0011331209207005321,-0.00308805205382918,0.0005269769821139348,-0.02816118064816819,-0.004093526470780735,0.0033358735900294355,0.031655728927268666,-0.03809128653741517,0.2799272009817939,0.9537137753606988,0.01564580744760189,-0.026013286291015514,0.01768744331594498,0.027082035365950354,-0.002732058804723142,0.015494508499583648,0.00046008736975594394,0.01846362663199303,0.02219519613394744,0.012966759531907401,-0.06944298986266816,-0.013985191082102767,0.009333390617536427,0.0011469232339527632,0.011387629902034168,-0.002951328010019522,0.002173564266086836,-0.003259655249563711,1
org.apache.wml.WMLUElement,0.006129439399866872,-0.005874061172028313,0.003389315421936467,-0.006343254837188763,-0.0006205857718476657,-0.0010230171594150512,0.00023266497342705662,-0.0126334922911405,-0.0010784949832026976,0.007885121614983807,-0.013607240348567083,-0.0016518501749243934,0.01005931383222187,0.05855280874003798,-0.006281546693961653,0.009212362116704923,0.04259796519654702,-0.04515784865493481,0.0040044806432095285,-0.00919740586806301,0.06903305839778491,-0.14582916254245765,-0.11456242777343245,-0.1372641633551526,0.9169111897974532,-0.01450525894139783,-0.22334230928625187,-0.06596698828237207,0.029487196983504615,-0.15778701631526407,-0.0984940705037356,-0.05674947460728257,1
org.apache.xerces.dom.ProcessingInstructionImpl,0.31636899215114045,-0.2378058928574781,0.08991610983022878,-0.17307626535706516,-0.024884618579378792,-0.020781457476112097,0.013115391844837461,-0.3224095924220546,-0.035173462604107204,-0.1588191620972256,0.14952727495678836,-0.001578707995219579,0.06502295831626892,-0.039460766461374266,-0.13156212551364876,0.416139322312416,0.03878267023099408,-0.35552657007169597,0.03517048577818034,-0.2766022708612054,-0.1298460865928012,0.0022215527399398315,-0.053808553563187436,0.08666322564093107,-0.1885178714773063,-0.1433596588662201,-0.08508839154822055,0.058093954778617125,0.1015649916211263,-0.18928141711036953,0.30268732006119636,-0.1329364955623127,1
org.w3c.dom.html.HTMLHtmlElement,0.03358174371118879,-0.033866899044475096,0.021438727872675475,-0.04050534526707012,-0.006254094289679575,0.6494880806006488,0.0010947176877769327,0.08296911357020248,-0.0004809078181161665,-0.057357776552592894,0.0795755815853953,-0.5307608221696531,-0.03207490585622983,-0.013080087825983647,-0.004223693314223374,0.018753299133552465,0.004334574306613859,-0.025255782693189482,0.004314404824037503,-0.056333432500579594,-0.054987066435311954,0.021347646320254227,0.38442177056094934,0.27029524265715527,0.13013561576418525,0.11838197758630875,0.03487191582350834,0.01569231487484635,0.014338851870788132,0.09304810791050547,0.044638704883164765,0.050313972631219735,0
org.apache.wml.WMLFieldsetElement,0.006129497155829546,-0.005874122245615307,0.0033893580194170885,-0.00634331679409304,-0.0006205611395916942,-0.0010230704843132595,0.00023275798490267997,-0.012633384978483746,-0.0010780089929713261,0.007885009180976803,-0.01360670852275725,-0.0016523245733210015,0.010058594087341933,0.058554560531806556,-0.0062818162683297585,0.009213680933866654,0.04259644840673546,-0.04515567761990214,0.00399945590253262,-0.009198461233132863,0.06904045848897984,-0.1458310147033363,-0.11456289346384593,-0.13726834321518794,0.9169071499327343,-0.014514300468136026,-0.2233452326848205,-0.06598022596372785,0.02949628860603264,-0.1577849181026598,-0.09850084767025438,-0.0567513396413591,1
org.apache.xerces.dom.RangeExceptionImpl,0.20170115094380187,-0.17069339677911766,0.07351042689259317,-0.12378371824934048,-0.029098343358199972,-0.042570866395135236,0.007061142861309377,-0.2000091061943027,-0.020785943008201028,-0.17968266750659637,0.11566875825362673,0.014074617080473698,0.07324470584458996,-0.04868574115897623,-0.034440975496130705,0.06737417836548262,-0.17329132358760158,-0.1794972236674099,0.0394965394252184,0.042630357139435186,-0.27865955895305894,-0.3720161323869415,0.022500877934694904,0.1807142214117197,-0.1649252813012105,0.1508361080961588,-0.08499450034443097,0.07058636108866476,-0.2539526297908766,-0.012522861738998598,0.49197009763895305,-0.3511504708263438,1
org.apache.html.dom.HTMLIFrameElementImpl,0.027369296588594664,-0.027856821043648443,0.01802980615213132,-0.0350541007937284,-0.005335421875657143,0.6091625647361771,0.0015016786877487466,0.08074420156553627,-0.0008045952637301999,-0.06804603035911773,0.1001664634564788,-0.7443299139171711,-0.05074325711132171,-0.017392454893478355,0.0052137768802652355,-0.013430678538177998,0.009823266652140982,0.003981427363174913,0.000743780064652167,0.0025529848044770795,-0.021866637549812402,0.013614488864344078,0.15316976373672708,0.11814292851736917,0.05554403640631443,0.0573049481983953,0.007238338537929541,0.0019263891411149183,0.008765620561762827,0.03907611741698977,0.01785321646469931,0.03108399306834069,1
org.w3c.dom.html.HTMLDListElement,0.015508908473855276,-0.0158014803601234,0.010272828009749031,-0.018497441112832948,-0.00233106557297046,0.20766367813303555,-0.0010219304106479697,0.025645238204282755,0.002489309353971075,0.01483458869062494,-0.04500000020691063,0.424794131364508,0.03737447977903966,0.010918425914937526,-0.019833917175985854,0.06427910352121018,0.01239546255109793,-0.06974423167065728,0.008658554690971234,-0.16943147913818676,-0.07012396734182295,0.05302935620286535,0.6677863754008363,0.41821153847100445,0.2031678368693893,0.17765945183423515,0.07116535090029757,0.045872176090141,0.01712575289213359,0.1438422069142781,0.04484319117423371,0.034039041694565154,0
org.w3c.dom.events.DocumentEvent,0.1461856867793597,-0.11085658090471712,0.04478557874925786,-0.09991580395289805,-0.009034884735768484,-0.020211557215225343,0.006446228940832973,-0.27398697599035965,-0.016569050789983594,-0.08757856304648585,-0.11823233589549323,-0.0071781513931914185,-0.0168679587841539,0.0010265719888134864,0.004209386691765122,-0.043411074492139656,0.053856535589132705,-0.025355704794411085,0.003304165987088232,0.37826117480751004,0.027947669665302655,-0.42425037930981946,-0.049864947381754725,0.06949116092728454,0.049337940217513816,0.06928409979148387,0.00023861893910527386,-0.05804696392597729,0.025861728485698638,0.4962650392828242,0.23734817766063462,0.4538518023010289,0
org.apache.xml.serialize.XMLSerializer,0.21255849757591258,-0.11167030407699648,-0.002558649337585482,0.1412639303011291,0.028101457810176738,0.027419573304256577,-0.004254724354704654,-0.09396122357154224,-0.0806720331814651,0.8497889349802521,-0.1517393218717513,-0.0335769524522827,-0.16038898438143856,0.03944709425022237,-0.014892430746965547,-0.004792630292567706,0.020697573820625755,0.06351388302494937,-0.013829583176007952,0.06119508564235253,-0.012121744119672448,0.1281893397700913,0.04474517329694098,0.0064246051082584715,-0.04627574438400287,0.1769334059401968,-0.16448708722619684,-0.060270657389953235,-0.07191092652037463,0.08167209967839456,-0.14385595587464714,0.08932256333520164,1
org.apache.html.dom.HTMLFontElementImpl,0.027369293047499136,-0.027856818370953954,0.018029804520600313,-0.03505409622324596,-0.005335425455298858,0.6091624778289465,0.0015017216802325748,0.08074424164241077,-0.0008045489815632583,-0.06804604440658368,0.10016644307224401,-0.7443299281789764,-0.050743265121766225,-0.017392212629099537,0.005213747892245294,-0.01343058123323233,0.009823147941889623,0.003982153622625574,0.0007438287826151867,0.002553985805784237,-0.021866622736037646,0.013612611784541958,0.15317115877257648,0.11814161609391292,0.0555430135636292,0.057305271920049486,0.007237022576550288,0.0019285975728081277,0.008767143349904876,0.03907616796609172,0.017856348893262305,0.03108338067460924,1
org.w3c.dom.CDATASection,0.3363137425817744,-0.2488130999204575,0.08107171407038072,-0.06766919324877815,-0.0225129051987302,-0.08982048984099132,0.0007187313687152213,0.08294606424405827,-0.011286479092450468,-0.07192933826522022,0.19522835378335068,-0.03104943302754631,0.06371999600221184,-0.02866962918555645,-0.023617419320096967,0.05446577181223819,-0.09071139089427566,-0.13364607999036843,0.025622928338005627,-0.29833423209708465,-0.48475408296815714,0.10208521999372822,-0.19692710772491676,0.014037441725731948,-0.03335065345272148,-0.10058059309703367,0.009680491673911188,-0.115866072254184,0.15192542156444744,-0.3135966208321398,0.44375713392520205,0.04863631294974048,0
